14 128
34 -0.001833 -0.007488 0.004513 -0.000208 0.005071 -0.008041 0.007948 0.002053 -0.002234 0.006704 -0.013083 0.003232 -0.001951 0.002139 -0.003073 -0.005692 0.005479 -0.001160 0.003029 0.003495 -0.003015 -0.000917 0.008680 -0.000610 0.001373 -0.009245 0.001546 -0.000702 0.001204 0.004877 0.007842 0.004997 -0.004347 0.001961 0.001675 0.006208 0.002839 0.002423 -0.003287 0.005761 -0.000437 0.004760 0.006407 0.003192 0.002070 -0.004261 0.002138 -0.002073 0.002684 0.001833 0.006042 -0.002861 0.000794 0.006208 -0.002311 -0.005433 0.004159 -0.003130 -0.001707 -0.001298 -0.007308 0.005789 -0.005782 0.003001 -0.002323 -0.003347 -0.002103 -0.003370 0.009287 0.003607 -0.004187 -0.000873 -0.005189 0.002818 0.000005 -0.004195 -0.004032 0.003326 -0.001008 -0.007905 -0.005800 -0.000964 0.004142 -0.001048 0.009328 0.007631 0.002252 0.001731 0.001240 0.000226 -0.000896 0.001870 -0.001920 0.004369 -0.000745 0.002713 -0.001614 0.008184 0.001956 -0.000307 -0.000759 0.004758 -0.007984 -0.004326 -0.007041 0.004675 0.010544 0.004970 -0.003209 0.002916 0.008125 0.001143 -0.005183 0.002997 0.000812 -0.005496 -0.001719 0.001809 -0.007460 0.007575 0.003599 -0.004911 0.006801 0.002158 -0.006837 -0.002383 -0.002327 -0.001349
80 0.000899 -0.009994 0.000023 -0.000788 0.003574 -0.003502 0.008013 0.005229 -0.000601 0.005223 -0.012994 0.002020 -0.000287 0.005574 -0.001043 -0.004181 -0.000260 -0.000130 0.000668 -0.001117 -0.002816 -0.000815 0.004424 0.004474 0.001720 -0.006639 -0.002745 -0.002040 0.004011 0.000822 0.006982 0.006997 -0.002945 -0.000747 -0.002247 0.003622 -0.000255 0.001278 -0.005243 0.005248 0.001374 -0.002455 0.001774 0.001275 0.004205 0.002619 0.003429 -0.001193 0.003422 -0.001283 0.006752 -0.005514 -0.004792 0.001322 0.002028 -0.005751 0.000853 -0.006998 -0.006021 0.000287 -0.002107 0.001042 -0.000052 0.005756 -0.001240 0.001370 -0.002354 0.000253 0.006690 -0.000223 0.000683 0.001738 -0.001397 0.001505 -0.003192 -0.006417 -0.001970 -0.003454 -0.003860 -0.012004 -0.003507 0.001494 0.002243 -0.002242 0.008466 0.005059 0.003938 0.004333 0.006655 -0.003433 0.004897 0.004824 0.002300 0.007799 -0.001962 -0.003241 0.002892 0.001838 0.003146 0.003716 -0.000182 0.003791 -0.007697 -0.001325 -0.004131 0.006940 0.008909 0.006148 -0.003059 0.002763 0.005216 -0.000591 -0.004992 -0.002852 0.003586 -0.003551 0.000599 -0.002730 -0.007231 0.003759 0.002571 -0.007360 0.003820 0.006039 -0.006657 -0.007593 -0.006283 -0.002462
135 -0.001390 -0.005666 0.000573 -0.001755 -0.001428 -0.006876 0.005440 0.005509 0.002538 0.004219 -0.002570 0.005193 -0.003693 0.004218 -0.000233 -0.005446 0.002673 -0.004076 -0.002893 -0.002314 -0.005521 -0.001889 0.006396 0.001799 0.003249 -0.007508 -0.001340 0.000946 0.000657 0.001210 0.003310 -0.000968 0.001360 0.001467 0.000522 0.005393 -0.003943 -0.000880 -0.001879 0.006544 0.002553 -0.000275 0.000638 0.001815 0.004842 0.001032 0.002233 -0.002987 0.002185 0.000301 0.005266 -0.004219 -0.003079 -0.001286 -0.003691 -0.002120 0.003233 -0.003624 0.002260 0.002487 -0.001476 0.002827 0.001507 0.002239 -0.001547 -0.003756 0.000884 -0.002758 0.002385 0.003142 -0.005416 0.000899 -0.001869 -0.001197 -0.000032 -0.000888 -0.002899 0.001461 -0.000676 -0.009522 0.000196 0.003057 0.002891 0.001944 0.007237 0.004368 0.004882 0.002632 0.003863 0.000266 0.000276 0.002883 -0.002381 0.002120 -0.001534 -0.002379 0.002607 0.001671 0.004932 0.000569 0.001408 0.001765 -0.007619 -0.003325 0.000217 -0.000140 0.005160 0.007100 0.001110 -0.001539 0.002495 0.002613 -0.002222 -0.001312 -0.002045 -0.006205 -0.004758 -0.002555 -0.007906 0.002427 0.002213 -0.000383 0.005420 0.002524 -0.000466 -0.004255 -0.004043 -0.000236
104 0.002689 -0.003596 0.000865 -0.003550 -0.001661 -0.004680 0.002832 0.000015 0.001003 -0.000182 -0.002056 -0.000212 -0.001309 0.003831 0.000533 -0.003015 -0.001564 -0.004220 -0.001020 0.000684 -0.000126 0.002759 0.003627 0.004507 0.003312 -0.004140 -0.001669 0.000644 0.003049 0.004682 0.004286 0.003714 -0.000110 0.001006 0.001071 0.002710 0.003192 -0.002724 0.002257 0.003624 0.002399 -0.000156 0.005084 0.001096 -0.002286 -0.003609 0.001641 0.002762 -0.001926 -0.003981 0.000700 -0.003942 -0.000692 0.004889 -0.003325 0.002529 0.000311 -0.001197 0.002792 0.000190 -0.005480 0.004128 -0.000780 0.004613 -0.004082 -0.001701 -0.000006 -0.000115 0.002504 0.003796 -0.000069 0.002534 0.002590 -0.002408 0.001821 -0.005164 0.000268 -0.003722 -0.000665 -0.003878 -0.000801 0.003637 0.002926 -0.002335 0.001417 0.001192 0.003543 -0.000597 0.004497 -0.001919 -0.000014 0.000461 -0.003498 0.002558 0.003333 -0.000738 0.001094 0.001554 -0.000975 0.003107 0.000228 -0.000758 -0.006203 0.002561 -0.002156 -0.001695 0.005920 0.004166 -0.002130 -0.002803 0.003963 -0.002241 -0.001583 0.002065 -0.002406 -0.002226 -0.002466 -0.004347 0.000509 -0.000556 0.004074 -0.002836 0.003500 -0.003102 -0.001156 0.000962 -0.004767 -0.003202
207 -0.000748 -0.007130 0.001093 -0.002059 0.002338 -0.006663 0.006018 -0.000676 0.003208 0.006923 -0.008550 0.005531 -0.002498 0.004983 0.000255 -0.000475 0.003257 -0.000507 -0.002809 -0.001862 0.000776 0.001737 0.003630 0.004192 0.002437 -0.008109 -0.004710 -0.001552 0.004608 0.001978 -0.000345 0.003885 0.001264 0.003096 0.003648 -0.001429 0.001315 0.001515 -0.005706 0.002520 0.002690 0.003665 0.003293 -0.000034 0.006357 -0.001720 -0.000771 0.003457 -0.000522 -0.001019 0.002301 -0.004685 -0.001225 -0.001104 0.000886 -0.000757 0.006206 -0.005491 -0.001393 -0.000642 -0.006638 0.004104 -0.000563 -0.000631 -0.001759 -0.001874 -0.001213 0.002029 0.007222 0.002570 -0.000538 -0.004200 -0.000673 -0.001566 0.001950 -0.002933 -0.003736 -0.000093 -0.004609 -0.011493 -0.003959 -0.001083 0.001500 0.000550 0.005712 0.001411 0.001531 -0.001886 0.006989 -0.002977 0.004866 0.000895 0.003048 0.002605 0.002008 0.003652 0.002264 0.003509 0.000015 0.004229 0.000611 -0.000909 -0.006800 0.001201 -0.003467 0.001627 0.002340 0.006601 -0.000079 0.002118 0.004194 -0.000024 -0.005321 0.003090 0.004024 -0.003425 -0.003944 -0.002672 -0.004585 0.004834 0.006561 -0.006890 0.001054 -0.000122 -0.005521 -0.006679 -0.002309 -0.000786
131 -0.002030 -0.006116 0.000950 -0.004411 0.002282 -0.002480 0.005874 0.002798 -0.003121 0.007855 -0.009188 0.006351 -0.005569 0.001353 -0.000615 -0.004033 0.003721 -0.002917 0.000345 0.000666 0.000705 0.001546 0.001608 0.001528 0.004542 -0.002611 0.001962 0.003124 0.002607 -0.000636 0.004500 0.002378 -0.004973 -0.002960 -0.003251 0.004310 -0.002992 -0.001564 -0.002902 0.004398 0.004421 -0.002656 0.005112 0.004204 0.005584 -0.001142 -0.003407 0.000703 -0.000936 -0.003526 0.002335 -0.005174 -0.002556 0.000918 0.003610 -0.003745 0.005260 0.000871 0.001279 0.002871 -0.007071 0.001420 -0.000136 0.004597 -0.004049 0.002404 -0.003643 0.004014 0.007331 0.005238 -0.003538 -0.001208 -0.002677 -0.002475 -0.000845 0.001502 -0.001365 -0.002281 -0.002161 -0.010329 0.000023 -0.000122 0.000072 0.004502 0.006236 0.002461 0.003944 0.002072 0.001720 -0.004067 0.003658 0.001892 -0.003805 -0.000237 0.002946 0.001090 0.002247 0.005402 0.005434 -0.002140 0.002415 -0.002216 -0.008801 0.001342 0.000201 0.003996 0.004797 0.006322 -0.003508 0.001247 0.007372 0.002266 -0.006085 -0.002535 0.002017 0.000912 -0.005011 -0.004957 -0.005656 0.003246 0.003238 -0.000593 0.004738 -0.002250 -0.004513 -0.006283 -0.006250 0.002049
146 -0.003666 -0.006733 0.003415 -0.004921 -0.002080 -0.008719 0.001468 0.003533 -0.000104 0.008379 -0.012134 0.005940 -0.005020 0.005425 0.003528 -0.000594 0.000701 -0.004061 0.000336 -0.001887 -0.006574 -0.001443 0.004024 0.004769 -0.001319 -0.009187 -0.000726 0.001586 0.004699 0.004726 0.006379 0.002380 -0.002868 -0.001758 0.002855 -0.000162 -0.003058 -0.001087 -0.007857 0.003743 0.002328 0.002838 0.006016 -0.001936 0.003666 -0.001936 -0.001572 -0.000957 -0.002379 -0.003621 0.005117 -0.004641 -0.003454 0.006747 -0.000204 -0.003277 0.006963 -0.006742 -0.005037 0.000735 -0.005036 0.006470 -0.002381 -0.000751 -0.004313 -0.003400 -0.000198 0.003230 0.007924 0.000696 -0.005181 -0.002110 -0.003259 0.002155 -0.001913 -0.007726 -0.002734 -0.001353 -0.000125 -0.012489 -0.000164 0.001132 0.002015 -0.001068 0.008510 0.006303 0.001155 0.003403 0.002964 -0.003736 0.003069 0.001768 0.000450 0.005484 0.003934 0.000885 -0.004073 0.007861 0.005438 0.002064 0.004213 -0.001066 -0.010193 -0.004493 -0.004686 0.007508 0.010510 0.005624 -0.005540 -0.001551 0.009169 -0.003224 -0.006555 -0.001176 0.000530 -0.005277 -0.002027 -0.003800 -0.009704 0.003960 0.007970 -0.008199 0.004161 0.004961 -0.003812 -0.006843 -0.001259 -0.004953
150 0.002588 -0.004625 0.004448 -0.004999 0.001827 -0.000660 -0.001355 -0.001424 0.000270 -0.000487 -0.003497 -0.000767 -0.002876 -0.002594 -0.001041 -0.004809 0.002744 0.002749 0.000375 0.002200 -0.004932 -0.002972 0.004496 0.000322 -0.003489 0.000436 -0.000320 -0.000567 0.001317 0.002478 -0.000978 0.004676 0.002587 0.000749 0.002931 0.003172 -0.003980 0.001128 0.000197 -0.001723 -0.001312 0.001024 0.002629 0.001427 0.005142 -0.001736 -0.001173 0.003662 0.001982 -0.003131 0.005212 -0.001251 -0.002269 0.000054 0.000305 0.000036 0.003730 -0.005369 0.000179 0.001154 -0.004272 0.001779 0.000765 -0.000921 -0.002252 -0.000285 0.001636 -0.001516 0.001455 0.003308 -0.003676 -0.000925 -0.003459 -0.002605 -0.003351 -0.003093 -0.001721 0.002997 -0.003574 -0.007537 -0.002859 0.003138 0.003440 -0.001485 -0.000904 0.002195 -0.001520 -0.001418 0.001873 0.001926 0.002164 0.000969 -0.002593 0.003887 0.002823 0.000739 0.002111 0.003401 0.001658 0.003832 0.000456 -0.002949 -0.003205 -0.001588 -0.000867 0.003631 0.007205 0.005068 -0.002098 0.002599 0.006370 0.003013 -0.004136 -0.004027 0.002158 0.000117 -0.002054 -0.000648 -0.003297 0.001529 -0.000773 -0.000283 0.005113 0.000585 0.000094 -0.000224 -0.005497 0.000133
57 0.001588 -0.002674 -0.002609 -0.004921 0.002256 -0.001455 -0.000015 0.000984 0.001135 0.004137 -0.004910 0.001077 0.000922 0.001810 -0.002065 -0.005534 -0.001312 -0.001054 -0.000584 0.000913 -0.003177 -0.000178 0.005276 -0.000161 -0.001314 -0.000739 -0.002193 0.004067 0.002582 -0.000415 -0.000596 0.005139 -0.000700 0.001225 -0.000081 0.004414 -0.004151 -0.001425 -0.003766 0.004407 0.002728 0.000483 0.001726 -0.000898 0.001296 0.002261 0.001838 -0.000154 0.001382 0.001762 -0.001249 -0.000583 -0.002915 0.000301 -0.001297 -0.003301 0.002319 0.001602 -0.000584 0.001658 -0.005526 0.005367 -0.004630 0.002310 0.000574 -0.003201 -0.000159 -0.001771 0.001766 0.001928 0.001737 0.001617 0.001571 -0.002440 0.003759 -0.003951 0.000744 0.000348 0.002836 -0.002808 -0.000260 0.004027 0.004794 0.002187 0.006316 0.003912 0.002114 -0.001996 0.000461 0.001266 0.003454 0.002903 -0.003660 0.004761 -0.003101 0.001046 0.000830 0.003958 0.003799 -0.002137 0.001970 0.002113 -0.007033 -0.003403 -0.002598 0.006145 0.005664 0.006195 -0.002087 0.002324 0.004916 0.000704 -0.006530 0.001416 -0.000598 -0.002127 0.001603 -0.003575 -0.004040 0.002050 0.003820 -0.004233 -0.000373 0.001261 0.000497 -0.005033 -0.002190 -0.003011
147 0.002347 -0.001072 0.004086 -0.000332 -0.002147 -0.008323 0.003665 0.005815 0.003025 0.009125 -0.009243 -0.000652 -0.003811 -0.000595 0.000238 -0.007177 -0.001222 -0.002826 0.000420 0.000460 -0.006117 -0.002041 0.005303 0.002808 0.000418 -0.002605 -0.003195 0.002498 0.001618 -0.000654 -0.000209 0.004191 0.000785 0.002006 -0.003668 0.004201 -0.003628 0.002918 -0.006275 0.002356 0.001939 0.002249 0.000185 0.002416 0.003582 -0.000177 -0.002960 0.002259 0.001402 -0.001565 0.005424 -0.004757 -0.000945 0.006152 0.002392 0.001638 0.005723 -0.006385 -0.001111 -0.003445 -0.005889 0.002269 -0.001965 0.002509 0.001373 -0.000122 0.002060 0.001729 0.001907 0.004978 0.001512 -0.001465 0.000414 0.002050 0.002652 -0.005872 0.002072 -0.002578 -0.005252 -0.011793 -0.004189 0.000490 0.003669 0.002407 0.006805 0.006104 -0.000199 -0.001565 0.004972 -0.003396 0.003393 -0.001578 0.002124 0.007318 -0.002457 -0.001911 -0.001913 0.005675 0.006920 -0.002053 -0.000715 0.001802 -0.006820 0.000385 -0.004505 0.005802 0.009270 0.004791 -0.000377 -0.000040 0.007841 0.001090 -0.003924 -0.001526 0.002771 -0.006838 -0.005313 0.002133 -0.006906 0.003057 0.002375 -0.001640 0.007338 0.000820 -0.002306 -0.007466 -0.006938 -0.003211
14 -0.001531 -0.008180 0.006028 -0.006035 0.003443 -0.004890 0.002186 0.002071 -0.001544 0.008890 -0.013160 0.005022 -0.004607 0.002555 -0.000348 -0.002627 0.003976 -0.002255 0.001028 -0.002212 -0.000538 0.003728 0.004638 0.004376 -0.000220 -0.003736 0.001960 0.004674 -0.001410 0.005287 0.006048 0.004766 -0.002932 0.003842 0.002641 0.001763 -0.002701 0.000879 -0.005476 0.003821 -0.001875 0.001286 0.004821 0.004043 0.003070 0.000197 0.001030 0.002760 0.000623 0.002828 0.003073 -0.003947 -0.002517 0.005369 0.000392 -0.003334 0.000699 0.000055 -0.004690 -0.002087 -0.005292 0.000227 0.000799 -0.001356 -0.005328 0.001420 0.002182 -0.002486 0.004839 0.000850 -0.005353 0.002286 -0.004636 0.004116 0.003048 -0.001753 0.000570 -0.001119 -0.002781 -0.013541 -0.004500 0.001197 0.005239 0.004914 0.003964 0.008096 0.001065 -0.000566 0.006292 -0.002571 0.001400 0.000367 -0.000670 0.003807 -0.001820 0.004252 -0.002693 0.008432 0.006911 0.001521 -0.002751 0.001550 -0.007801 0.000838 -0.006537 0.006925 0.011426 0.009579 -0.005949 0.000175 0.002146 -0.002404 -0.007433 0.001148 0.005008 -0.005729 -0.005776 -0.002369 -0.007941 0.005566 0.004008 -0.006032 0.004481 -0.001168 -0.001846 -0.006835 -0.006561 -0.001864
70 0.003790 -0.008518 0.000349 -0.004338 0.002628 -0.006687 0.000937 0.005287 0.002391 0.008580 -0.011044 0.005588 -0.003747 0.003660 -0.001430 -0.002460 0.002235 -0.002976 0.002220 0.002436 -0.000759 0.000857 0.002808 -0.001516 0.001162 -0.003820 -0.002083 -0.001249 0.003078 0.004824 0.005420 0.004883 -0.003861 -0.000085 0.000586 0.000498 0.001774 0.003118 -0.003939 0.006718 0.001309 -0.002044 -0.001175 0.001559 -0.001282 -0.000500 -0.001906 0.002000 -0.003094 -0.003807 0.006602 -0.002303 0.002424 0.005156 0.002579 0.000578 0.005573 -0.000418 -0.005378 0.001216 -0.001943 0.004981 -0.004880 0.000559 -0.004708 0.002665 0.001711 -0.000368 0.005938 0.003609 -0.002309 0.001758 0.001182 -0.002733 -0.001647 -0.001151 0.001855 0.001642 -0.001871 -0.010040 -0.000379 -0.002842 0.001209 0.003959 0.008259 0.002172 0.005361 -0.001353 0.003599 -0.000306 0.005089 0.001449 -0.002445 0.006547 -0.000657 0.001088 0.001474 0.002479 0.004909 -0.002890 -0.003645 0.003418 -0.006833 0.000085 -0.002560 0.003811 0.007144 0.006382 -0.003887 0.001104 0.002144 0.001717 -0.005444 -0.000349 0.004600 -0.003504 -0.003525 -0.001050 -0.008953 0.006663 0.006598 -0.006726 0.007428 0.002017 -0.006605 -0.005452 -0.003885 -0.003739
172 -0.000103 -0.001588 -0.001639 -0.005768 0.004580 -0.006833 0.005581 0.004529 0.001981 0.008424 -0.006818 0.005493 -0.001605 0.002815 -0.003671 -0.004431 0.001808 0.000543 -0.002349 0.003337 -0.003187 -0.000875 0.002770 -0.001460 -0.002631 -0.006546 -0.001139 0.002836 0.001486 0.000708 0.004239 0.003438 -0.001274 0.003608 -0.000055 0.003801 0.000030 0.003305 -0.000957 0.003442 -0.002309 0.003800 0.001329 0.000104 0.004689 0.002271 -0.003795 -0.001237 0.000538 0.000664 0.003418 -0.003435 0.001985 0.000034 -0.003334 -0.001023 0.000447 -0.006153 -0.003022 -0.003188 -0.007086 0.000113 0.000393 0.002528 -0.004529 -0.004360 0.003078 0.002412 0.004762 0.004903 -0.005484 -0.000441 -0.004943 0.002731 -0.000890 0.000941 0.003283 -0.003188 -0.003712 -0.010738 -0.004595 0.002310 -0.001421 0.004556 0.008233 0.004429 0.004932 -0.000144 0.007101 -0.003737 0.000236 0.001982 -0.002496 0.006249 0.003206 -0.003282 -0.002252 0.004480 0.003509 0.004702 0.003615 0.001285 -0.009028 -0.004116 -0.001302 0.003770 0.009376 0.006513 0.001888 0.004632 0.005554 0.003387 -0.006633 -0.003324 0.000175 -0.006151 -0.004522 -0.001105 -0.008350 0.001179 0.003798 0.000292 0.004599 0.005401 -0.003048 -0.005889 -0.004266 -0.005564
36 0.003682 -0.005728 0.003478 -0.005202 0.001042 -0.007810 0.006814 0.004255 0.000629 0.007698 -0.008367 0.000046 -0.004874 0.004059 0.001924 -0.000938 -0.000135 -0.004380 -0.001247 -0.003914 -0.002513 0.003185 0.004183 0.005112 0.002202 -0.007889 0.001973 -0.003235 0.000089 0.001683 0.005701 -0.000469 -0.000027 -0.000429 -0.001293 0.001807 -0.001194 -0.000665 -0.005424 -0.001114 0.003059 -0.001660 0.005956 0.002338 0.004754 -0.002952 0.003789 0.001110 0.001136 0.002588 0.003938 -0.002138 -0.000467 0.000045 0.001987 0.002358 0.000527 -0.003176 -0.003171 0.002900 -0.003206 -0.000898 0.001108 0.002592 -0.004279 0.000092 -0.000912 0.000557 0.005091 -0.001406 -0.003863 -0.003791 0.001977 -0.000862 -0.003068 -0.005720 0.002569 -0.000151 0.000042 -0.009779 -0.003609 -0.000040 0.004430 -0.001509 0.005499 0.003420 0.004373 0.004102 0.006636 0.002427 0.000929 -0.002498 0.000184 0.007048 0.003584 0.002256 -0.000469 0.007270 -0.001547 0.004397 0.000084 0.000998 -0.001289 0.001713 0.001655 0.006237 0.004928 0.003847 -0.000591 0.003851 0.002946 0.000098 -0.007129 -0.003559 -0.002432 -0.006281 -0.002183 -0.000460 -0.002112 0.006501 0.002776 -0.001458 0.005417 0.004355 -0.003058 -0.004221 -0.005021 0.000704
