4 128
101 0.114784 0.015760 -0.112005 -0.105798 -0.010103 -0.076318 -0.072804 -0.111185 0.131402 0.032813 -0.020363 -0.034093 0.042671 0.019800 0.074412 -0.023509 -0.054686 -0.029648 -0.040445 -0.034050 0.140172 0.130748 -0.206971 0.178713 -0.026007 0.072822 0.137276 0.096767 0.043461 -0.000479 -0.067570 -0.012056 -0.169955 -0.137334 -0.039436 -0.162977 -0.020813 0.223793 0.079356 -0.134154 0.006684 0.105965 -0.016939 0.098661 0.059164 0.076527 -0.126575 0.027803 -0.165199 0.009420 -0.089520 0.164651 0.102086 -0.040658 0.068185 -0.145049 0.000653 -0.070938 0.075751 -0.140893 -0.032991 -0.003441 -0.076605 -0.187915 0.159576 -0.006600 -0.257268 0.005096 0.040989 0.035071 0.046976 -0.092348 -0.047361 -0.098833 0.010044 -0.058115 -0.126467 -0.217834 -0.061273 -0.058975 -0.018001 -0.245254 -0.042005 -0.100615 -0.141559 -0.149989 0.204813 0.001919 -0.196434 0.112845 0.128712 -0.110999 -0.159043 -0.104198 -0.085524 -0.017790 0.056868 -0.072993 -0.192885 0.050732 0.063067 0.069828 -0.007864 0.056168 0.039208 -0.043407 0.170973 0.033398 -0.088388 -0.084618 0.097303 -0.039028 -0.124999 0.113294 -0.120960 -0.000967 -0.217381 0.100251 0.107695 -0.146852 0.140466 -0.025236 0.079003 0.091433 0.055679 -0.001346 -0.011575 -0.031930
44 0.117050 0.017939 -0.111074 -0.109813 -0.013254 -0.071120 -0.068947 -0.105496 0.130541 0.038365 -0.019207 -0.032598 0.034577 0.016861 0.077009 -0.017908 -0.059699 -0.037581 -0.041339 -0.033780 0.133465 0.131932 -0.207622 0.175076 -0.018925 0.067638 0.138017 0.101487 0.047661 -0.001156 -0.064298 -0.017382 -0.166810 -0.137238 -0.034121 -0.160106 -0.020291 0.221848 0.075086 -0.135124 0.002093 0.105788 -0.016880 0.093648 0.056171 0.073919 -0.123645 0.031805 -0.167154 0.007713 -0.093783 0.160321 0.097994 -0.037861 0.065827 -0.139849 0.000571 -0.077956 0.078334 -0.143386 -0.031176 -0.006219 -0.070736 -0.188164 0.155051 0.000834 -0.254150 0.011491 0.045416 0.034150 0.045927 -0.091835 -0.045260 -0.099675 0.008359 -0.053911 -0.124997 -0.214430 -0.057975 -0.053225 -0.018066 -0.241029 -0.044939 -0.105527 -0.140674 -0.149617 0.203115 -0.001815 -0.198455 0.109137 0.120831 -0.105993 -0.158574 -0.110261 -0.087362 -0.012643 0.061055 -0.067222 -0.192365 0.051405 0.065666 0.071987 -0.011007 0.052878 0.037140 -0.036189 0.172760 0.030050 -0.091355 -0.081143 0.102702 -0.046741 -0.129786 0.112428 -0.120452 0.004083 -0.213171 0.094290 0.103966 -0.145904 0.138180 -0.026227 0.079476 0.096904 0.054184 -0.002526 -0.012580 -0.031366
114 0.110732 0.014996 -0.104145 -0.105327 -0.015217 -0.070306 -0.069279 -0.102513 0.125670 0.033502 -0.019458 -0.033364 0.036959 0.020029 0.075205 -0.020774 -0.051120 -0.027625 -0.039299 -0.035865 0.126594 0.127424 -0.199180 0.171067 -0.018256 0.067929 0.131041 0.094093 0.039143 -0.005303 -0.063250 -0.015988 -0.156121 -0.132067 -0.035066 -0.157733 -0.020707 0.210330 0.076953 -0.127602 0.005507 0.095046 -0.012247 0.090783 0.054874 0.068574 -0.120915 0.024582 -0.159644 0.006022 -0.090049 0.157507 0.092778 -0.032035 0.065449 -0.132057 -0.003660 -0.070764 0.070068 -0.131432 -0.031798 -0.005033 -0.070502 -0.176756 0.145644 0.000541 -0.245809 0.011363 0.039153 0.031838 0.037495 -0.091151 -0.046876 -0.091683 0.006393 -0.053610 -0.114614 -0.204610 -0.060159 -0.055882 -0.014923 -0.231722 -0.042142 -0.102023 -0.133274 -0.143561 0.197201 -0.001947 -0.189768 0.104661 0.123705 -0.105054 -0.155354 -0.102785 -0.079652 -0.013381 0.059372 -0.067152 -0.183507 0.043848 0.059718 0.062495 -0.013823 0.046343 0.037342 -0.036112 0.164918 0.029342 -0.086602 -0.075595 0.097975 -0.040488 -0.124644 0.103203 -0.117145 0.003486 -0.208072 0.093546 0.103430 -0.140674 0.134470 -0.025747 0.081142 0.087820 0.045759 0.004262 -0.007511 -0.027907
13 0.108784 0.015816 -0.097549 -0.102138 -0.013378 -0.066813 -0.061709 -0.100795 0.119224 0.036879 -0.021236 -0.034242 0.036654 0.011258 0.070620 -0.018769 -0.056223 -0.032435 -0.038972 -0.035772 0.127548 0.118276 -0.192441 0.160588 -0.024850 0.062619 0.129617 0.093676 0.042170 -0.001393 -0.062851 -0.010703 -0.151974 -0.127106 -0.032132 -0.149262 -0.012761 0.205751 0.070428 -0.122220 0.007006 0.094609 -0.014388 0.088596 0.051557 0.072122 -0.110501 0.027881 -0.152868 0.011200 -0.087433 0.150369 0.092471 -0.029938 0.055819 -0.130901 -0.005345 -0.071806 0.072852 -0.131536 -0.024902 -0.003823 -0.069298 -0.173239 0.144415 -0.005772 -0.233681 0.004748 0.043964 0.025069 0.036479 -0.085974 -0.041903 -0.092485 0.009945 -0.055401 -0.113857 -0.196193 -0.058651 -0.054668 -0.015231 -0.222429 -0.041029 -0.096711 -0.132407 -0.134992 0.187441 -0.001716 -0.182510 0.105479 0.118350 -0.099899 -0.147638 -0.102397 -0.076409 -0.016272 0.053867 -0.068572 -0.177382 0.045409 0.062455 0.063492 -0.011292 0.047833 0.032221 -0.040918 0.159546 0.024347 -0.081618 -0.079690 0.096774 -0.040337 -0.116963 0.105342 -0.113872 -0.002282 -0.198296 0.092144 0.097225 -0.135060 0.126583 -0.018971 0.078223 0.087366 0.045863 0.003324 -0.007374 -0.023264
