6 128
13 -0.026610 -0.026625 -0.121095 -0.077671 0.162788 -0.088450 0.079008 -0.100399 0.074645 0.094294 -0.061967 -0.049605 0.094092 -0.222016 0.136294 -0.172284 0.014696 -0.069824 0.036680 -0.005496 -0.083681 -0.089181 0.026430 -0.081972 -0.028849 0.030517 -0.055946 0.161571 0.051450 -0.112084 0.012924 0.156697 0.013366 0.017965 0.020850 0.123300 -0.121374 -0.075666 0.041903 0.090715 0.052311 -0.008958 0.072671 -0.061067 -0.018484 0.127343 0.076383 0.015499 0.094607 0.162871 -0.170839 0.068548 -0.031299 -0.029517 -0.169307 -0.149316 0.028527 0.118132 0.107959 0.059236 -0.145448 0.116708 -0.201018 -0.040780 0.183429 -0.091950 -0.156585 -0.144652 0.031901 -0.005092 0.181504 0.004628 0.199085 -0.144827 0.281865 -0.068139 -0.074555 -0.007656 0.010287 -0.018362 0.113860 0.139265 -0.018334 0.004278 0.136625 0.097570 0.108310 -0.081716 -0.121693 0.029328 0.115970 0.036355 -0.170362 0.016351 -0.230307 -0.034056 -0.062983 -0.094573 0.075830 -0.093789 0.160678 -0.070958 -0.141865 -0.077089 -0.015383 0.118242 0.239760 0.135592 0.000868 -0.057621 0.166202 0.133333 -0.179583 0.112334 -0.059291 0.015746 -0.015541 -0.088781 0.014377 -0.061175 0.017359 -0.011792 0.002693 0.089430 0.027432 0.091268 0.127089 0.085757
76 -0.031481 -0.026422 -0.120727 -0.070704 0.161127 -0.087756 0.076712 -0.093843 0.072708 0.086922 -0.058359 -0.042768 0.088929 -0.213280 0.133120 -0.167210 0.020207 -0.066054 0.039443 -0.000181 -0.086796 -0.088796 0.027103 -0.083373 -0.023504 0.027890 -0.060287 0.152068 0.048092 -0.111036 0.017996 0.148800 0.014235 0.021997 0.022820 0.123735 -0.122889 -0.079927 0.042318 0.087868 0.044617 -0.011781 0.072108 -0.060189 -0.018896 0.119132 0.072915 0.014033 0.092554 0.155925 -0.161360 0.061160 -0.030865 -0.031483 -0.160161 -0.141413 0.033006 0.118917 0.103751 0.061382 -0.144913 0.115164 -0.195045 -0.039116 0.173544 -0.084703 -0.150921 -0.138510 0.026452 -0.001283 0.180098 0.003992 0.194575 -0.138817 0.273304 -0.060118 -0.072057 -0.004299 0.010990 -0.016809 0.110597 0.139119 -0.020336 0.006241 0.137204 0.095828 0.104210 -0.079371 -0.114057 0.021997 0.105709 0.039493 -0.162972 0.019404 -0.224145 -0.032777 -0.060979 -0.087897 0.077159 -0.091162 0.154135 -0.071031 -0.136156 -0.077755 -0.011745 0.120103 0.230789 0.136283 0.004126 -0.054279 0.157549 0.132259 -0.172049 0.109069 -0.052791 0.021295 -0.011559 -0.090319 0.013255 -0.054765 0.012954 -0.013417 0.001938 0.088050 0.028387 0.087851 0.124138 0.082399
57 -0.028698 -0.027011 -0.124777 -0.076789 0.164970 -0.085419 0.075566 -0.097892 0.073634 0.091673 -0.059124 -0.047218 0.093830 -0.217799 0.133499 -0.174148 0.016570 -0.068197 0.037787 -0.001662 -0.088892 -0.088851 0.033244 -0.084138 -0.025918 0.032214 -0.060628 0.161607 0.051116 -0.112729 0.013198 0.156071 0.014531 0.021133 0.020231 0.128251 -0.127621 -0.081358 0.039504 0.093525 0.051970 -0.009510 0.071842 -0.064587 -0.018813 0.125654 0.076369 0.014092 0.098015 0.161153 -0.170675 0.066002 -0.035798 -0.033366 -0.166910 -0.148328 0.032027 0.123891 0.105221 0.063020 -0.150260 0.118513 -0.201020 -0.035649 0.181580 -0.090485 -0.153526 -0.142551 0.027807 -0.000539 0.186175 0.007860 0.199919 -0.143630 0.282841 -0.065813 -0.072167 -0.004849 0.017186 -0.013772 0.113909 0.144837 -0.014379 0.007265 0.142931 0.098294 0.105442 -0.082617 -0.119848 0.026942 0.113201 0.039398 -0.169311 0.021724 -0.233232 -0.030600 -0.062385 -0.088867 0.079947 -0.095395 0.158366 -0.069742 -0.142525 -0.078560 -0.014829 0.125663 0.236960 0.140535 -0.000150 -0.051679 0.162820 0.133513 -0.181308 0.109741 -0.056433 0.018924 -0.009866 -0.094271 0.011759 -0.059057 0.017457 -0.016130 -0.004213 0.087590 0.030508 0.086139 0.124796 0.081084
127 -0.031724 -0.028206 -0.112974 -0.067581 0.157874 -0.079850 0.073541 -0.094569 0.067926 0.087157 -0.052886 -0.044640 0.086646 -0.211357 0.132307 -0.161462 0.020451 -0.064814 0.039645 -0.002238 -0.082898 -0.085219 0.031019 -0.082539 -0.021977 0.027876 -0.053749 0.152340 0.045329 -0.102363 0.014834 0.142728 0.013811 0.021038 0.020673 0.122015 -0.115744 -0.077755 0.038052 0.087662 0.049984 -0.010293 0.064921 -0.063675 -0.018695 0.119229 0.071135 0.013252 0.095857 0.149219 -0.162904 0.058686 -0.032889 -0.030019 -0.159202 -0.141394 0.028735 0.117826 0.099188 0.055479 -0.141228 0.108887 -0.189843 -0.031845 0.172235 -0.081425 -0.146410 -0.131712 0.029535 -0.000554 0.175452 0.004416 0.185927 -0.132165 0.269669 -0.060259 -0.070380 -0.001981 0.014179 -0.017805 0.107657 0.134269 -0.018072 0.001385 0.135037 0.089043 0.096905 -0.077557 -0.116054 0.025725 0.106859 0.033274 -0.156892 0.017241 -0.221331 -0.028334 -0.063923 -0.086157 0.072156 -0.084870 0.150182 -0.067503 -0.129768 -0.069191 -0.013744 0.119421 0.224236 0.133419 -0.001591 -0.050958 0.149733 0.124134 -0.169346 0.102034 -0.049610 0.018689 -0.013243 -0.086991 0.009071 -0.059828 0.012661 -0.009858 -0.003740 0.083620 0.024031 0.085799 0.121228 0.082625
78 -0.030852 -0.027499 -0.121754 -0.072995 0.165857 -0.090751 0.081112 -0.098157 0.072752 0.092597 -0.060669 -0.049083 0.091847 -0.221656 0.138663 -0.172165 0.020380 -0.070813 0.037472 -0.003558 -0.090378 -0.088908 0.032577 -0.080003 -0.021296 0.031113 -0.060646 0.158810 0.051619 -0.113032 0.018759 0.156245 0.015081 0.018527 0.017115 0.124572 -0.125975 -0.079092 0.043308 0.093460 0.050451 -0.006112 0.073718 -0.063900 -0.017889 0.120834 0.073294 0.015727 0.100389 0.160942 -0.166874 0.067989 -0.035752 -0.033962 -0.168604 -0.145891 0.033230 0.119093 0.104513 0.064354 -0.149866 0.111267 -0.194682 -0.036259 0.183401 -0.089217 -0.155687 -0.141578 0.028773 0.001415 0.187075 0.008495 0.201808 -0.142178 0.279900 -0.064008 -0.075605 -0.008304 0.013171 -0.014067 0.114939 0.143679 -0.018102 0.007400 0.143817 0.098907 0.105296 -0.077722 -0.117145 0.020876 0.111355 0.034433 -0.166552 0.021410 -0.233553 -0.030442 -0.065065 -0.093247 0.080885 -0.094888 0.155678 -0.074677 -0.141409 -0.073041 -0.014244 0.120897 0.238755 0.135975 -0.000812 -0.051923 0.163661 0.136655 -0.180668 0.104527 -0.056463 0.018202 -0.015741 -0.093066 0.013085 -0.060133 0.017954 -0.017743 -0.003092 0.086035 0.028261 0.090142 0.124494 0.081029
55 -0.026172 -0.026420 -0.108620 -0.066911 0.148274 -0.080205 0.073282 -0.090270 0.069392 0.085456 -0.051067 -0.040491 0.080457 -0.196512 0.121114 -0.155306 0.016178 -0.059037 0.034377 -0.002533 -0.075659 -0.079615 0.026874 -0.076732 -0.020303 0.027119 -0.056595 0.141360 0.043660 -0.097710 0.015398 0.137349 0.016649 0.017852 0.021018 0.115521 -0.116256 -0.072733 0.034117 0.080005 0.048648 -0.005346 0.067505 -0.060327 -0.014151 0.115945 0.070045 0.012524 0.089376 0.142202 -0.155120 0.059205 -0.026989 -0.028027 -0.154449 -0.134019 0.030506 0.110009 0.094581 0.052827 -0.131588 0.103971 -0.177699 -0.035041 0.165977 -0.076583 -0.137459 -0.130925 0.028087 -0.002658 0.165504 0.007429 0.182265 -0.124915 0.258086 -0.057788 -0.065014 -0.007902 0.010364 -0.011103 0.103555 0.125420 -0.013844 0.001576 0.123964 0.088855 0.094752 -0.076898 -0.111293 0.024255 0.105126 0.037435 -0.148645 0.013619 -0.212436 -0.029640 -0.060339 -0.079222 0.071291 -0.083863 0.145370 -0.062376 -0.127617 -0.070144 -0.012517 0.113850 0.214088 0.126349 0.003905 -0.047140 0.142905 0.123839 -0.158197 0.096737 -0.046591 0.014682 -0.008289 -0.085494 0.014460 -0.057919 0.017209 -0.010278 -0.004609 0.075938 0.024555 0.081507 0.111371 0.077800
