4 128
44 0.089813 -0.101614 -0.158949 -0.144688 -0.027221 0.005829 -0.059810 0.085218 0.023725 -0.009887 -0.017269 -0.025554 -0.058018 0.209036 0.069017 -0.068761 0.153331 -0.010099 -0.005112 -0.097781 0.026940 0.186581 -0.066291 0.234854 0.141103 -0.021550 -0.069162 0.103147 -0.083867 -0.029898 0.023023 -0.181393 -0.084286 -0.139560 0.031140 -0.177954 -0.169215 0.044647 0.049449 -0.154543 -0.113987 -0.001897 0.015378 0.031119 0.069556 0.001837 -0.051409 -0.051913 -0.102193 -0.029215 0.008641 0.148799 -0.079424 0.069034 0.120091 -0.068091 0.004975 0.021676 0.045882 0.041594 -0.163841 0.066664 -0.045828 -0.056514 0.011265 0.133948 -0.237922 0.200416 -0.079421 0.078142 -0.084109 -0.002727 -0.056315 -0.081800 -0.121227 -0.042113 0.061338 -0.176051 -0.057343 0.028560 -0.065286 -0.135872 -0.031565 -0.013218 -0.094677 -0.112289 0.233868 -0.053914 -0.213738 -0.012977 -0.024692 -0.149017 -0.092768 -0.005458 -0.123371 0.071954 0.124267 -0.025629 -0.013636 -0.099529 -0.133264 -0.002276 0.019021 -0.133463 0.125556 0.155076 0.168956 -0.013410 -0.161923 0.143458 0.088523 -0.037483 -0.159994 -0.083034 -0.001410 0.064051 -0.138730 0.024598 0.016141 -0.095148 0.047347 -0.033902 0.093652 -0.053616 -0.082108 0.071238 0.024420 -0.060523
114 0.088931 -0.105767 -0.158373 -0.146425 -0.030314 0.004098 -0.063830 0.085853 0.023875 -0.013857 -0.018511 -0.028000 -0.055140 0.216609 0.071180 -0.073643 0.162867 -0.000944 -0.004566 -0.102889 0.024971 0.189886 -0.066208 0.241105 0.143548 -0.018993 -0.072580 0.100729 -0.092626 -0.034945 0.022118 -0.183617 -0.080496 -0.141516 0.029332 -0.184442 -0.173308 0.041398 0.055163 -0.154149 -0.112148 -0.009488 0.020005 0.032078 0.071446 -0.001161 -0.054103 -0.059358 -0.102186 -0.031304 0.009214 0.154319 -0.082659 0.074980 0.124254 -0.066082 0.000557 0.026813 0.040665 0.049721 -0.168455 0.068765 -0.048975 -0.052306 0.007168 0.135981 -0.242567 0.204114 -0.085794 0.078317 -0.092806 -0.005560 -0.060737 -0.078288 -0.125068 -0.044459 0.068795 -0.176547 -0.062811 0.024181 -0.063652 -0.137270 -0.030794 -0.013733 -0.093570 -0.113366 0.239107 -0.055026 -0.215473 -0.013927 -0.017425 -0.154483 -0.096894 -0.001690 -0.120445 0.071928 0.126884 -0.028452 -0.011658 -0.107364 -0.139397 -0.009810 0.015843 -0.140715 0.129288 0.156438 0.169873 -0.013203 -0.162984 0.148793 0.088791 -0.033171 -0.162097 -0.090114 -0.002450 0.064719 -0.143655 0.027737 0.019810 -0.096646 0.049434 -0.035031 0.100004 -0.060582 -0.090474 0.079608 0.029785 -0.059043
27 0.091895 -0.111523 -0.162540 -0.149668 -0.026881 0.006352 -0.059665 0.090374 0.018288 -0.012228 -0.021948 -0.030638 -0.056077 0.219579 0.068131 -0.077360 0.166680 -0.006472 -0.004201 -0.107632 0.032651 0.190080 -0.062403 0.244696 0.140572 -0.024845 -0.078275 0.105654 -0.093803 -0.029915 0.022737 -0.186116 -0.084879 -0.144625 0.032640 -0.185829 -0.174484 0.041468 0.051006 -0.158198 -0.116517 -0.006909 0.016590 0.034162 0.073370 0.005870 -0.045964 -0.058383 -0.100115 -0.025403 0.015278 0.156485 -0.084941 0.078168 0.120989 -0.073314 0.000865 0.029171 0.047783 0.050707 -0.171013 0.075650 -0.052850 -0.053609 0.010771 0.132774 -0.244728 0.205142 -0.085713 0.076331 -0.095660 0.001329 -0.058187 -0.085897 -0.126842 -0.050961 0.070107 -0.180674 -0.064646 0.026152 -0.069266 -0.137601 -0.030262 -0.005191 -0.100081 -0.110841 0.242724 -0.055879 -0.219902 -0.011408 -0.024028 -0.159476 -0.092735 0.000484 -0.125423 0.070602 0.125544 -0.034061 -0.006370 -0.109679 -0.144599 -0.006945 0.023385 -0.143417 0.131742 0.156949 0.173867 -0.018151 -0.166269 0.149886 0.090213 -0.032867 -0.160517 -0.090064 0.001571 0.059203 -0.142139 0.029911 0.014194 -0.096541 0.043833 -0.028380 0.100116 -0.065277 -0.091760 0.080671 0.029990 -0.058804
101 0.077511 -0.093833 -0.142297 -0.125226 -0.021165 0.001350 -0.055988 0.072531 0.020145 -0.014144 -0.016814 -0.024382 -0.044812 0.189994 0.058421 -0.067033 0.142992 -0.001730 -0.003340 -0.088221 0.029750 0.164670 -0.056374 0.212332 0.119619 -0.015775 -0.064527 0.087510 -0.079763 -0.025782 0.018198 -0.157536 -0.076949 -0.124069 0.023664 -0.160712 -0.151794 0.039519 0.047175 -0.136471 -0.098134 -0.002616 0.013700 0.031789 0.064665 0.004040 -0.046601 -0.050558 -0.087832 -0.024012 0.013106 0.136013 -0.068607 0.060288 0.108622 -0.065034 0.004239 0.026898 0.038568 0.041238 -0.148270 0.063069 -0.046256 -0.048536 0.012962 0.112695 -0.213654 0.173531 -0.075646 0.070048 -0.075515 -0.001433 -0.051742 -0.072183 -0.107294 -0.041885 0.055185 -0.158968 -0.054257 0.020780 -0.058685 -0.123180 -0.025076 -0.005490 -0.084899 -0.099076 0.209429 -0.044987 -0.188053 -0.008941 -0.016395 -0.137623 -0.081662 0.001976 -0.108214 0.059594 0.106717 -0.028369 -0.010210 -0.090726 -0.122925 -0.004707 0.020617 -0.117521 0.114192 0.132490 0.148385 -0.009874 -0.141654 0.126172 0.073578 -0.025881 -0.137440 -0.074782 -0.000258 0.051994 -0.125958 0.026969 0.016386 -0.084658 0.042569 -0.028385 0.082982 -0.054626 -0.073176 0.065389 0.023200 -0.054135
