18 128
191 -0.289857 0.126011 -0.017415 -0.143780 0.083268 0.037250 0.102798 -0.116034 -0.084359 -0.225938 -0.063539 0.001422 -0.103819 -0.053862 0.018090 -0.166092 0.214496 0.093413 -0.089104 0.051763 0.138011 -0.163664 0.203091 0.063375 -0.077482 0.087619 0.070773 -0.035489 -0.127421 -0.048039 0.156194 0.065212 0.111624 -0.158364 0.082044 0.063049 -0.129587 -0.077554 0.195255 -0.145581 -0.117133 0.038708 -0.232835 -0.053830 0.181153 -0.085292 0.070472 0.210806 0.000819 -0.052113 -0.150356 -0.219617 0.086277 -0.115818 0.029186 -0.079777 -0.023271 -0.149378 0.000055 0.036651 -0.185181 0.037476 0.144721 -0.078045 -0.255812 0.080230 -0.024760 0.074437 -0.094191 0.050815 0.053545 0.028940 0.110730 -0.012031 -0.045565 -0.133349 0.019979 0.012689 -0.074994 -0.081383 -0.079499 -0.065109 0.120527 -0.171002 0.027234 0.067268 0.094102 0.074117 -0.125647 0.028979 0.092374 0.070951 -0.028405 -0.159542 -0.180611 -0.173672 0.066294 -0.094159 -0.036240 0.241461 0.004293 0.146392 0.004201 0.150678 0.133941 -0.011792 0.149556 0.005997 -0.125733 0.104298 -0.019939 -0.104028 0.073398 -0.096796 -0.005362 0.033491 -0.014865 0.002614 -0.077132 0.006943 0.029520 0.029134 -0.061244 0.039156 -0.019169 0.009302 -0.026852 -0.019120
35 -0.286199 0.119313 -0.018456 -0.140668 0.073423 0.038907 0.099892 -0.124018 -0.085739 -0.218556 -0.067775 0.012370 -0.107849 -0.048250 0.012361 -0.165888 0.217130 0.098389 -0.084708 0.054291 0.141214 -0.162477 0.191039 0.063270 -0.072582 0.093159 0.071184 -0.026854 -0.126289 -0.048780 0.152620 0.068088 0.115123 -0.153492 0.085136 0.066553 -0.126071 -0.081677 0.199319 -0.140011 -0.119135 0.038885 -0.222098 -0.052149 0.177313 -0.092524 0.065226 0.207631 -0.008061 -0.051796 -0.148320 -0.224681 0.079854 -0.121221 0.039620 -0.080856 -0.020616 -0.146338 -0.002342 0.024781 -0.183915 0.032320 0.146678 -0.075643 -0.258430 0.077733 -0.030070 0.075712 -0.091669 0.053781 0.049136 0.028790 0.114722 -0.020716 -0.046965 -0.141350 0.021620 0.019459 -0.077780 -0.082586 -0.082601 -0.070304 0.121455 -0.167729 0.026445 0.071323 0.100491 0.071493 -0.129316 0.035334 0.092202 0.069334 -0.037000 -0.158115 -0.184673 -0.175872 0.065841 -0.090133 -0.036726 0.237826 0.017315 0.143117 -0.001281 0.143556 0.133703 -0.013102 0.154993 0.013019 -0.120906 0.113326 -0.017250 -0.108564 0.074309 -0.099721 -0.007033 0.036655 -0.009823 0.009478 -0.078457 0.009679 0.033427 0.026155 -0.057819 0.043547 -0.022269 0.009877 -0.028013 -0.009038
80 -0.284599 0.117501 -0.020532 -0.138437 0.081530 0.043050 0.102564 -0.116281 -0.084313 -0.223872 -0.069739 0.004491 -0.102786 -0.048711 0.014254 -0.166495 0.212311 0.095083 -0.085482 0.051843 0.139666 -0.162142 0.197008 0.063927 -0.076564 0.087514 0.067635 -0.034788 -0.125512 -0.051837 0.154740 0.071309 0.113378 -0.158505 0.077262 0.065400 -0.126537 -0.076695 0.192246 -0.139870 -0.115418 0.036409 -0.231717 -0.054597 0.179777 -0.081756 0.072095 0.207434 0.000133 -0.050370 -0.148994 -0.220450 0.078720 -0.119036 0.032560 -0.081973 -0.026315 -0.150871 -0.006311 0.032482 -0.180803 0.033793 0.146464 -0.071305 -0.253215 0.084061 -0.029019 0.071865 -0.091495 0.048919 0.055004 0.029436 0.112985 -0.016393 -0.049803 -0.138512 0.018711 0.011853 -0.076739 -0.083148 -0.082158 -0.066069 0.118478 -0.170756 0.025630 0.068302 0.097154 0.076086 -0.122698 0.027369 0.092397 0.074674 -0.026468 -0.154517 -0.182410 -0.175391 0.070552 -0.098656 -0.038421 0.240305 0.007927 0.147201 0.004318 0.149210 0.129367 -0.007731 0.153691 0.009266 -0.123006 0.108322 -0.020038 -0.104600 0.073011 -0.102504 -0.004451 0.035620 -0.007387 0.004083 -0.077050 0.005698 0.028293 0.023313 -0.059995 0.046152 -0.025064 0.008792 -0.029033 -0.015185
142 -0.293438 0.120020 -0.020913 -0.147591 0.080553 0.044056 0.100445 -0.120840 -0.087704 -0.224154 -0.071687 0.005400 -0.105645 -0.049823 0.015862 -0.172382 0.220546 0.096786 -0.087501 0.057343 0.140603 -0.164616 0.197977 0.061543 -0.075628 0.090606 0.071728 -0.031652 -0.129053 -0.049388 0.155759 0.071095 0.120603 -0.158751 0.081728 0.069685 -0.131129 -0.080053 0.198763 -0.145543 -0.118547 0.042066 -0.233140 -0.057727 0.179129 -0.083646 0.066835 0.216466 0.000094 -0.048583 -0.154941 -0.219912 0.083982 -0.116288 0.031668 -0.075869 -0.025089 -0.151832 -0.000912 0.030484 -0.186788 0.039870 0.146389 -0.078493 -0.261687 0.085448 -0.028963 0.073609 -0.091556 0.054713 0.054667 0.024655 0.110129 -0.021267 -0.049817 -0.139451 0.023521 0.012421 -0.079350 -0.086293 -0.083263 -0.071486 0.123511 -0.170466 0.027971 0.069054 0.098724 0.074145 -0.131620 0.030778 0.090684 0.072244 -0.030026 -0.158107 -0.183150 -0.174114 0.067825 -0.096062 -0.038549 0.242441 0.005976 0.145420 0.002184 0.150241 0.133285 -0.011971 0.155822 0.011728 -0.121962 0.106973 -0.018588 -0.105905 0.071066 -0.103540 -0.005029 0.033016 -0.009919 0.001238 -0.075435 0.009251 0.032414 0.028322 -0.055474 0.041217 -0.023699 0.007975 -0.027560 -0.012100
25 -0.320484 0.136985 -0.028895 -0.163527 0.087794 0.039954 0.103475 -0.125520 -0.084565 -0.240708 -0.068301 -0.010227 -0.116114 -0.052129 0.023354 -0.190099 0.235925 0.086853 -0.084626 0.075033 0.163421 -0.174752 0.230319 0.080102 -0.088239 0.078761 0.067240 -0.042451 -0.153954 -0.055294 0.175987 0.074546 0.124701 -0.182745 0.075993 0.075803 -0.152728 -0.067354 0.198096 -0.166049 -0.125005 0.048022 -0.258108 -0.075713 0.197253 -0.069391 0.080730 0.239648 0.009579 -0.053733 -0.178529 -0.221052 0.100309 -0.109683 0.010362 -0.083997 -0.020951 -0.169352 -0.001413 0.050890 -0.216496 0.052214 0.158441 -0.081105 -0.282503 0.082584 -0.017220 0.078875 -0.102915 0.058758 0.065856 0.017550 0.114304 -0.003621 -0.057108 -0.146003 0.007208 0.020675 -0.071433 -0.088358 -0.085644 -0.078029 0.128687 -0.190310 0.023498 0.069116 0.101683 0.071312 -0.144270 0.020009 0.092818 0.072609 -0.007240 -0.179892 -0.195361 -0.175598 0.075306 -0.108040 -0.032436 0.261414 -0.010482 0.160908 0.001243 0.169257 0.142644 -0.012509 0.160378 0.017142 -0.123969 0.098793 -0.021479 -0.099249 0.080636 -0.111809 -0.021693 0.044524 -0.009800 -0.007185 -0.084861 -0.002482 0.026579 0.033019 -0.054714 0.041689 -0.014486 0.032910 -0.031627 -0.033496
232 -0.319491 0.140615 -0.025576 -0.167002 0.090513 0.037892 0.109961 -0.123317 -0.091969 -0.241976 -0.064682 -0.005588 -0.118285 -0.054400 0.026971 -0.187759 0.238474 0.087187 -0.085587 0.071799 0.162589 -0.178236 0.225369 0.076251 -0.089406 0.082265 0.063874 -0.043074 -0.150977 -0.059708 0.177186 0.074992 0.129103 -0.176615 0.079995 0.073920 -0.152026 -0.069906 0.205309 -0.168363 -0.121349 0.043660 -0.257387 -0.072070 0.193749 -0.074039 0.080514 0.239127 0.003462 -0.056915 -0.176056 -0.227369 0.099472 -0.108548 0.015110 -0.080827 -0.026230 -0.165166 -0.000147 0.046690 -0.216798 0.049785 0.157458 -0.079115 -0.278887 0.088022 -0.014980 0.075577 -0.097316 0.061249 0.070463 0.016249 0.109801 -0.006039 -0.057305 -0.142166 0.010590 0.018258 -0.076457 -0.086286 -0.085824 -0.078919 0.133370 -0.185805 0.025112 0.069044 0.104432 0.079166 -0.145001 0.026741 0.099117 0.072887 -0.006307 -0.182160 -0.195768 -0.180773 0.077729 -0.110399 -0.030780 0.260743 -0.007024 0.158713 0.007928 0.172092 0.142491 -0.008904 0.156773 0.011959 -0.128831 0.100111 -0.016576 -0.101371 0.078166 -0.108499 -0.014809 0.049290 -0.012836 -0.007671 -0.083675 -0.000267 0.022901 0.028979 -0.050804 0.046682 -0.009239 0.028261 -0.025156 -0.036099
108 -0.297740 0.131033 -0.022894 -0.149096 0.086174 0.041079 0.102552 -0.117713 -0.085517 -0.224572 -0.064494 0.000434 -0.109931 -0.054292 0.018070 -0.172873 0.218412 0.089333 -0.087067 0.061346 0.149112 -0.162916 0.209660 0.068620 -0.081708 0.087650 0.064715 -0.035797 -0.134715 -0.056487 0.161716 0.073033 0.114508 -0.166792 0.080300 0.070754 -0.135391 -0.075791 0.196050 -0.144779 -0.113037 0.040961 -0.240884 -0.061488 0.182658 -0.080446 0.070847 0.216055 -0.000069 -0.050130 -0.160658 -0.222891 0.088991 -0.113330 0.022625 -0.081247 -0.022666 -0.154491 -0.002424 0.034519 -0.198019 0.039486 0.149441 -0.073003 -0.265800 0.081856 -0.020667 0.072131 -0.095540 0.053223 0.057023 0.026006 0.112708 -0.013815 -0.052137 -0.136233 0.017052 0.013336 -0.074961 -0.082702 -0.085141 -0.071565 0.121313 -0.172401 0.023416 0.070247 0.097372 0.073390 -0.126530 0.024031 0.093240 0.073700 -0.026714 -0.160419 -0.185679 -0.171291 0.069450 -0.099778 -0.036567 0.245150 0.007387 0.151179 0.007491 0.156645 0.129530 -0.012282 0.157461 0.013672 -0.123138 0.105671 -0.021300 -0.100865 0.078152 -0.104190 -0.011400 0.041947 -0.013740 0.002352 -0.078851 0.005349 0.029053 0.024349 -0.057323 0.046982 -0.018667 0.017977 -0.024098 -0.023614
52 -0.295912 0.129195 -0.014430 -0.145808 0.078216 0.036935 0.105134 -0.120596 -0.084405 -0.232230 -0.067813 0.006600 -0.108746 -0.051008 0.011914 -0.174458 0.219171 0.095174 -0.090454 0.053103 0.146273 -0.165913 0.200858 0.061066 -0.085678 0.091677 0.069551 -0.029480 -0.127650 -0.053006 0.158408 0.069982 0.121385 -0.157320 0.082516 0.066377 -0.132427 -0.078215 0.197994 -0.143094 -0.113561 0.044245 -0.238819 -0.054281 0.184773 -0.086926 0.072447 0.216055 -0.005753 -0.051734 -0.155961 -0.227860 0.086601 -0.121494 0.033712 -0.075234 -0.021031 -0.153109 -0.004033 0.031212 -0.189241 0.043910 0.145076 -0.078140 -0.265432 0.085655 -0.024139 0.078001 -0.096594 0.056905 0.053142 0.026927 0.117308 -0.016080 -0.046831 -0.139067 0.017674 0.014016 -0.073941 -0.084545 -0.078596 -0.069115 0.121961 -0.170790 0.028680 0.067911 0.099545 0.080832 -0.131051 0.032233 0.092711 0.074351 -0.029681 -0.165679 -0.184251 -0.177370 0.069317 -0.095877 -0.043185 0.244864 0.010981 0.151793 0.008718 0.156307 0.135856 -0.009179 0.160218 0.008135 -0.129825 0.110985 -0.021867 -0.106557 0.076065 -0.102551 -0.010131 0.035313 -0.016706 0.008053 -0.082365 0.005327 0.030182 0.025702 -0.065362 0.043149 -0.020391 0.010591 -0.025298 -0.018531
224 -0.305031 0.130625 -0.016869 -0.144481 0.087846 0.039206 0.104061 -0.120549 -0.091428 -0.239259 -0.073271 0.011152 -0.117068 -0.055500 0.016602 -0.175374 0.230284 0.093136 -0.091085 0.057679 0.149808 -0.173788 0.213989 0.067876 -0.087977 0.090471 0.075727 -0.033555 -0.136934 -0.054700 0.157843 0.072110 0.126040 -0.169428 0.080070 0.064773 -0.136514 -0.084330 0.203643 -0.145642 -0.122350 0.042143 -0.247165 -0.055351 0.192589 -0.092598 0.078080 0.220039 -0.007151 -0.047283 -0.164469 -0.236195 0.087444 -0.125972 0.032585 -0.078334 -0.023997 -0.156068 -0.004513 0.038345 -0.195129 0.044955 0.155947 -0.079208 -0.274228 0.087645 -0.031224 0.076820 -0.095076 0.056194 0.058124 0.025044 0.120246 -0.023451 -0.045348 -0.140116 0.025126 0.016305 -0.079074 -0.083320 -0.088172 -0.065557 0.124651 -0.178946 0.029676 0.071810 0.101972 0.083242 -0.135628 0.028428 0.091645 0.072247 -0.025675 -0.169786 -0.190710 -0.180914 0.070740 -0.101654 -0.041409 0.247902 0.006587 0.151564 0.010415 0.158090 0.133517 -0.005326 0.166065 0.004531 -0.128925 0.113998 -0.022271 -0.105860 0.071997 -0.103135 -0.007825 0.039685 -0.012739 0.004223 -0.085718 0.004590 0.031865 0.023751 -0.067186 0.042096 -0.027590 0.010721 -0.024110 -0.021754
89 -0.282678 0.124243 -0.013955 -0.139077 0.079206 0.039903 0.098515 -0.118972 -0.082238 -0.219890 -0.065181 0.012356 -0.108635 -0.051202 0.015690 -0.167477 0.208758 0.085848 -0.084512 0.046887 0.140324 -0.162179 0.197819 0.062565 -0.080750 0.087679 0.068750 -0.032497 -0.128534 -0.049703 0.146989 0.065129 0.113330 -0.155826 0.075821 0.059441 -0.123631 -0.077960 0.191502 -0.137791 -0.108434 0.039227 -0.230001 -0.052347 0.180992 -0.089941 0.069408 0.204150 -0.006154 -0.045772 -0.151353 -0.222281 0.077896 -0.116273 0.035550 -0.077434 -0.018525 -0.145957 -0.003560 0.032764 -0.182891 0.040794 0.143731 -0.073991 -0.255950 0.083410 -0.031074 0.071783 -0.093847 0.051299 0.047861 0.023423 0.116797 -0.022511 -0.043973 -0.130843 0.020564 0.020083 -0.073810 -0.083950 -0.081029 -0.065945 0.119036 -0.160372 0.020864 0.069251 0.093390 0.077614 -0.122022 0.028814 0.086334 0.073447 -0.033328 -0.159611 -0.174230 -0.170003 0.069501 -0.096707 -0.038532 0.231322 0.014199 0.142454 0.009067 0.150031 0.130391 -0.004418 0.156612 0.002047 -0.123249 0.102985 -0.023826 -0.103774 0.069937 -0.097884 -0.009581 0.031089 -0.013805 0.007713 -0.079763 0.009905 0.032431 0.029518 -0.064488 0.044426 -0.022539 0.010975 -0.019956 -0.012121
17 -0.267025 0.110974 -0.014831 -0.128118 0.068531 0.034118 0.095502 -0.109404 -0.074433 -0.203479 -0.061388 0.012354 -0.096950 -0.044490 0.011370 -0.151026 0.200754 0.084956 -0.082399 0.051703 0.129319 -0.154722 0.184749 0.055040 -0.067352 0.087184 0.063862 -0.029070 -0.114353 -0.043113 0.143229 0.064100 0.109996 -0.145663 0.074135 0.058183 -0.116192 -0.071735 0.181534 -0.128462 -0.108940 0.032947 -0.214561 -0.046226 0.164639 -0.083261 0.064010 0.197426 -0.004227 -0.045211 -0.141500 -0.208525 0.076499 -0.114734 0.034191 -0.074465 -0.025812 -0.132212 0.001686 0.022987 -0.170412 0.030242 0.137387 -0.071256 -0.236772 0.078798 -0.025034 0.067588 -0.085544 0.050158 0.043967 0.025397 0.106168 -0.019424 -0.040463 -0.124395 0.016543 0.011773 -0.069702 -0.080911 -0.074002 -0.062239 0.115506 -0.152749 0.018578 0.064634 0.094108 0.065258 -0.112917 0.028464 0.081789 0.066221 -0.031462 -0.143186 -0.170405 -0.161773 0.066862 -0.085732 -0.033332 0.223960 0.013298 0.133740 -0.000441 0.140228 0.122139 -0.012251 0.144770 0.006521 -0.118068 0.105920 -0.017061 -0.096701 0.072922 -0.091345 -0.005659 0.032779 -0.011505 0.010677 -0.073500 0.003650 0.031328 0.027299 -0.052598 0.042365 -0.025260 0.007046 -0.025630 -0.008939
233 -0.272762 0.110270 -0.010979 -0.131185 0.073581 0.035643 0.092417 -0.114002 -0.081384 -0.211186 -0.065423 0.011833 -0.102502 -0.046913 0.017638 -0.155210 0.206626 0.090990 -0.078801 0.050410 0.130545 -0.153597 0.181270 0.062024 -0.069823 0.086892 0.065887 -0.033122 -0.115928 -0.045150 0.143142 0.063976 0.113495 -0.143519 0.072583 0.064247 -0.124083 -0.076017 0.185716 -0.132630 -0.106689 0.035585 -0.212527 -0.047509 0.167815 -0.080192 0.060880 0.199727 -0.000221 -0.043757 -0.140551 -0.207660 0.080407 -0.106810 0.034191 -0.069383 -0.020895 -0.134721 0.002674 0.025571 -0.175962 0.032688 0.136470 -0.068358 -0.240220 0.079521 -0.021177 0.072700 -0.090376 0.045897 0.047423 0.021203 0.106407 -0.018633 -0.043194 -0.127862 0.019743 0.017592 -0.069451 -0.081180 -0.072624 -0.063214 0.114717 -0.157649 0.018824 0.066772 0.088824 0.065917 -0.120248 0.031539 0.085237 0.066667 -0.032854 -0.153147 -0.170262 -0.159232 0.066690 -0.090441 -0.038599 0.219572 0.010363 0.132026 0.000308 0.141347 0.122833 -0.013271 0.148891 0.006397 -0.119879 0.104478 -0.016927 -0.093425 0.071970 -0.091025 -0.009732 0.035333 -0.012387 0.008772 -0.077842 0.010911 0.024125 0.026451 -0.057612 0.039127 -0.021097 0.011282 -0.022256 -0.009793
150 -0.271867 0.113274 -0.012624 -0.139373 0.075069 0.039032 0.092056 -0.118350 -0.079862 -0.215852 -0.064016 0.005710 -0.103988 -0.051840 0.012510 -0.163008 0.209186 0.094095 -0.081799 0.054030 0.130233 -0.159079 0.190392 0.059024 -0.076592 0.089526 0.066446 -0.030679 -0.120844 -0.045783 0.144159 0.069014 0.114830 -0.148507 0.080584 0.065532 -0.126713 -0.074023 0.189695 -0.138174 -0.113444 0.038037 -0.217334 -0.050234 0.175136 -0.084844 0.063631 0.204814 -0.002029 -0.051028 -0.140799 -0.211853 0.076948 -0.114477 0.032601 -0.074115 -0.019333 -0.145032 -0.000330 0.029112 -0.179348 0.034109 0.141585 -0.073774 -0.247097 0.078097 -0.023770 0.068807 -0.089889 0.052927 0.046004 0.025044 0.105493 -0.020787 -0.049005 -0.133628 0.017341 0.019126 -0.075476 -0.083411 -0.079449 -0.062157 0.118325 -0.162379 0.019034 0.066692 0.090337 0.067375 -0.121422 0.032178 0.088183 0.068661 -0.033077 -0.149150 -0.171568 -0.164679 0.067431 -0.088555 -0.035829 0.231672 0.011357 0.134630 0.002217 0.141241 0.126102 -0.009328 0.152585 0.012431 -0.119314 0.106936 -0.013938 -0.097262 0.069047 -0.099717 -0.005234 0.036139 -0.011799 0.006700 -0.075539 0.007093 0.026615 0.027378 -0.052710 0.040766 -0.019839 0.012167 -0.029981 -0.011556
221 -0.279781 0.120259 -0.017049 -0.133654 0.078580 0.039505 0.097853 -0.112360 -0.080659 -0.218718 -0.067148 0.006969 -0.101454 -0.049218 0.017501 -0.163051 0.207130 0.088221 -0.081601 0.050270 0.137141 -0.155218 0.194484 0.060231 -0.079290 0.083258 0.068366 -0.031841 -0.118914 -0.049355 0.145635 0.067293 0.112637 -0.154507 0.079998 0.064636 -0.122710 -0.072775 0.188267 -0.138677 -0.114321 0.042371 -0.224087 -0.050359 0.176960 -0.080672 0.063732 0.205450 -0.003658 -0.047580 -0.145546 -0.215034 0.075870 -0.117496 0.028209 -0.073428 -0.024719 -0.140143 -0.003070 0.030862 -0.178031 0.033686 0.139671 -0.073128 -0.243446 0.080784 -0.024504 0.069307 -0.087512 0.053037 0.047480 0.025852 0.109972 -0.015346 -0.042185 -0.135463 0.022872 0.013936 -0.076023 -0.078334 -0.081604 -0.061320 0.116624 -0.162005 0.020182 0.064463 0.091892 0.069974 -0.122390 0.031454 0.086432 0.067536 -0.026409 -0.155826 -0.174098 -0.168973 0.066722 -0.092530 -0.040297 0.226124 0.009724 0.140434 0.002365 0.148214 0.123284 -0.009216 0.152946 0.008912 -0.122360 0.107334 -0.015927 -0.099549 0.065929 -0.097585 -0.009297 0.034776 -0.009085 0.006518 -0.075463 0.007693 0.027870 0.023199 -0.055032 0.038600 -0.023092 0.009265 -0.024416 -0.015013
236 -0.275546 0.120490 -0.015859 -0.130364 0.076832 0.033528 0.092994 -0.117587 -0.076448 -0.216487 -0.066535 0.007929 -0.106397 -0.049805 0.012104 -0.159919 0.209301 0.087487 -0.086137 0.046282 0.133646 -0.153556 0.192598 0.057045 -0.073713 0.083158 0.065683 -0.028063 -0.124576 -0.048865 0.148430 0.062386 0.111411 -0.147000 0.078606 0.065751 -0.119963 -0.075701 0.188435 -0.130263 -0.113237 0.037624 -0.220921 -0.051081 0.171661 -0.086269 0.065155 0.202031 -0.008216 -0.044879 -0.148411 -0.216398 0.079158 -0.116564 0.028478 -0.074398 -0.022458 -0.136374 -0.001431 0.028522 -0.179248 0.032873 0.143071 -0.070771 -0.245627 0.080432 -0.027617 0.070259 -0.086361 0.052747 0.051096 0.028170 0.112641 -0.021301 -0.044425 -0.133223 0.018981 0.019190 -0.069632 -0.076425 -0.078049 -0.060865 0.116272 -0.156609 0.020223 0.069277 0.090249 0.069905 -0.122013 0.025157 0.085684 0.070599 -0.032042 -0.151638 -0.176432 -0.163731 0.065500 -0.094219 -0.037682 0.226302 0.011390 0.142422 0.005382 0.147237 0.120806 -0.012470 0.152668 0.008627 -0.120741 0.103794 -0.021449 -0.102474 0.069916 -0.092133 -0.011191 0.029285 -0.012463 0.003609 -0.075963 0.004248 0.030000 0.026718 -0.054707 0.041231 -0.022687 0.008635 -0.022329 -0.013249
72 -0.265341 0.110154 -0.016915 -0.133678 0.073621 0.041742 0.090302 -0.112667 -0.078155 -0.207428 -0.061486 0.009702 -0.101310 -0.050127 0.014642 -0.151873 0.202995 0.091416 -0.083067 0.047319 0.126530 -0.150034 0.181371 0.054242 -0.070968 0.085318 0.067804 -0.027451 -0.118643 -0.048193 0.139665 0.062586 0.107579 -0.147462 0.075789 0.059235 -0.118079 -0.075406 0.179263 -0.132855 -0.104527 0.040962 -0.215470 -0.052382 0.167713 -0.083483 0.061970 0.195280 -0.003453 -0.050387 -0.142838 -0.201684 0.077296 -0.108977 0.027327 -0.074520 -0.024974 -0.135332 0.000405 0.029287 -0.174106 0.029649 0.132446 -0.069682 -0.234341 0.076119 -0.022858 0.064075 -0.089059 0.045053 0.043511 0.027975 0.108532 -0.016853 -0.041193 -0.128386 0.018459 0.012009 -0.066864 -0.076931 -0.074517 -0.063656 0.109309 -0.156826 0.019889 0.066260 0.093779 0.064578 -0.112393 0.029243 0.084949 0.069267 -0.032745 -0.148241 -0.166130 -0.160621 0.062774 -0.091260 -0.036260 0.224517 0.010230 0.136163 0.000357 0.139263 0.123864 -0.008109 0.140610 0.010306 -0.117246 0.099947 -0.013741 -0.098711 0.070568 -0.097312 -0.003081 0.029948 -0.009172 0.007569 -0.071017 0.003403 0.028154 0.023430 -0.054522 0.041815 -0.020945 0.012132 -0.029501 -0.010088
19 -0.298802 0.127064 -0.013363 -0.149446 0.082146 0.041284 0.104341 -0.127604 -0.086136 -0.235077 -0.074371 0.011518 -0.114157 -0.052706 0.013617 -0.174403 0.223744 0.094674 -0.088939 0.058918 0.148526 -0.174678 0.208446 0.067049 -0.082319 0.097723 0.072113 -0.032020 -0.134471 -0.054094 0.160898 0.072707 0.123858 -0.167928 0.084008 0.068304 -0.138331 -0.080201 0.208445 -0.145986 -0.121160 0.040864 -0.242016 -0.056858 0.192464 -0.090601 0.075118 0.217902 -0.006050 -0.050038 -0.160834 -0.235205 0.082919 -0.127349 0.038917 -0.078654 -0.027057 -0.152300 0.001946 0.030703 -0.195079 0.036605 0.156575 -0.076679 -0.270830 0.083277 -0.025483 0.076780 -0.099221 0.053480 0.055203 0.028447 0.120334 -0.019511 -0.050565 -0.147293 0.024698 0.019152 -0.082494 -0.089864 -0.085915 -0.068931 0.127085 -0.178977 0.023837 0.072864 0.104623 0.080406 -0.136177 0.030512 0.094269 0.078126 -0.028943 -0.164603 -0.192790 -0.178681 0.070996 -0.099035 -0.040101 0.247009 0.013773 0.154822 0.001676 0.154929 0.136328 -0.010325 0.163471 0.008911 -0.131909 0.113351 -0.022931 -0.109779 0.077332 -0.106439 -0.004830 0.039332 -0.009547 0.009946 -0.086290 0.010176 0.030788 0.026282 -0.064950 0.041876 -0.027254 0.011024 -0.030393 -0.018247
39 -0.324266 0.142733 -0.026772 -0.163313 0.096339 0.044645 0.108703 -0.121269 -0.090450 -0.244449 -0.069628 -0.010231 -0.116722 -0.056292 0.023815 -0.190703 0.232773 0.091414 -0.090714 0.074029 0.164897 -0.174382 0.233320 0.080408 -0.094469 0.084680 0.064718 -0.038056 -0.153910 -0.059015 0.178214 0.073290 0.124605 -0.183443 0.083230 0.074026 -0.149638 -0.070207 0.201544 -0.167636 -0.121188 0.046997 -0.259730 -0.076529 0.198326 -0.070426 0.081821 0.240616 0.008668 -0.051639 -0.178133 -0.225495 0.098538 -0.115797 0.016048 -0.081368 -0.026443 -0.165628 0.001775 0.048096 -0.219456 0.054484 0.155720 -0.081248 -0.284534 0.085348 -0.014096 0.080902 -0.096632 0.059217 0.071500 0.021912 0.111706 -0.005476 -0.055317 -0.141769 0.011697 0.019667 -0.072470 -0.089411 -0.084296 -0.075312 0.129632 -0.191679 0.026606 0.071228 0.107126 0.080693 -0.142801 0.026922 0.095766 0.076752 -0.006789 -0.178546 -0.197356 -0.178722 0.076293 -0.108813 -0.034221 0.265430 -0.009578 0.165253 0.002299 0.169230 0.145646 -0.012008 0.159659 0.018097 -0.128584 0.098149 -0.021096 -0.098178 0.079215 -0.111673 -0.020652 0.045830 -0.014063 -0.009364 -0.088944 -0.004895 0.026111 0.028292 -0.051380 0.044553 -0.009551 0.030706 -0.027923 -0.036040
