21 128
105 -0.087841 -0.277934 0.220834 -0.033581 -0.102767 0.019572 -0.116907 0.069859 -0.074143 -0.091348 0.035991 0.106916 -0.093582 0.128125 -0.171561 -0.065871 0.088362 0.040978 0.170059 0.174448 0.100713 -0.050915 -0.037758 0.154125 -0.068769 0.172430 -0.050273 -0.034503 -0.034398 -0.178754 0.036550 -0.022805 0.097876 0.103297 0.066517 0.048706 -0.078240 -0.179131 -0.049442 0.056947 0.090745 0.015857 0.143094 0.020043 -0.059585 -0.064523 -0.224962 -0.046746 0.034263 -0.021480 -0.081068 -0.077538 0.098400 -0.012663 0.045050 -0.037833 -0.127757 0.013566 -0.098043 0.046118 -0.223326 -0.263114 -0.075549 0.136618 -0.011767 -0.121017 -0.234786 0.015438 -0.268896 -0.017249 0.059095 -0.007286 -0.084151 0.055775 -0.022190 0.010178 0.135539 0.176141 0.069310 -0.092740 -0.056111 -0.188776 0.108985 -0.039294 0.218135 0.141169 0.172882 -0.119105 -0.139846 0.017140 -0.014181 0.100180 -0.065353 -0.133379 0.049160 0.010810 0.037550 0.027979 -0.096695 -0.066457 0.244158 0.091153 -0.022678 0.068737 -0.041546 -0.089924 0.064174 -0.087441 0.038834 -0.008848 0.097992 -0.068591 0.047673 -0.012937 -0.002572 0.062203 0.032862 -0.015858 -0.077161 0.176518 -0.031758 -0.135278 0.053263 -0.002848 -0.037356 0.209597 -0.046306 -0.016719
133 -0.095330 -0.265983 0.210951 -0.027746 -0.096806 0.022141 -0.116334 0.071840 -0.070994 -0.085626 0.039308 0.098440 -0.101434 0.122923 -0.165234 -0.068964 0.076341 0.041487 0.162331 0.165791 0.095994 -0.048459 -0.040965 0.144363 -0.071570 0.169175 -0.047018 -0.036816 -0.023421 -0.170874 0.031151 -0.017833 0.093492 0.098204 0.063354 0.054926 -0.078591 -0.162514 -0.051334 0.054977 0.086096 0.021546 0.142275 0.024478 -0.057009 -0.056969 -0.226975 -0.040435 0.031184 -0.017939 -0.075702 -0.083548 0.093043 -0.009742 0.042854 -0.032245 -0.129357 0.011228 -0.086661 0.038944 -0.210164 -0.256296 -0.077243 0.134174 -0.015580 -0.114828 -0.228359 0.009807 -0.252615 -0.014411 0.046803 0.000858 -0.075653 0.058131 -0.020326 0.008802 0.127196 0.176994 0.067387 -0.088995 -0.056797 -0.178411 0.103705 -0.033637 0.202613 0.136574 0.166909 -0.108211 -0.130355 0.019160 -0.016341 0.096207 -0.062674 -0.135358 0.043845 0.004547 0.027422 0.025818 -0.088604 -0.071977 0.236810 0.082320 -0.019822 0.061657 -0.034140 -0.088611 0.052751 -0.076195 0.046528 -0.014421 0.089951 -0.070191 0.042936 -0.018061 0.000805 0.052282 0.026359 -0.008638 -0.077603 0.166498 -0.034941 -0.135327 0.051845 -0.007546 -0.033146 0.213029 -0.042485 -0.007632
170 -0.088771 -0.268907 0.207425 -0.034907 -0.107370 0.026414 -0.117525 0.059062 -0.074517 -0.087519 0.033692 0.095535 -0.090532 0.119203 -0.159748 -0.074560 0.092197 0.047350 0.166618 0.165485 0.097769 -0.048052 -0.037826 0.148171 -0.058418 0.161529 -0.044059 -0.041789 -0.039658 -0.181521 0.040523 -0.022598 0.094137 0.089601 0.060379 0.053639 -0.076052 -0.181491 -0.036312 0.060165 0.089146 0.004577 0.129801 0.016189 -0.055419 -0.052044 -0.230886 -0.042863 0.031229 -0.015938 -0.074746 -0.079169 0.100315 -0.005672 0.048035 -0.042129 -0.125671 0.007951 -0.095716 0.036420 -0.219887 -0.261660 -0.059018 0.140283 -0.012541 -0.115271 -0.224784 0.010749 -0.264552 -0.008596 0.047213 -0.004213 -0.079110 0.063954 -0.020714 0.013654 0.127115 0.168998 0.059080 -0.088640 -0.053385 -0.180663 0.109146 -0.044757 0.206460 0.143866 0.170288 -0.121832 -0.139177 0.020628 -0.007675 0.091299 -0.060509 -0.142796 0.043357 0.003606 0.032372 0.016022 -0.092958 -0.071314 0.241491 0.092139 -0.022574 0.063487 -0.043136 -0.089249 0.063785 -0.087456 0.037975 -0.006345 0.088182 -0.064930 0.057681 -0.009534 -0.002832 0.054745 0.032529 -0.015534 -0.088794 0.182185 -0.029746 -0.128991 0.053194 -0.007693 -0.036991 0.217989 -0.053128 -0.012969
35 -0.087934 -0.262477 0.201650 -0.035440 -0.102721 0.021652 -0.110608 0.058325 -0.074998 -0.082596 0.029020 0.102844 -0.091820 0.121465 -0.156926 -0.066431 0.085349 0.045158 0.161741 0.168718 0.096787 -0.049170 -0.038827 0.149514 -0.059632 0.164123 -0.047039 -0.035681 -0.034175 -0.169675 0.037273 -0.016992 0.094222 0.096672 0.064162 0.048704 -0.072465 -0.170407 -0.039361 0.052131 0.082493 0.009221 0.135278 0.017488 -0.053548 -0.063204 -0.217273 -0.040086 0.030996 -0.018242 -0.076466 -0.078379 0.092849 -0.012723 0.050344 -0.039895 -0.116973 0.009011 -0.092076 0.036034 -0.213305 -0.252923 -0.062207 0.132916 -0.016530 -0.121680 -0.223395 0.022857 -0.257187 -0.014760 0.053952 -0.002327 -0.077078 0.052203 -0.020033 0.006392 0.131146 0.169144 0.057426 -0.088958 -0.055657 -0.181025 0.103919 -0.040196 0.206088 0.139416 0.166050 -0.113627 -0.138114 0.020890 -0.007046 0.088474 -0.061612 -0.130446 0.042272 0.007321 0.033670 0.025797 -0.089891 -0.063362 0.238103 0.089014 -0.031750 0.060950 -0.034162 -0.087569 0.062973 -0.077531 0.041237 -0.005910 0.093224 -0.067336 0.050248 -0.014444 -0.003413 0.062400 0.035562 -0.009427 -0.081287 0.174199 -0.026569 -0.128964 0.050985 0.000326 -0.039272 0.202044 -0.047455 -0.012820
233 -0.100839 -0.282046 0.222170 -0.031345 -0.105138 0.023689 -0.122846 0.069042 -0.081275 -0.093315 0.033887 0.108126 -0.101717 0.128590 -0.167015 -0.071215 0.089383 0.049114 0.172819 0.175561 0.098408 -0.051507 -0.044142 0.158422 -0.067190 0.176965 -0.050809 -0.044482 -0.028994 -0.180807 0.038112 -0.017943 0.102764 0.105416 0.061108 0.058012 -0.083335 -0.181550 -0.045186 0.058552 0.094389 0.012010 0.146318 0.023411 -0.061849 -0.059484 -0.240533 -0.039886 0.039120 -0.013585 -0.078594 -0.084144 0.103170 -0.006267 0.048338 -0.035519 -0.132541 0.013498 -0.092591 0.037398 -0.227204 -0.272227 -0.071927 0.145523 -0.013888 -0.120943 -0.238332 0.019451 -0.279590 -0.018015 0.053431 -0.001307 -0.082706 0.059223 -0.020559 0.011373 0.140532 0.183783 0.067484 -0.096767 -0.054556 -0.189994 0.112511 -0.038382 0.213934 0.149006 0.173771 -0.121655 -0.143980 0.022293 -0.011224 0.097942 -0.069479 -0.144816 0.048732 0.009629 0.035497 0.021610 -0.098176 -0.076223 0.250829 0.091003 -0.029669 0.069842 -0.038321 -0.097082 0.066876 -0.085683 0.041150 -0.008757 0.098273 -0.066250 0.054482 -0.012675 -0.005543 0.062140 0.031917 -0.009471 -0.089353 0.187277 -0.036391 -0.137384 0.053340 -0.002112 -0.039271 0.221830 -0.047492 -0.009271
176 -0.088728 -0.261824 0.202406 -0.033445 -0.100908 0.026326 -0.109378 0.060048 -0.071119 -0.082853 0.026369 0.092258 -0.097712 0.122458 -0.153753 -0.069451 0.089694 0.046290 0.155865 0.160212 0.087642 -0.041303 -0.033223 0.146208 -0.052722 0.162502 -0.052018 -0.044933 -0.038482 -0.171174 0.043458 -0.023033 0.086464 0.093970 0.060819 0.046435 -0.079981 -0.173340 -0.040042 0.055926 0.083486 0.003539 0.124089 0.009591 -0.048916 -0.051076 -0.224443 -0.029874 0.032140 -0.016757 -0.068568 -0.080079 0.091289 -0.002775 0.046230 -0.040888 -0.126069 0.006883 -0.096386 0.037358 -0.210423 -0.255236 -0.055427 0.142880 -0.017758 -0.122440 -0.222097 0.017658 -0.257452 -0.009171 0.054868 -0.000622 -0.072058 0.053946 -0.012589 0.007641 0.125377 0.161037 0.059789 -0.083978 -0.055173 -0.175501 0.104988 -0.039597 0.204213 0.140357 0.165715 -0.122403 -0.132836 0.021818 -0.015239 0.085708 -0.053639 -0.131578 0.049983 0.005694 0.025608 0.017678 -0.090054 -0.069118 0.228855 0.086576 -0.030617 0.070528 -0.034567 -0.092014 0.064098 -0.083427 0.037676 -0.003628 0.088860 -0.062328 0.047597 -0.008580 -0.007068 0.053785 0.027785 -0.013532 -0.080286 0.169053 -0.032183 -0.124748 0.052081 -0.003428 -0.034865 0.209074 -0.049253 -0.016582
28 -0.096393 -0.275948 0.223230 -0.030149 -0.099721 0.025645 -0.118427 0.069877 -0.083135 -0.093202 0.041496 0.109291 -0.097439 0.130912 -0.175178 -0.064714 0.082638 0.035992 0.168339 0.173821 0.093614 -0.056424 -0.035460 0.148410 -0.075168 0.177091 -0.061479 -0.036971 -0.025961 -0.181122 0.035636 -0.010618 0.105433 0.109248 0.064430 0.044818 -0.072773 -0.173168 -0.047488 0.058166 0.091026 0.013895 0.146995 0.028772 -0.065801 -0.068970 -0.234269 -0.041573 0.032052 -0.020525 -0.089295 -0.077549 0.100550 -0.016387 0.047322 -0.037686 -0.130994 0.006527 -0.100640 0.042421 -0.225538 -0.266383 -0.072609 0.143495 -0.006957 -0.121847 -0.237832 0.020421 -0.275251 -0.020793 0.053625 0.004427 -0.088599 0.048733 -0.023017 0.014286 0.135067 0.181461 0.065111 -0.087157 -0.052884 -0.192817 0.111239 -0.030858 0.211577 0.141659 0.165530 -0.104941 -0.133618 0.015541 -0.009212 0.101679 -0.067615 -0.135469 0.057263 0.009628 0.036488 0.028564 -0.093872 -0.073924 0.238591 0.099083 -0.027630 0.066787 -0.037577 -0.086055 0.068912 -0.074138 0.047231 -0.018768 0.101421 -0.069183 0.040139 -0.015324 -0.000671 0.056040 0.030295 -0.014819 -0.079813 0.171167 -0.030932 -0.137873 0.053501 0.006201 -0.044540 0.203298 -0.043906 -0.011487
125 -0.093623 -0.270613 0.217099 -0.029568 -0.098527 0.021543 -0.121914 0.069527 -0.085596 -0.095997 0.042350 0.101542 -0.099339 0.129323 -0.173947 -0.065488 0.087822 0.038529 0.170233 0.167900 0.101609 -0.058569 -0.033279 0.151777 -0.074301 0.175868 -0.059382 -0.039931 -0.033678 -0.184049 0.040350 -0.011455 0.103763 0.104180 0.064198 0.053728 -0.074865 -0.178166 -0.044553 0.056612 0.094969 0.015829 0.147893 0.025270 -0.062610 -0.069819 -0.235016 -0.039549 0.035236 -0.020156 -0.087567 -0.078114 0.101199 -0.011755 0.038470 -0.041099 -0.125800 0.009779 -0.100521 0.042704 -0.229246 -0.267896 -0.076862 0.143670 -0.005163 -0.124217 -0.243282 0.015155 -0.278753 -0.014789 0.052271 0.003803 -0.088044 0.056326 -0.021724 0.012204 0.137571 0.181767 0.071432 -0.086809 -0.055914 -0.193705 0.114326 -0.032853 0.220904 0.143328 0.168340 -0.108797 -0.135948 0.015752 -0.010084 0.105831 -0.070082 -0.135168 0.055441 0.006942 0.039106 0.027079 -0.096383 -0.073456 0.249512 0.095029 -0.020998 0.068887 -0.042779 -0.094642 0.069046 -0.078551 0.048267 -0.010436 0.104502 -0.074288 0.047412 -0.014416 -0.006669 0.062830 0.037992 -0.012879 -0.080035 0.182640 -0.030821 -0.143212 0.060314 0.006342 -0.044754 0.221430 -0.046228 -0.014101
200 -0.090256 -0.272636 0.211640 -0.036440 -0.103457 0.018635 -0.121789 0.066888 -0.077394 -0.090582 0.032929 0.100921 -0.091095 0.121226 -0.161066 -0.067338 0.080265 0.041498 0.166435 0.169568 0.100614 -0.056159 -0.036392 0.150591 -0.069043 0.166589 -0.054358 -0.042716 -0.034642 -0.174635 0.036027 -0.015267 0.099340 0.101675 0.059567 0.049823 -0.075397 -0.168471 -0.044114 0.054926 0.092869 0.012293 0.138369 0.019727 -0.061712 -0.064653 -0.227235 -0.041800 0.035567 -0.012681 -0.079847 -0.078221 0.097807 -0.009134 0.043878 -0.036221 -0.125188 0.006524 -0.092298 0.038337 -0.216893 -0.254703 -0.066001 0.137248 -0.011416 -0.116610 -0.233894 0.020457 -0.265251 -0.017831 0.049958 0.002697 -0.084069 0.055967 -0.021938 0.010633 0.136632 0.174120 0.059497 -0.093096 -0.052763 -0.180577 0.106948 -0.033036 0.207320 0.140948 0.166354 -0.111003 -0.138806 0.016409 -0.004731 0.093953 -0.060452 -0.133687 0.043578 0.012774 0.034347 0.022204 -0.096022 -0.065770 0.245397 0.094098 -0.025018 0.067921 -0.036496 -0.091115 0.063894 -0.080391 0.040226 -0.012210 0.096183 -0.071519 0.047164 -0.018223 -0.000141 0.061148 0.039658 -0.008954 -0.081244 0.180390 -0.026872 -0.135797 0.053340 0.000074 -0.043455 0.209249 -0.051052 -0.017011
108 -0.088667 -0.253250 0.199666 -0.033453 -0.093934 0.024135 -0.112643 0.065313 -0.075884 -0.082882 0.037106 0.094132 -0.089204 0.115135 -0.159186 -0.065981 0.079003 0.038667 0.155910 0.163894 0.094679 -0.047973 -0.032938 0.143163 -0.063553 0.162331 -0.052618 -0.039182 -0.032799 -0.174255 0.038909 -0.012947 0.091336 0.091369 0.059296 0.050776 -0.074272 -0.168691 -0.040674 0.057608 0.090199 0.011081 0.128708 0.018464 -0.058995 -0.055569 -0.220120 -0.041502 0.033936 -0.014381 -0.076947 -0.076512 0.095900 -0.007031 0.039390 -0.039119 -0.120095 0.006748 -0.091288 0.035636 -0.214082 -0.249339 -0.064750 0.135750 -0.014018 -0.112969 -0.218336 0.012661 -0.257251 -0.013665 0.050462 0.001510 -0.079441 0.054854 -0.022934 0.013550 0.126896 0.162766 0.060891 -0.084448 -0.053352 -0.178472 0.102480 -0.034629 0.199905 0.135281 0.157789 -0.109223 -0.127904 0.013150 -0.007086 0.093897 -0.063367 -0.125932 0.045695 0.008852 0.030881 0.019847 -0.088228 -0.065174 0.231496 0.090521 -0.019438 0.062991 -0.041791 -0.086364 0.061647 -0.073892 0.041810 -0.010659 0.088052 -0.063512 0.049632 -0.014318 -0.002768 0.057817 0.029773 -0.012569 -0.075592 0.168827 -0.028730 -0.127731 0.049718 0.004022 -0.035218 0.201448 -0.044010 -0.015667
157 -0.091303 -0.260121 0.205982 -0.028131 -0.099901 0.025724 -0.118461 0.070362 -0.078655 -0.090927 0.040061 0.104627 -0.096335 0.121366 -0.166961 -0.065348 0.077315 0.040332 0.158440 0.169658 0.091879 -0.054928 -0.036065 0.145203 -0.073057 0.169052 -0.050655 -0.038405 -0.029938 -0.173455 0.037777 -0.013977 0.100732 0.101548 0.056639 0.051108 -0.077678 -0.169349 -0.049347 0.057803 0.092232 0.019417 0.138035 0.026246 -0.063792 -0.060400 -0.223597 -0.039476 0.036139 -0.013349 -0.081914 -0.080758 0.091062 -0.011402 0.043621 -0.037089 -0.126507 0.008039 -0.088912 0.037523 -0.216861 -0.257906 -0.073940 0.136265 -0.009861 -0.114062 -0.234159 0.012301 -0.269094 -0.012300 0.055309 0.003887 -0.079933 0.052418 -0.023388 0.010041 0.135266 0.174416 0.068816 -0.092542 -0.052625 -0.187746 0.109243 -0.029886 0.210058 0.134542 0.164297 -0.105107 -0.135297 0.011311 -0.009676 0.099048 -0.066437 -0.131769 0.053583 0.010104 0.032481 0.023061 -0.088569 -0.070668 0.242712 0.095312 -0.026626 0.069682 -0.035451 -0.090245 0.064620 -0.077806 0.047731 -0.016593 0.098576 -0.070814 0.042861 -0.014904 -0.000314 0.058203 0.034580 -0.012822 -0.080297 0.173425 -0.031041 -0.136921 0.053074 0.002963 -0.039777 0.210716 -0.049671 -0.013835
221 -0.097282 -0.260449 0.206348 -0.029169 -0.097285 0.025964 -0.109337 0.068937 -0.074844 -0.088982 0.029555 0.096859 -0.094370 0.121919 -0.157050 -0.069861 0.084143 0.043037 0.161798 0.165023 0.094119 -0.045127 -0.032013 0.147091 -0.065506 0.161942 -0.050238 -0.041713 -0.027454 -0.176509 0.037371 -0.016497 0.091596 0.090804 0.064363 0.052122 -0.075716 -0.170605 -0.042037 0.052139 0.082119 0.012846 0.130507 0.019036 -0.051359 -0.051833 -0.228483 -0.032144 0.035435 -0.015220 -0.073060 -0.081166 0.091676 -0.011956 0.040928 -0.035995 -0.130008 0.011604 -0.095059 0.037508 -0.215151 -0.260564 -0.063986 0.139589 -0.011030 -0.118792 -0.223513 0.015133 -0.259154 -0.009833 0.050027 0.002606 -0.075754 0.059112 -0.014855 0.007751 0.135304 0.166597 0.058320 -0.084750 -0.056656 -0.176342 0.105760 -0.038694 0.201672 0.136501 0.165524 -0.117046 -0.135543 0.022968 -0.013186 0.089405 -0.056219 -0.136221 0.048388 0.004618 0.030627 0.020049 -0.092591 -0.073611 0.231872 0.091422 -0.029642 0.070706 -0.038648 -0.089964 0.064513 -0.078883 0.038556 -0.005018 0.093989 -0.062508 0.045495 -0.013354 -0.007379 0.058030 0.031116 -0.011021 -0.083232 0.173529 -0.034058 -0.131442 0.054021 -0.004393 -0.037764 0.208912 -0.047056 -0.013610
61 -0.090641 -0.266155 0.206828 -0.035731 -0.103541 0.021005 -0.111471 0.061345 -0.070189 -0.084741 0.028326 0.095394 -0.094228 0.120901 -0.160621 -0.068358 0.089744 0.046574 0.158045 0.163051 0.091157 -0.049387 -0.036176 0.143492 -0.055272 0.159051 -0.049968 -0.039756 -0.035067 -0.178379 0.038083 -0.023814 0.087319 0.089531 0.062328 0.049762 -0.072833 -0.178965 -0.038162 0.053718 0.086494 0.004706 0.132902 0.014832 -0.052943 -0.054004 -0.224360 -0.035360 0.036308 -0.014758 -0.070681 -0.076900 0.097943 -0.007332 0.041935 -0.036610 -0.124908 0.009512 -0.097105 0.034508 -0.219458 -0.259763 -0.057163 0.141438 -0.015145 -0.120866 -0.224597 0.012776 -0.256909 -0.010055 0.049542 0.001168 -0.075633 0.057349 -0.016173 0.014604 0.129681 0.167801 0.061975 -0.087164 -0.049702 -0.179591 0.101892 -0.042858 0.203565 0.138715 0.170315 -0.123489 -0.135249 0.023364 -0.012537 0.093115 -0.057774 -0.135762 0.047237 0.011309 0.034531 0.018455 -0.091101 -0.069840 0.232361 0.091127 -0.024586 0.066568 -0.038368 -0.092212 0.058938 -0.083114 0.038614 -0.006229 0.087560 -0.061299 0.055925 -0.012065 -0.007617 0.059857 0.028596 -0.010762 -0.085774 0.175591 -0.031070 -0.121828 0.049555 -0.002276 -0.032960 0.212339 -0.051335 -0.011669
95 -0.087965 -0.260410 0.206621 -0.032845 -0.097309 0.021010 -0.105909 0.064426 -0.069209 -0.080500 0.029854 0.092329 -0.095515 0.117828 -0.159213 -0.065380 0.088151 0.046316 0.160381 0.158407 0.089339 -0.039759 -0.034404 0.148895 -0.055673 0.155596 -0.050487 -0.037955 -0.034690 -0.171635 0.037465 -0.020278 0.083202 0.089356 0.061782 0.046730 -0.077151 -0.173774 -0.043949 0.053470 0.081047 0.005516 0.126066 0.009776 -0.045970 -0.054623 -0.217496 -0.034194 0.036969 -0.016684 -0.066889 -0.076129 0.089580 -0.007081 0.042609 -0.041030 -0.125351 0.010058 -0.094250 0.041152 -0.210863 -0.253608 -0.058735 0.135696 -0.017786 -0.122502 -0.218917 0.016247 -0.255879 -0.008706 0.051990 0.000465 -0.071131 0.058551 -0.020283 0.010418 0.131660 0.162253 0.058027 -0.085378 -0.055754 -0.172605 0.105822 -0.042196 0.206220 0.137849 0.170179 -0.123730 -0.138128 0.018292 -0.016267 0.085819 -0.056491 -0.128349 0.047890 0.010053 0.026821 0.018993 -0.086066 -0.065109 0.230076 0.089051 -0.030411 0.067580 -0.034920 -0.088425 0.056890 -0.085608 0.040184 -0.003295 0.091692 -0.060276 0.054551 -0.008037 -0.003017 0.053474 0.026535 -0.016663 -0.086945 0.175318 -0.032524 -0.125302 0.051521 -0.009084 -0.037586 0.211301 -0.053131 -0.011859
165 -0.089440 -0.272397 0.212601 -0.035649 -0.104361 0.025330 -0.120761 0.063512 -0.076158 -0.081885 0.034059 0.097277 -0.091785 0.121793 -0.164826 -0.069596 0.087597 0.042774 0.163375 0.168215 0.099549 -0.051602 -0.038196 0.147918 -0.057016 0.170496 -0.049749 -0.042972 -0.039840 -0.182374 0.038889 -0.020893 0.095477 0.090530 0.064401 0.048230 -0.077645 -0.181567 -0.039623 0.059985 0.085921 0.009695 0.130870 0.015543 -0.051450 -0.053999 -0.228789 -0.041829 0.034834 -0.010662 -0.070875 -0.078014 0.097343 -0.003874 0.050139 -0.043190 -0.127900 0.012707 -0.093148 0.037204 -0.223211 -0.261742 -0.063267 0.144520 -0.017471 -0.124938 -0.229851 0.016862 -0.270743 -0.009909 0.052472 -0.003558 -0.081531 0.063455 -0.018797 0.012534 0.135483 0.174380 0.064996 -0.090431 -0.054791 -0.183464 0.108788 -0.043388 0.210867 0.144267 0.169438 -0.126730 -0.146951 0.019671 -0.010915 0.094762 -0.057720 -0.141300 0.045206 0.005912 0.028628 0.015554 -0.091101 -0.074471 0.245086 0.094984 -0.025578 0.059485 -0.044539 -0.091145 0.060060 -0.082789 0.043895 -0.010749 0.088509 -0.069038 0.054517 -0.014386 -0.001379 0.055591 0.036327 -0.012544 -0.087525 0.183773 -0.033557 -0.125036 0.048931 -0.005328 -0.032650 0.218724 -0.050235 -0.013341
198 -0.085542 -0.271203 0.208650 -0.036835 -0.107599 0.022052 -0.118140 0.063064 -0.069788 -0.085576 0.027020 0.103880 -0.090196 0.127230 -0.160963 -0.071410 0.080243 0.040766 0.167736 0.176077 0.093856 -0.050097 -0.041584 0.149935 -0.068325 0.171234 -0.044837 -0.040320 -0.031966 -0.173281 0.036808 -0.017338 0.099778 0.102852 0.062559 0.052180 -0.072585 -0.170402 -0.046275 0.058916 0.090232 0.008338 0.135798 0.018386 -0.052588 -0.060633 -0.218317 -0.046357 0.031244 -0.015979 -0.079575 -0.076750 0.095877 -0.012404 0.047800 -0.035109 -0.121825 0.012854 -0.092576 0.042319 -0.214973 -0.260562 -0.065245 0.136498 -0.012710 -0.125017 -0.228473 0.023066 -0.266905 -0.017003 0.060113 -0.003021 -0.082531 0.056494 -0.017641 0.009157 0.136568 0.169666 0.058274 -0.092742 -0.057070 -0.178231 0.101295 -0.039743 0.211673 0.142494 0.165671 -0.113242 -0.141432 0.017025 -0.008981 0.091221 -0.056210 -0.128919 0.048903 0.010658 0.038629 0.025117 -0.093462 -0.069233 0.241633 0.091107 -0.030575 0.062181 -0.039621 -0.084601 0.064328 -0.084918 0.038158 -0.012929 0.090040 -0.064385 0.052223 -0.016176 -0.001295 0.064372 0.038491 -0.008029 -0.083383 0.179559 -0.028316 -0.131997 0.050887 0.000739 -0.043342 0.206202 -0.046919 -0.019623
19 -0.080640 -0.279645 0.220162 -0.041359 -0.107792 0.022789 -0.112154 0.059743 -0.067914 -0.088304 0.022874 0.110900 -0.101363 0.128038 -0.163334 -0.065285 0.082336 0.039149 0.169490 0.183434 0.102466 -0.057331 -0.035415 0.155439 -0.064275 0.176086 -0.052467 -0.038188 -0.033983 -0.180945 0.038054 -0.018762 0.101850 0.096687 0.067318 0.050424 -0.082478 -0.167127 -0.043222 0.054451 0.086871 0.011471 0.138028 0.018706 -0.045616 -0.060924 -0.217944 -0.041824 0.032714 -0.019003 -0.086049 -0.082968 0.088021 -0.017583 0.060114 -0.031724 -0.126441 0.013151 -0.086571 0.035772 -0.222745 -0.267404 -0.064030 0.144617 -0.015062 -0.133248 -0.223837 0.020610 -0.265511 -0.020362 0.061888 -0.008249 -0.077522 0.052881 -0.025600 0.001791 0.138439 0.177289 0.058483 -0.103498 -0.058252 -0.185880 0.106232 -0.045226 0.206844 0.138773 0.173975 -0.110691 -0.140471 0.014323 -0.010789 0.100596 -0.051439 -0.126802 0.041761 0.019827 0.036309 0.030031 -0.093006 -0.068257 0.244292 0.092931 -0.033476 0.064320 -0.038284 -0.089874 0.062537 -0.082488 0.039133 -0.010738 0.090480 -0.070489 0.049219 -0.020800 0.004723 0.069156 0.041188 -0.003965 -0.089494 0.182900 -0.034678 -0.143385 0.050437 -0.010350 -0.049550 0.211770 -0.052905 -0.021659
207 -0.086555 -0.271570 0.212336 -0.034022 -0.099881 0.019365 -0.107947 0.060986 -0.069110 -0.085826 0.028645 0.106152 -0.096230 0.126746 -0.161063 -0.061835 0.086529 0.041988 0.160766 0.168283 0.098752 -0.049359 -0.034934 0.151111 -0.062889 0.163917 -0.055263 -0.039860 -0.028372 -0.174819 0.033356 -0.017165 0.099341 0.101189 0.067811 0.045007 -0.073133 -0.168459 -0.047916 0.053044 0.087211 0.014354 0.136777 0.019146 -0.047710 -0.062472 -0.219300 -0.035257 0.033352 -0.019340 -0.081193 -0.079060 0.092058 -0.016577 0.049916 -0.034655 -0.119834 0.008908 -0.091643 0.038857 -0.219832 -0.257143 -0.066653 0.136118 -0.011625 -0.124331 -0.225317 0.021022 -0.257662 -0.015817 0.058194 -0.008091 -0.077863 0.050854 -0.019754 0.008753 0.130013 0.171205 0.059546 -0.096321 -0.056892 -0.184476 0.105631 -0.039264 0.208452 0.135353 0.166960 -0.114912 -0.132002 0.014655 -0.008751 0.095751 -0.054863 -0.130108 0.049464 0.016882 0.037936 0.026050 -0.093884 -0.063240 0.234488 0.087853 -0.029078 0.068409 -0.038427 -0.089570 0.058835 -0.079197 0.041474 -0.008254 0.092916 -0.066577 0.045961 -0.011272 0.001846 0.060806 0.032058 -0.011962 -0.082164 0.175412 -0.029208 -0.137778 0.049156 -0.006147 -0.045384 0.202884 -0.046145 -0.014645
112 -0.082086 -0.283999 0.223279 -0.041933 -0.110680 0.017695 -0.109611 0.067289 -0.069530 -0.093202 0.027329 0.105776 -0.103235 0.124773 -0.161473 -0.066667 0.088819 0.045043 0.169951 0.182455 0.103527 -0.057730 -0.031881 0.151658 -0.066998 0.172589 -0.051848 -0.038818 -0.033419 -0.186107 0.038421 -0.022580 0.101027 0.102959 0.070501 0.054028 -0.075794 -0.171297 -0.050437 0.050207 0.084740 0.010219 0.138301 0.023105 -0.047892 -0.065893 -0.220198 -0.035900 0.038876 -0.023469 -0.086994 -0.079225 0.094029 -0.014713 0.056165 -0.032934 -0.121490 0.011259 -0.091950 0.038670 -0.225531 -0.268618 -0.071047 0.145430 -0.011835 -0.133181 -0.228033 0.022005 -0.263392 -0.017162 0.061203 -0.009377 -0.078655 0.053078 -0.026827 0.012038 0.137612 0.175363 0.067619 -0.103282 -0.055024 -0.189443 0.109506 -0.041517 0.215544 0.140499 0.175229 -0.111957 -0.140070 0.014768 -0.010956 0.101465 -0.056088 -0.129513 0.043581 0.021018 0.039734 0.031995 -0.092433 -0.062127 0.240509 0.091963 -0.024552 0.070099 -0.037214 -0.090570 0.063249 -0.087290 0.039882 -0.010456 0.094250 -0.072659 0.050239 -0.021190 0.001245 0.065738 0.038145 -0.006946 -0.091127 0.178547 -0.037228 -0.144253 0.056515 -0.011684 -0.048464 0.214562 -0.049513 -0.019155
163 -0.084573 -0.262990 0.206811 -0.033397 -0.101102 0.019605 -0.114692 0.064052 -0.075375 -0.089237 0.029481 0.102614 -0.090013 0.118744 -0.162575 -0.070373 0.080708 0.041071 0.158815 0.168214 0.096876 -0.049231 -0.037086 0.146705 -0.061812 0.162157 -0.051371 -0.035743 -0.035392 -0.172386 0.036133 -0.017395 0.099830 0.099936 0.060344 0.046440 -0.076187 -0.169319 -0.042200 0.054510 0.086013 0.009999 0.133596 0.017811 -0.058573 -0.057318 -0.222005 -0.044162 0.035033 -0.015655 -0.076896 -0.080062 0.096493 -0.014000 0.046044 -0.034125 -0.119276 0.013144 -0.090489 0.040092 -0.211916 -0.249432 -0.068701 0.132625 -0.013824 -0.117573 -0.227478 0.018064 -0.264449 -0.012646 0.054967 -0.004588 -0.080684 0.053182 -0.017574 0.013540 0.129613 0.173274 0.063437 -0.089794 -0.052090 -0.178960 0.106563 -0.036096 0.207502 0.140732 0.162086 -0.108936 -0.138410 0.019155 -0.010498 0.094127 -0.058853 -0.129674 0.046316 0.005450 0.032321 0.023577 -0.093426 -0.064436 0.240066 0.092251 -0.022747 0.063541 -0.040923 -0.083457 0.060033 -0.083158 0.040895 -0.012354 0.091865 -0.068712 0.048405 -0.011224 -0.004796 0.054962 0.032681 -0.014064 -0.078542 0.171878 -0.030071 -0.129491 0.051932 0.001516 -0.036424 0.204253 -0.047909 -0.016040
111 -0.092406 -0.280234 0.218134 -0.039116 -0.104836 0.026295 -0.126926 0.066672 -0.080571 -0.092971 0.033753 0.102481 -0.100463 0.126181 -0.174337 -0.077450 0.087193 0.043088 0.172287 0.173607 0.097782 -0.050859 -0.044051 0.157391 -0.065655 0.171652 -0.048274 -0.043582 -0.032684 -0.183555 0.041542 -0.021410 0.104530 0.101275 0.064305 0.053251 -0.078571 -0.179870 -0.041149 0.056176 0.096426 0.011291 0.140984 0.023057 -0.056611 -0.060643 -0.239619 -0.043127 0.036919 -0.012254 -0.082514 -0.086050 0.098168 -0.009678 0.052100 -0.042325 -0.133025 0.013545 -0.097394 0.036284 -0.225076 -0.272379 -0.070463 0.144973 -0.014653 -0.123604 -0.238763 0.020340 -0.273745 -0.011228 0.051681 -0.000614 -0.085194 0.062036 -0.023307 0.008274 0.142419 0.182088 0.063385 -0.096906 -0.059996 -0.188458 0.108594 -0.043630 0.212845 0.148496 0.172682 -0.124673 -0.145237 0.019163 -0.011743 0.098115 -0.064811 -0.145030 0.047068 0.010090 0.034334 0.020479 -0.100318 -0.073793 0.256422 0.093305 -0.030821 0.064628 -0.041064 -0.090763 0.062679 -0.089416 0.042411 -0.011693 0.096371 -0.069675 0.054621 -0.017131 -0.003519 0.060149 0.032465 -0.010957 -0.088255 0.191550 -0.030884 -0.135107 0.053294 -0.004875 -0.041213 0.221562 -0.050978 -0.011169
