18 128
198 -0.104092 0.172756 0.040573 -0.052760 0.094185 0.060440 -0.023969 0.046037 -0.140475 -0.031586 0.144503 -0.089923 0.043258 -0.059151 0.004936 -0.192738 0.058784 -0.028024 -0.097345 0.039509 -0.134288 -0.009545 -0.134825 0.074093 -0.026699 0.246966 0.089128 -0.209789 -0.128884 0.125912 -0.077785 0.013149 -0.054066 0.070667 0.049060 0.194359 0.182667 -0.138968 0.111430 -0.106823 0.026143 -0.010153 -0.144406 -0.048022 0.067888 -0.047015 -0.125800 -0.180123 0.123894 0.086699 0.017387 0.024564 0.083282 -0.079926 -0.227806 -0.106847 -0.126666 -0.018267 0.055033 0.106040 -0.083643 -0.137465 0.057961 -0.034923 -0.046410 0.021220 -0.014094 0.016847 -0.177736 0.006191 -0.043404 -0.093248 0.055575 0.120612 -0.081638 -0.086346 0.186563 -0.120221 -0.076790 -0.053043 -0.287990 -0.060390 -0.038577 -0.187394 0.011206 0.094934 -0.046067 -0.162102 -0.122459 -0.101837 -0.069405 0.123208 0.014539 0.061977 0.087573 -0.184779 -0.145925 -0.069564 0.044647 0.086139 0.130992 -0.001401 0.088497 -0.023395 0.115046 0.030450 0.052718 -0.010799 0.008856 -0.027082 -0.042006 -0.051007 0.010262 -0.001701 0.037349 0.030899 -0.088414 0.015034 0.048900 0.219256 0.011866 0.064243 -0.065612 -0.185712 0.049409 0.002739 0.184492 0.074034
84 -0.110492 0.167854 0.046237 -0.039578 0.097847 0.062233 -0.026215 0.039226 -0.137131 -0.032662 0.148907 -0.085130 0.041439 -0.062890 0.001995 -0.178072 0.061280 -0.021819 -0.091418 0.037261 -0.131345 -0.009293 -0.126716 0.075438 -0.020947 0.236505 0.082962 -0.193890 -0.123600 0.119217 -0.072997 0.018960 -0.062690 0.069772 0.054346 0.190194 0.174875 -0.124222 0.106096 -0.110001 0.013411 -0.003636 -0.136515 -0.046399 0.057193 -0.044479 -0.128100 -0.173516 0.119446 0.075879 0.019471 0.016207 0.071066 -0.078021 -0.219165 -0.108906 -0.117045 -0.012771 0.052363 0.106025 -0.082334 -0.126588 0.047818 -0.029066 -0.041530 0.024381 -0.020860 0.015879 -0.169860 -0.003898 -0.048076 -0.091179 0.050677 0.120618 -0.081803 -0.085387 0.187589 -0.111512 -0.073802 -0.047097 -0.273317 -0.060305 -0.038411 -0.179848 0.012574 0.092728 -0.040263 -0.161529 -0.117486 -0.095104 -0.076619 0.121883 0.011291 0.051930 0.074816 -0.174730 -0.150714 -0.066663 0.045572 0.095253 0.137024 -0.002953 0.085882 -0.022727 0.115875 0.024102 0.040469 -0.011566 0.018405 -0.023474 -0.042772 -0.054131 0.017092 -0.004602 0.037420 0.036406 -0.088747 0.016910 0.041890 0.216197 0.005802 0.066012 -0.065202 -0.183984 0.050244 0.003238 0.188353 0.068918
133 -0.106296 0.163509 0.041944 -0.046964 0.092732 0.057085 -0.024259 0.047202 -0.135987 -0.031296 0.143583 -0.088634 0.035687 -0.059488 0.003884 -0.187059 0.054534 -0.025604 -0.092824 0.036693 -0.124553 -0.009322 -0.130860 0.069882 -0.027293 0.238219 0.085760 -0.200241 -0.119886 0.122724 -0.078764 0.012671 -0.055608 0.067161 0.048358 0.187888 0.171113 -0.125860 0.104867 -0.103666 0.021705 -0.004029 -0.134041 -0.043467 0.061248 -0.043124 -0.126190 -0.173129 0.115278 0.081035 0.019117 0.017180 0.078601 -0.076005 -0.218556 -0.099783 -0.125015 -0.018283 0.056151 0.100728 -0.076607 -0.128887 0.050352 -0.034629 -0.046837 0.023025 -0.016619 0.011918 -0.163435 0.004300 -0.048327 -0.087253 0.055458 0.118236 -0.077598 -0.083622 0.174246 -0.107470 -0.069751 -0.050334 -0.274559 -0.056741 -0.035605 -0.177205 0.006437 0.091659 -0.040313 -0.152103 -0.114616 -0.093318 -0.070013 0.119190 0.012182 0.052706 0.075555 -0.180074 -0.144602 -0.063668 0.042658 0.080265 0.128775 -0.004388 0.089054 -0.023310 0.112045 0.025433 0.043745 -0.007186 0.013927 -0.027003 -0.040313 -0.054759 0.005853 -0.004281 0.037619 0.026322 -0.087249 0.016845 0.048758 0.205180 0.008216 0.058901 -0.062818 -0.182302 0.052182 0.004662 0.178992 0.073732
108 -0.109131 0.192367 0.028004 -0.072741 0.116725 0.060005 -0.007960 0.065633 -0.154340 -0.021575 0.152523 -0.105506 0.046489 -0.068745 0.013199 -0.197874 0.058223 -0.027228 -0.112717 0.036252 -0.140238 -0.005671 -0.130050 0.070285 -0.029084 0.249803 0.087797 -0.229211 -0.126812 0.132628 -0.074734 0.011992 -0.050138 0.055391 0.039026 0.198834 0.185929 -0.145861 0.122420 -0.112696 0.032408 0.001561 -0.159084 -0.048069 0.076243 -0.046757 -0.129252 -0.174774 0.128250 0.094704 0.009779 0.027201 0.091198 -0.082062 -0.231239 -0.098108 -0.139337 -0.035021 0.057927 0.099900 -0.080110 -0.136654 0.068054 -0.039708 -0.052688 0.036141 0.000485 0.007352 -0.172021 0.017528 -0.042683 -0.088202 0.059636 0.114084 -0.096780 -0.088817 0.181548 -0.137250 -0.078262 -0.059977 -0.299757 -0.074768 -0.030930 -0.184683 -0.003356 0.090798 -0.043916 -0.154983 -0.114625 -0.117125 -0.055959 0.126892 0.008637 0.068776 0.087105 -0.195040 -0.155270 -0.074887 0.044105 0.080567 0.113203 -0.009943 0.099592 -0.012632 0.115325 0.022491 0.066988 -0.000850 0.003660 -0.029908 -0.023687 -0.059045 -0.008325 0.001716 0.036930 0.027802 -0.094373 0.010632 0.061014 0.226663 0.009986 0.062716 -0.069410 -0.204026 0.051780 0.002834 0.180667 0.087863
191 -0.116170 0.212879 0.023616 -0.095511 0.136512 0.060586 0.005292 0.081640 -0.173531 -0.022822 0.158502 -0.120176 0.057515 -0.076589 0.023813 -0.215263 0.064755 -0.024924 -0.132870 0.029286 -0.163147 -0.009674 -0.134949 0.067824 -0.030495 0.267152 0.104140 -0.263630 -0.132232 0.156887 -0.079029 0.002091 -0.041586 0.051110 0.033280 0.204535 0.203601 -0.165841 0.141695 -0.131166 0.032938 0.008183 -0.179594 -0.047608 0.095275 -0.053975 -0.134113 -0.177090 0.142466 0.107331 0.007568 0.035595 0.103530 -0.093061 -0.240059 -0.092653 -0.158090 -0.045757 0.066092 0.108569 -0.074432 -0.143084 0.081626 -0.055864 -0.055644 0.050025 0.006219 0.008868 -0.180863 0.030522 -0.041383 -0.091709 0.064694 0.114942 -0.104495 -0.094794 0.193815 -0.158833 -0.086973 -0.072152 -0.322231 -0.084797 -0.023029 -0.196798 -0.009116 0.092098 -0.048204 -0.157018 -0.126004 -0.130701 -0.048371 0.133252 0.009245 0.073321 0.098743 -0.221095 -0.164304 -0.082475 0.044653 0.077941 0.092942 -0.018658 0.103996 -0.006401 0.129443 0.022074 0.079561 -0.006664 -0.009701 -0.037581 -0.009354 -0.071041 -0.030641 0.011967 0.040439 0.015934 -0.100638 0.004105 0.073128 0.248143 0.010730 0.076347 -0.077940 -0.232934 0.051152 -0.005925 0.178200 0.105613
89 -0.119357 0.207983 0.033307 -0.081947 0.126494 0.067467 -0.006169 0.068904 -0.170872 -0.028843 0.160273 -0.107895 0.048708 -0.074461 0.018028 -0.223619 0.064800 -0.031889 -0.122335 0.033117 -0.153078 -0.010834 -0.140808 0.076429 -0.033309 0.272163 0.101966 -0.254992 -0.140293 0.151576 -0.087098 0.007409 -0.047727 0.059335 0.038540 0.208604 0.206442 -0.161155 0.136228 -0.130226 0.035381 0.003906 -0.176054 -0.050666 0.090890 -0.054384 -0.139451 -0.187230 0.140188 0.106793 0.009689 0.027503 0.095061 -0.093436 -0.244319 -0.102527 -0.152087 -0.036125 0.063625 0.112193 -0.084938 -0.143915 0.074438 -0.049654 -0.058126 0.044869 -0.005260 0.010861 -0.190889 0.023639 -0.049801 -0.102344 0.070907 0.119824 -0.100187 -0.097104 0.202015 -0.144706 -0.085643 -0.072553 -0.329622 -0.082528 -0.027718 -0.200950 -0.008109 0.101545 -0.048633 -0.165824 -0.131543 -0.123894 -0.064431 0.141349 0.009746 0.067179 0.100923 -0.221173 -0.163818 -0.085174 0.046143 0.083518 0.120186 -0.012462 0.106363 -0.010085 0.133461 0.031863 0.077570 -0.010599 -0.001376 -0.036407 -0.024308 -0.069194 -0.019317 0.004450 0.037057 0.021615 -0.103598 0.011139 0.067932 0.255363 0.012099 0.077859 -0.078793 -0.227646 0.055066 0.000756 0.199851 0.105576
154 -0.095949 0.179958 0.029059 -0.069252 0.105580 0.051990 -0.006981 0.063428 -0.142031 -0.017917 0.140106 -0.097651 0.046347 -0.057317 0.012961 -0.179763 0.053027 -0.025664 -0.106671 0.028623 -0.136091 -0.007182 -0.123953 0.064798 -0.030380 0.231662 0.082700 -0.216113 -0.121007 0.127326 -0.074587 0.005423 -0.040743 0.054408 0.031909 0.182680 0.175942 -0.138105 0.113632 -0.106903 0.029859 0.001716 -0.146401 -0.045876 0.075221 -0.046781 -0.120006 -0.160800 0.119193 0.090997 0.009832 0.031867 0.083975 -0.080581 -0.212048 -0.090923 -0.131892 -0.032117 0.054539 0.094733 -0.068792 -0.128538 0.064884 -0.036904 -0.043638 0.037088 0.002112 0.007841 -0.159791 0.016870 -0.039279 -0.085781 0.055321 0.105784 -0.090592 -0.085628 0.165491 -0.126522 -0.075725 -0.059968 -0.279645 -0.068969 -0.030043 -0.173311 -0.006923 0.079991 -0.040237 -0.144373 -0.107375 -0.108942 -0.051591 0.116094 0.013419 0.064762 0.085237 -0.185141 -0.148223 -0.074263 0.042383 0.073857 0.104987 -0.014028 0.091947 -0.011526 0.112916 0.024703 0.066398 -0.001928 -0.000957 -0.031806 -0.017043 -0.055514 -0.010528 0.003025 0.035026 0.022058 -0.083371 0.012097 0.052601 0.213810 0.010759 0.058778 -0.066474 -0.194838 0.049117 0.005025 0.162387 0.087850
142 -0.109208 0.198276 0.017764 -0.093829 0.125377 0.061139 -0.000480 0.076879 -0.165750 -0.016672 0.145866 -0.112967 0.056740 -0.065966 0.021480 -0.209628 0.062813 -0.023116 -0.124578 0.033392 -0.152917 -0.006540 -0.137840 0.061163 -0.027829 0.255409 0.097787 -0.246734 -0.129915 0.147077 -0.076455 0.005331 -0.031283 0.052773 0.028966 0.203343 0.194015 -0.160307 0.134057 -0.123199 0.033832 0.010605 -0.169307 -0.050987 0.086180 -0.047189 -0.133444 -0.166925 0.138768 0.108367 0.003604 0.039674 0.101006 -0.085210 -0.231486 -0.083119 -0.153620 -0.044757 0.063960 0.098484 -0.070453 -0.135614 0.076742 -0.053980 -0.055645 0.051489 0.004019 0.005304 -0.170936 0.032970 -0.037682 -0.093496 0.059481 0.103007 -0.104147 -0.093637 0.186491 -0.154181 -0.085264 -0.071941 -0.311824 -0.086851 -0.022152 -0.186265 -0.006289 0.087872 -0.043309 -0.151773 -0.124686 -0.125006 -0.048777 0.127834 0.012127 0.074396 0.098402 -0.210064 -0.159258 -0.081180 0.040934 0.072518 0.090787 -0.020628 0.101744 -0.007376 0.120884 0.021428 0.079749 -0.000237 -0.004995 -0.037614 -0.008692 -0.065951 -0.030694 0.007177 0.038841 0.012874 -0.093153 -0.000042 0.072332 0.238129 0.014693 0.070514 -0.067162 -0.221362 0.048655 -0.004813 0.170204 0.105988
186 -0.104370 0.158194 0.041461 -0.035511 0.086949 0.054133 -0.030012 0.034512 -0.136260 -0.040292 0.142592 -0.082069 0.039940 -0.058503 0.005556 -0.178337 0.062607 -0.021900 -0.087339 0.037141 -0.119700 -0.012025 -0.131815 0.069875 -0.019846 0.236611 0.084995 -0.192408 -0.128812 0.117695 -0.072506 0.018018 -0.058211 0.075034 0.049064 0.187035 0.171272 -0.122230 0.107631 -0.107968 0.013470 -0.008664 -0.133874 -0.042876 0.056576 -0.044845 -0.125795 -0.171998 0.123150 0.078811 0.019224 0.013088 0.075391 -0.074795 -0.211547 -0.106736 -0.118878 -0.012951 0.056135 0.101753 -0.079195 -0.131272 0.047602 -0.036998 -0.039217 0.020678 -0.018467 0.016555 -0.168064 -0.001782 -0.048130 -0.087328 0.057223 0.117970 -0.076998 -0.085531 0.183498 -0.110697 -0.069717 -0.050099 -0.268433 -0.056637 -0.032945 -0.183062 0.009810 0.092181 -0.037838 -0.157049 -0.117714 -0.088523 -0.076361 0.120685 0.015815 0.049892 0.079398 -0.174223 -0.145423 -0.064836 0.045266 0.089587 0.132964 -0.001959 0.087600 -0.019910 0.110425 0.024122 0.040100 -0.007843 0.017147 -0.022116 -0.043355 -0.047291 0.016065 0.001397 0.036670 0.030541 -0.084303 0.013424 0.042899 0.199474 0.013318 0.057006 -0.059062 -0.171380 0.050109 0.004767 0.175707 0.063776
178 -0.109982 0.213347 0.018642 -0.092749 0.135496 0.059411 -0.000831 0.082490 -0.167430 -0.016996 0.158847 -0.115197 0.058736 -0.072634 0.022061 -0.218830 0.063353 -0.025755 -0.128753 0.034173 -0.159212 -0.003638 -0.141434 0.065955 -0.029236 0.266773 0.100787 -0.258337 -0.136171 0.155134 -0.076183 0.003673 -0.032004 0.052113 0.026315 0.209149 0.204005 -0.162241 0.135819 -0.125995 0.034744 0.014181 -0.174448 -0.048501 0.096252 -0.050366 -0.133095 -0.177301 0.142123 0.113013 0.004399 0.036860 0.105212 -0.093326 -0.241666 -0.084029 -0.161443 -0.043015 0.067106 0.104054 -0.074966 -0.143827 0.084563 -0.054704 -0.056802 0.052037 0.008597 0.002119 -0.181735 0.037487 -0.041155 -0.093429 0.067913 0.107925 -0.109220 -0.099978 0.192851 -0.159727 -0.080785 -0.070293 -0.325821 -0.088487 -0.023348 -0.190568 -0.009383 0.095368 -0.042007 -0.158451 -0.128646 -0.134826 -0.047538 0.134971 0.016141 0.073208 0.104383 -0.220668 -0.165895 -0.084312 0.041573 0.070790 0.093618 -0.022676 0.106954 -0.005893 0.123491 0.023759 0.086886 -0.003154 -0.010725 -0.034791 -0.004670 -0.068377 -0.031855 0.010676 0.033897 0.019212 -0.102423 0.001470 0.071417 0.244695 0.009465 0.076075 -0.072704 -0.235842 0.051058 0.000557 0.178294 0.109864
174 -0.100351 0.158389 0.047363 -0.030073 0.080635 0.060673 -0.028953 0.028903 -0.125655 -0.042091 0.138071 -0.072233 0.035302 -0.053874 0.001071 -0.173903 0.057899 -0.025987 -0.086284 0.034454 -0.117402 -0.011764 -0.126485 0.074538 -0.018053 0.231795 0.081643 -0.178666 -0.128410 0.117124 -0.076324 0.013048 -0.058375 0.075827 0.055272 0.184700 0.163622 -0.125344 0.101481 -0.105338 0.015086 -0.012573 -0.123785 -0.043305 0.050987 -0.044326 -0.123228 -0.167704 0.122090 0.076645 0.022402 0.016778 0.071287 -0.071598 -0.215631 -0.109642 -0.116584 -0.009299 0.056684 0.098408 -0.084024 -0.126333 0.042517 -0.032383 -0.043503 0.017445 -0.023505 0.012427 -0.174166 -0.004271 -0.050325 -0.094502 0.054241 0.116708 -0.077249 -0.086575 0.185682 -0.102092 -0.071314 -0.048079 -0.271517 -0.054836 -0.035954 -0.181204 0.019699 0.088588 -0.043524 -0.158451 -0.116976 -0.086409 -0.077621 0.124280 0.012158 0.053493 0.083076 -0.170582 -0.142601 -0.059569 0.043318 0.091759 0.139277 0.006248 0.080107 -0.023332 0.114113 0.029764 0.039771 -0.012530 0.013661 -0.019302 -0.049245 -0.045550 0.021144 -0.006176 0.039549 0.025196 -0.087045 0.010374 0.038565 0.195722 0.014370 0.055586 -0.054547 -0.166498 0.048298 -0.001153 0.177808 0.068608
221 -0.121613 0.210158 0.029276 -0.081487 0.131522 0.065202 -0.001723 0.078205 -0.173654 -0.032347 0.156498 -0.114670 0.054422 -0.076122 0.020786 -0.224386 0.066695 -0.030134 -0.124384 0.035129 -0.155481 -0.007135 -0.139032 0.072314 -0.035442 0.268224 0.104307 -0.258987 -0.131393 0.152820 -0.085475 0.008705 -0.043790 0.055124 0.040629 0.211140 0.207394 -0.158581 0.137929 -0.132250 0.028714 0.009835 -0.179042 -0.047429 0.093416 -0.047442 -0.140757 -0.182879 0.140500 0.106904 0.009812 0.029553 0.095335 -0.099165 -0.249133 -0.094144 -0.159420 -0.034266 0.063255 0.111525 -0.079760 -0.146814 0.075437 -0.052766 -0.050661 0.046220 0.001548 0.010357 -0.182551 0.030552 -0.046687 -0.097805 0.067709 0.123005 -0.097187 -0.101098 0.203657 -0.152780 -0.087302 -0.067512 -0.329240 -0.078564 -0.026333 -0.202056 -0.009415 0.096605 -0.048852 -0.165803 -0.134417 -0.123559 -0.061358 0.134993 0.016841 0.067220 0.097822 -0.223203 -0.164005 -0.082671 0.041586 0.077229 0.108385 -0.012748 0.102856 -0.006935 0.125888 0.026852 0.078616 -0.006585 -0.004622 -0.031539 -0.015351 -0.068565 -0.029386 0.007603 0.035167 0.023153 -0.099500 0.008538 0.072014 0.250889 0.007212 0.072896 -0.073842 -0.235511 0.051215 -0.003923 0.193159 0.100523
163 -0.104274 0.166009 0.046677 -0.046885 0.092973 0.056221 -0.022871 0.045289 -0.142024 -0.038801 0.140698 -0.084114 0.038045 -0.063552 0.000217 -0.189555 0.059423 -0.025212 -0.096400 0.039537 -0.124605 -0.009628 -0.129492 0.075905 -0.021427 0.238136 0.081763 -0.199066 -0.128118 0.120387 -0.077163 0.012773 -0.053820 0.071523 0.051302 0.185543 0.172375 -0.131680 0.109560 -0.109171 0.018331 -0.009140 -0.139209 -0.046883 0.060258 -0.043604 -0.129778 -0.177343 0.124032 0.081486 0.019334 0.014180 0.079223 -0.083190 -0.221165 -0.104270 -0.121624 -0.012836 0.054759 0.105917 -0.082142 -0.129601 0.049070 -0.034318 -0.046400 0.020816 -0.018392 0.016890 -0.174218 0.005250 -0.044116 -0.094515 0.055320 0.118583 -0.076550 -0.082308 0.182061 -0.108091 -0.069779 -0.052244 -0.277825 -0.059666 -0.033301 -0.183248 0.011868 0.096360 -0.043139 -0.157373 -0.122629 -0.092923 -0.074552 0.123643 0.013490 0.056470 0.078469 -0.183412 -0.148132 -0.065264 0.042244 0.091009 0.135446 0.000861 0.090357 -0.021660 0.111962 0.030194 0.043581 -0.013132 0.014051 -0.025859 -0.040345 -0.055937 0.009560 0.000943 0.033298 0.027068 -0.089650 0.013831 0.049276 0.209516 0.007063 0.062647 -0.064115 -0.182899 0.053871 0.002529 0.183045 0.070795
233 -0.105001 0.167300 0.037406 -0.056568 0.100168 0.056186 -0.014708 0.050703 -0.142552 -0.029392 0.135615 -0.086043 0.040991 -0.059377 0.013668 -0.181288 0.059725 -0.020533 -0.097606 0.032818 -0.128634 -0.008992 -0.127847 0.070554 -0.022321 0.236142 0.084851 -0.210050 -0.118558 0.125211 -0.072823 0.009606 -0.043052 0.061692 0.038749 0.185263 0.169289 -0.135597 0.113045 -0.107381 0.024920 -0.003371 -0.139049 -0.041747 0.067195 -0.042842 -0.125279 -0.161070 0.124247 0.088149 0.014228 0.023101 0.083528 -0.074693 -0.210535 -0.092131 -0.125933 -0.021308 0.058688 0.094146 -0.076329 -0.128732 0.057500 -0.035776 -0.044415 0.032832 -0.005231 0.014925 -0.165562 0.008405 -0.041935 -0.089914 0.055296 0.107660 -0.082212 -0.083348 0.174673 -0.116793 -0.071473 -0.057749 -0.272000 -0.065061 -0.028534 -0.174348 -0.001190 0.088358 -0.042928 -0.150639 -0.113687 -0.096760 -0.059535 0.117400 0.007436 0.054048 0.081171 -0.178874 -0.138116 -0.069097 0.037200 0.074100 0.112498 -0.010032 0.083660 -0.014005 0.109808 0.020717 0.058037 -0.008375 0.002052 -0.024356 -0.026984 -0.050211 0.000216 0.003872 0.031188 0.025377 -0.085570 0.012844 0.046811 0.209673 0.005903 0.061351 -0.063770 -0.183346 0.047149 0.002248 0.169826 0.081395
106 -0.109027 0.190860 0.034226 -0.069018 0.114257 0.062734 -0.010342 0.063195 -0.165651 -0.036938 0.151742 -0.103319 0.042033 -0.074287 0.009482 -0.214264 0.068338 -0.030563 -0.116746 0.038719 -0.147700 -0.012270 -0.140269 0.067819 -0.033215 0.260636 0.097020 -0.242417 -0.131727 0.143993 -0.086106 0.013169 -0.047166 0.061413 0.041634 0.203094 0.198918 -0.152363 0.129091 -0.123222 0.030868 0.002204 -0.168401 -0.047287 0.079532 -0.047234 -0.132785 -0.184051 0.133231 0.096322 0.008391 0.028892 0.090013 -0.093639 -0.240904 -0.096273 -0.146459 -0.030038 0.060248 0.104631 -0.081298 -0.141725 0.069759 -0.049217 -0.049658 0.037576 -0.005905 0.012011 -0.177517 0.026163 -0.049009 -0.097608 0.069164 0.116908 -0.093808 -0.092236 0.190047 -0.134456 -0.077716 -0.062134 -0.310466 -0.074524 -0.027047 -0.198049 -0.007983 0.095525 -0.049245 -0.163239 -0.129881 -0.118103 -0.068980 0.133538 0.012335 0.067318 0.093433 -0.206924 -0.154257 -0.077960 0.045497 0.082174 0.117322 -0.004760 0.102166 -0.013970 0.124826 0.027284 0.068222 -0.005081 0.005718 -0.028817 -0.028613 -0.065133 -0.022001 0.006122 0.036013 0.023719 -0.098407 0.008531 0.068760 0.236472 0.006719 0.070941 -0.070048 -0.220411 0.051160 -0.004432 0.192957 0.090346
3 -0.116443 0.191794 0.039586 -0.067434 0.116320 0.061245 -0.007323 0.062434 -0.163219 -0.032877 0.153534 -0.104827 0.040429 -0.075479 0.009661 -0.208940 0.067895 -0.030809 -0.113505 0.033566 -0.147962 -0.007618 -0.135415 0.077613 -0.025148 0.253840 0.094300 -0.231016 -0.124277 0.143729 -0.083248 0.007626 -0.053767 0.064251 0.042293 0.195586 0.193913 -0.145469 0.127061 -0.117701 0.028237 -0.003388 -0.160065 -0.042775 0.077239 -0.049276 -0.129347 -0.183308 0.125786 0.097613 0.016528 0.023028 0.084128 -0.088678 -0.237493 -0.102297 -0.143412 -0.027075 0.056963 0.110842 -0.085536 -0.136799 0.065665 -0.039281 -0.050580 0.032387 -0.001831 0.016027 -0.177587 0.015552 -0.043425 -0.093932 0.060889 0.122727 -0.089811 -0.094122 0.195672 -0.134724 -0.074986 -0.062079 -0.307065 -0.069471 -0.031578 -0.195598 -0.000713 0.098159 -0.046924 -0.160504 -0.129267 -0.114962 -0.066422 0.132605 0.009766 0.064459 0.085217 -0.201444 -0.160646 -0.072207 0.048354 0.083737 0.115366 -0.006704 0.093695 -0.016096 0.125089 0.031367 0.064669 -0.008560 0.007116 -0.031604 -0.023650 -0.063782 -0.011186 0.005057 0.036757 0.029022 -0.098250 0.014718 0.065872 0.237017 0.004771 0.066424 -0.074084 -0.215244 0.049108 0.000510 0.191683 0.092076
35 -0.111980 0.180995 0.037230 -0.057441 0.101272 0.062118 -0.017935 0.048531 -0.151968 -0.030554 0.150552 -0.092354 0.041054 -0.063758 0.006589 -0.196984 0.064475 -0.023450 -0.103041 0.039614 -0.134189 -0.010545 -0.137200 0.077373 -0.023867 0.252979 0.091681 -0.214607 -0.132800 0.131890 -0.079024 0.012853 -0.055910 0.067069 0.051255 0.199070 0.185649 -0.144247 0.120927 -0.116228 0.021053 -0.004575 -0.146595 -0.048257 0.069014 -0.051559 -0.132957 -0.180381 0.126690 0.087615 0.016544 0.020741 0.084527 -0.085640 -0.229616 -0.110431 -0.132253 -0.024446 0.057607 0.104126 -0.085206 -0.139798 0.061067 -0.039463 -0.052391 0.025005 -0.014510 0.015508 -0.178073 0.009856 -0.047854 -0.094038 0.060737 0.120605 -0.088771 -0.093993 0.190550 -0.121677 -0.079228 -0.056340 -0.297693 -0.070117 -0.033850 -0.192857 0.008224 0.096296 -0.041450 -0.163842 -0.125745 -0.102193 -0.068138 0.126087 0.009132 0.060083 0.082679 -0.195771 -0.155765 -0.068899 0.047411 0.090058 0.132630 -0.004392 0.090021 -0.023022 0.123893 0.026086 0.055393 -0.004439 0.012457 -0.024465 -0.034408 -0.060341 0.003530 -0.001237 0.037666 0.030586 -0.091024 0.014482 0.053002 0.224204 0.012572 0.063891 -0.066230 -0.195828 0.052958 0.003034 0.185442 0.083629
87 -0.107260 0.168804 0.039324 -0.051357 0.097662 0.060795 -0.019750 0.047466 -0.136814 -0.031138 0.141543 -0.087723 0.041933 -0.062344 0.009230 -0.181878 0.055454 -0.025216 -0.095949 0.032974 -0.123457 -0.011929 -0.129134 0.068808 -0.026267 0.237469 0.081262 -0.201827 -0.121831 0.119649 -0.070723 0.010343 -0.052914 0.060439 0.048111 0.184278 0.176565 -0.126364 0.106666 -0.104851 0.019084 -0.005157 -0.143487 -0.041418 0.068374 -0.043966 -0.126875 -0.171011 0.119907 0.080048 0.012354 0.017215 0.074933 -0.077082 -0.217227 -0.100883 -0.120846 -0.023948 0.055612 0.100550 -0.074584 -0.126325 0.055093 -0.036605 -0.042088 0.027363 -0.014747 0.013185 -0.163628 0.007858 -0.042146 -0.089782 0.056846 0.115569 -0.079213 -0.087137 0.179655 -0.116673 -0.071006 -0.052316 -0.278391 -0.062550 -0.034739 -0.173915 0.001172 0.091026 -0.043019 -0.153856 -0.112614 -0.094519 -0.066942 0.117969 0.009774 0.053663 0.081046 -0.179230 -0.140098 -0.066779 0.040020 0.079213 0.122853 -0.006560 0.088832 -0.019373 0.112661 0.024102 0.049691 -0.006865 0.013125 -0.028191 -0.033750 -0.054648 0.000168 0.001008 0.034634 0.029403 -0.089859 0.013520 0.047979 0.208249 0.006648 0.062232 -0.064992 -0.184175 0.047699 0.002976 0.177660 0.071682
