11 128
170 -0.075092 -0.123698 0.254332 -0.037668 -0.100174 0.004082 0.052494 -0.123111 0.104751 -0.000755 0.262226 0.033893 0.082386 0.048839 -0.042218 -0.070343 0.063322 -0.009325 0.040336 -0.154114 0.248759 0.116313 -0.123177 0.010935 -0.136036 -0.006755 0.178716 -0.049479 0.094975 -0.097493 -0.075567 -0.052626 -0.021254 0.152267 0.041264 0.009752 -0.114687 -0.001011 -0.118331 0.173429 0.029804 0.163150 0.186809 -0.082586 0.082934 0.035890 -0.160305 -0.057760 -0.100248 -0.129095 0.036851 -0.149314 0.196153 -0.038240 -0.075894 0.094150 -0.041440 -0.097520 -0.012440 0.087144 0.087644 0.073478 -0.241548 -0.140920 -0.068165 0.057539 0.016523 -0.050878 0.044478 -0.013923 -0.070197 -0.119040 -0.005870 0.179437 0.018971 0.037993 -0.149471 0.109400 0.130241 -0.074306 -0.116199 -0.036515 -0.036637 -0.074620 0.138265 0.086180 0.056830 -0.061240 0.117103 -0.012833 -0.010756 -0.031915 -0.121827 -0.194200 -0.072398 -0.259887 0.084429 -0.082829 -0.163898 0.146686 0.215734 -0.153172 0.071650 0.039056 0.071696 -0.137711 0.001280 -0.116659 -0.034901 -0.105501 -0.090966 -0.053087 0.007739 0.129288 0.104075 0.072095 -0.163253 -0.037802 -0.076131 0.033350 -0.004781 -0.207099 0.023313 -0.246588 0.056599 -0.024429 0.033042 0.016334
133 -0.076140 -0.119657 0.236869 -0.034674 -0.089249 0.000695 0.043734 -0.106931 0.099127 0.004082 0.242220 0.030686 0.070760 0.049274 -0.040745 -0.063492 0.049469 -0.008470 0.039920 -0.139558 0.229051 0.107266 -0.116334 0.007343 -0.132145 0.001588 0.162872 -0.043786 0.092376 -0.085033 -0.073205 -0.048752 -0.023792 0.142119 0.040281 0.012518 -0.110380 0.007729 -0.114604 0.160155 0.028063 0.158567 0.179199 -0.075542 0.074768 0.032704 -0.149109 -0.053074 -0.095809 -0.116197 0.039206 -0.137716 0.177554 -0.034003 -0.072219 0.091429 -0.040849 -0.086017 -0.006360 0.078767 0.086085 0.068971 -0.227974 -0.128278 -0.069197 0.050900 0.012275 -0.045797 0.049982 -0.012657 -0.067037 -0.105292 -0.003350 0.165308 0.023360 0.029609 -0.133609 0.108908 0.123933 -0.066307 -0.106898 -0.028311 -0.040800 -0.064219 0.123567 0.081088 0.055689 -0.057264 0.106654 -0.009041 -0.015947 -0.027551 -0.109885 -0.179234 -0.068531 -0.241258 0.072881 -0.074609 -0.149836 0.129480 0.198356 -0.146392 0.067797 0.032778 0.070678 -0.129471 -0.007459 -0.102987 -0.026755 -0.100831 -0.087370 -0.051616 0.003293 0.111829 0.094749 0.068046 -0.153396 -0.027211 -0.066292 0.027138 -0.009497 -0.187256 0.018121 -0.225362 0.058062 -0.018789 0.034327 0.018021
207 -0.076938 -0.124359 0.251763 -0.037107 -0.093899 0.000117 0.054600 -0.119921 0.106096 0.002940 0.255438 0.036818 0.078018 0.052687 -0.043353 -0.063522 0.059779 -0.009589 0.035270 -0.152117 0.245246 0.114880 -0.121832 0.011908 -0.133948 -0.005191 0.169542 -0.049089 0.099188 -0.092180 -0.078499 -0.050954 -0.020949 0.153672 0.045183 0.005054 -0.113187 0.003555 -0.121323 0.167870 0.029770 0.167556 0.188381 -0.082080 0.085870 0.031399 -0.155603 -0.051515 -0.097854 -0.125330 0.038987 -0.147848 0.189139 -0.040737 -0.074993 0.096111 -0.038830 -0.095183 -0.009608 0.084204 0.086265 0.075254 -0.240069 -0.139763 -0.070554 0.051792 0.014913 -0.044425 0.050930 -0.014337 -0.066391 -0.117207 -0.003480 0.171604 0.023296 0.033245 -0.144816 0.110346 0.128817 -0.075602 -0.115253 -0.035534 -0.041162 -0.071302 0.135221 0.080954 0.055886 -0.063098 0.117689 -0.012656 -0.012386 -0.030620 -0.115837 -0.188026 -0.068961 -0.250939 0.083283 -0.079835 -0.162230 0.146529 0.209685 -0.154257 0.066689 0.039688 0.074454 -0.138546 -0.005949 -0.109508 -0.031102 -0.103735 -0.089686 -0.052552 0.003570 0.125945 0.102618 0.074521 -0.163375 -0.033868 -0.071172 0.031431 -0.005097 -0.203933 0.017962 -0.241246 0.056245 -0.026755 0.035673 0.017512
225 -0.071518 -0.114547 0.241950 -0.033311 -0.093047 0.005478 0.049750 -0.114429 0.097069 0.000976 0.247347 0.033624 0.075482 0.046495 -0.041545 -0.066100 0.055925 -0.013520 0.034341 -0.146319 0.232983 0.110073 -0.118607 0.009067 -0.127823 -0.004519 0.168327 -0.047176 0.094829 -0.090856 -0.074791 -0.048434 -0.019672 0.146243 0.036873 0.009264 -0.111091 0.003316 -0.115554 0.163896 0.025870 0.156390 0.181418 -0.079637 0.080606 0.033383 -0.149495 -0.052713 -0.090949 -0.119654 0.039694 -0.140320 0.181710 -0.033950 -0.075649 0.093988 -0.042775 -0.090205 -0.007285 0.082126 0.087683 0.073559 -0.232229 -0.128911 -0.067256 0.047507 0.017977 -0.042552 0.047000 -0.015368 -0.065324 -0.108516 -0.002431 0.164818 0.018729 0.033193 -0.135534 0.106492 0.127403 -0.067136 -0.110312 -0.031409 -0.039554 -0.070347 0.127078 0.080805 0.051613 -0.057101 0.109369 -0.010219 -0.017319 -0.031327 -0.114923 -0.177906 -0.067097 -0.246085 0.079545 -0.080101 -0.150495 0.135804 0.200846 -0.149155 0.061991 0.034393 0.073880 -0.130915 -0.000295 -0.106703 -0.030615 -0.104879 -0.087257 -0.047845 0.006038 0.117379 0.093295 0.073700 -0.153605 -0.030714 -0.072310 0.023831 -0.010749 -0.193218 0.023252 -0.230207 0.056313 -0.023979 0.035424 0.014491
105 -0.070684 -0.116852 0.240615 -0.034610 -0.089292 0.001162 0.049628 -0.108316 0.097888 0.000136 0.245365 0.034400 0.075801 0.048711 -0.043927 -0.059320 0.056886 -0.011174 0.038649 -0.140241 0.230012 0.107070 -0.113683 0.011162 -0.129079 -0.000804 0.164841 -0.041241 0.089081 -0.087835 -0.070666 -0.052497 -0.024931 0.142159 0.040461 0.007302 -0.110180 -0.001299 -0.113483 0.159106 0.026995 0.157682 0.179312 -0.077539 0.074790 0.029105 -0.144417 -0.055139 -0.091921 -0.121308 0.036995 -0.135936 0.178706 -0.036047 -0.073864 0.088297 -0.041218 -0.086352 -0.012191 0.083944 0.082284 0.068870 -0.230485 -0.131388 -0.065653 0.050466 0.012603 -0.046359 0.043593 -0.015432 -0.060435 -0.110014 -0.005324 0.163285 0.018223 0.029893 -0.131966 0.104495 0.127832 -0.067144 -0.107616 -0.034517 -0.038076 -0.068544 0.130107 0.077081 0.055615 -0.060529 0.107229 -0.011210 -0.016544 -0.026711 -0.116278 -0.175309 -0.066227 -0.240051 0.078592 -0.073511 -0.152393 0.136249 0.199365 -0.144064 0.065141 0.037827 0.069823 -0.131129 0.000273 -0.108652 -0.032481 -0.096862 -0.080736 -0.048877 0.003743 0.116604 0.093158 0.074471 -0.151736 -0.033788 -0.064757 0.029388 -0.008442 -0.191205 0.021448 -0.225977 0.056835 -0.021476 0.032528 0.013752
12 -0.077704 -0.121668 0.241986 -0.039374 -0.094074 -0.000245 0.045298 -0.115809 0.096043 0.004474 0.250879 0.037811 0.073533 0.050872 -0.042186 -0.059325 0.051096 -0.008383 0.041171 -0.147651 0.234008 0.112303 -0.114509 0.006891 -0.135147 -0.003060 0.169343 -0.042094 0.091498 -0.088966 -0.069185 -0.048564 -0.028289 0.145587 0.042132 0.012429 -0.111734 0.004744 -0.113623 0.163564 0.027194 0.157446 0.181985 -0.078527 0.075678 0.036218 -0.145815 -0.054787 -0.097905 -0.122110 0.035081 -0.137035 0.180224 -0.040558 -0.076784 0.085885 -0.040175 -0.087421 -0.010870 0.083917 0.087674 0.071593 -0.233709 -0.129591 -0.071501 0.052463 0.017183 -0.046970 0.048992 -0.009653 -0.059383 -0.106485 -0.003064 0.168376 0.020967 0.031435 -0.131390 0.109359 0.127137 -0.064029 -0.109640 -0.031859 -0.042100 -0.070576 0.125549 0.083956 0.053725 -0.059606 0.105447 -0.014704 -0.015117 -0.024589 -0.116885 -0.181186 -0.065796 -0.245973 0.080791 -0.079730 -0.151304 0.136485 0.196334 -0.149608 0.066909 0.037467 0.070751 -0.135860 -0.000577 -0.108045 -0.027052 -0.103795 -0.089079 -0.051027 0.004307 0.120388 0.097321 0.074842 -0.155947 -0.027642 -0.072685 0.025107 -0.009632 -0.194846 0.022515 -0.225972 0.054962 -0.021571 0.027607 0.015733
188 -0.073649 -0.123528 0.255452 -0.041356 -0.092428 0.003512 0.052485 -0.118022 0.106202 0.004393 0.261300 0.031085 0.081303 0.048773 -0.041244 -0.063110 0.057554 -0.012708 0.043224 -0.151052 0.241768 0.113806 -0.119917 0.009197 -0.139441 -0.001471 0.173053 -0.049308 0.092259 -0.094437 -0.073260 -0.053310 -0.026741 0.151406 0.037755 0.006994 -0.118883 0.003517 -0.119164 0.172755 0.030058 0.167016 0.190501 -0.084789 0.083748 0.030680 -0.158700 -0.053533 -0.096937 -0.121160 0.041241 -0.145107 0.189807 -0.036946 -0.075669 0.096134 -0.038526 -0.089936 -0.010074 0.083151 0.090674 0.070086 -0.241779 -0.138481 -0.068659 0.053172 0.019082 -0.045823 0.051879 -0.012286 -0.070842 -0.115209 -0.005760 0.174010 0.025161 0.032648 -0.139737 0.112591 0.135373 -0.072970 -0.113633 -0.030841 -0.044152 -0.067508 0.136694 0.086555 0.057030 -0.064998 0.117504 -0.016244 -0.016173 -0.033568 -0.119648 -0.185990 -0.069172 -0.257914 0.080683 -0.084301 -0.160054 0.145605 0.209255 -0.153724 0.064737 0.035838 0.077003 -0.135316 -0.004975 -0.113942 -0.030503 -0.108891 -0.091372 -0.048897 0.002130 0.125960 0.098644 0.076889 -0.165095 -0.035677 -0.070705 0.033360 -0.009404 -0.197931 0.020804 -0.242310 0.056818 -0.023659 0.033168 0.019027
14 -0.076203 -0.122915 0.251381 -0.039429 -0.093140 0.003678 0.048112 -0.117586 0.099603 0.003549 0.248971 0.036442 0.075389 0.049687 -0.043357 -0.064087 0.059674 -0.010646 0.039124 -0.150194 0.242259 0.116131 -0.120556 0.011783 -0.134894 -0.001123 0.173433 -0.041704 0.091055 -0.089093 -0.072488 -0.049384 -0.023329 0.151887 0.043436 0.007928 -0.114313 0.002396 -0.118643 0.166420 0.025252 0.162188 0.186151 -0.077866 0.080023 0.034359 -0.151547 -0.052040 -0.096593 -0.119838 0.036416 -0.143622 0.185045 -0.035131 -0.074855 0.092104 -0.044392 -0.088009 -0.013249 0.081472 0.086404 0.070110 -0.234452 -0.138229 -0.072083 0.055103 0.017967 -0.049185 0.046456 -0.015818 -0.068868 -0.110277 -0.006871 0.174105 0.023149 0.034887 -0.139222 0.107852 0.128690 -0.074027 -0.113877 -0.033771 -0.037058 -0.066586 0.129145 0.085345 0.054155 -0.061190 0.114124 -0.012210 -0.015796 -0.030441 -0.117287 -0.185711 -0.071196 -0.245950 0.078337 -0.075587 -0.154464 0.141200 0.203955 -0.150117 0.066959 0.039530 0.069236 -0.132202 0.002735 -0.106046 -0.035345 -0.103888 -0.091343 -0.054077 0.002872 0.122690 0.101505 0.072339 -0.160902 -0.033254 -0.072727 0.030227 -0.007679 -0.200957 0.020891 -0.238365 0.059046 -0.024622 0.031686 0.016363
52 -0.076830 -0.115829 0.248036 -0.039213 -0.096723 -0.000015 0.053882 -0.116065 0.100589 -0.002502 0.250736 0.033495 0.076877 0.049457 -0.045987 -0.067340 0.057623 -0.006890 0.034356 -0.147446 0.238424 0.109757 -0.120918 0.006777 -0.135431 0.000779 0.168812 -0.042773 0.096534 -0.091324 -0.070464 -0.049032 -0.019359 0.150369 0.043447 0.009041 -0.113655 0.002112 -0.113841 0.164239 0.029440 0.162528 0.180059 -0.077661 0.081220 0.031446 -0.150022 -0.050819 -0.096540 -0.124548 0.038439 -0.145397 0.186807 -0.039222 -0.070992 0.094553 -0.038906 -0.093268 -0.011033 0.079824 0.086057 0.075066 -0.236180 -0.136060 -0.072483 0.052789 0.018803 -0.041751 0.043768 -0.011258 -0.066563 -0.109706 -0.002361 0.171062 0.020626 0.031478 -0.140606 0.104788 0.128690 -0.071399 -0.107359 -0.035101 -0.038654 -0.070379 0.134352 0.079976 0.056406 -0.055546 0.109019 -0.008058 -0.012189 -0.028514 -0.117882 -0.185169 -0.069684 -0.250302 0.079215 -0.075625 -0.158644 0.143621 0.206311 -0.145419 0.067876 0.038800 0.076345 -0.133574 0.000564 -0.108026 -0.035598 -0.098845 -0.088029 -0.052806 0.007985 0.118927 0.096939 0.072593 -0.161205 -0.028579 -0.072537 0.028355 -0.007755 -0.196730 0.016540 -0.233179 0.058451 -0.025011 0.032675 0.015146
215 -0.071749 -0.120816 0.254688 -0.040931 -0.098971 0.001359 0.050598 -0.120398 0.106190 0.005240 0.261568 0.034970 0.074933 0.050671 -0.044393 -0.061972 0.053808 -0.015717 0.037747 -0.154223 0.239133 0.111575 -0.123949 0.006919 -0.134593 -0.002646 0.177369 -0.048452 0.092874 -0.093950 -0.071648 -0.051972 -0.028871 0.151280 0.038735 0.006842 -0.111923 0.001116 -0.116850 0.166257 0.024128 0.160328 0.189373 -0.082681 0.084188 0.034513 -0.152803 -0.055153 -0.094216 -0.125619 0.035161 -0.146933 0.189183 -0.038574 -0.077252 0.091988 -0.041766 -0.089588 -0.014955 0.088073 0.092150 0.071964 -0.243186 -0.139924 -0.069729 0.054520 0.017186 -0.050594 0.043558 -0.017443 -0.062099 -0.114109 -0.004724 0.174111 0.016379 0.037008 -0.144011 0.106328 0.136093 -0.072590 -0.117187 -0.037869 -0.041515 -0.071305 0.137196 0.082645 0.051675 -0.059963 0.114193 -0.015843 -0.016175 -0.029651 -0.124814 -0.185210 -0.069642 -0.253401 0.084202 -0.081533 -0.160633 0.146621 0.212499 -0.152798 0.064856 0.036380 0.073956 -0.138815 0.003708 -0.114127 -0.030802 -0.108306 -0.086219 -0.050819 0.000451 0.124451 0.103216 0.074953 -0.158200 -0.031761 -0.073092 0.030406 -0.004861 -0.203147 0.025769 -0.240464 0.056291 -0.026755 0.030257 0.019767
191 -0.077417 -0.118507 0.251072 -0.039806 -0.091624 0.000602 0.053799 -0.116274 0.100595 -0.001299 0.258202 0.030911 0.080313 0.046203 -0.040625 -0.062769 0.057764 -0.008213 0.035239 -0.152758 0.236901 0.110556 -0.116518 0.009826 -0.132637 -0.001343 0.176386 -0.049734 0.094847 -0.089285 -0.071117 -0.054330 -0.028112 0.149071 0.044032 0.006397 -0.114742 -0.000502 -0.113932 0.164064 0.024136 0.160066 0.184422 -0.078597 0.082800 0.030536 -0.152539 -0.054690 -0.093291 -0.126567 0.040833 -0.145740 0.190935 -0.037768 -0.075114 0.090012 -0.041901 -0.092800 -0.008669 0.088016 0.089580 0.070839 -0.237797 -0.140090 -0.069814 0.051728 0.016309 -0.045287 0.044525 -0.016613 -0.066006 -0.109293 -0.005570 0.176550 0.022071 0.035872 -0.138504 0.106132 0.129061 -0.070631 -0.112370 -0.032084 -0.038712 -0.074128 0.136476 0.083133 0.053038 -0.060325 0.113559 -0.012333 -0.012022 -0.030323 -0.121349 -0.186013 -0.070587 -0.255064 0.079127 -0.078078 -0.156544 0.146149 0.204403 -0.150576 0.066559 0.037207 0.077090 -0.137972 -0.004380 -0.115071 -0.035226 -0.105309 -0.089663 -0.053851 0.005484 0.126481 0.103561 0.071812 -0.162886 -0.034241 -0.071105 0.031982 -0.007231 -0.196430 0.018072 -0.241090 0.058489 -0.027959 0.031818 0.015244
