7 128
13 0.042893 -0.088504 -0.230553 -0.153665 0.142026 -0.025595 0.002639 -0.035869 0.069613 0.028653 -0.060108 0.044746 0.003058 -0.100681 0.101338 -0.112404 0.105066 -0.036172 0.015049 -0.033337 -0.028140 -0.011904 -0.100557 -0.047879 -0.023715 -0.010696 -0.060635 0.181930 0.002651 -0.115156 -0.005060 0.006559 -0.086697 -0.037431 0.106369 0.014363 -0.154919 -0.065884 0.018560 -0.080884 -0.058700 0.034524 0.018644 0.000783 0.015035 0.100979 0.060783 0.013782 -0.057123 0.100832 -0.093335 0.121746 0.030629 0.014948 -0.084980 -0.194468 0.015886 0.145832 0.217915 0.042828 -0.206497 0.164867 -0.280329 -0.143074 0.184895 -0.041881 -0.190992 -0.111112 -0.058154 -0.050129 0.068290 0.023311 0.184100 -0.210366 0.191312 -0.080297 -0.066589 -0.110190 0.012498 -0.009896 0.029923 0.008573 -0.101691 0.045490 -0.045804 0.068620 0.274734 -0.144295 -0.119564 0.053998 -0.001146 0.050046 -0.199439 -0.023669 -0.186445 -0.049190 0.016251 -0.132940 0.037299 -0.052291 0.092121 0.018590 -0.066393 -0.154273 0.098689 0.159137 0.207102 0.129649 -0.047183 -0.077667 0.216108 0.062771 -0.104322 0.131050 0.022259 0.021363 -0.013102 -0.010662 0.019570 -0.067120 -0.048136 0.012995 0.095418 0.133127 0.055938 0.107891 0.057886 0.079430
101 0.038866 -0.087632 -0.230313 -0.144858 0.142660 -0.028860 -0.002384 -0.036218 0.068961 0.021312 -0.056807 0.045018 0.007192 -0.089815 0.095314 -0.114160 0.107658 -0.030631 0.016696 -0.028326 -0.023945 -0.009720 -0.094547 -0.041340 -0.023642 -0.006204 -0.063319 0.172653 0.000357 -0.110166 -0.004692 0.007010 -0.089417 -0.035839 0.098923 0.013352 -0.157381 -0.063181 0.020609 -0.079528 -0.058023 0.035967 0.016888 0.003899 0.017828 0.098545 0.054322 0.010793 -0.054024 0.097393 -0.084846 0.119782 0.030707 0.007007 -0.075604 -0.192963 0.021742 0.148871 0.208805 0.043788 -0.206193 0.163021 -0.274569 -0.138772 0.182485 -0.042470 -0.189749 -0.108099 -0.062494 -0.041184 0.073560 0.024082 0.176922 -0.204146 0.185205 -0.077596 -0.066869 -0.111694 0.013589 -0.009477 0.027043 0.005279 -0.095101 0.049863 -0.042505 0.063700 0.268021 -0.136289 -0.115921 0.051851 -0.000550 0.045127 -0.192162 -0.015252 -0.184516 -0.048487 0.014079 -0.128257 0.036881 -0.050746 0.084585 0.018878 -0.059570 -0.146628 0.099555 0.155036 0.200334 0.132052 -0.045454 -0.073477 0.202292 0.066316 -0.100037 0.127225 0.023519 0.021245 -0.014640 -0.010023 0.020363 -0.064928 -0.044007 0.009329 0.086984 0.124803 0.059721 0.099781 0.053919 0.070579
27 0.041789 -0.092481 -0.235797 -0.152471 0.144480 -0.024831 0.001809 -0.029715 0.065909 0.025133 -0.059664 0.044553 0.002549 -0.089898 0.097444 -0.116846 0.111676 -0.036589 0.017168 -0.032842 -0.026384 -0.009186 -0.093058 -0.042053 -0.020473 -0.012706 -0.069555 0.180955 -0.000515 -0.112016 -0.002288 0.002168 -0.088852 -0.037710 0.106121 0.014225 -0.162196 -0.068562 0.017194 -0.082482 -0.063952 0.034234 0.017322 0.001351 0.017276 0.101723 0.062427 0.011512 -0.053933 0.101407 -0.085692 0.121139 0.025283 0.013219 -0.079989 -0.195877 0.020715 0.150859 0.216543 0.047444 -0.211858 0.169687 -0.279353 -0.139712 0.182645 -0.039835 -0.192569 -0.104548 -0.062919 -0.044129 0.069720 0.028339 0.182438 -0.211582 0.186034 -0.080659 -0.062933 -0.112195 0.013588 -0.005860 0.025337 0.009929 -0.097851 0.052929 -0.044624 0.067667 0.274584 -0.142658 -0.121641 0.050997 -0.007573 0.045828 -0.194080 -0.016308 -0.190954 -0.046792 0.016974 -0.130500 0.043208 -0.056108 0.083144 0.019125 -0.060196 -0.156697 0.102198 0.164196 0.207426 0.129707 -0.049698 -0.069742 0.210584 0.064596 -0.104745 0.126634 0.026617 0.022220 -0.011131 -0.012953 0.015555 -0.064822 -0.049795 0.012484 0.090832 0.125537 0.055978 0.104451 0.056882 0.073444
44 0.044211 -0.090830 -0.245329 -0.157761 0.148818 -0.026913 -0.000425 -0.034405 0.073802 0.027253 -0.059000 0.049050 0.000967 -0.096597 0.103634 -0.116521 0.109416 -0.039713 0.016641 -0.029440 -0.029667 -0.007496 -0.102462 -0.044660 -0.018770 -0.010053 -0.065497 0.187911 0.004640 -0.116977 -0.002637 0.002377 -0.094463 -0.039275 0.108737 0.015124 -0.167462 -0.066220 0.018821 -0.086778 -0.065841 0.039709 0.017407 0.000850 0.017178 0.102864 0.058302 0.015262 -0.060610 0.101558 -0.094030 0.124775 0.029930 0.008367 -0.080657 -0.201775 0.023965 0.151386 0.224150 0.042715 -0.217911 0.170391 -0.286454 -0.149242 0.191357 -0.038381 -0.201291 -0.108544 -0.062439 -0.043009 0.078663 0.025410 0.188740 -0.218173 0.194702 -0.078803 -0.071253 -0.118199 0.017336 -0.005035 0.028034 0.006510 -0.103370 0.048033 -0.045474 0.065826 0.284632 -0.147330 -0.126705 0.052613 -0.006712 0.050940 -0.204531 -0.021880 -0.198708 -0.046742 0.019174 -0.131025 0.037581 -0.052397 0.092059 0.023160 -0.065361 -0.157178 0.104442 0.170707 0.215509 0.138022 -0.051930 -0.075198 0.219315 0.063209 -0.111577 0.135194 0.024475 0.027257 -0.013979 -0.015179 0.019302 -0.069452 -0.046879 0.008144 0.092343 0.137771 0.063481 0.103599 0.055448 0.073871
57 0.041590 -0.088531 -0.236268 -0.153178 0.144919 -0.024356 -0.001474 -0.033906 0.069394 0.025686 -0.058195 0.045643 0.005596 -0.093907 0.096688 -0.117457 0.105834 -0.034640 0.016058 -0.029091 -0.030859 -0.010986 -0.092554 -0.047079 -0.022588 -0.007699 -0.066726 0.182018 0.002830 -0.115285 -0.005688 0.008137 -0.087079 -0.034838 0.104089 0.019023 -0.163114 -0.069703 0.016759 -0.077678 -0.058793 0.034357 0.018259 -0.001011 0.015712 0.101604 0.060787 0.011882 -0.053485 0.101311 -0.092252 0.120551 0.025904 0.009391 -0.081356 -0.195352 0.020923 0.152397 0.214574 0.046991 -0.211843 0.169016 -0.281144 -0.138558 0.184212 -0.042580 -0.190089 -0.109532 -0.062579 -0.043822 0.075121 0.026988 0.184511 -0.210611 0.192220 -0.079543 -0.064387 -0.109163 0.018868 -0.005017 0.029365 0.013657 -0.095058 0.050515 -0.039162 0.068848 0.272312 -0.144030 -0.119538 0.052773 -0.002205 0.051617 -0.198685 -0.016095 -0.191128 -0.046373 0.017074 -0.127025 0.041836 -0.055573 0.089254 0.020197 -0.066675 -0.155824 0.099079 0.165639 0.206027 0.135215 -0.047897 -0.071163 0.211761 0.064829 -0.107498 0.129885 0.023344 0.023709 -0.008164 -0.016218 0.017500 -0.064721 -0.045927 0.008040 0.087262 0.129471 0.060530 0.100737 0.055784 0.072380
76 0.034919 -0.085969 -0.227598 -0.143081 0.142235 -0.028748 0.003272 -0.031445 0.068132 0.023271 -0.056734 0.047293 0.002603 -0.094625 0.098975 -0.111630 0.107439 -0.034353 0.019414 -0.026091 -0.032245 -0.014037 -0.093642 -0.048492 -0.018402 -0.011517 -0.066458 0.171318 0.001306 -0.113227 0.001359 0.004793 -0.083151 -0.031316 0.104192 0.019206 -0.157018 -0.069755 0.020492 -0.077068 -0.063136 0.030097 0.020295 0.000092 0.013923 0.094831 0.057612 0.012129 -0.052672 0.097349 -0.085526 0.112254 0.027984 0.009627 -0.077574 -0.185755 0.022871 0.146246 0.208851 0.045911 -0.204544 0.162888 -0.271149 -0.137626 0.175203 -0.036730 -0.185901 -0.105222 -0.060445 -0.042242 0.073592 0.022195 0.179638 -0.202504 0.185793 -0.071846 -0.064753 -0.103856 0.012773 -0.008261 0.029170 0.013365 -0.099187 0.047170 -0.037240 0.067090 0.264078 -0.138361 -0.113541 0.045341 -0.007178 0.051249 -0.190210 -0.017267 -0.183974 -0.047186 0.015136 -0.124052 0.040671 -0.052102 0.087183 0.015019 -0.062385 -0.151704 0.098231 0.159816 0.200860 0.131275 -0.042128 -0.072497 0.203971 0.065628 -0.100873 0.127566 0.025222 0.027181 -0.009911 -0.015917 0.018017 -0.060109 -0.049198 0.009958 0.089779 0.128787 0.056642 0.102307 0.057971 0.074459
72 0.041887 -0.091810 -0.235177 -0.154106 0.145109 -0.022499 -0.001582 -0.035750 0.069329 0.025024 -0.057333 0.049991 -0.000151 -0.099486 0.101377 -0.111044 0.112091 -0.031574 0.014404 -0.032187 -0.033419 -0.010571 -0.099554 -0.050914 -0.020351 -0.008361 -0.062880 0.182487 0.000481 -0.117658 -0.005063 0.003719 -0.087204 -0.037002 0.106670 0.014967 -0.160470 -0.071670 0.016965 -0.082382 -0.058280 0.038323 0.016984 -0.002258 0.016225 0.096706 0.058578 0.012705 -0.056440 0.096264 -0.093273 0.123991 0.030404 0.012720 -0.084745 -0.195825 0.016993 0.152768 0.219297 0.046502 -0.213848 0.163305 -0.283503 -0.141145 0.188042 -0.040487 -0.188935 -0.112957 -0.064844 -0.049143 0.069374 0.027402 0.188041 -0.209877 0.193597 -0.078897 -0.066748 -0.112194 0.018931 -0.006691 0.030646 0.009375 -0.102913 0.048015 -0.044879 0.070568 0.278424 -0.147090 -0.114960 0.052013 -0.003556 0.053144 -0.201237 -0.021368 -0.187772 -0.047456 0.015709 -0.133318 0.039652 -0.051044 0.089849 0.020184 -0.067168 -0.154557 0.102820 0.165362 0.203176 0.134798 -0.049572 -0.075341 0.216746 0.063382 -0.102107 0.126629 0.028091 0.022298 -0.009849 -0.011932 0.019643 -0.068633 -0.049216 0.008823 0.091907 0.133541 0.059081 0.107952 0.052878 0.077893
