7 128
0 -0.027344 -0.034189 0.068478 -0.037873 -0.021684 -0.027970 -0.017322 -0.058935 0.136862 0.041921 0.215925 0.005200 -0.003771 -0.028892 0.175987 -0.168956 0.149560 0.076588 -0.047113 -0.066270 -0.100874 -0.033504 -0.052208 0.085320 0.057565 0.085830 -0.071439 -0.197167 -0.179425 -0.152178 0.033602 -0.026448 0.026774 -0.131805 0.175282 -0.083434 -0.012855 -0.053835 0.133262 -0.182244 -0.056863 0.004559 0.101446 0.068486 0.026200 0.124199 -0.075984 -0.030272 -0.026277 -0.072044 -0.067113 0.054610 -0.096655 -0.001958 0.023371 0.072872 0.026723 0.195594 -0.184861 0.085669 -0.023423 -0.065226 0.014578 0.066384 -0.118136 0.020330 -0.053993 -0.062684 -0.082513 0.085522 -0.050888 0.113041 0.083591 0.172890 0.127009 -0.016359 -0.009356 -0.082960 -0.068345 0.079172 0.198272 -0.038003 0.065743 0.055988 -0.153648 0.000552 0.018272 -0.067151 0.035856 -0.028219 0.072152 0.210146 0.000396 -0.149859 -0.041495 0.072402 0.012744 0.097577 0.066060 -0.168887 0.013348 -0.018927 0.056913 -0.016208 0.021269 0.190229 0.196755 0.240540 0.178854 0.130587 -0.073876 0.154696 -0.026859 -0.085489 -0.137554 -0.020745 -0.041994 -0.189893 0.129479 -0.028832 -0.049000 -0.064437 -0.004894 -0.106693 -0.087804 0.245380 0.092732 0.197699
39 -0.031502 -0.030237 0.071181 -0.034744 -0.014252 -0.028909 -0.014793 -0.057373 0.142942 0.042012 0.218616 0.002381 -0.004795 -0.030822 0.178748 -0.174901 0.148694 0.082286 -0.049744 -0.064975 -0.100098 -0.030439 -0.049463 0.089471 0.060335 0.091279 -0.077796 -0.197623 -0.185054 -0.154332 0.035427 -0.033783 0.026783 -0.137163 0.181247 -0.085158 -0.017017 -0.056322 0.133775 -0.188606 -0.053152 0.008456 0.108067 0.064337 0.029059 0.129262 -0.076328 -0.026711 -0.020603 -0.073264 -0.069694 0.060218 -0.096488 -0.000676 0.026120 0.078777 0.028950 0.201681 -0.183090 0.087511 -0.028446 -0.059454 0.011853 0.064504 -0.124646 0.024078 -0.051421 -0.057242 -0.079599 0.086690 -0.045402 0.116483 0.081683 0.178907 0.131899 -0.011253 -0.008787 -0.084154 -0.066958 0.080714 0.206831 -0.036336 0.063004 0.050702 -0.154539 0.000121 0.023181 -0.065530 0.034658 -0.027083 0.075072 0.216532 0.003143 -0.152837 -0.043464 0.074635 0.015188 0.100787 0.064507 -0.170577 0.009819 -0.013383 0.050525 -0.021771 0.026508 0.193333 0.198158 0.248636 0.180616 0.127668 -0.074901 0.163558 -0.027585 -0.085499 -0.141931 -0.018299 -0.046618 -0.197768 0.132373 -0.036098 -0.046254 -0.067605 0.001321 -0.110194 -0.083710 0.255191 0.096323 0.200392
55 -0.026346 -0.034850 0.072609 -0.035442 -0.019753 -0.032967 -0.012927 -0.061617 0.146346 0.046429 0.223337 0.007329 -0.007555 -0.028198 0.177127 -0.174085 0.151393 0.082791 -0.047844 -0.068013 -0.098673 -0.031527 -0.054512 0.086677 0.064872 0.089325 -0.078854 -0.204780 -0.184517 -0.151226 0.034550 -0.031502 0.030934 -0.136062 0.181287 -0.083452 -0.019936 -0.057503 0.132449 -0.190076 -0.052984 0.011082 0.110278 0.066212 0.030582 0.130068 -0.075722 -0.029581 -0.023057 -0.078177 -0.069949 0.058159 -0.094230 0.002172 0.021212 0.075541 0.033035 0.199651 -0.188440 0.084437 -0.022051 -0.065460 0.017359 0.064454 -0.120025 0.026915 -0.053381 -0.064886 -0.081567 0.085905 -0.050827 0.117747 0.087230 0.180802 0.134414 -0.014494 -0.008333 -0.089476 -0.072410 0.086737 0.205012 -0.040921 0.067158 0.051954 -0.160274 0.000722 0.018782 -0.071695 0.032518 -0.028393 0.079240 0.219002 0.002871 -0.157933 -0.045686 0.072567 0.012247 0.103217 0.066304 -0.173235 0.015700 -0.015050 0.054576 -0.020460 0.022614 0.198256 0.200773 0.247227 0.185991 0.134025 -0.077027 0.163059 -0.024006 -0.087678 -0.136255 -0.021579 -0.040628 -0.197707 0.139468 -0.034914 -0.044164 -0.064988 -0.005897 -0.113298 -0.088493 0.253756 0.093281 0.205506
114 -0.028397 -0.034703 0.072507 -0.037992 -0.021799 -0.032391 -0.018838 -0.061044 0.147902 0.043226 0.225785 0.004615 -0.005361 -0.026832 0.185151 -0.178506 0.158479 0.085815 -0.048420 -0.070719 -0.106958 -0.029985 -0.056027 0.092395 0.067934 0.093279 -0.077457 -0.206313 -0.190084 -0.160825 0.033721 -0.033799 0.030201 -0.139576 0.181986 -0.089935 -0.019911 -0.059034 0.141243 -0.191274 -0.056096 0.004547 0.112878 0.069419 0.029132 0.126114 -0.082183 -0.032640 -0.025850 -0.080218 -0.071288 0.061707 -0.101119 0.003526 0.028357 0.080203 0.029690 0.204572 -0.194423 0.091685 -0.027370 -0.066046 0.015052 0.068867 -0.127796 0.028134 -0.059067 -0.059036 -0.086878 0.090017 -0.053963 0.115347 0.083452 0.183740 0.131076 -0.014354 -0.006340 -0.088064 -0.073094 0.083273 0.209420 -0.040422 0.065488 0.052404 -0.158952 -0.002505 0.022796 -0.071051 0.034259 -0.031337 0.081036 0.217954 -0.003025 -0.156938 -0.042524 0.076329 0.018002 0.103033 0.065797 -0.180047 0.011386 -0.020398 0.052858 -0.023797 0.024882 0.201627 0.205650 0.252051 0.184435 0.138043 -0.074897 0.163901 -0.031217 -0.091023 -0.143509 -0.016525 -0.048277 -0.199147 0.141351 -0.034301 -0.045439 -0.070612 0.000617 -0.113299 -0.093284 0.261525 0.099907 0.207323
24 -0.026323 -0.032259 0.076139 -0.032558 -0.018020 -0.032876 -0.016569 -0.060975 0.148482 0.046356 0.230348 0.004759 -0.002441 -0.034055 0.183363 -0.180392 0.154414 0.081675 -0.047521 -0.070395 -0.103825 -0.032065 -0.054462 0.093077 0.066196 0.095352 -0.078620 -0.209424 -0.188398 -0.155688 0.030345 -0.031055 0.024535 -0.140355 0.184969 -0.087873 -0.013309 -0.060804 0.138482 -0.194383 -0.055510 0.011863 0.110716 0.072008 0.028036 0.131451 -0.082233 -0.026291 -0.023053 -0.080682 -0.066057 0.060553 -0.103406 0.004884 0.028707 0.081825 0.034949 0.205443 -0.193491 0.087642 -0.025388 -0.066349 0.016546 0.068272 -0.129100 0.022645 -0.057383 -0.060851 -0.086052 0.091925 -0.049317 0.121093 0.083121 0.182925 0.134401 -0.015354 -0.012974 -0.090902 -0.072213 0.088807 0.212790 -0.036474 0.066946 0.058454 -0.162473 -0.003552 0.017145 -0.066328 0.038472 -0.028721 0.076560 0.222006 0.001676 -0.159635 -0.041816 0.079152 0.017923 0.104295 0.065654 -0.179151 0.010772 -0.013397 0.059364 -0.018039 0.021204 0.203245 0.206180 0.253626 0.187301 0.137532 -0.072753 0.162145 -0.028005 -0.087337 -0.146694 -0.020364 -0.046486 -0.202380 0.142239 -0.030024 -0.047025 -0.071966 -0.001995 -0.114570 -0.086359 0.261282 0.098657 0.211350
76 -0.032340 -0.035309 0.070656 -0.035328 -0.016184 -0.036394 -0.014213 -0.062113 0.150770 0.044162 0.228069 0.008013 -0.005629 -0.033461 0.188929 -0.182070 0.161346 0.083727 -0.045839 -0.067818 -0.108774 -0.036215 -0.057185 0.087154 0.067252 0.091442 -0.082104 -0.210031 -0.190604 -0.162979 0.038295 -0.031989 0.029857 -0.137607 0.188306 -0.084847 -0.021296 -0.063120 0.142908 -0.193897 -0.060778 0.005103 0.114897 0.070376 0.028268 0.130409 -0.080012 -0.030631 -0.024657 -0.077621 -0.070418 0.058113 -0.099492 0.000847 0.025509 0.079083 0.034775 0.209631 -0.192387 0.092341 -0.028566 -0.063439 0.011902 0.065797 -0.126978 0.027124 -0.060017 -0.065159 -0.087202 0.090730 -0.048253 0.117456 0.090668 0.182928 0.139173 -0.012606 -0.010781 -0.087911 -0.074849 0.084347 0.213010 -0.037149 0.063281 0.055808 -0.159580 0.001343 0.022773 -0.072705 0.036230 -0.033488 0.077252 0.225803 -0.001460 -0.159001 -0.046910 0.074185 0.014700 0.103645 0.069527 -0.180651 0.015855 -0.020716 0.055513 -0.024531 0.025702 0.205829 0.210863 0.258862 0.191830 0.135076 -0.075842 0.169956 -0.028812 -0.086016 -0.142511 -0.015716 -0.045298 -0.204584 0.142256 -0.031698 -0.050723 -0.068998 0.000156 -0.110634 -0.090767 0.265043 0.102877 0.213220
67 -0.029888 -0.031683 0.073895 -0.035320 -0.015465 -0.032699 -0.015431 -0.065205 0.149672 0.045678 0.228524 0.002548 -0.008313 -0.033690 0.185541 -0.180749 0.156516 0.079789 -0.049067 -0.070346 -0.106840 -0.036759 -0.054104 0.085410 0.067028 0.093461 -0.074957 -0.207275 -0.183859 -0.161083 0.030683 -0.033882 0.027066 -0.140656 0.181920 -0.085582 -0.019573 -0.057901 0.140890 -0.190274 -0.057233 0.011246 0.113905 0.073099 0.027745 0.128282 -0.077790 -0.027169 -0.021100 -0.078512 -0.070188 0.059906 -0.099891 -0.000190 0.023792 0.076859 0.034588 0.206169 -0.194101 0.091217 -0.022591 -0.065129 0.015007 0.070114 -0.128211 0.025240 -0.054310 -0.063614 -0.081826 0.089155 -0.047071 0.121302 0.089853 0.182556 0.134196 -0.016119 -0.010632 -0.085210 -0.067797 0.086089 0.207627 -0.039506 0.062819 0.057867 -0.163200 0.000492 0.016740 -0.072040 0.039523 -0.033222 0.079192 0.222107 -0.000889 -0.157835 -0.042565 0.071661 0.016081 0.101545 0.064469 -0.180064 0.015349 -0.015775 0.056720 -0.020483 0.022115 0.196629 0.207126 0.253801 0.186534 0.131607 -0.079565 0.166779 -0.029812 -0.083471 -0.141769 -0.015696 -0.047296 -0.202043 0.141606 -0.034911 -0.050451 -0.068091 -0.003312 -0.109386 -0.089890 0.260250 0.101373 0.210390
