25 128
44 -0.007426 -0.246696 0.037952 -0.088951 0.147571 -0.064840 0.045338 -0.043667 0.087213 -0.022568 0.030352 0.049601 0.006931 -0.072774 0.094525 -0.006016 0.149843 0.096316 0.033802 0.004820 0.210417 0.128098 -0.151635 0.056383 0.034937 0.114198 0.028984 0.092087 -0.166541 -0.110158 -0.010304 -0.152485 -0.223235 -0.096523 0.173123 -0.075131 -0.084810 -0.000803 -0.004804 -0.094883 0.053894 0.094006 -0.058530 -0.039022 0.142138 0.016416 -0.076006 -0.047573 -0.050738 -0.058389 -0.184098 0.157034 0.095995 -0.046202 -0.049617 -0.174665 -0.030950 0.183085 0.129043 -0.002121 -0.127312 -0.019569 -0.146115 -0.048659 0.021054 -0.019288 -0.172177 -0.097550 0.001423 -0.017342 -0.011843 -0.046966 0.036521 -0.055018 0.102736 -0.029049 0.020491 -0.196010 -0.004556 -0.196748 0.023275 -0.176599 -0.147129 -0.063626 -0.076884 -0.056500 0.228040 -0.079804 -0.125728 0.075934 0.125582 0.017486 -0.239370 -0.077672 -0.093573 0.027448 -0.110491 -0.150242 0.013740 0.124219 0.015307 -0.005770 -0.031387 -0.022669 0.134017 0.094648 0.178122 0.122931 -0.124119 -0.104662 0.116062 0.041690 0.078532 0.043798 -0.015219 0.015167 -0.159498 0.005597 0.000974 -0.111228 -0.006332 0.099303 -0.002279 -0.151960 -0.071865 0.135110 -0.059257 0.111167
101 -0.015481 -0.257658 0.035458 -0.086337 0.156310 -0.068623 0.044630 -0.046961 0.087006 -0.027462 0.035315 0.050002 0.013502 -0.075054 0.099526 -0.013007 0.164571 0.103117 0.038934 0.005768 0.212898 0.124393 -0.151696 0.058314 0.031198 0.114910 0.025645 0.086431 -0.178601 -0.109946 -0.010809 -0.150243 -0.226693 -0.096947 0.174391 -0.076802 -0.085435 -0.003807 0.002841 -0.093156 0.058525 0.093234 -0.060625 -0.039731 0.142746 0.020734 -0.077897 -0.052670 -0.047438 -0.053277 -0.174988 0.159852 0.099768 -0.051796 -0.048933 -0.182391 -0.036306 0.198065 0.128207 -0.002194 -0.131905 -0.017219 -0.155959 -0.043912 0.023159 -0.025171 -0.174378 -0.104269 -0.002758 -0.017494 -0.013460 -0.042912 0.037465 -0.052944 0.105208 -0.034151 0.018031 -0.192721 -0.008416 -0.202387 0.025543 -0.176620 -0.143722 -0.058479 -0.079029 -0.056514 0.231946 -0.077581 -0.125301 0.079063 0.130836 0.013555 -0.237258 -0.071528 -0.098185 0.023316 -0.120582 -0.160317 0.018649 0.124522 0.007132 -0.008788 -0.022729 -0.019298 0.140026 0.094920 0.184261 0.130565 -0.124088 -0.106218 0.111516 0.052429 0.088504 0.040305 -0.014914 0.011857 -0.167523 0.006951 0.001768 -0.115455 -0.010154 0.106868 -0.004877 -0.162947 -0.079319 0.145101 -0.059758 0.121951
114 -0.011215 -0.259463 0.101688 -0.076898 0.132086 -0.069433 0.026978 -0.057709 0.092996 -0.042231 0.045867 0.048804 0.013151 -0.079463 0.107956 0.004151 0.128988 0.122879 0.025531 0.000508 0.214622 0.100326 -0.110222 0.012292 0.025121 0.145346 0.012446 0.064628 -0.183286 -0.127669 -0.003302 -0.170630 -0.177370 -0.069580 0.185581 -0.059770 -0.062674 -0.018312 -0.027061 -0.104735 0.021506 0.073504 -0.065254 -0.041895 0.149878 0.037241 -0.079297 -0.067713 -0.031765 -0.059606 -0.231093 0.131816 0.087115 -0.016625 -0.071033 -0.135710 -0.026202 0.187935 0.084608 0.022698 -0.106374 -0.001752 -0.123096 -0.044420 0.012836 -0.010167 -0.142668 -0.095550 -0.008714 -0.017429 -0.012882 -0.071202 0.042213 -0.021718 0.127704 -0.020391 0.063532 -0.196917 0.005718 -0.196803 0.030997 -0.182414 -0.141429 -0.079960 -0.069523 -0.036573 0.177945 -0.109292 -0.128280 0.076893 0.137658 0.025219 -0.230280 -0.088097 -0.066950 0.023834 -0.120538 -0.109920 0.005795 0.119154 0.053957 -0.043444 -0.039414 -0.016145 0.119202 0.123930 0.143627 0.153456 -0.083174 -0.095848 0.066191 0.053192 0.092682 0.044935 0.004917 -0.020549 -0.126039 0.010704 -0.013655 -0.126069 -0.035330 0.108549 -0.017123 -0.163732 -0.063786 0.154242 -0.026690 0.076545
13 -0.009571 -0.254422 0.075668 -0.084476 0.141302 -0.065658 0.039088 -0.055380 0.086922 -0.027088 0.036766 0.046743 0.011784 -0.086224 0.102977 -0.002284 0.139004 0.107981 0.030902 -0.001437 0.216861 0.108523 -0.131039 0.028938 0.021354 0.127228 0.027517 0.081356 -0.174550 -0.116688 -0.008730 -0.154795 -0.199093 -0.084677 0.179072 -0.065197 -0.065718 -0.009760 -0.016681 -0.098311 0.042432 0.081362 -0.062133 -0.037997 0.144937 0.034491 -0.072936 -0.056323 -0.040426 -0.054504 -0.209266 0.142569 0.093706 -0.027520 -0.068580 -0.160877 -0.035923 0.187592 0.108822 0.008001 -0.114117 -0.009585 -0.141203 -0.046462 0.022169 -0.021014 -0.159438 -0.104272 0.001804 -0.023342 -0.016096 -0.060423 0.043248 -0.040432 0.122065 -0.029722 0.039232 -0.194983 -0.003045 -0.203274 0.030084 -0.182377 -0.145493 -0.072797 -0.076338 -0.044736 0.204235 -0.096688 -0.128663 0.082032 0.137240 0.021818 -0.236709 -0.087771 -0.078607 0.021025 -0.121716 -0.135743 0.007840 0.122743 0.041820 -0.024718 -0.032962 -0.015035 0.124214 0.103868 0.162239 0.137283 -0.100881 -0.105387 0.092937 0.049380 0.088289 0.047618 -0.005226 -0.009454 -0.144274 0.009809 -0.009481 -0.120364 -0.024356 0.111168 -0.007170 -0.154706 -0.071237 0.148601 -0.038517 0.103207
55 -0.015277 -0.280677 0.130912 -0.076488 0.140544 -0.073319 0.030358 -0.069216 0.098590 -0.039765 0.057728 0.054072 0.011708 -0.094586 0.117029 0.006477 0.130856 0.133314 0.028650 0.001343 0.237491 0.090637 -0.103605 -0.009269 0.016779 0.156846 0.009254 0.059562 -0.198942 -0.130898 0.004743 -0.180870 -0.172543 -0.067309 0.205280 -0.049550 -0.055722 -0.024499 -0.040774 -0.116000 0.016020 0.075513 -0.072565 -0.045993 0.160960 0.061697 -0.078032 -0.073729 -0.025991 -0.060356 -0.260363 0.124306 0.095931 -0.011917 -0.094385 -0.141931 -0.026774 0.207642 0.078143 0.023083 -0.102738 0.003502 -0.128736 -0.048922 0.020837 -0.009100 -0.142419 -0.113361 -0.002623 -0.021182 -0.010134 -0.077991 0.058193 -0.011768 0.156954 -0.020686 0.074392 -0.209272 0.006566 -0.208879 0.039030 -0.201228 -0.145486 -0.090522 -0.077374 -0.030981 0.172937 -0.131083 -0.142481 0.087201 0.151449 0.038142 -0.235596 -0.105700 -0.072099 0.020168 -0.143059 -0.101266 0.004821 0.128139 0.080190 -0.050453 -0.034500 -0.005081 0.119624 0.141036 0.145582 0.176897 -0.066567 -0.101158 0.047174 0.066168 0.108763 0.051001 0.017929 -0.040498 -0.119279 0.004358 -0.024634 -0.141116 -0.050113 0.126129 -0.030818 -0.173881 -0.066045 0.167466 -0.018292 0.080448
76 -0.018648 -0.260248 0.029804 -0.088320 0.159497 -0.070167 0.054982 -0.040183 0.085774 -0.022958 0.031334 0.052080 0.010320 -0.079247 0.102509 -0.013833 0.169143 0.096246 0.043429 0.007105 0.208746 0.124847 -0.156482 0.059023 0.038750 0.107410 0.023192 0.091952 -0.178223 -0.112907 -0.006846 -0.153166 -0.229124 -0.097381 0.180562 -0.073638 -0.090098 -0.009046 0.004546 -0.090466 0.057959 0.089647 -0.056123 -0.043017 0.140809 0.016503 -0.073248 -0.051560 -0.047897 -0.052456 -0.172532 0.158221 0.098198 -0.051544 -0.048737 -0.183585 -0.035012 0.196871 0.136033 -0.001194 -0.134549 -0.016582 -0.157913 -0.044254 0.016753 -0.020928 -0.176960 -0.099788 0.000555 -0.018307 -0.014822 -0.042789 0.038134 -0.057726 0.102083 -0.031488 0.016523 -0.185882 -0.012029 -0.202432 0.025015 -0.167127 -0.148052 -0.057441 -0.074403 -0.054828 0.234529 -0.076634 -0.126084 0.073031 0.123216 0.016191 -0.237541 -0.071977 -0.101676 0.024364 -0.116281 -0.162283 0.024500 0.121118 0.004527 -0.010113 -0.025772 -0.027489 0.139647 0.096106 0.190271 0.124210 -0.126577 -0.104588 0.121362 0.050599 0.082641 0.040721 -0.015936 0.022725 -0.165580 0.001488 0.002696 -0.107141 -0.011571 0.107355 0.001983 -0.158292 -0.083618 0.144441 -0.057671 0.129204
27 -0.012833 -0.259988 0.005564 -0.095286 0.160315 -0.065370 0.062252 -0.028926 0.080045 -0.016244 0.024174 0.046711 0.010022 -0.067822 0.092390 -0.017629 0.175642 0.085380 0.043496 0.002292 0.212324 0.140413 -0.167342 0.086077 0.044267 0.094831 0.024730 0.104161 -0.174088 -0.102104 -0.014637 -0.151428 -0.247608 -0.112144 0.176102 -0.086273 -0.097313 0.001438 0.008092 -0.087699 0.070508 0.099583 -0.057291 -0.043160 0.140087 0.009262 -0.068529 -0.047301 -0.052332 -0.050815 -0.149537 0.173829 0.097695 -0.058378 -0.039720 -0.198647 -0.039520 0.189831 0.151703 -0.010237 -0.138054 -0.021652 -0.160971 -0.042702 0.016860 -0.025868 -0.185283 -0.092343 0.003286 -0.019041 -0.023713 -0.028102 0.029740 -0.070493 0.080586 -0.041709 0.008127 -0.187746 -0.015863 -0.197297 0.013807 -0.163685 -0.144087 -0.046762 -0.082776 -0.062572 0.250247 -0.063400 -0.128611 0.075982 0.116056 0.002723 -0.234886 -0.064130 -0.110337 0.028043 -0.107380 -0.180419 0.029668 0.119214 -0.023151 0.005727 -0.020085 -0.032624 0.144929 0.083263 0.201631 0.102389 -0.148715 -0.100322 0.140710 0.042070 0.077799 0.033578 -0.024519 0.032103 -0.178639 0.005162 0.007850 -0.101934 0.001022 0.107450 0.007007 -0.166036 -0.091533 0.137205 -0.073806 0.137513
72 -0.007404 -0.236487 0.029140 -0.087190 0.142119 -0.056767 0.043842 -0.040557 0.080402 -0.020013 0.027502 0.048622 0.006021 -0.075097 0.089487 -0.003953 0.150455 0.094192 0.031980 0.000104 0.193794 0.123578 -0.149681 0.055486 0.033875 0.104655 0.032675 0.092975 -0.157527 -0.104430 -0.015682 -0.139860 -0.216084 -0.097703 0.162621 -0.074145 -0.081997 -0.004035 -0.003272 -0.086872 0.062252 0.094331 -0.055501 -0.039437 0.135527 0.007604 -0.070799 -0.044269 -0.048590 -0.057263 -0.165537 0.155315 0.092248 -0.044085 -0.049956 -0.171903 -0.037746 0.173984 0.129347 -0.002828 -0.123506 -0.024809 -0.144502 -0.042418 0.024230 -0.024611 -0.163176 -0.097831 -0.001747 -0.022250 -0.019285 -0.037743 0.037780 -0.054526 0.093619 -0.032509 0.014847 -0.183449 -0.002545 -0.185873 0.021759 -0.164147 -0.142260 -0.057209 -0.075964 -0.051236 0.224683 -0.073800 -0.111755 0.073635 0.119001 0.016189 -0.231133 -0.071790 -0.086728 0.025075 -0.105576 -0.156784 0.014762 0.120025 0.006616 0.000174 -0.030588 -0.023087 0.132236 0.084691 0.168226 0.110622 -0.125949 -0.101201 0.123905 0.037572 0.080054 0.036919 -0.013899 0.015679 -0.157436 0.008618 0.003347 -0.105786 -0.003556 0.096409 -0.000334 -0.146342 -0.073403 0.132599 -0.065069 0.118247
131 -0.013531 -0.251316 0.014794 -0.092063 0.154311 -0.063582 0.058084 -0.032800 0.078578 -0.016910 0.022227 0.051752 0.007207 -0.069636 0.089491 -0.012662 0.164817 0.087214 0.039639 0.005750 0.207397 0.137509 -0.161918 0.075996 0.046421 0.103195 0.031642 0.100912 -0.164833 -0.106175 -0.014607 -0.147769 -0.241368 -0.107411 0.164920 -0.079180 -0.094195 -0.001046 0.004983 -0.082795 0.071114 0.093847 -0.052769 -0.038875 0.140965 0.003193 -0.075689 -0.046131 -0.052040 -0.057672 -0.156539 0.163680 0.094220 -0.056791 -0.035018 -0.187718 -0.033091 0.184000 0.143567 -0.004737 -0.134288 -0.025094 -0.149596 -0.038730 0.012685 -0.021488 -0.179397 -0.087187 0.005764 -0.013562 -0.020152 -0.035964 0.025910 -0.066507 0.080657 -0.030729 0.009160 -0.186214 -0.010131 -0.196289 0.017383 -0.162292 -0.144165 -0.047998 -0.073454 -0.061463 0.238480 -0.061468 -0.121476 0.069731 0.118888 0.007605 -0.236472 -0.067991 -0.096134 0.028963 -0.101699 -0.167023 0.025193 0.118323 -0.010917 -0.000449 -0.030642 -0.025985 0.140357 0.082476 0.187221 0.106701 -0.143640 -0.100257 0.137476 0.040113 0.074522 0.034763 -0.022768 0.034515 -0.173835 0.002988 0.007994 -0.100074 0.003296 0.102386 0.005721 -0.162797 -0.084240 0.128742 -0.075359 0.129727
95 -0.009294 -0.246346 0.033453 -0.088324 0.153953 -0.067481 0.052813 -0.035664 0.084770 -0.019788 0.028031 0.044948 0.006653 -0.075382 0.088903 -0.006889 0.157238 0.095114 0.040380 -0.000143 0.204918 0.132800 -0.153611 0.066764 0.033861 0.102411 0.025919 0.095497 -0.164203 -0.107484 -0.013064 -0.141816 -0.230757 -0.100922 0.169556 -0.077099 -0.090372 -0.003477 -0.002990 -0.089775 0.060774 0.093551 -0.056107 -0.041089 0.144359 0.009096 -0.071964 -0.043997 -0.046537 -0.055971 -0.166185 0.159252 0.091436 -0.047755 -0.049052 -0.179482 -0.037200 0.179504 0.131500 0.001687 -0.127793 -0.023281 -0.149457 -0.045679 0.019331 -0.026271 -0.170642 -0.098177 -0.001617 -0.016979 -0.017419 -0.037017 0.037482 -0.055134 0.090384 -0.032064 0.019483 -0.187759 -0.011853 -0.193199 0.020289 -0.164387 -0.140601 -0.056861 -0.071423 -0.055336 0.232669 -0.074076 -0.120860 0.068995 0.118599 0.012727 -0.235082 -0.066151 -0.090415 0.026878 -0.112084 -0.159323 0.022636 0.121027 0.003862 -0.001432 -0.031961 -0.024813 0.136441 0.086361 0.175922 0.110910 -0.124309 -0.102315 0.128111 0.043817 0.080600 0.044271 -0.015284 0.014959 -0.166798 0.002100 -0.000462 -0.102641 -0.003655 0.097919 0.003321 -0.157263 -0.080659 0.137840 -0.065981 0.122555
49 0.000654 -0.270828 0.135212 -0.072988 0.132928 -0.077807 0.020798 -0.067763 0.102829 -0.053462 0.050510 0.053658 0.012064 -0.086862 0.106389 0.012304 0.105594 0.132753 0.019511 0.003949 0.237705 0.095228 -0.099327 -0.011796 0.020558 0.170168 0.008296 0.058158 -0.182413 -0.140831 -0.009554 -0.185944 -0.175922 -0.058596 0.197996 -0.051903 -0.055240 -0.021718 -0.048726 -0.113413 0.005254 0.083136 -0.075261 -0.037521 0.162635 0.045597 -0.085721 -0.070773 -0.031759 -0.061533 -0.266127 0.129221 0.095935 -0.003988 -0.090355 -0.125785 -0.015853 0.188572 0.078701 0.027589 -0.100249 0.008583 -0.112851 -0.055029 0.012578 -0.013889 -0.135205 -0.106850 -0.008709 -0.024757 -0.007099 -0.087453 0.053207 -0.024457 0.142499 -0.019004 0.084048 -0.221762 0.019910 -0.205611 0.026211 -0.194403 -0.154280 -0.088534 -0.075823 -0.030901 0.161852 -0.124928 -0.131269 0.083862 0.146094 0.031393 -0.245881 -0.095723 -0.053785 0.020635 -0.131441 -0.099091 -0.000888 0.135509 0.081409 -0.053774 -0.048772 -0.015044 0.116582 0.139831 0.132981 0.170243 -0.076609 -0.108574 0.055682 0.054151 0.108681 0.061829 0.016001 -0.040840 -0.109199 0.019547 -0.025360 -0.131830 -0.047418 0.116307 -0.032623 -0.171737 -0.047040 0.152627 -0.020516 0.050809
110 -0.004616 -0.252989 0.064968 -0.084188 0.147259 -0.069170 0.043005 -0.049339 0.088649 -0.030815 0.031035 0.044584 0.012923 -0.078570 0.098227 -0.004178 0.144672 0.108805 0.032092 0.001598 0.214511 0.117577 -0.138850 0.041291 0.026018 0.120547 0.024616 0.084336 -0.173113 -0.114275 -0.009032 -0.152936 -0.210778 -0.083700 0.177850 -0.066256 -0.078915 -0.010595 -0.008264 -0.098670 0.048336 0.091422 -0.062281 -0.038776 0.150337 0.022139 -0.073093 -0.050197 -0.041913 -0.058676 -0.200265 0.144955 0.089165 -0.035566 -0.060327 -0.156930 -0.028980 0.186499 0.116612 0.009640 -0.124089 -0.015667 -0.143555 -0.046125 0.020487 -0.022392 -0.158013 -0.105498 -0.007319 -0.021917 -0.012439 -0.050777 0.038330 -0.042338 0.116436 -0.026759 0.036490 -0.190566 -0.004927 -0.201956 0.030143 -0.175849 -0.146208 -0.069540 -0.071276 -0.045668 0.209282 -0.089146 -0.122022 0.075484 0.129410 0.025086 -0.237473 -0.075248 -0.082935 0.025210 -0.120275 -0.138825 0.015919 0.125040 0.033902 -0.018848 -0.033490 -0.023382 0.129537 0.100657 0.166118 0.131627 -0.104585 -0.110431 0.100718 0.045829 0.087275 0.050303 -0.007827 -0.004969 -0.151901 0.010728 -0.009525 -0.116851 -0.019108 0.101575 -0.010868 -0.155730 -0.068853 0.143649 -0.044528 0.103629
81 -0.016096 -0.264825 0.009167 -0.096517 0.168182 -0.067273 0.060461 -0.029099 0.082678 -0.019928 0.029252 0.047906 0.013019 -0.071436 0.096292 -0.013622 0.175966 0.088555 0.046017 0.008274 0.216324 0.142325 -0.175973 0.082556 0.049204 0.103817 0.029658 0.102075 -0.179635 -0.106271 -0.015984 -0.157564 -0.256798 -0.110511 0.180131 -0.086754 -0.096093 0.000135 0.014399 -0.084097 0.072330 0.104996 -0.062006 -0.048832 0.140343 0.001929 -0.077688 -0.043332 -0.054972 -0.051527 -0.150521 0.176413 0.102928 -0.066355 -0.035370 -0.197813 -0.042853 0.194365 0.157087 -0.016804 -0.139215 -0.023170 -0.163478 -0.038470 0.012031 -0.023267 -0.188003 -0.095151 0.004767 -0.020060 -0.017879 -0.029337 0.026916 -0.072258 0.083899 -0.037688 0.007655 -0.188368 -0.010331 -0.202600 0.019693 -0.164599 -0.147829 -0.052221 -0.080102 -0.063805 0.251071 -0.060305 -0.126680 0.077493 0.121759 0.004289 -0.241179 -0.063804 -0.111505 0.029640 -0.110400 -0.184776 0.025782 0.127662 -0.027305 0.004068 -0.020420 -0.028267 0.148606 0.087060 0.206644 0.106760 -0.154807 -0.107328 0.143168 0.041867 0.082069 0.033484 -0.030706 0.037170 -0.182844 0.002746 0.007590 -0.105826 0.001578 0.105382 0.001821 -0.164771 -0.089171 0.135969 -0.081213 0.136247
70 -0.008829 -0.258464 0.037907 -0.090416 0.153486 -0.067573 0.047380 -0.040276 0.087651 -0.019531 0.028672 0.052734 0.008271 -0.075573 0.096260 -0.008058 0.158404 0.096121 0.039927 0.005755 0.211847 0.126599 -0.152062 0.053914 0.035056 0.111869 0.026448 0.089329 -0.170664 -0.107024 -0.008534 -0.148936 -0.227182 -0.097983 0.174928 -0.076161 -0.081920 -0.002449 -0.002801 -0.087316 0.058786 0.088472 -0.061534 -0.040405 0.138547 0.016709 -0.075816 -0.049216 -0.050518 -0.058767 -0.174201 0.156606 0.098334 -0.044009 -0.048546 -0.175792 -0.033044 0.189938 0.125186 0.000391 -0.124861 -0.017474 -0.152298 -0.043995 0.016016 -0.018620 -0.169106 -0.099149 0.003210 -0.017500 -0.016666 -0.042050 0.038317 -0.056568 0.098333 -0.030122 0.023050 -0.186479 -0.008045 -0.199494 0.024708 -0.173218 -0.144258 -0.056194 -0.072412 -0.056259 0.228671 -0.079030 -0.122860 0.075990 0.127821 0.015565 -0.236654 -0.071319 -0.093640 0.026228 -0.112129 -0.156803 0.020533 0.118246 0.006371 -0.005886 -0.028691 -0.021578 0.134653 0.092432 0.180490 0.121849 -0.126115 -0.102665 0.114752 0.046142 0.081276 0.040575 -0.012055 0.015583 -0.162977 0.004894 -0.002582 -0.105809 -0.005608 0.101266 0.001539 -0.157419 -0.083000 0.137979 -0.059541 0.118152
96 0.002530 -0.267688 0.137873 -0.078599 0.131534 -0.081000 0.019854 -0.068413 0.102271 -0.053025 0.042229 0.049820 0.015110 -0.086938 0.105367 0.018844 0.109052 0.136857 0.015805 0.001095 0.238435 0.100131 -0.099311 -0.011691 0.014363 0.170995 0.008000 0.060990 -0.184234 -0.137843 -0.004568 -0.181639 -0.175943 -0.055094 0.196628 -0.056400 -0.061476 -0.019042 -0.048023 -0.118767 0.003112 0.081786 -0.073301 -0.040996 0.165996 0.041708 -0.079225 -0.068624 -0.027253 -0.060775 -0.268916 0.131644 0.089942 -0.000205 -0.083637 -0.122420 -0.012425 0.185023 0.078706 0.035046 -0.095297 0.004710 -0.111147 -0.057138 0.013790 -0.016298 -0.130256 -0.107945 -0.013897 -0.019611 -0.002607 -0.087358 0.051503 -0.019400 0.147540 -0.015284 0.082220 -0.221672 0.014223 -0.206633 0.032004 -0.200352 -0.152923 -0.086883 -0.069100 -0.025024 0.164816 -0.127977 -0.129386 0.077454 0.144922 0.034883 -0.246023 -0.096184 -0.052638 0.021666 -0.132179 -0.099411 0.001349 0.130223 0.086370 -0.053651 -0.052148 -0.017068 0.114344 0.134625 0.128468 0.167992 -0.071800 -0.112593 0.056939 0.050279 0.107403 0.065893 0.017225 -0.044869 -0.108764 0.021131 -0.020412 -0.134540 -0.045063 0.111580 -0.025098 -0.171157 -0.043847 0.158257 -0.021944 0.049647
87 -0.007158 -0.265294 0.114495 -0.078830 0.135765 -0.069903 0.024444 -0.060799 0.101054 -0.045016 0.043426 0.051063 0.016733 -0.084876 0.106532 0.013180 0.118238 0.125768 0.023755 -0.000306 0.234381 0.101285 -0.115167 0.005625 0.020395 0.158078 0.011894 0.069755 -0.181110 -0.134718 -0.002586 -0.177172 -0.186465 -0.071937 0.196330 -0.059245 -0.059186 -0.013825 -0.040581 -0.107575 0.014609 0.081252 -0.074252 -0.038171 0.161287 0.037469 -0.083617 -0.067967 -0.032111 -0.064644 -0.246584 0.133491 0.089354 -0.013151 -0.080902 -0.138790 -0.018989 0.181147 0.089883 0.025140 -0.100406 0.001145 -0.121337 -0.051640 0.017725 -0.014103 -0.145786 -0.102839 -0.008144 -0.020304 -0.005418 -0.078309 0.048293 -0.023664 0.135469 -0.024214 0.071610 -0.211743 0.011713 -0.200194 0.025677 -0.192495 -0.151881 -0.079338 -0.073303 -0.030944 0.174999 -0.117644 -0.125913 0.082851 0.138895 0.028298 -0.242015 -0.093131 -0.060945 0.023509 -0.121511 -0.111795 -0.001451 0.126080 0.066394 -0.043719 -0.042288 -0.017424 0.120556 0.124680 0.140367 0.156321 -0.081483 -0.107592 0.069327 0.049838 0.097456 0.055818 0.007295 -0.024903 -0.125828 0.013812 -0.019096 -0.127143 -0.038903 0.112678 -0.023929 -0.167201 -0.056285 0.152993 -0.027329 0.064332
50 -0.016228 -0.264457 0.030300 -0.086087 0.153769 -0.070578 0.058764 -0.038534 0.086695 -0.021942 0.029856 0.049756 0.014658 -0.079493 0.097274 -0.009577 0.166363 0.098851 0.040505 0.006241 0.215350 0.131334 -0.156565 0.066402 0.041546 0.113348 0.025243 0.097666 -0.178322 -0.111847 -0.014950 -0.159551 -0.237641 -0.102279 0.185152 -0.076046 -0.089412 -0.001620 -0.001824 -0.091659 0.064694 0.099116 -0.061658 -0.047243 0.146723 0.014408 -0.073078 -0.056088 -0.046642 -0.056414 -0.179367 0.164954 0.101461 -0.054014 -0.053335 -0.187751 -0.034600 0.194132 0.135799 -0.004684 -0.127828 -0.023158 -0.152745 -0.047096 0.015834 -0.027643 -0.176178 -0.099129 0.002731 -0.017175 -0.019586 -0.041118 0.033732 -0.055965 0.093584 -0.033426 0.019115 -0.189786 -0.005836 -0.202711 0.016115 -0.167147 -0.147372 -0.057781 -0.079524 -0.057817 0.230048 -0.074172 -0.130179 0.080034 0.121577 0.012116 -0.239033 -0.073242 -0.101433 0.028250 -0.112234 -0.166222 0.024449 0.127109 -0.002695 -0.003503 -0.026783 -0.024891 0.139479 0.091255 0.190378 0.116487 -0.133897 -0.102812 0.125085 0.041731 0.085944 0.042759 -0.019023 0.022166 -0.169917 0.009802 0.005906 -0.105839 -0.004444 0.111969 -0.002870 -0.169228 -0.084151 0.138027 -0.065571 0.127994
5 -0.012839 -0.252880 0.012459 -0.088190 0.157196 -0.065458 0.059591 -0.038348 0.083517 -0.023640 0.030655 0.049879 0.007319 -0.068334 0.093492 -0.017596 0.159371 0.084202 0.038191 0.007776 0.205816 0.134077 -0.162010 0.075416 0.042775 0.097866 0.026843 0.090494 -0.169603 -0.103902 -0.017730 -0.149423 -0.235837 -0.098089 0.171450 -0.081711 -0.087176 0.000668 0.006415 -0.082997 0.070133 0.094297 -0.059579 -0.043249 0.132067 0.008118 -0.070405 -0.046413 -0.049045 -0.053409 -0.156068 0.166083 0.099726 -0.059900 -0.037225 -0.185858 -0.034371 0.183374 0.144167 -0.013752 -0.132217 -0.024356 -0.148706 -0.035775 0.010952 -0.023254 -0.168929 -0.093278 0.005104 -0.022542 -0.020427 -0.032363 0.024804 -0.067413 0.086575 -0.037576 0.008001 -0.184347 -0.013373 -0.196770 0.014981 -0.157458 -0.142397 -0.051165 -0.078648 -0.063055 0.234009 -0.057908 -0.117606 0.073761 0.120774 0.005531 -0.226039 -0.062700 -0.103204 0.027893 -0.110895 -0.171101 0.028389 0.125442 -0.017588 -0.000115 -0.025874 -0.031366 0.133280 0.082422 0.190368 0.106715 -0.142118 -0.103666 0.125201 0.040960 0.080081 0.032097 -0.026202 0.031735 -0.162418 0.007279 0.010348 -0.099749 -0.002215 0.104025 0.002952 -0.161160 -0.085856 0.133533 -0.070959 0.130980
127 -0.028565 -0.288234 0.108761 -0.075348 0.153637 -0.066052 0.034555 -0.065925 0.089375 -0.037443 0.063082 0.054479 0.010695 -0.099016 0.128425 -0.001147 0.153356 0.121582 0.040303 0.004668 0.224703 0.091902 -0.111507 -0.000143 0.024881 0.143611 0.016633 0.066823 -0.206953 -0.124848 0.004408 -0.183581 -0.185746 -0.069856 0.202178 -0.051613 -0.053083 -0.026033 -0.023592 -0.106337 0.026326 0.070684 -0.079121 -0.052009 0.148819 0.058059 -0.081455 -0.072136 -0.025982 -0.057946 -0.240901 0.124678 0.094286 -0.025418 -0.082567 -0.157082 -0.036695 0.224313 0.090789 0.011912 -0.118725 -0.000589 -0.146019 -0.037132 0.018860 -0.006021 -0.154506 -0.104830 0.001704 -0.018272 -0.011483 -0.070341 0.048345 -0.020136 0.151125 -0.022356 0.057821 -0.193814 0.004662 -0.217122 0.038329 -0.189862 -0.146280 -0.085789 -0.074740 -0.044543 0.183676 -0.117313 -0.145024 0.087591 0.144746 0.025319 -0.229520 -0.098101 -0.086814 0.024779 -0.144121 -0.116945 0.009502 0.130444 0.056321 -0.046177 -0.019874 0.000902 0.123978 0.139246 0.160767 0.173396 -0.084420 -0.098232 0.051818 0.061455 0.100356 0.040690 0.012352 -0.022532 -0.133084 0.002577 -0.026332 -0.138328 -0.052847 0.127552 -0.025595 -0.165545 -0.079439 0.166433 -0.019789 0.100592
47 -0.015006 -0.258272 0.047879 -0.086892 0.148918 -0.066726 0.043744 -0.042168 0.083205 -0.023897 0.034091 0.048595 0.012768 -0.081634 0.102495 -0.003683 0.154733 0.098703 0.038824 0.007103 0.210925 0.119573 -0.142950 0.050309 0.036424 0.115185 0.027079 0.087723 -0.177596 -0.113010 -0.009282 -0.153247 -0.213322 -0.094946 0.177778 -0.070423 -0.078176 -0.008431 -0.008297 -0.090868 0.052352 0.088430 -0.062795 -0.042277 0.143710 0.021128 -0.075398 -0.053943 -0.045202 -0.053318 -0.180419 0.151224 0.094568 -0.045147 -0.052070 -0.171262 -0.036387 0.189670 0.122400 -0.001483 -0.123566 -0.018169 -0.146465 -0.042471 0.014651 -0.022056 -0.163737 -0.094083 -0.001316 -0.015210 -0.016132 -0.049880 0.039915 -0.045877 0.102195 -0.033691 0.024799 -0.184895 -0.006655 -0.199299 0.024864 -0.174243 -0.142986 -0.064258 -0.071790 -0.051187 0.214407 -0.082973 -0.123667 0.072959 0.125022 0.016876 -0.232604 -0.075329 -0.090214 0.025410 -0.118952 -0.148688 0.014310 0.120802 0.015320 -0.012470 -0.025572 -0.019825 0.128731 0.100533 0.171764 0.129300 -0.119530 -0.097080 0.108781 0.046762 0.086601 0.038059 -0.010806 0.010397 -0.157664 0.001468 -0.005136 -0.110334 -0.014835 0.108357 -0.008506 -0.160659 -0.079938 0.143553 -0.054558 0.116343
0 -0.021025 -0.277800 0.080477 -0.087161 0.149521 -0.065850 0.038232 -0.057884 0.088245 -0.032829 0.052224 0.052640 0.012918 -0.087874 0.117496 -0.006959 0.157320 0.113146 0.034492 0.003391 0.221230 0.104128 -0.129497 0.026465 0.022125 0.133351 0.019873 0.072660 -0.198462 -0.125292 -0.000155 -0.167433 -0.202483 -0.084320 0.196003 -0.066481 -0.063560 -0.013850 -0.012377 -0.104417 0.035048 0.078300 -0.071875 -0.043544 0.146819 0.046076 -0.079234 -0.066890 -0.039738 -0.052764 -0.217747 0.141978 0.095270 -0.037655 -0.070806 -0.167389 -0.039973 0.214638 0.103521 0.010175 -0.121553 -0.009295 -0.148226 -0.039934 0.018664 -0.018454 -0.161786 -0.110028 -0.001618 -0.019020 -0.017138 -0.057533 0.047986 -0.033478 0.132402 -0.030972 0.043984 -0.197231 -0.001913 -0.211704 0.034828 -0.187315 -0.141945 -0.069457 -0.081765 -0.045302 0.205861 -0.103966 -0.134668 0.084761 0.139091 0.025621 -0.234901 -0.090813 -0.090152 0.024816 -0.133158 -0.132827 0.017783 0.123098 0.037662 -0.033546 -0.020686 -0.007569 0.128221 0.119545 0.172666 0.155765 -0.095961 -0.098321 0.076137 0.059239 0.095210 0.037999 -0.004467 -0.012611 -0.143203 0.002112 -0.014552 -0.125295 -0.038212 0.117770 -0.016463 -0.166300 -0.080542 0.158891 -0.036586 0.107349
105 -0.007431 -0.268341 0.083945 -0.085099 0.147202 -0.072271 0.039646 -0.049503 0.093592 -0.036370 0.040049 0.053180 0.013805 -0.079623 0.099019 0.004056 0.144140 0.114519 0.033257 0.003968 0.229779 0.118448 -0.131693 0.034651 0.026878 0.139385 0.022083 0.086311 -0.182273 -0.125045 -0.008723 -0.172230 -0.211135 -0.084538 0.190164 -0.068997 -0.077297 -0.016300 -0.024506 -0.103217 0.037897 0.091956 -0.062254 -0.041869 0.151757 0.025835 -0.076819 -0.063243 -0.041622 -0.064063 -0.218829 0.150390 0.095360 -0.029748 -0.068414 -0.160545 -0.030739 0.191345 0.107827 0.017886 -0.120657 -0.009251 -0.141631 -0.051510 0.016815 -0.017183 -0.163717 -0.105461 -0.005662 -0.021841 -0.009751 -0.066604 0.040763 -0.040485 0.119010 -0.028282 0.048950 -0.205278 0.006009 -0.206134 0.026122 -0.189993 -0.150989 -0.074626 -0.071253 -0.045879 0.210773 -0.103792 -0.130000 0.079428 0.134359 0.025465 -0.249839 -0.085701 -0.079138 0.025263 -0.120271 -0.132465 0.007564 0.129664 0.042750 -0.027471 -0.036396 -0.017494 0.128973 0.110839 0.165456 0.139591 -0.109437 -0.103852 0.099665 0.048745 0.091953 0.050363 -0.003354 -0.003102 -0.144351 0.006119 -0.006167 -0.119413 -0.024714 0.107066 -0.010144 -0.167916 -0.065188 0.151558 -0.044159 0.091747
39 -0.016811 -0.266198 0.091523 -0.081210 0.149510 -0.067252 0.036225 -0.055017 0.091192 -0.037416 0.044614 0.048553 0.012330 -0.086304 0.108789 -0.000956 0.138508 0.119467 0.028697 0.005540 0.226755 0.107211 -0.119565 0.021504 0.020671 0.141583 0.014903 0.075740 -0.191080 -0.125412 -0.000649 -0.172450 -0.196975 -0.079951 0.194399 -0.062733 -0.065442 -0.014806 -0.024270 -0.107014 0.032805 0.082422 -0.069646 -0.046418 0.152923 0.044026 -0.077702 -0.061587 -0.033196 -0.054784 -0.227260 0.141496 0.095287 -0.029657 -0.071770 -0.152862 -0.032493 0.203266 0.104268 0.014962 -0.119075 -0.001168 -0.140956 -0.047153 0.015932 -0.016306 -0.151103 -0.103187 -0.000644 -0.020232 -0.008341 -0.063107 0.045119 -0.030317 0.134091 -0.022832 0.053138 -0.201210 0.005063 -0.209552 0.035356 -0.186918 -0.147825 -0.078959 -0.074784 -0.040918 0.200336 -0.104757 -0.133461 0.084523 0.139077 0.028505 -0.235458 -0.089374 -0.080925 0.025135 -0.130433 -0.125329 0.010886 0.129286 0.045309 -0.031389 -0.035757 -0.014134 0.129925 0.119842 0.158330 0.157788 -0.094118 -0.107607 0.075923 0.059685 0.096854 0.046633 -0.000843 -0.017100 -0.138869 0.004018 -0.018834 -0.130215 -0.034766 0.113439 -0.014344 -0.166459 -0.065802 0.157568 -0.034591 0.090250
123 -0.014171 -0.257510 0.046494 -0.090311 0.155927 -0.064017 0.049312 -0.044932 0.087836 -0.024706 0.035625 0.050615 0.008850 -0.079831 0.099102 -0.011943 0.155425 0.100437 0.038979 0.000996 0.213767 0.124356 -0.146546 0.049470 0.031108 0.115480 0.030497 0.090796 -0.173025 -0.111840 -0.009783 -0.152658 -0.223668 -0.096783 0.178542 -0.071425 -0.084080 -0.008388 -0.005305 -0.090706 0.054859 0.088061 -0.058521 -0.040337 0.144646 0.017461 -0.071500 -0.050225 -0.045666 -0.055130 -0.180897 0.153109 0.093871 -0.042908 -0.056210 -0.179601 -0.038897 0.190699 0.129142 0.000184 -0.126575 -0.015275 -0.150577 -0.038659 0.016927 -0.023294 -0.173396 -0.100461 0.004548 -0.020420 -0.013701 -0.046133 0.039164 -0.056339 0.104219 -0.030387 0.022808 -0.190841 -0.004589 -0.195625 0.024464 -0.172812 -0.148088 -0.061879 -0.074676 -0.054049 0.225185 -0.077033 -0.122386 0.078428 0.129481 0.017927 -0.238750 -0.075643 -0.092506 0.025074 -0.118425 -0.157437 0.016269 0.125793 0.011985 -0.007370 -0.025902 -0.025593 0.137875 0.095180 0.183279 0.121397 -0.125543 -0.105220 0.113579 0.045597 0.087828 0.043340 -0.015396 0.015844 -0.159218 0.003108 -0.005904 -0.109830 -0.010801 0.110084 -0.005883 -0.159118 -0.079623 0.139086 -0.056361 0.120987
20 -0.006834 -0.288902 0.133676 -0.080395 0.141538 -0.082990 0.029302 -0.067368 0.101874 -0.052266 0.049623 0.052633 0.017961 -0.093260 0.113875 0.011326 0.123453 0.140396 0.022859 -0.000741 0.250326 0.101783 -0.107849 -0.004521 0.021730 0.174747 0.015870 0.065951 -0.197543 -0.146983 -0.006668 -0.193640 -0.187911 -0.068334 0.212128 -0.056214 -0.057962 -0.025660 -0.047629 -0.124403 0.008539 0.082476 -0.080411 -0.043909 0.171610 0.048147 -0.082816 -0.073591 -0.030613 -0.069189 -0.277305 0.138735 0.101262 -0.014213 -0.090928 -0.140772 -0.021432 0.201069 0.083517 0.031525 -0.105539 0.005341 -0.127371 -0.053662 0.016050 -0.014068 -0.147842 -0.110790 -0.012485 -0.018986 -0.009350 -0.084695 0.052699 -0.022567 0.153138 -0.018079 0.081878 -0.228149 0.015738 -0.216175 0.034957 -0.212468 -0.160665 -0.095841 -0.074241 -0.029605 0.179908 -0.129925 -0.143099 0.089259 0.156325 0.035450 -0.256835 -0.103596 -0.064424 0.023555 -0.137916 -0.110936 -0.001288 0.142355 0.077639 -0.055568 -0.049884 -0.009473 0.124967 0.145768 0.145842 0.178661 -0.078063 -0.109142 0.059737 0.061255 0.110923 0.061744 0.012231 -0.039515 -0.120367 0.016312 -0.022876 -0.140188 -0.048436 0.125965 -0.028187 -0.183053 -0.055938 0.170201 -0.027367 0.069079
