37 128
133 0.020688 0.000249 0.235465 0.107588 0.060161 0.105292 -0.037949 -0.088920 -0.083981 -0.029874 0.215064 0.013633 0.150266 -0.113923 -0.114594 -0.187385 0.100170 0.091824 0.090417 -0.016212 -0.000463 0.045635 -0.048605 0.211300 0.029636 -0.023022 0.023477 0.095141 0.177192 -0.152659 -0.146311 0.180836 -0.115299 0.092456 0.228247 0.085558 -0.044383 0.020831 0.000922 -0.034977 -0.044806 0.075675 0.047129 -0.153348 -0.040450 0.018169 -0.035692 -0.187867 -0.034979 -0.016233 0.090491 0.013982 -0.156262 -0.116505 -0.055673 -0.167987 -0.022832 -0.002398 -0.162081 0.190851 -0.165169 0.045604 -0.138403 0.059614 0.098461 -0.082680 -0.133965 -0.032394 -0.053189 -0.180145 0.139925 -0.153345 -0.245645 0.161380 0.068951 -0.077577 0.058271 0.147817 -0.060371 -0.033535 0.035584 0.079867 -0.110626 -0.148661 0.241074 0.149523 0.031401 -0.250088 -0.037750 0.026834 -0.114215 0.082873 -0.013920 -0.072966 -0.271444 -0.007663 -0.034043 0.020240 -0.094648 0.292154 0.248790 -0.116952 -0.166851 -0.034311 0.031637 0.041016 -0.080325 -0.159012 0.094908 0.083122 0.050223 -0.011235 0.111027 -0.078516 0.070705 0.146631 0.082468 -0.009349 -0.235470 0.228313 -0.100534 -0.192975 -0.102891 -0.157867 -0.016433 0.092439 0.085078 -0.090743
84 0.003854 0.050504 0.214663 0.147978 0.033871 0.102629 -0.055820 -0.093565 -0.081965 -0.002087 0.194191 0.036898 0.072159 -0.108581 -0.088201 -0.148931 0.120539 0.073283 0.090922 -0.017851 -0.022777 0.094978 -0.046532 0.158449 0.030758 -0.047950 0.023659 0.098485 0.168830 -0.145937 -0.136564 0.185094 -0.081782 0.054077 0.209232 0.082992 -0.007810 0.053697 0.015272 -0.029986 -0.066389 0.103258 0.034288 -0.119715 -0.060292 0.016092 -0.038424 -0.132428 -0.075645 -0.017016 0.105830 0.039392 -0.155919 -0.076127 -0.064124 -0.112918 -0.010570 0.033207 -0.161322 0.140452 -0.203033 0.024338 -0.109412 0.081439 0.117397 -0.084312 -0.080908 -0.021601 -0.017800 -0.141225 0.096980 -0.154200 -0.264427 0.139865 0.069766 -0.051774 0.023017 0.129543 -0.089779 -0.009754 0.059089 0.070357 -0.143157 -0.109123 0.192952 0.121250 0.013069 -0.226142 -0.024525 0.028937 -0.126964 0.033631 0.017095 -0.075637 -0.177823 0.022894 -0.040349 0.014311 -0.072445 0.239664 0.204086 -0.113549 -0.173741 -0.005865 0.034347 0.021220 -0.081088 -0.134665 0.145606 0.086510 0.050377 0.035829 0.134223 -0.090499 0.019752 0.135507 0.069104 0.025774 -0.224233 0.156552 -0.079856 -0.150570 -0.054418 -0.106883 -0.047772 0.104188 0.126617 -0.046546
170 0.030959 0.094168 0.238218 0.161347 -0.005917 0.089266 -0.047614 -0.087825 -0.111386 0.030070 0.203164 -0.000958 0.102481 -0.111396 -0.096031 -0.160827 0.141764 0.101369 0.081933 0.013194 -0.067660 0.057060 -0.042673 0.089852 0.049909 -0.016786 0.044649 0.120856 0.203921 -0.169896 -0.126530 0.189664 -0.063655 0.071341 0.197047 0.140335 -0.018333 0.048119 0.025716 -0.005611 -0.086738 0.047998 0.048937 -0.127660 -0.042543 0.048882 -0.025686 -0.140698 -0.083314 0.018994 0.099693 0.046119 -0.178165 -0.060298 -0.063539 -0.082690 -0.036673 0.026213 -0.157525 0.145109 -0.192727 0.024781 -0.110670 0.075755 0.131971 -0.107040 -0.043820 -0.022647 -0.032769 -0.106994 0.130688 -0.165057 -0.237153 0.160124 0.056868 -0.022542 0.026862 0.130125 -0.046868 0.032790 0.076686 0.065484 -0.136172 -0.117570 0.220727 0.143192 0.014282 -0.218684 -0.053672 -0.000837 -0.144534 0.045161 0.035331 -0.062120 -0.197083 0.015807 -0.058617 0.044806 -0.068842 0.194819 0.193840 -0.106810 -0.170027 -0.028260 0.037026 0.053743 -0.070289 -0.109721 0.159910 0.085407 0.062873 0.056053 0.153494 -0.063940 0.036770 0.106979 0.044497 0.021201 -0.270469 0.135918 -0.111186 -0.214984 -0.074541 -0.147547 -0.037310 0.123435 0.124341 -0.100347
35 0.010103 0.028907 0.212250 0.125601 0.035450 0.094275 -0.046487 -0.094413 -0.090960 -0.010481 0.193111 0.030036 0.089623 -0.105976 -0.095207 -0.153609 0.118340 0.084333 0.086571 -0.012739 -0.011576 0.071759 -0.049984 0.174724 0.040059 -0.037370 0.021344 0.095497 0.167176 -0.143915 -0.132514 0.177346 -0.084862 0.064049 0.210987 0.080531 -0.020876 0.038976 0.020699 -0.032259 -0.064559 0.082176 0.042474 -0.126068 -0.049808 0.011347 -0.033829 -0.147345 -0.062466 -0.016953 0.097158 0.024351 -0.152720 -0.088113 -0.049324 -0.129675 -0.014351 0.014877 -0.154926 0.145838 -0.187990 0.027141 -0.106999 0.071050 0.101455 -0.088107 -0.093510 -0.014557 -0.025368 -0.144766 0.111655 -0.143593 -0.243010 0.140675 0.060848 -0.062268 0.034101 0.130920 -0.080179 -0.020287 0.046792 0.064752 -0.123807 -0.125623 0.204475 0.128341 0.023150 -0.224653 -0.034796 0.026724 -0.107639 0.046131 0.005127 -0.069136 -0.206720 0.010669 -0.042111 0.021918 -0.074922 0.250161 0.210882 -0.107342 -0.171821 -0.020946 0.039072 0.025714 -0.082309 -0.130800 0.126557 0.090756 0.055936 0.014691 0.125105 -0.081899 0.037662 0.138583 0.072774 0.014834 -0.220492 0.175512 -0.078435 -0.165971 -0.069454 -0.121772 -0.039926 0.097217 0.097758 -0.059139
198 0.017594 0.038205 0.211336 0.125386 0.024579 0.092346 -0.051727 -0.088731 -0.085201 0.000406 0.196902 0.018466 0.097271 -0.103259 -0.091531 -0.167801 0.110354 0.072686 0.090209 -0.007829 -0.024383 0.071733 -0.056711 0.153043 0.031225 -0.032973 0.031376 0.091470 0.168990 -0.147734 -0.130761 0.174841 -0.080090 0.072739 0.199655 0.089394 -0.007923 0.038753 0.013327 -0.017548 -0.048375 0.073260 0.035705 -0.129340 -0.043851 0.019327 -0.028372 -0.151525 -0.069383 -0.000118 0.092036 0.040069 -0.147725 -0.079966 -0.054818 -0.117571 -0.014290 0.021511 -0.156720 0.147263 -0.181462 0.023956 -0.103832 0.071702 0.106533 -0.090391 -0.077440 -0.020090 -0.032580 -0.137566 0.116182 -0.149263 -0.244067 0.147163 0.066373 -0.050667 0.031701 0.124960 -0.073036 -0.013128 0.050589 0.073974 -0.132077 -0.116507 0.201378 0.132641 0.014542 -0.219883 -0.041695 0.017304 -0.119750 0.045306 0.016180 -0.066593 -0.196180 0.011842 -0.041553 0.019905 -0.073973 0.229331 0.204175 -0.110441 -0.163680 -0.022122 0.027114 0.037954 -0.068876 -0.135526 0.120889 0.074271 0.045559 0.030220 0.131530 -0.079003 0.034836 0.130788 0.072129 0.020087 -0.229534 0.176305 -0.084278 -0.163656 -0.069506 -0.119246 -0.036929 0.108062 0.104948 -0.068226
105 0.017656 -0.069055 0.159539 0.045368 0.091198 0.105116 -0.021060 -0.086064 -0.041918 -0.071515 0.177384 0.055514 0.133423 -0.090245 -0.096500 -0.176644 0.062237 0.034878 0.088888 -0.042956 0.073247 0.060969 -0.064400 0.284636 0.004997 -0.063509 0.004013 0.034217 0.092330 -0.099807 -0.134137 0.132693 -0.120920 0.083884 0.189979 0.002091 -0.026995 -0.003757 -0.002792 -0.056796 0.023170 0.097996 0.022634 -0.144123 -0.045913 -0.036954 -0.042197 -0.168569 -0.011743 -0.041101 0.062652 0.000847 -0.086921 -0.133077 -0.030521 -0.197422 0.020388 -0.032537 -0.138974 0.155942 -0.122881 0.035582 -0.104098 0.044834 0.043158 -0.035863 -0.154880 -0.032508 -0.052798 -0.193550 0.088529 -0.123055 -0.225647 0.107733 0.056562 -0.099714 0.050878 0.128920 -0.091891 -0.100785 -0.016775 0.053022 -0.078233 -0.133281 0.162159 0.103240 0.032936 -0.207763 -0.007596 0.038831 -0.067709 0.071145 -0.045072 -0.070886 -0.233444 -0.011049 -0.000154 -0.035463 -0.089594 0.326610 0.226893 -0.111237 -0.134850 -0.008442 0.007956 0.009913 -0.043384 -0.174842 0.018977 0.060521 0.015611 -0.043751 0.070075 -0.092539 0.060600 0.167731 0.111339 -0.021522 -0.159440 0.268736 -0.054677 -0.123409 -0.069868 -0.115091 -0.023757 0.074963 0.048254 -0.028012
3 0.015187 0.060982 0.228785 0.142011 0.020943 0.088879 -0.044118 -0.085594 -0.101608 0.008266 0.198247 0.010980 0.094916 -0.112748 -0.099534 -0.159895 0.127609 0.087410 0.081954 -0.002368 -0.044420 0.064951 -0.045455 0.135840 0.046329 -0.027251 0.030916 0.110902 0.190862 -0.150533 -0.131526 0.179534 -0.081929 0.073383 0.204618 0.103957 -0.018187 0.047614 0.019854 -0.019526 -0.071752 0.064551 0.045727 -0.123064 -0.047376 0.028461 -0.025773 -0.145892 -0.073450 0.005557 0.102667 0.034579 -0.171126 -0.075689 -0.062466 -0.108976 -0.027088 0.024267 -0.158977 0.153107 -0.191287 0.029911 -0.114274 0.075629 0.115942 -0.100160 -0.066937 -0.016633 -0.028011 -0.130106 0.125424 -0.152506 -0.241668 0.151690 0.063830 -0.045769 0.039006 0.127974 -0.056115 0.005827 0.060627 0.070137 -0.132304 -0.119871 0.211861 0.134714 0.016733 -0.220760 -0.046488 0.012553 -0.130804 0.049686 0.020690 -0.061830 -0.202414 0.019285 -0.052384 0.037176 -0.068534 0.217021 0.191414 -0.104134 -0.169051 -0.023586 0.038166 0.043218 -0.076903 -0.119016 0.143012 0.082100 0.060489 0.034084 0.133600 -0.072638 0.038004 0.124170 0.055904 0.020469 -0.235077 0.155345 -0.099162 -0.189482 -0.076072 -0.133276 -0.039371 0.108058 0.113732 -0.079255
31 0.037610 0.054379 0.226120 0.128378 0.023132 0.091694 -0.030644 -0.089294 -0.098291 0.002489 0.202220 0.010867 0.139781 -0.110522 -0.104218 -0.179480 0.113460 0.092078 0.080663 0.001853 -0.034304 0.042458 -0.048697 0.149932 0.038513 -0.017012 0.040220 0.107085 0.180740 -0.152038 -0.136603 0.181900 -0.092612 0.093866 0.204300 0.115139 -0.031476 0.021104 0.017907 -0.028751 -0.056593 0.056002 0.051321 -0.143676 -0.036439 0.027834 -0.031122 -0.162306 -0.051268 0.011855 0.083595 0.032053 -0.156822 -0.089409 -0.057171 -0.127329 -0.025399 0.003672 -0.160930 0.160528 -0.156376 0.032791 -0.127566 0.057366 0.100009 -0.094550 -0.086368 -0.026360 -0.052756 -0.133879 0.135107 -0.155389 -0.223498 0.144566 0.063592 -0.042423 0.054425 0.129229 -0.035509 0.006304 0.048759 0.060742 -0.121317 -0.131572 0.222393 0.138182 0.015333 -0.226005 -0.045501 0.003240 -0.135678 0.066876 0.012898 -0.060040 -0.228245 0.000961 -0.040380 0.027475 -0.074046 0.236418 0.198250 -0.106919 -0.162261 -0.035403 0.028553 0.054802 -0.050879 -0.120835 0.116110 0.075054 0.047356 0.020690 0.120972 -0.066990 0.051762 0.125279 0.054061 0.007424 -0.250247 0.181117 -0.106683 -0.203890 -0.085856 -0.152193 -0.019533 0.106814 0.093579 -0.093126
108 0.011949 0.040425 0.213886 0.125529 0.035040 0.092049 -0.044552 -0.083546 -0.091323 -0.004587 0.192322 0.016005 0.097062 -0.106338 -0.093398 -0.149737 0.113610 0.085607 0.081002 -0.008001 -0.021407 0.065461 -0.039902 0.157536 0.037352 -0.027777 0.019686 0.094758 0.172845 -0.148231 -0.125933 0.177035 -0.083159 0.061473 0.202238 0.092030 -0.025402 0.036653 0.016984 -0.024130 -0.061713 0.070398 0.037777 -0.121744 -0.046687 0.023884 -0.030966 -0.143809 -0.056579 -0.009727 0.093270 0.026424 -0.151805 -0.079116 -0.057915 -0.120659 -0.021386 0.012400 -0.149610 0.146698 -0.183016 0.028111 -0.108455 0.070128 0.104553 -0.086883 -0.083102 -0.019761 -0.028916 -0.136771 0.117887 -0.141742 -0.233741 0.144234 0.056742 -0.053264 0.034847 0.122008 -0.069890 -0.010714 0.048460 0.066010 -0.119846 -0.121280 0.205526 0.127983 0.017415 -0.220382 -0.031675 0.017353 -0.105994 0.050814 0.006624 -0.057790 -0.199064 0.013065 -0.043204 0.026512 -0.076812 0.234041 0.204745 -0.100277 -0.157784 -0.018249 0.032406 0.030102 -0.079821 -0.122158 0.123571 0.088064 0.056317 0.020365 0.123697 -0.075623 0.041579 0.128362 0.061524 0.009888 -0.219089 0.165045 -0.084161 -0.174384 -0.073557 -0.121935 -0.034314 0.093415 0.098250 -0.073693
205 0.016834 0.012933 0.193761 0.108685 0.043035 0.088542 -0.047331 -0.089640 -0.075748 -0.020034 0.189178 0.038731 0.083081 -0.103437 -0.090844 -0.157431 0.101336 0.061137 0.081682 -0.023821 0.004856 0.076997 -0.055910 0.185553 0.025728 -0.049438 0.013772 0.072694 0.146974 -0.131595 -0.135305 0.163265 -0.085890 0.063977 0.197526 0.057489 -0.011682 0.035666 0.012023 -0.035553 -0.034158 0.091690 0.028209 -0.127557 -0.052007 -0.002940 -0.033368 -0.146551 -0.054763 -0.019125 0.088257 0.030813 -0.131315 -0.089940 -0.049324 -0.133063 -0.004682 0.011900 -0.147219 0.136229 -0.175349 0.027365 -0.098030 0.067282 0.094282 -0.075684 -0.101384 -0.020563 -0.026909 -0.154659 0.101160 -0.140114 -0.248252 0.131319 0.065317 -0.064988 0.027390 0.126420 -0.085005 -0.038285 0.040546 0.063519 -0.121993 -0.122025 0.182646 0.117357 0.018341 -0.219111 -0.019167 0.026490 -0.102932 0.047234 -0.003272 -0.069128 -0.196102 0.015385 -0.033021 0.003136 -0.076301 0.260721 0.199888 -0.113752 -0.159925 -0.011359 0.030856 0.019647 -0.074813 -0.144278 0.107408 0.079103 0.045633 0.010033 0.110666 -0.087684 0.031437 0.138436 0.081415 0.009864 -0.201131 0.187653 -0.069069 -0.146480 -0.064472 -0.116353 -0.042513 0.097072 0.094575 -0.039895
168 0.012951 0.066554 0.222593 0.150625 0.016847 0.092041 -0.054821 -0.090614 -0.098291 0.011393 0.192820 0.022625 0.083939 -0.107942 -0.092047 -0.151866 0.131634 0.089817 0.083364 -0.004015 -0.043808 0.077878 -0.044156 0.125258 0.044266 -0.032980 0.030076 0.104307 0.183604 -0.150723 -0.128278 0.181647 -0.070485 0.058954 0.200139 0.102046 -0.012835 0.052507 0.023256 -0.020763 -0.076522 0.074871 0.040619 -0.113741 -0.054091 0.027612 -0.033244 -0.132338 -0.072002 0.000882 0.107737 0.039479 -0.167016 -0.066951 -0.059995 -0.097489 -0.026832 0.022999 -0.157327 0.141888 -0.201335 0.022183 -0.108279 0.074249 0.122630 -0.096936 -0.063145 -0.016615 -0.020717 -0.120991 0.113592 -0.154553 -0.250623 0.143322 0.066359 -0.044203 0.023487 0.123527 -0.069982 0.006742 0.060976 0.070746 -0.139275 -0.112824 0.202617 0.127083 0.015738 -0.219706 -0.034414 0.019639 -0.123334 0.034701 0.027158 -0.061902 -0.177070 0.021084 -0.046917 0.028036 -0.069848 0.214634 0.188916 -0.105513 -0.168425 -0.011298 0.035599 0.032549 -0.083782 -0.115405 0.151194 0.087160 0.063622 0.039842 0.137805 -0.078750 0.031338 0.125660 0.054829 0.023885 -0.233990 0.144279 -0.085867 -0.178114 -0.063595 -0.119821 -0.045793 0.102353 0.118103 -0.069959
163 0.018817 0.041270 0.218699 0.128202 0.030537 0.088923 -0.041562 -0.083869 -0.092425 -0.009165 0.185561 0.022453 0.100747 -0.107374 -0.099839 -0.157695 0.116334 0.086708 0.079197 -0.004239 -0.023779 0.063028 -0.041086 0.154178 0.042006 -0.031183 0.021623 0.101219 0.171283 -0.146280 -0.128521 0.173113 -0.077821 0.070869 0.203466 0.088561 -0.027333 0.035499 0.017583 -0.030948 -0.065793 0.069522 0.042831 -0.124899 -0.047464 0.024254 -0.033864 -0.144649 -0.053589 -0.005156 0.095667 0.023326 -0.154044 -0.085488 -0.055078 -0.113860 -0.019126 0.018693 -0.148852 0.150604 -0.177597 0.031928 -0.115141 0.065311 0.102872 -0.088867 -0.082655 -0.017902 -0.033522 -0.128430 0.119561 -0.148916 -0.231438 0.137414 0.063338 -0.048340 0.038187 0.129178 -0.061027 -0.008690 0.050267 0.064605 -0.116400 -0.117458 0.205820 0.128204 0.017801 -0.215265 -0.041335 0.020963 -0.116058 0.051508 0.014483 -0.058101 -0.194184 0.010932 -0.041988 0.028306 -0.074970 0.223920 0.193758 -0.095408 -0.152957 -0.018254 0.030793 0.037871 -0.075971 -0.121866 0.121493 0.081812 0.054954 0.019874 0.118288 -0.069067 0.036576 0.117164 0.055535 0.007322 -0.215929 0.155514 -0.088805 -0.170285 -0.070388 -0.122448 -0.030903 0.091423 0.096828 -0.072961
89 -0.001809 -0.116475 0.083526 0.016859 0.113142 0.131314 -0.044438 -0.116865 0.005543 -0.089409 0.179229 0.133132 0.039567 -0.092236 -0.059964 -0.215241 0.030536 -0.067994 0.119332 -0.102495 0.166903 0.160430 -0.134175 0.389840 -0.033281 -0.158378 -0.012403 -0.044299 0.011860 -0.063494 -0.166018 0.126250 -0.130650 0.064458 0.171166 -0.098711 0.045292 0.029578 0.002642 -0.071236 0.117099 0.188793 -0.027276 -0.150537 -0.077818 -0.118933 -0.071598 -0.155095 -0.058658 -0.057017 0.066055 0.019140 -0.027728 -0.137549 -0.008794 -0.230823 0.092288 -0.036661 -0.155157 0.097135 -0.154485 0.014642 -0.050881 0.082274 0.002833 0.000528 -0.161122 -0.031611 -0.022116 -0.237461 -0.007285 -0.121989 -0.298183 0.068924 0.078052 -0.123529 -0.005599 0.142168 -0.196153 -0.197815 -0.055627 0.048110 -0.124866 -0.102234 0.044095 0.078967 0.022189 -0.184044 0.040020 0.065201 -0.060619 0.020973 -0.058501 -0.120425 -0.183544 0.002351 0.014742 -0.136483 -0.073089 0.403166 0.245095 -0.166442 -0.151476 0.032606 -0.006059 -0.035470 -0.018483 -0.234865 0.012105 0.017309 -0.042333 -0.041955 0.086351 -0.169709 0.007741 0.229658 0.183601 0.031245 -0.138360 0.351526 0.007738 -0.024751 -0.013595 -0.049683 -0.071136 0.128327 0.086729 0.107589
88 0.013839 0.037194 0.208589 0.134462 0.021935 0.087334 -0.059259 -0.085652 -0.095940 -0.010378 0.195724 0.024549 0.066739 -0.101327 -0.079514 -0.142046 0.122527 0.073470 0.083200 -0.017595 -0.020609 0.081735 -0.054136 0.153280 0.030221 -0.041199 0.018029 0.084689 0.174405 -0.141685 -0.134720 0.182605 -0.064382 0.060108 0.197221 0.090154 -0.016397 0.046195 0.026006 -0.023214 -0.070685 0.084971 0.040403 -0.116643 -0.053188 0.021881 -0.030510 -0.138898 -0.070554 -0.011215 0.096279 0.037294 -0.143453 -0.066827 -0.052511 -0.106914 -0.020295 0.019530 -0.147595 0.131119 -0.187626 0.023675 -0.096751 0.076469 0.109907 -0.083147 -0.076878 -0.010987 -0.010857 -0.133813 0.111838 -0.136029 -0.253487 0.143422 0.065555 -0.048024 0.017121 0.129179 -0.086334 -0.021969 0.062579 0.075154 -0.136880 -0.124623 0.202214 0.131031 0.005173 -0.228448 -0.027119 0.018821 -0.106318 0.037579 0.005292 -0.066198 -0.188713 0.012230 -0.048952 0.022244 -0.075606 0.240313 0.204924 -0.115439 -0.170265 -0.010335 0.033815 0.024031 -0.088901 -0.135324 0.130734 0.096257 0.062370 0.029001 0.120694 -0.077222 0.024009 0.122749 0.064957 0.021025 -0.218822 0.147503 -0.075610 -0.168589 -0.058061 -0.120166 -0.037090 0.104514 0.099745 -0.056741
230 0.004174 -0.270977 -0.000903 -0.082017 0.184760 0.163350 -0.041398 -0.138212 0.069391 -0.170691 0.179644 0.201922 0.051379 -0.089202 -0.062845 -0.278331 -0.029779 -0.158294 0.149595 -0.164700 0.317839 0.213632 -0.212606 0.607383 -0.079915 -0.247278 -0.041321 -0.142199 -0.088799 -0.010431 -0.200844 0.107724 -0.184845 0.093838 0.167505 -0.224079 0.065777 0.002875 -0.009960 -0.106329 0.248300 0.265953 -0.058456 -0.194967 -0.102579 -0.216674 -0.105265 -0.201575 -0.036560 -0.101804 0.042808 0.002100 0.069033 -0.206332 0.021267 -0.346682 0.167724 -0.093416 -0.166366 0.090191 -0.112848 0.010030 -0.027890 0.086127 -0.074576 0.056357 -0.248631 -0.045924 -0.034060 -0.340422 -0.060965 -0.100955 -0.356834 0.036061 0.090578 -0.196274 -0.013296 0.161424 -0.276842 -0.342544 -0.140887 0.044785 -0.118485 -0.131794 -0.029280 0.063183 0.032644 -0.193101 0.082927 0.096773 -0.017346 0.024032 -0.124349 -0.155105 -0.241194 -0.017954 0.058540 -0.249047 -0.086913 0.581432 0.302794 -0.223072 -0.156428 0.049751 -0.048339 -0.086510 0.016026 -0.324795 -0.088195 -0.018135 -0.107647 -0.114654 0.048980 -0.233120 0.018770 0.329128 0.285483 0.021706 -0.089007 0.530252 0.057873 0.045721 0.013364 -0.028531 -0.083704 0.141967 0.044148 0.204717
45 0.035557 0.057493 0.207980 0.128064 0.018446 0.091634 -0.033723 -0.080431 -0.088232 0.010093 0.190828 0.017226 0.117607 -0.104051 -0.098347 -0.171984 0.119804 0.080801 0.077088 0.004191 -0.034818 0.054471 -0.051937 0.135032 0.034695 -0.023707 0.033234 0.094146 0.175998 -0.143951 -0.132732 0.177361 -0.084121 0.083453 0.191398 0.109431 -0.022890 0.034027 0.018691 -0.023623 -0.054967 0.060978 0.046945 -0.138132 -0.043471 0.016962 -0.026880 -0.145064 -0.060396 0.015175 0.091413 0.034943 -0.154466 -0.075211 -0.057564 -0.114433 -0.019559 0.008138 -0.153811 0.146497 -0.165668 0.026872 -0.110038 0.067622 0.099355 -0.090735 -0.070931 -0.020661 -0.041165 -0.124518 0.123252 -0.144747 -0.230040 0.133330 0.064726 -0.034638 0.041431 0.128347 -0.045160 0.006436 0.048887 0.056000 -0.128960 -0.116912 0.198272 0.131568 0.016741 -0.213763 -0.041489 0.003954 -0.133024 0.050757 0.011978 -0.059030 -0.204645 0.011393 -0.037947 0.020103 -0.063305 0.225769 0.184486 -0.111837 -0.162907 -0.021442 0.030719 0.042342 -0.050173 -0.116606 0.124165 0.074298 0.044983 0.035789 0.123852 -0.069847 0.038651 0.120439 0.058582 0.012041 -0.238645 0.168417 -0.093690 -0.191242 -0.070202 -0.134079 -0.025767 0.113537 0.108190 -0.078164
225 0.041373 0.076443 0.234309 0.140754 0.008449 0.093752 -0.027898 -0.083420 -0.104740 0.012945 0.201490 0.003118 0.136015 -0.106679 -0.106841 -0.170716 0.129715 0.093509 0.068631 0.007640 -0.049963 0.039294 -0.044147 0.115926 0.046609 -0.010726 0.044395 0.111333 0.199550 -0.163175 -0.133966 0.179793 -0.073280 0.089814 0.195306 0.127604 -0.032168 0.025226 0.013728 -0.013940 -0.074120 0.043534 0.058479 -0.142396 -0.027720 0.038955 -0.024705 -0.153925 -0.052478 0.015298 0.090748 0.030623 -0.164448 -0.075320 -0.066053 -0.100389 -0.037908 0.008470 -0.148199 0.160818 -0.159476 0.036723 -0.126497 0.060777 0.113362 -0.106600 -0.063179 -0.020174 -0.047365 -0.121226 0.141940 -0.157420 -0.213172 0.146971 0.055382 -0.029848 0.045963 0.128490 -0.025116 0.021927 0.053595 0.057552 -0.118691 -0.130037 0.224881 0.137592 0.013583 -0.218798 -0.048279 0.001723 -0.140960 0.058589 0.015906 -0.049985 -0.211283 0.001021 -0.039518 0.037416 -0.069891 0.204628 0.189724 -0.104286 -0.161449 -0.033467 0.038435 0.057253 -0.052143 -0.109103 0.123368 0.072979 0.055407 0.039020 0.127043 -0.053236 0.045853 0.111667 0.043588 0.003269 -0.252710 0.145595 -0.111580 -0.213637 -0.079622 -0.152125 -0.016803 0.100604 0.106006 -0.106497
57 0.023886 -0.059551 0.201863 0.042615 0.102550 0.098986 -0.010314 -0.073986 -0.062883 -0.078629 0.181326 0.010529 0.205952 -0.095884 -0.118082 -0.167827 0.056848 0.094618 0.068689 -0.028140 0.030241 -0.003219 -0.015117 0.251709 0.021430 -0.005701 0.004637 0.077840 0.135940 -0.122982 -0.124100 0.141060 -0.131046 0.095856 0.213168 0.047032 -0.077420 -0.029528 -0.012652 -0.051550 -0.021711 0.048116 0.037407 -0.147758 -0.018684 0.010410 -0.023717 -0.193203 0.031951 -0.037790 0.052892 -0.016155 -0.125368 -0.151682 -0.040685 -0.211841 -0.014776 -0.028136 -0.130073 0.211271 -0.108411 0.061951 -0.148064 0.021917 0.072523 -0.058607 -0.181833 -0.037251 -0.080817 -0.194493 0.155790 -0.121638 -0.187764 0.139996 0.065482 -0.104719 0.092911 0.127685 -0.038509 -0.061332 0.003442 0.078278 -0.040783 -0.158849 0.248921 0.130725 0.038967 -0.237402 -0.032679 0.038289 -0.058369 0.118317 -0.051481 -0.050049 -0.295107 -0.028744 -0.002975 0.016085 -0.104393 0.310066 0.242027 -0.079590 -0.137618 -0.041827 0.021641 0.044919 -0.070064 -0.160175 0.008894 0.084344 0.045542 -0.064803 0.048199 -0.045966 0.101612 0.137552 0.085376 -0.061974 -0.177447 0.252674 -0.083929 -0.171203 -0.130324 -0.157288 0.007636 0.026945 0.019919 -0.108488
117 0.019569 0.006092 0.198701 0.105516 0.042689 0.086919 -0.052014 -0.092225 -0.082033 -0.029008 0.183602 0.028129 0.083653 -0.106742 -0.083311 -0.144270 0.099735 0.075376 0.084116 -0.025253 0.005101 0.072265 -0.052432 0.183110 0.030055 -0.039907 0.012514 0.084874 0.147041 -0.135573 -0.132146 0.174120 -0.076772 0.060391 0.195531 0.067350 -0.028751 0.034399 0.022300 -0.026105 -0.053649 0.080502 0.031869 -0.118089 -0.044963 0.012032 -0.033409 -0.150553 -0.049604 -0.021564 0.084826 0.022403 -0.128598 -0.082398 -0.043250 -0.134363 -0.016194 0.009872 -0.150632 0.138453 -0.176277 0.028299 -0.103807 0.064390 0.094919 -0.072551 -0.104800 -0.013652 -0.025909 -0.151564 0.108398 -0.132585 -0.245194 0.134541 0.062695 -0.060721 0.028121 0.123702 -0.083626 -0.039107 0.044850 0.073908 -0.122501 -0.126621 0.202216 0.134088 0.016140 -0.227723 -0.022331 0.022259 -0.091504 0.050759 -0.004572 -0.073602 -0.213840 0.002464 -0.032150 0.008509 -0.075528 0.260682 0.216123 -0.106701 -0.166796 -0.023711 0.034472 0.025637 -0.074911 -0.143369 0.112636 0.086163 0.052821 0.010281 0.116430 -0.074644 0.034917 0.139085 0.070559 0.013250 -0.208264 0.179137 -0.068498 -0.158541 -0.071548 -0.120289 -0.035867 0.095761 0.081916 -0.052309
87 0.015819 -0.049651 0.202481 0.059253 0.093230 0.106562 -0.019849 -0.083545 -0.059925 -0.069187 0.191875 0.026497 0.176435 -0.102284 -0.108397 -0.174215 0.064909 0.075447 0.081421 -0.035725 0.042173 0.025570 -0.043006 0.261988 0.018597 -0.027612 0.005551 0.068400 0.133316 -0.126843 -0.129472 0.146559 -0.129971 0.090789 0.219462 0.038405 -0.047845 -0.006712 -0.007759 -0.051735 -0.015740 0.068526 0.029395 -0.147211 -0.027241 -0.004284 -0.037622 -0.192039 0.005412 -0.037815 0.063697 -0.007339 -0.125300 -0.141858 -0.043905 -0.207559 -0.001116 -0.028890 -0.142489 0.195543 -0.124308 0.050860 -0.133046 0.036865 0.071729 -0.056833 -0.169878 -0.032258 -0.066475 -0.196623 0.136226 -0.134608 -0.217085 0.142895 0.066660 -0.102950 0.080003 0.130946 -0.065301 -0.071655 -0.001218 0.071684 -0.075490 -0.149798 0.221401 0.130434 0.031067 -0.239057 -0.024585 0.038613 -0.076270 0.096175 -0.040877 -0.065494 -0.272460 -0.018414 -0.006747 -0.000139 -0.102627 0.314897 0.242237 -0.099447 -0.142827 -0.031427 0.022258 0.032246 -0.067574 -0.168915 0.033172 0.073013 0.035056 -0.050022 0.069390 -0.068256 0.084280 0.153764 0.088602 -0.035733 -0.188533 0.259286 -0.081583 -0.157134 -0.110326 -0.146017 -0.010900 0.056073 0.044991 -0.082736
207 0.015350 -0.044470 0.173724 0.062759 0.081478 0.098696 -0.023990 -0.087250 -0.052141 -0.052589 0.180317 0.044022 0.131937 -0.093263 -0.095995 -0.171682 0.071485 0.050863 0.080314 -0.038330 0.047989 0.057706 -0.057160 0.250192 0.016318 -0.056817 0.004348 0.045912 0.120354 -0.111932 -0.134222 0.144538 -0.110182 0.083698 0.196551 0.020691 -0.022812 0.009506 -0.002586 -0.049183 0.003050 0.089238 0.023899 -0.141517 -0.036765 -0.021271 -0.037571 -0.159905 -0.020267 -0.029590 0.068431 0.005521 -0.107118 -0.127355 -0.035126 -0.178335 0.014133 -0.021894 -0.139045 0.157296 -0.136365 0.038683 -0.105416 0.046773 0.062238 -0.052338 -0.140093 -0.026617 -0.045193 -0.180639 0.102323 -0.130530 -0.225836 0.120167 0.064605 -0.088306 0.046591 0.128261 -0.087378 -0.080215 0.000430 0.060775 -0.087187 -0.129180 0.175658 0.109923 0.027365 -0.212063 -0.013673 0.032165 -0.074643 0.068794 -0.025413 -0.069694 -0.229057 -0.003046 -0.009270 -0.019516 -0.087600 0.299667 0.214504 -0.108496 -0.139964 -0.011485 0.014509 0.015645 -0.059886 -0.158605 0.042455 0.063752 0.022343 -0.030420 0.078559 -0.080116 0.062086 0.151535 0.096653 -0.015891 -0.175046 0.245457 -0.060595 -0.136678 -0.081485 -0.121135 -0.028213 0.072337 0.060955 -0.043890
5 0.005092 -0.284846 -0.004183 -0.079508 0.197219 0.168610 -0.041229 -0.157771 0.071068 -0.182450 0.201012 0.223692 0.040436 -0.095101 -0.057264 -0.299958 -0.024572 -0.171323 0.160079 -0.170276 0.338058 0.236761 -0.234068 0.649213 -0.077338 -0.274051 -0.045482 -0.158556 -0.094661 -0.014446 -0.217895 0.115801 -0.192194 0.101245 0.182519 -0.241381 0.077335 0.011688 -0.003841 -0.117846 0.268012 0.280622 -0.064657 -0.207505 -0.116759 -0.233027 -0.112168 -0.206059 -0.044600 -0.103820 0.045618 0.010157 0.075256 -0.217836 0.031019 -0.367796 0.183805 -0.104866 -0.175542 0.078182 -0.131887 0.005190 -0.018574 0.098005 -0.087412 0.063795 -0.252250 -0.040496 -0.026249 -0.356502 -0.076015 -0.108234 -0.387506 0.027811 0.091249 -0.207108 -0.018991 0.169131 -0.310133 -0.372360 -0.151972 0.041230 -0.133641 -0.133966 -0.039664 0.059155 0.036698 -0.199463 0.090135 0.097244 -0.011577 0.014302 -0.124335 -0.164696 -0.250861 -0.008587 0.051081 -0.269414 -0.089058 0.624854 0.315670 -0.235998 -0.173022 0.051137 -0.051909 -0.092925 0.020196 -0.344743 -0.093293 -0.014851 -0.114754 -0.112486 0.063972 -0.257004 0.009682 0.354452 0.306485 0.030544 -0.094558 0.562885 0.066854 0.049098 0.020980 -0.035174 -0.100849 0.162586 0.045861 0.228713
75 0.024780 0.036106 0.206823 0.116363 0.035156 0.099974 -0.037254 -0.086931 -0.083493 -0.008650 0.201352 0.016263 0.111246 -0.103803 -0.097246 -0.176510 0.105049 0.068039 0.086473 -0.008709 -0.011505 0.061380 -0.057031 0.162306 0.027465 -0.038693 0.027829 0.093383 0.164159 -0.146024 -0.134191 0.173211 -0.089608 0.081479 0.202004 0.085127 -0.012916 0.032327 0.008497 -0.025700 -0.039420 0.071482 0.037803 -0.137055 -0.040228 0.016985 -0.028481 -0.153373 -0.054354 0.003109 0.085807 0.033216 -0.146667 -0.092319 -0.050680 -0.125310 -0.015839 0.015204 -0.152138 0.149570 -0.167435 0.030260 -0.108922 0.062223 0.097789 -0.082417 -0.083635 -0.031086 -0.039706 -0.144258 0.119010 -0.152700 -0.236367 0.141415 0.067465 -0.056522 0.035483 0.133211 -0.062408 -0.018563 0.043922 0.071399 -0.123925 -0.117408 0.200207 0.130130 0.021337 -0.214508 -0.038126 0.015029 -0.126253 0.058951 0.006691 -0.070152 -0.213496 0.002242 -0.037434 0.016747 -0.075075 0.241294 0.208396 -0.112665 -0.161191 -0.019707 0.022921 0.040348 -0.058457 -0.140306 0.105382 0.067758 0.042131 0.022218 0.123591 -0.077374 0.042405 0.127669 0.071663 0.009993 -0.232206 0.192260 -0.093412 -0.176111 -0.072043 -0.129410 -0.026590 0.107582 0.100995 -0.070002
154 0.025621 0.055516 0.226257 0.130928 0.025037 0.087038 -0.037701 -0.077869 -0.097019 0.002547 0.197784 0.008738 0.117683 -0.102842 -0.099955 -0.156366 0.117843 0.090092 0.075225 -0.005526 -0.040015 0.052684 -0.040862 0.139969 0.036293 -0.022258 0.028517 0.100719 0.183793 -0.151785 -0.133367 0.173399 -0.078954 0.076051 0.200236 0.104150 -0.023456 0.031326 0.015320 -0.024417 -0.066313 0.060592 0.044604 -0.131336 -0.037347 0.027654 -0.028823 -0.149357 -0.055539 0.003521 0.093746 0.033956 -0.160349 -0.085400 -0.060606 -0.115518 -0.029114 0.012795 -0.149798 0.157669 -0.170239 0.029261 -0.115572 0.065381 0.115180 -0.091614 -0.074150 -0.020670 -0.035852 -0.129811 0.129646 -0.151873 -0.227741 0.149657 0.059443 -0.048080 0.037565 0.126211 -0.055374 -0.001253 0.050509 0.066673 -0.119951 -0.125369 0.210206 0.127581 0.016380 -0.221174 -0.040010 0.012431 -0.120127 0.054548 0.017140 -0.053678 -0.201774 0.006003 -0.045734 0.030578 -0.074015 0.217162 0.194053 -0.102319 -0.155561 -0.021779 0.035450 0.045238 -0.069345 -0.117631 0.119178 0.080071 0.061818 0.026904 0.119819 -0.064203 0.045065 0.115854 0.057077 0.009042 -0.232016 0.159425 -0.094782 -0.189285 -0.081252 -0.138774 -0.024990 0.097911 0.097575 -0.083608
191 0.018030 -0.055726 0.205839 0.045235 0.104135 0.098014 -0.004678 -0.071888 -0.064606 -0.081865 0.188183 0.008244 0.205316 -0.100216 -0.113471 -0.166826 0.061887 0.091891 0.067661 -0.031660 0.030925 -0.001550 -0.020598 0.257819 0.023246 -0.009763 0.009956 0.067360 0.134457 -0.117594 -0.121177 0.134102 -0.138233 0.098096 0.218244 0.041563 -0.069214 -0.027492 -0.008088 -0.057268 -0.022382 0.047692 0.036623 -0.146911 -0.018654 0.000442 -0.027291 -0.193752 0.031429 -0.040140 0.060731 -0.018402 -0.117503 -0.148893 -0.042050 -0.214218 -0.014140 -0.035624 -0.129901 0.211379 -0.102752 0.055567 -0.141643 0.020171 0.066306 -0.055640 -0.177526 -0.032314 -0.081276 -0.197699 0.148044 -0.117564 -0.190996 0.144623 0.059819 -0.100291 0.094810 0.122387 -0.044215 -0.063923 -0.002091 0.073105 -0.046354 -0.162124 0.241398 0.125862 0.034902 -0.231923 -0.029376 0.035913 -0.060238 0.112137 -0.051584 -0.052093 -0.289063 -0.031560 -0.006242 0.013380 -0.103532 0.317126 0.235506 -0.082992 -0.134049 -0.037762 0.026148 0.037674 -0.068886 -0.166609 0.005493 0.077938 0.040206 -0.064778 0.054704 -0.047732 0.105252 0.139870 0.081864 -0.056840 -0.174309 0.257657 -0.084763 -0.165816 -0.126035 -0.159597 0.006552 0.030422 0.022091 -0.104129
121 0.015979 0.015583 0.203673 0.112547 0.050350 0.100532 -0.037259 -0.090539 -0.074560 -0.023511 0.190489 0.031991 0.105091 -0.108092 -0.099136 -0.166759 0.098615 0.073071 0.086165 -0.024404 0.002345 0.072245 -0.047711 0.193828 0.031255 -0.044815 0.021757 0.084013 0.157171 -0.139511 -0.133289 0.170149 -0.098362 0.068249 0.208249 0.062202 -0.024036 0.026628 0.009388 -0.039183 -0.041937 0.089065 0.034308 -0.127432 -0.050158 0.005552 -0.033744 -0.155767 -0.048125 -0.021401 0.094019 0.024192 -0.145030 -0.097335 -0.048949 -0.142430 -0.009978 0.009343 -0.156194 0.158856 -0.176608 0.032599 -0.114649 0.065701 0.097121 -0.078181 -0.103892 -0.026358 -0.035300 -0.155375 0.112669 -0.147939 -0.242104 0.135028 0.065899 -0.070143 0.036894 0.128405 -0.080461 -0.034229 0.036910 0.072213 -0.119764 -0.121168 0.197434 0.125077 0.024068 -0.222578 -0.031730 0.030308 -0.107018 0.053985 -0.000560 -0.068046 -0.205968 0.007144 -0.029360 0.008055 -0.079487 0.261933 0.215362 -0.109035 -0.162695 -0.012374 0.029634 0.023660 -0.073503 -0.143052 0.105221 0.079635 0.047133 0.004269 0.114580 -0.085738 0.041396 0.138123 0.077820 0.001933 -0.214720 0.196862 -0.079865 -0.152651 -0.073330 -0.118065 -0.038351 0.088231 0.094139 -0.056183
19 0.022718 0.035003 0.229679 0.123757 0.034795 0.092441 -0.040595 -0.084497 -0.088962 -0.003480 0.189430 0.018967 0.117106 -0.103669 -0.104842 -0.155027 0.107972 0.088513 0.084441 -0.000238 -0.026190 0.045871 -0.040879 0.157252 0.042085 -0.016781 0.024247 0.103816 0.178997 -0.150489 -0.127907 0.174579 -0.089541 0.069685 0.209476 0.097493 -0.036784 0.040890 0.016713 -0.026604 -0.065629 0.065955 0.044897 -0.136776 -0.039009 0.026866 -0.025993 -0.158417 -0.056347 -0.002378 0.094111 0.024341 -0.173121 -0.096484 -0.052399 -0.126458 -0.028068 0.014150 -0.149181 0.161583 -0.179386 0.032030 -0.118612 0.069618 0.107619 -0.094714 -0.089804 -0.023034 -0.039010 -0.146472 0.129191 -0.151522 -0.233385 0.152643 0.058348 -0.062768 0.050097 0.138636 -0.064743 -0.012636 0.047409 0.067783 -0.115345 -0.129485 0.213999 0.134024 0.028974 -0.223114 -0.046955 0.015937 -0.119472 0.065086 0.016113 -0.060295 -0.225949 0.013947 -0.044876 0.029655 -0.079038 0.232646 0.211304 -0.099090 -0.165284 -0.029339 0.035917 0.038195 -0.080040 -0.125519 0.116197 0.082483 0.050620 0.014957 0.122120 -0.075599 0.055898 0.130423 0.068124 0.009460 -0.234337 0.180227 -0.097428 -0.188003 -0.089578 -0.142795 -0.035322 0.096482 0.093962 -0.090025
221 -0.001644 0.052387 0.218781 0.149007 0.039926 0.104524 -0.048086 -0.086449 -0.083541 -0.013337 0.193353 0.031056 0.084698 -0.106605 -0.087595 -0.154388 0.116890 0.073807 0.090844 -0.019520 -0.018006 0.088927 -0.039750 0.160916 0.028297 -0.043638 0.027071 0.100773 0.176238 -0.146277 -0.135903 0.176503 -0.083513 0.053416 0.216202 0.084797 -0.010878 0.049318 0.013186 -0.033170 -0.068158 0.097033 0.034621 -0.113869 -0.051929 0.023655 -0.038115 -0.132994 -0.067991 -0.014294 0.103976 0.032734 -0.160556 -0.083819 -0.068688 -0.113814 -0.020647 0.033009 -0.154205 0.145654 -0.194704 0.024827 -0.115640 0.071568 0.120096 -0.084833 -0.078048 -0.026180 -0.019075 -0.135124 0.101482 -0.152967 -0.250331 0.146887 0.071874 -0.062190 0.034252 0.125181 -0.085240 -0.008756 0.047608 0.076003 -0.131285 -0.111909 0.195760 0.116239 0.012930 -0.223775 -0.030400 0.035324 -0.122384 0.040451 0.019538 -0.072725 -0.178750 0.014166 -0.040449 0.022825 -0.082430 0.231535 0.206750 -0.105122 -0.171807 -0.004198 0.033474 0.028132 -0.077362 -0.133424 0.129998 0.090428 0.056506 0.031305 0.120891 -0.084393 0.026314 0.129159 0.066034 0.016230 -0.216979 0.155566 -0.081975 -0.160777 -0.058240 -0.114411 -0.044266 0.091856 0.119571 -0.055284
174 -0.001319 0.041874 0.208511 0.146979 0.037569 0.113192 -0.055707 -0.100098 -0.073834 -0.020314 0.198711 0.048995 0.061735 -0.104503 -0.083346 -0.159594 0.117821 0.055197 0.096210 -0.031686 0.000481 0.108919 -0.060421 0.187584 0.026604 -0.058150 0.023224 0.090703 0.154494 -0.136602 -0.145649 0.174458 -0.084050 0.058761 0.214892 0.069462 -0.001515 0.047751 0.015472 -0.033494 -0.049337 0.107118 0.035205 -0.114554 -0.065307 0.005014 -0.043762 -0.131675 -0.074447 -0.018951 0.107801 0.038548 -0.143418 -0.076144 -0.065386 -0.124652 -0.006553 0.028748 -0.153160 0.129795 -0.204168 0.020972 -0.105981 0.080153 0.106546 -0.079790 -0.080688 -0.026714 -0.017540 -0.147600 0.083075 -0.156070 -0.268246 0.136721 0.069379 -0.066702 0.021209 0.133635 -0.105788 -0.031768 0.039237 0.072782 -0.142484 -0.110608 0.183253 0.112546 0.008201 -0.223664 -0.019917 0.039566 -0.119823 0.033810 0.009195 -0.077017 -0.165508 0.018734 -0.038965 0.007595 -0.077967 0.256912 0.219824 -0.115354 -0.179149 -0.000092 0.035085 0.020373 -0.073736 -0.147132 0.130034 0.085677 0.043414 0.035867 0.134734 -0.101754 0.021364 0.140039 0.076848 0.021666 -0.218595 0.169073 -0.066460 -0.148350 -0.041832 -0.098357 -0.050476 0.101418 0.124577 -0.025394
202 0.019684 0.014671 0.208752 0.115828 0.051620 0.100307 -0.038900 -0.087665 -0.078756 -0.023574 0.197828 0.030821 0.116684 -0.113214 -0.100794 -0.167186 0.106648 0.083179 0.088326 -0.015338 -0.004419 0.066802 -0.044832 0.189310 0.030714 -0.037302 0.017292 0.090585 0.164695 -0.143694 -0.134864 0.179400 -0.097172 0.069553 0.214017 0.066067 -0.028045 0.027056 0.011765 -0.036120 -0.043913 0.089708 0.036887 -0.136844 -0.052428 0.009693 -0.032781 -0.159537 -0.050990 -0.017750 0.095008 0.023552 -0.145027 -0.103542 -0.054838 -0.148198 -0.005791 0.001769 -0.158909 0.164499 -0.182511 0.034327 -0.118810 0.064781 0.099129 -0.084102 -0.108616 -0.023847 -0.035721 -0.157175 0.122143 -0.151557 -0.255197 0.139477 0.072406 -0.069537 0.040350 0.140186 -0.083509 -0.037148 0.040276 0.068246 -0.115636 -0.127114 0.211409 0.133514 0.023202 -0.236246 -0.029875 0.029792 -0.106289 0.055061 -0.002500 -0.065883 -0.216082 0.010891 -0.029860 0.013322 -0.085509 0.265491 0.217009 -0.107614 -0.158955 -0.019152 0.031877 0.030453 -0.071987 -0.143608 0.107842 0.080246 0.048252 0.009037 0.111648 -0.081230 0.048146 0.142569 0.077963 -0.001512 -0.217376 0.201340 -0.084458 -0.160703 -0.079418 -0.124771 -0.031795 0.091513 0.090211 -0.060817
111 0.010331 -0.251927 0.030155 -0.072631 0.187665 0.154719 -0.037858 -0.136501 0.044805 -0.169527 0.188701 0.174613 0.076821 -0.095655 -0.075480 -0.274259 -0.017945 -0.122051 0.142447 -0.149177 0.283079 0.184045 -0.193133 0.584047 -0.060734 -0.224768 -0.036250 -0.118454 -0.053477 -0.026960 -0.192474 0.112895 -0.178792 0.102945 0.185053 -0.191949 0.045167 0.000985 -0.004966 -0.114067 0.221175 0.234543 -0.044321 -0.191448 -0.090804 -0.189927 -0.098575 -0.204911 -0.019146 -0.089062 0.039041 -0.007051 0.036912 -0.209540 0.023042 -0.346405 0.144167 -0.091866 -0.164262 0.104581 -0.109397 0.020236 -0.047627 0.075563 -0.063907 0.047961 -0.248485 -0.035681 -0.036014 -0.323774 -0.034010 -0.104106 -0.339257 0.049900 0.077774 -0.193627 0.014001 0.162427 -0.254813 -0.320306 -0.130908 0.047459 -0.108858 -0.142785 0.010353 0.073609 0.035512 -0.209035 0.064875 0.084375 -0.016169 0.040367 -0.117716 -0.144680 -0.265240 -0.013236 0.045022 -0.215846 -0.099758 0.566158 0.306331 -0.205842 -0.160715 0.030653 -0.038127 -0.063119 -0.000939 -0.312521 -0.085051 0.001681 -0.084519 -0.114665 0.052167 -0.216641 0.034692 0.309359 0.260321 0.008367 -0.104020 0.516245 0.039826 0.009974 -0.012641 -0.061547 -0.076615 0.128797 0.031300 0.163763
164 0.020791 0.035953 0.209761 0.118803 0.032801 0.088376 -0.046078 -0.075283 -0.089097 -0.001514 0.186031 0.024062 0.105717 -0.100694 -0.097637 -0.153739 0.102290 0.078070 0.080042 -0.012910 -0.022423 0.058033 -0.053011 0.146936 0.037737 -0.025910 0.029089 0.093468 0.173163 -0.139386 -0.124026 0.162893 -0.083586 0.067803 0.193682 0.090813 -0.022006 0.043331 0.017350 -0.021803 -0.057344 0.067489 0.035409 -0.129061 -0.043402 0.015450 -0.025788 -0.145374 -0.064873 -0.003018 0.094622 0.034296 -0.157611 -0.086319 -0.056367 -0.116654 -0.015560 0.012009 -0.142391 0.146341 -0.172989 0.029501 -0.111430 0.065007 0.104890 -0.090089 -0.076184 -0.025341 -0.029512 -0.133825 0.114875 -0.142104 -0.232150 0.146854 0.061750 -0.054059 0.032160 0.130432 -0.064775 -0.013359 0.044819 0.069194 -0.114789 -0.114349 0.189372 0.126702 0.018735 -0.209481 -0.042999 0.021277 -0.118695 0.055894 0.014581 -0.060941 -0.205108 0.009661 -0.043804 0.017429 -0.072314 0.222024 0.191521 -0.106054 -0.156304 -0.021319 0.038531 0.031085 -0.071142 -0.125052 0.111233 0.076426 0.043326 0.021542 0.118479 -0.078067 0.042686 0.129022 0.064859 0.012486 -0.223354 0.167618 -0.088797 -0.169748 -0.077880 -0.123583 -0.037117 0.100004 0.103335 -0.073753
80 0.017823 -0.030756 0.189699 0.086527 0.071120 0.105565 -0.030285 -0.087731 -0.070945 -0.048957 0.190107 0.032653 0.127203 -0.097089 -0.098519 -0.173060 0.087874 0.065940 0.087650 -0.031635 0.031285 0.061595 -0.060381 0.241888 0.019535 -0.049941 0.008801 0.055639 0.140508 -0.126218 -0.137229 0.165701 -0.107293 0.082129 0.203960 0.047857 -0.026393 0.016265 0.005398 -0.045047 -0.019381 0.082533 0.033017 -0.141450 -0.042342 -0.004750 -0.033722 -0.166320 -0.025417 -0.027233 0.081778 0.009386 -0.121602 -0.116733 -0.039358 -0.173119 -0.004691 -0.017845 -0.149479 0.157127 -0.141836 0.031577 -0.105679 0.059680 0.073740 -0.057052 -0.132268 -0.023556 -0.039811 -0.178886 0.111956 -0.126163 -0.234989 0.130959 0.056820 -0.084274 0.044432 0.127302 -0.086118 -0.065451 0.013705 0.066442 -0.101684 -0.141838 0.193784 0.119864 0.025495 -0.219670 -0.016526 0.028556 -0.082666 0.069377 -0.019909 -0.065125 -0.237214 -0.009471 -0.017201 -0.010994 -0.088918 0.306453 0.225238 -0.112440 -0.156047 -0.016784 0.020995 0.023829 -0.065299 -0.159228 0.064942 0.080048 0.036099 -0.019457 0.094127 -0.088401 0.059700 0.155157 0.098562 -0.008252 -0.195056 0.230080 -0.073238 -0.158365 -0.077486 -0.124327 -0.028680 0.081585 0.065314 -0.051355
150 0.018716 -0.009853 0.209292 0.097464 0.061278 0.102916 -0.041895 -0.095963 -0.079072 -0.040437 0.195288 0.033257 0.115496 -0.109467 -0.100323 -0.169207 0.104649 0.079010 0.087165 -0.022615 0.010412 0.062019 -0.049394 0.219273 0.024738 -0.044891 0.012321 0.072052 0.153173 -0.132945 -0.141457 0.175407 -0.096233 0.076278 0.214507 0.060000 -0.031786 0.024961 0.014543 -0.048138 -0.040260 0.087256 0.037159 -0.137225 -0.044429 -0.002064 -0.038792 -0.157298 -0.036554 -0.029045 0.092838 0.016661 -0.137949 -0.110141 -0.045453 -0.157712 -0.002898 -0.011122 -0.152558 0.161227 -0.170494 0.033813 -0.109373 0.060539 0.086942 -0.070064 -0.120321 -0.022447 -0.037790 -0.166769 0.111931 -0.142161 -0.251460 0.134127 0.058980 -0.078479 0.041741 0.137012 -0.091147 -0.055027 0.026004 0.070165 -0.107934 -0.139164 0.198732 0.125033 0.021461 -0.232660 -0.023505 0.031657 -0.091485 0.060738 -0.013921 -0.065881 -0.223746 0.004657 -0.024562 0.003365 -0.087139 0.295211 0.222126 -0.115033 -0.162453 -0.015874 0.027172 0.023830 -0.072282 -0.149406 0.087192 0.089461 0.050798 -0.004555 0.103853 -0.089638 0.054544 0.152570 0.084911 -0.002871 -0.207492 0.214186 -0.078258 -0.159796 -0.072639 -0.128240 -0.033136 0.088097 0.073242 -0.057052
200 0.007593 -0.175030 0.086973 -0.023092 0.142390 0.122428 -0.032662 -0.108764 0.004069 -0.125004 0.177507 0.114320 0.105945 -0.093742 -0.077600 -0.221046 0.013592 -0.043882 0.115356 -0.100785 0.187966 0.119523 -0.127030 0.442050 -0.029611 -0.149120 -0.025767 -0.053010 0.009102 -0.056038 -0.162111 0.120708 -0.153598 0.092316 0.181578 -0.105006 0.009290 0.000142 -0.005226 -0.086621 0.128122 0.165686 -0.016517 -0.169716 -0.072387 -0.118986 -0.072705 -0.184421 -0.010257 -0.065078 0.051635 -0.003559 -0.016347 -0.171011 -0.003610 -0.275269 0.085072 -0.068841 -0.149129 0.128763 -0.113834 0.031035 -0.066830 0.060104 -0.014956 0.012964 -0.209420 -0.030856 -0.043056 -0.264021 0.020570 -0.103048 -0.280592 0.077436 0.069392 -0.149445 0.032952 0.140542 -0.181565 -0.217426 -0.073604 0.055568 -0.087630 -0.132440 0.080144 0.086949 0.036184 -0.204617 0.028067 0.064315 -0.028317 0.051675 -0.081179 -0.108671 -0.253186 -0.010351 0.020933 -0.132500 -0.094946 0.451951 0.264414 -0.153769 -0.143297 0.015527 -0.014460 -0.034852 -0.025072 -0.243241 -0.040944 0.030901 -0.035287 -0.088228 0.054896 -0.156457 0.050354 0.240127 0.194772 -0.005711 -0.122916 0.399241 -0.000126 -0.048150 -0.042000 -0.084248 -0.053725 0.097859 0.029576 0.070074
129 0.010235 0.041351 0.216395 0.128480 0.034097 0.090345 -0.046629 -0.080793 -0.081240 -0.002609 0.195266 0.017164 0.101016 -0.106362 -0.090212 -0.160793 0.106734 0.074159 0.082972 -0.014348 -0.022773 0.067216 -0.047579 0.144587 0.034224 -0.029170 0.027739 0.096491 0.166998 -0.147911 -0.123495 0.166095 -0.083082 0.070522 0.199577 0.084855 -0.012316 0.041300 0.006563 -0.018193 -0.053451 0.078160 0.034233 -0.126298 -0.042262 0.019670 -0.027673 -0.142353 -0.060104 -0.001646 0.089587 0.037595 -0.153011 -0.081974 -0.056307 -0.115690 -0.015458 0.023084 -0.155157 0.146410 -0.176316 0.031994 -0.111240 0.064888 0.111704 -0.088103 -0.080482 -0.028433 -0.033884 -0.138092 0.114851 -0.149830 -0.238250 0.148175 0.061612 -0.054933 0.033242 0.129482 -0.062505 -0.008919 0.053078 0.073629 -0.122905 -0.110619 0.200754 0.129232 0.012635 -0.219613 -0.040841 0.023448 -0.122925 0.051302 0.011085 -0.065863 -0.199044 0.010234 -0.042892 0.026139 -0.075856 0.225462 0.202793 -0.107643 -0.155916 -0.014634 0.032201 0.032711 -0.069098 -0.132333 0.117921 0.075415 0.049706 0.027059 0.119300 -0.070108 0.036840 0.125097 0.067681 0.012443 -0.222029 0.163846 -0.086755 -0.163444 -0.072038 -0.119150 -0.029550 0.100031 0.108535 -0.075713
193 0.017662 0.014863 0.200997 0.110919 0.043177 0.095431 -0.036039 -0.083196 -0.074647 -0.019758 0.183554 0.033726 0.109124 -0.105427 -0.097694 -0.162921 0.098189 0.068710 0.081141 -0.018808 0.001352 0.061270 -0.046276 0.183344 0.031658 -0.039137 0.020504 0.083322 0.154868 -0.132237 -0.132113 0.168127 -0.094414 0.067948 0.195873 0.063810 -0.024856 0.032792 0.008492 -0.033768 -0.043580 0.086469 0.030360 -0.132470 -0.047506 0.005112 -0.033692 -0.149649 -0.047356 -0.015502 0.091988 0.024156 -0.145403 -0.094828 -0.051565 -0.135767 -0.010679 0.004556 -0.153533 0.148390 -0.171674 0.030136 -0.109125 0.064491 0.093747 -0.074343 -0.108051 -0.019428 -0.034686 -0.150579 0.108084 -0.145442 -0.239039 0.136678 0.067629 -0.067446 0.041050 0.131753 -0.075617 -0.030318 0.035951 0.062153 -0.111173 -0.125526 0.194259 0.123792 0.022411 -0.215589 -0.024464 0.021636 -0.106629 0.052263 -0.002036 -0.071215 -0.209772 0.009487 -0.027547 0.005078 -0.078400 0.253906 0.202935 -0.104960 -0.153945 -0.013987 0.026596 0.023029 -0.073579 -0.136362 0.102058 0.074773 0.040472 0.007641 0.110637 -0.084771 0.044728 0.135507 0.075974 0.002442 -0.207867 0.194138 -0.080292 -0.158720 -0.070644 -0.118998 -0.038255 0.090444 0.091953 -0.059092
