40 128
84 -0.037726 0.013145 0.129898 -0.073463 0.094078 0.114561 -0.129871 0.041918 0.066100 0.157810 0.087969 0.023505 0.245156 -0.092758 -0.161732 -0.119723 -0.047036 0.158198 0.101829 0.103154 -0.143661 -0.091867 -0.006631 0.079017 -0.083783 0.209220 -0.021652 -0.134909 0.006736 -0.022503 -0.008184 0.051909 -0.075277 0.027158 0.054832 0.071112 0.082268 0.003200 -0.051836 0.028985 -0.068577 0.154972 -0.017128 -0.117856 0.006653 -0.027155 -0.192605 0.007776 0.076864 0.040927 0.072972 -0.005251 -0.011657 0.012068 -0.070325 -0.211335 -0.066145 -0.070945 -0.157210 0.108080 0.081503 -0.205324 -0.045799 0.050419 0.102039 0.050628 -0.060867 0.011915 -0.004279 0.085262 0.004361 -0.107213 -0.143696 -0.010569 0.050188 -0.050341 0.260538 0.080971 0.105405 0.014138 -0.050401 -0.056133 -0.129720 -0.086156 0.010628 0.115172 0.062280 -0.102970 0.015042 0.024730 -0.090928 0.048386 0.004721 -0.064479 -0.168408 -0.096346 -0.014055 -0.154887 -0.057756 0.325900 0.008069 -0.178880 -0.067552 -0.082793 0.032396 -0.054243 -0.107552 -0.035898 0.098740 -0.039312 -0.041276 -0.123295 -0.048750 -0.269660 0.022885 0.113139 0.027924 0.043201 -0.127378 0.266219 0.005578 0.054284 -0.105519 -0.256180 0.042714 0.057334 0.077449 -0.000258
133 -0.097753 -0.048554 0.180837 -0.067856 0.074468 0.130049 -0.152317 0.008396 0.028643 0.153187 0.094930 0.055769 0.261531 -0.115262 -0.180019 -0.207646 -0.010523 0.203546 0.157436 0.115625 -0.156582 -0.094953 -0.050301 0.101265 -0.078366 0.267518 0.041612 -0.116063 0.032278 -0.025879 0.036830 0.025637 -0.101106 0.020066 0.127994 0.135590 0.141367 0.017826 -0.042749 0.027133 -0.049164 0.150748 -0.015892 -0.130767 -0.048247 -0.025208 -0.165327 -0.040675 0.087509 0.044552 0.063235 0.007909 -0.016000 0.052163 -0.074419 -0.241597 -0.077649 -0.104303 -0.212710 0.150468 0.049886 -0.228375 -0.078069 0.042565 0.003800 0.046286 -0.127393 -0.034489 -0.097585 0.044906 0.045526 -0.100393 -0.224800 0.036256 0.025705 -0.076097 0.252669 0.031474 0.073279 0.011945 -0.103671 -0.134155 -0.167747 -0.102660 0.071891 0.161549 0.076207 -0.094295 0.000587 0.045361 -0.124769 0.093175 -0.030534 -0.073625 -0.152324 -0.111306 -0.005767 -0.172701 -0.116415 0.369790 0.010306 -0.236067 -0.051033 -0.081513 0.003177 -0.055527 -0.035329 -0.012963 0.086917 0.002974 -0.011891 -0.138597 -0.009659 -0.302308 0.070915 0.144583 0.042775 0.038511 -0.152175 0.291036 0.002064 0.045318 -0.079659 -0.279580 0.030934 0.129172 0.100550 -0.019746
3 -0.094661 -0.047685 0.184700 -0.080414 0.079353 0.130809 -0.149590 0.017302 0.030515 0.155659 0.097827 0.045394 0.266649 -0.122485 -0.181434 -0.206113 -0.009755 0.198797 0.153592 0.111957 -0.162169 -0.097425 -0.049530 0.108441 -0.074967 0.266225 0.036227 -0.114067 0.032535 -0.024121 0.033180 0.022154 -0.104105 0.031463 0.118991 0.121618 0.137697 0.011739 -0.040070 0.039762 -0.052113 0.148733 -0.019658 -0.133120 -0.039898 -0.030645 -0.171938 -0.036698 0.079260 0.055022 0.068841 0.009072 -0.017125 0.052228 -0.079654 -0.250812 -0.077154 -0.103267 -0.220654 0.150389 0.049496 -0.235347 -0.075980 0.049210 0.012303 0.038486 -0.111252 -0.023032 -0.091580 0.046520 0.053151 -0.098877 -0.216801 0.038595 0.028099 -0.079715 0.259736 0.030502 0.078816 0.004787 -0.104794 -0.119878 -0.165159 -0.109349 0.072263 0.161094 0.072840 -0.097744 -0.008087 0.041140 -0.122872 0.091962 -0.030906 -0.066739 -0.160887 -0.110506 -0.016065 -0.167190 -0.107027 0.370729 0.003207 -0.229658 -0.061507 -0.088328 0.009523 -0.048859 -0.036588 -0.012468 0.088804 -0.005544 -0.008400 -0.136976 -0.017387 -0.291667 0.069211 0.145935 0.045078 0.036001 -0.140767 0.291995 0.002447 0.038013 -0.084165 -0.282769 0.028077 0.122583 0.093328 -0.015592
198 -0.046777 -0.009367 0.135874 -0.079795 0.081931 0.114558 -0.134333 0.037170 0.059361 0.155711 0.082349 0.027814 0.245863 -0.093736 -0.160416 -0.145411 -0.037897 0.163309 0.115726 0.107130 -0.140526 -0.089561 -0.025066 0.082455 -0.082389 0.222661 -0.000331 -0.130196 0.009040 -0.020176 0.003831 0.039844 -0.079079 0.029765 0.068650 0.084401 0.094250 -0.001557 -0.047829 0.036670 -0.055979 0.144250 -0.016225 -0.119562 -0.000575 -0.031573 -0.179508 -0.009701 0.074805 0.049971 0.069792 0.001959 -0.004744 0.025601 -0.072461 -0.212896 -0.067881 -0.079529 -0.170953 0.115946 0.071494 -0.215633 -0.047811 0.046503 0.067752 0.040518 -0.073002 0.001359 -0.031111 0.072888 0.022638 -0.097480 -0.158251 0.008775 0.044286 -0.055072 0.241512 0.055493 0.089187 0.011523 -0.072677 -0.068705 -0.138712 -0.092849 0.030178 0.130267 0.063916 -0.101013 0.006310 0.026292 -0.095149 0.057019 -0.004384 -0.058488 -0.157970 -0.103640 -0.011312 -0.152486 -0.070045 0.321213 0.003057 -0.186041 -0.062130 -0.087268 0.021684 -0.046830 -0.080271 -0.028162 0.090496 -0.031062 -0.032606 -0.121623 -0.041094 -0.264186 0.036062 0.115004 0.032247 0.036520 -0.121894 0.266097 0.010070 0.045379 -0.096908 -0.253962 0.036558 0.074141 0.077561 -0.002419
80 -0.075068 -0.047390 0.160047 -0.082117 0.080688 0.127937 -0.135770 0.025368 0.035767 0.146582 0.088923 0.038538 0.259506 -0.114277 -0.168290 -0.192765 -0.022914 0.189547 0.141819 0.111047 -0.145941 -0.102673 -0.036102 0.089854 -0.071905 0.247619 0.025209 -0.115705 0.028037 -0.033424 0.037550 0.032852 -0.092085 0.020760 0.101182 0.110415 0.115926 0.004245 -0.040404 0.043786 -0.052199 0.144812 -0.025444 -0.128999 -0.026057 -0.024622 -0.166346 -0.028787 0.079566 0.056572 0.064963 0.003332 -0.013870 0.045654 -0.065245 -0.237532 -0.067241 -0.096730 -0.206816 0.127271 0.054631 -0.222069 -0.073638 0.050627 0.016142 0.036226 -0.109633 -0.021527 -0.079049 0.058940 0.046936 -0.097024 -0.199666 0.030652 0.024972 -0.076917 0.244227 0.033449 0.077314 0.006170 -0.101619 -0.103597 -0.148845 -0.104060 0.069571 0.152679 0.069019 -0.089529 -0.006308 0.033164 -0.111043 0.091461 -0.024177 -0.062830 -0.162723 -0.124607 -0.011916 -0.172140 -0.100643 0.348608 0.006126 -0.200966 -0.056304 -0.098027 0.005409 -0.046866 -0.043000 -0.011537 0.084306 -0.009226 -0.019719 -0.139914 -0.030267 -0.281189 0.066125 0.132598 0.043736 0.024874 -0.131221 0.280143 -0.002412 0.043249 -0.086614 -0.267477 0.027690 0.105619 0.083492 -0.013596
87 -0.081677 -0.036119 0.167226 -0.076886 0.075947 0.128600 -0.140965 0.016570 0.039691 0.146887 0.090251 0.048576 0.258829 -0.112695 -0.167706 -0.185438 -0.017423 0.185732 0.137349 0.109143 -0.144898 -0.098323 -0.038412 0.088807 -0.073626 0.246050 0.023252 -0.110632 0.025246 -0.028965 0.035411 0.024140 -0.088404 0.017366 0.112248 0.111268 0.126020 0.011310 -0.043215 0.034538 -0.054413 0.145698 -0.023611 -0.123462 -0.028380 -0.026350 -0.170233 -0.029576 0.084964 0.044826 0.060027 0.003304 -0.015578 0.044827 -0.071423 -0.233370 -0.066007 -0.097427 -0.196646 0.135314 0.055917 -0.214034 -0.071272 0.040819 0.022630 0.043160 -0.111476 -0.022787 -0.078963 0.060326 0.042274 -0.104875 -0.202968 0.025429 0.031655 -0.074913 0.252707 0.035618 0.078521 0.008539 -0.098278 -0.114607 -0.153293 -0.095744 0.060075 0.152266 0.067039 -0.096237 -0.002334 0.041228 -0.114797 0.081867 -0.026460 -0.070209 -0.150086 -0.109851 -0.003477 -0.167178 -0.105170 0.350042 0.009767 -0.214237 -0.056539 -0.086037 0.010194 -0.051958 -0.046133 -0.018150 0.086856 -0.011340 -0.017319 -0.136050 -0.026317 -0.285488 0.060656 0.134782 0.033887 0.030613 -0.139937 0.280989 -0.000057 0.049941 -0.085273 -0.272024 0.029106 0.106894 0.090976 -0.018649
108 -0.077675 -0.035689 0.164015 -0.087565 0.087961 0.131698 -0.143727 0.027264 0.042244 0.159219 0.096717 0.037509 0.268430 -0.120173 -0.172253 -0.190119 -0.024185 0.193221 0.145307 0.118772 -0.150805 -0.100681 -0.033785 0.096679 -0.078387 0.258184 0.021870 -0.120556 0.022554 -0.033215 0.036044 0.035948 -0.099116 0.022945 0.105560 0.116849 0.117826 0.003846 -0.042638 0.045087 -0.052936 0.153369 -0.025192 -0.134548 -0.025173 -0.028607 -0.179020 -0.026967 0.081590 0.056585 0.064810 0.003921 -0.007606 0.048920 -0.077787 -0.243061 -0.066122 -0.100032 -0.208339 0.131097 0.052513 -0.231906 -0.070582 0.051321 0.018002 0.036961 -0.101080 -0.021422 -0.078749 0.058866 0.042176 -0.095597 -0.197053 0.029628 0.026385 -0.069826 0.248579 0.032727 0.079635 0.009681 -0.101828 -0.107374 -0.153923 -0.099890 0.064074 0.156767 0.068036 -0.099885 -0.001943 0.029739 -0.110999 0.085162 -0.028237 -0.062868 -0.162241 -0.115294 -0.015579 -0.171428 -0.100395 0.358687 0.007623 -0.210392 -0.056785 -0.096501 0.005416 -0.052150 -0.047009 -0.012367 0.089023 -0.011087 -0.022751 -0.135831 -0.026508 -0.282947 0.059849 0.138149 0.035905 0.028445 -0.134834 0.288484 0.000134 0.045098 -0.089568 -0.276097 0.033156 0.109319 0.089037 -0.015847
89 -0.047781 -0.005088 0.140857 -0.087704 0.090662 0.122636 -0.132850 0.037756 0.058362 0.155173 0.090371 0.034701 0.250046 -0.107053 -0.165423 -0.159577 -0.042636 0.169204 0.117319 0.110601 -0.142664 -0.105698 -0.012606 0.078387 -0.081013 0.229147 -0.005333 -0.132514 0.011778 -0.025354 0.011096 0.042510 -0.078285 0.019063 0.069895 0.080366 0.089836 -0.001663 -0.047220 0.034581 -0.055291 0.152926 -0.022730 -0.120835 0.002248 -0.034500 -0.180397 -0.004378 0.080838 0.054574 0.069928 -0.008847 -0.012648 0.026397 -0.058986 -0.220168 -0.059100 -0.079457 -0.173188 0.111975 0.063752 -0.206311 -0.057611 0.049083 0.053874 0.041608 -0.084373 -0.002207 -0.042868 0.082310 0.018310 -0.105870 -0.160329 -0.000788 0.044110 -0.058560 0.248205 0.066432 0.098757 0.008859 -0.076371 -0.077300 -0.132213 -0.087486 0.032999 0.135051 0.064886 -0.091482 0.005784 0.026965 -0.098943 0.070712 -0.015153 -0.066405 -0.158297 -0.116714 -0.006591 -0.165692 -0.074915 0.324316 0.008933 -0.181270 -0.058906 -0.089658 0.023001 -0.044756 -0.074348 -0.028710 0.088423 -0.027004 -0.033910 -0.134161 -0.045968 -0.272589 0.038458 0.112719 0.026118 0.030461 -0.125592 0.268307 0.003453 0.058116 -0.103850 -0.256864 0.040535 0.075927 0.082073 -0.000703
31 -0.106083 -0.059491 0.195927 -0.064618 0.070842 0.129756 -0.153836 -0.007827 0.011902 0.151265 0.101387 0.068452 0.276423 -0.129739 -0.187128 -0.235948 0.000839 0.215961 0.171829 0.123100 -0.165896 -0.100834 -0.053662 0.107042 -0.070039 0.275180 0.060163 -0.102802 0.039855 -0.025864 0.050923 0.026845 -0.110870 0.020374 0.149745 0.154763 0.157625 0.018584 -0.033698 0.022718 -0.047198 0.151872 -0.016374 -0.135598 -0.062954 -0.026911 -0.153060 -0.055368 0.089855 0.048742 0.055383 0.018208 -0.019281 0.058257 -0.072873 -0.250216 -0.072589 -0.110346 -0.230005 0.154662 0.037477 -0.225607 -0.089925 0.037779 -0.033493 0.034688 -0.145778 -0.050091 -0.127960 0.029745 0.059667 -0.093938 -0.246518 0.045622 0.011909 -0.082384 0.235622 0.002410 0.054910 0.017244 -0.114709 -0.155921 -0.172312 -0.110774 0.096849 0.170281 0.072841 -0.092183 -0.009570 0.043033 -0.137234 0.109424 -0.035583 -0.072375 -0.147220 -0.107453 -0.003897 -0.174971 -0.131187 0.381283 0.000018 -0.242711 -0.054333 -0.087749 -0.011960 -0.050763 -0.006874 -0.004738 0.082053 0.020118 -0.002761 -0.140496 -0.001747 -0.306468 0.081772 0.158619 0.044229 0.036653 -0.161419 0.297801 -0.004956 0.043785 -0.071302 -0.285153 0.017671 0.145414 0.097856 -0.026775
170 -0.076112 -0.051366 0.160693 -0.090165 0.078350 0.128814 -0.141541 0.024033 0.035307 0.144858 0.091743 0.034811 0.258526 -0.121190 -0.159902 -0.196130 -0.019475 0.189293 0.147327 0.109861 -0.139709 -0.100879 -0.036205 0.090209 -0.070934 0.244074 0.034389 -0.107132 0.022388 -0.035682 0.038996 0.031099 -0.092593 0.023771 0.103346 0.112992 0.110437 -0.002586 -0.035199 0.048994 -0.051197 0.143521 -0.027203 -0.129126 -0.027659 -0.025031 -0.171195 -0.030728 0.070019 0.059193 0.055411 0.005880 -0.004420 0.051492 -0.067523 -0.233261 -0.058162 -0.097162 -0.207355 0.124357 0.047918 -0.220129 -0.073078 0.046710 0.005429 0.034536 -0.105776 -0.027703 -0.085029 0.057683 0.043031 -0.092374 -0.183003 0.035492 0.026643 -0.065923 0.232459 0.035310 0.075662 0.005233 -0.104681 -0.101951 -0.140881 -0.099920 0.072649 0.156405 0.065540 -0.091057 -0.011836 0.030996 -0.110123 0.087982 -0.030964 -0.067165 -0.162122 -0.124550 -0.020391 -0.166276 -0.099425 0.340438 0.006356 -0.197134 -0.051800 -0.103649 -0.001466 -0.043770 -0.033564 -0.008459 0.081423 -0.010009 -0.020281 -0.138895 -0.032850 -0.267061 0.068298 0.124982 0.040875 0.016824 -0.129023 0.281605 0.000696 0.039969 -0.078243 -0.268017 0.027884 0.109307 0.077196 -0.014235
181 -0.027126 -0.013418 0.119436 -0.122023 0.093558 0.115719 -0.122293 0.077120 0.079821 0.153319 0.090163 0.004036 0.248422 -0.109260 -0.144254 -0.136592 -0.074801 0.155201 0.095858 0.109027 -0.130059 -0.119095 -0.002078 0.063224 -0.083583 0.216093 -0.029247 -0.136998 0.011474 -0.039220 0.002351 0.048929 -0.065727 0.026572 0.037674 0.048088 0.046901 -0.018109 -0.050308 0.067089 -0.069633 0.155978 -0.029580 -0.124565 0.030903 -0.032527 -0.211362 0.019461 0.055618 0.072817 0.071311 -0.016214 0.004052 0.026563 -0.056810 -0.209330 -0.050209 -0.069076 -0.166978 0.077860 0.088332 -0.211244 -0.059061 0.055672 0.071167 0.028302 -0.056575 0.019680 -0.007902 0.112984 0.015614 -0.106046 -0.109803 -0.008471 0.054040 -0.058357 0.257416 0.095579 0.114812 -0.006467 -0.079587 -0.028844 -0.110080 -0.092346 0.024291 0.129040 0.054096 -0.093386 -0.009230 0.016045 -0.088567 0.062251 -0.009296 -0.058944 -0.188192 -0.138755 -0.032224 -0.158875 -0.052472 0.292425 0.014444 -0.147636 -0.065418 -0.121206 0.030027 -0.049561 -0.097214 -0.016180 0.089949 -0.057834 -0.053620 -0.141581 -0.083636 -0.243326 0.034313 0.091407 0.024615 0.013518 -0.088151 0.250566 0.001474 0.052559 -0.105794 -0.254823 0.045913 0.043240 0.059248 0.009134
35 -0.069336 -0.035295 0.150470 -0.092966 0.083431 0.126243 -0.137265 0.032075 0.044379 0.153706 0.090332 0.031984 0.251913 -0.112865 -0.160694 -0.173921 -0.032305 0.185460 0.136290 0.113966 -0.139174 -0.104132 -0.031333 0.092992 -0.075142 0.241823 0.016672 -0.117092 0.016146 -0.030192 0.025254 0.037177 -0.090276 0.026059 0.090479 0.097435 0.101050 -0.004465 -0.038978 0.046657 -0.061550 0.151379 -0.018130 -0.127805 -0.010206 -0.033489 -0.184505 -0.016660 0.068314 0.056731 0.065696 -0.002349 -0.003893 0.039789 -0.067344 -0.232847 -0.059599 -0.092719 -0.194168 0.113702 0.060351 -0.222632 -0.064767 0.048081 0.023856 0.028936 -0.091766 -0.010129 -0.057223 0.066167 0.032515 -0.091659 -0.161302 0.021925 0.031127 -0.068793 0.237527 0.052670 0.081383 0.004285 -0.097892 -0.088222 -0.139972 -0.102912 0.055093 0.151289 0.067728 -0.099008 -0.009532 0.034547 -0.105798 0.075917 -0.024893 -0.066537 -0.174662 -0.126097 -0.024508 -0.163541 -0.087121 0.345580 0.011448 -0.197542 -0.063819 -0.111765 0.017199 -0.051886 -0.061854 -0.010237 0.094334 -0.022720 -0.027739 -0.144466 -0.044953 -0.278654 0.053831 0.128922 0.038469 0.030824 -0.126654 0.286182 0.003952 0.046024 -0.090845 -0.271150 0.035847 0.095169 0.077808 -0.003183
105 -0.094218 -0.054716 0.184138 -0.071644 0.073606 0.128388 -0.149149 0.009783 0.026804 0.150672 0.096616 0.062564 0.268709 -0.118315 -0.184124 -0.215226 0.000391 0.203050 0.159076 0.121004 -0.156571 -0.097927 -0.045758 0.098704 -0.071719 0.266370 0.046733 -0.106831 0.033497 -0.025659 0.046098 0.017510 -0.102048 0.018720 0.133569 0.133584 0.142069 0.010421 -0.042590 0.030448 -0.046594 0.153925 -0.016555 -0.134133 -0.052396 -0.030582 -0.156526 -0.043780 0.091451 0.047917 0.062881 0.011793 -0.016173 0.054554 -0.071496 -0.243080 -0.074028 -0.101593 -0.219900 0.152784 0.039387 -0.226305 -0.085389 0.041268 -0.008807 0.039447 -0.134932 -0.039691 -0.112240 0.044504 0.055630 -0.101952 -0.227181 0.033125 0.023520 -0.079873 0.249407 0.026886 0.076703 0.011892 -0.109766 -0.141559 -0.164018 -0.104063 0.086406 0.162553 0.079428 -0.093062 -0.007464 0.044707 -0.129008 0.099952 -0.038543 -0.069929 -0.146575 -0.113384 -0.000843 -0.172212 -0.123357 0.367292 0.006646 -0.231909 -0.052838 -0.080171 -0.003714 -0.053124 -0.021711 -0.015471 0.078842 0.011779 -0.002450 -0.137213 -0.012537 -0.299146 0.073465 0.148697 0.044733 0.025974 -0.145883 0.292248 -0.000862 0.046975 -0.079607 -0.284988 0.029183 0.130826 0.100171 -0.023906
142 -0.054608 -0.024293 0.142173 -0.100556 0.092062 0.126653 -0.137121 0.046440 0.055261 0.159802 0.087427 0.021882 0.257373 -0.109596 -0.162764 -0.162013 -0.041335 0.174987 0.120019 0.111598 -0.140271 -0.103923 -0.023699 0.079505 -0.077563 0.230732 0.002175 -0.124778 0.013835 -0.027376 0.011712 0.043471 -0.080541 0.029621 0.073016 0.086801 0.085035 -0.007497 -0.043772 0.045225 -0.064522 0.157067 -0.021298 -0.127787 -0.001676 -0.029810 -0.195164 -0.002631 0.072683 0.061627 0.068209 -0.000225 -0.003346 0.035450 -0.069160 -0.221541 -0.063697 -0.086001 -0.181318 0.106515 0.072258 -0.215647 -0.061937 0.048017 0.044555 0.037149 -0.080646 -0.004738 -0.036082 0.076369 0.025563 -0.097331 -0.153006 0.008336 0.037628 -0.059911 0.240454 0.058581 0.088928 0.003314 -0.085119 -0.072812 -0.131877 -0.095776 0.041901 0.137702 0.062924 -0.098081 -0.005158 0.027617 -0.100744 0.068932 -0.015094 -0.060675 -0.172017 -0.119411 -0.025382 -0.160198 -0.074648 0.330956 0.003222 -0.184995 -0.062440 -0.106481 0.020337 -0.050620 -0.076263 -0.015187 0.095907 -0.034639 -0.033481 -0.139396 -0.057766 -0.269641 0.047960 0.111168 0.033759 0.025307 -0.114178 0.276257 0.004922 0.047344 -0.092183 -0.263872 0.037566 0.075250 0.073988 0.003386
178 -0.054582 -0.016345 0.145214 -0.078535 0.092734 0.121288 -0.140622 0.031076 0.052374 0.158885 0.093114 0.037347 0.259677 -0.109571 -0.167620 -0.169085 -0.030536 0.179575 0.127887 0.114768 -0.146397 -0.093775 -0.025617 0.083171 -0.072116 0.233344 0.011342 -0.121555 0.010953 -0.019829 0.022365 0.041505 -0.082909 0.025024 0.079834 0.100911 0.102273 0.003962 -0.045355 0.034661 -0.062067 0.157130 -0.014136 -0.121741 -0.009392 -0.030165 -0.176047 -0.016873 0.083526 0.057555 0.068139 0.000789 -0.006459 0.031458 -0.071930 -0.221354 -0.071104 -0.084129 -0.180624 0.118568 0.062406 -0.217287 -0.058071 0.044582 0.037035 0.038468 -0.088326 -0.019918 -0.055164 0.067900 0.025554 -0.091779 -0.166549 0.009553 0.030385 -0.064184 0.234764 0.043688 0.088400 0.015599 -0.088236 -0.088805 -0.140220 -0.093222 0.048026 0.145770 0.071297 -0.099488 -0.000501 0.023386 -0.102615 0.075448 -0.008706 -0.064955 -0.158129 -0.112631 -0.017316 -0.162797 -0.083037 0.335786 -0.001106 -0.196723 -0.060360 -0.095013 0.010337 -0.048764 -0.064634 -0.020655 0.088810 -0.018626 -0.023772 -0.134327 -0.041856 -0.275764 0.044909 0.125358 0.028312 0.029575 -0.131885 0.275445 -0.000100 0.050882 -0.090805 -0.268763 0.032866 0.089528 0.078157 -0.002541
102 0.041146 0.032397 0.068851 -0.164965 0.135404 0.111761 -0.113581 0.143230 0.139230 0.171326 0.083510 -0.056219 0.243692 -0.103068 -0.128900 -0.058150 -0.142084 0.117400 0.055922 0.096982 -0.101996 -0.132481 0.031640 0.042069 -0.103999 0.177731 -0.094857 -0.165225 -0.019524 -0.047410 -0.042530 0.086768 -0.045624 0.050464 -0.056033 -0.023070 -0.048473 -0.050767 -0.059241 0.096021 -0.092559 0.170086 -0.039199 -0.115417 0.111926 -0.041563 -0.270522 0.069149 0.028469 0.096481 0.079880 -0.039487 0.021213 -0.005921 -0.062548 -0.190922 -0.026553 -0.046368 -0.126429 0.022596 0.130744 -0.212703 -0.026833 0.073128 0.161420 0.026223 0.022330 0.069863 0.099639 0.161809 -0.022478 -0.106199 0.013061 -0.041308 0.090829 -0.024432 0.260033 0.161480 0.167997 -0.010766 -0.047286 0.085150 -0.075419 -0.079000 -0.040310 0.094507 0.037879 -0.112411 0.003961 -0.014607 -0.051860 0.023156 0.019561 -0.046839 -0.238248 -0.163054 -0.066723 -0.145587 0.018333 0.254318 0.007660 -0.074140 -0.073956 -0.164911 0.062501 -0.044440 -0.179804 -0.022834 0.115948 -0.119729 -0.096168 -0.152552 -0.160830 -0.206904 -0.007569 0.054101 0.004751 0.008277 -0.048674 0.253730 0.007312 0.049723 -0.146538 -0.252343 0.071743 -0.026832 0.028911 0.040077
14 -0.050824 -0.018537 0.142644 -0.095622 0.092746 0.120650 -0.134908 0.044176 0.056982 0.156909 0.084601 0.023662 0.246577 -0.106545 -0.158180 -0.148524 -0.040761 0.165929 0.117318 0.104038 -0.131892 -0.095233 -0.020756 0.083192 -0.079781 0.224252 0.000085 -0.120402 0.007696 -0.023726 0.011988 0.042190 -0.082491 0.031539 0.069688 0.076941 0.082160 -0.005182 -0.045877 0.046146 -0.063963 0.151227 -0.018299 -0.118495 0.002685 -0.031123 -0.187003 -0.003074 0.069571 0.060469 0.066706 -0.003449 -0.004766 0.032447 -0.069019 -0.220789 -0.064794 -0.078649 -0.178414 0.103037 0.070965 -0.217784 -0.053340 0.045084 0.050808 0.037930 -0.072926 -0.006320 -0.034698 0.072709 0.021156 -0.093536 -0.150294 0.013894 0.043698 -0.058058 0.240795 0.061360 0.093509 0.002551 -0.082831 -0.068115 -0.129523 -0.090593 0.033130 0.137059 0.060871 -0.099126 0.002817 0.025816 -0.098083 0.064408 -0.013437 -0.061230 -0.169028 -0.110079 -0.024181 -0.151812 -0.069339 0.325375 0.002353 -0.180886 -0.061443 -0.097985 0.018016 -0.046663 -0.072252 -0.015554 0.088231 -0.032864 -0.034683 -0.136447 -0.054874 -0.262572 0.046364 0.114380 0.028700 0.028594 -0.117801 0.270851 0.004965 0.041537 -0.096093 -0.262498 0.039517 0.074777 0.071146 -0.000989
129 -0.112896 -0.065376 0.194465 -0.061332 0.067840 0.127283 -0.155286 -0.006661 0.013723 0.145153 0.095538 0.067786 0.263508 -0.123523 -0.179293 -0.231993 0.012175 0.209433 0.168197 0.112945 -0.160546 -0.090043 -0.060491 0.102863 -0.064907 0.271714 0.060441 -0.102571 0.036735 -0.028716 0.057535 0.012541 -0.103436 0.020576 0.149190 0.147138 0.165622 0.022947 -0.038364 0.026292 -0.039886 0.146819 -0.021665 -0.135306 -0.066452 -0.028164 -0.143857 -0.050476 0.093747 0.047546 0.054942 0.020652 -0.019977 0.061404 -0.070220 -0.246785 -0.071576 -0.106474 -0.229168 0.157803 0.031195 -0.223453 -0.084093 0.038985 -0.019476 0.040167 -0.143360 -0.048627 -0.131681 0.031429 0.060852 -0.099272 -0.257916 0.048673 0.012679 -0.086065 0.248585 0.011999 0.061414 0.011430 -0.111869 -0.156580 -0.173996 -0.103989 0.093929 0.172602 0.074878 -0.093358 -0.012611 0.052478 -0.135012 0.105687 -0.041615 -0.073158 -0.142115 -0.107257 -0.003152 -0.174823 -0.134488 0.382942 0.007201 -0.250686 -0.050473 -0.072205 -0.007403 -0.054913 -0.006657 -0.012622 0.078184 0.020668 0.003710 -0.133855 0.002724 -0.302603 0.082091 0.156708 0.054555 0.032297 -0.159222 0.295032 0.001591 0.047995 -0.069714 -0.282108 0.024089 0.151300 0.106575 -0.032842
23 0.173282 0.152478 -0.028510 -0.245749 0.216697 0.119752 -0.095494 0.286564 0.273439 0.232397 0.083272 -0.162059 0.264830 -0.075237 -0.107225 0.127817 -0.281307 0.045295 -0.050859 0.090267 -0.062550 -0.149432 0.100749 0.032484 -0.156620 0.114213 -0.264588 -0.258805 -0.102913 -0.040816 -0.169542 0.154444 -0.013083 0.093729 -0.241727 -0.183089 -0.203173 -0.111672 -0.095566 0.159188 -0.152277 0.225087 -0.036066 -0.120542 0.283425 -0.059628 -0.431584 0.194451 -0.011357 0.120737 0.133215 -0.082464 0.070035 -0.084969 -0.085531 -0.184219 -0.033998 -0.016072 -0.041375 -0.083806 0.260295 -0.252335 0.050004 0.099906 0.409598 0.041665 0.198841 0.188119 0.354665 0.289774 -0.116881 -0.123705 0.259514 -0.132682 0.159956 0.025068 0.319957 0.325040 0.285220 -0.037044 0.037517 0.285705 -0.002422 -0.071646 -0.203174 0.033800 0.009509 -0.166163 0.030117 -0.060368 0.026746 -0.075331 0.092464 -0.029190 -0.357839 -0.191389 -0.126832 -0.119198 0.151409 0.211559 0.016973 0.024397 -0.104934 -0.225526 0.155053 -0.057213 -0.377598 -0.064855 0.166981 -0.262472 -0.192291 -0.162694 -0.303817 -0.174422 -0.106152 -0.020882 -0.033773 0.028276 0.025376 0.246138 0.032284 0.042945 -0.225809 -0.240025 0.131780 -0.187820 -0.036835 0.109814
18 0.163944 0.128540 -0.011448 -0.262871 0.222043 0.128054 -0.109432 0.286582 0.273162 0.247136 0.094037 -0.155295 0.293415 -0.091989 -0.115672 0.084431 -0.280078 0.062625 -0.035237 0.102666 -0.067742 -0.165177 0.105141 0.031637 -0.154188 0.147535 -0.247638 -0.255261 -0.085975 -0.052827 -0.151499 0.153472 -0.022168 0.095172 -0.219507 -0.168750 -0.200413 -0.110963 -0.092029 0.174406 -0.149275 0.236412 -0.048887 -0.138052 0.268835 -0.055595 -0.437172 0.183270 -0.003794 0.134365 0.131904 -0.084094 0.068182 -0.062154 -0.083606 -0.193757 -0.024836 -0.025001 -0.070001 -0.073166 0.253123 -0.268797 0.026370 0.104491 0.383990 0.034340 0.175584 0.176136 0.328829 0.292541 -0.105555 -0.129301 0.227152 -0.125145 0.169192 0.017147 0.335254 0.316097 0.287495 -0.037324 0.011705 0.278260 -0.014934 -0.078200 -0.176236 0.053243 0.019893 -0.168450 0.019991 -0.054342 0.012190 -0.062166 0.085175 -0.035985 -0.367152 -0.206890 -0.131195 -0.132148 0.138148 0.221828 0.016635 0.020827 -0.110602 -0.236356 0.147484 -0.050877 -0.365083 -0.060326 0.166069 -0.260342 -0.191464 -0.175641 -0.309723 -0.185856 -0.089544 -0.014265 -0.027467 0.008991 0.025862 0.263971 0.023550 0.042705 -0.229383 -0.261190 0.131559 -0.174851 -0.031675 0.100745
57 0.171708 0.111402 -0.022282 -0.282248 0.220398 0.127083 -0.103204 0.293998 0.271506 0.233791 0.092913 -0.169741 0.286254 -0.101477 -0.105641 0.069852 -0.289710 0.058277 -0.031303 0.099621 -0.066082 -0.178453 0.108411 0.015364 -0.153073 0.147722 -0.246582 -0.241576 -0.080141 -0.069012 -0.142524 0.157256 -0.017768 0.093287 -0.228636 -0.168127 -0.225519 -0.120745 -0.090267 0.188384 -0.141551 0.223814 -0.056566 -0.136890 0.274913 -0.054934 -0.423133 0.183474 -0.019537 0.156229 0.118608 -0.082368 0.063808 -0.058043 -0.073110 -0.186498 -0.002680 -0.009234 -0.068634 -0.088308 0.233828 -0.246497 0.013360 0.111127 0.352440 0.013382 0.171227 0.175379 0.308204 0.291689 -0.090004 -0.119183 0.238431 -0.118371 0.169984 0.013617 0.318048 0.309677 0.290381 -0.037087 0.003462 0.294339 -0.002482 -0.068122 -0.151003 0.059327 0.011072 -0.162541 0.004847 -0.063792 0.015177 -0.045368 0.068169 -0.025513 -0.367537 -0.224355 -0.137766 -0.134712 0.142099 0.194036 0.017508 0.044223 -0.110520 -0.260892 0.136739 -0.037955 -0.345553 -0.039810 0.161470 -0.254529 -0.190500 -0.177053 -0.324027 -0.157247 -0.084127 -0.022479 -0.024893 -0.013409 0.040689 0.256144 0.017466 0.045772 -0.229180 -0.255543 0.130823 -0.173790 -0.035674 0.100763
15 0.144660 0.136806 -0.014919 -0.216071 0.191735 0.108253 -0.081219 0.239598 0.237042 0.202818 0.074960 -0.140861 0.229526 -0.056257 -0.093000 0.118038 -0.250064 0.037224 -0.051301 0.069124 -0.055630 -0.124697 0.091322 0.033678 -0.147548 0.100238 -0.235556 -0.229259 -0.088189 -0.038270 -0.158704 0.138863 -0.005315 0.082599 -0.207957 -0.158381 -0.175914 -0.094069 -0.076592 0.132774 -0.139727 0.198074 -0.032224 -0.105127 0.249574 -0.045599 -0.386019 0.167991 -0.005953 0.095357 0.116080 -0.070936 0.055120 -0.075639 -0.082597 -0.170389 -0.040064 -0.020241 -0.032680 -0.058642 0.238046 -0.217154 0.047255 0.080585 0.378097 0.053093 0.178267 0.165128 0.324084 0.259536 -0.105028 -0.119972 0.223247 -0.126383 0.143724 0.020426 0.297950 0.293194 0.245824 -0.039222 0.036200 0.254284 -0.009167 -0.070455 -0.193042 0.018933 0.010405 -0.156231 0.036673 -0.045498 0.024666 -0.068048 0.093373 -0.032401 -0.320439 -0.159556 -0.107945 -0.101587 0.138767 0.206024 0.021358 0.012194 -0.102191 -0.187827 0.146304 -0.055202 -0.334746 -0.057678 0.147399 -0.239841 -0.165198 -0.144125 -0.265348 -0.169960 -0.097555 -0.007192 -0.023213 0.039693 0.006119 0.231384 0.035647 0.029744 -0.193247 -0.208483 0.110562 -0.162253 -0.028621 0.099905
165 0.113911 0.071240 0.015565 -0.225090 0.178337 0.118889 -0.100496 0.224887 0.205084 0.201602 0.088173 -0.122873 0.258158 -0.099318 -0.105842 0.021135 -0.218088 0.074590 0.000670 0.093193 -0.069539 -0.156660 0.076372 0.022260 -0.120930 0.156663 -0.179167 -0.203031 -0.058599 -0.061811 -0.094168 0.121002 -0.027820 0.067566 -0.149296 -0.112072 -0.147455 -0.092398 -0.072196 0.151091 -0.120299 0.195359 -0.052131 -0.123619 0.205806 -0.045440 -0.347773 0.134176 -0.001388 0.130921 0.105359 -0.061532 0.047185 -0.028073 -0.059813 -0.183968 -0.011429 -0.024133 -0.086254 -0.048208 0.179726 -0.223105 -0.003625 0.095439 0.255498 0.011430 0.109753 0.129262 0.210929 0.229776 -0.061908 -0.105952 0.144303 -0.078459 0.128945 0.001180 0.275204 0.236235 0.230426 -0.027676 -0.016309 0.199664 -0.024964 -0.067267 -0.100835 0.069605 0.013629 -0.136076 -0.002733 -0.045150 -0.008318 -0.018361 0.049252 -0.034130 -0.297849 -0.193620 -0.110424 -0.137285 0.088877 0.200495 0.014698 0.003717 -0.088122 -0.218369 0.098183 -0.038706 -0.266035 -0.029134 0.139229 -0.195572 -0.150610 -0.161684 -0.245805 -0.163935 -0.047057 -0.000473 -0.012353 -0.007753 0.008562 0.238716 0.006132 0.049078 -0.185633 -0.238187 0.104969 -0.105326 -0.012186 0.074256
188 0.203377 0.143598 -0.032015 -0.302120 0.248423 0.132030 -0.099923 0.330660 0.310245 0.259328 0.101843 -0.196421 0.305567 -0.099771 -0.105324 0.119283 -0.322076 0.045297 -0.049266 0.101879 -0.061781 -0.184476 0.124440 0.016728 -0.170302 0.138362 -0.287694 -0.276307 -0.104759 -0.066627 -0.167901 0.171602 -0.017692 0.104529 -0.274873 -0.208805 -0.258927 -0.131121 -0.100474 0.203425 -0.160977 0.249758 -0.052575 -0.144674 0.318689 -0.067551 -0.477441 0.215699 -0.022057 0.164180 0.141939 -0.094979 0.078711 -0.075626 -0.081071 -0.189598 -0.005670 -0.005820 -0.054423 -0.112012 0.275856 -0.274476 0.032486 0.116564 0.419342 0.022845 0.215129 0.207845 0.377636 0.325563 -0.121798 -0.130456 0.139189 -0.083808 0.131645 -0.001128 0.280793 0.237929 0.230253 -0.026622 0.022440 0.339744 0.000557 -0.067939 -0.191508 0.048460 0.009282 -0.182378 0.021292 -0.080619 0.026113 -0.075042 0.092014 -0.025003 -0.399224 -0.237876 -0.154673 -0.140509 0.168841 0.206273 0.017438 0.058161 -0.122102 -0.276488 0.164936 -0.047219 -0.407877 -0.058697 0.181432 -0.296003 -0.219469 -0.182319 -0.358652 -0.158680 -0.109813 -0.032960 -0.042600 -0.005140 0.056342 0.267897 0.020283 0.051594 -0.253057 -0.265730 0.143092 -0.211703 -0.049197 0.122068
154 0.082214 0.099328 0.036305 -0.154961 0.149711 0.099883 -0.094686 0.166037 0.168278 0.183736 0.074751 -0.079315 0.224262 -0.059863 -0.114058 0.042028 -0.168240 0.075869 -0.000074 0.075097 -0.087139 -0.104208 0.049034 0.051932 -0.121811 0.129141 -0.153761 -0.190618 -0.060090 -0.022607 -0.106593 0.096980 -0.030189 0.063498 -0.111946 -0.072541 -0.072599 -0.058434 -0.066549 0.086270 -0.107253 0.175070 -0.022101 -0.105470 0.159704 -0.043981 -0.304762 0.105552 0.027836 0.074328 0.101172 -0.040482 0.031972 -0.050352 -0.077708 -0.181557 -0.053892 -0.039069 -0.071248 0.002863 0.178406 -0.212932 0.020788 0.068082 0.275919 0.053331 0.096097 0.105213 0.200368 0.185213 -0.066711 -0.110360 0.094745 -0.079070 0.105536 -0.005274 0.267340 0.210769 0.188593 -0.021774 0.003701 0.133784 -0.052958 -0.074331 -0.125172 0.047417 0.028711 -0.132406 0.033615 -0.021532 -0.013736 -0.030684 0.063590 -0.036613 -0.249135 -0.132321 -0.075707 -0.118373 0.067127 0.241851 0.013774 -0.062549 -0.082798 -0.140230 0.103979 -0.049417 -0.243555 -0.048468 0.123302 -0.162298 -0.109228 -0.128787 -0.177244 -0.198728 -0.051311 0.032570 -0.004815 0.045879 -0.044496 0.235218 0.026416 0.033703 -0.160618 -0.223246 0.089004 -0.075021 0.005154 0.066622
20 -0.046367 -0.003104 0.136003 -0.075942 0.084970 0.110898 -0.127383 0.039028 0.054295 0.152928 0.082831 0.024476 0.245604 -0.095729 -0.161122 -0.135763 -0.038684 0.162214 0.107186 0.098778 -0.135299 -0.088800 -0.017952 0.084011 -0.077702 0.217398 -0.002738 -0.125694 0.007879 -0.021036 -0.002146 0.038427 -0.078212 0.027684 0.069182 0.082646 0.094879 -0.001577 -0.048103 0.028129 -0.063499 0.144814 -0.017170 -0.116640 0.000539 -0.029677 -0.178295 -0.003279 0.077803 0.042902 0.067357 0.000766 -0.004358 0.018716 -0.073903 -0.212686 -0.070679 -0.085076 -0.167734 0.113387 0.076744 -0.210277 -0.045426 0.045685 0.072818 0.042956 -0.064461 0.002428 -0.025858 0.074814 0.014234 -0.093480 -0.144137 0.000636 0.040787 -0.051661 0.239683 0.061840 0.094861 0.011583 -0.064244 -0.072070 -0.131296 -0.092521 0.023156 0.124564 0.058924 -0.097654 0.008346 0.028178 -0.087631 0.054875 -0.003271 -0.058062 -0.154451 -0.096075 -0.013954 -0.148759 -0.069166 0.324928 0.000566 -0.188081 -0.064168 -0.078465 0.025731 -0.048061 -0.084571 -0.025339 0.094566 -0.028375 -0.030875 -0.118267 -0.042920 -0.258947 0.030501 0.111299 0.031254 0.040626 -0.120795 0.259561 0.007125 0.045765 -0.093333 -0.251572 0.039332 0.072376 0.070320 0.001245
208 -0.025719 0.000796 0.122766 -0.105325 0.098027 0.112257 -0.125209 0.061097 0.074067 0.154935 0.087992 0.005902 0.241582 -0.103839 -0.154699 -0.128196 -0.060974 0.150877 0.100149 0.105346 -0.129837 -0.110092 -0.003591 0.072877 -0.082603 0.215333 -0.027342 -0.135356 0.009083 -0.024591 -0.004507 0.046586 -0.066978 0.030864 0.042775 0.052839 0.058135 -0.014585 -0.044133 0.056448 -0.065110 0.156426 -0.021061 -0.116934 0.026593 -0.028498 -0.200752 0.010456 0.065119 0.058502 0.071374 -0.013165 -0.000316 0.021044 -0.061198 -0.212870 -0.057278 -0.072396 -0.156984 0.090028 0.086320 -0.212028 -0.050237 0.050115 0.081337 0.033185 -0.047086 0.012555 0.000169 0.100445 0.010137 -0.100362 -0.112062 -0.009625 0.055157 -0.051636 0.247511 0.086549 0.115670 0.000284 -0.064339 -0.036421 -0.111895 -0.087724 0.013991 0.116317 0.052299 -0.096776 0.000237 0.017302 -0.078779 0.052735 -0.002715 -0.059258 -0.175249 -0.124173 -0.027417 -0.151583 -0.050437 0.305290 0.004022 -0.155535 -0.063105 -0.111149 0.034765 -0.046702 -0.099826 -0.024475 0.090990 -0.051269 -0.041890 -0.136144 -0.077861 -0.249844 0.030052 0.096001 0.019745 0.024492 -0.101844 0.257062 0.005126 0.048432 -0.105439 -0.254026 0.049240 0.051899 0.056904 0.004383
168 -0.056559 -0.007276 0.145225 -0.070106 0.079247 0.117718 -0.135991 0.022733 0.047449 0.154355 0.085761 0.042316 0.249377 -0.100042 -0.168385 -0.162098 -0.024479 0.173127 0.120593 0.110232 -0.148838 -0.089563 -0.024770 0.080296 -0.074008 0.227455 0.008002 -0.124721 0.014795 -0.019586 0.014295 0.034332 -0.082394 0.021659 0.080562 0.093961 0.105825 0.007005 -0.044121 0.029450 -0.053273 0.145016 -0.016066 -0.115492 -0.019497 -0.030174 -0.172624 -0.013117 0.086038 0.048592 0.071536 0.002376 -0.014871 0.029751 -0.065740 -0.216649 -0.072731 -0.084806 -0.176930 0.123000 0.058449 -0.210235 -0.060058 0.043043 0.054700 0.039392 -0.083904 -0.009111 -0.049458 0.069953 0.024231 -0.101158 -0.177859 0.003728 0.042825 -0.063487 0.242415 0.050511 0.092701 0.016814 -0.076130 -0.085861 -0.142888 -0.092287 0.040017 0.132076 0.070489 -0.094157 0.008470 0.034610 -0.101664 0.064171 -0.009934 -0.061120 -0.151336 -0.100750 -0.004611 -0.161766 -0.079629 0.333913 0.002286 -0.196366 -0.064061 -0.078793 0.016486 -0.050075 -0.072304 -0.024108 0.092313 -0.020916 -0.022660 -0.126620 -0.032454 -0.278486 0.044032 0.126503 0.031070 0.037268 -0.131951 0.269607 0.007109 0.046188 -0.095943 -0.264368 0.032838 0.081782 0.087013 -0.008637
143 -0.087560 -0.049940 0.176533 -0.068599 0.076760 0.128019 -0.146836 0.007257 0.028302 0.151514 0.087534 0.051711 0.261134 -0.113508 -0.175560 -0.196688 -0.008509 0.196351 0.152109 0.104958 -0.155017 -0.095459 -0.044806 0.103720 -0.074715 0.260239 0.038750 -0.106414 0.027512 -0.028136 0.035253 0.021104 -0.101663 0.027813 0.118950 0.128296 0.138310 0.016171 -0.036254 0.031254 -0.053150 0.144568 -0.023425 -0.135142 -0.043635 -0.022665 -0.165183 -0.032701 0.082088 0.046696 0.063177 0.014407 -0.017629 0.053470 -0.080334 -0.242138 -0.072904 -0.105232 -0.209832 0.142779 0.047175 -0.229367 -0.076401 0.042598 0.017719 0.036952 -0.113859 -0.023996 -0.093941 0.044613 0.051677 -0.095469 -0.215683 0.033825 0.022218 -0.074937 0.251061 0.025349 0.071267 0.009503 -0.098682 -0.122860 -0.166349 -0.102776 0.070569 0.153230 0.069579 -0.099281 -0.002473 0.045098 -0.119522 0.090370 -0.026678 -0.064310 -0.153135 -0.104398 -0.012798 -0.169992 -0.112197 0.372839 0.001975 -0.232701 -0.058047 -0.083106 0.010284 -0.056442 -0.041201 -0.011230 0.089636 -0.003000 -0.010850 -0.131503 -0.017955 -0.288519 0.062763 0.146336 0.047333 0.037709 -0.149275 0.294949 -0.000057 0.042937 -0.076150 -0.275424 0.027083 0.124201 0.095413 -0.019687
186 -0.067715 -0.025386 0.153453 -0.073815 0.083550 0.118709 -0.144618 0.024083 0.042076 0.154492 0.093660 0.036927 0.258789 -0.109653 -0.168666 -0.170923 -0.021900 0.183307 0.134079 0.111746 -0.145814 -0.096524 -0.032706 0.088107 -0.076115 0.243602 0.016410 -0.125435 0.015338 -0.024436 0.020322 0.039138 -0.093504 0.029356 0.090145 0.105843 0.113125 0.007901 -0.041397 0.032785 -0.057486 0.150596 -0.019494 -0.125164 -0.022227 -0.030713 -0.177775 -0.019849 0.085363 0.051791 0.068290 0.001349 -0.008672 0.039570 -0.069279 -0.231133 -0.070780 -0.090594 -0.188598 0.126122 0.061474 -0.224876 -0.063728 0.044252 0.044278 0.039457 -0.090972 -0.012809 -0.056742 0.058984 0.030036 -0.094004 -0.179562 0.018400 0.034855 -0.064971 0.245291 0.043113 0.086800 0.011204 -0.081384 -0.095258 -0.145571 -0.101820 0.045763 0.143353 0.071792 -0.098438 0.003623 0.035506 -0.110533 0.074631 -0.015958 -0.066428 -0.160741 -0.106005 -0.015682 -0.165240 -0.086641 0.349351 0.003635 -0.207797 -0.057755 -0.086478 0.013621 -0.054512 -0.065926 -0.017449 0.095221 -0.016466 -0.023740 -0.129256 -0.031716 -0.281318 0.051359 0.131525 0.038433 0.035202 -0.135273 0.280931 0.007834 0.042830 -0.092866 -0.269899 0.035863 0.098201 0.084660 -0.012553
233 -0.063800 -0.024476 0.155304 -0.081345 0.085269 0.122389 -0.139709 0.030384 0.047789 0.152052 0.088186 0.040577 0.254969 -0.108905 -0.165002 -0.168017 -0.026983 0.182798 0.127431 0.111655 -0.146300 -0.099340 -0.029866 0.086653 -0.074769 0.239245 0.008512 -0.127471 0.019787 -0.025113 0.019566 0.036672 -0.079811 0.025729 0.084462 0.099351 0.101080 0.000416 -0.043284 0.034873 -0.055889 0.150480 -0.018181 -0.122503 -0.014174 -0.028585 -0.182175 -0.011386 0.085584 0.054148 0.069162 0.000070 -0.006663 0.037045 -0.064697 -0.223109 -0.066604 -0.084422 -0.182456 0.118607 0.062165 -0.218880 -0.063039 0.048800 0.044675 0.044173 -0.088135 -0.007639 -0.058008 0.069015 0.027884 -0.104787 -0.178066 0.011296 0.036877 -0.063951 0.248608 0.054117 0.090901 0.007236 -0.080528 -0.090762 -0.141187 -0.095486 0.041652 0.144365 0.065317 -0.099312 0.000211 0.034676 -0.104553 0.074145 -0.020097 -0.069528 -0.161124 -0.111620 -0.008641 -0.166777 -0.089263 0.337601 0.006739 -0.200906 -0.061635 -0.088414 0.015459 -0.054570 -0.063323 -0.023354 0.086483 -0.017746 -0.025752 -0.130749 -0.034806 -0.275980 0.046078 0.124516 0.031745 0.033425 -0.134162 0.277730 -0.000874 0.051991 -0.095163 -0.266940 0.036674 0.090846 0.085222 -0.004844
37 -0.044593 -0.015619 0.133143 -0.101762 0.094350 0.123533 -0.131867 0.058935 0.072300 0.156942 0.086816 0.014373 0.253383 -0.108810 -0.154998 -0.139102 -0.060141 0.161285 0.114154 0.102584 -0.133310 -0.102718 -0.012909 0.084514 -0.082753 0.224145 -0.009793 -0.130496 0.011700 -0.030675 0.005076 0.044638 -0.080963 0.027771 0.058201 0.064434 0.070323 -0.013661 -0.044953 0.058681 -0.060226 0.153151 -0.020585 -0.124203 0.011201 -0.029423 -0.197231 0.006137 0.062328 0.059542 0.068731 -0.007030 0.003513 0.031988 -0.070342 -0.210200 -0.053833 -0.082605 -0.174755 0.098731 0.074304 -0.216958 -0.055174 0.054172 0.061925 0.033515 -0.059210 0.011181 -0.019088 0.086405 0.024698 -0.092183 -0.125224 0.009260 0.044949 -0.054599 0.236672 0.067430 0.094867 0.003987 -0.079102 -0.050476 -0.124748 -0.094458 0.031362 0.128706 0.058524 -0.095090 -0.002188 0.021625 -0.092781 0.056149 -0.013499 -0.052627 -0.175935 -0.122451 -0.028285 -0.153744 -0.065687 0.308219 0.009278 -0.166469 -0.062924 -0.111094 0.027674 -0.044058 -0.081445 -0.015167 0.088360 -0.039869 -0.037895 -0.131367 -0.061857 -0.252991 0.038123 0.103119 0.032096 0.020414 -0.105702 0.258257 0.008016 0.038709 -0.096560 -0.256364 0.043542 0.059695 0.061713 0.000562
163 -0.086343 -0.048831 0.179175 -0.077359 0.076387 0.127091 -0.149188 0.014873 0.028550 0.147425 0.091020 0.054346 0.261294 -0.120419 -0.180869 -0.206932 -0.009514 0.197754 0.147216 0.115256 -0.150463 -0.095606 -0.044111 0.096445 -0.070371 0.256431 0.032379 -0.109707 0.025656 -0.031046 0.038249 0.024699 -0.092118 0.023419 0.121038 0.122148 0.128953 0.009955 -0.040838 0.028427 -0.050970 0.147996 -0.021451 -0.133821 -0.043106 -0.025676 -0.167502 -0.036012 0.090806 0.049466 0.062606 0.005162 -0.013744 0.046441 -0.069391 -0.236593 -0.069925 -0.095422 -0.210775 0.145207 0.047642 -0.223169 -0.079583 0.044410 0.006715 0.041701 -0.123119 -0.029028 -0.099205 0.053972 0.048919 -0.105357 -0.220299 0.030901 0.028958 -0.072551 0.253435 0.036121 0.080189 0.008399 -0.099767 -0.126305 -0.158615 -0.101339 0.074748 0.162450 0.073385 -0.094184 -0.006625 0.043907 -0.123656 0.095264 -0.029729 -0.068494 -0.153483 -0.116385 -0.009895 -0.172800 -0.113754 0.370334 0.010287 -0.223758 -0.051124 -0.084432 0.000981 -0.049471 -0.039197 -0.016748 0.086001 -0.001052 -0.011481 -0.141106 -0.017191 -0.291206 0.065722 0.136006 0.041635 0.028451 -0.143063 0.284221 -0.000770 0.048580 -0.080451 -0.272804 0.033336 0.121034 0.093470 -0.020095
45 -0.057675 -0.023216 0.151592 -0.085299 0.091501 0.125256 -0.139074 0.036922 0.055094 0.156265 0.088715 0.038498 0.265508 -0.112128 -0.172190 -0.175030 -0.028205 0.186590 0.129093 0.117878 -0.149350 -0.102077 -0.026829 0.084238 -0.079147 0.245105 0.007196 -0.125620 0.017798 -0.022534 0.022811 0.039246 -0.090250 0.026972 0.089631 0.106113 0.098278 0.004222 -0.042867 0.033330 -0.059062 0.153377 -0.018923 -0.128544 -0.016921 -0.034103 -0.177863 -0.013356 0.086462 0.058137 0.070006 -0.000468 -0.012750 0.036609 -0.069447 -0.231853 -0.065105 -0.090597 -0.191018 0.125442 0.061080 -0.221927 -0.063669 0.048845 0.038591 0.044839 -0.094111 -0.013264 -0.061176 0.074377 0.033769 -0.096621 -0.175972 0.007471 0.042881 -0.059527 0.257108 0.057159 0.100714 0.014114 -0.086071 -0.094466 -0.147330 -0.091085 0.046177 0.146026 0.069823 -0.098014 0.000328 0.026914 -0.107110 0.078359 -0.020304 -0.064538 -0.164043 -0.113584 -0.010764 -0.167681 -0.085072 0.350387 -0.000325 -0.202600 -0.060971 -0.088428 0.012931 -0.052530 -0.059120 -0.017984 0.090260 -0.012534 -0.025236 -0.131622 -0.040331 -0.280083 0.050343 0.124572 0.030991 0.026799 -0.134531 0.282901 0.003723 0.046004 -0.095573 -0.273398 0.040213 0.097376 0.086612 -0.010381
187 -0.058464 -0.026235 0.143463 -0.097414 0.090483 0.127734 -0.133083 0.045735 0.057804 0.160310 0.093490 0.022332 0.255913 -0.109727 -0.156138 -0.156601 -0.043910 0.174105 0.122768 0.112943 -0.135943 -0.100850 -0.021924 0.088941 -0.080684 0.229672 0.000455 -0.124291 0.012797 -0.027829 0.017747 0.040458 -0.089265 0.025491 0.077471 0.082855 0.087020 -0.007352 -0.043653 0.052349 -0.060505 0.155601 -0.018672 -0.129514 0.001472 -0.028280 -0.189471 -0.007209 0.073937 0.059349 0.068916 0.000578 0.003459 0.034793 -0.068764 -0.220501 -0.063624 -0.090651 -0.184376 0.110361 0.072897 -0.220951 -0.058344 0.051910 0.038416 0.034286 -0.078593 -0.007853 -0.036869 0.074147 0.025128 -0.085894 -0.145072 0.018378 0.032155 -0.059122 0.228988 0.052511 0.084056 0.006082 -0.086266 -0.073091 -0.134459 -0.094323 0.042194 0.139492 0.063289 -0.096774 -0.001712 0.027952 -0.098793 0.066674 -0.016177 -0.061015 -0.172650 -0.119739 -0.023914 -0.154932 -0.080828 0.326574 0.004042 -0.184635 -0.059783 -0.105860 0.013842 -0.050135 -0.069373 -0.016212 0.090185 -0.033316 -0.032818 -0.135976 -0.055291 -0.265752 0.047756 0.112642 0.034148 0.027789 -0.117247 0.266385 0.003984 0.047357 -0.098381 -0.264772 0.036734 0.075213 0.074322 -0.000345
34 -0.083515 -0.039081 0.171135 -0.072307 0.085847 0.126777 -0.141043 0.014265 0.031082 0.154291 0.091802 0.050454 0.267716 -0.118738 -0.178876 -0.200482 -0.012420 0.198700 0.151028 0.125349 -0.155305 -0.101734 -0.029062 0.090282 -0.074475 0.249106 0.033043 -0.120684 0.023646 -0.023406 0.041318 0.036883 -0.099088 0.019533 0.115867 0.127993 0.132821 0.011336 -0.041435 0.033238 -0.058262 0.160294 -0.014589 -0.129589 -0.033827 -0.032448 -0.166860 -0.034345 0.091456 0.054528 0.066701 0.006404 -0.009223 0.048314 -0.072627 -0.244347 -0.070575 -0.097992 -0.206949 0.136417 0.050846 -0.222060 -0.078644 0.046674 0.005871 0.036700 -0.119493 -0.035475 -0.083909 0.054930 0.037093 -0.096352 -0.207457 0.027162 0.022863 -0.071061 0.237590 0.038643 0.074976 0.016031 -0.104952 -0.123632 -0.154054 -0.106014 0.070960 0.164033 0.072401 -0.094716 -0.006713 0.038403 -0.124130 0.092360 -0.026330 -0.072785 -0.161798 -0.113705 -0.009289 -0.173056 -0.110230 0.366582 0.004848 -0.217649 -0.058397 -0.097424 -0.003639 -0.053821 -0.039815 -0.017576 0.086716 -0.001478 -0.017299 -0.140169 -0.022902 -0.296300 0.062273 0.140077 0.040366 0.038061 -0.150070 0.298266 -0.001348 0.052666 -0.084715 -0.280781 0.025887 0.118544 0.095941 -0.014473
150 -0.071927 -0.041495 0.164793 -0.089189 0.082537 0.129089 -0.145164 0.022583 0.040620 0.148945 0.093324 0.037783 0.258361 -0.120007 -0.170741 -0.193800 -0.022044 0.192092 0.140958 0.117014 -0.151336 -0.105269 -0.030547 0.086415 -0.079035 0.248568 0.025188 -0.117042 0.025514 -0.028095 0.029728 0.037172 -0.086910 0.021780 0.105092 0.113004 0.110014 0.004649 -0.039588 0.036529 -0.057794 0.151283 -0.020029 -0.126469 -0.019990 -0.029655 -0.173651 -0.022115 0.079922 0.052698 0.066865 0.003389 -0.011673 0.043503 -0.067695 -0.231064 -0.063408 -0.097581 -0.199380 0.128830 0.053593 -0.219358 -0.070417 0.045058 0.012051 0.035432 -0.104137 -0.023939 -0.075801 0.062605 0.036335 -0.096001 -0.189248 0.021669 0.024620 -0.070298 0.234668 0.042471 0.073749 0.005561 -0.100431 -0.099170 -0.143540 -0.101607 0.059812 0.150576 0.065563 -0.093810 -0.006018 0.036429 -0.111172 0.085765 -0.026686 -0.065068 -0.156880 -0.118230 -0.010939 -0.165410 -0.096861 0.346740 0.006402 -0.206071 -0.056894 -0.099011 0.005836 -0.047893 -0.042029 -0.009597 0.084559 -0.009340 -0.016928 -0.135689 -0.034393 -0.284169 0.062682 0.131561 0.037566 0.027471 -0.133431 0.279867 -0.002087 0.049121 -0.081350 -0.268769 0.030968 0.105260 0.081305 -0.010254
72 -0.072117 -0.042520 0.158650 -0.085331 0.081203 0.128284 -0.142163 0.024759 0.039182 0.146856 0.089997 0.041986 0.249872 -0.116097 -0.163450 -0.180521 -0.019459 0.188813 0.134407 0.108561 -0.146360 -0.097856 -0.037298 0.082421 -0.072480 0.242704 0.025284 -0.112732 0.021201 -0.032453 0.029052 0.031426 -0.088327 0.022359 0.099296 0.105523 0.110204 0.001604 -0.042965 0.036758 -0.051209 0.152166 -0.024259 -0.129177 -0.023573 -0.031668 -0.173396 -0.023166 0.077339 0.051226 0.059599 0.007551 -0.008374 0.045302 -0.070016 -0.229318 -0.066742 -0.089050 -0.194621 0.125613 0.051679 -0.219191 -0.073270 0.047285 0.024902 0.038276 -0.102349 -0.024005 -0.075759 0.057741 0.035123 -0.096311 -0.187984 0.026258 0.032266 -0.069592 0.243356 0.041504 0.084952 0.008560 -0.095681 -0.102431 -0.151523 -0.100398 0.058263 0.155150 0.072503 -0.099092 -0.001607 0.036471 -0.113433 0.087583 -0.028262 -0.069624 -0.162437 -0.119183 -0.016255 -0.172335 -0.097433 0.352915 0.007610 -0.203686 -0.058813 -0.096107 0.009322 -0.050047 -0.054892 -0.013248 0.086712 -0.015477 -0.018723 -0.141823 -0.031386 -0.283867 0.063808 0.126710 0.041021 0.029623 -0.131359 0.279469 0.000113 0.044809 -0.084069 -0.262647 0.031770 0.106686 0.081828 -0.010250
205 -0.047371 -0.009194 0.146667 -0.081350 0.086063 0.115558 -0.139928 0.035907 0.053815 0.161681 0.093843 0.035138 0.251130 -0.106170 -0.173645 -0.161419 -0.031298 0.173524 0.117860 0.113512 -0.146982 -0.098324 -0.022873 0.078027 -0.080250 0.230208 -0.000536 -0.128917 0.016411 -0.023422 0.006187 0.038252 -0.083311 0.026219 0.078417 0.089354 0.099423 0.002024 -0.049299 0.034001 -0.055895 0.154479 -0.018011 -0.125141 -0.010195 -0.035588 -0.180562 -0.010024 0.081305 0.053106 0.073099 0.003413 -0.009698 0.030277 -0.071466 -0.219348 -0.071333 -0.078748 -0.174686 0.112342 0.066673 -0.218146 -0.055169 0.045625 0.062354 0.036210 -0.084190 -0.007659 -0.039447 0.072835 0.024718 -0.103460 -0.171035 0.006242 0.046092 -0.063428 0.248048 0.060117 0.100481 0.014423 -0.073333 -0.081324 -0.141440 -0.097671 0.037928 0.132157 0.070528 -0.100913 0.008673 0.030148 -0.104441 0.068573 -0.011741 -0.061595 -0.161340 -0.105304 -0.014780 -0.159710 -0.078292 0.340260 -0.001840 -0.196299 -0.066760 -0.090243 0.024728 -0.050914 -0.081906 -0.026858 0.097784 -0.022845 -0.024071 -0.131770 -0.047375 -0.281195 0.040107 0.119381 0.033526 0.030472 -0.125065 0.274434 0.004655 0.046137 -0.099880 -0.272508 0.034647 0.081482 0.083993 0.001480
52 -0.049641 -0.018749 0.144404 -0.108765 0.087875 0.121061 -0.131117 0.052024 0.065762 0.151605 0.090608 0.018470 0.257516 -0.110187 -0.163672 -0.159948 -0.050820 0.174877 0.114940 0.108531 -0.135786 -0.112390 -0.021845 0.076865 -0.086952 0.239041 -0.008274 -0.125268 0.017604 -0.034576 0.014013 0.042677 -0.073602 0.032882 0.068661 0.076240 0.076221 -0.009075 -0.044342 0.055073 -0.062377 0.158826 -0.029004 -0.125759 0.010706 -0.031365 -0.199024 0.002912 0.065976 0.059969 0.069492 -0.010270 -0.001596 0.030077 -0.063647 -0.223585 -0.056749 -0.087260 -0.184644 0.101472 0.076857 -0.218284 -0.064065 0.049202 0.055609 0.037291 -0.070192 0.008514 -0.035253 0.095409 0.025088 -0.104588 -0.142347 0.006582 0.047875 -0.065368 0.259261 0.073019 0.108220 -0.002147 -0.080417 -0.062285 -0.129150 -0.095624 0.039713 0.135511 0.061959 -0.095659 -0.007893 0.029745 -0.093761 0.069745 -0.016332 -0.065288 -0.177406 -0.130638 -0.024022 -0.159409 -0.075073 0.329363 0.011852 -0.174606 -0.060984 -0.106421 0.029651 -0.049879 -0.077056 -0.016331 0.088087 -0.035413 -0.037758 -0.142004 -0.059413 -0.263230 0.042177 0.111462 0.026065 0.026497 -0.113834 0.269492 0.002677 0.047168 -0.102442 -0.263899 0.044033 0.071550 0.069505 -0.001787
