40 128
133 -0.099821 -0.155950 0.133560 0.038271 0.093021 0.206814 -0.202816 0.000790 0.127821 0.041069 0.034877 0.018272 0.051346 -0.116923 -0.046564 -0.222835 -0.097892 0.127921 0.154009 -0.016994 0.129368 0.062136 -0.113382 0.129959 -0.103199 0.194357 0.061705 0.148033 -0.070683 -0.164465 0.103646 -0.014545 -0.100872 0.095980 0.148629 0.089871 -0.092327 0.115915 -0.090541 0.106440 -0.017807 0.164922 -0.048005 -0.081058 -0.108909 0.175139 -0.237569 -0.040472 -0.007564 0.079241 0.037575 -0.073345 -0.044538 0.128917 -0.100070 -0.102789 0.006697 -0.079217 -0.058655 -0.035684 -0.122066 -0.063834 -0.203844 -0.040594 -0.061901 -0.079703 -0.126871 -0.090534 -0.092465 0.012109 0.033483 -0.066547 -0.136547 0.105503 0.039357 -0.039532 0.030786 0.128909 -0.003161 -0.151445 -0.065319 0.056240 -0.105708 0.164511 0.153324 0.141264 -0.016900 -0.170429 -0.014075 0.158777 -0.085871 -0.001670 -0.012797 -0.031955 0.023269 -0.004127 -0.097563 0.041971 -0.124770 0.072367 0.258939 -0.087269 0.079564 0.001363 0.072903 -0.094915 -0.065013 -0.000665 0.159003 -0.091989 -0.097083 0.001976 -0.052818 -0.011641 0.010539 0.015555 -0.083090 -0.036558 -0.148118 0.092628 -0.080355 0.044768 0.008007 -0.070401 0.108610 0.158710 0.117858 -0.070831
84 -0.107360 -0.164004 0.142171 0.024405 0.085216 0.207796 -0.220249 -0.016723 0.113540 0.047882 0.045231 0.008952 0.057395 -0.126093 -0.037170 -0.220378 -0.080257 0.132053 0.165512 -0.022591 0.116517 0.069477 -0.125076 0.129811 -0.078972 0.176591 0.064794 0.132815 -0.076185 -0.158040 0.098793 0.005284 -0.095042 0.089508 0.152571 0.084062 -0.080485 0.120929 -0.084116 0.100425 -0.020446 0.158590 -0.047358 -0.078440 -0.112289 0.162337 -0.239291 -0.037426 -0.008533 0.085300 0.030828 -0.069747 -0.049697 0.125666 -0.095026 -0.105232 0.025993 -0.064158 -0.081047 -0.041159 -0.114835 -0.056060 -0.199876 -0.039037 -0.064152 -0.074485 -0.139534 -0.092162 -0.087769 0.006319 0.014306 -0.071565 -0.155217 0.099730 0.057009 -0.042289 0.043932 0.124791 -0.016880 -0.137896 -0.057557 0.060025 -0.108049 0.159851 0.165530 0.165120 -0.023074 -0.207527 -0.021616 0.164249 -0.102909 -0.016361 0.000714 -0.051672 0.002193 0.007071 -0.103167 0.040161 -0.127928 0.083459 0.263798 -0.102800 0.074436 -0.012077 0.071153 -0.079491 -0.079073 -0.015327 0.182257 -0.093315 -0.124908 -0.004111 -0.026339 -0.031361 0.020216 0.023388 -0.086308 -0.025686 -0.157422 0.112571 -0.079284 0.066679 -0.011740 -0.090100 0.087724 0.171258 0.125605 -0.061051
198 -0.098286 -0.165057 0.140085 0.018988 0.080334 0.208453 -0.231576 -0.021549 0.121186 0.050236 0.025387 0.005297 0.063434 -0.118019 -0.036422 -0.230258 -0.087738 0.121519 0.168175 -0.021368 0.109325 0.069750 -0.129887 0.125340 -0.081127 0.178057 0.074632 0.123985 -0.076585 -0.148561 0.095745 -0.000915 -0.087402 0.092508 0.138606 0.088010 -0.072913 0.117834 -0.088252 0.109794 -0.015462 0.140514 -0.055932 -0.070423 -0.098273 0.160414 -0.235793 -0.040854 -0.006745 0.092071 0.031679 -0.069285 -0.048454 0.134219 -0.089201 -0.100308 0.016733 -0.054120 -0.077010 -0.033767 -0.110912 -0.062786 -0.191065 -0.038081 -0.059964 -0.074421 -0.139102 -0.076811 -0.099831 0.002065 0.018399 -0.071778 -0.157063 0.105106 0.056283 -0.037500 0.045723 0.114330 -0.012673 -0.135249 -0.077253 0.077214 -0.130554 0.174462 0.184421 0.187914 -0.031818 -0.224275 -0.025749 0.150715 -0.096672 -0.023914 0.006077 -0.050667 0.011178 0.004711 -0.089520 0.028750 -0.119921 0.070107 0.248724 -0.096657 0.068708 -0.017979 0.060496 -0.068899 -0.077127 -0.018408 0.164908 -0.098087 -0.124514 0.002562 -0.017975 -0.027368 0.018833 0.023589 -0.079400 -0.018643 -0.150502 0.111208 -0.069190 0.060549 -0.010953 -0.083436 0.083389 0.162827 0.126164 -0.065721
35 -0.123301 -0.160548 0.139712 0.012843 0.070081 0.172192 -0.183411 -0.031266 0.091447 0.061371 0.069617 0.011079 0.016511 -0.122488 -0.026699 -0.239240 -0.064025 0.138287 0.143450 -0.033472 0.130888 0.062699 -0.126324 0.119670 -0.056838 0.183288 0.053396 0.106223 -0.067262 -0.140546 0.100560 0.029004 -0.088428 0.102688 0.167597 0.098246 -0.100910 0.110611 -0.035137 0.069667 -0.014550 0.170584 0.001048 -0.091216 -0.123904 0.142339 -0.215660 -0.054858 -0.035969 0.062642 0.031901 -0.055389 -0.039216 0.126262 -0.085941 -0.112731 0.055882 -0.074219 -0.104055 -0.072583 -0.096577 -0.047318 -0.170757 -0.032974 -0.069178 -0.075326 -0.104728 -0.091235 -0.034290 0.017124 0.023346 -0.029246 -0.120093 0.089504 0.089062 -0.062883 0.041087 0.099383 -0.040833 -0.102256 -0.018652 0.058397 -0.103932 0.116742 0.144398 0.187226 -0.007837 -0.222885 -0.049913 0.174031 -0.072122 -0.005987 0.006760 -0.053691 -0.040969 -0.005526 -0.119048 0.047407 -0.101926 0.088794 0.250732 -0.098701 0.052801 -0.022531 0.089990 -0.081878 -0.075033 -0.001231 0.203161 -0.077138 -0.118579 -0.015262 -0.029144 -0.031142 0.009675 0.019097 -0.076101 -0.019762 -0.112483 0.098517 -0.046132 0.047966 -0.019112 -0.104432 0.075690 0.175817 0.083849 -0.037138
142 -0.118839 -0.166177 0.140438 0.006224 0.075915 0.191966 -0.200580 -0.021026 0.088469 0.058631 0.054119 0.005946 0.048381 -0.129491 -0.029215 -0.243597 -0.060794 0.137254 0.154335 -0.022698 0.115851 0.057183 -0.129530 0.117132 -0.069148 0.189738 0.069838 0.121097 -0.077807 -0.146222 0.099992 0.024387 -0.084483 0.100712 0.153610 0.092721 -0.086811 0.109553 -0.047228 0.072689 -0.016743 0.161692 -0.025070 -0.090768 -0.128725 0.155331 -0.225304 -0.039455 -0.023710 0.079491 0.025821 -0.056002 -0.042363 0.128164 -0.094232 -0.108616 0.042206 -0.073601 -0.095834 -0.063450 -0.098791 -0.050370 -0.189392 -0.046017 -0.075794 -0.076835 -0.122617 -0.100172 -0.062189 0.018124 0.019876 -0.053773 -0.140756 0.088142 0.074080 -0.056526 0.050306 0.110259 -0.034101 -0.126351 -0.036435 0.056299 -0.096430 0.147818 0.170677 0.191291 -0.019338 -0.234983 -0.045137 0.178527 -0.092198 -0.008136 0.001064 -0.040576 -0.021889 0.000296 -0.118048 0.048349 -0.114594 0.088474 0.241222 -0.106153 0.072616 -0.018020 0.084026 -0.074890 -0.064948 -0.001307 0.194020 -0.088441 -0.127278 -0.009584 -0.039886 -0.034051 0.023458 0.010542 -0.080584 -0.030857 -0.129051 0.110104 -0.063103 0.057241 -0.010924 -0.107418 0.079733 0.170288 0.095769 -0.043721
31 -0.125481 -0.167643 0.152241 0.006391 0.070678 0.172208 -0.199844 -0.036793 0.089013 0.068365 0.076197 0.005359 0.027885 -0.134794 -0.022880 -0.257010 -0.068187 0.142520 0.153219 -0.040808 0.126030 0.063657 -0.135275 0.117037 -0.053259 0.187439 0.062678 0.104262 -0.077325 -0.142671 0.103835 0.038203 -0.090604 0.105471 0.166466 0.106313 -0.098811 0.117257 -0.026755 0.065518 -0.009182 0.170710 -0.002777 -0.097340 -0.133300 0.150786 -0.223926 -0.057931 -0.037540 0.078268 0.024917 -0.046054 -0.036406 0.134961 -0.093863 -0.115144 0.062704 -0.068975 -0.122613 -0.087717 -0.090817 -0.049914 -0.182593 -0.037562 -0.075345 -0.076906 -0.111978 -0.102939 -0.039161 0.015578 0.014441 -0.029139 -0.137599 0.098123 0.108746 -0.059046 0.053423 0.097275 -0.042444 -0.098413 -0.008906 0.070531 -0.115304 0.124237 0.159077 0.212578 -0.016350 -0.254574 -0.053316 0.184011 -0.089783 -0.004216 0.023347 -0.063947 -0.054059 0.000159 -0.130275 0.044098 -0.106859 0.092890 0.248154 -0.103605 0.060139 -0.031744 0.089584 -0.074066 -0.080525 -0.007254 0.216513 -0.086098 -0.147835 -0.014268 -0.020346 -0.042901 0.011512 0.017181 -0.086724 -0.015022 -0.124600 0.111182 -0.048882 0.059397 -0.029201 -0.123056 0.070340 0.188347 0.083430 -0.034890
3 -0.115051 -0.157946 0.145373 0.018624 0.080902 0.182311 -0.191794 -0.022967 0.101933 0.049591 0.056598 0.004815 0.025170 -0.126177 -0.031162 -0.233364 -0.074321 0.129882 0.150124 -0.037127 0.123732 0.070387 -0.126425 0.127252 -0.062828 0.178708 0.054647 0.119286 -0.065172 -0.141648 0.100210 0.011304 -0.091831 0.104025 0.156588 0.087505 -0.093742 0.116367 -0.053790 0.088527 -0.010067 0.160066 -0.018680 -0.082060 -0.117478 0.152288 -0.219202 -0.051172 -0.027611 0.079941 0.037107 -0.059873 -0.044858 0.131472 -0.093929 -0.108568 0.040520 -0.065666 -0.095423 -0.057960 -0.108548 -0.047752 -0.184681 -0.030255 -0.063430 -0.075781 -0.106980 -0.085599 -0.054511 0.010013 0.026895 -0.043772 -0.139014 0.100809 0.079530 -0.054026 0.045347 0.107376 -0.023981 -0.120982 -0.038090 0.074347 -0.121622 0.148108 0.167357 0.196980 -0.020369 -0.230529 -0.041057 0.166136 -0.085152 -0.005389 0.006408 -0.051047 -0.023294 0.003637 -0.119105 0.047204 -0.112925 0.087298 0.257070 -0.095873 0.058207 -0.019231 0.086725 -0.077621 -0.080635 -0.012073 0.199281 -0.094000 -0.121411 -0.005289 -0.031487 -0.025262 0.010484 0.019147 -0.088708 -0.025632 -0.129944 0.108041 -0.061688 0.051943 -0.017072 -0.101679 0.084190 0.178681 0.105692 -0.046653
207 -0.091903 -0.158238 0.132398 0.035127 0.091003 0.209365 -0.198036 -0.007010 0.124811 0.037439 0.029136 0.023780 0.059463 -0.110020 -0.042618 -0.197045 -0.086726 0.121988 0.151939 -0.017631 0.127554 0.062626 -0.110985 0.140771 -0.096519 0.174569 0.054708 0.144547 -0.068555 -0.157835 0.093178 -0.020226 -0.095609 0.089098 0.146043 0.067831 -0.077018 0.107274 -0.099285 0.106500 -0.018686 0.155794 -0.055841 -0.075509 -0.091499 0.161258 -0.231754 -0.027742 0.000172 0.080727 0.032517 -0.075429 -0.050275 0.113365 -0.091969 -0.099784 0.008659 -0.079141 -0.054090 -0.026286 -0.126328 -0.064663 -0.199443 -0.046872 -0.057316 -0.078159 -0.131780 -0.081221 -0.097473 0.011162 0.033390 -0.082504 -0.132496 0.095221 0.030745 -0.039591 0.030451 0.128828 0.002014 -0.160044 -0.082837 0.050380 -0.109121 0.177441 0.167224 0.138451 -0.025380 -0.185910 0.001376 0.141149 -0.083940 -0.005739 -0.012988 -0.028544 0.037421 0.005269 -0.087212 0.043589 -0.133060 0.079587 0.250219 -0.091600 0.074867 0.009228 0.066404 -0.092491 -0.067665 0.001002 0.154397 -0.088315 -0.093532 0.000682 -0.056657 -0.006263 0.019201 0.022426 -0.090132 -0.041456 -0.157191 0.103946 -0.085987 0.045067 0.002722 -0.073583 0.100751 0.155885 0.127211 -0.069998
105 -0.081126 -0.151639 0.132235 0.047315 0.103041 0.223118 -0.197869 0.012816 0.133434 0.026190 0.019820 0.032312 0.073375 -0.109908 -0.059373 -0.195053 -0.099803 0.122754 0.160733 -0.006951 0.134470 0.058731 -0.100423 0.150919 -0.123695 0.191992 0.064594 0.176150 -0.078464 -0.173631 0.105844 -0.042121 -0.111543 0.089555 0.142584 0.072145 -0.084233 0.100189 -0.111541 0.117213 -0.022670 0.158485 -0.069847 -0.076889 -0.098820 0.178315 -0.236528 -0.032806 0.006246 0.079717 0.034152 -0.076421 -0.050804 0.114149 -0.102061 -0.104303 -0.016220 -0.081073 -0.041484 -0.011395 -0.140513 -0.078022 -0.213259 -0.049827 -0.053178 -0.081803 -0.128195 -0.084139 -0.124258 0.011005 0.046845 -0.088065 -0.131485 0.102773 0.004684 -0.030679 0.029922 0.134983 0.025040 -0.172584 -0.095243 0.049848 -0.111526 0.203807 0.181806 0.130537 -0.021119 -0.174340 0.009050 0.136580 -0.086329 0.006440 -0.032661 -0.010181 0.060953 -0.000356 -0.079650 0.046787 -0.132779 0.072543 0.247709 -0.073136 0.083821 0.023650 0.061091 -0.099894 -0.044768 0.004724 0.124045 -0.082964 -0.069501 0.009877 -0.070829 0.006242 0.006436 0.024360 -0.086069 -0.054789 -0.161470 0.094679 -0.100488 0.035191 0.025321 -0.049336 0.119580 0.144790 0.124228 -0.087337
61 -0.144974 -0.177675 0.148368 -0.013428 0.059591 0.130890 -0.166117 -0.049559 0.097124 0.085213 0.103649 -0.009794 -0.020922 -0.124644 -0.009450 -0.262226 -0.058377 0.160414 0.137061 -0.070734 0.142331 0.078319 -0.138429 0.095784 -0.016180 0.172946 0.040068 0.070593 -0.076478 -0.140061 0.122119 0.044973 -0.090385 0.100359 0.184316 0.119197 -0.115304 0.110286 0.011591 0.059382 0.013122 0.182256 0.051391 -0.114709 -0.141999 0.142991 -0.211093 -0.065347 -0.051054 0.077280 0.033061 -0.018564 -0.004098 0.146518 -0.106908 -0.099373 0.099765 -0.065614 -0.161111 -0.133765 -0.091147 -0.046508 -0.157926 -0.017356 -0.070258 -0.070112 -0.071055 -0.112299 0.027436 0.026055 0.006360 0.028036 -0.125097 0.103747 0.166459 -0.054349 0.052898 0.066295 -0.067413 -0.054044 0.049662 0.090759 -0.136412 0.092252 0.134552 0.238317 0.011403 -0.277409 -0.067955 0.201543 -0.066707 0.004707 0.056137 -0.095648 -0.095897 -0.000300 -0.151102 0.043125 -0.101178 0.096156 0.265855 -0.093663 0.039567 -0.044046 0.111523 -0.086783 -0.114181 -0.023140 0.262194 -0.087489 -0.177252 -0.007417 0.010989 -0.045394 -0.016977 0.012094 -0.093025 -0.013213 -0.096833 0.116579 -0.017121 0.084252 -0.053450 -0.140990 0.058017 0.207845 0.066431 -0.000357
170 -0.112158 -0.165860 0.140454 0.013134 0.076876 0.182192 -0.197208 -0.030388 0.113604 0.057720 0.059425 0.002569 0.028446 -0.123255 -0.024910 -0.240586 -0.080294 0.143407 0.158849 -0.043657 0.136693 0.075210 -0.127981 0.120987 -0.063236 0.179118 0.059002 0.112799 -0.081135 -0.154789 0.115097 0.009944 -0.091050 0.096296 0.157744 0.102041 -0.097882 0.114638 -0.048534 0.096694 -0.003167 0.163249 -0.018790 -0.092550 -0.118225 0.162648 -0.231697 -0.050840 -0.025674 0.083292 0.032010 -0.051661 -0.027981 0.139659 -0.096355 -0.105467 0.048335 -0.068658 -0.105441 -0.076240 -0.110583 -0.059551 -0.179863 -0.031756 -0.059851 -0.070657 -0.103417 -0.095610 -0.054488 0.016394 0.016338 -0.033265 -0.140505 0.110536 0.089322 -0.042091 0.038823 0.099196 -0.032328 -0.111276 -0.025295 0.076417 -0.120576 0.138753 0.153493 0.192241 -0.011866 -0.221025 -0.036583 0.169557 -0.074794 -0.006895 0.019205 -0.066438 -0.027042 -0.004769 -0.119496 0.037434 -0.116598 0.084912 0.265499 -0.089810 0.061476 -0.021061 0.083510 -0.083368 -0.086394 -0.017407 0.202381 -0.093106 -0.137823 -0.000322 -0.016637 -0.022164 0.001901 0.013204 -0.088749 -0.028836 -0.136312 0.112616 -0.051108 0.062992 -0.018454 -0.106009 0.080979 0.183923 0.100956 -0.043761
168 -0.106950 -0.158988 0.137159 0.013018 0.072561 0.191009 -0.211745 -0.029784 0.101145 0.057346 0.044229 0.007001 0.050775 -0.122675 -0.030064 -0.235115 -0.067230 0.131568 0.156182 -0.027808 0.110284 0.067085 -0.127203 0.113066 -0.060049 0.174890 0.068303 0.113527 -0.081704 -0.142067 0.098857 0.011422 -0.084769 0.089458 0.142716 0.087253 -0.081006 0.114847 -0.057726 0.087745 -0.014378 0.145597 -0.033496 -0.075026 -0.115496 0.149059 -0.227116 -0.038829 -0.012842 0.087246 0.031560 -0.058862 -0.045123 0.129041 -0.085967 -0.102274 0.032937 -0.066680 -0.093906 -0.054104 -0.104292 -0.054152 -0.187890 -0.041238 -0.065782 -0.076834 -0.125608 -0.092515 -0.074663 0.013228 0.011518 -0.056970 -0.150768 0.091256 0.079493 -0.050497 0.043796 0.108900 -0.022301 -0.117115 -0.050076 0.071239 -0.115616 0.150963 0.170212 0.191595 -0.017671 -0.230646 -0.033764 0.172671 -0.093958 -0.018822 0.013387 -0.054171 -0.015087 0.001046 -0.104362 0.033211 -0.111965 0.080312 0.241498 -0.100376 0.065194 -0.019232 0.072853 -0.070291 -0.077523 -0.010018 0.188841 -0.092344 -0.128042 -0.007033 -0.018902 -0.034471 0.020053 0.020765 -0.080619 -0.019271 -0.134158 0.106190 -0.059334 0.059325 -0.017971 -0.100058 0.073519 0.166435 0.109842 -0.048356
150 -0.124431 -0.170175 0.154125 0.002880 0.075015 0.187379 -0.206171 -0.032255 0.085112 0.060092 0.070526 0.003943 0.028018 -0.141304 -0.028918 -0.259453 -0.055923 0.142179 0.152639 -0.029170 0.117936 0.056013 -0.128499 0.120489 -0.068503 0.196408 0.064473 0.106316 -0.071915 -0.141238 0.096044 0.042017 -0.083607 0.108293 0.167135 0.101757 -0.101626 0.118655 -0.032704 0.062303 -0.019386 0.172012 -0.008812 -0.091255 -0.130926 0.149666 -0.225953 -0.049442 -0.036035 0.067789 0.032630 -0.059807 -0.049863 0.132186 -0.091603 -0.121088 0.058376 -0.082083 -0.110965 -0.072921 -0.101057 -0.050057 -0.184171 -0.041748 -0.079458 -0.079399 -0.115596 -0.103705 -0.047865 0.019424 0.017910 -0.039621 -0.139522 0.088543 0.088385 -0.067822 0.046259 0.112080 -0.048074 -0.120088 -0.025776 0.065787 -0.100464 0.128804 0.158574 0.208538 -0.021406 -0.254459 -0.052188 0.189367 -0.085990 -0.008938 0.001198 -0.047511 -0.038041 0.001279 -0.125067 0.051855 -0.109712 0.099230 0.257799 -0.117810 0.067513 -0.022735 0.092852 -0.075986 -0.067870 0.001519 0.211091 -0.082714 -0.130201 -0.012544 -0.036097 -0.043357 0.023002 0.019907 -0.083682 -0.019364 -0.124967 0.108398 -0.058673 0.052998 -0.017298 -0.119867 0.080424 0.191239 0.084154 -0.042616
79 -0.114932 -0.163774 0.144586 0.002312 0.076285 0.194689 -0.212051 -0.021019 0.078572 0.059302 0.053642 0.004138 0.058432 -0.141052 -0.034785 -0.243640 -0.051284 0.130238 0.161170 -0.017303 0.107381 0.050481 -0.127516 0.120988 -0.075629 0.190618 0.079166 0.120628 -0.079676 -0.143740 0.090157 0.033250 -0.084048 0.095870 0.146531 0.086926 -0.076546 0.117399 -0.053226 0.066951 -0.020324 0.155360 -0.035556 -0.081683 -0.128347 0.150240 -0.226075 -0.037692 -0.024168 0.073308 0.020752 -0.069956 -0.054939 0.125055 -0.091012 -0.120431 0.041658 -0.072304 -0.094776 -0.054337 -0.100288 -0.053956 -0.190950 -0.051119 -0.080395 -0.080740 -0.134790 -0.100231 -0.073053 0.012665 0.013782 -0.061665 -0.143778 0.084437 0.068382 -0.058194 0.051480 0.118822 -0.035243 -0.132957 -0.047053 0.056163 -0.089240 0.146442 0.171991 0.194742 -0.024633 -0.248411 -0.039752 0.178746 -0.095090 -0.014897 -0.008005 -0.037179 -0.020658 0.003811 -0.108394 0.046859 -0.112395 0.090503 0.235972 -0.116165 0.077192 -0.017038 0.079741 -0.063342 -0.059552 -0.000180 0.185276 -0.082143 -0.127514 -0.010249 -0.032560 -0.040328 0.036082 0.018889 -0.081931 -0.017843 -0.137514 0.109728 -0.067444 0.050712 -0.015646 -0.110406 0.072912 0.172401 0.094100 -0.052301
174 -0.102490 -0.153470 0.139928 0.024018 0.076703 0.202908 -0.208380 -0.021238 0.108698 0.043021 0.045278 0.014388 0.054490 -0.123031 -0.035443 -0.226061 -0.074683 0.127609 0.158650 -0.023094 0.116756 0.062513 -0.122516 0.127959 -0.076038 0.183632 0.067518 0.135039 -0.084445 -0.150564 0.095346 0.003429 -0.092342 0.093025 0.149071 0.084557 -0.082557 0.105728 -0.069579 0.090612 -0.017454 0.146613 -0.037822 -0.076991 -0.115595 0.154236 -0.229971 -0.038541 -0.008861 0.083468 0.032923 -0.063270 -0.045866 0.123960 -0.093750 -0.108326 0.024521 -0.065605 -0.077689 -0.045728 -0.113812 -0.057351 -0.193945 -0.040319 -0.067941 -0.080061 -0.129573 -0.095060 -0.090540 0.009981 0.014612 -0.070058 -0.145329 0.094318 0.058201 -0.048731 0.045839 0.123497 -0.017242 -0.135028 -0.062231 0.065791 -0.112217 0.167399 0.183665 0.182521 -0.025177 -0.227754 -0.025264 0.164622 -0.096174 -0.008488 -0.003101 -0.040824 0.006307 0.002253 -0.104412 0.043971 -0.120908 0.084056 0.257872 -0.093209 0.070369 -0.013186 0.077360 -0.072696 -0.067040 -0.010349 0.176767 -0.088123 -0.122948 0.000176 -0.028712 -0.031092 0.021011 0.015092 -0.087202 -0.032366 -0.150667 0.105424 -0.070995 0.055131 -0.005198 -0.084727 0.086335 0.162795 0.112979 -0.052041
87 -0.101932 -0.150884 0.135087 0.032625 0.082880 0.197756 -0.191893 -0.010537 0.115995 0.038768 0.042157 0.018010 0.047444 -0.116096 -0.034790 -0.210739 -0.085143 0.121435 0.146392 -0.022702 0.126420 0.057517 -0.114728 0.124115 -0.084883 0.182881 0.050909 0.133083 -0.067859 -0.151480 0.099537 -0.005665 -0.094157 0.092647 0.151896 0.081337 -0.086940 0.109538 -0.078690 0.096884 -0.020278 0.154851 -0.041026 -0.075551 -0.103415 0.155949 -0.224403 -0.045000 -0.009786 0.071058 0.031337 -0.067529 -0.047978 0.124183 -0.094718 -0.105785 0.024058 -0.079366 -0.067007 -0.037769 -0.108882 -0.053499 -0.192595 -0.041029 -0.057436 -0.074730 -0.124491 -0.088252 -0.079271 0.012991 0.034957 -0.066916 -0.129679 0.096477 0.051678 -0.052195 0.039675 0.116093 -0.010337 -0.137098 -0.062185 0.055402 -0.108603 0.161315 0.158080 0.160109 -0.023459 -0.196518 -0.022059 0.160286 -0.086682 -0.006339 -0.010125 -0.035700 0.013867 -0.000198 -0.095447 0.043530 -0.122222 0.074875 0.252159 -0.091579 0.072610 -0.005357 0.075750 -0.086786 -0.063300 -0.004399 0.169654 -0.090961 -0.100354 -0.004282 -0.051708 -0.014109 0.014573 0.019303 -0.085105 -0.036556 -0.138242 0.095342 -0.076016 0.047797 -0.002204 -0.080374 0.094060 0.159265 0.113269 -0.065185
108 -0.110113 -0.151858 0.137078 0.018149 0.082931 0.192468 -0.197315 -0.015778 0.099164 0.051047 0.053792 0.008623 0.042855 -0.130040 -0.034326 -0.236500 -0.073353 0.127459 0.149758 -0.022989 0.123112 0.062165 -0.117901 0.126283 -0.076371 0.185108 0.057936 0.120958 -0.073154 -0.152579 0.101276 0.015247 -0.092378 0.096615 0.151007 0.090555 -0.089844 0.111377 -0.057288 0.085129 -0.013488 0.157300 -0.035547 -0.084569 -0.119805 0.157116 -0.225670 -0.046806 -0.020961 0.076088 0.028925 -0.066163 -0.045355 0.128416 -0.094485 -0.114903 0.034939 -0.078659 -0.089198 -0.055845 -0.113051 -0.055530 -0.190273 -0.037042 -0.070979 -0.080100 -0.117433 -0.095442 -0.074451 0.013585 0.026292 -0.055025 -0.138458 0.096387 0.061603 -0.051933 0.040166 0.113546 -0.024534 -0.131048 -0.043041 0.049804 -0.090538 0.128685 0.142467 0.158830 -0.020570 -0.191572 -0.031567 0.166719 -0.086358 -0.005466 -0.006784 -0.037134 -0.010350 0.002080 -0.112334 0.044989 -0.116689 0.088202 0.256008 -0.098462 0.076007 -0.009011 0.076853 -0.082247 -0.064700 -0.001875 0.184672 -0.085837 -0.117527 -0.005067 -0.037294 -0.026387 0.016112 0.019949 -0.083959 -0.028775 -0.133629 0.102138 -0.067414 0.046091 -0.007436 -0.092642 0.090490 0.175614 0.104286 -0.060540
129 -0.104386 -0.162073 0.143855 0.025541 0.084940 0.204537 -0.217155 -0.014564 0.112605 0.045045 0.038656 0.012111 0.060847 -0.126204 -0.033368 -0.226591 -0.078824 0.123111 0.164169 -0.021576 0.118827 0.064722 -0.127079 0.130218 -0.084931 0.183098 0.069618 0.134365 -0.077389 -0.156005 0.098261 -0.002167 -0.090832 0.095321 0.143184 0.077686 -0.073582 0.115778 -0.083917 0.102033 -0.016658 0.153104 -0.053757 -0.075682 -0.106439 0.156197 -0.231178 -0.035401 -0.010733 0.084548 0.028587 -0.068173 -0.050414 0.123489 -0.087696 -0.107225 0.021790 -0.068019 -0.076913 -0.038490 -0.113017 -0.058981 -0.191906 -0.045200 -0.061771 -0.078836 -0.134147 -0.091412 -0.096996 0.006261 0.020219 -0.075652 -0.149283 0.101609 0.043073 -0.048629 0.037703 0.128574 -0.010883 -0.146807 -0.065547 0.055887 -0.097349 0.156008 0.156910 0.155803 -0.030592 -0.193901 -0.025376 0.160394 -0.094953 -0.014085 -0.009890 -0.039178 0.007304 0.002438 -0.101199 0.044000 -0.125085 0.082181 0.255446 -0.103801 0.079658 -0.004403 0.069746 -0.080097 -0.063642 -0.008989 0.167935 -0.092335 -0.112875 -0.000779 -0.041432 -0.019334 0.023337 0.024140 -0.079717 -0.028014 -0.150407 0.105747 -0.077376 0.053108 -0.003886 -0.086296 0.096251 0.173053 0.121950 -0.069494
14 -0.104041 -0.158170 0.140730 0.022951 0.089991 0.196528 -0.192995 -0.009113 0.111505 0.047835 0.040019 0.015904 0.043571 -0.119089 -0.041590 -0.218812 -0.081288 0.128988 0.151475 -0.026076 0.130651 0.063456 -0.110591 0.131802 -0.092116 0.189210 0.061808 0.139287 -0.077519 -0.154335 0.107009 -0.005102 -0.101011 0.098846 0.151140 0.086049 -0.092633 0.107875 -0.072165 0.093434 -0.019120 0.160009 -0.034213 -0.083947 -0.110440 0.164858 -0.225038 -0.038217 -0.015018 0.079380 0.031770 -0.062939 -0.043045 0.126305 -0.098126 -0.106505 0.018771 -0.072215 -0.076247 -0.049546 -0.116601 -0.067142 -0.185988 -0.042630 -0.063741 -0.075673 -0.108169 -0.092431 -0.078346 0.011797 0.028497 -0.050719 -0.131709 0.104574 0.055534 -0.038807 0.037597 0.112929 -0.010081 -0.139317 -0.052822 0.062106 -0.107419 0.166158 0.157630 0.167435 -0.018273 -0.202340 -0.017388 0.155979 -0.081497 -0.000099 -0.007468 -0.033586 0.007187 0.002738 -0.105635 0.047940 -0.113659 0.079555 0.242703 -0.084806 0.070527 0.002098 0.072802 -0.087136 -0.059015 0.004235 0.159959 -0.085137 -0.106954 -0.001858 -0.049183 -0.011014 0.009742 0.017356 -0.087176 -0.037057 -0.139938 0.099355 -0.074134 0.045187 0.002264 -0.081192 0.097936 0.158812 0.098959 -0.061808
88 -0.143381 -0.163447 0.145654 0.006634 0.064612 0.130022 -0.154021 -0.036087 0.089860 0.074868 0.111086 0.006471 -0.042803 -0.113611 -0.002986 -0.254533 -0.069255 0.147156 0.123475 -0.064494 0.152954 0.078231 -0.138406 0.101951 -0.030969 0.181675 0.023781 0.067836 -0.052463 -0.128731 0.118317 0.057086 -0.077827 0.116887 0.190699 0.123756 -0.131821 0.118186 0.013331 0.056917 0.009869 0.202393 0.055235 -0.115680 -0.144411 0.144592 -0.188375 -0.083467 -0.061326 0.059801 0.035760 -0.022965 -0.013973 0.149307 -0.098836 -0.110714 0.095674 -0.073209 -0.147297 -0.122111 -0.086646 -0.031134 -0.158612 -0.006888 -0.067366 -0.070415 -0.063039 -0.098369 0.037293 0.026257 0.038868 0.034023 -0.110992 0.101910 0.153260 -0.070885 0.043710 0.072032 -0.076083 -0.064520 0.049840 0.084661 -0.134361 0.083610 0.131231 0.231873 0.002012 -0.259971 -0.078077 0.193557 -0.049659 0.011100 0.036860 -0.075752 -0.095928 -0.009433 -0.156753 0.051191 -0.096232 0.101590 0.277576 -0.095920 0.032059 -0.036528 0.115225 -0.093652 -0.104876 -0.020021 0.259649 -0.082538 -0.146584 -0.009677 -0.020230 -0.034923 -0.018331 0.002774 -0.079759 -0.018245 -0.084198 0.093329 -0.007529 0.051373 -0.043729 -0.133809 0.072060 0.203923 0.062357 -0.015455
188 -0.130876 -0.173905 0.153906 -0.010123 0.068230 0.147292 -0.174142 -0.045266 0.103148 0.081499 0.098581 -0.011929 0.001108 -0.126894 -0.009437 -0.249597 -0.066188 0.150816 0.150717 -0.062543 0.137824 0.078251 -0.133323 0.104622 -0.031259 0.178044 0.045409 0.079199 -0.084512 -0.140972 0.121506 0.035077 -0.093323 0.098622 0.170709 0.108025 -0.114449 0.112224 -0.008272 0.073641 0.009085 0.177731 0.034311 -0.111523 -0.129161 0.138457 -0.215077 -0.058349 -0.042234 0.085752 0.034509 -0.023616 -0.011585 0.143211 -0.099727 -0.096849 0.091526 -0.055939 -0.143343 -0.117071 -0.088025 -0.050703 -0.164998 -0.025365 -0.064693 -0.068889 -0.074256 -0.101308 0.004884 0.020138 0.003042 0.007914 -0.131775 0.104368 0.150823 -0.052141 0.055569 0.073406 -0.049447 -0.065628 0.027470 0.093315 -0.137228 0.114225 0.150729 0.232727 0.001651 -0.269842 -0.056751 0.181300 -0.073356 -0.004568 0.049532 -0.085486 -0.077596 -0.005704 -0.146506 0.038751 -0.102867 0.096949 0.258995 -0.091378 0.037727 -0.043243 0.105563 -0.076732 -0.110830 -0.024310 0.244742 -0.092850 -0.171052 -0.003869 0.003470 -0.039553 -0.010984 0.015794 -0.094073 -0.020001 -0.103158 0.120918 -0.030328 0.084628 -0.046972 -0.135090 0.057737 0.196300 0.076353 -0.007714
176 -0.100195 -0.150221 0.129829 0.019227 0.072593 0.188454 -0.194579 -0.019116 0.096986 0.044077 0.042290 0.010438 0.038241 -0.116052 -0.030952 -0.220058 -0.068264 0.121982 0.141538 -0.023405 0.109767 0.062005 -0.115345 0.119538 -0.067330 0.174523 0.056908 0.113666 -0.072755 -0.135654 0.094350 0.006317 -0.085578 0.098160 0.144939 0.079350 -0.089779 0.110094 -0.062073 0.085080 -0.019525 0.147552 -0.037207 -0.078565 -0.109629 0.148724 -0.219523 -0.039325 -0.018931 0.073256 0.031599 -0.069195 -0.050154 0.125049 -0.082040 -0.108581 0.026134 -0.072762 -0.081358 -0.046115 -0.099145 -0.049908 -0.182260 -0.035208 -0.069919 -0.078386 -0.128527 -0.086621 -0.076566 0.014978 0.026798 -0.061934 -0.135960 0.087624 0.065477 -0.056837 0.038451 0.115127 -0.020789 -0.130444 -0.055752 0.058440 -0.103897 0.151224 0.170396 0.182102 -0.020767 -0.220338 -0.031142 0.165247 -0.093917 -0.013823 -0.000094 -0.042231 -0.001872 -0.001542 -0.106444 0.041692 -0.115053 0.079179 0.243560 -0.099308 0.064853 -0.008334 0.077504 -0.076716 -0.062017 -0.009464 0.173645 -0.083952 -0.109470 -0.011480 -0.042071 -0.025635 0.018523 0.013253 -0.081914 -0.027410 -0.129819 0.094935 -0.064661 0.047548 -0.007156 -0.088992 0.082019 0.161084 0.101701 -0.055996
94 -0.131128 -0.179381 0.142523 -0.007208 0.059274 0.152403 -0.192866 -0.044225 0.098577 0.077640 0.091853 -0.008376 0.005436 -0.128838 -0.014902 -0.247117 -0.060595 0.153095 0.152245 -0.062120 0.137175 0.083265 -0.133547 0.109018 -0.024561 0.172330 0.050981 0.082377 -0.089513 -0.141991 0.115025 0.033865 -0.087042 0.085751 0.173544 0.104043 -0.100648 0.115861 -0.018121 0.078809 0.000066 0.165956 0.019521 -0.099570 -0.129737 0.139508 -0.216982 -0.053772 -0.038842 0.087556 0.027885 -0.026547 -0.018212 0.137425 -0.099272 -0.096265 0.084492 -0.062080 -0.139721 -0.107878 -0.095423 -0.045208 -0.171452 -0.029383 -0.071015 -0.069124 -0.091482 -0.107029 -0.015619 0.017557 0.002111 -0.000751 -0.144564 0.098934 0.143966 -0.046563 0.052817 0.078532 -0.050040 -0.066825 0.016266 0.089701 -0.125743 0.111646 0.150004 0.224451 -0.001299 -0.262640 -0.053874 0.188242 -0.082269 -0.008773 0.052663 -0.094587 -0.069755 0.002869 -0.140805 0.042036 -0.106063 0.087903 0.258108 -0.095232 0.047639 -0.039819 0.096095 -0.076485 -0.109865 -0.024039 0.242302 -0.087207 -0.172376 -0.013108 0.016425 -0.049305 -0.004079 0.017271 -0.087537 -0.011252 -0.110925 0.118668 -0.036041 0.090718 -0.047009 -0.128821 0.051999 0.194738 0.088142 -0.007795
43 -0.157460 -0.165830 0.147190 -0.000163 0.067969 0.114450 -0.139248 -0.044733 0.099318 0.085110 0.123596 0.004339 -0.064582 -0.116166 0.003967 -0.267766 -0.081198 0.165056 0.115305 -0.080320 0.168527 0.085110 -0.140190 0.093253 -0.015310 0.189894 0.015837 0.064368 -0.057259 -0.129824 0.136928 0.063732 -0.081103 0.124609 0.209831 0.133448 -0.146168 0.119741 0.031929 0.056490 0.026944 0.215294 0.077454 -0.125989 -0.154870 0.144432 -0.184500 -0.091190 -0.068581 0.058367 0.040960 -0.009938 -0.002439 0.158619 -0.107986 -0.112248 0.120690 -0.074536 -0.170552 -0.150662 -0.085605 -0.024628 -0.160476 -0.001239 -0.069442 -0.073151 -0.044520 -0.107341 0.061520 0.035969 0.042588 0.057864 -0.103492 0.104527 0.178496 -0.080825 0.046975 0.056214 -0.087357 -0.042183 0.073618 0.097864 -0.147079 0.082648 0.126820 0.250199 0.013842 -0.274037 -0.090541 0.212219 -0.042246 0.019951 0.059377 -0.087435 -0.118827 -0.009394 -0.169091 0.052279 -0.095376 0.106989 0.291665 -0.086753 0.023512 -0.049204 0.133188 -0.102092 -0.113941 -0.022233 0.294668 -0.092796 -0.162444 -0.009239 -0.011973 -0.035024 -0.032441 -0.001025 -0.089535 -0.021478 -0.071714 0.098080 0.006750 0.057766 -0.058149 -0.145059 0.068888 0.218203 0.062089 -0.003029
143 -0.089305 -0.153896 0.131292 0.038555 0.106083 0.210089 -0.189852 0.005280 0.127962 0.039035 0.028187 0.021658 0.048894 -0.116263 -0.051710 -0.212151 -0.106391 0.133926 0.154266 -0.026202 0.137167 0.057111 -0.100076 0.143580 -0.113080 0.199462 0.057674 0.158101 -0.075328 -0.171878 0.118716 -0.026218 -0.108992 0.096138 0.146354 0.089975 -0.097158 0.112714 -0.082350 0.105529 -0.015725 0.166473 -0.054712 -0.092995 -0.106898 0.185347 -0.231104 -0.031121 -0.006984 0.082573 0.036527 -0.064593 -0.047913 0.127474 -0.105548 -0.107405 0.007504 -0.084262 -0.058037 -0.045023 -0.133639 -0.076224 -0.203040 -0.039210 -0.054268 -0.085176 -0.101986 -0.080479 -0.096357 0.016505 0.050465 -0.050584 -0.122371 0.103884 0.029292 -0.031482 0.029831 0.120165 0.006926 -0.152726 -0.060837 0.066313 -0.122388 0.191448 0.168987 0.150159 -0.021265 -0.187631 -0.005460 0.149555 -0.071628 0.012122 -0.014382 -0.015916 0.036203 0.000829 -0.098982 0.043608 -0.121846 0.074719 0.241989 -0.070160 0.073511 0.015210 0.079755 -0.105542 -0.059364 0.010728 0.147427 -0.085544 -0.086250 0.013624 -0.065117 0.004637 -0.010424 0.019133 -0.085898 -0.045921 -0.152326 0.095163 -0.087638 0.043135 0.017849 -0.063557 0.114876 0.157659 0.108967 -0.073693
55 -0.143623 -0.167277 0.148342 0.000588 0.065961 0.121072 -0.144721 -0.044960 0.099714 0.083377 0.113772 0.004425 -0.043257 -0.115379 -0.005031 -0.255887 -0.073089 0.160179 0.125632 -0.072282 0.161383 0.082324 -0.139027 0.097506 -0.018119 0.180125 0.020918 0.068403 -0.063660 -0.129198 0.127992 0.050578 -0.078805 0.111895 0.196416 0.123500 -0.135220 0.115143 0.013114 0.054722 0.019770 0.204265 0.062608 -0.121480 -0.140696 0.146388 -0.189894 -0.080801 -0.057220 0.061214 0.033026 -0.015359 -0.002290 0.150200 -0.107391 -0.108109 0.107898 -0.069839 -0.157046 -0.135712 -0.083141 -0.032459 -0.156628 -0.013784 -0.062726 -0.065597 -0.054659 -0.106850 0.042823 0.025973 0.028989 0.038454 -0.107959 0.106483 0.166114 -0.068119 0.048760 0.059361 -0.076144 -0.048219 0.056747 0.086170 -0.135212 0.082965 0.125144 0.236450 0.007976 -0.267758 -0.081481 0.200512 -0.047810 0.016839 0.053350 -0.089010 -0.106641 -0.009413 -0.160535 0.052970 -0.097408 0.102513 0.279289 -0.088003 0.029370 -0.045802 0.119504 -0.089914 -0.109117 -0.019230 0.273889 -0.086335 -0.161620 -0.004358 -0.005337 -0.037600 -0.017882 0.003203 -0.084498 -0.023027 -0.081138 0.098471 -0.004978 0.066643 -0.054378 -0.145191 0.067022 0.212042 0.065149 -0.006030
163 -0.106260 -0.163325 0.144800 0.022864 0.086468 0.199246 -0.205941 -0.011631 0.109219 0.044860 0.044942 0.016684 0.048264 -0.129776 -0.042909 -0.236886 -0.081727 0.135824 0.155797 -0.022703 0.130447 0.065127 -0.120379 0.132394 -0.080510 0.187928 0.058960 0.137454 -0.082150 -0.159994 0.106098 0.001964 -0.092548 0.101909 0.155992 0.086122 -0.095257 0.113823 -0.068390 0.092341 -0.018291 0.163581 -0.037522 -0.088788 -0.120937 0.166866 -0.237045 -0.044283 -0.010978 0.084073 0.033026 -0.068585 -0.044145 0.126149 -0.097282 -0.109026 0.031392 -0.072628 -0.082830 -0.051425 -0.116823 -0.056470 -0.203549 -0.043005 -0.069809 -0.082309 -0.125585 -0.094228 -0.084012 0.018394 0.029873 -0.063112 -0.144751 0.098273 0.065491 -0.044803 0.042494 0.125318 -0.014110 -0.140614 -0.052208 0.067388 -0.115841 0.172738 0.185965 0.193110 -0.021351 -0.231375 -0.032298 0.174560 -0.095165 -0.004290 -0.000448 -0.039537 0.000687 -0.001365 -0.112245 0.045887 -0.125615 0.089801 0.262571 -0.093281 0.075940 -0.008238 0.078488 -0.082738 -0.072008 -0.009304 0.183322 -0.092871 -0.116822 -0.005196 -0.042568 -0.019637 0.010071 0.013904 -0.089187 -0.036345 -0.144830 0.103040 -0.075028 0.057044 -0.004662 -0.089833 0.097263 0.171801 0.109267 -0.061515
148 -0.125925 -0.160384 0.148035 0.002203 0.070723 0.187103 -0.209387 -0.025635 0.080703 0.063742 0.059521 0.008718 0.035325 -0.141475 -0.031948 -0.254215 -0.056945 0.134747 0.149260 -0.029589 0.115072 0.057236 -0.129794 0.120105 -0.067304 0.192376 0.070708 0.106757 -0.073967 -0.141085 0.095198 0.040066 -0.079828 0.107483 0.157084 0.096345 -0.091538 0.115039 -0.034475 0.064710 -0.018102 0.164534 -0.020589 -0.089912 -0.138369 0.152117 -0.222248 -0.054188 -0.035310 0.071857 0.029509 -0.063992 -0.051648 0.133174 -0.092339 -0.125437 0.053017 -0.076352 -0.111731 -0.073199 -0.097746 -0.047782 -0.186702 -0.042352 -0.082315 -0.077546 -0.122853 -0.101451 -0.060429 0.020678 0.022142 -0.050239 -0.145940 0.091676 0.088299 -0.065527 0.046904 0.114690 -0.043938 -0.123033 -0.030944 0.063309 -0.098609 0.135177 0.174352 0.213208 -0.025626 -0.258634 -0.052079 0.191759 -0.097754 -0.015247 0.001477 -0.043076 -0.036408 -0.001584 -0.120911 0.050952 -0.111652 0.094865 0.247807 -0.109944 0.068734 -0.022032 0.088913 -0.072741 -0.066787 0.000077 0.206951 -0.084245 -0.131015 -0.017974 -0.029771 -0.043468 0.026095 0.014216 -0.084644 -0.015855 -0.128121 0.102383 -0.052071 0.051205 -0.020882 -0.116954 0.076973 0.182464 0.089166 -0.043633
187 -0.107668 -0.163612 0.139436 0.020008 0.080900 0.199373 -0.197790 -0.016690 0.109981 0.050773 0.051086 0.012502 0.044651 -0.119122 -0.030577 -0.217339 -0.078349 0.130064 0.152422 -0.023144 0.125885 0.064204 -0.117551 0.129558 -0.081939 0.178312 0.057722 0.131177 -0.077034 -0.150148 0.102371 -0.001070 -0.097685 0.090715 0.154560 0.081697 -0.088348 0.108783 -0.070512 0.096297 -0.016557 0.159123 -0.033640 -0.085395 -0.106789 0.157392 -0.225541 -0.039531 -0.008329 0.080130 0.032166 -0.059280 -0.039074 0.123039 -0.091168 -0.102083 0.025653 -0.075858 -0.078323 -0.045539 -0.108114 -0.059377 -0.188414 -0.039598 -0.065512 -0.074703 -0.123961 -0.092736 -0.072829 0.016542 0.021699 -0.055686 -0.131384 0.098835 0.059229 -0.046460 0.041444 0.116422 -0.013751 -0.132393 -0.055583 0.060410 -0.113989 0.162001 0.167996 0.171572 -0.017432 -0.212706 -0.019464 0.161952 -0.087998 -0.008388 -0.000808 -0.043348 0.000349 -0.002387 -0.105663 0.045941 -0.123409 0.083010 0.246313 -0.096023 0.068566 -0.010208 0.072321 -0.083508 -0.066767 -0.004465 0.175779 -0.090616 -0.111717 -0.006277 -0.043263 -0.021826 0.017542 0.015880 -0.082422 -0.030229 -0.142167 0.098297 -0.070093 0.056405 -0.011515 -0.090364 0.084957 0.161221 0.109831 -0.052784
39 -0.092589 -0.140275 0.127483 0.038658 0.103039 0.204546 -0.180337 0.009725 0.120733 0.033264 0.028371 0.021469 0.049994 -0.111947 -0.048206 -0.204070 -0.102374 0.127328 0.142670 -0.015436 0.136228 0.058247 -0.095372 0.139444 -0.113302 0.191171 0.052024 0.156232 -0.074300 -0.163693 0.112664 -0.026502 -0.103445 0.090977 0.146376 0.082190 -0.090499 0.105829 -0.085645 0.099360 -0.013158 0.162943 -0.052423 -0.089999 -0.101532 0.178571 -0.221401 -0.032648 -0.000934 0.079950 0.031376 -0.062635 -0.043716 0.117013 -0.098757 -0.101060 0.002665 -0.079691 -0.049816 -0.037322 -0.131555 -0.064411 -0.198009 -0.041404 -0.057545 -0.081070 -0.100985 -0.078515 -0.090523 0.016228 0.051505 -0.056823 -0.123992 0.103085 0.028671 -0.030698 0.030229 0.121265 0.009220 -0.154403 -0.061492 0.059453 -0.113602 0.177835 0.166006 0.145436 -0.016387 -0.176928 -0.006253 0.147320 -0.075092 0.011548 -0.015907 -0.014121 0.034470 -0.000176 -0.092018 0.045106 -0.119333 0.077468 0.233335 -0.065794 0.067898 0.013136 0.075584 -0.100244 -0.053269 0.010816 0.138681 -0.086146 -0.080108 0.013712 -0.065107 0.002000 -0.005291 0.015754 -0.085464 -0.049660 -0.150210 0.082076 -0.081497 0.035923 0.020882 -0.060075 0.115269 0.151355 0.104692 -0.077801
111 -0.100477 -0.163167 0.141192 0.019015 0.093941 0.210622 -0.228968 -0.022017 0.123315 0.045264 0.035822 0.005354 0.043632 -0.126750 -0.036753 -0.234875 -0.098342 0.127967 0.166257 -0.039006 0.123604 0.079558 -0.136411 0.134328 -0.078307 0.178344 0.067265 0.129619 -0.075267 -0.154842 0.110036 -0.004180 -0.090128 0.096793 0.152887 0.088766 -0.086399 0.130938 -0.078865 0.109568 -0.009142 0.160117 -0.051444 -0.072247 -0.104858 0.167647 -0.246101 -0.042918 -0.006467 0.098539 0.031233 -0.073341 -0.052999 0.141380 -0.088327 -0.109949 0.021140 -0.060285 -0.085040 -0.054041 -0.116252 -0.060381 -0.205159 -0.036423 -0.062074 -0.076047 -0.132956 -0.079385 -0.084552 0.011030 0.019610 -0.062544 -0.159002 0.110048 0.059029 -0.048847 0.046592 0.122674 -0.015196 -0.144432 -0.069658 0.078063 -0.134896 0.168740 0.169901 0.184621 -0.030492 -0.220562 -0.023318 0.161233 -0.096716 -0.016449 0.004561 -0.059305 0.002799 0.005833 -0.105114 0.032171 -0.130442 0.081331 0.274273 -0.101406 0.063096 -0.018955 0.078136 -0.079280 -0.088654 -0.021327 0.187761 -0.104185 -0.126448 0.003058 -0.027093 -0.026436 0.009310 0.018783 -0.096232 -0.024513 -0.156950 0.116756 -0.067020 0.061944 -0.015120 -0.094513 0.089765 0.177031 0.131828 -0.058668
0 -0.118561 -0.167418 0.146016 -0.000159 0.068387 0.193106 -0.210200 -0.028138 0.082478 0.060670 0.062573 0.005159 0.045285 -0.135943 -0.025174 -0.248810 -0.053631 0.131808 0.153489 -0.026685 0.110940 0.054292 -0.129108 0.123607 -0.071983 0.187168 0.073040 0.109012 -0.082805 -0.145563 0.097902 0.032260 -0.084596 0.097936 0.155613 0.088357 -0.082239 0.115576 -0.041397 0.067704 -0.021523 0.153426 -0.028394 -0.083763 -0.126073 0.152038 -0.223645 -0.046074 -0.032571 0.078514 0.023137 -0.063419 -0.051481 0.122654 -0.088862 -0.118260 0.041855 -0.068114 -0.106651 -0.061904 -0.096799 -0.057479 -0.184203 -0.041417 -0.077379 -0.081772 -0.123783 -0.102064 -0.067509 0.016576 0.011537 -0.048317 -0.135966 0.092069 0.080316 -0.061740 0.047296 0.112320 -0.034981 -0.122605 -0.036212 0.057622 -0.092074 0.142536 0.164229 0.200372 -0.023482 -0.245590 -0.041579 0.177309 -0.093355 -0.009046 0.002087 -0.047451 -0.029734 0.001740 -0.118939 0.048648 -0.105399 0.087077 0.238822 -0.111497 0.073793 -0.016048 0.081011 -0.065715 -0.059900 0.003251 0.195461 -0.079444 -0.132281 -0.011849 -0.031255 -0.041370 0.022374 0.013321 -0.078757 -0.021030 -0.130232 0.107072 -0.065449 0.053363 -0.020554 -0.113411 0.071614 0.179747 0.092097 -0.042534
117 -0.102862 -0.170960 0.145522 0.020309 0.089800 0.204713 -0.229832 -0.023626 0.121465 0.044421 0.037794 0.008343 0.041900 -0.129812 -0.028641 -0.230036 -0.097160 0.135326 0.166237 -0.036296 0.129217 0.078480 -0.134063 0.128440 -0.077828 0.186312 0.063254 0.132740 -0.082964 -0.156009 0.105175 0.006865 -0.087652 0.093498 0.152976 0.091808 -0.095131 0.129612 -0.074557 0.112153 -0.017887 0.160630 -0.048366 -0.074534 -0.108526 0.168633 -0.240611 -0.046562 -0.007589 0.089599 0.032123 -0.068422 -0.042771 0.144716 -0.090849 -0.107533 0.021158 -0.060444 -0.087286 -0.053433 -0.115417 -0.057205 -0.199794 -0.038727 -0.062318 -0.073475 -0.135153 -0.084634 -0.082974 0.008347 0.019647 -0.057518 -0.158451 0.104744 0.066788 -0.044046 0.041355 0.114777 -0.019331 -0.137878 -0.057647 0.078023 -0.128438 0.164821 0.170449 0.187365 -0.027637 -0.218012 -0.026334 0.166009 -0.091373 -0.016186 0.008440 -0.059784 -0.004326 -0.001730 -0.101765 0.032447 -0.120415 0.077010 0.266821 -0.096299 0.064399 -0.022386 0.080189 -0.078428 -0.076728 -0.018009 0.191405 -0.100706 -0.125370 0.003427 -0.022560 -0.022914 0.009588 0.022054 -0.090500 -0.019722 -0.150092 0.104341 -0.062173 0.059040 -0.017070 -0.092128 0.086502 0.176772 0.123389 -0.057268
40 -0.127157 -0.163800 0.145845 0.010479 0.076400 0.179836 -0.200435 -0.024914 0.086977 0.057348 0.069488 0.004294 0.025806 -0.136176 -0.032036 -0.256158 -0.064193 0.133198 0.145175 -0.034780 0.125065 0.059697 -0.125055 0.116910 -0.063256 0.189370 0.056931 0.101728 -0.073337 -0.143907 0.097288 0.035870 -0.086144 0.111670 0.162945 0.099150 -0.103854 0.122941 -0.035373 0.068049 -0.020322 0.171476 -0.008399 -0.087811 -0.133697 0.146949 -0.222780 -0.057535 -0.033197 0.071563 0.027647 -0.062326 -0.047953 0.135475 -0.087333 -0.121517 0.053240 -0.076716 -0.105104 -0.075852 -0.093062 -0.042114 -0.186356 -0.039963 -0.075081 -0.076281 -0.117859 -0.098897 -0.040601 0.019117 0.018002 -0.037538 -0.134268 0.087103 0.092155 -0.066911 0.047374 0.104405 -0.047590 -0.113121 -0.017652 0.059996 -0.098021 0.113984 0.151389 0.195550 -0.012574 -0.232945 -0.057607 0.189843 -0.090643 -0.012545 0.006507 -0.053018 -0.038418 0.002737 -0.120729 0.042642 -0.105322 0.088549 0.255310 -0.110584 0.068226 -0.023613 0.092471 -0.077002 -0.070075 -0.007208 0.204703 -0.085837 -0.130195 -0.017576 -0.033710 -0.036079 0.019067 0.014066 -0.077973 -0.020002 -0.116403 0.099809 -0.047250 0.052780 -0.020756 -0.116151 0.073047 0.182732 0.086273 -0.045741
201 -0.103089 -0.161895 0.139544 0.019795 0.079814 0.198497 -0.213582 -0.017269 0.113740 0.049910 0.044251 0.008275 0.046429 -0.123134 -0.031691 -0.228349 -0.083492 0.132115 0.161596 -0.025922 0.123003 0.067343 -0.125714 0.123855 -0.073853 0.178312 0.062681 0.125477 -0.075971 -0.149073 0.102162 0.001629 -0.088838 0.089404 0.145798 0.086936 -0.085563 0.114285 -0.073694 0.099714 -0.013766 0.155512 -0.042428 -0.078608 -0.110919 0.159394 -0.229096 -0.042139 -0.012153 0.088360 0.034732 -0.067479 -0.045232 0.132085 -0.092751 -0.102853 0.027485 -0.064261 -0.086438 -0.053400 -0.113327 -0.055400 -0.190605 -0.036809 -0.067766 -0.074075 -0.124631 -0.087921 -0.083548 0.009044 0.017696 -0.059188 -0.148437 0.099242 0.063627 -0.044083 0.039710 0.116969 -0.018732 -0.132971 -0.058833 0.067127 -0.117998 0.159331 0.173422 0.181582 -0.022722 -0.219761 -0.025775 0.160066 -0.094592 -0.015598 0.006632 -0.051006 -0.001803 0.003224 -0.104405 0.041451 -0.120789 0.077564 0.252395 -0.096257 0.071319 -0.013137 0.072041 -0.075140 -0.079826 -0.015007 0.180218 -0.092784 -0.122888 -0.006177 -0.026233 -0.028608 0.014283 0.015381 -0.085447 -0.026542 -0.143203 0.105788 -0.064250 0.056738 -0.012084 -0.090078 0.085714 0.167792 0.110002 -0.052134
121 -0.099496 -0.150875 0.133049 0.028767 0.083914 0.191114 -0.186168 -0.013964 0.113661 0.043613 0.045316 0.014267 0.035426 -0.119870 -0.039539 -0.221046 -0.086855 0.129704 0.146841 -0.030073 0.129864 0.066726 -0.112251 0.128925 -0.079084 0.177975 0.056809 0.129187 -0.067337 -0.154915 0.102650 0.000718 -0.097821 0.094403 0.154975 0.084052 -0.096279 0.105632 -0.069739 0.090842 -0.014026 0.165157 -0.030819 -0.080348 -0.112425 0.157681 -0.222353 -0.045970 -0.012906 0.072148 0.037601 -0.061234 -0.045415 0.126687 -0.089457 -0.101829 0.023788 -0.072814 -0.078572 -0.046446 -0.114909 -0.055539 -0.188919 -0.035972 -0.059317 -0.076120 -0.110413 -0.090162 -0.071613 0.016066 0.033278 -0.054320 -0.127204 0.094044 0.055344 -0.048288 0.032475 0.110795 -0.014100 -0.130776 -0.048663 0.067515 -0.118268 0.162714 0.161619 0.170735 -0.015211 -0.204563 -0.028359 0.159622 -0.081353 -0.004221 -0.001551 -0.038151 0.007193 -0.001174 -0.102657 0.042361 -0.116452 0.079849 0.254924 -0.088379 0.063702 -0.001639 0.078958 -0.092719 -0.070266 -0.003767 0.176503 -0.086105 -0.100967 -0.004661 -0.041658 -0.018590 0.004565 0.015459 -0.084869 -0.036334 -0.140021 0.098247 -0.070549 0.049813 -0.003010 -0.080515 0.090505 0.162582 0.106815 -0.056947
172 -0.095203 -0.151005 0.130525 0.031693 0.099813 0.201829 -0.188906 0.000326 0.129010 0.041927 0.037325 0.025338 0.050297 -0.114739 -0.050557 -0.214970 -0.094622 0.134290 0.151900 -0.019042 0.136044 0.063317 -0.110666 0.134398 -0.103341 0.186569 0.055944 0.153657 -0.077107 -0.167976 0.112280 -0.019291 -0.104404 0.098671 0.151856 0.086010 -0.092082 0.110365 -0.081335 0.107249 -0.017422 0.168091 -0.046268 -0.086600 -0.104837 0.175786 -0.236749 -0.041179 -0.005595 0.082207 0.035488 -0.066695 -0.038002 0.121642 -0.106105 -0.105400 0.010170 -0.082784 -0.066897 -0.045242 -0.134178 -0.071835 -0.198482 -0.038997 -0.059675 -0.085829 -0.109686 -0.085252 -0.089287 0.019216 0.034801 -0.061199 -0.135500 0.106664 0.040255 -0.033142 0.038566 0.118224 -0.002782 -0.152729 -0.064692 0.061721 -0.117951 0.177754 0.167131 0.150265 -0.012996 -0.187300 -0.005870 0.150398 -0.081161 0.005552 -0.014348 -0.025216 0.030631 -0.004921 -0.099874 0.045039 -0.124981 0.083838 0.261834 -0.077593 0.067970 0.002400 0.077370 -0.095940 -0.058010 0.000016 0.163125 -0.083290 -0.093817 0.012262 -0.056226 -0.006962 0.000294 0.015890 -0.091033 -0.044956 -0.153837 0.096151 -0.078718 0.049858 0.008985 -0.063119 0.105697 0.156563 0.110879 -0.073839
157 -0.094837 -0.145950 0.127104 0.038595 0.091444 0.206111 -0.189781 0.004555 0.119954 0.034898 0.035798 0.025781 0.047998 -0.112589 -0.047922 -0.206178 -0.096820 0.127144 0.144916 -0.013501 0.127774 0.056709 -0.105419 0.134320 -0.105655 0.187550 0.057854 0.148463 -0.071054 -0.161389 0.106561 -0.019249 -0.099179 0.094086 0.143294 0.083387 -0.091849 0.104038 -0.089723 0.103793 -0.014089 0.164338 -0.048695 -0.079813 -0.106038 0.171414 -0.225822 -0.034510 -0.002040 0.080727 0.033138 -0.070281 -0.048030 0.119063 -0.097510 -0.103015 0.004827 -0.079206 -0.053626 -0.037370 -0.125965 -0.069370 -0.196893 -0.039116 -0.057466 -0.076849 -0.117035 -0.087657 -0.095152 0.017672 0.042906 -0.060346 -0.123526 0.099477 0.031491 -0.037717 0.035779 0.121609 0.005383 -0.153907 -0.065009 0.051328 -0.107940 0.176874 0.164747 0.141114 -0.017932 -0.178767 -0.010710 0.142659 -0.078336 0.006052 -0.017592 -0.022928 0.033474 0.000711 -0.096172 0.043330 -0.118742 0.075103 0.249595 -0.074450 0.069815 0.011801 0.074958 -0.096730 -0.056686 0.003498 0.153905 -0.088947 -0.086870 0.004260 -0.061214 -0.005187 0.006768 0.017904 -0.084143 -0.043912 -0.150720 0.092878 -0.082888 0.040317 0.010915 -0.064567 0.108429 0.157426 0.107510 -0.071917
202 -0.105621 -0.160325 0.134460 0.019959 0.078747 0.195949 -0.203160 -0.016698 0.110079 0.052385 0.052793 0.009945 0.054822 -0.128764 -0.033706 -0.235460 -0.070587 0.139357 0.161677 -0.021808 0.118260 0.066700 -0.124510 0.118905 -0.073423 0.185890 0.065291 0.130078 -0.079729 -0.154939 0.103959 0.012991 -0.093304 0.089722 0.156645 0.083923 -0.086659 0.106844 -0.061467 0.090699 -0.011721 0.159007 -0.031334 -0.083477 -0.122282 0.158898 -0.226870 -0.043807 -0.019400 0.084872 0.032140 -0.060148 -0.036502 0.123625 -0.098288 -0.109066 0.037582 -0.076006 -0.092436 -0.052298 -0.114329 -0.057687 -0.199622 -0.042960 -0.069537 -0.083719 -0.122612 -0.100093 -0.074760 0.019417 0.018663 -0.059314 -0.148168 0.093160 0.076533 -0.049291 0.042298 0.122016 -0.025153 -0.130037 -0.047806 0.063618 -0.107308 0.162800 0.177607 0.191710 -0.017045 -0.233181 -0.031742 0.176083 -0.093310 -0.013022 0.003492 -0.045130 -0.005709 0.000488 -0.108268 0.044765 -0.123888 0.083149 0.260170 -0.097441 0.075326 -0.019916 0.080356 -0.072917 -0.066022 -0.011945 0.190232 -0.093131 -0.126429 0.000296 -0.031891 -0.029401 0.019204 0.016839 -0.081820 -0.032975 -0.141970 0.109879 -0.070729 0.063284 -0.016218 -0.093636 0.088478 0.169861 0.107804 -0.047861
137 -0.104291 -0.165753 0.141094 0.015830 0.088968 0.219693 -0.240125 -0.022904 0.127846 0.052787 0.025494 0.004513 0.065625 -0.128466 -0.034891 -0.241748 -0.083811 0.130686 0.175398 -0.030119 0.118900 0.075785 -0.129898 0.130834 -0.081554 0.178839 0.074727 0.127428 -0.089566 -0.155122 0.104259 0.000825 -0.092683 0.085857 0.146227 0.089635 -0.075972 0.123997 -0.088177 0.115620 -0.017643 0.143657 -0.061586 -0.068678 -0.106095 0.166400 -0.247508 -0.033791 -0.005077 0.101825 0.029228 -0.072397 -0.053440 0.140826 -0.092480 -0.101336 0.019382 -0.063701 -0.084619 -0.039378 -0.124824 -0.060740 -0.203010 -0.037727 -0.067110 -0.074475 -0.148567 -0.088459 -0.109654 0.007189 0.016479 -0.074176 -0.170973 0.106296 0.060918 -0.038213 0.046691 0.128706 -0.009716 -0.140542 -0.078758 0.075718 -0.123011 0.174576 0.179487 0.185348 -0.029950 -0.220194 -0.022762 0.160846 -0.103657 -0.028113 0.002212 -0.060630 0.011509 0.006433 -0.098222 0.026728 -0.128384 0.079461 0.262649 -0.098731 0.077436 -0.014809 0.065826 -0.076626 -0.082995 -0.022261 0.179412 -0.098409 -0.129863 0.005947 -0.018370 -0.032467 0.016777 0.017218 -0.082174 -0.023001 -0.156243 0.110735 -0.066981 0.064451 -0.016570 -0.091559 0.086699 0.163829 0.133318 -0.062413
