39 128
44 -0.014054 -0.223385 0.006887 -0.154781 0.090449 -0.056831 -0.116590 -0.147264 0.178218 -0.043745 0.176772 -0.003246 -0.168717 0.020498 0.206062 -0.112806 0.147674 0.069591 -0.076583 -0.123737 0.078135 0.161594 -0.150561 0.138875 0.033317 0.106802 0.033481 -0.094576 -0.114559 -0.171588 -0.011302 -0.162560 -0.081216 -0.177020 0.219727 -0.106516 -0.141739 0.011830 0.115736 -0.063428 -0.004277 0.128061 0.014740 -0.024215 0.056199 0.144230 -0.071815 -0.134575 -0.057608 -0.048851 -0.254808 0.198501 0.097193 0.061175 -0.085246 -0.135975 -0.091051 0.171765 -0.148927 0.039904 -0.110541 -0.068115 -0.026666 -0.009850 -0.059742 0.036938 -0.069863 -0.057134 0.025210 -0.094467 -0.064119 -0.002073 0.071590 0.020428 0.067615 -0.026840 0.092094 -0.170691 -0.045582 -0.151244 0.056471 -0.171826 -0.160537 -0.095276 -0.190927 -0.042609 0.151041 -0.156430 -0.092658 0.003212 0.196936 0.037178 -0.205089 -0.144242 -0.082158 -0.018820 0.027617 -0.089397 0.000534 0.019318 0.043233 0.014123 -0.063267 -0.075643 0.045979 0.079958 0.198854 0.130556 -0.036162 0.001758 -0.061866 0.175582 0.065888 -0.013655 -0.035212 0.063090 -0.134994 0.010604 0.114109 -0.183515 0.011317 -0.005002 0.082433 -0.079636 -0.141228 0.245634 0.039547 0.106065
5 -0.010985 -0.139291 -0.017482 0.168366 0.206305 -0.050566 -0.003572 -0.039457 0.157548 -0.062744 0.171715 -0.045827 -0.074374 0.086210 0.120367 -0.168875 0.012304 -0.055330 -0.119814 -0.183691 0.088359 0.158159 -0.098838 0.286549 0.054277 -0.136284 0.035323 -0.239447 0.059731 -0.141439 -0.047797 -0.096076 -0.144940 -0.018653 0.164014 -0.036568 -0.028339 -0.099396 0.068025 0.054567 0.004303 0.167439 0.104558 -0.107421 -0.230817 0.141316 0.067533 -0.096759 -0.013267 -0.124163 0.060584 0.304512 0.023164 -0.076162 -0.043960 -0.187189 -0.067589 0.062907 -0.080784 0.015804 -0.071049 -0.217492 0.101558 0.323449 -0.256926 0.048797 0.068246 -0.037225 0.277253 -0.150056 -0.004999 -0.001663 -0.062684 -0.093766 0.037602 -0.163019 -0.077887 -0.075612 -0.109566 -0.068996 0.279987 0.228272 -0.289354 -0.100736 -0.192969 0.086696 0.206636 -0.136830 -0.062852 0.114479 0.108767 -0.011618 -0.056375 -0.004730 0.033755 0.112623 0.033540 -0.273579 0.167670 0.118220 -0.129495 0.103651 0.004306 0.090862 0.037594 -0.352774 0.318419 -0.023326 -0.084097 0.053838 0.021494 0.173951 0.094538 -0.225854 -0.150549 0.142988 -0.122180 -0.053297 0.062350 -0.090112 0.054350 0.204361 0.094157 -0.183640 -0.129437 0.277399 -0.176769 0.286794
114 -0.044941 -0.216673 0.004137 -0.181496 0.080930 -0.009021 -0.134239 -0.152191 0.196999 -0.034941 0.228141 0.012541 -0.204084 0.033183 0.244960 -0.161426 0.204655 0.080004 -0.056090 -0.144300 0.021598 0.136992 -0.172886 0.150544 0.043230 0.095771 0.017934 -0.108304 -0.140407 -0.181676 0.009370 -0.156625 -0.069741 -0.225261 0.233076 -0.115203 -0.129078 0.006822 0.139981 -0.091879 0.018875 0.128342 0.034248 -0.002150 0.070050 0.163718 -0.108243 -0.115511 -0.055618 -0.075091 -0.229514 0.170310 0.061874 0.048827 -0.079971 -0.105947 -0.093512 0.207657 -0.180066 0.036057 -0.139478 -0.086316 -0.039796 0.009719 -0.036887 0.052424 -0.083866 -0.073746 -0.007897 -0.064212 -0.067432 0.061596 0.092484 0.072801 0.111549 -0.019620 0.082581 -0.152946 -0.045252 -0.116999 0.068158 -0.191402 -0.118465 -0.075478 -0.208303 -0.074089 0.151969 -0.144727 -0.067479 0.009200 0.203108 0.069948 -0.166613 -0.166458 -0.107622 -0.009681 0.023812 -0.033936 -0.013576 -0.030608 0.043564 0.020400 -0.038735 -0.076773 0.060090 0.137344 0.174112 0.167996 -0.011446 0.022285 -0.094474 0.192050 0.030549 -0.049117 -0.038914 0.039111 -0.145469 -0.047592 0.093646 -0.189356 -0.012273 -0.053958 0.057694 -0.051098 -0.154187 0.221848 0.048729 0.118039
81 -0.001158 -0.177231 -0.005374 0.009075 0.152611 -0.052065 -0.057837 -0.082616 0.147128 -0.047170 0.150862 -0.043779 -0.098247 0.049662 0.137813 -0.118430 0.064149 0.018167 -0.104101 -0.154251 0.099672 0.172344 -0.119045 0.212829 0.038305 -0.013926 0.045244 -0.160050 -0.025323 -0.143955 -0.023470 -0.129260 -0.117071 -0.079957 0.182427 -0.078455 -0.092340 -0.046969 0.087350 0.012545 -0.010253 0.151943 0.045990 -0.078254 -0.088233 0.134088 0.003691 -0.128783 -0.031411 -0.079296 -0.089461 0.254339 0.062501 -0.005508 -0.059653 -0.168389 -0.099808 0.111620 -0.097700 0.031004 -0.074505 -0.131173 0.022969 0.156437 -0.153951 0.036949 0.007020 -0.037567 0.154229 -0.130099 -0.035549 -0.023574 0.000552 -0.051338 0.026753 -0.104777 0.019448 -0.118954 -0.078145 -0.115589 0.170951 0.034592 -0.230896 -0.093784 -0.179956 0.044826 0.173920 -0.146908 -0.090155 0.057937 0.154178 0.000027 -0.135517 -0.065272 -0.013560 0.046773 0.031968 -0.205977 0.090517 0.067884 -0.060294 0.051785 -0.028512 0.006750 0.054376 -0.159055 0.265454 0.038424 -0.064372 0.020595 -0.005387 0.160217 0.097886 -0.120289 -0.085598 0.105853 -0.126468 -0.006426 0.080453 -0.129438 0.037082 0.117120 0.081587 -0.120661 -0.134602 0.246661 -0.073107 0.176639
55 -0.037712 -0.213643 0.017879 -0.150252 0.082694 -0.044778 -0.112442 -0.157750 0.201635 -0.042050 0.220239 0.022305 -0.194101 0.019883 0.236305 -0.145935 0.184546 0.065280 -0.062691 -0.130094 0.040410 0.119895 -0.153604 0.122015 0.043974 0.110204 0.010330 -0.116688 -0.126291 -0.184262 -0.017698 -0.153069 -0.061018 -0.203287 0.231480 -0.094900 -0.125325 0.002086 0.125519 -0.089871 0.014200 0.121202 0.037263 -0.006643 0.058580 0.157796 -0.081412 -0.109871 -0.049039 -0.064266 -0.246227 0.173847 0.080926 0.053249 -0.096678 -0.103253 -0.059427 0.186727 -0.174343 0.036137 -0.124347 -0.081286 -0.011708 0.001669 -0.056097 0.049281 -0.069866 -0.078357 0.000660 -0.073847 -0.062543 0.050752 0.089596 0.063159 0.114303 -0.010110 0.076486 -0.156849 -0.034006 -0.117739 0.058934 -0.176586 -0.120158 -0.088256 -0.196689 -0.065671 0.131254 -0.144130 -0.062856 0.005868 0.191278 0.073206 -0.172762 -0.159653 -0.097249 -0.021184 0.016998 -0.035851 -0.012291 0.000719 0.063773 0.016468 -0.049049 -0.067398 0.035764 0.128357 0.174337 0.164037 -0.010199 0.014084 -0.090440 0.201302 0.039977 -0.020435 -0.039232 0.038734 -0.124892 -0.034613 0.117552 -0.187505 -0.004864 -0.039200 0.062947 -0.083391 -0.131322 0.247499 0.048696 0.126722
27 -0.007747 -0.172092 -0.023980 0.010315 0.154336 -0.030299 -0.057849 -0.067439 0.141406 -0.038324 0.152224 -0.040006 -0.103218 0.067602 0.138137 -0.136303 0.078210 0.010872 -0.093268 -0.163107 0.081018 0.173658 -0.124445 0.238518 0.042199 -0.043506 0.036370 -0.158184 -0.022126 -0.132789 -0.006987 -0.126914 -0.123461 -0.092623 0.181448 -0.075813 -0.087875 -0.050130 0.087109 0.007175 -0.004337 0.158192 0.057864 -0.073864 -0.093121 0.147426 0.002023 -0.121344 -0.032190 -0.092629 -0.055297 0.254972 0.045251 -0.013049 -0.054754 -0.181084 -0.103246 0.122547 -0.099799 0.029244 -0.090361 -0.143593 0.014734 0.170812 -0.145599 0.041247 -0.003858 -0.036835 0.162881 -0.121300 -0.035778 -0.001109 -0.000925 -0.049640 0.033999 -0.118762 0.005480 -0.115530 -0.089849 -0.095425 0.180295 0.048596 -0.231769 -0.080322 -0.192144 0.041374 0.193755 -0.150203 -0.087828 0.068677 0.145700 0.000565 -0.113711 -0.062043 -0.025649 0.059854 0.039670 -0.209580 0.104895 0.052693 -0.077395 0.074788 -0.012848 0.007673 0.067977 -0.167857 0.278397 0.036615 -0.066077 0.039263 -0.008540 0.167532 0.088544 -0.149836 -0.084240 0.111082 -0.141944 -0.022599 0.069315 -0.131657 0.035260 0.121542 0.086243 -0.119825 -0.153327 0.252112 -0.086615 0.206354
101 -0.018838 -0.210163 0.016175 -0.077268 0.110615 -0.077110 -0.093785 -0.141551 0.181952 -0.058654 0.180549 -0.002933 -0.139934 0.029412 0.197433 -0.126963 0.130480 0.045913 -0.084407 -0.127644 0.082473 0.138496 -0.128745 0.150343 0.030990 0.083961 0.030126 -0.132043 -0.083359 -0.175798 -0.037417 -0.142752 -0.087518 -0.141359 0.207668 -0.084053 -0.115032 -0.013470 0.110059 -0.042422 -0.005493 0.122682 0.035947 -0.028106 0.001051 0.138802 -0.038353 -0.123479 -0.045355 -0.058488 -0.202136 0.216064 0.087556 0.034660 -0.082958 -0.137678 -0.060912 0.149096 -0.143239 0.047683 -0.096240 -0.085969 0.008035 0.046401 -0.104961 0.028668 -0.041233 -0.061650 0.057417 -0.100570 -0.047260 -0.003071 0.047606 0.003953 0.069701 -0.047077 0.054686 -0.145485 -0.044207 -0.132985 0.089306 -0.093905 -0.168014 -0.087729 -0.177040 -0.020480 0.140764 -0.140287 -0.069631 0.021303 0.172448 0.032108 -0.174429 -0.105406 -0.049572 -0.007828 0.023410 -0.110005 0.027685 0.042260 0.024092 0.021347 -0.047855 -0.035682 0.029262 0.001812 0.208062 0.110592 -0.036024 0.007677 -0.053837 0.183862 0.066357 -0.028691 -0.052800 0.065753 -0.113849 0.004434 0.115293 -0.153903 0.013627 0.027133 0.077342 -0.105525 -0.113174 0.240763 0.013484 0.127148
13 -0.010292 -0.248277 0.045598 -0.151428 0.078336 -0.116692 -0.105435 -0.190685 0.207004 -0.059055 0.190935 0.012249 -0.163011 -0.004253 0.239407 -0.111845 0.158000 0.064157 -0.091471 -0.109229 0.105054 0.133197 -0.136992 0.095311 0.026996 0.177686 0.031981 -0.108210 -0.126710 -0.206135 -0.062049 -0.173668 -0.067469 -0.169261 0.246395 -0.100273 -0.143401 0.012277 0.117794 -0.075509 -0.012619 0.101470 0.016576 -0.011504 0.064573 0.142420 -0.050204 -0.145915 -0.060047 -0.024679 -0.334126 0.206115 0.125725 0.090713 -0.118338 -0.121018 -0.043232 0.158914 -0.160698 0.061622 -0.088146 -0.039968 0.000262 -0.050293 -0.092024 0.020634 -0.065645 -0.073138 0.001818 -0.110661 -0.073694 -0.028691 0.082636 0.023879 0.079230 -0.012790 0.109825 -0.181754 -0.022755 -0.179826 0.022566 -0.203639 -0.151084 -0.111956 -0.183296 -0.056020 0.113679 -0.155062 -0.087691 -0.008870 0.206044 0.049667 -0.246805 -0.151745 -0.070621 -0.053717 0.016333 -0.068526 -0.015903 0.042278 0.094996 -0.021499 -0.084689 -0.086305 -0.001623 0.112943 0.198733 0.155049 -0.034367 -0.015715 -0.070240 0.194209 0.064446 0.057403 -0.031076 0.049923 -0.100973 0.039036 0.166451 -0.185962 0.002353 -0.009389 0.098183 -0.114265 -0.112615 0.279203 0.093369 0.092198
0 -0.070834 -0.180427 0.011582 -0.108565 0.088666 0.004056 -0.106383 -0.135131 0.201858 -0.037976 0.257639 0.028578 -0.193882 0.037800 0.256626 -0.194172 0.200248 0.033387 -0.052404 -0.147707 -0.014861 0.081186 -0.151718 0.150840 0.048215 0.051931 0.001499 -0.148584 -0.107493 -0.180873 -0.005911 -0.128293 -0.067978 -0.207169 0.229400 -0.079664 -0.070580 -0.017443 0.134217 -0.094143 0.026522 0.120331 0.064240 0.000070 0.009689 0.173902 -0.085177 -0.071807 -0.042267 -0.087771 -0.159089 0.158006 0.024337 0.004520 -0.080409 -0.081573 -0.049688 0.189057 -0.181356 0.024631 -0.137261 -0.124944 0.009087 0.084209 -0.078104 0.054495 -0.057555 -0.085500 0.024210 -0.048648 -0.043880 0.106813 0.077055 0.083427 0.150258 -0.027057 0.021921 -0.112852 -0.036675 -0.067435 0.113319 -0.105924 -0.103281 -0.067695 -0.208550 -0.071366 0.134598 -0.119245 -0.028845 0.037333 0.156191 0.092526 -0.100312 -0.146757 -0.094049 0.018018 0.014635 -0.016634 0.005460 -0.015272 0.032701 0.043395 -0.003908 -0.020912 0.038910 0.095755 0.175667 0.168334 -0.000316 0.040153 -0.102635 0.206358 0.005387 -0.086976 -0.073266 0.030297 -0.131164 -0.098940 0.078741 -0.171794 -0.027812 -0.039460 0.045231 -0.079513 -0.132200 0.233977 0.013413 0.174225
70 -0.012807 -0.219973 0.018201 -0.104460 0.101642 -0.078260 -0.099995 -0.139081 0.182867 -0.050027 0.174160 0.003171 -0.149898 0.025339 0.204327 -0.119644 0.135411 0.049208 -0.079153 -0.119600 0.084016 0.142263 -0.133240 0.135225 0.033266 0.097435 0.026297 -0.121320 -0.092346 -0.172811 -0.030416 -0.148693 -0.084778 -0.150173 0.214170 -0.088999 -0.117761 -0.004106 0.108051 -0.045382 -0.005551 0.116534 0.029239 -0.027407 0.014094 0.141386 -0.046977 -0.124660 -0.054063 -0.054720 -0.224493 0.211665 0.096486 0.054185 -0.086059 -0.131206 -0.062186 0.155066 -0.148241 0.048589 -0.094039 -0.074925 -0.001189 0.023115 -0.100530 0.033787 -0.047115 -0.061687 0.051034 -0.099741 -0.055217 -0.003370 0.057488 0.006176 0.070254 -0.036554 0.072767 -0.152633 -0.043626 -0.143407 0.077205 -0.124099 -0.168322 -0.090737 -0.176714 -0.030006 0.142516 -0.149492 -0.075028 0.015774 0.185084 0.036252 -0.190555 -0.116294 -0.058977 -0.012297 0.026026 -0.102808 0.022342 0.032577 0.032465 0.018304 -0.058558 -0.051074 0.027378 0.032324 0.205640 0.119190 -0.039877 0.005842 -0.058923 0.183293 0.064523 -0.018915 -0.041325 0.064774 -0.116702 0.009664 0.115425 -0.162157 0.014515 0.015056 0.089784 -0.101497 -0.125625 0.248163 0.026662 0.120700
61 -0.061985 -0.128863 0.010007 0.214286 0.207587 -0.046072 -0.009407 -0.030393 0.211877 -0.089493 0.249044 -0.004721 -0.135862 0.098446 0.194754 -0.239719 0.054005 -0.088480 -0.100783 -0.205955 0.027701 0.086962 -0.090167 0.266958 0.080749 -0.169032 -0.014041 -0.288219 0.070286 -0.190132 -0.070826 -0.083182 -0.128515 -0.064125 0.173130 0.015626 0.028240 -0.123856 0.088650 0.028575 0.032746 0.166661 0.173034 -0.086689 -0.271219 0.174409 0.055133 -0.031057 -0.007682 -0.145336 0.105408 0.292259 -0.001334 -0.094661 -0.066491 -0.140213 -0.013841 0.081454 -0.142766 0.005034 -0.121031 -0.277690 0.173171 0.402620 -0.305596 0.077422 0.061582 -0.072615 0.305158 -0.127753 0.010976 0.099490 -0.060406 -0.042813 0.136270 -0.125725 -0.128983 -0.063289 -0.099867 -0.027247 0.338663 0.278382 -0.287731 -0.120232 -0.230829 0.054253 0.213983 -0.143836 0.000777 0.139745 0.093707 0.035021 -0.014137 -0.015338 0.031443 0.132318 0.031813 -0.211857 0.153308 0.121684 -0.095348 0.133312 0.023849 0.143471 0.011582 -0.324324 0.283153 0.003473 -0.057673 0.078364 -0.015252 0.231850 0.044801 -0.258263 -0.186816 0.118719 -0.130166 -0.119534 0.038296 -0.106074 0.036274 0.159933 0.086698 -0.209848 -0.093539 0.291963 -0.202100 0.338325
24 -0.070973 -0.139883 0.024772 0.108633 0.160116 -0.032112 -0.034917 -0.083359 0.219380 -0.064419 0.277867 0.021445 -0.154527 0.060803 0.233215 -0.231312 0.124379 -0.052101 -0.076225 -0.175170 -0.001687 0.059455 -0.109122 0.208284 0.073752 -0.059725 -0.014822 -0.244199 -0.000908 -0.184360 -0.064346 -0.100155 -0.098859 -0.115688 0.207361 -0.016358 -0.000417 -0.092976 0.105149 -0.037549 0.033221 0.141164 0.134071 -0.046972 -0.163115 0.173689 0.002872 -0.035198 -0.015323 -0.130112 -0.007868 0.230695 -0.003719 -0.053061 -0.077187 -0.096048 0.007172 0.122157 -0.157305 0.012003 -0.124252 -0.214602 0.121473 0.273368 -0.229309 0.069560 0.020661 -0.075426 0.177409 -0.086706 -0.003478 0.110612 -0.003533 0.023762 0.156240 -0.080550 -0.080585 -0.070955 -0.058969 -0.026323 0.242817 0.130329 -0.189879 -0.099162 -0.212984 -0.013694 0.154796 -0.114319 -0.005564 0.100189 0.103416 0.074282 -0.038586 -0.075431 -0.020647 0.090431 0.017619 -0.105408 0.086996 0.069712 -0.034799 0.092085 0.022326 0.083641 0.007559 -0.130617 0.240311 0.092609 -0.033125 0.066631 -0.053272 0.223579 0.015854 -0.177002 -0.147318 0.075417 -0.118417 -0.132896 0.077051 -0.129564 0.003593 0.070786 0.065782 -0.170575 -0.093032 0.282277 -0.097713 0.287073
105 0.002911 -0.262290 0.046818 -0.148829 0.086060 -0.129942 -0.106451 -0.184040 0.197108 -0.066266 0.175296 0.001732 -0.153753 -0.002320 0.213534 -0.085699 0.140493 0.075141 -0.097978 -0.099169 0.132256 0.160971 -0.124843 0.101426 0.018948 0.184826 0.041769 -0.093885 -0.125971 -0.201055 -0.060935 -0.183571 -0.073720 -0.151262 0.240939 -0.107201 -0.165829 0.010470 0.106114 -0.055924 -0.020751 0.109766 0.003263 -0.028690 0.064779 0.127837 -0.041560 -0.174707 -0.060785 -0.023974 -0.352474 0.221938 0.143259 0.095630 -0.119293 -0.138233 -0.063598 0.159395 -0.158633 0.074412 -0.085506 -0.035297 -0.008811 -0.059736 -0.096363 0.017667 -0.057875 -0.062717 0.006819 -0.127863 -0.074254 -0.063623 0.072832 0.007429 0.044033 -0.015383 0.131736 -0.188193 -0.019713 -0.203083 0.014604 -0.208023 -0.170842 -0.121446 -0.170307 -0.042357 0.120474 -0.167852 -0.104533 -0.019075 0.213180 0.034359 -0.276015 -0.142788 -0.061721 -0.054845 0.020237 -0.093349 -0.008886 0.060064 0.087099 -0.028194 -0.098153 -0.090575 0.003929 0.088149 0.207708 0.136765 -0.048902 -0.018640 -0.057652 0.184909 0.086866 0.063629 -0.023921 0.067969 -0.100566 0.061437 0.173320 -0.180626 0.015633 -0.000622 0.102178 -0.116331 -0.110499 0.271553 0.090896 0.063620
72 -0.016808 -0.246123 0.017965 -0.190551 0.082178 -0.064980 -0.134964 -0.175028 0.193175 -0.050148 0.192142 0.009930 -0.190102 0.007813 0.229692 -0.110748 0.178422 0.093447 -0.078187 -0.125785 0.075422 0.157857 -0.157384 0.115460 0.030583 0.150343 0.032384 -0.089199 -0.143596 -0.194908 -0.021600 -0.171494 -0.069129 -0.205096 0.234536 -0.115352 -0.159722 0.015588 0.124867 -0.078153 -0.000049 0.126589 0.007803 -0.011478 0.090564 0.146136 -0.086422 -0.144628 -0.061279 -0.049199 -0.306781 0.197808 0.114328 0.083942 -0.105517 -0.132617 -0.091981 0.197214 -0.170600 0.055752 -0.122683 -0.057269 -0.039634 -0.045353 -0.042014 0.032330 -0.078697 -0.074896 -0.014653 -0.098551 -0.080791 0.006609 0.098501 0.041085 0.080965 -0.011602 0.114796 -0.188751 -0.030176 -0.162882 0.032208 -0.220962 -0.147567 -0.092872 -0.197845 -0.054381 0.145772 -0.166161 -0.081059 -0.011267 0.219157 0.052762 -0.233374 -0.164104 -0.088950 -0.042368 0.024571 -0.069467 -0.015889 0.010641 0.071158 0.001722 -0.076626 -0.095005 0.043742 0.135011 0.182121 0.160111 -0.024496 -0.004784 -0.075690 0.192647 0.068707 0.017090 -0.014628 0.046210 -0.127690 0.020887 0.129640 -0.195893 0.001948 -0.037556 0.076746 -0.069854 -0.135484 0.243810 0.069806 0.084230
76 -0.042259 -0.192124 0.026981 -0.042111 0.111912 -0.071298 -0.072829 -0.138341 0.199959 -0.058931 0.215767 0.018376 -0.151224 0.023637 0.226246 -0.158296 0.145388 0.015474 -0.075671 -0.127459 0.045975 0.093227 -0.122483 0.134787 0.046060 0.067037 0.010357 -0.157700 -0.073143 -0.185861 -0.048783 -0.135666 -0.075107 -0.136843 0.220056 -0.061255 -0.081569 -0.033280 0.111463 -0.055649 0.003939 0.107729 0.062541 -0.024558 -0.029813 0.143673 -0.028966 -0.093427 -0.037361 -0.066019 -0.179875 0.198621 0.062714 0.019551 -0.090235 -0.105310 -0.021912 0.143478 -0.148756 0.040961 -0.101829 -0.104697 0.039197 0.082522 -0.135553 0.041957 -0.030439 -0.070377 0.065252 -0.089789 -0.037248 0.029195 0.048044 0.023958 0.108127 -0.039007 0.025641 -0.118313 -0.036190 -0.106385 0.110073 -0.056369 -0.156546 -0.094876 -0.180980 -0.035350 0.127300 -0.128531 -0.048164 0.031297 0.149500 0.060360 -0.145182 -0.110652 -0.053207 0.005222 0.014428 -0.077120 0.028764 0.044901 0.033873 0.023096 -0.033970 -0.018261 0.009109 0.014379 0.206733 0.127389 -0.028642 0.017422 -0.062958 0.198920 0.038475 -0.043551 -0.072734 0.062000 -0.103034 -0.039584 0.117538 -0.149718 -0.003919 0.021023 0.076673 -0.123216 -0.103512 0.261697 0.013892 0.167358
121 -0.033616 -0.133032 -0.003008 0.126348 0.180515 -0.032635 -0.020736 -0.055694 0.179528 -0.059849 0.209094 -0.021177 -0.118070 0.068377 0.162397 -0.192908 0.059237 -0.040369 -0.097171 -0.183249 0.047403 0.123115 -0.101287 0.249084 0.062562 -0.104254 0.016293 -0.227143 0.030409 -0.164147 -0.042629 -0.094909 -0.122380 -0.073645 0.180287 -0.031602 -0.027789 -0.093429 0.083038 0.008264 0.017376 0.161266 0.113714 -0.076438 -0.186650 0.156566 0.032696 -0.073903 -0.012338 -0.127909 0.026683 0.263591 0.010753 -0.058721 -0.055409 -0.145095 -0.049017 0.097249 -0.120824 0.017988 -0.100666 -0.210248 0.098201 0.287641 -0.227207 0.059082 0.045012 -0.054731 0.226677 -0.115997 -0.004699 0.047900 -0.026867 -0.039295 0.085132 -0.120147 -0.072943 -0.080190 -0.086556 -0.050355 0.257344 0.173632 -0.244017 -0.095432 -0.201583 0.043413 0.188754 -0.128780 -0.044480 0.103835 0.109240 0.024906 -0.049290 -0.039928 0.009223 0.098592 0.029446 -0.192732 0.126292 0.088377 -0.078520 0.097163 0.005652 0.084271 0.034389 -0.244659 0.268657 0.030132 -0.051518 0.057604 -0.010200 0.188267 0.062302 -0.203148 -0.142465 0.105960 -0.126789 -0.088757 0.056131 -0.112843 0.030805 0.139068 0.078715 -0.161527 -0.119864 0.266105 -0.136228 0.274477
50 -0.016407 -0.157004 -0.014528 0.049663 0.153954 -0.039301 -0.042335 -0.065556 0.148747 -0.043399 0.159889 -0.034791 -0.096934 0.056540 0.136824 -0.137261 0.066395 0.000497 -0.093881 -0.155944 0.072050 0.153689 -0.111034 0.225563 0.045019 -0.048433 0.033312 -0.169348 -0.007411 -0.137844 -0.023490 -0.115215 -0.118874 -0.078019 0.175328 -0.057242 -0.070483 -0.055876 0.082315 0.014217 0.004516 0.154894 0.066617 -0.080030 -0.113730 0.139097 0.011401 -0.111832 -0.024393 -0.096622 -0.045979 0.249354 0.044099 -0.027582 -0.060122 -0.166559 -0.083164 0.110412 -0.101189 0.024139 -0.082097 -0.159269 0.039193 0.190431 -0.166245 0.038585 0.012993 -0.040891 0.175575 -0.118800 -0.026292 0.003389 -0.009207 -0.042682 0.039985 -0.108254 -0.013690 -0.097492 -0.079929 -0.087483 0.190256 0.083541 -0.229042 -0.087831 -0.182781 0.042157 0.176351 -0.138040 -0.074101 0.074087 0.129691 0.007111 -0.100773 -0.053630 -0.012326 0.066332 0.034507 -0.201790 0.105340 0.070478 -0.074581 0.076918 -0.012139 0.030086 0.054040 -0.187545 0.266079 0.029540 -0.060998 0.036862 -0.005277 0.162073 0.083715 -0.146412 -0.098122 0.110019 -0.132132 -0.029154 0.070832 -0.115894 0.040487 0.123964 0.077534 -0.129144 -0.131649 0.239575 -0.096783 0.212039
108 -0.015422 -0.186416 0.006891 -0.037305 0.127707 -0.065489 -0.070351 -0.110580 0.167360 -0.050460 0.174011 -0.017160 -0.129907 0.031114 0.176084 -0.125312 0.097491 0.023748 -0.093072 -0.133570 0.086168 0.145205 -0.115099 0.168833 0.035342 0.040365 0.025901 -0.144427 -0.053610 -0.167623 -0.033521 -0.128735 -0.094801 -0.117568 0.197289 -0.070227 -0.099053 -0.028793 0.094819 -0.019997 0.000241 0.128072 0.041767 -0.051266 -0.042650 0.138783 -0.015417 -0.119721 -0.037607 -0.066944 -0.160024 0.225509 0.078001 0.022174 -0.082611 -0.144394 -0.065156 0.123999 -0.126342 0.037067 -0.092151 -0.111351 0.026730 0.099966 -0.136092 0.035314 -0.012197 -0.051989 0.099233 -0.112753 -0.041686 -0.002209 0.025846 -0.013544 0.054257 -0.061287 0.037258 -0.134432 -0.057477 -0.121453 0.118487 -0.038270 -0.192886 -0.097321 -0.177457 0.003855 0.148613 -0.142867 -0.070233 0.031861 0.162552 0.026344 -0.158952 -0.088183 -0.036452 0.019248 0.023094 -0.140172 0.052711 0.060043 -0.000759 0.035277 -0.040223 -0.015385 0.026275 -0.062274 0.227151 0.083898 -0.045533 0.015568 -0.037299 0.176874 0.074784 -0.067580 -0.068842 0.084220 -0.114981 -0.005642 0.102808 -0.140591 0.023533 0.056559 0.082722 -0.113419 -0.115422 0.246453 -0.019275 0.148075
67 -0.059010 -0.179599 0.026046 -0.050389 0.111056 -0.039415 -0.081671 -0.140785 0.212161 -0.049588 0.251775 0.023882 -0.176131 0.029677 0.245696 -0.186861 0.172603 0.011841 -0.066159 -0.143061 0.010486 0.076776 -0.134638 0.143723 0.054920 0.056373 0.005902 -0.168910 -0.077139 -0.189011 -0.044074 -0.131197 -0.076052 -0.172197 0.224654 -0.064746 -0.070766 -0.033973 0.125979 -0.073215 0.018846 0.121277 0.077202 -0.009758 -0.027942 0.158169 -0.048779 -0.072859 -0.032374 -0.087112 -0.156452 0.187332 0.039178 0.005931 -0.088440 -0.091430 -0.020080 0.162582 -0.171353 0.033277 -0.116648 -0.126229 0.039940 0.105427 -0.126885 0.051977 -0.033610 -0.080754 0.058318 -0.070972 -0.033130 0.080339 0.059976 0.055683 0.135732 -0.038184 0.010128 -0.108153 -0.030519 -0.075866 0.122548 -0.061238 -0.134131 -0.080901 -0.198719 -0.052771 0.124094 -0.122552 -0.027521 0.037509 0.150396 0.081615 -0.116447 -0.125772 -0.065761 0.014526 0.016033 -0.048860 0.018463 0.018543 0.031466 0.040973 -0.013504 -0.006377 0.015665 0.036257 0.197202 0.147875 -0.016257 0.030172 -0.085191 0.211223 0.017282 -0.066573 -0.081899 0.050808 -0.117040 -0.080917 0.106491 -0.159588 -0.015476 -0.005654 0.058326 -0.108880 -0.109449 0.254683 0.008304 0.186292
109 -0.015830 -0.160919 -0.004504 0.065300 0.164502 -0.055228 -0.040453 -0.072770 0.155622 -0.050787 0.171980 -0.034703 -0.100501 0.057543 0.142662 -0.141984 0.059640 -0.009102 -0.106459 -0.158098 0.077678 0.151079 -0.103582 0.226584 0.043896 -0.047219 0.034304 -0.190514 -0.003473 -0.147067 -0.035924 -0.116361 -0.114493 -0.071515 0.180407 -0.056109 -0.065376 -0.066492 0.086249 0.014196 -0.000907 0.149447 0.076228 -0.081514 -0.130198 0.141943 0.024939 -0.111426 -0.020907 -0.091275 -0.047592 0.258294 0.042917 -0.025323 -0.060787 -0.164828 -0.073075 0.103436 -0.103477 0.027028 -0.078831 -0.163001 0.060060 0.203452 -0.187816 0.041513 0.024039 -0.038904 0.188307 -0.131322 -0.027912 -0.003382 -0.017126 -0.046192 0.044727 -0.113835 -0.013808 -0.100203 -0.082096 -0.089809 0.204257 0.096282 -0.236140 -0.099192 -0.185441 0.047598 0.171926 -0.143161 -0.070089 0.072428 0.130973 0.008754 -0.105562 -0.052648 -0.000616 0.068373 0.033200 -0.207403 0.110017 0.083988 -0.067380 0.072487 -0.014992 0.038163 0.042344 -0.199672 0.273776 0.033363 -0.061261 0.036039 -0.008791 0.173758 0.085957 -0.147961 -0.106008 0.110865 -0.125925 -0.028706 0.082770 -0.119480 0.040783 0.133065 0.086017 -0.144685 -0.125165 0.265785 -0.095327 0.223084
49 0.028479 -0.311912 0.089555 -0.174952 0.069285 -0.220621 -0.111565 -0.239783 0.220989 -0.094819 0.159049 0.012590 -0.154009 -0.038692 0.239762 -0.050253 0.122807 0.092236 -0.122948 -0.060858 0.195818 0.163384 -0.100328 0.029736 0.010202 0.294821 0.042693 -0.085643 -0.151068 -0.239329 -0.116344 -0.214232 -0.053329 -0.132032 0.261678 -0.106015 -0.200593 0.033756 0.099467 -0.055565 -0.044933 0.078220 -0.023193 -0.022360 0.110441 0.114661 -0.027441 -0.210659 -0.073074 0.029790 -0.497993 0.237078 0.211621 0.157876 -0.156498 -0.135982 -0.026561 0.150568 -0.163074 0.099937 -0.058028 0.026397 0.013305 -0.152882 -0.124772 -0.005631 -0.057823 -0.062216 -0.020941 -0.163069 -0.097217 -0.138355 0.088077 -0.011432 0.025161 0.016942 0.193177 -0.236715 0.005908 -0.280477 -0.057108 -0.277445 -0.186792 -0.156117 -0.161013 -0.055036 0.079714 -0.181086 -0.124838 -0.055088 0.247591 0.021494 -0.370721 -0.151546 -0.046500 -0.112765 0.004991 -0.087425 -0.029469 0.103905 0.155024 -0.083290 -0.158449 -0.137405 -0.042498 0.151104 0.194894 0.159223 -0.059322 -0.060612 -0.063508 0.190007 0.113700 0.176819 0.006903 0.059641 -0.061343 0.146061 0.231867 -0.196414 0.019373 -0.002412 0.125906 -0.153659 -0.081296 0.295835 0.167388 -0.000452
117 -0.012918 -0.217295 0.012790 -0.123093 0.101026 -0.063453 -0.108324 -0.144051 0.180395 -0.053075 0.176279 -0.004139 -0.165677 0.016099 0.202472 -0.115306 0.135955 0.067600 -0.079031 -0.133714 0.079243 0.152170 -0.137254 0.138106 0.032303 0.095056 0.027267 -0.106878 -0.107712 -0.180166 -0.022935 -0.146799 -0.072687 -0.171491 0.210023 -0.096009 -0.134613 0.001161 0.114264 -0.049288 -0.002512 0.125714 0.021267 -0.021192 0.037048 0.144430 -0.057285 -0.130678 -0.046257 -0.058325 -0.232292 0.199303 0.097330 0.056099 -0.086946 -0.131701 -0.084618 0.167350 -0.153681 0.043155 -0.109225 -0.077485 -0.014276 0.015210 -0.076654 0.037664 -0.053789 -0.059601 0.035941 -0.099703 -0.063875 0.008340 0.063617 0.017642 0.070240 -0.028496 0.077382 -0.163509 -0.045126 -0.141825 0.072118 -0.134170 -0.163694 -0.087394 -0.185812 -0.026614 0.144319 -0.151860 -0.073680 0.006464 0.194977 0.038647 -0.188586 -0.133368 -0.067925 -0.017632 0.028690 -0.098236 0.014741 0.023271 0.036870 0.018833 -0.061463 -0.064192 0.043481 0.050279 0.198930 0.122382 -0.024497 0.003568 -0.060950 0.186140 0.070774 -0.018836 -0.043384 0.062322 -0.126595 0.008392 0.110256 -0.170033 0.014536 0.001401 0.071760 -0.085846 -0.129529 0.236332 0.030705 0.111739
20 0.014286 -0.286504 0.069376 -0.158513 0.074054 -0.189164 -0.102738 -0.212301 0.206204 -0.084974 0.157781 0.002597 -0.146934 -0.026047 0.229839 -0.063921 0.124738 0.082318 -0.117475 -0.083052 0.169887 0.155436 -0.105177 0.056214 0.015249 0.249813 0.044776 -0.092039 -0.135120 -0.228722 -0.098167 -0.197498 -0.058538 -0.139710 0.253208 -0.100231 -0.177835 0.022696 0.099965 -0.060021 -0.040437 0.084591 -0.014419 -0.027103 0.089775 0.119772 -0.023200 -0.188095 -0.063078 0.007834 -0.436364 0.229892 0.183885 0.124981 -0.140173 -0.133982 -0.034479 0.141991 -0.159930 0.091351 -0.060862 0.000625 0.012196 -0.107220 -0.117630 0.002994 -0.053613 -0.057632 -0.010226 -0.141698 -0.087283 -0.099300 0.077574 -0.003801 0.037065 0.009904 0.162698 -0.214342 -0.003911 -0.240904 -0.021976 -0.244856 -0.179680 -0.145739 -0.158176 -0.039353 0.090912 -0.170626 -0.113933 -0.038171 0.231034 0.028114 -0.324387 -0.145825 -0.049460 -0.088357 0.014553 -0.093075 -0.022889 0.091124 0.123269 -0.061331 -0.137648 -0.110083 -0.026704 0.120980 0.197695 0.148522 -0.048100 -0.042409 -0.063191 0.193023 0.098880 0.134017 -0.010285 0.058568 -0.071586 0.114080 0.206162 -0.187835 0.018197 0.003412 0.117324 -0.141084 -0.084630 0.287392 0.127941 0.028645
74 -0.031533 -0.225685 0.020796 -0.157083 0.083699 -0.056787 -0.118576 -0.160337 0.193429 -0.050908 0.207920 0.014027 -0.185595 0.018405 0.232065 -0.135664 0.177068 0.070181 -0.069251 -0.127272 0.057290 0.131655 -0.146022 0.123243 0.030328 0.130639 0.020969 -0.108383 -0.123012 -0.185034 -0.022082 -0.153879 -0.069519 -0.187998 0.236053 -0.103768 -0.134293 0.002400 0.122738 -0.075559 -0.000831 0.118688 0.022689 -0.010595 0.062180 0.150384 -0.075712 -0.130693 -0.052115 -0.053198 -0.269633 0.185751 0.089382 0.064198 -0.098062 -0.109198 -0.066240 0.182639 -0.172009 0.048533 -0.115569 -0.072033 -0.011751 -0.010463 -0.071066 0.036382 -0.063305 -0.073850 -0.000950 -0.089298 -0.064909 0.020809 0.084834 0.044442 0.094892 -0.015507 0.096628 -0.164547 -0.030663 -0.145279 0.049353 -0.185761 -0.138331 -0.091742 -0.190451 -0.061831 0.127100 -0.144367 -0.077550 0.002360 0.199323 0.058574 -0.197736 -0.155406 -0.088313 -0.027121 0.021910 -0.054664 -0.005511 0.010092 0.063256 0.000882 -0.060188 -0.075904 0.034553 0.115858 0.180655 0.160888 -0.025375 0.002902 -0.086009 0.193608 0.054407 -0.006372 -0.036343 0.042972 -0.124768 -0.011777 0.125448 -0.187613 -0.005243 -0.031355 0.073498 -0.082360 -0.130621 0.243243 0.057078 0.102233
95 -0.025855 -0.223401 0.016160 -0.156274 0.090835 -0.055966 -0.119547 -0.149023 0.189224 -0.050071 0.196354 0.006180 -0.187100 0.020631 0.218239 -0.124486 0.169701 0.075295 -0.065876 -0.132898 0.060255 0.148429 -0.150278 0.134789 0.032983 0.109433 0.019354 -0.102059 -0.122980 -0.186855 -0.016315 -0.152486 -0.075383 -0.197479 0.222128 -0.102814 -0.140623 0.005643 0.120822 -0.073074 0.002281 0.122867 0.023764 -0.013292 0.064668 0.147158 -0.079096 -0.123095 -0.051454 -0.059467 -0.250818 0.192905 0.091956 0.061327 -0.093744 -0.127308 -0.085067 0.183515 -0.169837 0.049470 -0.122960 -0.075514 -0.023212 -0.006328 -0.056624 0.037451 -0.070293 -0.071305 0.007255 -0.083187 -0.067591 0.029773 0.083736 0.042608 0.084572 -0.016364 0.091390 -0.168863 -0.040765 -0.137877 0.055274 -0.174616 -0.141967 -0.087285 -0.190262 -0.051053 0.151061 -0.156222 -0.072234 -0.000978 0.199671 0.049806 -0.196908 -0.145196 -0.082684 -0.021599 0.022565 -0.069821 0.001064 0.010334 0.050705 0.015090 -0.063255 -0.071085 0.046306 0.101204 0.181192 0.145311 -0.019257 0.009122 -0.074480 0.197391 0.058822 -0.009414 -0.030852 0.045179 -0.132724 -0.007724 0.107689 -0.180320 0.002700 -0.028730 0.073764 -0.078967 -0.135749 0.237803 0.040826 0.106707
127 -0.067860 -0.191147 0.018766 -0.097156 0.100834 -0.006744 -0.105172 -0.137717 0.205531 -0.041787 0.257986 0.023722 -0.198331 0.031686 0.260804 -0.187914 0.195436 0.035229 -0.052181 -0.148335 0.001603 0.093757 -0.150407 0.147952 0.054966 0.054662 0.004264 -0.147538 -0.106895 -0.177539 -0.013073 -0.142942 -0.070338 -0.198630 0.230800 -0.076789 -0.076878 -0.021426 0.131113 -0.087033 0.029662 0.122717 0.061540 -0.013299 0.006788 0.175064 -0.080638 -0.077905 -0.037159 -0.089961 -0.174950 0.171274 0.035803 0.017298 -0.084629 -0.092377 -0.052673 0.191034 -0.178638 0.019758 -0.139112 -0.124491 0.011439 0.088356 -0.089952 0.063259 -0.055901 -0.074402 0.042682 -0.059744 -0.043771 0.091788 0.067047 0.077112 0.148736 -0.025120 0.029149 -0.117586 -0.040201 -0.086791 0.114030 -0.104737 -0.122928 -0.087196 -0.205759 -0.073174 0.135429 -0.126876 -0.044641 0.038980 0.167463 0.079916 -0.113794 -0.149169 -0.093538 0.020241 0.010758 -0.030151 0.003268 -0.000954 0.031899 0.040748 -0.011593 -0.023315 0.037758 0.090597 0.178908 0.162752 -0.013940 0.033360 -0.100279 0.201887 0.013459 -0.082443 -0.067718 0.040177 -0.136113 -0.086038 0.081598 -0.182582 -0.020129 -0.025143 0.053497 -0.087156 -0.135520 0.245952 0.017199 0.178055
138 -0.006955 -0.228165 0.032279 -0.113257 0.085689 -0.113513 -0.096462 -0.160577 0.182261 -0.065094 0.163588 0.003336 -0.147381 0.005591 0.201311 -0.092110 0.124715 0.054329 -0.094141 -0.104273 0.109603 0.140744 -0.115185 0.100048 0.024784 0.138354 0.032541 -0.111150 -0.097967 -0.184837 -0.056817 -0.154218 -0.066668 -0.137945 0.215234 -0.088000 -0.137458 0.001054 0.102663 -0.043637 -0.014473 0.099876 0.014847 -0.028856 0.036855 0.125443 -0.032542 -0.145557 -0.052234 -0.023432 -0.287037 0.207817 0.117125 0.077665 -0.104020 -0.125178 -0.055955 0.141377 -0.148252 0.063950 -0.084547 -0.054009 0.012502 -0.016660 -0.100858 0.019059 -0.042492 -0.059966 0.029289 -0.114524 -0.065326 -0.037685 0.063159 0.006013 0.052777 -0.018001 0.100862 -0.166901 -0.030400 -0.176122 0.042650 -0.151489 -0.168241 -0.113048 -0.167853 -0.031124 0.118630 -0.149196 -0.084711 -0.004738 0.189417 0.032278 -0.232751 -0.125320 -0.047550 -0.038153 0.021823 -0.096013 0.006845 0.059204 0.065248 -0.013971 -0.084644 -0.065562 0.001607 0.055763 0.191763 0.117115 -0.037538 -0.010174 -0.055049 0.183875 0.076009 0.033574 -0.032001 0.061911 -0.094301 0.043180 0.140388 -0.166950 0.015417 0.008486 0.095537 -0.114469 -0.103409 0.251778 0.062301 0.082293
111 -0.026114 -0.227929 0.012103 -0.180467 0.086755 -0.041487 -0.131777 -0.162691 0.191053 -0.044723 0.205315 0.004596 -0.192626 0.016843 0.229788 -0.139337 0.179010 0.076492 -0.069917 -0.135841 0.054444 0.147815 -0.164074 0.135002 0.034464 0.116547 0.029212 -0.103499 -0.131840 -0.183151 -0.007262 -0.162842 -0.068344 -0.205566 0.233249 -0.113019 -0.136442 0.015266 0.132462 -0.085418 0.010192 0.124067 0.018368 -0.004941 0.074604 0.155404 -0.090622 -0.127732 -0.055200 -0.053768 -0.267744 0.183675 0.085328 0.063960 -0.086929 -0.121906 -0.089050 0.196034 -0.171067 0.039632 -0.120354 -0.070464 -0.033657 -0.012986 -0.050062 0.041596 -0.074972 -0.067738 0.003770 -0.081108 -0.073016 0.028391 0.087207 0.050826 0.090993 -0.021137 0.098948 -0.166951 -0.042103 -0.147408 0.050091 -0.196590 -0.138678 -0.089062 -0.203809 -0.061075 0.141979 -0.153608 -0.077458 0.000976 0.206139 0.057450 -0.197271 -0.163026 -0.095532 -0.020984 0.022311 -0.057939 -0.013827 -0.002421 0.057591 0.006198 -0.059941 -0.083661 0.045670 0.125623 0.177127 0.155398 -0.020743 0.004651 -0.084690 0.188944 0.051662 -0.016934 -0.033014 0.042376 -0.135784 -0.009786 0.110775 -0.185078 -0.002281 -0.033534 0.070279 -0.070768 -0.145601 0.237257 0.058639 0.107477
91 -0.023135 -0.151130 -0.000073 0.084848 0.169801 -0.037413 -0.035676 -0.068102 0.160720 -0.047966 0.177902 -0.040273 -0.096630 0.063124 0.139585 -0.159925 0.054955 -0.017783 -0.106369 -0.175334 0.073238 0.143944 -0.101945 0.236324 0.044356 -0.071409 0.030710 -0.198998 0.008200 -0.146877 -0.031656 -0.111140 -0.117694 -0.067155 0.176487 -0.047340 -0.049968 -0.069868 0.080592 0.020900 0.000751 0.159112 0.082731 -0.085729 -0.151611 0.150322 0.020862 -0.102024 -0.018130 -0.104328 -0.023825 0.256005 0.033499 -0.043919 -0.063712 -0.154655 -0.071445 0.098642 -0.107732 0.022866 -0.082637 -0.172727 0.065069 0.239025 -0.198974 0.045219 0.032160 -0.040485 0.198134 -0.131257 -0.019053 0.009973 -0.016197 -0.047067 0.053749 -0.111718 -0.034520 -0.085916 -0.086231 -0.074444 0.228705 0.124366 -0.242006 -0.093588 -0.193181 0.052701 0.176113 -0.137378 -0.065849 0.080953 0.123306 0.007798 -0.082281 -0.043663 0.006093 0.074007 0.031896 -0.209883 0.108491 0.081993 -0.078046 0.083960 -0.007063 0.051603 0.046494 -0.219292 0.276757 0.024507 -0.055759 0.038773 -0.007918 0.181341 0.081787 -0.170849 -0.123184 0.107701 -0.128225 -0.048520 0.069962 -0.113864 0.034775 0.135906 0.077979 -0.146864 -0.124082 0.259121 -0.115952 0.231444
88 -0.047963 -0.130885 0.007010 0.210030 0.205419 -0.049240 -0.012575 -0.027666 0.193764 -0.089525 0.232369 -0.011158 -0.124513 0.098766 0.181219 -0.220857 0.039405 -0.088672 -0.102171 -0.197742 0.046137 0.106230 -0.090010 0.273960 0.069235 -0.160366 -0.004645 -0.278468 0.074552 -0.178502 -0.069144 -0.079015 -0.127312 -0.048325 0.168580 0.010886 0.015054 -0.115313 0.083539 0.038060 0.021474 0.168654 0.158578 -0.094474 -0.266124 0.164804 0.063644 -0.047791 -0.014030 -0.136614 0.093650 0.299430 0.003128 -0.086658 -0.057732 -0.153260 -0.025163 0.073940 -0.129551 0.011575 -0.111263 -0.263314 0.162199 0.388333 -0.301748 0.070593 0.065909 -0.058263 0.305117 -0.135852 0.014563 0.074370 -0.069513 -0.056434 0.115630 -0.131672 -0.118406 -0.064625 -0.104499 -0.044031 0.327732 0.275199 -0.295296 -0.123059 -0.216309 0.067057 0.210193 -0.145843 -0.014297 0.130629 0.096559 0.018027 -0.029888 -0.006381 0.036611 0.125022 0.028526 -0.227041 0.157877 0.131913 -0.097545 0.123906 0.011925 0.135981 0.012813 -0.334413 0.285931 -0.009398 -0.067685 0.074582 -0.002927 0.217518 0.052163 -0.249238 -0.180688 0.120879 -0.125907 -0.101387 0.041136 -0.105432 0.043839 0.167355 0.096811 -0.211885 -0.098963 0.292403 -0.200859 0.324776
96 0.014120 -0.273627 0.065495 -0.132038 0.087806 -0.176436 -0.099013 -0.201713 0.204822 -0.080048 0.157706 -0.000428 -0.139202 -0.015802 0.220956 -0.069613 0.119222 0.071446 -0.119995 -0.089061 0.163337 0.159134 -0.106929 0.074898 0.013938 0.215801 0.039269 -0.106650 -0.121611 -0.213692 -0.088133 -0.186749 -0.069030 -0.122293 0.243429 -0.099975 -0.168549 0.016858 0.099336 -0.048699 -0.035803 0.092929 -0.001714 -0.036792 0.059943 0.121221 -0.016472 -0.179786 -0.057590 0.002199 -0.388891 0.238254 0.164367 0.112612 -0.126028 -0.137073 -0.033661 0.137867 -0.147230 0.083844 -0.057527 -0.020347 0.021390 -0.071454 -0.128970 0.003593 -0.038919 -0.058552 0.016341 -0.140668 -0.075046 -0.095835 0.066185 -0.010714 0.039439 -0.007571 0.137549 -0.200911 -0.017266 -0.228250 0.006948 -0.200610 -0.185206 -0.132940 -0.160399 -0.028445 0.100543 -0.168054 -0.107013 -0.028004 0.215058 0.024550 -0.297602 -0.132014 -0.041266 -0.069242 0.012308 -0.108272 -0.000550 0.084981 0.103420 -0.044510 -0.120037 -0.094832 -0.022789 0.073238 0.206411 0.132053 -0.052627 -0.038793 -0.054013 0.183799 0.100400 0.100957 -0.019200 0.063524 -0.075862 0.099679 0.196212 -0.179247 0.022495 0.020256 0.118008 -0.145562 -0.088633 0.288165 0.101226 0.050731
51 -0.015894 -0.150434 -0.012420 0.079008 0.174488 -0.032905 -0.039322 -0.066221 0.157842 -0.046572 0.177773 -0.043639 -0.104130 0.063150 0.137422 -0.158389 0.052950 -0.010253 -0.111222 -0.183652 0.074145 0.156165 -0.109655 0.244847 0.049422 -0.077781 0.036569 -0.199748 0.013989 -0.143020 -0.027817 -0.108877 -0.122149 -0.067767 0.177778 -0.055875 -0.053340 -0.071954 0.079406 0.023801 0.005277 0.165017 0.075636 -0.089151 -0.148490 0.150087 0.026282 -0.107050 -0.017557 -0.106438 -0.015485 0.262321 0.035878 -0.046719 -0.057925 -0.168594 -0.082774 0.095404 -0.100459 0.021548 -0.081216 -0.179421 0.055132 0.245972 -0.194202 0.052859 0.029026 -0.038574 0.202541 -0.131399 -0.019450 0.006878 -0.020916 -0.055848 0.048471 -0.124514 -0.026645 -0.096250 -0.096819 -0.085858 0.230742 0.121715 -0.246590 -0.099337 -0.192894 0.057437 0.187178 -0.138932 -0.075724 0.082718 0.124260 0.010367 -0.081566 -0.045890 -0.001201 0.076139 0.028777 -0.218814 0.114457 0.082746 -0.084951 0.086333 -0.006420 0.051000 0.050306 -0.235342 0.287001 0.025713 -0.061692 0.039829 -0.001176 0.178603 0.081581 -0.178235 -0.118237 0.117660 -0.131633 -0.046320 0.064015 -0.115332 0.041789 0.139060 0.079273 -0.145879 -0.132404 0.262929 -0.121851 0.232974
39 -0.062498 -0.197748 0.009939 -0.125568 0.102749 -0.001845 -0.115801 -0.138779 0.202037 -0.040902 0.244833 0.013035 -0.197332 0.034716 0.252215 -0.182843 0.191045 0.052505 -0.062258 -0.149755 0.012684 0.116477 -0.156894 0.162155 0.045409 0.065442 0.009643 -0.134823 -0.119161 -0.181923 -0.000837 -0.150324 -0.076355 -0.211403 0.235495 -0.093956 -0.094301 -0.009439 0.133539 -0.087273 0.026580 0.133348 0.052259 -0.014602 0.025285 0.178393 -0.089126 -0.091312 -0.042164 -0.082386 -0.189520 0.179763 0.045267 0.020197 -0.081151 -0.099678 -0.075845 0.200826 -0.175042 0.026344 -0.142994 -0.111753 -0.010018 0.066115 -0.075035 0.054778 -0.059226 -0.072786 0.033280 -0.065360 -0.048669 0.083687 0.073573 0.072249 0.133828 -0.026610 0.045165 -0.131167 -0.041232 -0.097340 0.109377 -0.126091 -0.129127 -0.082615 -0.212751 -0.066003 0.151492 -0.131995 -0.051937 0.034628 0.180941 0.077946 -0.128468 -0.153109 -0.096833 0.013434 0.018949 -0.040480 0.002622 -0.008653 0.025063 0.043227 -0.023859 -0.041235 0.053787 0.092044 0.182116 0.163006 -0.013544 0.025339 -0.096059 0.204076 0.024784 -0.078861 -0.066370 0.041787 -0.145798 -0.075466 0.080544 -0.188809 -0.015999 -0.031174 0.057959 -0.075931 -0.140580 0.240130 0.019248 0.157683
11 -0.056272 -0.134677 0.012579 0.225559 0.218270 -0.057307 -0.010521 -0.025099 0.208699 -0.097335 0.238376 -0.010607 -0.127684 0.101706 0.188547 -0.234816 0.031488 -0.093142 -0.107002 -0.206071 0.048942 0.099586 -0.080972 0.275067 0.074068 -0.168875 -0.008944 -0.288055 0.074057 -0.189085 -0.072943 -0.084369 -0.128071 -0.050938 0.172726 0.018429 0.028287 -0.117788 0.080403 0.046514 0.029365 0.173181 0.169933 -0.095454 -0.279273 0.169643 0.071145 -0.038171 -0.010984 -0.137969 0.102669 0.304424 0.003612 -0.094320 -0.062214 -0.155579 -0.016880 0.075767 -0.138061 0.011224 -0.110256 -0.274825 0.178205 0.406852 -0.320837 0.074117 0.065126 -0.063635 0.318040 -0.144330 0.013385 0.074953 -0.075100 -0.061336 0.121912 -0.133595 -0.121844 -0.070695 -0.106658 -0.041545 0.338189 0.294035 -0.302011 -0.126872 -0.230017 0.064889 0.219381 -0.144445 -0.007379 0.136970 0.093713 0.016882 -0.023327 -0.000335 0.043926 0.126506 0.032712 -0.232433 0.160188 0.142102 -0.097303 0.134567 0.012403 0.142305 0.007282 -0.346956 0.297423 -0.012283 -0.065072 0.069692 -0.004970 0.229673 0.049042 -0.257763 -0.187714 0.124116 -0.131334 -0.103123 0.043742 -0.106492 0.044813 0.171232 0.100759 -0.227511 -0.100015 0.294289 -0.209484 0.336201
33 -0.029970 -0.133656 -0.002168 0.150025 0.187410 -0.045724 -0.016027 -0.038916 0.171353 -0.062538 0.197346 -0.025697 -0.102290 0.072564 0.155737 -0.178217 0.045051 -0.047190 -0.105667 -0.179749 0.059695 0.122276 -0.091442 0.248294 0.055917 -0.113611 0.011466 -0.230363 0.042604 -0.154612 -0.048299 -0.089464 -0.121186 -0.049255 0.164277 -0.024261 -0.021133 -0.095260 0.073504 0.028353 0.011310 0.157498 0.118122 -0.089248 -0.203629 0.153358 0.046430 -0.075739 -0.016093 -0.121617 0.039822 0.273666 0.016532 -0.064311 -0.060764 -0.152697 -0.046930 0.082314 -0.101674 0.018099 -0.085833 -0.217073 0.105208 0.302238 -0.238009 0.054168 0.054777 -0.049342 0.246449 -0.122988 -0.000949 0.038302 -0.040157 -0.049878 0.074130 -0.124518 -0.073730 -0.074494 -0.089979 -0.052718 0.269292 0.193105 -0.257250 -0.104105 -0.195818 0.061494 0.188103 -0.135425 -0.042398 0.108395 0.108925 0.019716 -0.052122 -0.029852 0.019889 0.108388 0.027242 -0.216868 0.142784 0.098799 -0.093625 0.097493 0.005926 0.092780 0.032742 -0.279356 0.281708 0.012124 -0.059494 0.055897 -0.003510 0.187886 0.067475 -0.208643 -0.139417 0.115374 -0.120041 -0.078375 0.053458 -0.105589 0.041946 0.155676 0.085739 -0.169196 -0.108984 0.264207 -0.151790 0.272815
132 -0.022322 -0.179734 -0.007916 -0.054890 0.124919 -0.027609 -0.086875 -0.102618 0.152971 -0.038436 0.164628 -0.017925 -0.123977 0.051287 0.172789 -0.134948 0.109970 0.031909 -0.079349 -0.146363 0.061868 0.158242 -0.140853 0.200804 0.039288 0.016909 0.037616 -0.139979 -0.056383 -0.142786 -0.003273 -0.134981 -0.108273 -0.128170 0.197592 -0.080384 -0.098276 -0.030674 0.099422 -0.026008 -0.000670 0.142190 0.047319 -0.045982 -0.032366 0.147933 -0.035955 -0.109745 -0.041590 -0.085667 -0.121655 0.224968 0.051956 0.012990 -0.061155 -0.158678 -0.095364 0.142588 -0.128051 0.032202 -0.097835 -0.117409 -0.003908 0.106348 -0.108302 0.035815 -0.030747 -0.051751 0.104668 -0.094775 -0.038928 0.007681 0.028355 -0.011156 0.063163 -0.083183 0.024500 -0.128522 -0.071871 -0.104345 0.135915 -0.034128 -0.190771 -0.074495 -0.184101 0.004650 0.173300 -0.145150 -0.075709 0.047520 0.162974 0.022211 -0.129127 -0.096250 -0.045188 0.031483 0.033402 -0.145085 0.063927 0.026807 -0.031555 0.056701 -0.023089 -0.020373 0.054569 -0.066543 0.236373 0.081836 -0.046368 0.030778 -0.038464 0.165591 0.070619 -0.095628 -0.060577 0.087233 -0.134481 -0.023825 0.076379 -0.144592 0.015090 0.066101 0.076682 -0.089609 -0.142904 0.227491 -0.039548 0.170954
99 -0.046867 -0.135751 0.005786 0.122872 0.175851 -0.032051 -0.029211 -0.067561 0.192480 -0.061037 0.232129 -0.005773 -0.126588 0.071406 0.194589 -0.198946 0.086408 -0.048879 -0.093454 -0.179738 0.026925 0.094369 -0.106938 0.234727 0.062052 -0.085720 0.006882 -0.235535 0.022263 -0.172093 -0.048195 -0.096234 -0.107352 -0.081236 0.187635 -0.020649 -0.016969 -0.093225 0.092666 -0.006042 0.018589 0.143745 0.116654 -0.069023 -0.180397 0.162923 0.027361 -0.055969 -0.017051 -0.129619 0.013105 0.253480 0.004096 -0.060591 -0.067714 -0.133157 -0.023014 0.100501 -0.125886 0.016786 -0.107230 -0.214733 0.111418 0.283858 -0.232481 0.066258 0.041041 -0.056803 0.209754 -0.106973 -0.004227 0.069937 -0.016556 -0.015149 0.112223 -0.108911 -0.076726 -0.067895 -0.071276 -0.037045 0.253404 0.161369 -0.221060 -0.100098 -0.200930 0.027837 0.176601 -0.125156 -0.029414 0.106473 0.104988 0.048538 -0.046305 -0.053261 -0.005730 0.101565 0.025377 -0.159396 0.118477 0.083136 -0.063799 0.094767 0.015401 0.083493 0.027500 -0.209754 0.262192 0.055358 -0.047656 0.062501 -0.026979 0.204538 0.043486 -0.194196 -0.137162 0.095066 -0.115665 -0.105281 0.065660 -0.117299 0.023444 0.119054 0.070979 -0.161996 -0.104875 0.272746 -0.120493 0.278898
66 -0.019067 -0.206634 0.005828 -0.065110 0.120133 -0.054738 -0.091330 -0.114157 0.175973 -0.046649 0.181672 -0.012913 -0.138031 0.046905 0.197800 -0.139474 0.123851 0.038916 -0.082260 -0.141631 0.074555 0.154885 -0.138004 0.188746 0.038881 0.035674 0.029366 -0.142947 -0.069225 -0.168257 -0.013889 -0.143448 -0.101424 -0.137170 0.205043 -0.080783 -0.101006 -0.022538 0.108084 -0.028457 -0.001996 0.138250 0.052686 -0.041180 -0.026846 0.157272 -0.039318 -0.122367 -0.049618 -0.073295 -0.158325 0.232130 0.072465 0.021988 -0.075486 -0.153381 -0.083927 0.152837 -0.141541 0.042165 -0.100038 -0.114652 0.010698 0.087685 -0.117185 0.034225 -0.037864 -0.058135 0.100713 -0.103308 -0.042278 0.005723 0.036315 -0.005021 0.071134 -0.072134 0.041698 -0.140580 -0.066023 -0.120470 0.128687 -0.056753 -0.197733 -0.088482 -0.195541 -0.009707 0.164398 -0.150640 -0.073444 0.042341 0.178541 0.033214 -0.158523 -0.099901 -0.050376 0.021645 0.033207 -0.135127 0.055497 0.033981 -0.003044 0.046749 -0.038645 -0.024239 0.044291 -0.040011 0.230533 0.093541 -0.041205 0.025907 -0.047088 0.185419 0.070405 -0.085160 -0.060896 0.083272 -0.128187 -0.013192 0.091615 -0.159343 0.015682 0.052254 0.087671 -0.101477 -0.141285 0.250432 -0.016158 0.163340
103 -0.022521 -0.217763 0.013541 -0.097527 0.111460 -0.054272 -0.101726 -0.138683 0.187257 -0.050068 0.195348 -0.009130 -0.165944 0.030197 0.207826 -0.140539 0.142087 0.053027 -0.085328 -0.144737 0.074484 0.151727 -0.147721 0.167377 0.035198 0.069356 0.031579 -0.133323 -0.093569 -0.182586 -0.019578 -0.153285 -0.089896 -0.165225 0.224809 -0.091346 -0.120140 -0.017337 0.119003 -0.049965 0.001679 0.138044 0.039926 -0.030882 0.008574 0.155268 -0.049848 -0.123778 -0.050283 -0.073045 -0.201141 0.221321 0.081530 0.040927 -0.084505 -0.143551 -0.084517 0.170375 -0.155410 0.042675 -0.112010 -0.099359 0.000556 0.061097 -0.102875 0.040028 -0.043400 -0.061731 0.063626 -0.105727 -0.056145 0.012219 0.058386 0.013339 0.079491 -0.047924 0.065690 -0.150242 -0.059297 -0.138868 0.103138 -0.107938 -0.175746 -0.089408 -0.201401 -0.026023 0.162032 -0.153533 -0.078186 0.023016 0.188862 0.039606 -0.177823 -0.129193 -0.060973 0.004930 0.025065 -0.111075 0.031537 0.025999 0.017972 0.027554 -0.045100 -0.048003 0.041903 0.010955 0.221135 0.119548 -0.036108 0.013116 -0.063196 0.187566 0.066909 -0.050488 -0.059375 0.070212 -0.129459 -0.012322 0.107017 -0.165583 0.010585 0.023590 0.081360 -0.096181 -0.140893 0.248495 0.014295 0.144253
