47 128
133 -0.115718 -0.136099 0.163766 -0.114376 0.007862 0.109627 -0.071397 0.063251 -0.128033 -0.083611 0.176489 0.060439 0.073849 -0.050419 0.012333 -0.213856 0.121897 0.033414 0.106798 0.082915 -0.017946 -0.149428 0.031331 0.088899 -0.004225 0.199013 0.052844 -0.018270 0.062915 -0.064810 -0.086399 0.054901 -0.089921 0.070494 0.097738 0.174427 -0.054840 0.044680 0.027293 -0.051961 -0.069223 0.034860 0.043153 -0.064568 -0.132164 -0.033020 -0.189159 -0.059588 0.069999 0.032333 -0.004259 -0.027336 0.008695 0.115266 -0.073809 -0.139560 -0.054601 0.017639 0.017855 -0.034464 -0.213433 -0.064917 -0.134596 0.066532 -0.035169 -0.094292 -0.148656 0.046708 -0.106455 -0.140250 -0.058027 -0.065759 -0.216441 0.102177 0.032658 -0.070644 0.293019 0.099650 -0.143777 -0.142541 -0.075649 -0.024902 0.060937 -0.218409 0.209650 0.233669 0.104738 -0.082457 -0.082181 0.088312 -0.038495 0.171529 -0.147262 -0.050796 -0.188775 0.026317 -0.012350 0.034313 -0.106075 0.194630 0.153196 -0.084726 -0.164586 -0.079787 0.121139 -0.052795 -0.121871 -0.066598 0.010597 -0.042295 -0.117735 -0.027531 0.106781 -0.264846 0.178713 0.078231 0.061375 0.116114 -0.084244 0.250860 0.055991 0.010428 -0.076637 -0.104471 -0.165656 -0.005257 0.132058 -0.003434
105 -0.140215 -0.132022 0.202106 -0.025841 0.109052 0.121194 -0.028250 0.039471 -0.105271 -0.142360 0.214536 0.149622 0.025707 -0.021455 0.119281 -0.196000 0.164718 -0.061141 0.063484 0.087086 -0.000095 -0.159367 0.098029 0.202526 0.051872 0.256378 0.030392 0.021890 -0.006867 0.029932 -0.097920 0.044659 -0.069097 0.098539 0.101830 0.139660 -0.055632 -0.027445 -0.003709 -0.079049 -0.053039 0.035556 -0.040063 0.036555 -0.113324 -0.169076 -0.213205 -0.042659 0.122047 0.116956 -0.041615 -0.075038 0.032602 0.133191 -0.030980 -0.180713 -0.013947 -0.017586 -0.010248 -0.054262 -0.231141 0.006692 -0.156658 -0.015324 -0.081923 -0.086908 -0.197085 0.015086 -0.169293 -0.124564 -0.020960 -0.102830 -0.091750 0.048875 0.061221 -0.033320 0.366170 0.070192 -0.133934 -0.139404 -0.096912 -0.050039 0.008798 -0.147998 0.263153 0.173163 0.067274 -0.048763 -0.037026 0.124814 -0.123509 0.233740 -0.223024 -0.090352 -0.176477 0.018795 0.053526 0.085561 -0.067302 0.183957 0.114389 -0.056593 -0.155738 -0.010323 0.177379 -0.004289 -0.075099 -0.105859 0.011298 0.046656 -0.157590 -0.041624 0.049945 -0.202011 0.132901 0.050578 0.060696 0.133119 -0.137405 0.157437 0.050735 -0.002409 -0.094869 -0.125806 -0.197332 -0.058804 0.169314 0.036528
84 -0.098814 -0.147672 0.163155 -0.085785 0.011409 0.111036 -0.061262 0.042490 -0.135395 -0.109779 0.160246 0.082106 0.093994 -0.081578 0.027756 -0.227436 0.095536 0.060434 0.084278 0.091374 -0.039615 -0.173365 0.049742 0.081734 0.010243 0.207637 0.069675 -0.017070 0.070834 -0.048429 -0.073165 0.083752 -0.073053 0.049849 0.092145 0.166978 -0.067543 0.057792 0.027273 -0.076447 -0.093737 0.035809 0.024728 -0.063289 -0.120174 -0.037427 -0.155391 -0.017265 0.104932 0.037645 0.016386 -0.024108 -0.026396 0.118116 -0.042228 -0.130241 -0.052223 0.003874 -0.004040 -0.072348 -0.160712 -0.061418 -0.137096 0.026552 -0.064656 -0.085140 -0.179095 0.042307 -0.107785 -0.119509 -0.046673 -0.069529 -0.198694 0.063220 0.015487 -0.090485 0.308145 0.096691 -0.140119 -0.139039 -0.069995 -0.016388 0.064407 -0.234726 0.199106 0.203070 0.069680 -0.071756 -0.077464 0.081253 -0.057000 0.177970 -0.136998 -0.039798 -0.183234 0.035535 0.018222 0.009539 -0.097192 0.186651 0.111471 -0.071435 -0.156882 -0.075501 0.113046 -0.058254 -0.097378 -0.054028 -0.010328 -0.014564 -0.125037 -0.029181 0.088520 -0.272896 0.172448 0.093428 0.061872 0.091239 -0.079776 0.198235 0.012051 0.026068 -0.043070 -0.098587 -0.179096 -0.033348 0.086391 -0.002298
191 -0.150845 -0.060928 0.218087 0.012754 0.174298 0.137774 0.062061 0.003324 -0.088885 -0.193257 0.159753 0.246586 -0.040687 -0.014476 0.196021 -0.125501 0.143798 -0.108745 -0.001486 0.018570 0.001850 -0.159100 0.147969 0.260010 0.034349 0.325269 0.108955 -0.011482 -0.086411 0.128354 -0.148069 -0.083913 -0.030506 0.037546 -0.007187 0.051677 -0.081820 -0.079098 -0.014431 -0.127224 0.018272 -0.038461 -0.066303 0.130361 -0.040228 -0.313901 -0.143882 0.006713 0.061373 0.199652 -0.071914 -0.174337 0.013662 0.164881 -0.021608 -0.177329 -0.008902 0.053707 0.025929 -0.026349 -0.259311 0.093288 -0.118498 -0.068712 -0.191233 -0.076104 -0.269155 0.073848 -0.203245 -0.236955 0.002574 -0.162595 0.037596 0.026929 0.134202 0.069664 0.459516 0.128062 -0.122414 -0.130949 -0.156658 -0.035495 -0.030776 -0.135996 0.280701 0.122016 0.003948 -0.038646 -0.001974 0.096663 -0.166905 0.288135 -0.329020 -0.100290 -0.115843 0.082642 0.121229 0.069261 -0.054353 0.226436 0.052477 0.005874 -0.080849 -0.063504 0.309840 0.031180 -0.018959 -0.228184 -0.111218 0.107802 -0.134790 0.009318 0.054129 -0.074401 0.067154 -0.007212 0.006067 0.124311 -0.220904 0.166566 0.082823 0.023603 -0.161211 -0.101311 -0.222985 -0.134397 0.197329 0.116491
142 -0.070950 -0.179917 0.132977 -0.070865 0.014324 0.085437 -0.009541 -0.012922 -0.179214 -0.155086 0.064618 0.075933 0.129753 -0.154936 0.040751 -0.251383 0.016595 0.138528 -0.003361 0.082507 -0.070690 -0.242862 0.079283 0.041726 0.028633 0.217645 0.127312 -0.034202 0.049339 0.026382 -0.039374 0.131046 0.008665 -0.004479 0.046315 0.116377 -0.075814 0.068662 0.053669 -0.136357 -0.116368 0.012760 -0.023490 -0.017719 -0.064460 -0.076014 -0.063988 0.117102 0.175589 0.052876 0.044715 -0.022955 -0.088364 0.124264 0.069668 -0.101313 -0.057928 -0.107310 -0.043034 -0.150436 0.015843 -0.026375 -0.126000 -0.124623 -0.183290 -0.022363 -0.257500 0.016278 -0.084366 -0.045038 -0.040663 -0.082901 -0.118875 -0.102208 -0.059221 -0.142141 0.310701 0.050152 -0.156080 -0.155961 -0.073886 -0.018127 0.125196 -0.266268 0.124070 0.088315 -0.000789 -0.011653 -0.084968 0.094639 -0.061527 0.164570 -0.093300 -0.014271 -0.119265 0.032696 0.110290 -0.074402 -0.072795 0.131257 -0.020055 -0.048695 -0.073214 -0.075263 0.124854 -0.054785 0.057149 -0.016314 -0.082377 0.030691 -0.102554 -0.043387 0.004504 -0.231529 0.190726 0.073479 0.043618 0.001337 -0.034801 0.053918 -0.052386 0.055945 0.026231 -0.103054 -0.205022 -0.096917 -0.055617 0.043645
35 -0.113019 -0.200080 0.164822 -0.078504 0.015481 0.107520 -0.084830 0.042180 -0.153186 -0.116982 0.198965 0.070726 0.112594 -0.086324 0.055339 -0.279638 0.118911 0.064578 0.091353 0.131493 -0.029922 -0.198331 0.057588 0.105680 0.053294 0.208477 0.027502 0.006495 0.080575 -0.045657 -0.049818 0.159902 -0.076243 0.093527 0.157196 0.207450 -0.057411 0.054526 0.033298 -0.081783 -0.140755 0.074025 -0.001980 -0.061259 -0.144905 -0.035658 -0.206889 -0.013662 0.183308 0.041009 0.023353 -0.001448 -0.008495 0.121894 0.000422 -0.164564 -0.035308 -0.078122 -0.036103 -0.120950 -0.134157 -0.080617 -0.165846 -0.004093 -0.059105 -0.090255 -0.184181 0.005169 -0.121285 -0.043940 -0.053047 -0.051816 -0.206159 0.032154 -0.020224 -0.146732 0.310503 0.055549 -0.163649 -0.165001 -0.059861 -0.039047 0.076110 -0.231283 0.211848 0.207741 0.085082 -0.054016 -0.086667 0.128143 -0.064643 0.178092 -0.121780 -0.058295 -0.219691 -0.014741 0.019999 0.033736 -0.084938 0.166501 0.128903 -0.100236 -0.198780 -0.024805 0.093819 -0.058844 -0.098033 0.002100 0.046043 -0.003179 -0.163874 -0.073526 0.053832 -0.318897 0.195879 0.107132 0.094730 0.111461 -0.060815 0.144098 -0.003456 0.008163 -0.014058 -0.128130 -0.180898 -0.024740 0.078246 -0.010504
89 -0.146119 -0.105926 0.209760 0.054552 0.171292 0.130721 0.053554 -0.010226 -0.097456 -0.212142 0.165635 0.260460 -0.026172 -0.032128 0.239082 -0.177216 0.132662 -0.105694 -0.024464 0.058271 0.006954 -0.188678 0.167787 0.274339 0.070680 0.315884 0.077511 0.005342 -0.085004 0.147590 -0.125080 -0.001095 0.000454 0.049898 0.024054 0.059876 -0.062350 -0.073206 -0.024860 -0.140949 -0.015362 -0.003266 -0.129798 0.144195 -0.039765 -0.316307 -0.159657 0.042586 0.136563 0.219810 -0.061232 -0.158897 0.011439 0.164241 0.044320 -0.180073 0.005444 -0.038305 -0.031991 -0.093460 -0.179883 0.098678 -0.127978 -0.130644 -0.219466 -0.042558 -0.296964 0.029649 -0.213981 -0.141145 0.000496 -0.159450 0.073361 -0.043263 0.082879 0.026258 0.446731 0.081748 -0.140471 -0.142019 -0.150819 -0.058040 -0.025345 -0.123087 0.254100 0.083982 -0.019307 0.011576 0.005457 0.121830 -0.196940 0.283498 -0.290188 -0.117723 -0.120988 0.045075 0.154152 0.057550 -0.036177 0.175726 0.024480 -0.006360 -0.066976 0.002964 0.263926 0.039854 0.023453 -0.164601 -0.076639 0.132870 -0.170260 -0.031688 0.001844 -0.111912 0.072879 -0.004539 0.029969 0.126343 -0.202770 0.058257 0.032462 0.018353 -0.102446 -0.111946 -0.229453 -0.142443 0.152406 0.118909
198 -0.120423 -0.157444 0.191342 -0.082119 0.019106 0.125925 -0.099292 0.072229 -0.124632 -0.101751 0.246108 0.090302 0.093631 -0.025420 0.060651 -0.260065 0.157332 -0.011443 0.125273 0.116929 -0.024117 -0.160164 0.043482 0.140315 0.020186 0.224208 0.019731 -0.007208 0.068473 -0.069984 -0.090440 0.098680 -0.101422 0.117936 0.139683 0.212168 -0.041018 0.025273 0.020098 -0.038740 -0.083184 0.050870 0.001802 -0.068797 -0.155704 -0.048140 -0.249919 -0.096339 0.115660 0.070624 -0.010106 -0.008214 0.037324 0.122341 -0.070937 -0.185930 -0.046365 -0.003184 -0.014890 -0.058969 -0.244809 -0.088908 -0.153589 0.075336 -0.003415 -0.113979 -0.149682 0.031914 -0.156870 -0.113995 -0.046269 -0.065541 -0.229777 0.129640 0.043701 -0.088176 0.323880 0.075830 -0.169758 -0.149905 -0.079779 -0.029312 0.028963 -0.233032 0.259973 0.264214 0.104588 -0.084256 -0.076052 0.105501 -0.063871 0.200843 -0.154343 -0.068765 -0.225081 -0.003798 -0.015190 0.055534 -0.103460 0.194036 0.174175 -0.095791 -0.223727 -0.040894 0.102013 -0.037345 -0.150960 -0.053564 0.044412 -0.034386 -0.173671 -0.043769 0.108860 -0.304245 0.187441 0.092564 0.099306 0.156742 -0.111423 0.243902 0.053173 -0.004179 -0.077875 -0.128589 -0.190368 -0.000035 0.151551 -0.018624
19 -0.074792 -0.073742 0.147585 -0.136793 -0.015175 0.109778 -0.002983 0.031050 -0.147750 -0.103450 0.053970 0.094803 0.069074 -0.093538 -0.022536 -0.153905 0.043102 0.083895 0.065693 0.006097 -0.045292 -0.148977 0.029949 0.033834 -0.070561 0.213032 0.172359 -0.078874 0.034308 -0.040119 -0.118784 -0.058794 -0.044590 -0.048473 -0.044747 0.087346 -0.094368 0.051954 0.051930 -0.083108 -0.017176 -0.057911 0.089438 -0.059699 -0.060336 -0.062169 -0.031644 -0.001764 -0.042866 0.029407 -0.002667 -0.067511 -0.073832 0.109472 -0.075265 -0.079482 -0.091965 0.117308 0.060932 0.007636 -0.174821 -0.032309 -0.059874 0.059171 -0.107794 -0.079176 -0.176749 0.118197 -0.064129 -0.244587 -0.029147 -0.096743 -0.171045 0.075791 0.058947 -0.021225 0.300281 0.167680 -0.120016 -0.118212 -0.104014 0.014774 0.075830 -0.279504 0.151763 0.185469 0.055880 -0.096599 -0.091946 0.007858 -0.008201 0.157554 -0.157185 -0.000356 -0.108782 0.118425 0.022020 -0.051739 -0.113129 0.218233 0.072854 -0.020039 -0.070537 -0.195461 0.182391 -0.050689 -0.049901 -0.151297 -0.141544 -0.039597 -0.026844 0.053739 0.138333 -0.161022 0.141558 0.069386 0.013889 0.041610 -0.104727 0.308350 0.066458 0.040739 -0.099152 -0.050876 -0.168495 -0.043344 0.056074 0.033513
123 -0.030906 -0.078606 0.123014 -0.303461 -0.144391 0.113913 0.058213 -0.004434 -0.284490 -0.133117 -0.144034 0.048407 0.174559 -0.262098 -0.192117 -0.196750 -0.101423 0.356800 0.032366 -0.077453 -0.125628 -0.258969 0.001849 -0.170536 -0.210120 0.252228 0.434678 -0.218698 0.088925 -0.086065 -0.147545 -0.135980 0.014298 -0.238537 -0.216823 0.034507 -0.157107 0.161749 0.138024 -0.164998 -0.011600 -0.174702 0.232800 -0.146358 0.001703 -0.000067 0.199898 0.151830 -0.154356 -0.064248 0.064517 -0.080642 -0.250199 0.133836 -0.080560 0.000462 -0.196768 0.197396 0.110230 0.022146 -0.057167 -0.056120 -0.000955 0.039963 -0.255696 -0.042898 -0.295205 0.241260 0.043566 -0.387611 -0.056635 -0.138740 -0.270658 -0.002968 0.020386 -0.058904 0.332426 0.278220 -0.148148 -0.150881 -0.138418 0.069800 0.240085 -0.536790 0.043212 0.187250 0.022772 -0.142882 -0.182960 -0.075450 0.122313 0.119680 -0.119513 0.102721 -0.031528 0.252345 0.077923 -0.270122 -0.200393 0.307187 -0.030351 0.011334 0.052689 -0.442221 0.254505 -0.131961 0.081165 -0.215255 -0.396792 -0.110521 0.120594 0.145598 0.226305 -0.160403 0.226855 0.110741 -0.046155 -0.115626 -0.052687 0.472075 0.061391 0.135062 -0.076833 0.006509 -0.214487 -0.082646 -0.133841 0.073118
57 -0.134151 -0.038483 0.189158 -0.049564 0.127240 0.141968 0.037064 0.022976 -0.091045 -0.146476 0.127273 0.199617 -0.029291 -0.013683 0.108539 -0.108023 0.130929 -0.074056 0.039648 -0.000437 0.002075 -0.121092 0.104272 0.187471 -0.017848 0.287909 0.127666 -0.021556 -0.056873 0.058921 -0.155022 -0.114755 -0.048724 0.013712 -0.032597 0.062302 -0.094012 -0.052036 -0.004002 -0.093322 0.035026 -0.050487 0.010681 0.067453 -0.051240 -0.232038 -0.107775 -0.022834 -0.012876 0.145494 -0.075384 -0.152307 -0.006786 0.146139 -0.081710 -0.146444 -0.026851 0.128715 0.062280 0.025515 -0.295662 0.069674 -0.103380 0.012096 -0.139422 -0.094388 -0.216759 0.099649 -0.150172 -0.272686 -0.001154 -0.143285 -0.029786 0.071709 0.149890 0.075411 0.407120 0.161639 -0.093544 -0.108975 -0.140781 -0.013590 -0.008826 -0.153983 0.261079 0.165399 0.042006 -0.081853 -0.031028 0.062241 -0.109782 0.248511 -0.305955 -0.065355 -0.113156 0.111630 0.073577 0.052618 -0.077462 0.238275 0.086419 0.002015 -0.084352 -0.127110 0.282029 0.015877 -0.053287 -0.230291 -0.117370 0.053786 -0.083546 0.044351 0.101083 -0.081427 0.070616 0.017002 0.002802 0.103867 -0.197976 0.265977 0.111341 0.025522 -0.172153 -0.070822 -0.196931 -0.097450 0.196153 0.084710
3 -0.121415 -0.128367 0.187060 -0.046492 0.068286 0.118828 -0.031436 0.036293 -0.122251 -0.135373 0.185085 0.129021 0.046910 -0.052843 0.087842 -0.211496 0.129154 -0.018177 0.062656 0.076449 -0.020238 -0.162456 0.080040 0.157904 0.034691 0.235433 0.052345 0.001604 0.022981 0.007059 -0.094797 0.047951 -0.067744 0.071273 0.079588 0.136664 -0.062336 0.007017 0.012746 -0.075112 -0.059928 0.020666 -0.016672 0.002532 -0.105619 -0.121343 -0.172977 -0.031236 0.100664 0.097869 -0.013948 -0.061785 -0.001880 0.126987 -0.034458 -0.159928 -0.033469 -0.000133 -0.009429 -0.058862 -0.201036 -0.015118 -0.137947 0.005205 -0.082748 -0.087302 -0.186202 0.035920 -0.144522 -0.130037 -0.026199 -0.090079 -0.123669 0.056663 0.051136 -0.053372 0.345184 0.086261 -0.129313 -0.135856 -0.094977 -0.027062 0.026601 -0.191243 0.232682 0.184892 0.056129 -0.052190 -0.051851 0.096143 -0.098094 0.214616 -0.189821 -0.067148 -0.175801 0.031380 0.040221 0.047701 -0.074350 0.186546 0.101028 -0.053228 -0.152642 -0.048514 0.160847 -0.015314 -0.077510 -0.089325 -0.009721 0.021060 -0.139920 -0.027962 0.068416 -0.225166 0.146205 0.067672 0.056772 0.117091 -0.118849 0.178968 0.034426 0.006216 -0.079421 -0.107924 -0.194535 -0.054091 0.128801 0.030922
31 -0.035420 -0.293611 0.153133 -0.038590 -0.029547 0.064417 -0.048885 -0.037913 -0.225498 -0.196541 0.105277 0.065771 0.240740 -0.243823 0.057540 -0.393843 -0.045885 0.224997 -0.019461 0.164105 -0.115089 -0.345944 0.098519 0.024543 0.091050 0.221492 0.091488 -0.009803 0.117592 0.019963 0.016920 0.321037 0.010258 0.024112 0.139630 0.182427 -0.075102 0.134620 0.069569 -0.168059 -0.230725 0.074778 -0.082816 -0.062072 -0.090097 -0.014308 -0.093004 0.168478 0.340659 0.038866 0.120104 0.051400 -0.128925 0.122083 0.171366 -0.128117 -0.071351 -0.261627 -0.144322 -0.299677 0.176138 -0.103088 -0.180024 -0.214553 -0.210474 -0.018135 -0.319530 -0.051945 -0.113081 0.097854 -0.060541 -0.056383 -0.166278 -0.181651 -0.168577 -0.297598 0.323738 -0.007390 -0.197371 -0.194000 -0.050554 -0.019050 0.175764 -0.350178 0.102413 0.073475 -0.037071 0.032960 -0.093793 0.128181 -0.090889 0.183487 0.006035 -0.011426 -0.181425 -0.035177 0.145668 -0.121035 -0.066678 0.090139 -0.057375 -0.077990 -0.126549 -0.023094 0.042234 -0.081822 0.093928 0.122277 -0.037515 0.049936 -0.187597 -0.118977 -0.064391 -0.386972 0.269162 0.134379 0.088453 -0.012012 0.018265 -0.099937 -0.180872 0.056277 0.138936 -0.141622 -0.240607 -0.112114 -0.186697 0.010453
113 -0.046013 -0.051973 0.121871 -0.204122 -0.067540 0.105462 0.030230 0.019643 -0.193276 -0.102354 -0.043044 0.053354 0.103292 -0.150762 -0.104449 -0.141832 -0.023956 0.182271 0.046821 -0.046007 -0.076078 -0.169951 0.007402 -0.057233 -0.138639 0.204715 0.268694 -0.133927 0.042316 -0.055708 -0.125173 -0.105714 -0.018280 -0.131713 -0.130933 0.050312 -0.116199 0.088820 0.090196 -0.106936 0.002300 -0.113637 0.151895 -0.094277 -0.029833 -0.028846 0.072558 0.058760 -0.109872 -0.019352 0.019075 -0.069135 -0.142692 0.106929 -0.077111 -0.040191 -0.130476 0.153246 0.086169 0.032477 -0.125293 -0.035823 -0.029845 0.054290 -0.158504 -0.055067 -0.199832 0.171586 -0.005607 -0.295003 -0.036617 -0.104211 -0.199268 0.037438 0.045308 -0.021446 0.283271 0.209069 -0.119403 -0.121421 -0.108963 0.042070 0.140198 -0.357165 0.093249 0.174170 0.043353 -0.116535 -0.127878 -0.033490 0.054611 0.123753 -0.136020 0.045827 -0.054591 0.164376 0.038991 -0.141904 -0.141933 0.243667 0.028060 -0.000113 -0.003102 -0.294110 0.205696 -0.068690 0.010673 -0.185134 -0.242963 -0.074205 0.052272 0.102197 0.166915 -0.127728 0.164619 0.069452 -0.023862 -0.029041 -0.079162 0.376427 0.078952 0.078720 -0.102362 -0.015693 -0.171258 -0.055068 -0.024100 0.049889
108 -0.089130 -0.125252 0.135588 -0.156511 -0.039539 0.112017 -0.049776 0.050842 -0.167067 -0.086468 0.096422 0.044605 0.104357 -0.113763 -0.040459 -0.216239 0.060499 0.125196 0.094665 0.057426 -0.042429 -0.163697 0.016480 0.013630 -0.044048 0.192933 0.126773 -0.067461 0.089431 -0.089574 -0.082877 0.036120 -0.072458 -0.012726 0.034287 0.154818 -0.085332 0.084901 0.055557 -0.071015 -0.068500 -0.002584 0.090809 -0.107728 -0.109298 0.014293 -0.088964 -0.009768 0.026357 -0.006037 0.025965 -0.029851 -0.057598 0.120526 -0.076334 -0.093236 -0.087135 0.056404 0.032760 -0.037528 -0.161416 -0.079284 -0.094299 0.073991 -0.081528 -0.082137 -0.159773 0.090122 -0.058867 -0.176581 -0.053222 -0.064577 -0.244881 0.079483 0.011859 -0.081939 0.277869 0.131087 -0.137884 -0.140079 -0.081490 -0.003143 0.099625 -0.290172 0.153500 0.224693 0.080643 -0.096000 -0.104667 0.032498 0.008346 0.141348 -0.120232 -0.000216 -0.156096 0.078259 -0.002040 -0.041094 -0.128507 0.215844 0.113580 -0.064558 -0.115830 -0.156274 0.119018 -0.086705 -0.089689 -0.073026 -0.070166 -0.061137 -0.064501 0.014887 0.140013 -0.266369 0.187112 0.110323 0.037681 0.059977 -0.052970 0.296092 0.039384 0.034310 -0.052983 -0.056245 -0.157408 -0.013682 0.054911 -0.004431
80 -0.028646 -0.310827 0.144998 -0.060713 -0.043726 0.066318 -0.035810 -0.044076 -0.251689 -0.207953 0.070389 0.048357 0.270242 -0.273958 0.038858 -0.409287 -0.075195 0.272926 -0.033462 0.156542 -0.134326 -0.375488 0.101150 -0.004946 0.077918 0.231772 0.123734 -0.038034 0.126616 0.020433 0.024583 0.331962 0.026975 -0.005511 0.115767 0.176015 -0.082098 0.155350 0.083463 -0.183248 -0.241226 0.054057 -0.075006 -0.070737 -0.078611 -0.006404 -0.054127 0.206873 0.354455 0.025783 0.141074 0.052868 -0.162655 0.128530 0.194218 -0.125895 -0.090411 -0.279319 -0.145612 -0.313977 0.219650 -0.113824 -0.172843 -0.233655 -0.237207 -0.005683 -0.343996 -0.042391 -0.097507 0.092080 -0.062256 -0.054655 -0.176038 -0.213571 -0.195772 -0.324380 0.327598 -0.005792 -0.218683 -0.210755 -0.054082 -0.009567 0.208061 -0.394396 0.079885 0.060332 -0.043613 0.037722 -0.105118 0.127298 -0.067546 0.176842 0.019666 0.007690 -0.168316 -0.028940 0.169151 -0.164694 -0.071082 0.086795 -0.080342 -0.072449 -0.108628 -0.043990 0.051259 -0.090660 0.128910 0.124219 -0.075985 0.046513 -0.173287 -0.109679 -0.062898 -0.389858 0.291684 0.139017 0.091318 -0.044637 0.034351 -0.106425 -0.193386 0.069748 0.152320 -0.136537 -0.254615 -0.127886 -0.231171 0.017286
88 -0.108493 -0.164404 0.166715 -0.068306 0.015247 0.114116 -0.075670 0.053003 -0.138083 -0.118491 0.193008 0.091223 0.083304 -0.062753 0.065142 -0.243721 0.126286 0.032249 0.094392 0.108850 -0.023870 -0.169065 0.049492 0.113179 0.025512 0.209718 0.043262 -0.014452 0.072283 -0.044043 -0.072664 0.108825 -0.069742 0.076947 0.116958 0.189220 -0.059437 0.043800 0.026329 -0.073183 -0.105560 0.055701 0.006442 -0.053748 -0.137444 -0.048841 -0.188154 -0.031110 0.127909 0.058045 0.008371 -0.020431 -0.002141 0.126701 -0.028356 -0.147552 -0.040514 -0.024285 -0.015872 -0.085133 -0.170137 -0.061232 -0.144264 0.026516 -0.057880 -0.085784 -0.172834 0.032241 -0.117124 -0.091287 -0.038371 -0.060277 -0.192368 0.063225 0.018286 -0.093025 0.306993 0.082252 -0.153759 -0.153422 -0.061336 -0.027283 0.044645 -0.221671 0.213785 0.211294 0.073946 -0.067427 -0.077705 0.099118 -0.063696 0.175822 -0.144770 -0.053576 -0.197968 0.010323 0.011339 0.029734 -0.091690 0.177071 0.127207 -0.088813 -0.173368 -0.035610 0.101059 -0.054784 -0.111237 -0.044201 0.013542 -0.003104 -0.142863 -0.048611 0.074492 -0.276845 0.164452 0.089250 0.080802 0.118604 -0.086513 0.175282 0.017516 0.009770 -0.037392 -0.113794 -0.169384 -0.020243 0.097616 -0.005943
207 -0.155237 -0.118516 0.203983 -0.042873 0.104231 0.135082 -0.029505 0.049021 -0.098911 -0.129945 0.218259 0.166664 0.003639 -0.002663 0.122934 -0.181186 0.186839 -0.068573 0.082596 0.076565 0.013647 -0.139875 0.087996 0.211794 0.039510 0.264530 0.036537 0.004839 0.000440 0.011869 -0.125071 0.006763 -0.083634 0.099688 0.097464 0.150259 -0.061456 -0.026273 -0.007897 -0.078427 -0.039177 0.031215 -0.010145 0.024271 -0.119566 -0.169645 -0.229484 -0.063308 0.084381 0.121434 -0.052789 -0.097553 0.041827 0.146123 -0.068732 -0.183511 -0.012827 0.037654 0.019573 -0.031155 -0.300725 0.004834 -0.151427 0.031455 -0.073454 -0.110449 -0.192618 0.051247 -0.169494 -0.179257 -0.024078 -0.114055 -0.114503 0.098952 0.098924 -0.000954 0.390231 0.110621 -0.139797 -0.148415 -0.115496 -0.049728 -0.005794 -0.161123 0.294308 0.218765 0.082209 -0.076471 -0.038254 0.112415 -0.116803 0.248673 -0.258145 -0.095746 -0.193985 0.045424 0.034473 0.099764 -0.087931 0.231200 0.152181 -0.064738 -0.173671 -0.039249 0.204652 -0.016715 -0.130617 -0.137262 0.005849 0.033975 -0.158761 -0.025544 0.090076 -0.210579 0.130943 0.051441 0.055688 0.160257 -0.163501 0.233540 0.084449 -0.003509 -0.126916 -0.121175 -0.204969 -0.057578 0.219609 0.041691
164 -0.100449 -0.037692 0.164135 -0.113495 0.045264 0.128324 0.019213 0.037334 -0.128047 -0.118146 0.073988 0.142200 0.019324 -0.051392 0.021325 -0.107966 0.083187 0.016720 0.059422 -0.021975 -0.025228 -0.123795 0.051347 0.092157 -0.065946 0.247420 0.176927 -0.066930 -0.009408 0.000028 -0.144319 -0.125168 -0.045713 -0.036234 -0.066359 0.067971 -0.098229 0.004875 0.034824 -0.082007 0.018328 -0.075881 0.071239 -0.005035 -0.053491 -0.145817 -0.051000 -0.018042 -0.072048 0.074147 -0.038307 -0.114127 -0.050246 0.124581 -0.100194 -0.106091 -0.065912 0.150454 0.081246 0.044159 -0.253256 0.019587 -0.069404 0.056806 -0.117704 -0.087815 -0.185799 0.128715 -0.092568 -0.292360 -0.015969 -0.124319 -0.118460 0.098303 0.117578 0.046062 0.341391 0.186952 -0.109752 -0.112622 -0.129781 0.010266 0.036810 -0.231304 0.199388 0.190334 0.054898 -0.105170 -0.073019 0.023103 -0.043061 0.194796 -0.236065 -0.027524 -0.103238 0.127703 0.036514 -0.014928 -0.107243 0.247526 0.085331 -0.007652 -0.067707 -0.191128 0.253910 -0.022244 -0.056197 -0.219138 -0.158379 -0.007034 -0.035427 0.071042 0.147174 -0.111088 0.107136 0.047869 -0.002896 0.068678 -0.161865 0.332866 0.109489 0.036720 -0.156234 -0.052474 -0.186823 -0.062951 0.136084 0.061042
233 -0.127724 -0.121425 0.196063 0.016198 0.121050 0.116702 0.018845 0.003117 -0.105054 -0.176960 0.157905 0.201647 0.009841 -0.043941 0.174848 -0.180028 0.120489 -0.051774 0.008516 0.066860 -0.011548 -0.176797 0.121993 0.214354 0.061153 0.278108 0.066847 -0.000759 -0.032326 0.091466 -0.103583 0.023375 -0.021871 0.058161 0.045649 0.096771 -0.066802 -0.036224 -0.007954 -0.117809 -0.039778 0.005447 -0.074893 0.084804 -0.066894 -0.224701 -0.160737 0.024124 0.131715 0.162530 -0.033198 -0.109395 0.006104 0.150533 0.020357 -0.158475 -0.012512 -0.020621 -0.016370 -0.091430 -0.169705 0.041048 -0.131122 -0.078664 -0.159914 -0.059059 -0.245263 0.032560 -0.180668 -0.134645 -0.009548 -0.128773 -0.009008 -0.008736 0.059545 -0.012696 0.397599 0.081918 -0.132151 -0.138967 -0.118528 -0.043425 0.000188 -0.153660 0.235395 0.116726 0.004655 -0.018543 -0.017826 0.110434 -0.153825 0.251083 -0.242156 -0.092126 -0.141136 0.044090 0.111034 0.047187 -0.052814 0.171660 0.046777 -0.027514 -0.103744 -0.019277 0.215290 0.004433 -0.014965 -0.126438 -0.054543 0.092169 -0.155506 -0.026155 0.026656 -0.155003 0.099957 0.026832 0.038065 0.113659 -0.164101 0.092707 0.016343 0.016878 -0.082101 -0.111666 -0.212452 -0.111037 0.129799 0.083426
79 -0.092946 -0.177533 0.153027 -0.045374 0.064485 0.087342 -0.010968 -0.005875 -0.161231 -0.156971 0.114793 0.097793 0.110480 -0.122679 0.079363 -0.244361 0.055195 0.078984 0.005156 0.093400 -0.049897 -0.243947 0.101983 0.099482 0.045737 0.245972 0.097604 -0.013728 0.023771 0.048424 -0.049206 0.140610 -0.002727 0.030203 0.066632 0.123760 -0.063048 0.045010 0.035968 -0.136527 -0.101446 0.027255 -0.053202 0.015550 -0.073422 -0.129462 -0.113900 0.099071 0.203303 0.085704 0.016559 -0.044791 -0.056083 0.135821 0.065932 -0.145599 -0.031696 -0.124479 -0.045599 -0.155584 -0.036742 -0.013264 -0.153613 -0.136775 -0.179906 -0.038357 -0.268488 0.001529 -0.118105 -0.045898 -0.041264 -0.085450 -0.088005 -0.093451 -0.032929 -0.124217 0.352314 0.041886 -0.171218 -0.165562 -0.077092 -0.030269 0.100751 -0.240360 0.163181 0.094173 0.013792 -0.014503 -0.065042 0.132045 -0.085509 0.198173 -0.138620 -0.041895 -0.140509 0.016486 0.124171 -0.038692 -0.064618 0.137569 0.004305 -0.056018 -0.100491 -0.039863 0.154275 -0.032853 0.042040 -0.031213 -0.057199 0.056639 -0.145257 -0.056242 -0.000069 -0.219961 0.183012 0.063162 0.052341 0.046113 -0.072421 0.039924 -0.035640 0.044482 -0.004346 -0.125760 -0.218019 -0.095727 -0.009771 0.042602
213 -0.138917 -0.071474 0.208842 0.070048 0.184197 0.136378 0.100830 -0.016860 -0.089454 -0.233664 0.118613 0.306713 -0.052425 -0.026035 0.261352 -0.128446 0.120468 -0.112840 -0.056088 0.024971 0.001076 -0.176457 0.178323 0.286723 0.049586 0.343334 0.130641 -0.020131 -0.118290 0.189972 -0.157149 -0.085851 0.032232 0.005239 -0.049839 0.012762 -0.077847 -0.089649 -0.034165 -0.162599 0.022379 -0.046906 -0.129528 0.183309 -0.012477 -0.381751 -0.111981 0.065647 0.072708 0.252764 -0.076550 -0.206606 -0.003192 0.173833 0.031654 -0.157600 -0.008223 0.019353 -0.011668 -0.072322 -0.186602 0.141999 -0.089769 -0.147999 -0.271069 -0.033200 -0.329743 0.069494 -0.213749 -0.211038 0.024113 -0.190907 0.124680 -0.037654 0.115769 0.083045 0.482951 0.119012 -0.141593 -0.128119 -0.186986 -0.053180 -0.053171 -0.135499 0.256115 0.053253 -0.047735 0.003688 0.014039 0.088921 -0.214148 0.296720 -0.336512 -0.107766 -0.086932 0.096659 0.178899 0.041664 -0.036126 0.205770 -0.015737 0.027716 -0.011122 -0.042114 0.325697 0.042617 0.046658 -0.225459 -0.154662 0.162327 -0.131818 0.004992 0.017038 -0.041833 0.034498 -0.026818 0.008325 0.116435 -0.239813 0.077808 0.052370 0.024241 -0.127160 -0.101668 -0.247584 -0.177329 0.152910 0.158166
128 -0.040176 -0.071494 0.131949 -0.298690 -0.135335 0.122706 0.067867 0.004971 -0.283499 -0.145597 -0.134111 0.070892 0.160182 -0.253504 -0.172547 -0.186819 -0.078629 0.332705 0.039513 -0.084649 -0.125584 -0.250101 -0.000031 -0.143736 -0.211123 0.266728 0.439601 -0.226167 0.076106 -0.077077 -0.170212 -0.168624 0.008858 -0.240167 -0.230422 0.028112 -0.159147 0.150635 0.135884 -0.169199 -0.000010 -0.181929 0.232279 -0.140360 -0.003663 -0.025089 0.187249 0.133211 -0.175328 -0.048700 0.052986 -0.100838 -0.244484 0.144106 -0.094681 -0.006602 -0.201152 0.222446 0.116791 0.036616 -0.095048 -0.046356 0.001152 0.049161 -0.261244 -0.049398 -0.301945 0.261706 0.027763 -0.423062 -0.050368 -0.150670 -0.273316 0.024055 0.042123 -0.036506 0.364251 0.300478 -0.158236 -0.163978 -0.155725 0.071083 0.226361 -0.538580 0.066463 0.202898 0.023231 -0.155650 -0.186100 -0.083621 0.104971 0.131888 -0.146657 0.094490 -0.033714 0.265945 0.080386 -0.252785 -0.198989 0.325856 -0.021818 0.012312 0.051647 -0.443460 0.278219 -0.123111 0.066108 -0.246144 -0.405750 -0.103386 0.123244 0.157094 0.233124 -0.158863 0.220162 0.105710 -0.051084 -0.095869 -0.070238 0.503839 0.082368 0.127413 -0.098601 0.006343 -0.226947 -0.081937 -0.104524 0.081909
82 -0.031356 -0.095328 0.144931 -0.335771 -0.160535 0.128786 0.076280 -0.010369 -0.327654 -0.158311 -0.167732 0.068877 0.197062 -0.300512 -0.202280 -0.214963 -0.114114 0.398768 0.027760 -0.085119 -0.141876 -0.299731 0.009875 -0.177628 -0.234225 0.288667 0.496937 -0.249765 0.089805 -0.086073 -0.170595 -0.162499 0.020314 -0.276650 -0.250594 0.033915 -0.178488 0.185065 0.161787 -0.200593 -0.009076 -0.197042 0.254884 -0.158294 0.005229 -0.019161 0.228281 0.183426 -0.172977 -0.062611 0.075171 -0.094856 -0.288561 0.154396 -0.078048 -0.002524 -0.216644 0.220613 0.119708 0.021377 -0.064139 -0.061146 -0.001467 0.027362 -0.306023 -0.042423 -0.346066 0.280440 0.038380 -0.446837 -0.067303 -0.168675 -0.299280 -0.009225 0.023284 -0.062489 0.396151 0.325317 -0.174023 -0.184609 -0.163882 0.081088 0.273013 -0.608753 0.051273 0.204476 0.014711 -0.163589 -0.206315 -0.087546 0.126327 0.141781 -0.143696 0.116835 -0.032656 0.290617 0.102297 -0.306140 -0.223215 0.347529 -0.041285 0.012000 0.067520 -0.491767 0.290675 -0.142063 0.095822 -0.252050 -0.458109 -0.111049 0.139269 0.166723 0.251813 -0.177011 0.260277 0.117495 -0.059291 -0.128054 -0.066794 0.529435 0.066037 0.151331 -0.087268 0.002278 -0.249602 -0.103583 -0.152150 0.091395
217 -0.032284 -0.099621 0.137951 -0.349470 -0.177438 0.127742 0.067411 -0.010407 -0.342497 -0.163602 -0.175113 0.054116 0.218531 -0.319836 -0.217814 -0.236979 -0.124021 0.426670 0.030910 -0.086660 -0.157102 -0.311408 -0.002926 -0.197967 -0.242010 0.292894 0.506546 -0.261144 0.108810 -0.094050 -0.172085 -0.147563 0.020368 -0.279616 -0.255551 0.036960 -0.186049 0.195659 0.167060 -0.205475 -0.019930 -0.203741 0.264687 -0.177239 0.003866 0.004746 0.239991 0.189228 -0.169838 -0.075129 0.083996 -0.092521 -0.297037 0.158624 -0.077042 0.004832 -0.230268 0.216553 0.119842 0.009917 -0.048854 -0.075423 -0.001982 0.023635 -0.315226 -0.044903 -0.355596 0.283610 0.046467 -0.449808 -0.072455 -0.163614 -0.323003 -0.014828 0.008609 -0.082888 0.398692 0.329870 -0.185397 -0.188729 -0.164295 0.088341 0.290645 -0.641901 0.046433 0.209647 0.012561 -0.168160 -0.218159 -0.093519 0.140343 0.140324 -0.134876 0.127922 -0.037484 0.296891 0.096758 -0.324305 -0.231335 0.353923 -0.051319 0.012189 0.066704 -0.508984 0.288028 -0.158417 0.100628 -0.247216 -0.470178 -0.121560 0.143335 0.167717 0.256744 -0.197395 0.275912 0.130269 -0.061337 -0.140472 -0.056349 0.542044 0.056636 0.156717 -0.077784 0.007757 -0.259286 -0.099787 -0.174803 0.083088
219 -0.000185 -0.114844 0.099934 -0.284585 -0.157330 0.097643 0.065125 -0.031088 -0.302514 -0.158462 -0.167769 0.030267 0.214424 -0.303346 -0.190855 -0.229801 -0.146173 0.408412 -0.005910 -0.053889 -0.148463 -0.303992 0.007225 -0.200876 -0.186646 0.242506 0.442448 -0.218341 0.109136 -0.067464 -0.108196 -0.065337 0.041382 -0.253096 -0.205527 0.028621 -0.151827 0.191430 0.151135 -0.188735 -0.044737 -0.159765 0.198247 -0.148528 0.021522 0.017730 0.229190 0.223188 -0.079517 -0.067640 0.101280 -0.056343 -0.284007 0.128370 -0.015798 0.016406 -0.198866 0.112708 0.072239 -0.050412 0.047596 -0.067011 -0.012235 -0.044490 -0.304747 -0.007331 -0.320818 0.217921 0.051172 -0.312170 -0.070308 -0.129953 -0.254263 -0.087816 -0.036298 -0.116534 0.323167 0.240401 -0.159499 -0.171103 -0.126843 0.072588 0.281389 -0.557472 -0.002026 0.136604 -0.013222 -0.115629 -0.192570 -0.065755 0.121716 0.112811 -0.068764 0.123339 -0.015846 0.234325 0.121283 -0.309963 -0.188834 0.260989 -0.095460 0.009154 0.065574 -0.412934 0.212820 -0.145345 0.142475 -0.157211 -0.402791 -0.088306 0.118651 0.114391 0.172011 -0.171098 0.250541 0.112640 -0.052676 -0.150279 -0.005319 0.371505 0.006111 0.151718 -0.019909 0.006902 -0.224234 -0.097625 -0.217534 0.072578
188 -0.135972 -0.049383 0.206759 -0.030515 0.149624 0.142231 0.044638 0.014705 -0.087052 -0.161349 0.145509 0.207612 -0.027648 -0.018161 0.136255 -0.110935 0.132943 -0.086148 0.033026 0.006200 0.000285 -0.133257 0.115357 0.209348 0.001863 0.301362 0.115052 -0.016395 -0.065168 0.080656 -0.142203 -0.098553 -0.049428 0.026455 -0.021577 0.060745 -0.098191 -0.052861 -0.004080 -0.102179 0.023140 -0.038321 -0.007756 0.082370 -0.047153 -0.258080 -0.124577 -0.007156 0.023297 0.163378 -0.063881 -0.156986 -0.004425 0.155298 -0.057436 -0.154587 -0.013490 0.100971 0.052322 -0.003040 -0.278052 0.068500 -0.117699 -0.019227 -0.154729 -0.092278 -0.226902 0.092219 -0.161881 -0.254642 -0.007516 -0.148315 -0.015479 0.055747 0.145821 0.064620 0.429211 0.153657 -0.097572 -0.124160 -0.140208 -0.015987 -0.020594 -0.142805 0.271169 0.154387 0.030784 -0.074886 -0.018924 0.073418 -0.133739 0.261052 -0.312894 -0.073267 -0.114951 0.096070 0.088941 0.053621 -0.071795 0.239472 0.076676 0.000563 -0.096067 -0.107023 0.296589 0.018759 -0.049100 -0.229393 -0.110528 0.070321 -0.108172 0.034598 0.083740 -0.085914 0.070854 0.019188 -0.003655 0.109951 -0.200594 0.233578 0.091624 0.032743 -0.165531 -0.083197 -0.209475 -0.108322 0.193144 0.094460
200 -0.081231 -0.210890 0.150619 -0.052872 0.014967 0.081798 -0.049006 0.006695 -0.168369 -0.151071 0.129958 0.074331 0.142122 -0.140487 0.066936 -0.286065 0.042423 0.113065 0.024603 0.119812 -0.056899 -0.248800 0.084232 0.078497 0.054771 0.212333 0.064369 -0.014574 0.065928 0.008462 -0.031695 0.187509 -0.021650 0.045235 0.108453 0.160006 -0.063866 0.072404 0.040155 -0.119437 -0.141834 0.052276 -0.047580 -0.035495 -0.101188 -0.061122 -0.136524 0.075082 0.222735 0.059913 0.051664 -0.003575 -0.052653 0.124916 0.064477 -0.134444 -0.050770 -0.141961 -0.068318 -0.173382 -0.007579 -0.054021 -0.146823 -0.103220 -0.141485 -0.039129 -0.244213 -0.007602 -0.114449 -0.006403 -0.052324 -0.059749 -0.145719 -0.065976 -0.067403 -0.170250 0.311819 0.028935 -0.173650 -0.163944 -0.063167 -0.025590 0.105949 -0.251158 0.150933 0.122604 0.021189 -0.009459 -0.077439 0.117859 -0.073271 0.171435 -0.081134 -0.039238 -0.170983 -0.006576 0.086741 -0.040780 -0.074162 0.130610 0.031583 -0.071066 -0.127642 -0.023221 0.094670 -0.058431 0.008157 0.023957 -0.019342 0.031587 -0.152657 -0.076499 -0.000873 -0.292171 0.199791 0.090438 0.079419 0.053924 -0.039506 0.033256 -0.059267 0.030875 0.032662 -0.121698 -0.200933 -0.073178 -0.025178 0.012989
172 -0.096314 -0.122409 0.163453 -0.067086 0.045312 0.102492 -0.027556 0.027125 -0.121671 -0.119771 0.148936 0.110537 0.072073 -0.065718 0.053215 -0.204035 0.089705 0.028580 0.052987 0.072630 -0.032994 -0.173855 0.068230 0.108276 0.009224 0.222886 0.078025 -0.016005 0.031084 -0.007106 -0.081456 0.052634 -0.054234 0.049543 0.063340 0.133349 -0.063236 0.030722 0.028288 -0.083046 -0.067543 0.015491 -0.000296 -0.019565 -0.086843 -0.094163 -0.145824 -0.006251 0.099429 0.075383 0.000296 -0.049346 -0.018146 0.118811 -0.028019 -0.142101 -0.047213 -0.007045 -0.006859 -0.072445 -0.164198 -0.036900 -0.128943 -0.008318 -0.099714 -0.083590 -0.196137 0.045255 -0.128075 -0.127694 -0.042713 -0.089774 -0.144518 0.042379 0.032670 -0.061436 0.333991 0.092354 -0.139750 -0.142076 -0.094382 -0.015215 0.050683 -0.220110 0.209961 0.176845 0.050589 -0.060033 -0.056162 0.082554 -0.076269 0.203682 -0.168513 -0.043778 -0.154711 0.033548 0.046307 0.008548 -0.083729 0.184986 0.088649 -0.050872 -0.136678 -0.078880 0.151616 -0.032336 -0.052696 -0.081210 -0.037289 0.014864 -0.122479 -0.019255 0.068172 -0.220486 0.153807 0.062249 0.044382 0.085785 -0.106997 0.172846 0.023584 0.029329 -0.060985 -0.095812 -0.190401 -0.057565 0.084650 0.021919
150 -0.025225 -0.325342 0.152433 -0.074985 -0.051206 0.064798 -0.053926 -0.048273 -0.261351 -0.210883 0.082244 0.035632 0.283126 -0.291392 0.026851 -0.433899 -0.074547 0.292664 -0.027831 0.170978 -0.144290 -0.393194 0.103963 -0.018758 0.076287 0.235044 0.124607 -0.031650 0.139628 0.011514 0.030392 0.359119 0.026833 0.001973 0.138310 0.194625 -0.088611 0.170192 0.093624 -0.190193 -0.260925 0.067804 -0.069102 -0.084216 -0.083422 0.006690 -0.064222 0.217477 0.376177 0.011220 0.152996 0.067915 -0.170495 0.130909 0.197856 -0.128786 -0.086706 -0.297185 -0.149076 -0.326773 0.223442 -0.125613 -0.189412 -0.242540 -0.238460 -0.012291 -0.349044 -0.050716 -0.098889 0.110409 -0.075967 -0.052554 -0.203559 -0.223466 -0.209941 -0.347901 0.331322 -0.001789 -0.225080 -0.222260 -0.048186 -0.004615 0.229621 -0.412364 0.076805 0.071098 -0.042682 0.031784 -0.116117 0.141434 -0.063610 0.178563 0.024767 0.010686 -0.177299 -0.033735 0.170504 -0.167711 -0.075761 0.089678 -0.075063 -0.087563 -0.124080 -0.046970 0.041611 -0.099159 0.132905 0.143174 -0.069139 0.042110 -0.177455 -0.116960 -0.066009 -0.422249 0.311780 0.152867 0.094745 -0.048279 0.044463 -0.107732 -0.207487 0.079676 0.170880 -0.146631 -0.258498 -0.121586 -0.248302 0.008348
112 -0.123707 -0.175906 0.185909 -0.061054 0.047972 0.112248 -0.060032 0.046880 -0.128287 -0.127696 0.205416 0.104480 0.069564 -0.058865 0.089529 -0.242191 0.143750 0.014585 0.084854 0.119717 -0.016691 -0.183475 0.075318 0.139883 0.047751 0.230623 0.029292 0.008533 0.051122 -0.022325 -0.073116 0.105547 -0.075020 0.102900 0.137832 0.189629 -0.051879 0.027547 0.010295 -0.089620 -0.105550 0.058249 -0.015664 -0.018918 -0.134383 -0.091314 -0.215560 -0.021032 0.161198 0.071320 -0.007807 -0.031482 0.015602 0.135054 -0.018473 -0.165850 -0.021210 -0.044360 -0.020285 -0.095327 -0.184915 -0.048765 -0.168154 -0.000363 -0.066961 -0.096805 -0.194566 0.018701 -0.144508 -0.090820 -0.043983 -0.079542 -0.169225 0.047533 0.013941 -0.086253 0.348599 0.070791 -0.150967 -0.163060 -0.073930 -0.047114 0.049198 -0.199482 0.245050 0.203974 0.079246 -0.052128 -0.065515 0.123786 -0.091811 0.211332 -0.172129 -0.069536 -0.208547 0.010282 0.033856 0.060396 -0.082923 0.186270 0.122714 -0.086999 -0.179746 -0.017647 0.131186 -0.042983 -0.100421 -0.049821 0.031384 0.013816 -0.164801 -0.063779 0.059555 -0.285952 0.173745 0.079653 0.077286 0.127521 -0.102031 0.153785 0.011566 0.007105 -0.041914 -0.133021 -0.197113 -0.043978 0.125316 0.008986
115 -0.109782 -0.126808 0.177038 -0.114635 0.016189 0.123596 -0.053991 0.053519 -0.141373 -0.105725 0.154561 0.085136 0.069077 -0.067624 0.022486 -0.207655 0.106783 0.035082 0.098648 0.060401 -0.027837 -0.153059 0.047972 0.094686 -0.013148 0.216789 0.078111 -0.030471 0.053440 -0.047060 -0.103419 0.029762 -0.080067 0.037228 0.064222 0.161812 -0.074669 0.037452 0.028635 -0.064906 -0.062997 0.012324 0.043709 -0.056112 -0.119437 -0.055960 -0.156279 -0.049232 0.046174 0.045914 -0.009525 -0.053787 -0.010733 0.130315 -0.074547 -0.141372 -0.066392 0.045987 0.027158 -0.023215 -0.221786 -0.052058 -0.117853 0.064185 -0.066605 -0.094088 -0.164735 0.069993 -0.114199 -0.175006 -0.047650 -0.082476 -0.202455 0.094416 0.049090 -0.049203 0.317628 0.118483 -0.146971 -0.145300 -0.096438 -0.017578 0.057454 -0.231940 0.211483 0.230379 0.094029 -0.082349 -0.085229 0.067220 -0.045701 0.184602 -0.170028 -0.047112 -0.173555 0.049509 0.002018 0.022702 -0.112148 0.217053 0.145718 -0.068170 -0.147488 -0.110244 0.154646 -0.042414 -0.112313 -0.103468 -0.032372 -0.032467 -0.106316 0.000119 0.113924 -0.253336 0.172140 0.086831 0.053067 0.111517 -0.105534 0.274219 0.063500 0.014987 -0.095095 -0.090505 -0.178735 -0.030276 0.125450 0.009165
126 -0.098557 -0.187427 0.153113 -0.091494 -0.011764 0.112028 -0.095861 0.054217 -0.156120 -0.113682 0.178227 0.063494 0.126852 -0.094484 0.027667 -0.282207 0.102006 0.081999 0.103781 0.119504 -0.036984 -0.185889 0.042194 0.063764 0.021570 0.194930 0.051369 -0.012228 0.100185 -0.073794 -0.055980 0.142768 -0.072973 0.073016 0.131184 0.204587 -0.067145 0.076832 0.037131 -0.075898 -0.132516 0.065519 0.020155 -0.090582 -0.147736 0.000891 -0.177769 -0.016228 0.155161 0.027348 0.029012 0.005484 -0.022947 0.121043 -0.026851 -0.138177 -0.053523 -0.038088 -0.025312 -0.111951 -0.134675 -0.092265 -0.149469 0.020399 -0.049445 -0.089080 -0.177336 0.024920 -0.103842 -0.066960 -0.056469 -0.046278 -0.238918 0.057651 -0.011655 -0.139251 0.295621 0.077393 -0.154805 -0.150548 -0.057728 -0.020269 0.078767 -0.262740 0.194387 0.223637 0.083801 -0.065541 -0.095765 0.097296 -0.045219 0.164417 -0.105140 -0.037729 -0.211014 0.005738 0.006791 0.002274 -0.104910 0.174406 0.118227 -0.096724 -0.186885 -0.056523 0.076949 -0.070782 -0.111806 0.000349 0.020044 -0.030315 -0.149310 -0.053400 0.078832 -0.328272 0.194446 0.117655 0.089041 0.098478 -0.046555 0.178896 -0.004732 0.018355 -0.008568 -0.110717 -0.180990 -0.018692 0.061835 -0.023908
193 -0.052205 -0.244478 0.151603 -0.045452 -0.021243 0.077331 -0.053655 -0.005294 -0.187017 -0.169157 0.126521 0.071288 0.194318 -0.186315 0.051142 -0.344042 0.000168 0.159386 0.009980 0.141766 -0.085310 -0.287627 0.086157 0.040521 0.069111 0.212942 0.075432 -0.007069 0.104399 -0.000235 -0.008089 0.248030 -0.017146 0.036843 0.127264 0.174719 -0.070030 0.106592 0.046737 -0.127733 -0.191141 0.068516 -0.058629 -0.062254 -0.098810 -0.022324 -0.114651 0.104052 0.274129 0.038611 0.092775 0.032399 -0.092128 0.120795 0.100976 -0.126408 -0.067649 -0.180350 -0.103788 -0.230754 0.066589 -0.093498 -0.162121 -0.135465 -0.150557 -0.038348 -0.265692 -0.024008 -0.112411 0.045112 -0.056548 -0.053384 -0.167683 -0.097184 -0.109107 -0.235867 0.303079 0.017505 -0.171901 -0.167128 -0.054318 -0.019471 0.138062 -0.305266 0.131759 0.111472 -0.001809 0.008442 -0.079383 0.112895 -0.078638 0.172362 -0.039037 -0.025297 -0.179064 -0.023509 0.105378 -0.074406 -0.071216 0.104376 -0.000828 -0.074287 -0.137887 -0.023952 0.055690 -0.074013 0.026983 0.075121 -0.020822 0.028979 -0.170440 -0.088692 -0.018775 -0.348680 0.229594 0.115980 0.085425 0.018526 -0.004972 -0.020456 -0.119298 0.043216 0.088958 -0.119171 -0.213288 -0.087078 -0.095994 0.001577
181 -0.015617 -0.279069 0.128990 -0.095166 -0.080490 0.056671 -0.033760 -0.038021 -0.250652 -0.185246 0.041152 0.034094 0.265415 -0.278390 -0.000116 -0.382574 -0.090361 0.291547 -0.027474 0.133276 -0.140176 -0.353633 0.080612 -0.050068 0.041514 0.206375 0.151288 -0.059291 0.134045 -0.006672 0.015554 0.281021 0.028460 -0.038100 0.080411 0.154958 -0.082054 0.165911 0.090458 -0.167560 -0.218354 0.033732 -0.033826 -0.097339 -0.069441 0.022032 -0.017502 0.201217 0.285617 0.000721 0.139557 0.055246 -0.171207 0.118783 0.163528 -0.092981 -0.103483 -0.220095 -0.118928 -0.275304 0.208184 -0.118075 -0.147382 -0.196261 -0.225494 -0.009662 -0.315936 -0.013091 -0.070272 0.061482 -0.065132 -0.055161 -0.199011 -0.191534 -0.180944 -0.303425 0.295263 0.023705 -0.201669 -0.196807 -0.053504 0.004705 0.220436 -0.407328 0.053783 0.072458 -0.038603 0.018421 -0.121505 0.094312 -0.036528 0.147830 0.030174 0.024372 -0.145639 0.000685 0.145026 -0.184360 -0.084475 0.090672 -0.073878 -0.067265 -0.089276 -0.086135 0.044837 -0.104389 0.121003 0.103253 -0.108174 0.013151 -0.130586 -0.081549 -0.032065 -0.364892 0.282164 0.138942 0.073728 -0.063154 0.044303 -0.050294 -0.171691 0.080317 0.142219 -0.117488 -0.234704 -0.111755 -0.236058 0.011881
40 -0.051353 -0.215361 0.123563 -0.084013 -0.009314 0.069244 -0.000340 -0.037724 -0.220243 -0.180486 0.025396 0.057167 0.184707 -0.223044 0.015532 -0.298249 -0.043212 0.219179 -0.034026 0.085220 -0.095171 -0.305324 0.093334 -0.003164 0.020779 0.228879 0.170404 -0.058659 0.063033 0.030409 -0.018712 0.184682 0.035934 -0.036144 0.033546 0.108780 -0.088558 0.113651 0.078808 -0.173404 -0.152667 0.006027 -0.024267 -0.027718 -0.045333 -0.068945 -0.009174 0.190001 0.226459 0.036656 0.077966 -0.010556 -0.147589 0.127551 0.130150 -0.099536 -0.073107 -0.166390 -0.065809 -0.208848 0.117161 -0.040539 -0.135384 -0.193222 -0.243903 -0.004951 -0.316281 0.012233 -0.064393 -0.011468 -0.056364 -0.081876 -0.124283 -0.183206 -0.108691 -0.207311 0.326134 0.044544 -0.182249 -0.181344 -0.066316 -0.006686 0.182857 -0.341058 0.083917 0.057957 -0.024801 -0.002569 -0.105868 0.105815 -0.045792 0.154531 -0.054283 0.007860 -0.105379 0.039967 0.160237 -0.148687 -0.075468 0.115088 -0.070805 -0.047994 -0.045670 -0.098668 0.123023 -0.073175 0.132801 0.014620 -0.133769 0.037495 -0.097776 -0.054153 -0.018054 -0.247883 0.226929 0.091006 0.044453 -0.048540 -0.002440 -0.000884 -0.098094 0.083185 0.070256 -0.107722 -0.225175 -0.112552 -0.156523 0.043279
52 -0.019247 -0.149003 0.107839 -0.226493 -0.121627 0.080568 0.030972 -0.028814 -0.273519 -0.159871 -0.092975 0.024037 0.215477 -0.272066 -0.137162 -0.267058 -0.105256 0.354816 -0.005644 0.001792 -0.126439 -0.303117 0.025190 -0.145597 -0.124708 0.231207 0.337468 -0.154581 0.108371 -0.050967 -0.069275 0.041103 0.040138 -0.165482 -0.107650 0.071478 -0.130959 0.169113 0.131154 -0.174216 -0.084433 -0.089771 0.123007 -0.121417 -0.010171 0.009983 0.137684 0.203473 0.024795 -0.047716 0.096170 -0.031613 -0.226213 0.117261 0.030240 -0.019975 -0.153434 0.007517 0.018643 -0.106481 0.069074 -0.064997 -0.056695 -0.082833 -0.268198 -0.005395 -0.299915 0.145563 0.012136 -0.191131 -0.069059 -0.098762 -0.224530 -0.105861 -0.066452 -0.158899 0.300138 0.161435 -0.166016 -0.169874 -0.089016 0.044364 0.247510 -0.478499 0.023932 0.114297 -0.005423 -0.072180 -0.166044 -0.001383 0.082846 0.112031 -0.047485 0.080394 -0.055035 0.149425 0.117062 -0.248226 -0.157162 0.209786 -0.071613 -0.011158 0.021881 -0.294842 0.163189 -0.121764 0.131838 -0.076322 -0.297395 -0.050463 0.043822 0.051780 0.113465 -0.207198 0.239640 0.111976 -0.016511 -0.107372 0.002413 0.242921 -0.029995 0.119554 0.011681 -0.029191 -0.204008 -0.088363 -0.201548 0.045930
174 -0.143311 -0.069789 0.211734 0.005631 0.142367 0.140671 0.042046 0.007703 -0.092264 -0.183392 0.159004 0.234326 -0.028131 -0.015460 0.177098 -0.141816 0.139627 -0.095807 0.012880 0.026743 0.002663 -0.153293 0.128231 0.239707 0.028460 0.306473 0.100966 -0.009565 -0.071601 0.102930 -0.147384 -0.066641 -0.030734 0.042814 0.001776 0.069099 -0.076246 -0.065542 -0.012835 -0.114559 0.010167 -0.032602 -0.052953 0.104855 -0.055314 -0.275754 -0.148874 -0.001845 0.058516 0.185021 -0.064738 -0.151950 0.009797 0.159102 -0.028578 -0.170804 -0.016711 0.050987 0.021175 -0.032492 -0.251673 0.075899 -0.116157 -0.046611 -0.168867 -0.072315 -0.249853 0.065374 -0.191294 -0.218607 -0.003836 -0.155369 0.012146 0.033407 0.117783 0.050400 0.431808 0.125196 -0.125912 -0.129189 -0.151183 -0.036091 -0.024696 -0.148409 0.270462 0.133228 0.012023 -0.041999 -0.012886 0.093457 -0.155473 0.274416 -0.302209 -0.094468 -0.121342 0.079648 0.103291 0.063718 -0.059981 0.215816 0.067113 -0.001258 -0.088980 -0.060816 0.277107 0.027308 -0.028221 -0.202170 -0.094600 0.090173 -0.134127 0.009248 0.063424 -0.101933 0.078441 0.001057 0.016075 0.122378 -0.208486 0.169202 0.079095 0.014803 -0.139893 -0.097937 -0.218500 -0.118257 0.183238 0.106111
205 -0.116774 -0.171126 0.181739 -0.074188 0.025885 0.114954 -0.079376 0.053110 -0.135492 -0.114317 0.210451 0.094140 0.084402 -0.062737 0.058598 -0.255882 0.133837 0.028996 0.092148 0.118420 -0.026263 -0.182376 0.059460 0.120008 0.036798 0.223914 0.030205 -0.001794 0.070430 -0.045906 -0.077437 0.110775 -0.084523 0.090506 0.137982 0.195983 -0.055546 0.039389 0.017138 -0.071402 -0.102610 0.058732 -0.001557 -0.054160 -0.144650 -0.056907 -0.212375 -0.042687 0.143347 0.058114 0.008205 -0.016859 0.009076 0.129364 -0.040531 -0.158406 -0.044538 -0.025927 -0.014753 -0.092839 -0.188652 -0.068181 -0.154245 0.024805 -0.048756 -0.100532 -0.182716 0.019620 -0.138863 -0.097291 -0.047278 -0.070138 -0.204401 0.073782 0.014819 -0.105437 0.326364 0.075309 -0.155362 -0.151646 -0.075003 -0.037100 0.052726 -0.230183 0.236304 0.222787 0.086205 -0.065659 -0.070415 0.111866 -0.078243 0.202702 -0.154022 -0.060679 -0.213603 0.011297 0.013920 0.045189 -0.098689 0.195242 0.137011 -0.093505 -0.196988 -0.039744 0.118607 -0.054515 -0.120964 -0.040034 0.033598 -0.003713 -0.161223 -0.052611 0.077909 -0.314087 0.186420 0.094883 0.086790 0.121994 -0.086979 0.187067 0.017665 0.007585 -0.045333 -0.125846 -0.196515 -0.030068 0.119995 0.001176
196 -0.121332 -0.076956 0.177857 -0.036885 0.086054 0.118901 0.033948 0.014551 -0.113619 -0.151315 0.115155 0.190096 -0.001292 -0.040863 0.118932 -0.141052 0.109400 -0.029429 0.017903 0.020813 -0.011006 -0.152202 0.097263 0.172107 0.000059 0.268467 0.129105 -0.039944 -0.040180 0.059990 -0.133644 -0.063637 -0.026447 0.006147 -0.017911 0.067047 -0.075487 -0.024973 0.006620 -0.106691 -0.001417 -0.036106 -0.013179 0.058871 -0.048506 -0.206215 -0.106889 0.002964 0.017505 0.132868 -0.045160 -0.129618 -0.015106 0.142086 -0.033437 -0.131332 -0.037721 0.068793 0.025095 -0.018545 -0.213326 0.043240 -0.086020 -0.017975 -0.154227 -0.060687 -0.228151 0.083911 -0.141763 -0.218095 -0.011304 -0.137855 -0.035022 0.040910 0.095612 0.029526 0.377368 0.130103 -0.121269 -0.118899 -0.139817 -0.023513 0.010707 -0.187322 0.220396 0.145119 0.017002 -0.047687 -0.030951 0.062939 -0.105233 0.226436 -0.243317 -0.071987 -0.115440 0.090426 0.085240 0.024249 -0.078880 0.213842 0.058785 -0.009010 -0.067883 -0.100121 0.235851 -0.006778 -0.028136 -0.178514 -0.108304 0.048524 -0.093433 0.023020 0.080406 -0.113610 0.093346 0.021453 0.017923 0.090772 -0.166395 0.204684 0.070914 0.026743 -0.117950 -0.079345 -0.192535 -0.094038 0.134734 0.085979
163 -0.097724 -0.125670 0.164767 -0.110125 -0.001768 0.108684 -0.052107 0.052329 -0.136545 -0.102796 0.143179 0.087000 0.076029 -0.071047 0.009992 -0.208489 0.101833 0.052685 0.090859 0.069440 -0.026858 -0.153886 0.038603 0.078750 -0.012046 0.202739 0.083732 -0.032815 0.055959 -0.060111 -0.094833 0.027806 -0.072025 0.038914 0.062284 0.146834 -0.069131 0.044107 0.032343 -0.065015 -0.064835 0.010573 0.049801 -0.067627 -0.114551 -0.039921 -0.146382 -0.042832 0.049609 0.035803 0.003116 -0.040550 -0.014866 0.110979 -0.070281 -0.120302 -0.061347 0.051039 0.018329 -0.029281 -0.197524 -0.055839 -0.114307 0.061662 -0.056751 -0.091045 -0.161847 0.067578 -0.105362 -0.158924 -0.043240 -0.079304 -0.202314 0.093493 0.042545 -0.056089 0.295079 0.122431 -0.129565 -0.133707 -0.082953 -0.013630 0.064526 -0.238797 0.199421 0.223000 0.079072 -0.082806 -0.084520 0.062161 -0.038591 0.170484 -0.146776 -0.035173 -0.168282 0.049582 -0.000530 0.011417 -0.108857 0.205874 0.128658 -0.062599 -0.138655 -0.104469 0.126408 -0.051240 -0.107161 -0.087904 -0.033373 -0.034611 -0.094646 -0.007701 0.113780 -0.241234 0.159012 0.078498 0.048779 0.089720 -0.086765 0.253414 0.046942 0.020703 -0.069265 -0.083098 -0.164022 -0.021591 0.102511 0.004407
194 -0.103464 -0.143436 0.163819 -0.078990 0.019201 0.112323 -0.055461 0.046583 -0.126141 -0.113880 0.165047 0.097154 0.077079 -0.065896 0.050435 -0.220219 0.114844 0.032741 0.081811 0.085153 -0.023789 -0.167148 0.054774 0.104176 0.018761 0.208812 0.053846 -0.016197 0.054400 -0.034856 -0.083597 0.064861 -0.071737 0.059767 0.089200 0.156599 -0.057493 0.031012 0.020396 -0.069935 -0.078311 0.031311 0.012025 -0.040320 -0.118694 -0.060703 -0.170733 -0.031737 0.092721 0.058578 0.003096 -0.034341 -0.003580 0.117390 -0.044756 -0.140387 -0.048775 0.001347 -0.005821 -0.062154 -0.178349 -0.048680 -0.127937 0.029218 -0.055951 -0.084164 -0.169201 0.033980 -0.119715 -0.112462 -0.041441 -0.072615 -0.171237 0.068133 0.023868 -0.077148 0.304022 0.085075 -0.140583 -0.136041 -0.080731 -0.027305 0.052243 -0.218919 0.206720 0.200687 0.069183 -0.060003 -0.071524 0.086306 -0.064183 0.184213 -0.149261 -0.050179 -0.182009 0.029793 0.015474 0.027746 -0.091606 0.183441 0.113134 -0.073007 -0.152032 -0.057782 0.120442 -0.043792 -0.098359 -0.056604 -0.005374 -0.008253 -0.128675 -0.029837 0.081764 -0.259221 0.166327 0.078588 0.061709 0.105640 -0.091267 0.194007 0.028198 0.011247 -0.054772 -0.100952 -0.175192 -0.033695 0.101918 0.006797
28 -0.118446 -0.150539 0.201340 -0.100236 0.015327 0.125620 -0.077224 0.068150 -0.147492 -0.109229 0.226690 0.085863 0.100866 -0.041621 0.047280 -0.248545 0.135747 0.005211 0.111589 0.095231 -0.042903 -0.176579 0.047619 0.128136 -0.001995 0.231517 0.042733 -0.026858 0.061198 -0.060532 -0.102897 0.080514 -0.086492 0.093700 0.104891 0.187900 -0.042508 0.031744 0.038742 -0.049362 -0.077339 0.020949 0.009116 -0.060746 -0.146289 -0.066383 -0.229690 -0.078583 0.090895 0.065289 -0.013536 -0.013182 0.019604 0.115730 -0.054503 -0.187636 -0.067203 -0.014425 -0.011234 -0.049349 -0.223483 -0.085105 -0.137976 0.066748 -0.021546 -0.098870 -0.160058 0.043625 -0.151258 -0.140485 -0.052981 -0.071204 -0.229295 0.108770 0.030830 -0.086042 0.323627 0.091374 -0.192184 -0.160056 -0.089073 -0.028607 0.051732 -0.254164 0.236441 0.253112 0.100016 -0.078353 -0.080468 0.099518 -0.049464 0.197696 -0.155759 -0.066885 -0.204607 0.003509 -0.009184 0.029944 -0.103187 0.196391 0.155595 -0.082670 -0.200920 -0.064953 0.132063 -0.027579 -0.111180 -0.068984 0.005278 -0.044003 -0.145305 -0.030171 0.104024 -0.285349 0.205781 0.077319 0.085258 0.135239 -0.121642 0.254050 0.061785 -0.003445 -0.090130 -0.136071 -0.206102 -0.013500 0.125954 0.003377
170 -0.155485 -0.160390 0.242333 -0.059526 0.072136 0.149433 -0.105100 0.088172 -0.118773 -0.123592 0.338999 0.121199 0.073951 0.011774 0.123787 -0.272806 0.222278 -0.093625 0.140015 0.127951 -0.011491 -0.163556 0.074315 0.229520 0.044914 0.257811 -0.027133 0.014834 0.037102 -0.052049 -0.114395 0.100441 -0.121939 0.171473 0.172914 0.234270 -0.028547 -0.017476 0.012945 -0.027014 -0.075846 0.059247 -0.044421 -0.032417 -0.184263 -0.110411 -0.347030 -0.147338 0.137554 0.118340 -0.045796 -0.022781 0.089211 0.131939 -0.074333 -0.253553 -0.031915 -0.033032 -0.024780 -0.050950 -0.320271 -0.076208 -0.182594 0.083799 0.024849 -0.123139 -0.149645 0.005253 -0.219690 -0.119588 -0.051631 -0.082345 -0.218434 0.164335 0.065305 -0.069405 0.372149 0.067641 -0.205253 -0.174426 -0.097029 -0.051385 0.000424 -0.203551 0.324680 0.295614 0.125751 -0.079952 -0.056129 0.144779 -0.102016 0.252243 -0.212586 -0.119149 -0.265476 -0.039659 -0.024782 0.111321 -0.092355 0.210402 0.222186 -0.104841 -0.267898 0.009699 0.135961 -0.001669 -0.172954 -0.078445 0.085357 -0.018781 -0.220210 -0.066290 0.100131 -0.312419 0.200711 0.069420 0.118381 0.210500 -0.168959 0.253171 0.086024 -0.033498 -0.120562 -0.179965 -0.220902 0.000810 0.221557 -0.004627
154 -0.158174 -0.115784 0.248774 -0.091330 0.068860 0.151592 -0.094918 0.110986 -0.111433 -0.097638 0.328000 0.121519 0.051963 0.048171 0.099657 -0.222441 0.227603 -0.117660 0.151390 0.091135 -0.011617 -0.135420 0.053863 0.231772 0.001511 0.265647 -0.006063 -0.011650 0.023045 -0.063147 -0.152059 0.022361 -0.133208 0.157891 0.129908 0.216537 -0.027519 -0.030955 0.015089 -0.013124 -0.030263 0.027917 -0.006706 -0.043208 -0.172815 -0.122922 -0.336425 -0.182518 0.060548 0.122143 -0.063939 -0.036684 0.094220 0.125875 -0.126209 -0.253717 -0.049864 0.040534 0.015504 0.012813 -0.386138 -0.074918 -0.160026 0.142676 0.044769 -0.135817 -0.121809 0.047731 -0.211302 -0.199123 -0.045126 -0.093492 -0.230608 0.219924 0.108879 -0.025617 0.373396 0.104947 -0.205498 -0.170733 -0.121053 -0.040465 -0.017830 -0.216292 0.331748 0.321735 0.144435 -0.113126 -0.060592 0.119417 -0.082445 0.254749 -0.237845 -0.107894 -0.252870 -0.010544 -0.053772 0.111483 -0.107185 0.245623 0.251168 -0.101044 -0.264995 -0.037163 0.175993 0.003255 -0.198739 -0.133661 0.051467 -0.048844 -0.185705 -0.028412 0.146770 -0.282234 0.195293 0.061886 0.110446 0.231471 -0.200296 0.359491 0.142349 -0.035099 -0.184040 -0.172815 -0.219328 0.015892 0.265527 0.008189
224 -0.151304 -0.062445 0.216622 0.056530 0.182209 0.142221 0.087446 0.002448 -0.097923 -0.227334 0.132079 0.306211 -0.064752 -0.021780 0.247960 -0.125733 0.144661 -0.122013 -0.031951 0.024039 0.010500 -0.168518 0.173812 0.290282 0.031329 0.336524 0.129496 -0.022425 -0.110746 0.164778 -0.172883 -0.096823 0.015839 0.004416 -0.046090 0.022011 -0.081770 -0.095083 -0.032133 -0.147314 0.024197 -0.046012 -0.111156 0.167272 -0.021183 -0.368260 -0.118720 0.035188 0.045487 0.244606 -0.084814 -0.209432 0.006523 0.169632 0.002884 -0.161431 -0.010923 0.043523 0.001054 -0.040462 -0.230489 0.136702 -0.085100 -0.105100 -0.248235 -0.046552 -0.311109 0.078830 -0.207939 -0.233174 0.023985 -0.189054 0.097189 -0.007564 0.135645 0.096047 0.479816 0.131744 -0.138254 -0.124518 -0.188349 -0.044764 -0.059250 -0.138301 0.270743 0.083752 -0.025073 -0.006696 0.008836 0.081703 -0.202727 0.287044 -0.336740 -0.113682 -0.099478 0.096659 0.150631 0.056551 -0.046809 0.220198 0.014730 0.015698 -0.024118 -0.048974 0.319071 0.047720 0.017109 -0.239716 -0.138230 0.148054 -0.128518 0.018337 0.034747 -0.055973 0.041261 -0.013218 0.009607 0.130525 -0.249427 0.122950 0.072538 0.009614 -0.150857 -0.098709 -0.241263 -0.159101 0.183352 0.141689
125 -0.131151 -0.092149 0.194508 -0.050882 0.095050 0.129114 -0.011693 0.033482 -0.108586 -0.137836 0.177536 0.159682 0.010568 -0.019067 0.096194 -0.164880 0.149512 -0.048240 0.067183 0.047295 -0.000289 -0.150750 0.089853 0.178153 0.011177 0.269440 0.078313 -0.011285 -0.014911 0.015847 -0.120382 -0.020957 -0.063451 0.059040 0.046834 0.120236 -0.068837 -0.021707 0.008823 -0.084283 -0.018789 -0.003696 0.002049 0.026329 -0.089545 -0.176507 -0.173803 -0.036498 0.054198 0.114364 -0.049872 -0.099597 0.012963 0.139688 -0.067495 -0.165413 -0.024804 0.058337 0.022702 -0.022213 -0.269550 0.008296 -0.133271 0.019063 -0.095523 -0.102772 -0.207422 0.064146 -0.160631 -0.199770 -0.025906 -0.118393 -0.102043 0.082100 0.100184 0.006340 0.384860 0.127099 -0.124849 -0.129995 -0.119839 -0.030583 0.013295 -0.184812 0.268249 0.196679 0.059913 -0.071676 -0.041588 0.090834 -0.104976 0.246260 -0.252716 -0.071204 -0.159472 0.062115 0.052104 0.059929 -0.086078 0.221498 0.113518 -0.041012 -0.133263 -0.081402 0.215327 -0.011839 -0.083829 -0.155181 -0.046592 0.035105 -0.126634 -0.005406 0.094464 -0.173261 0.116761 0.044345 0.039695 0.125543 -0.160724 0.234062 0.078194 0.014155 -0.121112 -0.099082 -0.206757 -0.063191 0.179373 0.050482
