16 128
84 -0.234912 -0.178075 0.068213 -0.098657 0.070048 0.074882 -0.147073 0.067946 0.032867 0.112448 0.023577 0.008193 0.027023 0.020848 -0.034746 -0.171484 -0.077496 0.158994 0.075781 0.111106 0.093498 0.029932 -0.188132 0.004749 -0.037644 -0.040810 -0.029260 0.080137 0.041075 -0.044798 0.095481 0.026597 -0.018111 0.096835 0.110118 0.080670 0.033940 0.137204 -0.067596 0.068591 -0.116087 0.113284 0.020885 -0.127870 -0.010722 0.102322 -0.180627 -0.096282 0.073174 0.086592 0.077540 -0.075572 0.055916 0.007777 -0.115562 -0.005541 -0.046516 -0.046984 -0.090774 0.004324 0.031525 0.082416 -0.017685 0.117126 -0.138241 -0.028336 -0.227063 0.076159 0.090306 -0.016218 -0.065153 -0.006267 -0.165506 0.163397 -0.000826 0.013467 0.185394 0.046282 -0.107884 -0.054301 -0.097225 0.027986 -0.193639 0.120057 0.208400 0.183013 0.114673 -0.106293 -0.062226 0.132105 -0.121741 -0.032348 -0.014002 -0.084262 -0.172994 -0.118071 -0.153206 0.050140 -0.161552 0.183533 0.244290 -0.087592 -0.021248 -0.190623 0.016696 -0.023230 -0.078713 -0.069053 0.169045 -0.028818 -0.022618 -0.099544 -0.012965 -0.160835 0.013824 -0.052647 0.102192 0.048017 -0.095218 0.018999 0.030536 0.207206 -0.047577 0.062249 0.014828 -0.029679 0.086903 -0.066071
133 -0.251860 -0.195013 0.074452 -0.108946 0.072535 0.075680 -0.161472 0.077873 0.039461 0.119827 0.024539 0.006630 0.024620 0.023667 -0.036884 -0.192640 -0.089821 0.168298 0.081531 0.117631 0.106372 0.032584 -0.208441 0.001025 -0.044354 -0.039245 -0.028294 0.081959 0.045606 -0.045534 0.099773 0.022812 -0.015851 0.106615 0.115171 0.087043 0.035466 0.149016 -0.075074 0.078802 -0.120269 0.120053 0.023823 -0.133618 -0.007867 0.109670 -0.195299 -0.107305 0.076516 0.097244 0.084724 -0.084437 0.064884 0.011943 -0.124899 -0.002014 -0.054861 -0.051920 -0.093379 0.002331 0.037403 0.087883 -0.019627 0.122772 -0.152264 -0.033206 -0.241941 0.079453 0.097420 -0.015152 -0.071010 -0.005887 -0.174551 0.177954 0.002371 0.014598 0.193884 0.051478 -0.111923 -0.061196 -0.109744 0.034082 -0.208811 0.127756 0.220988 0.200128 0.122146 -0.111443 -0.066391 0.143343 -0.129018 -0.032863 -0.014577 -0.091371 -0.183366 -0.132548 -0.165925 0.054451 -0.173799 0.189099 0.262671 -0.095366 -0.016379 -0.205856 0.019430 -0.022574 -0.083285 -0.074333 0.178259 -0.035629 -0.025556 -0.106845 -0.016834 -0.167103 0.015487 -0.060805 0.103628 0.050880 -0.095855 0.017029 0.034548 0.215397 -0.051074 0.064347 0.020038 -0.028552 0.090272 -0.066817
198 -0.246827 -0.194024 0.071095 -0.110596 0.068817 0.074473 -0.160848 0.074693 0.039832 0.120887 0.020359 0.007373 0.030551 0.025878 -0.035748 -0.191046 -0.086385 0.165867 0.082473 0.119636 0.101311 0.032505 -0.207436 0.003364 -0.043209 -0.038778 -0.027282 0.079067 0.041876 -0.046760 0.101866 0.023745 -0.014964 0.108487 0.113717 0.084872 0.041079 0.143821 -0.073019 0.081168 -0.116624 0.113843 0.019689 -0.135761 -0.004410 0.107096 -0.189146 -0.108758 0.076284 0.098373 0.083680 -0.078245 0.065869 0.010692 -0.124490 -0.005155 -0.050637 -0.050642 -0.098164 0.004956 0.033010 0.082806 -0.013895 0.123572 -0.148632 -0.038248 -0.238343 0.085612 0.091297 -0.015020 -0.065266 -0.005414 -0.177847 0.178779 0.004017 0.015502 0.198392 0.044904 -0.115709 -0.060955 -0.109367 0.036884 -0.210583 0.125602 0.225184 0.200779 0.119084 -0.115093 -0.070597 0.140047 -0.126341 -0.036263 -0.011249 -0.085940 -0.177631 -0.129241 -0.160579 0.053043 -0.173037 0.191098 0.261272 -0.093026 -0.022721 -0.206428 0.016595 -0.019477 -0.078931 -0.076621 0.175722 -0.033681 -0.026321 -0.100516 -0.012672 -0.165656 0.013860 -0.055560 0.108562 0.051910 -0.097576 0.020499 0.036921 0.216830 -0.050825 0.070417 0.014846 -0.028328 0.088461 -0.073070
129 -0.256891 -0.196051 0.077421 -0.109287 0.076943 0.075017 -0.161629 0.076771 0.040065 0.120524 0.026746 0.008415 0.025554 0.019995 -0.032943 -0.193950 -0.086169 0.168467 0.081700 0.115161 0.108796 0.036233 -0.210310 0.001783 -0.039451 -0.042753 -0.030968 0.084244 0.040181 -0.050977 0.107715 0.021159 -0.015096 0.109422 0.117363 0.080935 0.041059 0.150541 -0.075629 0.082428 -0.120430 0.124225 0.019799 -0.138538 -0.007073 0.105896 -0.193045 -0.102343 0.079177 0.099885 0.081461 -0.078707 0.064707 0.009518 -0.122032 -0.004588 -0.047814 -0.051835 -0.101475 -0.002658 0.033967 0.090901 -0.015476 0.123560 -0.150382 -0.036406 -0.242431 0.078494 0.095786 -0.015828 -0.070809 -0.007590 -0.181346 0.180608 -0.003912 0.011757 0.196342 0.054262 -0.114349 -0.063827 -0.107057 0.034259 -0.210200 0.132306 0.225283 0.203818 0.119566 -0.117478 -0.072763 0.148227 -0.131330 -0.034011 -0.017811 -0.090627 -0.187625 -0.132233 -0.171431 0.058469 -0.177418 0.199344 0.268508 -0.097936 -0.018584 -0.204033 0.020625 -0.026547 -0.078652 -0.078716 0.179400 -0.032951 -0.022289 -0.104408 -0.019004 -0.163504 0.013059 -0.057332 0.111980 0.049863 -0.097418 0.014640 0.037836 0.222186 -0.049801 0.070653 0.020612 -0.027234 0.092103 -0.073497
35 -0.258597 -0.196372 0.071667 -0.114159 0.072161 0.077109 -0.160875 0.073124 0.033159 0.123852 0.024854 0.012206 0.023313 0.023262 -0.037437 -0.195309 -0.083967 0.176711 0.083384 0.122492 0.113071 0.032971 -0.211113 0.006746 -0.039011 -0.042402 -0.028964 0.088924 0.039497 -0.047590 0.105659 0.023923 -0.016579 0.107406 0.121694 0.085761 0.036408 0.145393 -0.069183 0.075639 -0.127592 0.122973 0.027371 -0.139903 -0.009106 0.104135 -0.198744 -0.105635 0.078208 0.097506 0.084940 -0.087422 0.065538 0.007544 -0.121047 -0.008713 -0.050659 -0.054812 -0.099780 -0.002497 0.032736 0.088979 -0.015597 0.124404 -0.160469 -0.039200 -0.250106 0.085099 0.098576 -0.012552 -0.073391 -0.005105 -0.177510 0.178624 -0.000838 0.010604 0.201328 0.056477 -0.117779 -0.062457 -0.112558 0.027666 -0.210588 0.128388 0.230864 0.206236 0.130012 -0.117194 -0.074150 0.151691 -0.129125 -0.036948 -0.020590 -0.094785 -0.193420 -0.138721 -0.174524 0.059962 -0.177641 0.203820 0.274937 -0.096637 -0.024590 -0.213985 0.024776 -0.025979 -0.081949 -0.072779 0.185699 -0.029204 -0.020218 -0.112869 -0.016435 -0.169487 0.012516 -0.057853 0.111425 0.051513 -0.099570 0.018485 0.040812 0.221355 -0.049855 0.069318 0.020370 -0.028709 0.088224 -0.066522
142 -0.238788 -0.183747 0.063982 -0.108133 0.069015 0.074572 -0.148084 0.069252 0.029221 0.113674 0.018064 0.008520 0.026024 0.022304 -0.033717 -0.182086 -0.075846 0.162965 0.074471 0.112962 0.099584 0.030813 -0.196982 0.001387 -0.033818 -0.039743 -0.026375 0.080614 0.037956 -0.043244 0.098051 0.023599 -0.010652 0.100926 0.109668 0.081661 0.033876 0.133761 -0.063434 0.069514 -0.116486 0.114626 0.021220 -0.130530 -0.011181 0.101800 -0.185010 -0.093799 0.077048 0.093560 0.076198 -0.075008 0.061323 0.010458 -0.113910 -0.002308 -0.049599 -0.052181 -0.091249 -0.003307 0.032655 0.085275 -0.016037 0.112537 -0.146147 -0.030133 -0.229997 0.077108 0.092303 -0.010462 -0.064100 -0.007934 -0.168790 0.161103 -0.003350 0.010958 0.189235 0.044679 -0.110786 -0.060897 -0.103100 0.024327 -0.192536 0.120131 0.214719 0.187631 0.116894 -0.106702 -0.069640 0.136814 -0.120607 -0.032293 -0.017321 -0.082466 -0.174251 -0.124963 -0.159928 0.053116 -0.165289 0.187444 0.246448 -0.089989 -0.021549 -0.194973 0.020828 -0.024253 -0.074906 -0.067538 0.171926 -0.029998 -0.019121 -0.102221 -0.019314 -0.156895 0.014709 -0.058250 0.102561 0.041783 -0.087093 0.018918 0.037755 0.204913 -0.042635 0.062228 0.015492 -0.032069 0.081713 -0.059997
200 -0.248249 -0.193627 0.075398 -0.109077 0.069959 0.072412 -0.162483 0.076926 0.038296 0.116644 0.023631 0.006198 0.030190 0.020282 -0.031046 -0.184168 -0.089489 0.167635 0.082204 0.114714 0.108245 0.029379 -0.200565 0.004121 -0.044384 -0.043071 -0.034667 0.078009 0.040018 -0.045067 0.100076 0.023924 -0.017647 0.103307 0.112073 0.082805 0.034434 0.145015 -0.074935 0.076643 -0.116543 0.115441 0.020058 -0.136167 -0.010375 0.104785 -0.192124 -0.104881 0.080762 0.097583 0.084374 -0.081199 0.065557 0.014439 -0.127528 -0.003747 -0.052840 -0.053836 -0.093431 0.005092 0.035598 0.090487 -0.014447 0.122146 -0.148310 -0.029094 -0.242497 0.081653 0.093404 -0.016773 -0.070818 -0.003205 -0.172177 0.174875 0.002859 0.016046 0.195266 0.047716 -0.114330 -0.058887 -0.105053 0.034502 -0.205059 0.129755 0.217839 0.197130 0.120263 -0.113374 -0.067137 0.140758 -0.123063 -0.037033 -0.012940 -0.090257 -0.181221 -0.124303 -0.162167 0.050380 -0.175792 0.191403 0.260627 -0.090401 -0.015960 -0.197826 0.019300 -0.025282 -0.080605 -0.075559 0.171752 -0.033682 -0.022824 -0.106437 -0.015248 -0.164058 0.014587 -0.057253 0.106696 0.049546 -0.096817 0.020015 0.036838 0.214251 -0.051243 0.064538 0.016457 -0.029452 0.084893 -0.070836
87 -0.242057 -0.184442 0.073888 -0.102905 0.068629 0.078498 -0.155413 0.071536 0.041482 0.113900 0.023456 0.009457 0.028830 0.021927 -0.032775 -0.177425 -0.087683 0.161909 0.079016 0.112614 0.104458 0.027365 -0.198338 0.001242 -0.043790 -0.036657 -0.032962 0.081424 0.042650 -0.048394 0.101807 0.021515 -0.017213 0.096843 0.114850 0.082256 0.038004 0.142651 -0.075442 0.077170 -0.119209 0.110072 0.016860 -0.126653 -0.003269 0.105236 -0.186980 -0.106177 0.076708 0.088165 0.077810 -0.082311 0.057603 0.011245 -0.124207 -0.006679 -0.046771 -0.051556 -0.089490 0.007093 0.035755 0.085487 -0.016430 0.119691 -0.141079 -0.031457 -0.235461 0.078439 0.091515 -0.015280 -0.061982 -0.008869 -0.165311 0.170924 0.005495 0.012657 0.191126 0.043978 -0.107626 -0.055093 -0.107275 0.029665 -0.203905 0.124877 0.210971 0.191888 0.114358 -0.110579 -0.060440 0.138873 -0.124433 -0.033958 -0.014584 -0.088049 -0.171224 -0.122670 -0.152930 0.051655 -0.171270 0.182301 0.253802 -0.090715 -0.016189 -0.199775 0.017477 -0.021614 -0.080418 -0.073294 0.173821 -0.035776 -0.025224 -0.103155 -0.014354 -0.158275 0.012712 -0.052733 0.097124 0.047711 -0.097246 0.017297 0.030202 0.210201 -0.052409 0.062915 0.015230 -0.029024 0.088727 -0.070673
111 -0.237200 -0.183064 0.068610 -0.109254 0.073299 0.076965 -0.156950 0.070493 0.032348 0.111151 0.021824 0.006133 0.023074 0.019216 -0.039066 -0.184879 -0.085500 0.161353 0.077569 0.108681 0.100188 0.031447 -0.199639 0.003840 -0.039290 -0.043401 -0.026505 0.078896 0.043927 -0.043401 0.100632 0.022146 -0.010164 0.099330 0.111258 0.081537 0.034856 0.142137 -0.066857 0.067306 -0.114196 0.113903 0.020881 -0.125293 -0.006197 0.101822 -0.187840 -0.098939 0.079011 0.094706 0.075858 -0.084034 0.055943 0.009867 -0.114639 -0.007885 -0.050941 -0.048204 -0.089598 -0.001832 0.038581 0.086312 -0.019708 0.116690 -0.144868 -0.028496 -0.233875 0.080831 0.096535 -0.011012 -0.068271 -0.006328 -0.166643 0.165803 -0.002531 0.009753 0.190970 0.049111 -0.110046 -0.059749 -0.106658 0.027715 -0.199686 0.118801 0.207813 0.189974 0.115122 -0.109888 -0.063850 0.136258 -0.121868 -0.031802 -0.017441 -0.089978 -0.176637 -0.121518 -0.157314 0.048942 -0.170226 0.186219 0.252509 -0.091822 -0.021094 -0.198967 0.020557 -0.019296 -0.081617 -0.073278 0.169008 -0.033266 -0.022298 -0.103208 -0.014357 -0.160150 0.012999 -0.057026 0.097313 0.045900 -0.093130 0.022585 0.035896 0.208006 -0.048992 0.058960 0.014758 -0.030829 0.084144 -0.059863
187 -0.254998 -0.195797 0.076323 -0.111131 0.073117 0.080450 -0.158074 0.075751 0.038509 0.123329 0.028143 0.007766 0.025387 0.023668 -0.032515 -0.187526 -0.087929 0.169765 0.081066 0.119754 0.106221 0.033346 -0.206533 0.004980 -0.044973 -0.044776 -0.032488 0.086278 0.044292 -0.047304 0.106394 0.022276 -0.020930 0.104528 0.120456 0.083333 0.038440 0.146775 -0.074229 0.081699 -0.121475 0.120002 0.021570 -0.139008 -0.004699 0.111053 -0.190052 -0.107932 0.081951 0.097952 0.084374 -0.078749 0.066645 0.009574 -0.125473 -0.004181 -0.052827 -0.054225 -0.098083 0.005871 0.036681 0.087344 -0.014855 0.128279 -0.152201 -0.034369 -0.243922 0.080130 0.099005 -0.012869 -0.069179 -0.003421 -0.173286 0.181917 0.000540 0.014868 0.199683 0.049891 -0.113362 -0.060289 -0.109600 0.031663 -0.214355 0.129996 0.225329 0.199912 0.122832 -0.113882 -0.064561 0.145175 -0.131378 -0.034403 -0.014859 -0.090137 -0.185255 -0.131645 -0.167320 0.058609 -0.179565 0.196688 0.260516 -0.096769 -0.019674 -0.209273 0.014288 -0.022463 -0.079375 -0.075921 0.179681 -0.036267 -0.023000 -0.107280 -0.018791 -0.169906 0.016004 -0.061012 0.111134 0.052604 -0.103012 0.013674 0.035397 0.224946 -0.057266 0.066051 0.015577 -0.031990 0.093900 -0.070365
172 -0.246686 -0.186097 0.067190 -0.111584 0.076096 0.070456 -0.151143 0.076116 0.036159 0.120680 0.023184 0.011702 0.025722 0.021697 -0.038672 -0.190184 -0.080749 0.167863 0.075876 0.118855 0.102752 0.032170 -0.203757 0.000018 -0.040935 -0.044313 -0.029518 0.084765 0.039440 -0.047565 0.102903 0.022943 -0.014820 0.109209 0.111990 0.082345 0.038510 0.145458 -0.066539 0.077434 -0.121857 0.120739 0.019899 -0.134963 -0.005935 0.106870 -0.191573 -0.103136 0.076591 0.098335 0.081602 -0.079453 0.066536 0.006059 -0.122224 -0.004771 -0.052487 -0.055358 -0.099117 -0.005147 0.027856 0.083377 -0.013240 0.121625 -0.151801 -0.039753 -0.231203 0.082343 0.093570 -0.010695 -0.071686 -0.006020 -0.178813 0.175838 -0.003167 0.016432 0.196848 0.046887 -0.114402 -0.065702 -0.108869 0.033383 -0.206434 0.128837 0.224464 0.197766 0.122728 -0.112228 -0.066085 0.138514 -0.127620 -0.031784 -0.018587 -0.083244 -0.178481 -0.134015 -0.168440 0.057076 -0.169693 0.198461 0.262766 -0.092356 -0.025162 -0.204721 0.021549 -0.022520 -0.073175 -0.071501 0.180201 -0.026149 -0.019124 -0.099838 -0.020249 -0.165170 0.012324 -0.060519 0.105187 0.048644 -0.097288 0.013885 0.037833 0.216295 -0.046557 0.072721 0.017511 -0.030466 0.084732 -0.072025
123 -0.243586 -0.183834 0.076443 -0.107421 0.071726 0.077324 -0.155487 0.073031 0.039279 0.114892 0.025456 0.009256 0.024792 0.022727 -0.037098 -0.186320 -0.088526 0.166222 0.079380 0.113280 0.105064 0.031264 -0.195612 -0.001796 -0.045833 -0.038910 -0.028035 0.082017 0.044489 -0.046370 0.100724 0.024238 -0.015193 0.100764 0.112943 0.084394 0.032625 0.139434 -0.075196 0.077228 -0.120245 0.111399 0.023089 -0.129542 -0.005971 0.104254 -0.183263 -0.102763 0.077540 0.093139 0.081550 -0.082928 0.060257 0.012530 -0.126217 -0.006716 -0.052699 -0.049722 -0.091292 0.005947 0.033225 0.089109 -0.017381 0.125581 -0.147691 -0.034394 -0.238834 0.077473 0.094595 -0.015796 -0.062662 -0.007984 -0.167001 0.167428 0.004974 0.017519 0.190128 0.044470 -0.107475 -0.053639 -0.104317 0.028220 -0.206790 0.123466 0.218259 0.193275 0.120762 -0.107290 -0.061275 0.139926 -0.122142 -0.029999 -0.017507 -0.088102 -0.175413 -0.125518 -0.161970 0.051473 -0.172808 0.189944 0.255715 -0.087112 -0.016214 -0.203574 0.020407 -0.021820 -0.076478 -0.076514 0.171070 -0.035585 -0.024182 -0.103590 -0.010746 -0.157819 0.011133 -0.053786 0.103823 0.044663 -0.099469 0.018140 0.034872 0.213269 -0.052972 0.064475 0.018206 -0.031907 0.086709 -0.066738
80 -0.254512 -0.200270 0.070667 -0.111131 0.077304 0.079668 -0.157627 0.078755 0.034605 0.119674 0.020198 0.007067 0.029410 0.024706 -0.037871 -0.195565 -0.088292 0.175132 0.082135 0.118515 0.108868 0.032780 -0.211009 0.005105 -0.039967 -0.044223 -0.031920 0.081973 0.043541 -0.049068 0.107509 0.027000 -0.015981 0.107582 0.114096 0.085707 0.038441 0.148616 -0.072398 0.079063 -0.123293 0.117941 0.020546 -0.138833 -0.008097 0.112141 -0.193094 -0.107055 0.083717 0.100552 0.086654 -0.084925 0.062708 0.007796 -0.122419 -0.008728 -0.056968 -0.057371 -0.103130 -0.000960 0.037740 0.087183 -0.014531 0.128514 -0.153960 -0.032567 -0.247518 0.083557 0.098626 -0.016727 -0.067731 -0.003553 -0.179538 0.179771 -0.004494 0.011481 0.199988 0.047857 -0.118746 -0.065509 -0.111582 0.032428 -0.211518 0.126538 0.229477 0.203528 0.126228 -0.111983 -0.068658 0.144193 -0.127112 -0.030899 -0.013883 -0.087607 -0.190287 -0.137892 -0.167960 0.052704 -0.178444 0.203120 0.267283 -0.092936 -0.021326 -0.208805 0.020720 -0.021684 -0.080259 -0.075918 0.181413 -0.030395 -0.022964 -0.108873 -0.017161 -0.171483 0.016502 -0.059537 0.113726 0.048758 -0.098161 0.017697 0.036964 0.218279 -0.051439 0.073143 0.015174 -0.033161 0.086806 -0.069241
3 -0.257556 -0.194497 0.074674 -0.111987 0.076135 0.074596 -0.156142 0.076454 0.031545 0.120009 0.024496 0.005309 0.022591 0.018459 -0.038285 -0.197288 -0.079944 0.167515 0.079823 0.116419 0.102648 0.035160 -0.210872 0.007540 -0.035500 -0.045191 -0.029580 0.086702 0.045336 -0.043420 0.102533 0.020797 -0.018907 0.113595 0.114043 0.080549 0.040689 0.150156 -0.068750 0.081312 -0.120641 0.116701 0.022310 -0.134379 -0.009708 0.106806 -0.191299 -0.107792 0.074623 0.103603 0.087482 -0.082432 0.061594 0.009983 -0.125085 -0.008158 -0.054908 -0.053805 -0.102642 0.001562 0.028994 0.089020 -0.015575 0.127612 -0.153660 -0.039675 -0.237523 0.086491 0.097614 -0.016810 -0.068097 -0.004215 -0.183354 0.182252 -0.000970 0.011049 0.204203 0.048606 -0.113163 -0.066447 -0.110920 0.036457 -0.211222 0.126805 0.229338 0.204621 0.123356 -0.113911 -0.074193 0.143169 -0.130630 -0.031994 -0.017981 -0.087266 -0.189856 -0.131598 -0.173728 0.060253 -0.171381 0.200106 0.262690 -0.094294 -0.027174 -0.208727 0.023300 -0.019037 -0.078873 -0.074971 0.184638 -0.032594 -0.018450 -0.105246 -0.017905 -0.167200 0.015496 -0.057541 0.109270 0.052516 -0.093099 0.017727 0.036746 0.214889 -0.050312 0.070054 0.014062 -0.029259 0.088873 -0.068263
201 -0.246553 -0.192042 0.075078 -0.107224 0.069782 0.077465 -0.162007 0.077289 0.040474 0.118482 0.026181 0.008935 0.025101 0.023534 -0.033081 -0.186399 -0.089463 0.169897 0.083810 0.120033 0.106161 0.030967 -0.206074 -0.000365 -0.040339 -0.043301 -0.032365 0.083009 0.046855 -0.044121 0.102109 0.021623 -0.013516 0.100772 0.113209 0.083540 0.036394 0.143276 -0.076905 0.079434 -0.119017 0.119183 0.018418 -0.133191 -0.007465 0.107598 -0.187108 -0.107423 0.077801 0.096747 0.085884 -0.085122 0.062227 0.012172 -0.125725 -0.003547 -0.051026 -0.048794 -0.097824 0.000933 0.032651 0.090568 -0.016196 0.125627 -0.152407 -0.032399 -0.239000 0.082110 0.092480 -0.017072 -0.069256 -0.007546 -0.174931 0.173107 0.000613 0.014970 0.192142 0.049398 -0.114546 -0.060526 -0.110511 0.028530 -0.208127 0.124484 0.223807 0.196067 0.120240 -0.112723 -0.065000 0.140205 -0.131826 -0.036562 -0.012552 -0.090582 -0.180195 -0.126410 -0.163306 0.058701 -0.176685 0.189763 0.261111 -0.095167 -0.015948 -0.204733 0.015680 -0.018761 -0.085214 -0.079931 0.177371 -0.033957 -0.024795 -0.109509 -0.012642 -0.168735 0.013875 -0.060963 0.105491 0.049112 -0.097930 0.017070 0.037795 0.216521 -0.052819 0.067203 0.018060 -0.029727 0.086432 -0.066851
163 -0.244789 -0.191384 0.074859 -0.109666 0.071114 0.072249 -0.155866 0.075609 0.033431 0.113863 0.020124 0.011552 0.025333 0.019907 -0.039191 -0.190980 -0.083986 0.167802 0.077357 0.119192 0.107864 0.032869 -0.202013 0.005004 -0.036565 -0.043565 -0.033625 0.085407 0.037842 -0.048428 0.101889 0.022104 -0.011917 0.106995 0.114418 0.080020 0.032631 0.141304 -0.070087 0.074626 -0.121247 0.115509 0.021318 -0.135987 -0.010361 0.107395 -0.192747 -0.105330 0.081334 0.095983 0.082757 -0.084964 0.065319 0.006420 -0.120796 -0.002591 -0.049302 -0.048104 -0.095374 0.002657 0.032546 0.089356 -0.019375 0.121311 -0.151962 -0.035320 -0.239637 0.081239 0.090252 -0.011714 -0.065479 -0.009601 -0.173466 0.171248 0.002407 0.017260 0.193325 0.052593 -0.109028 -0.061699 -0.105444 0.029682 -0.201666 0.125645 0.224262 0.199818 0.120593 -0.110379 -0.071427 0.143291 -0.128271 -0.031305 -0.014548 -0.086491 -0.181372 -0.131441 -0.166209 0.055670 -0.173985 0.196382 0.262015 -0.089967 -0.016872 -0.201802 0.016662 -0.019822 -0.081545 -0.077218 0.176491 -0.032719 -0.021767 -0.107325 -0.015906 -0.160653 0.010268 -0.061341 0.103848 0.045797 -0.093826 0.014642 0.034518 0.215042 -0.048758 0.068206 0.020466 -0.030429 0.085837 -0.069122
