17 128
80 -0.095108 -0.081909 0.012964 -0.106125 0.201440 0.104277 -0.165178 -0.088835 -0.050745 0.091505 0.085901 0.077356 0.207055 -0.098965 -0.082816 -0.362071 -0.045147 0.159473 0.019739 0.005355 -0.026253 0.054002 -0.147880 0.030347 0.049562 0.109109 0.061200 0.060424 -0.149206 -0.015694 0.073684 0.210962 0.066258 0.253831 0.084418 0.175190 -0.005217 0.122328 0.079324 -0.111184 -0.167064 0.259986 0.027815 -0.058987 0.026582 0.090568 -0.153741 -0.036172 0.180742 0.177380 -0.086891 0.088746 -0.017132 -0.062344 0.024068 -0.018319 -0.090255 -0.144800 -0.091003 -0.182872 0.062032 0.004337 -0.011652 -0.177496 -0.160048 0.056160 -0.153812 -0.166141 -0.051478 0.098822 -0.137660 -0.087399 -0.191186 -0.082369 -0.141799 -0.130975 0.245621 -0.142196 -0.118517 -0.194031 -0.064250 -0.088815 0.004906 0.038981 0.187129 0.187574 0.025964 -0.199512 -0.081603 -0.022676 -0.135750 0.119700 0.070010 0.029042 0.050335 -0.008570 -0.064904 -0.068428 -0.029750 0.175418 -0.023603 -0.147907 0.009093 -0.109835 0.002791 0.031762 0.235047 0.066439 0.013597 0.014687 -0.040657 -0.127103 -0.149296 -0.183912 0.084857 -0.007430 -0.045673 -0.065179 -0.065528 0.068751 -0.021676 0.231388 0.061679 -0.106541 -0.058985 0.043767 -0.118240 0.043985
31 -0.084211 -0.068608 0.015237 -0.098704 0.179823 0.088479 -0.152444 -0.089310 -0.050267 0.086932 0.085868 0.075552 0.190733 -0.096241 -0.075700 -0.334388 -0.044579 0.146397 0.017680 0.004193 -0.022603 0.049068 -0.138704 0.028667 0.049093 0.100255 0.058375 0.062807 -0.137616 -0.011867 0.063165 0.193374 0.057618 0.237616 0.082162 0.162936 -0.006311 0.110263 0.079034 -0.108797 -0.151598 0.244296 0.028928 -0.055444 0.020911 0.080915 -0.149127 -0.034749 0.162834 0.162725 -0.085166 0.086315 -0.011372 -0.056766 0.021864 -0.015301 -0.079603 -0.133392 -0.081713 -0.174686 0.056892 0.004067 -0.017014 -0.170479 -0.149597 0.046639 -0.139882 -0.153504 -0.049707 0.094510 -0.129497 -0.084626 -0.171742 -0.076529 -0.127244 -0.120099 0.226842 -0.129890 -0.102158 -0.175838 -0.055415 -0.087428 0.005900 0.034909 0.169129 0.168287 0.019278 -0.187057 -0.073947 -0.022604 -0.126698 0.111705 0.062466 0.025321 0.046927 -0.004553 -0.065245 -0.058740 -0.027258 0.160077 -0.025263 -0.134389 0.007028 -0.103569 0.003208 0.027080 0.215238 0.066094 0.014128 0.011655 -0.036220 -0.122195 -0.137681 -0.166695 0.075090 -0.007228 -0.049850 -0.055557 -0.058933 0.064097 -0.020427 0.209866 0.057100 -0.103775 -0.051843 0.041681 -0.114053 0.044938
133 -0.246533 -0.236828 0.080684 0.025434 0.204606 0.000111 -0.206790 0.137981 0.096356 0.142732 -0.031437 0.149594 0.088586 0.034245 -0.000890 -0.269042 0.011540 0.051668 0.048369 0.041876 0.032268 0.074292 -0.148770 0.015989 -0.090372 0.102024 0.141449 0.013699 -0.066670 0.012706 -0.000142 0.118968 0.033038 0.226604 0.088818 0.152409 -0.021068 0.163240 -0.113465 0.103102 -0.118938 0.235038 0.001242 -0.056634 0.049406 0.029608 -0.037737 -0.030129 -0.007546 0.308934 -0.063914 -0.002613 -0.012548 -0.020295 -0.063900 0.023666 -0.045481 -0.009608 -0.145107 -0.024671 0.099340 0.040502 0.041993 -0.106468 -0.202784 0.045287 -0.231151 -0.152616 0.023311 -0.025292 -0.103471 -0.004489 -0.284478 0.050119 0.137596 0.088473 0.221588 0.017132 -0.069405 -0.068669 -0.110265 0.137970 -0.167957 0.182602 0.210114 0.278869 0.052238 -0.139340 -0.097621 -0.012134 -0.246643 -0.014170 0.158767 -0.147915 -0.178005 -0.003335 -0.106832 -0.018357 -0.005241 0.116759 0.011142 -0.236729 0.048971 -0.077918 -0.093060 -0.023733 0.097892 0.008666 0.102775 0.002170 -0.241570 0.001916 -0.164755 -0.096245 0.135917 -0.011583 -0.020977 -0.007083 -0.183622 0.089413 0.039017 0.069256 -0.065683 -0.110431 0.018223 0.083799 0.142090 -0.136456
142 -0.082700 -0.065885 0.006388 -0.111973 0.186729 0.103525 -0.156758 -0.098613 -0.058961 0.083706 0.087377 0.066399 0.200206 -0.103826 -0.081043 -0.347700 -0.042198 0.156384 0.014751 0.005234 -0.026170 0.051061 -0.142542 0.024421 0.058510 0.105657 0.054116 0.061063 -0.145993 -0.012803 0.070453 0.200723 0.067786 0.241753 0.080816 0.166317 -0.006883 0.110450 0.089147 -0.121804 -0.160592 0.250825 0.032294 -0.055731 0.016308 0.083669 -0.157962 -0.028155 0.180284 0.160563 -0.087467 0.092366 -0.011577 -0.054323 0.029652 -0.011912 -0.086433 -0.143319 -0.075423 -0.185837 0.055136 0.008685 -0.019968 -0.179091 -0.150338 0.054998 -0.139864 -0.156920 -0.049529 0.106872 -0.130728 -0.090977 -0.172675 -0.092669 -0.148994 -0.138788 0.233950 -0.142737 -0.112159 -0.187271 -0.056314 -0.104723 0.019413 0.027365 0.173086 0.166847 0.021849 -0.193103 -0.083836 -0.018718 -0.120855 0.115313 0.056094 0.037146 0.064768 -0.003050 -0.064566 -0.062973 -0.030101 0.163582 -0.028207 -0.139200 0.008809 -0.103615 0.010312 0.028234 0.228789 0.067186 0.008974 0.012087 -0.022574 -0.130717 -0.146781 -0.175551 0.079192 -0.011213 -0.046554 -0.069295 -0.047003 0.065047 -0.018035 0.229910 0.069465 -0.111415 -0.059316 0.040707 -0.124312 0.056512
84 -0.201243 -0.186013 0.062681 -0.012664 0.202180 0.034747 -0.189298 0.066008 0.053911 0.128646 0.003908 0.130393 0.124047 -0.002350 -0.027416 -0.283704 0.000045 0.082188 0.038845 0.031636 0.005861 0.066754 -0.137441 0.022404 -0.048894 0.094492 0.112435 0.030844 -0.087025 0.000214 0.022498 0.148264 0.039483 0.230804 0.092413 0.157240 -0.014322 0.149286 -0.057810 0.038410 -0.133409 0.238778 0.005146 -0.060566 0.042642 0.050091 -0.070785 -0.030122 0.047397 0.260494 -0.068573 0.024265 -0.020301 -0.036297 -0.043368 0.005891 -0.049678 -0.043867 -0.130083 -0.062407 0.080680 0.030880 0.026094 -0.117868 -0.181567 0.046720 -0.206064 -0.148250 0.000685 0.005546 -0.112601 -0.031455 -0.260382 0.012230 0.056985 0.031388 0.228260 -0.029298 -0.089025 -0.103499 -0.090042 0.071713 -0.119576 0.144476 0.204813 0.247275 0.044227 -0.159251 -0.086505 -0.016195 -0.216091 0.023167 0.129468 -0.095669 -0.110386 0.003514 -0.085379 -0.034499 -0.011023 0.138242 0.005517 -0.200943 0.026974 -0.084899 -0.064334 -0.009029 0.126024 0.022919 0.078390 0.006432 -0.180094 -0.029025 -0.143052 -0.117740 0.112019 -0.005871 -0.025393 -0.021179 -0.151422 0.085928 0.017819 0.115660 -0.028410 -0.097490 -0.006347 0.063001 0.068829 -0.086490
129 -0.178559 -0.165445 0.055145 -0.027331 0.193819 0.034437 -0.181547 0.042659 0.037371 0.117752 0.018746 0.117207 0.129709 -0.021616 -0.028649 -0.292517 -0.009899 0.086651 0.034151 0.020107 0.009857 0.067018 -0.143311 0.020594 -0.027587 0.096201 0.102835 0.033815 -0.099556 -0.001664 0.033079 0.144184 0.044252 0.231337 0.085171 0.148983 -0.010024 0.140743 -0.034061 0.019385 -0.127696 0.236656 0.008121 -0.056818 0.038655 0.048591 -0.079640 -0.028058 0.065033 0.245977 -0.073782 0.038900 -0.012729 -0.035973 -0.026339 0.004905 -0.053938 -0.058023 -0.120996 -0.090313 0.078091 0.025230 0.021245 -0.131106 -0.172762 0.042324 -0.184858 -0.152438 -0.009979 0.022955 -0.114049 -0.037260 -0.238913 0.000820 0.021688 0.000040 0.217840 -0.041963 -0.083243 -0.116307 -0.082474 0.045743 -0.092533 0.123630 0.189890 0.231543 0.033683 -0.161109 -0.088661 -0.013797 -0.193693 0.037598 0.113506 -0.072417 -0.083268 -0.001398 -0.088422 -0.032795 -0.013928 0.136163 -0.001025 -0.189707 0.028844 -0.081982 -0.050888 -0.005667 0.147761 0.029653 0.061401 0.005906 -0.151950 -0.044559 -0.148031 -0.115543 0.104000 -0.008706 -0.027666 -0.027778 -0.126692 0.074186 0.016257 0.128467 -0.011747 -0.098770 -0.008800 0.064936 0.034149 -0.064299
172 -0.149812 -0.131789 0.035244 -0.065141 0.203604 0.061959 -0.176124 -0.007676 0.004490 0.115426 0.045138 0.109554 0.163126 -0.050000 -0.056493 -0.328220 -0.022031 0.120335 0.025980 0.021111 -0.007442 0.060264 -0.146250 0.021896 -0.004210 0.101017 0.089640 0.048517 -0.120633 -0.006542 0.047306 0.176118 0.054317 0.248411 0.088268 0.167162 -0.009255 0.137836 0.013465 -0.033178 -0.151414 0.254412 0.015904 -0.059916 0.038776 0.070552 -0.116829 -0.035300 0.111393 0.224980 -0.079530 0.056135 -0.011480 -0.050047 -0.013616 -0.003333 -0.072571 -0.097856 -0.110652 -0.128649 0.067870 0.015163 0.009923 -0.151050 -0.177276 0.044461 -0.174714 -0.156528 -0.025390 0.057733 -0.131153 -0.059276 -0.229048 -0.031176 -0.039182 -0.043789 0.239985 -0.086368 -0.103348 -0.153559 -0.081951 -0.005221 -0.060360 0.097193 0.197230 0.219562 0.036914 -0.179581 -0.080504 -0.021308 -0.177482 0.071285 0.096256 -0.032264 -0.026612 -0.007648 -0.080754 -0.047828 -0.018664 0.158088 -0.006228 -0.176242 0.015847 -0.101002 -0.029673 0.011166 0.187857 0.048755 0.050120 0.012648 -0.111530 -0.074931 -0.153871 -0.151713 0.098291 -0.013197 -0.041443 -0.042539 -0.111926 0.074994 0.002412 0.176565 0.017153 -0.100702 -0.029994 0.053904 -0.025619 -0.025126
40 -0.129414 -0.111640 0.029101 -0.068172 0.190833 0.070862 -0.169325 -0.025765 -0.011323 0.095583 0.055847 0.088683 0.162846 -0.065438 -0.059881 -0.319347 -0.027859 0.118579 0.022265 0.012393 -0.006081 0.056176 -0.135099 0.024303 0.009783 0.101538 0.073581 0.042083 -0.124153 -0.010381 0.048471 0.172900 0.052725 0.235089 0.082097 0.154292 -0.012388 0.128039 0.028696 -0.052472 -0.147571 0.239949 0.022100 -0.051402 0.027021 0.062258 -0.117858 -0.033352 0.123069 0.199979 -0.079381 0.058979 -0.014924 -0.046055 0.005062 -0.008225 -0.072027 -0.102268 -0.093540 -0.135730 0.065554 0.017978 -0.002219 -0.153232 -0.160656 0.047502 -0.162390 -0.152253 -0.027180 0.067381 -0.124742 -0.062620 -0.199809 -0.049568 -0.061657 -0.071394 0.224008 -0.091886 -0.099973 -0.150442 -0.068953 -0.029547 -0.036695 0.069028 0.181451 0.199672 0.031903 -0.177982 -0.085205 -0.013652 -0.157867 0.073006 0.083516 -0.017547 -0.003694 0.000457 -0.071423 -0.052455 -0.019975 0.146795 -0.010180 -0.164802 0.022774 -0.093630 -0.017878 0.014368 0.190896 0.045642 0.032887 0.009352 -0.087138 -0.089153 -0.147382 -0.147911 0.093006 -0.009496 -0.036416 -0.048041 -0.087171 0.067008 0.000154 0.181338 0.025336 -0.107542 -0.037061 0.057661 -0.044276 -0.006650
89 -0.156829 -0.136012 0.042800 -0.052156 0.191066 0.058768 -0.170351 0.003486 0.014664 0.112453 0.034733 0.110342 0.141573 -0.036065 -0.042663 -0.302317 -0.018222 0.099736 0.029627 0.015949 -0.000395 0.057669 -0.131733 0.026067 -0.015248 0.095863 0.090348 0.037802 -0.109910 -0.004274 0.035522 0.159034 0.046982 0.226639 0.084924 0.150374 -0.007425 0.130394 -0.005693 -0.017537 -0.132427 0.236031 0.010100 -0.057674 0.041817 0.057082 -0.098519 -0.031359 0.089851 0.220096 -0.074639 0.041798 -0.017425 -0.042353 -0.014917 -0.004619 -0.057973 -0.079560 -0.108193 -0.101683 0.064927 0.022608 0.012573 -0.136767 -0.171916 0.046941 -0.179605 -0.147492 -0.021159 0.039329 -0.123028 -0.053683 -0.218937 -0.023354 -0.012840 -0.023375 0.222371 -0.063109 -0.097090 -0.139150 -0.080571 0.009064 -0.066972 0.104907 0.183761 0.216840 0.034960 -0.164006 -0.075843 -0.016075 -0.177249 0.058438 0.096134 -0.051465 -0.041802 -0.002718 -0.070684 -0.046125 -0.016356 0.141976 0.001301 -0.171542 0.020962 -0.086868 -0.032203 0.010167 0.161610 0.034487 0.050170 0.003436 -0.125697 -0.064444 -0.139589 -0.135395 0.094960 -0.012140 -0.035648 -0.033319 -0.114261 0.079598 0.009221 0.156964 0.001064 -0.092576 -0.022270 0.054753 0.003462 -0.030842
207 -0.174703 -0.162014 0.049396 -0.038197 0.196980 0.044286 -0.175983 0.025125 0.032749 0.122506 0.021588 0.121735 0.137208 -0.019687 -0.037529 -0.297499 -0.009812 0.096584 0.029376 0.019223 0.006030 0.065954 -0.139579 0.026721 -0.023526 0.092482 0.096583 0.035087 -0.099766 -0.001043 0.029566 0.156615 0.048554 0.237661 0.092596 0.153095 -0.008651 0.140114 -0.027064 0.005353 -0.133715 0.243014 0.011287 -0.059067 0.046223 0.057225 -0.090222 -0.029594 0.074975 0.239276 -0.073421 0.035766 -0.016128 -0.044627 -0.026341 0.001333 -0.056296 -0.070073 -0.116697 -0.092834 0.071431 0.023631 0.019850 -0.135447 -0.177125 0.043772 -0.188553 -0.149643 -0.009673 0.029149 -0.119587 -0.047368 -0.237314 -0.008910 0.014436 -0.005012 0.222185 -0.053329 -0.096641 -0.133032 -0.087388 0.031893 -0.086998 0.119577 0.194879 0.228490 0.038465 -0.166914 -0.076038 -0.018712 -0.188425 0.046504 0.114602 -0.067058 -0.067245 0.001208 -0.076767 -0.040171 -0.016605 0.144189 0.000212 -0.184410 0.021031 -0.086171 -0.046756 -0.000656 0.147220 0.037724 0.062321 0.005970 -0.146747 -0.052901 -0.144269 -0.124216 0.105603 -0.011850 -0.035458 -0.031427 -0.126417 0.081445 0.015385 0.136407 -0.010287 -0.098665 -0.018165 0.054421 0.023299 -0.050313
135 -0.186742 -0.172113 0.053442 -0.033195 0.199003 0.039027 -0.182656 0.042538 0.038107 0.125846 0.021685 0.129608 0.134695 -0.015185 -0.035377 -0.307594 -0.008196 0.090974 0.031622 0.021972 0.002308 0.063797 -0.140807 0.024647 -0.030675 0.094588 0.107599 0.037638 -0.102706 -0.000604 0.030409 0.153065 0.048327 0.241614 0.091962 0.163570 -0.014635 0.142373 -0.031508 0.019567 -0.135223 0.244616 0.006579 -0.059346 0.047379 0.059122 -0.084428 -0.037410 0.070630 0.254434 -0.072325 0.033779 -0.017358 -0.044504 -0.036140 0.001641 -0.058770 -0.065518 -0.120978 -0.086106 0.080340 0.024624 0.024884 -0.133394 -0.185181 0.041305 -0.195370 -0.157741 -0.011404 0.025095 -0.125786 -0.040312 -0.250070 -0.002298 0.026334 0.007638 0.229883 -0.047057 -0.093013 -0.129360 -0.088229 0.048219 -0.096425 0.129769 0.203890 0.241448 0.043379 -0.163243 -0.081239 -0.016468 -0.203647 0.044149 0.116630 -0.076064 -0.083624 -0.005797 -0.081664 -0.040473 -0.010998 0.143372 0.001568 -0.190582 0.021801 -0.093624 -0.049918 -0.003439 0.150682 0.037571 0.070399 0.002774 -0.162258 -0.045532 -0.147917 -0.129225 0.105330 -0.015124 -0.036460 -0.028854 -0.140633 0.082669 0.014402 0.138139 -0.012278 -0.097982 -0.011002 0.059533 0.032835 -0.061012
14 -0.169418 -0.155972 0.051523 -0.039846 0.191967 0.043117 -0.177319 0.027029 0.025082 0.118448 0.020857 0.116005 0.133516 -0.025715 -0.036633 -0.293658 -0.011136 0.093950 0.031765 0.018397 0.007441 0.066654 -0.140175 0.023924 -0.022964 0.097759 0.101402 0.041850 -0.104605 0.002822 0.034760 0.151533 0.043272 0.233721 0.088138 0.152830 -0.013994 0.135829 -0.022079 0.003719 -0.135609 0.236013 0.014158 -0.053234 0.036819 0.056586 -0.088152 -0.029586 0.074612 0.238674 -0.073929 0.039136 -0.013940 -0.036224 -0.024393 0.001302 -0.063487 -0.063314 -0.115263 -0.097650 0.074917 0.018590 0.018499 -0.136987 -0.176271 0.045588 -0.178955 -0.152901 -0.012919 0.029289 -0.120211 -0.038995 -0.232501 -0.004509 0.012945 -0.007081 0.221095 -0.053792 -0.086994 -0.126699 -0.083832 0.030522 -0.080023 0.118091 0.185783 0.227079 0.035478 -0.162030 -0.079413 -0.017485 -0.187380 0.045346 0.107788 -0.063922 -0.069965 0.000535 -0.085536 -0.033617 -0.010569 0.136986 -0.006535 -0.180181 0.023679 -0.085154 -0.047564 0.001593 0.154474 0.040505 0.055415 0.004363 -0.144327 -0.057518 -0.146389 -0.122181 0.104183 -0.013632 -0.036774 -0.031263 -0.121733 0.076284 0.011737 0.133527 -0.006006 -0.102641 -0.012049 0.057006 0.016216 -0.048388
198 -0.214861 -0.205310 0.066712 -0.014706 0.205165 0.027601 -0.201384 0.076681 0.065112 0.141258 -0.004661 0.141757 0.126627 0.008363 -0.023137 -0.301741 -0.001485 0.077781 0.042941 0.033371 0.011483 0.072232 -0.150960 0.023516 -0.058307 0.102568 0.126374 0.026629 -0.091079 0.002897 0.019991 0.147905 0.042374 0.247120 0.096320 0.163076 -0.010536 0.153788 -0.067682 0.055048 -0.129882 0.244612 0.002177 -0.064350 0.052776 0.049284 -0.067481 -0.036849 0.039905 0.283900 -0.071985 0.024914 -0.015219 -0.034599 -0.048574 0.007090 -0.050305 -0.041367 -0.140392 -0.060742 0.085811 0.027579 0.033698 -0.123905 -0.195487 0.040787 -0.216660 -0.152278 -0.001381 0.002557 -0.115199 -0.029419 -0.277075 0.023122 0.076874 0.044086 0.238413 -0.027997 -0.092662 -0.109672 -0.100903 0.087704 -0.134288 0.155905 0.216987 0.266901 0.043722 -0.165457 -0.091455 -0.017579 -0.227545 0.018909 0.141298 -0.104548 -0.119071 0.000653 -0.088109 -0.034477 -0.010058 0.139024 0.006719 -0.212829 0.028253 -0.090775 -0.072918 -0.007086 0.133494 0.022699 0.082808 0.001389 -0.204244 -0.023788 -0.150930 -0.118280 0.120198 -0.009553 -0.026126 -0.017475 -0.163004 0.094167 0.027294 0.116312 -0.037011 -0.098514 -0.003537 0.069089 0.080110 -0.098583
150 -0.124231 -0.114339 0.032519 -0.077277 0.195456 0.076090 -0.175450 -0.038136 -0.013160 0.098815 0.057438 0.091064 0.170474 -0.070065 -0.060786 -0.331424 -0.026551 0.131184 0.025673 0.017132 -0.015205 0.055320 -0.140990 0.024337 0.012008 0.107474 0.078602 0.047372 -0.126153 -0.005591 0.049695 0.183659 0.061306 0.240852 0.087091 0.164336 -0.011387 0.127663 0.033820 -0.062206 -0.151274 0.248787 0.023269 -0.056164 0.034849 0.067513 -0.124323 -0.028147 0.130746 0.200629 -0.078029 0.066667 -0.014352 -0.050333 0.002768 -0.004139 -0.071098 -0.110068 -0.097495 -0.138976 0.063276 0.015225 0.001840 -0.160456 -0.166602 0.050037 -0.164066 -0.157935 -0.034392 0.071975 -0.127653 -0.068570 -0.208845 -0.054134 -0.072744 -0.076276 0.232070 -0.096352 -0.104457 -0.159806 -0.074811 -0.032161 -0.033484 0.071156 0.183058 0.203369 0.027276 -0.184895 -0.086129 -0.016980 -0.156955 0.082055 0.085957 -0.013136 0.001752 -0.002212 -0.072378 -0.051273 -0.023475 0.158361 -0.015336 -0.171044 0.018123 -0.099186 -0.019940 0.018367 0.200686 0.052365 0.032611 0.013009 -0.082253 -0.089551 -0.151601 -0.158736 0.094937 -0.005716 -0.041614 -0.049987 -0.091537 0.072973 -0.006343 0.190016 0.033201 -0.108511 -0.037296 0.056059 -0.055286 0.000988
45 -0.294489 -0.290910 0.099396 0.060928 0.223464 -0.025608 -0.227214 0.208478 0.142748 0.163695 -0.070708 0.182827 0.073519 0.069709 0.019681 -0.263833 0.032726 0.030166 0.056661 0.059180 0.044199 0.080877 -0.154587 0.012984 -0.131601 0.108032 0.167930 0.000178 -0.052795 0.021784 -0.014572 0.107173 0.024465 0.236285 0.095598 0.159065 -0.028564 0.182674 -0.166321 0.162411 -0.116467 0.238466 -0.010442 -0.063375 0.058404 0.009127 -0.001259 -0.026981 -0.051407 0.369908 -0.062921 -0.023349 -0.018602 -0.012661 -0.089413 0.028386 -0.030906 0.023109 -0.176530 0.016809 0.112482 0.050865 0.063894 -0.092777 -0.226811 0.046366 -0.267624 -0.156394 0.037807 -0.056060 -0.092061 0.020301 -0.333464 0.079734 0.222215 0.156043 0.239518 0.055676 -0.059782 -0.035471 -0.127489 0.203616 -0.227118 0.231965 0.230193 0.319902 0.060547 -0.133324 -0.111699 -0.016590 -0.290849 -0.049599 0.191970 -0.198105 -0.248434 0.004112 -0.118271 -0.009672 0.004792 0.119256 0.010675 -0.275081 0.055776 -0.069784 -0.126965 -0.039169 0.077564 -0.006621 0.131990 0.007438 -0.309957 0.044050 -0.178504 -0.075485 0.156013 -0.009101 -0.013054 0.002747 -0.230418 0.104515 0.059765 0.026837 -0.103463 -0.113548 0.035687 0.101193 0.219458 -0.199282
224 -0.255817 -0.243309 0.082967 0.030860 0.215751 -0.002136 -0.212861 0.147992 0.095461 0.143594 -0.037861 0.161497 0.090039 0.033535 0.000380 -0.275357 0.019514 0.050594 0.048965 0.047516 0.033466 0.073009 -0.147703 0.019084 -0.097571 0.102619 0.149469 0.014427 -0.072326 0.011150 -0.001886 0.124253 0.037722 0.230121 0.088430 0.152748 -0.022427 0.163089 -0.116479 0.109420 -0.125074 0.240312 -0.005225 -0.057964 0.054228 0.024964 -0.030419 -0.030852 -0.010188 0.326675 -0.071533 -0.004129 -0.013509 -0.025006 -0.066155 0.024024 -0.044353 -0.010070 -0.156411 -0.020929 0.101302 0.045694 0.048745 -0.110092 -0.212934 0.046085 -0.241941 -0.155665 0.024136 -0.025161 -0.100708 -0.006292 -0.296086 0.045810 0.148872 0.097300 0.237316 0.015006 -0.072209 -0.065437 -0.115801 0.147255 -0.177018 0.185170 0.222230 0.286864 0.054005 -0.140186 -0.104507 -0.016082 -0.257555 -0.020168 0.168570 -0.153310 -0.185037 -0.001359 -0.109720 -0.019760 -0.005033 0.122728 0.005216 -0.245988 0.051637 -0.080007 -0.101244 -0.019772 0.107200 0.004403 0.107813 0.007871 -0.250859 0.009409 -0.174758 -0.096397 0.141098 -0.006055 -0.019956 -0.009283 -0.196031 0.091838 0.042570 0.065880 -0.072659 -0.114197 0.012364 0.086054 0.149606 -0.150219
178 -0.100508 -0.084989 0.016742 -0.085954 0.189762 0.083380 -0.163763 -0.060682 -0.027866 0.093274 0.073375 0.081590 0.183223 -0.081847 -0.069423 -0.330424 -0.034768 0.138360 0.021286 0.012924 -0.020702 0.055408 -0.139740 0.024112 0.034558 0.104284 0.066411 0.053723 -0.134607 -0.007897 0.063228 0.184972 0.063151 0.235000 0.077778 0.162800 -0.005453 0.118740 0.054066 -0.083805 -0.153086 0.245649 0.027426 -0.053713 0.028488 0.074146 -0.132167 -0.032940 0.149747 0.180874 -0.080481 0.074599 -0.010195 -0.053801 0.010806 -0.006186 -0.080045 -0.117891 -0.085140 -0.153928 0.057975 0.008343 -0.004096 -0.162398 -0.155245 0.049929 -0.148900 -0.155657 -0.044558 0.087144 -0.125286 -0.074061 -0.185188 -0.068429 -0.105351 -0.102900 0.231064 -0.118356 -0.099839 -0.162989 -0.067696 -0.063045 -0.013141 0.054845 0.180860 0.188658 0.029971 -0.185997 -0.085079 -0.023465 -0.138467 0.097291 0.077081 0.006727 0.030709 -0.006358 -0.070363 -0.056592 -0.026527 0.155266 -0.021071 -0.154540 0.013638 -0.100359 -0.009070 0.023047 0.210693 0.054529 0.019810 0.015001 -0.054540 -0.105440 -0.143994 -0.161386 0.081217 -0.005502 -0.045780 -0.058327 -0.075214 0.065584 -0.013807 0.206535 0.047192 -0.108583 -0.047101 0.050220 -0.083498 0.023434
