30 128
133 -0.181309 -0.007977 0.046165 -0.082745 0.035162 0.020238 -0.101657 0.029663 -0.130541 0.000673 0.027783 -0.043409 -0.010336 -0.130959 -0.024615 -0.193336 0.111759 0.115071 -0.060118 0.003048 0.077829 -0.009800 -0.157731 0.062055 -0.026210 0.020751 0.016429 -0.096849 0.056295 0.036511 -0.010739 -0.089983 -0.040739 -0.074276 0.050303 0.120777 0.078627 0.071962 0.087709 0.043678 -0.066665 -0.169506 -0.088826 0.028932 -0.076885 -0.041050 -0.256183 -0.189867 -0.166303 0.143803 0.099491 -0.108721 -0.068719 0.035491 -0.086689 -0.132761 0.051279 -0.084076 -0.030036 0.089427 -0.049406 -0.028644 -0.018748 0.089757 -0.057893 -0.001286 -0.107019 -0.008451 0.054788 -0.017747 0.030964 -0.001242 -0.232384 0.185276 0.246664 0.051350 0.078810 0.129966 -0.101960 -0.051563 -0.174811 0.040416 -0.159902 -0.095195 0.067859 0.243778 0.014046 -0.106055 -0.067233 0.085997 -0.086826 0.023150 -0.055475 -0.182023 -0.195168 -0.096553 -0.082443 -0.014415 -0.029784 0.100865 0.105170 -0.250483 -0.026264 -0.058530 0.139509 0.039832 -0.083744 -0.117194 0.207045 0.005480 -0.049023 -0.044476 0.070331 -0.005408 0.076995 -0.010456 -0.148736 -0.002117 -0.087303 0.152481 0.040546 -0.104173 -0.177222 -0.196596 -0.058573 0.245258 0.169554 -0.010045
170 -0.169641 0.007738 0.035956 -0.097690 0.045354 0.023902 -0.090733 0.036299 -0.141470 -0.014469 0.007353 -0.057447 0.005197 -0.148381 -0.022090 -0.208464 0.128233 0.121426 -0.059981 0.015231 0.075911 -0.014915 -0.130746 0.060822 -0.031951 0.018512 0.022277 -0.103300 0.034395 0.049920 0.015141 -0.090833 -0.042854 -0.088157 0.024972 0.120225 0.074403 0.053249 0.100095 0.056860 -0.066890 -0.206976 -0.115062 0.033784 -0.078986 -0.045066 -0.244020 -0.187343 -0.164359 0.160128 0.100363 -0.114212 -0.068041 0.033164 -0.076930 -0.146276 0.053922 -0.083584 -0.055037 0.096078 -0.056355 -0.040425 -0.002066 0.102740 -0.065037 0.003725 -0.084968 -0.008332 0.036621 -0.000020 0.034911 0.015816 -0.236126 0.172295 0.254202 0.064935 0.090507 0.117045 -0.102681 -0.035379 -0.184940 0.051246 -0.148885 -0.093462 0.076198 0.254884 0.010867 -0.084866 -0.083677 0.070782 -0.073627 0.019365 -0.055866 -0.171303 -0.194480 -0.106961 -0.071455 -0.019171 -0.010561 0.092459 0.090923 -0.241897 -0.025646 -0.054715 0.140830 0.058439 -0.043085 -0.121888 0.208380 0.022238 -0.055934 -0.029811 0.085043 0.011757 0.078845 -0.011723 -0.144723 -0.012443 -0.088673 0.154466 0.049957 -0.108805 -0.178597 -0.187367 -0.068074 0.257712 0.163330 -0.033021
35 -0.197046 -0.001020 0.032337 -0.108536 0.032328 0.017220 -0.090033 0.020705 -0.146019 -0.008336 0.025847 -0.053865 -0.000890 -0.146388 -0.016011 -0.213330 0.116333 0.134054 -0.063828 -0.000370 0.063157 -0.027382 -0.160244 0.066154 -0.007191 0.031470 0.049307 -0.100486 0.042240 0.042498 0.008375 -0.109064 -0.057756 -0.081350 0.050968 0.129347 0.076602 0.036627 0.129024 0.031219 -0.065371 -0.195673 -0.087788 0.043460 -0.070516 -0.050714 -0.264499 -0.193851 -0.152586 0.151226 0.100760 -0.114481 -0.047548 0.041802 -0.078380 -0.154529 0.048525 -0.097638 -0.035607 0.079201 -0.047993 -0.053210 -0.006902 0.080210 -0.075632 -0.011908 -0.102005 -0.004026 0.034815 -0.011196 0.015841 0.020202 -0.218385 0.189133 0.238445 0.053350 0.101932 0.113532 -0.100039 -0.049869 -0.178196 0.036166 -0.154626 -0.115676 0.070798 0.252329 0.018190 -0.107575 -0.080599 0.097045 -0.076359 0.024947 -0.074313 -0.191689 -0.204268 -0.116149 -0.078157 -0.012088 -0.018121 0.095687 0.094876 -0.233580 -0.034305 -0.076663 0.152858 0.035715 -0.064804 -0.115444 0.190469 0.000336 -0.055605 -0.044601 0.086705 -0.001897 0.076486 -0.005514 -0.164755 0.006950 -0.093381 0.174203 0.046131 -0.080944 -0.180841 -0.189334 -0.048939 0.243845 0.144711 0.000643
198 -0.195046 0.003313 0.024124 -0.127034 0.038808 0.018798 -0.085671 0.036960 -0.141699 -0.016902 0.000605 -0.072650 0.018227 -0.156123 -0.010956 -0.229825 0.104364 0.136144 -0.060636 0.013196 0.055749 -0.040792 -0.146892 0.053378 -0.011845 0.052884 0.068930 -0.099965 0.019946 0.053343 0.032619 -0.120984 -0.061321 -0.086803 0.026177 0.134530 0.066781 0.019530 0.134777 0.048901 -0.059580 -0.226937 -0.106386 0.055791 -0.062238 -0.048874 -0.256744 -0.194882 -0.138342 0.166504 0.102872 -0.117845 -0.031019 0.050764 -0.080057 -0.154152 0.041874 -0.096547 -0.042829 0.088639 -0.036548 -0.063892 -0.001922 0.076578 -0.091178 -0.010902 -0.087022 -0.005027 0.010307 0.001584 0.017285 0.033918 -0.213128 0.187301 0.245511 0.067279 0.126655 0.091982 -0.088717 -0.035436 -0.198504 0.051922 -0.146851 -0.106231 0.071913 0.264806 0.014332 -0.083641 -0.101124 0.094255 -0.073206 0.023988 -0.072758 -0.183425 -0.200001 -0.132000 -0.067473 -0.017386 -0.004037 0.068101 0.079132 -0.219930 -0.020109 -0.087712 0.150896 0.051798 -0.023996 -0.115716 0.182345 -0.009360 -0.069592 -0.030578 0.096763 0.007125 0.082396 -0.004622 -0.173623 0.005295 -0.089467 0.178620 0.045332 -0.072057 -0.187236 -0.176689 -0.048946 0.251189 0.146215 -0.020211
3 -0.197760 0.013469 0.018441 -0.140335 0.055088 0.021189 -0.073856 0.056175 -0.151135 -0.029127 -0.021884 -0.091500 0.024504 -0.177952 -0.014650 -0.244166 0.101866 0.137762 -0.061717 0.026895 0.058981 -0.050570 -0.133501 0.046039 -0.014092 0.067009 0.079796 -0.084095 0.000249 0.072254 0.051495 -0.132827 -0.066627 -0.093773 -0.000848 0.131484 0.052614 0.016159 0.141057 0.063667 -0.066379 -0.255246 -0.121741 0.074824 -0.066836 -0.047908 -0.257567 -0.196595 -0.137577 0.185265 0.106837 -0.131834 -0.030724 0.055203 -0.080263 -0.157187 0.030349 -0.099649 -0.052163 0.096434 -0.025965 -0.061707 -0.006618 0.077017 -0.111401 -0.005698 -0.070353 -0.010654 0.000078 0.016188 0.017836 0.044152 -0.211223 0.182930 0.251147 0.068446 0.151326 0.081369 -0.070367 -0.022886 -0.228828 0.063886 -0.135580 -0.095203 0.071544 0.279543 0.016478 -0.051451 -0.125607 0.092869 -0.078016 0.026489 -0.074929 -0.177464 -0.212499 -0.152434 -0.076787 -0.011007 0.017740 0.045018 0.063212 -0.211009 -0.007240 -0.098796 0.156322 0.074743 0.017347 -0.104126 0.193274 -0.014285 -0.069256 -0.028134 0.090297 0.015714 0.091821 -0.007408 -0.181998 0.000305 -0.071388 0.166814 0.039530 -0.081134 -0.187430 -0.171310 -0.050452 0.255292 0.145320 -0.034174
191 -0.216138 -0.004336 0.036370 -0.119216 0.025463 0.009721 -0.088577 0.007456 -0.146120 -0.009898 0.046202 -0.057761 0.002940 -0.150097 -0.002583 -0.219605 0.104320 0.144307 -0.071739 -0.025917 0.040662 -0.039600 -0.174262 0.067928 0.013269 0.035946 0.072938 -0.114361 0.051249 0.035028 0.005541 -0.127108 -0.076093 -0.078834 0.068587 0.140749 0.079564 0.018502 0.157558 0.010185 -0.051816 -0.196660 -0.077969 0.050500 -0.061954 -0.054170 -0.279026 -0.199748 -0.134604 0.147159 0.103443 -0.109177 -0.024612 0.053671 -0.083718 -0.163119 0.047644 -0.108763 -0.020235 0.071774 -0.045157 -0.069617 -0.006634 0.064659 -0.075355 -0.017064 -0.112179 -0.004488 0.024407 -0.025790 -0.002558 0.027818 -0.211685 0.210116 0.232905 0.062877 0.108158 0.107108 -0.102953 -0.063192 -0.157830 0.029166 -0.157419 -0.135145 0.061163 0.245510 0.014543 -0.127449 -0.066651 0.108796 -0.074068 0.036529 -0.088813 -0.210348 -0.205123 -0.113554 -0.070999 -0.017754 -0.028671 0.100838 0.089550 -0.222727 -0.035829 -0.082247 0.158331 0.013333 -0.083172 -0.126750 0.158805 -0.021131 -0.065567 -0.048434 0.098547 -0.006099 0.074600 -0.003771 -0.185156 0.020406 -0.105824 0.198448 0.042140 -0.045388 -0.185674 -0.187264 -0.033138 0.226131 0.125269 0.024245
142 -0.199448 -0.004055 0.025938 -0.122749 0.032166 0.015950 -0.082580 0.024365 -0.141384 -0.010112 0.015070 -0.062853 0.008151 -0.145642 -0.010145 -0.219454 0.096256 0.133815 -0.063732 -0.001563 0.049074 -0.038705 -0.160535 0.051886 0.001253 0.045288 0.069912 -0.091535 0.029236 0.044326 0.014648 -0.119277 -0.059126 -0.075523 0.039397 0.132390 0.064723 0.019168 0.138744 0.026671 -0.053580 -0.196213 -0.085750 0.051169 -0.064289 -0.042350 -0.264833 -0.185354 -0.126565 0.154026 0.093121 -0.105718 -0.024550 0.052969 -0.078831 -0.140227 0.033763 -0.099570 -0.026391 0.069186 -0.030562 -0.055257 -0.011884 0.060589 -0.087029 -0.007390 -0.097566 -0.010175 0.021290 -0.006760 0.003966 0.021984 -0.203713 0.184570 0.223184 0.056181 0.117644 0.093146 -0.087655 -0.051478 -0.179752 0.033577 -0.141864 -0.110237 0.062543 0.244635 0.018743 -0.094610 -0.086920 0.100832 -0.079372 0.031925 -0.076570 -0.186884 -0.196291 -0.123449 -0.075455 -0.013624 -0.014619 0.074738 0.079108 -0.213221 -0.021606 -0.086943 0.150091 0.035944 -0.045507 -0.107588 0.173470 -0.022265 -0.060707 -0.043110 0.079983 -0.005375 0.076856 -0.011126 -0.170636 0.009162 -0.081332 0.173547 0.040487 -0.058419 -0.173365 -0.178299 -0.038495 0.226127 0.130133 0.011111
224 -0.182383 0.011863 0.021523 -0.120302 0.055754 0.021193 -0.077782 0.057733 -0.143844 -0.026419 -0.020331 -0.074521 0.016750 -0.161508 -0.015500 -0.222502 0.110550 0.127417 -0.060050 0.030665 0.066541 -0.042194 -0.119236 0.046607 -0.028746 0.052320 0.059614 -0.089643 0.006680 0.064389 0.040256 -0.112193 -0.052011 -0.096774 0.003189 0.122407 0.055191 0.024058 0.118940 0.064365 -0.071046 -0.233739 -0.122844 0.058754 -0.064720 -0.049132 -0.238552 -0.185115 -0.141775 0.174889 0.099796 -0.126329 -0.041042 0.042828 -0.076369 -0.143935 0.037104 -0.091321 -0.054729 0.098359 -0.033210 -0.049811 0.000698 0.082997 -0.100384 -0.002166 -0.076857 -0.009524 0.014584 0.014609 0.028589 0.035691 -0.214908 0.167085 0.254864 0.070382 0.132529 0.090394 -0.081826 -0.019544 -0.216561 0.064872 -0.140095 -0.091490 0.078514 0.268213 0.015336 -0.055545 -0.112733 0.082293 -0.075959 0.017487 -0.062246 -0.169587 -0.200622 -0.137958 -0.072309 -0.014726 0.008477 0.057749 0.069538 -0.224393 -0.008404 -0.082237 0.148997 0.070569 0.001220 -0.110973 0.201327 0.005821 -0.066715 -0.023806 0.084722 0.015466 0.088538 -0.006729 -0.167063 -0.006921 -0.079726 0.158090 0.045941 -0.094557 -0.189203 -0.177654 -0.059587 0.258838 0.158284 -0.044218
108 -0.209323 0.015224 0.012580 -0.149816 0.054298 0.022318 -0.078687 0.059224 -0.151988 -0.024497 -0.017114 -0.095726 0.029644 -0.183528 -0.010884 -0.252677 0.094453 0.146196 -0.064142 0.032377 0.066983 -0.055534 -0.140243 0.046661 -0.014430 0.078306 0.084474 -0.091018 -0.006280 0.060487 0.057556 -0.136687 -0.071296 -0.104432 0.004538 0.145083 0.051428 0.007119 0.148547 0.064196 -0.061986 -0.259455 -0.126260 0.074123 -0.066374 -0.045742 -0.275392 -0.205918 -0.131598 0.186527 0.105573 -0.136474 -0.015829 0.061516 -0.087704 -0.162544 0.032860 -0.108428 -0.047329 0.092907 -0.022650 -0.069892 -0.005597 0.072759 -0.121740 -0.006150 -0.078049 -0.017350 -0.008490 0.015866 0.013393 0.045538 -0.209663 0.192324 0.251342 0.075826 0.155033 0.078746 -0.073410 -0.023841 -0.238527 0.057962 -0.140108 -0.098435 0.070526 0.289322 0.017106 -0.057464 -0.122037 0.100637 -0.077299 0.028526 -0.083475 -0.184503 -0.217067 -0.161428 -0.077775 -0.016576 0.010386 0.047955 0.076317 -0.217082 0.004411 -0.104982 0.156528 0.067949 0.016197 -0.107207 0.195880 -0.020216 -0.078342 -0.030638 0.098898 0.011917 0.091631 -0.003459 -0.195180 0.001668 -0.076685 0.177556 0.039158 -0.075193 -0.191418 -0.168375 -0.040995 0.260948 0.147007 -0.035970
45 -0.184275 0.013915 0.016714 -0.133905 0.059153 0.021560 -0.073991 0.060744 -0.142633 -0.027616 -0.026272 -0.080842 0.026549 -0.168895 -0.016261 -0.236873 0.111882 0.135948 -0.065086 0.033257 0.061936 -0.047134 -0.122246 0.043660 -0.025721 0.058629 0.060862 -0.095483 0.003914 0.072256 0.049204 -0.119431 -0.063472 -0.095100 0.002357 0.132663 0.051299 0.022781 0.131710 0.060823 -0.070574 -0.248676 -0.124981 0.060731 -0.068837 -0.052618 -0.246022 -0.187594 -0.136914 0.186160 0.106501 -0.129813 -0.042187 0.049449 -0.077366 -0.155505 0.039452 -0.095803 -0.059307 0.098609 -0.035216 -0.059271 0.001515 0.087461 -0.106819 -0.001827 -0.074779 -0.008742 0.006564 0.019878 0.027223 0.048238 -0.221501 0.169209 0.262730 0.077714 0.143039 0.091012 -0.077636 -0.017897 -0.220215 0.063196 -0.143709 -0.088347 0.074716 0.277586 0.015730 -0.056887 -0.117960 0.081501 -0.076316 0.022798 -0.071006 -0.170722 -0.205478 -0.140486 -0.067091 -0.014975 0.017801 0.058045 0.063567 -0.219146 -0.013128 -0.081221 0.152027 0.068466 0.011984 -0.107206 0.198320 0.005743 -0.071784 -0.019669 0.088503 0.018709 0.086523 -0.010679 -0.171641 -0.007541 -0.078264 0.163100 0.048539 -0.089368 -0.188028 -0.171444 -0.052073 0.263069 0.154804 -0.045205
89 -0.199444 -0.001974 0.039905 -0.107051 0.029225 0.018566 -0.090189 0.008198 -0.140262 -0.006166 0.039897 -0.045989 -0.007348 -0.138992 -0.005326 -0.211727 0.107645 0.125558 -0.064338 -0.021711 0.052555 -0.028181 -0.157717 0.070588 -0.003099 0.024862 0.049137 -0.114243 0.049985 0.035406 -0.000960 -0.108513 -0.064455 -0.079479 0.057766 0.129047 0.079970 0.033336 0.133616 0.019486 -0.046370 -0.185690 -0.084592 0.037723 -0.061563 -0.054688 -0.257000 -0.189403 -0.145181 0.149033 0.098338 -0.110632 -0.047645 0.047937 -0.076825 -0.156874 0.055428 -0.097728 -0.030664 0.077043 -0.056833 -0.054492 -0.004617 0.079983 -0.070809 -0.009060 -0.109222 -0.002514 0.032421 -0.023551 0.006540 0.020282 -0.214263 0.189577 0.237660 0.063570 0.094930 0.120663 -0.106070 -0.062085 -0.155517 0.030451 -0.155549 -0.118833 0.058680 0.242490 0.012691 -0.118829 -0.061207 0.093736 -0.075200 0.034699 -0.081451 -0.199852 -0.194224 -0.099801 -0.062992 -0.022708 -0.028003 0.102444 0.098064 -0.231162 -0.036739 -0.064424 0.155116 0.025900 -0.080242 -0.130613 0.172596 -0.007782 -0.063947 -0.043297 0.093539 -0.007033 0.068373 -0.005423 -0.168265 0.015557 -0.105876 0.188001 0.048462 -0.060799 -0.184332 -0.181012 -0.043844 0.237563 0.143493 0.015723
84 -0.136539 -0.061760 0.178484 0.136482 -0.014688 0.022952 -0.197849 -0.091259 -0.100123 0.102241 0.236884 0.134097 -0.159094 0.009388 -0.076895 -0.015454 0.230296 0.032863 -0.080735 -0.110343 0.118741 0.164630 -0.241560 0.170476 -0.048664 -0.207597 -0.259569 -0.171654 0.311714 -0.077291 -0.248537 0.076233 0.037713 -0.000085 0.257606 0.067142 0.218209 0.300268 -0.093141 -0.036075 -0.070889 0.111065 0.010810 -0.145567 -0.138055 -0.041721 -0.239866 -0.177449 -0.314457 0.023963 0.102345 -0.029566 -0.279334 -0.049595 -0.123222 -0.098931 0.160328 -0.016980 0.009706 0.095197 -0.204685 0.094401 -0.045546 0.207177 0.171456 0.004941 -0.232862 0.037088 0.282835 -0.171764 0.120064 -0.164972 -0.387528 0.208834 0.283248 -0.003414 -0.171173 0.333085 -0.252859 -0.173133 0.046000 -0.040632 -0.294538 -0.131287 0.080979 0.129609 -0.011401 -0.352352 0.154590 0.036139 -0.125645 0.020446 0.001793 -0.208345 -0.160460 0.168417 -0.103020 -0.028835 -0.201739 0.381153 0.249869 -0.445764 -0.168819 0.120538 0.112189 -0.076323 -0.498895 -0.211905 0.308550 0.117984 0.041420 -0.090561 0.039475 -0.069903 0.022684 -0.000198 -0.033589 -0.012122 -0.175904 0.152370 0.056789 -0.226044 -0.179976 -0.325940 -0.142844 0.251704 0.297382 0.077082
207 -0.126754 -0.062176 0.163498 0.123029 -0.015805 0.015799 -0.180573 -0.090088 -0.093466 0.095486 0.218324 0.129279 -0.151760 0.012438 -0.068710 -0.017362 0.218679 0.031034 -0.080813 -0.109447 0.115032 0.154879 -0.228466 0.161733 -0.042927 -0.199058 -0.243471 -0.168536 0.293892 -0.068659 -0.236920 0.067236 0.038960 0.002819 0.242467 0.059083 0.205823 0.277923 -0.082789 -0.034395 -0.060087 0.101434 0.010944 -0.135621 -0.121977 -0.043656 -0.222340 -0.164071 -0.295568 0.026412 0.095127 -0.029304 -0.259622 -0.048303 -0.111327 -0.092629 0.153059 -0.021972 0.010100 0.085532 -0.196290 0.085677 -0.037878 0.189865 0.159073 0.000446 -0.214825 0.037026 0.266749 -0.156640 0.111762 -0.153691 -0.358599 0.190720 0.266742 -0.003098 -0.166753 0.311601 -0.239541 -0.169175 0.042742 -0.039452 -0.272507 -0.126826 0.074024 0.116835 -0.011012 -0.331070 0.148795 0.030236 -0.110449 0.020332 0.004372 -0.194897 -0.144480 0.159524 -0.089343 -0.026643 -0.189393 0.355992 0.228887 -0.413730 -0.160953 0.116502 0.104628 -0.073513 -0.465529 -0.194119 0.281835 0.111774 0.038850 -0.082215 0.034201 -0.059136 0.023989 -0.003416 -0.035348 -0.013501 -0.163658 0.144583 0.062458 -0.216027 -0.172468 -0.307283 -0.136474 0.235207 0.274195 0.077279
31 -0.212547 0.003740 0.027736 -0.136063 0.032856 0.008605 -0.082575 0.018952 -0.154509 -0.016821 0.021128 -0.069466 0.016927 -0.167105 -0.002927 -0.244081 0.096016 0.150264 -0.066547 -0.008132 0.044602 -0.052471 -0.167117 0.063970 0.009085 0.054559 0.091164 -0.103627 0.025720 0.049828 0.025655 -0.133623 -0.081028 -0.084212 0.040952 0.148167 0.066935 0.003007 0.170258 0.023044 -0.048311 -0.225642 -0.093474 0.062554 -0.061311 -0.053824 -0.280312 -0.203654 -0.128993 0.170356 0.100008 -0.115543 -0.015399 0.057265 -0.078011 -0.167266 0.040966 -0.111096 -0.037743 0.069706 -0.032582 -0.079557 -0.006481 0.062723 -0.100634 -0.016143 -0.096272 -0.009319 0.002810 -0.006362 -0.005641 0.039166 -0.198973 0.196843 0.235056 0.068168 0.134782 0.090744 -0.083128 -0.046560 -0.182115 0.038215 -0.147668 -0.125624 0.060051 0.258168 0.013247 -0.100152 -0.090092 0.102313 -0.075981 0.039295 -0.085232 -0.201668 -0.210036 -0.132342 -0.069027 -0.019443 -0.009978 0.073939 0.073460 -0.209420 -0.023676 -0.097928 0.156994 0.035922 -0.031639 -0.113393 0.162309 -0.023512 -0.075652 -0.041560 0.099395 -0.002544 0.077777 0.000481 -0.192472 0.023719 -0.100393 0.196167 0.040292 -0.048883 -0.189650 -0.177608 -0.033725 0.242028 0.119438 0.009054
233 -0.204156 0.001964 0.027257 -0.131453 0.041191 0.016336 -0.082469 0.034029 -0.150085 -0.023335 0.000922 -0.071699 0.015602 -0.162830 -0.004025 -0.234452 0.107322 0.145601 -0.063892 0.005658 0.052807 -0.046941 -0.152323 0.057892 -0.002713 0.055536 0.076280 -0.105459 0.021202 0.057103 0.035386 -0.129464 -0.065113 -0.088048 0.024186 0.141704 0.060043 0.010910 0.151143 0.041584 -0.056530 -0.234716 -0.103691 0.063647 -0.064139 -0.050818 -0.267667 -0.193833 -0.130082 0.173134 0.104569 -0.122043 -0.024880 0.057139 -0.075092 -0.157062 0.040976 -0.099255 -0.037980 0.080925 -0.036462 -0.070288 -0.002618 0.075363 -0.096656 -0.006604 -0.085236 -0.005092 0.005932 -0.000985 0.008384 0.037553 -0.211304 0.189064 0.247170 0.070389 0.131915 0.097139 -0.085928 -0.040743 -0.195454 0.048752 -0.144418 -0.112723 0.063547 0.269849 0.013806 -0.087708 -0.101538 0.100376 -0.073490 0.029716 -0.084114 -0.195797 -0.208715 -0.134241 -0.065261 -0.019762 -0.005295 0.064915 0.076424 -0.220359 -0.021866 -0.088049 0.156771 0.044317 -0.019381 -0.116852 0.174394 -0.010189 -0.070567 -0.030235 0.100265 0.009792 0.079326 -0.004504 -0.183419 0.009945 -0.094743 0.186041 0.041032 -0.063552 -0.188426 -0.176131 -0.042441 0.249228 0.138711 -0.008684
163 -0.176244 -0.002186 0.037279 -0.094436 0.038839 0.018207 -0.093189 0.041896 -0.132577 -0.010045 0.009416 -0.049869 0.001005 -0.144097 -0.029506 -0.202074 0.107353 0.117799 -0.062836 0.019591 0.082289 -0.018822 -0.147775 0.058086 -0.021400 0.031537 0.022264 -0.084614 0.032016 0.035852 0.006695 -0.099159 -0.036852 -0.077848 0.036681 0.114788 0.067163 0.056723 0.094102 0.049539 -0.070327 -0.186939 -0.098409 0.037276 -0.075670 -0.037804 -0.255840 -0.191999 -0.151961 0.150139 0.097400 -0.117169 -0.055999 0.033117 -0.086547 -0.133419 0.048742 -0.083366 -0.033379 0.094195 -0.040095 -0.029403 -0.020365 0.082485 -0.072411 -0.003220 -0.101111 -0.010250 0.034920 -0.003413 0.036160 0.000593 -0.224418 0.180151 0.246761 0.058239 0.096566 0.118630 -0.087469 -0.043885 -0.192737 0.042787 -0.150016 -0.089907 0.073442 0.255272 0.014892 -0.088136 -0.086681 0.090914 -0.088051 0.023484 -0.056339 -0.174545 -0.196258 -0.113504 -0.086280 -0.012907 -0.022471 0.094706 0.102111 -0.240707 -0.013517 -0.068308 0.136150 0.055365 -0.059705 -0.117317 0.210629 -0.000951 -0.050803 -0.042839 0.071496 0.004762 0.076625 -0.012206 -0.159644 -0.010505 -0.078458 0.148351 0.036078 -0.102787 -0.174725 -0.184921 -0.053530 0.243262 0.162892 -0.025051
61 -0.209882 -0.000423 0.026750 -0.134252 0.031846 0.011534 -0.082040 0.024284 -0.145807 -0.019773 0.012942 -0.072595 0.011764 -0.159119 -0.003831 -0.235113 0.103652 0.146503 -0.068683 -0.007876 0.043585 -0.050856 -0.159831 0.056446 0.005860 0.047861 0.081604 -0.107441 0.027024 0.047317 0.026751 -0.136326 -0.077181 -0.089813 0.037531 0.143961 0.068354 0.004562 0.161812 0.027649 -0.050023 -0.228293 -0.092561 0.060772 -0.061697 -0.053408 -0.272446 -0.194846 -0.127773 0.168132 0.104917 -0.117414 -0.019009 0.057727 -0.081674 -0.159905 0.040889 -0.106452 -0.037775 0.074807 -0.040236 -0.077362 0.001265 0.071360 -0.094559 -0.012140 -0.096060 -0.010229 0.012704 -0.004897 -0.002209 0.043686 -0.205862 0.196076 0.242990 0.072629 0.127959 0.097855 -0.088890 -0.046244 -0.180458 0.041657 -0.150880 -0.123505 0.058680 0.259491 0.018586 -0.101520 -0.089761 0.106079 -0.074320 0.035456 -0.085703 -0.202697 -0.206332 -0.126706 -0.062422 -0.020337 -0.010733 0.071361 0.076942 -0.213839 -0.022257 -0.087371 0.158869 0.032743 -0.038085 -0.120163 0.164454 -0.018434 -0.073799 -0.034659 0.102831 0.002431 0.074253 -0.000596 -0.187396 0.017771 -0.099313 0.191051 0.044366 -0.048930 -0.188096 -0.175537 -0.033253 0.245519 0.125784 0.005582
205 -0.115075 -0.042143 0.132560 0.083876 -0.008438 0.012313 -0.154801 -0.058866 -0.093936 0.073634 0.173176 0.089814 -0.119784 -0.012787 -0.062623 -0.043951 0.183395 0.038458 -0.070473 -0.076007 0.097036 0.116688 -0.195202 0.126757 -0.041904 -0.146977 -0.185095 -0.139670 0.229333 -0.048243 -0.182608 0.038562 0.023698 -0.010383 0.188545 0.063371 0.168505 0.223437 -0.054790 -0.020006 -0.055095 0.051976 -0.007667 -0.102147 -0.110935 -0.039434 -0.202971 -0.155651 -0.247921 0.040560 0.088434 -0.032401 -0.207666 -0.030570 -0.100414 -0.085720 0.117497 -0.021197 0.004154 0.075827 -0.153794 0.060568 -0.029852 0.160170 0.116124 -0.000531 -0.176933 0.023973 0.208060 -0.123350 0.091641 -0.117113 -0.309912 0.171599 0.235441 0.003605 -0.116067 0.253618 -0.191589 -0.128993 0.010696 -0.024548 -0.230558 -0.109861 0.067309 0.121632 -0.004063 -0.263311 0.103292 0.033738 -0.101777 0.019552 -0.005203 -0.167073 -0.136250 0.107934 -0.085806 -0.020311 -0.146501 0.287620 0.186678 -0.352652 -0.126407 0.079895 0.101610 -0.045770 -0.364388 -0.167242 0.249975 0.089303 0.028615 -0.067944 0.033177 -0.051523 0.023361 -0.007052 -0.037806 -0.013490 -0.130958 0.122176 0.048604 -0.179390 -0.149601 -0.259953 -0.112302 0.213167 0.232291 0.057865
185 -0.201487 0.008309 0.017239 -0.126649 0.041783 0.020793 -0.084912 0.048703 -0.140097 -0.016212 -0.002776 -0.080590 0.022724 -0.169284 -0.016760 -0.229314 0.099106 0.139338 -0.064188 0.026293 0.071881 -0.047314 -0.152312 0.050419 -0.013502 0.064252 0.068110 -0.086646 0.005917 0.048030 0.033845 -0.130545 -0.055751 -0.096742 0.017025 0.131968 0.063396 0.024875 0.130767 0.054334 -0.066801 -0.227275 -0.108640 0.066593 -0.069270 -0.043776 -0.274776 -0.202020 -0.140504 0.172373 0.105837 -0.124016 -0.027364 0.051528 -0.089137 -0.154214 0.038187 -0.101467 -0.035408 0.096963 -0.020871 -0.055899 -0.014515 0.067398 -0.100710 -0.002311 -0.094233 -0.015611 0.006261 0.006337 0.019991 0.024240 -0.212364 0.196313 0.250366 0.069431 0.137306 0.095720 -0.078349 -0.037840 -0.225023 0.048388 -0.143938 -0.095151 0.066897 0.273593 0.018162 -0.069660 -0.109857 0.107237 -0.083432 0.025025 -0.075939 -0.191045 -0.208696 -0.145442 -0.084097 -0.017571 -0.005476 0.067653 0.088185 -0.229731 -0.002499 -0.093375 0.151537 0.064013 -0.013308 -0.115797 0.198986 -0.022477 -0.063837 -0.038058 0.084634 0.011394 0.088810 -0.005774 -0.185514 -0.005083 -0.078558 0.170458 0.036273 -0.083938 -0.185387 -0.179238 -0.043539 0.251455 0.149966 -0.027298
164 -0.168801 0.000359 0.042712 -0.086890 0.041688 0.021259 -0.099015 0.036532 -0.136503 -0.005201 0.017243 -0.043491 -0.002483 -0.135956 -0.027546 -0.189554 0.114220 0.115686 -0.061293 0.005877 0.074229 -0.012410 -0.146110 0.057991 -0.023977 0.022233 0.017444 -0.094755 0.051891 0.042486 0.003657 -0.089653 -0.038937 -0.080629 0.039190 0.119147 0.076296 0.067254 0.091696 0.049395 -0.070967 -0.183328 -0.100850 0.029825 -0.076993 -0.045164 -0.242452 -0.183711 -0.165183 0.145909 0.101754 -0.105426 -0.074541 0.030851 -0.084630 -0.135908 0.054855 -0.082780 -0.037580 0.091687 -0.054190 -0.030773 -0.015789 0.093283 -0.056466 -0.004295 -0.094040 -0.008409 0.048777 -0.010745 0.038908 0.003730 -0.233753 0.179599 0.247775 0.055027 0.081962 0.124757 -0.100694 -0.044744 -0.177511 0.046837 -0.154725 -0.092481 0.069411 0.245736 0.007999 -0.097715 -0.075309 0.080825 -0.083199 0.024820 -0.052866 -0.170499 -0.193638 -0.096390 -0.079044 -0.019638 -0.023872 0.100035 0.094801 -0.250876 -0.029216 -0.056534 0.145013 0.045675 -0.069992 -0.120636 0.207222 0.015982 -0.052791 -0.036607 0.078470 -0.001603 0.077767 -0.004442 -0.150805 -0.006628 -0.091494 0.152486 0.040878 -0.108495 -0.181396 -0.190319 -0.067703 0.250526 0.173140 -0.024526
173 -0.167692 0.009841 0.036987 -0.097512 0.045635 0.022130 -0.084737 0.046640 -0.132248 -0.012626 -0.003391 -0.066026 0.007082 -0.142942 -0.018583 -0.205214 0.110077 0.123298 -0.056659 0.020744 0.073960 -0.026017 -0.124009 0.051231 -0.025666 0.038217 0.030700 -0.087995 0.026868 0.057121 0.026685 -0.094171 -0.045008 -0.087078 0.018414 0.121166 0.068710 0.046476 0.093783 0.061849 -0.069564 -0.205305 -0.114165 0.041229 -0.071884 -0.048333 -0.235871 -0.175722 -0.144767 0.154499 0.101592 -0.116126 -0.054146 0.034097 -0.073318 -0.133127 0.041655 -0.077065 -0.050000 0.092148 -0.038758 -0.041978 -0.004562 0.086969 -0.078234 0.002147 -0.079346 -0.004303 0.027927 0.003329 0.036903 0.018918 -0.215801 0.166431 0.251008 0.064867 0.105779 0.105721 -0.087706 -0.025686 -0.194690 0.054023 -0.142422 -0.084522 0.074253 0.252009 0.007995 -0.068905 -0.089631 0.076205 -0.071845 0.020511 -0.057288 -0.165709 -0.194998 -0.114238 -0.070583 -0.020886 -0.008589 0.072694 0.077208 -0.232197 -0.013793 -0.064060 0.144195 0.057356 -0.026958 -0.108752 0.201769 0.013849 -0.052932 -0.033121 0.082196 0.009502 0.081839 -0.010306 -0.147792 -0.006084 -0.080108 0.152959 0.041574 -0.096927 -0.175662 -0.175057 -0.061852 0.249281 0.162975 -0.035627
172 -0.183603 0.004117 0.034038 -0.104211 0.041288 0.012611 -0.086545 0.030287 -0.137007 -0.003583 0.022852 -0.048768 -0.000967 -0.142581 -0.026541 -0.207027 0.111447 0.124867 -0.066735 0.007091 0.062162 -0.022055 -0.150573 0.057338 -0.018723 0.024252 0.034430 -0.094024 0.042761 0.041513 0.004650 -0.100027 -0.050418 -0.072737 0.043256 0.121906 0.076508 0.050436 0.112799 0.036600 -0.065773 -0.184134 -0.092651 0.037462 -0.069351 -0.041594 -0.258510 -0.190199 -0.150421 0.151569 0.099517 -0.109339 -0.050093 0.034804 -0.084819 -0.141835 0.042910 -0.091849 -0.036837 0.078597 -0.050190 -0.045865 -0.009782 0.085476 -0.070488 -0.011633 -0.091646 -0.003690 0.037260 -0.008142 0.018052 0.012100 -0.221478 0.182551 0.233756 0.057514 0.097925 0.108771 -0.096113 -0.051335 -0.176787 0.041460 -0.155264 -0.098420 0.071061 0.243104 0.017366 -0.099341 -0.070735 0.083962 -0.081016 0.027597 -0.064909 -0.172763 -0.188430 -0.110576 -0.080306 -0.012535 -0.017665 0.098023 0.094321 -0.230606 -0.033210 -0.070863 0.144395 0.042485 -0.058328 -0.110539 0.195221 0.005405 -0.050077 -0.036471 0.076401 -0.005219 0.073165 -0.012964 -0.158253 0.002798 -0.088990 0.158116 0.041411 -0.083583 -0.175554 -0.181029 -0.052620 0.236464 0.148956 -0.010041
87 -0.199916 0.009294 0.016446 -0.134603 0.050869 0.028082 -0.085355 0.065408 -0.138745 -0.024498 -0.024454 -0.087119 0.032066 -0.176829 -0.017420 -0.236222 0.088675 0.136782 -0.060003 0.038751 0.083179 -0.053711 -0.145838 0.038288 -0.024611 0.079426 0.069024 -0.073227 -0.009591 0.054182 0.053087 -0.134957 -0.054497 -0.101545 0.004612 0.132419 0.054324 0.028452 0.122582 0.072687 -0.077477 -0.246000 -0.127503 0.074384 -0.065515 -0.038564 -0.276367 -0.207135 -0.137037 0.175781 0.098532 -0.135614 -0.028824 0.054076 -0.092129 -0.150044 0.033876 -0.105471 -0.039263 0.102344 -0.009087 -0.049654 -0.016427 0.065384 -0.110074 0.000387 -0.088783 -0.020513 0.001727 0.020557 0.027224 0.025020 -0.213091 0.194243 0.256989 0.064612 0.152373 0.084582 -0.068834 -0.023559 -0.253131 0.059149 -0.141884 -0.082997 0.070081 0.291537 0.017047 -0.053162 -0.127275 0.108184 -0.089103 0.021497 -0.072120 -0.184229 -0.212932 -0.164382 -0.085892 -0.012669 0.003699 0.046636 0.084580 -0.229486 0.012177 -0.106247 0.153057 0.078537 0.010250 -0.106502 0.214453 -0.025346 -0.068726 -0.037678 0.077242 0.015568 0.095750 -0.009048 -0.192362 -0.010305 -0.069774 0.159250 0.032755 -0.091115 -0.189864 -0.180855 -0.048866 0.261705 0.161080 -0.047799
111 -0.181386 0.004576 0.032134 -0.109996 0.042532 0.018616 -0.089895 0.029249 -0.139302 -0.013141 0.016563 -0.061445 0.000185 -0.147996 -0.019892 -0.213489 0.108653 0.122556 -0.063339 -0.000768 0.054570 -0.024422 -0.146480 0.061463 -0.013016 0.027382 0.045498 -0.103301 0.040412 0.048237 0.015711 -0.107146 -0.052359 -0.079955 0.036207 0.123595 0.071783 0.041855 0.120834 0.035887 -0.053522 -0.198594 -0.096833 0.046804 -0.065716 -0.049796 -0.246843 -0.184247 -0.144187 0.159291 0.098382 -0.114755 -0.053684 0.042170 -0.074987 -0.151317 0.046610 -0.085901 -0.039608 0.081961 -0.044383 -0.051386 -0.007925 0.085165 -0.073450 -0.005345 -0.089762 -0.000814 0.031972 -0.006419 0.017328 0.024856 -0.219314 0.180924 0.237185 0.059460 0.106059 0.111000 -0.095362 -0.045182 -0.178014 0.044348 -0.151238 -0.106178 0.061907 0.246340 0.010990 -0.096619 -0.079417 0.082434 -0.075698 0.026666 -0.069356 -0.181581 -0.195915 -0.104345 -0.070000 -0.018998 -0.016141 0.089813 0.088579 -0.232564 -0.032574 -0.071020 0.148444 0.046948 -0.055800 -0.121369 0.187556 0.000068 -0.058862 -0.033642 0.089734 0.000195 0.075261 -0.007444 -0.163648 0.004453 -0.091403 0.173170 0.045740 -0.081062 -0.181020 -0.182942 -0.054099 0.243959 0.149706 -0.008013
26 -0.177866 0.008495 0.038325 -0.105669 0.049985 0.018993 -0.089575 0.041672 -0.145938 -0.014740 0.002166 -0.062708 0.008398 -0.154158 -0.024522 -0.211917 0.123809 0.123758 -0.065870 0.020701 0.080904 -0.021599 -0.134487 0.061097 -0.033864 0.028221 0.022440 -0.103455 0.030872 0.055542 0.017522 -0.097645 -0.045739 -0.092039 0.023413 0.119953 0.075759 0.051199 0.101271 0.054622 -0.070877 -0.213957 -0.117880 0.036928 -0.078332 -0.042323 -0.257658 -0.193561 -0.161707 0.169513 0.107553 -0.116803 -0.064742 0.033045 -0.083144 -0.145584 0.051741 -0.085822 -0.054676 0.098704 -0.047899 -0.042531 -0.004511 0.101838 -0.075828 -0.000353 -0.089323 -0.010703 0.036664 0.000569 0.036834 0.017924 -0.237718 0.175097 0.264234 0.062787 0.099636 0.115260 -0.098429 -0.038258 -0.200245 0.055551 -0.155862 -0.091529 0.080426 0.266221 0.008131 -0.084883 -0.088755 0.079094 -0.080560 0.022234 -0.055940 -0.170668 -0.195819 -0.116401 -0.077031 -0.015427 -0.007087 0.087022 0.092552 -0.246703 -0.021218 -0.060124 0.147546 0.060751 -0.038628 -0.118233 0.217200 0.018069 -0.061546 -0.033970 0.082378 0.011535 0.082430 -0.011121 -0.154708 -0.010554 -0.081992 0.153394 0.047263 -0.108573 -0.190023 -0.194208 -0.061938 0.266456 0.167960 -0.036941
85 -0.188835 -0.001867 0.040642 -0.105433 0.036235 0.016681 -0.094143 0.026054 -0.144247 -0.008617 0.014819 -0.059008 -0.001254 -0.143003 -0.011681 -0.211778 0.115143 0.130137 -0.069071 -0.002044 0.069030 -0.020842 -0.153512 0.061527 -0.020083 0.024566 0.033737 -0.109759 0.039366 0.046971 0.010499 -0.107866 -0.052071 -0.085991 0.039909 0.130949 0.074280 0.049579 0.115446 0.046004 -0.060298 -0.206078 -0.105098 0.037303 -0.074372 -0.050610 -0.258516 -0.195563 -0.158249 0.163723 0.106283 -0.112779 -0.060478 0.045382 -0.084415 -0.147994 0.056387 -0.086794 -0.040083 0.092869 -0.051514 -0.050542 -0.007292 0.091842 -0.068360 -0.004980 -0.093829 -0.003888 0.036187 -0.010564 0.025222 0.022053 -0.234933 0.181976 0.256735 0.064457 0.097160 0.119175 -0.106672 -0.044536 -0.177252 0.045465 -0.153643 -0.107702 0.071962 0.251063 0.013359 -0.102822 -0.081261 0.083301 -0.082380 0.026051 -0.064385 -0.187599 -0.201567 -0.104313 -0.068691 -0.017134 -0.020430 0.094849 0.093486 -0.245775 -0.031882 -0.062476 0.153359 0.043135 -0.060377 -0.125679 0.196269 0.002931 -0.056176 -0.036646 0.085136 0.005977 0.079041 -0.005930 -0.158981 -0.003532 -0.093699 0.166246 0.050338 -0.086325 -0.186527 -0.193408 -0.059804 0.256864 0.156061 -0.015857
135 -0.207150 -0.003756 0.034192 -0.115797 0.032535 0.013962 -0.089637 0.025485 -0.144493 -0.011556 0.030082 -0.056569 0.001313 -0.150284 -0.011693 -0.227433 0.116683 0.135948 -0.071303 -0.008676 0.053329 -0.034913 -0.161296 0.066570 -0.002178 0.030716 0.055239 -0.110744 0.043727 0.042829 0.011858 -0.122192 -0.062387 -0.082856 0.051317 0.141710 0.074412 0.031846 0.140401 0.035452 -0.057146 -0.208861 -0.095176 0.048143 -0.066015 -0.050585 -0.269355 -0.203285 -0.147496 0.162779 0.108338 -0.119478 -0.045297 0.045727 -0.089212 -0.161628 0.051633 -0.102869 -0.031691 0.086847 -0.048207 -0.059538 -0.002755 0.083708 -0.078633 -0.013861 -0.103012 -0.007561 0.027998 -0.012605 0.009132 0.027239 -0.225203 0.195986 0.248260 0.066783 0.108216 0.114792 -0.100261 -0.054838 -0.176115 0.042425 -0.158685 -0.117574 0.070040 0.259664 0.018639 -0.109899 -0.078133 0.099718 -0.079958 0.032376 -0.081027 -0.201053 -0.208543 -0.116682 -0.068588 -0.020142 -0.018104 0.095057 0.093696 -0.234430 -0.035056 -0.079366 0.158068 0.030107 -0.064953 -0.122299 0.188500 -0.008260 -0.066447 -0.037405 0.097501 -0.001381 0.074825 -0.007607 -0.180570 0.008132 -0.105448 0.187997 0.046098 -0.070720 -0.188686 -0.189893 -0.045532 0.250239 0.147912 0.001581
154 -0.157329 -0.003402 0.057028 -0.063021 0.029327 0.013848 -0.098742 0.021016 -0.124740 0.010143 0.043837 -0.028722 -0.019420 -0.109856 -0.029582 -0.162869 0.118513 0.099277 -0.064130 -0.010628 0.069681 0.006509 -0.150873 0.071303 -0.029087 -0.005381 -0.013321 -0.102916 0.070723 0.027621 -0.032210 -0.072783 -0.030726 -0.062812 0.060196 0.105888 0.090771 0.081743 0.070303 0.032190 -0.060706 -0.142539 -0.080440 0.008225 -0.076073 -0.044524 -0.236307 -0.177714 -0.167375 0.129001 0.095609 -0.088211 -0.085562 0.018722 -0.083048 -0.128297 0.056905 -0.071544 -0.030553 0.087235 -0.061676 -0.021704 -0.014960 0.101260 -0.028313 -0.000531 -0.101690 -0.001232 0.067790 -0.029960 0.040592 -0.015063 -0.232782 0.173875 0.232255 0.042607 0.048350 0.136981 -0.112978 -0.061167 -0.143961 0.031277 -0.162440 -0.097365 0.062147 0.212195 0.008766 -0.120287 -0.042485 0.069534 -0.081104 0.021653 -0.042272 -0.162802 -0.175019 -0.067245 -0.080653 -0.018973 -0.037898 0.123111 0.107658 -0.252410 -0.040793 -0.034153 0.131173 0.032654 -0.108797 -0.118792 0.199776 0.016696 -0.032395 -0.041600 0.066413 -0.007463 0.065590 -0.008663 -0.121519 -0.000657 -0.091172 0.144752 0.042549 -0.111242 -0.168942 -0.195864 -0.061844 0.234168 0.163993 -0.000353
9 -0.180471 0.001504 0.034479 -0.097618 0.037619 0.017785 -0.091334 0.032144 -0.132010 -0.007109 0.021173 -0.049744 -0.001917 -0.143577 -0.023371 -0.202532 0.110813 0.122393 -0.064866 0.006222 0.063060 -0.015601 -0.143883 0.057330 -0.020128 0.027172 0.028179 -0.100871 0.042001 0.043430 0.005404 -0.095001 -0.048837 -0.080540 0.044602 0.118243 0.078608 0.051433 0.101047 0.043981 -0.065154 -0.190782 -0.093629 0.039721 -0.075374 -0.046735 -0.250791 -0.189483 -0.154306 0.146830 0.096840 -0.108140 -0.060028 0.037574 -0.078544 -0.141877 0.046030 -0.085325 -0.037483 0.083865 -0.047055 -0.040956 -0.013306 0.088789 -0.063641 -0.006059 -0.092818 -0.006166 0.037418 -0.010326 0.027655 0.014274 -0.218024 0.177178 0.241508 0.053911 0.089663 0.117977 -0.098741 -0.044041 -0.172337 0.040088 -0.154525 -0.102304 0.066111 0.241219 0.013541 -0.096108 -0.076668 0.085179 -0.077242 0.023223 -0.057594 -0.171673 -0.191874 -0.106144 -0.074676 -0.015695 -0.020049 0.096380 0.090381 -0.239990 -0.030701 -0.063061 0.143615 0.044625 -0.064670 -0.113347 0.193309 0.000714 -0.048885 -0.037814 0.082466 -0.001523 0.074254 -0.010911 -0.155466 0.002231 -0.087163 0.160930 0.040164 -0.093108 -0.176180 -0.182784 -0.056822 0.242848 0.154081 -0.009797
88 -0.128063 -0.069227 0.184638 0.152279 -0.028960 0.018068 -0.204100 -0.102190 -0.100159 0.107032 0.258449 0.151972 -0.177680 0.027870 -0.073386 -0.002809 0.238106 0.019577 -0.081638 -0.126253 0.120779 0.178994 -0.253764 0.180756 -0.048452 -0.225974 -0.275537 -0.184756 0.334695 -0.086049 -0.272061 0.088630 0.047382 0.010437 0.274229 0.064268 0.225274 0.310215 -0.095655 -0.045188 -0.066819 0.136821 0.026293 -0.159285 -0.139305 -0.042475 -0.231755 -0.179057 -0.324767 0.014731 0.100593 -0.019375 -0.287763 -0.052052 -0.120330 -0.094313 0.164170 -0.017323 0.017342 0.088868 -0.218782 0.098807 -0.043493 0.212397 0.187913 -0.000103 -0.235789 0.043554 0.299934 -0.181181 0.125363 -0.170687 -0.388838 0.206859 0.277729 -0.008617 -0.199481 0.346978 -0.263954 -0.190620 0.074227 -0.046846 -0.300854 -0.142823 0.081515 0.115280 -0.016563 -0.373498 0.175928 0.028834 -0.119486 0.020264 0.001862 -0.203994 -0.148293 0.185919 -0.103220 -0.027611 -0.215277 0.398542 0.257203 -0.449600 -0.181160 0.137887 0.103796 -0.091235 -0.532099 -0.216077 0.295669 0.126181 0.052000 -0.092843 0.029810 -0.074264 0.012992 -0.005146 -0.021388 -0.010026 -0.180846 0.146278 0.062708 -0.230933 -0.169649 -0.327769 -0.140295 0.240889 0.288355 0.092119
