24 128
133 -0.119878 -0.193902 0.165252 -0.043633 -0.013038 -0.100844 -0.086202 -0.068563 -0.009668 0.119797 0.179019 0.163160 -0.043927 0.140818 -0.080040 -0.029969 -0.048535 0.158794 0.112989 -0.048795 -0.016752 0.080319 -0.063971 0.085573 -0.128981 0.144228 0.105378 -0.123884 0.023367 -0.052635 -0.062436 -0.029934 0.007238 0.148322 0.108803 0.130293 -0.106150 -0.117233 0.003797 0.028601 0.011108 0.089306 0.183509 -0.097322 0.044190 -0.049272 -0.091679 -0.184385 0.055205 -0.000653 0.090048 0.003512 0.044576 -0.026547 -0.098046 -0.039069 -0.025039 0.135845 0.092216 0.091392 0.041422 -0.121012 0.009499 -0.053724 0.007743 -0.078166 -0.062334 0.064390 -0.068742 -0.114616 0.101077 -0.154068 -0.002579 0.013374 0.096623 -0.087053 0.102422 0.153916 0.058951 -0.015380 0.044123 0.127144 -0.123309 -0.071323 0.036539 0.103747 0.091210 -0.228400 -0.008809 0.077016 -0.060837 0.055020 -0.080455 -0.135700 0.011812 -0.105605 0.056973 -0.067397 -0.055238 0.089050 0.082069 -0.210646 -0.166885 -0.036284 0.216175 -0.247226 -0.076463 -0.065886 0.082669 -0.001685 0.084899 -0.011784 0.066029 0.009790 -0.168321 0.145800 -0.012996 0.075056 -0.206967 0.261374 -0.032480 0.097346 -0.009881 -0.057493 -0.011517 0.135411 0.166073 0.257745
105 -0.151342 -0.216290 0.127234 -0.045949 -0.010904 -0.084729 -0.079397 -0.110604 -0.062694 0.066479 0.129351 0.185001 -0.072605 0.087045 -0.055628 -0.090542 -0.004143 0.195579 0.091338 -0.033489 0.045583 0.048159 -0.046741 0.135280 -0.057571 0.171434 0.158831 -0.096009 0.055251 -0.042977 -0.050433 -0.043933 -0.023431 0.098163 0.126541 0.134612 -0.167583 -0.184793 0.048691 -0.006065 0.025874 0.053265 0.172573 -0.056798 0.002294 -0.029565 -0.056647 -0.158234 0.079943 -0.014892 0.106093 -0.019841 0.052289 0.040290 -0.021142 -0.057414 -0.029489 0.161599 0.127317 0.064052 -0.028047 -0.081867 -0.041782 -0.071416 -0.037491 -0.103666 -0.066178 0.068394 -0.088236 -0.121993 0.107842 -0.131360 0.029324 0.007140 0.111510 -0.089739 0.098942 0.173021 0.094617 -0.008142 0.085218 0.116688 -0.053968 -0.088944 0.054413 0.141870 0.078791 -0.231800 -0.058932 0.160807 -0.026563 0.077830 -0.189876 -0.159468 -0.028066 -0.079838 0.121855 -0.033513 -0.055960 0.068853 0.108836 -0.208347 -0.175694 -0.018727 0.224853 -0.283587 -0.054341 -0.091945 0.061398 0.072471 0.068113 -0.029385 0.086377 0.024532 -0.187468 0.130021 -0.013567 0.066652 -0.180759 0.269750 -0.043766 0.099328 -0.047526 -0.026018 0.008757 0.125392 0.184891 0.262712
198 -0.126907 -0.213066 0.152009 -0.043765 -0.026356 -0.104046 -0.095758 -0.087329 -0.028232 0.118857 0.169520 0.170970 -0.051411 0.139426 -0.082165 -0.041462 -0.041788 0.159634 0.105241 -0.038605 -0.007749 0.076343 -0.058786 0.092447 -0.124374 0.146176 0.121972 -0.118182 0.031567 -0.055920 -0.055319 -0.031684 0.002050 0.135887 0.116429 0.138457 -0.111366 -0.126290 0.022263 0.033715 0.015887 0.066084 0.174695 -0.097971 0.031233 -0.034347 -0.070474 -0.183058 0.048351 -0.002933 0.094702 0.015408 0.040661 -0.011709 -0.089415 -0.054518 -0.029686 0.141756 0.099683 0.079617 0.034435 -0.118212 0.008247 -0.053869 -0.001605 -0.098470 -0.053682 0.075104 -0.058109 -0.110227 0.110182 -0.140896 -0.010737 0.020639 0.094112 -0.090143 0.107303 0.156552 0.056036 0.003008 0.059347 0.129238 -0.120157 -0.088837 0.042540 0.113735 0.076757 -0.233986 -0.020965 0.088267 -0.054679 0.059928 -0.097561 -0.130312 0.015900 -0.084642 0.089190 -0.066332 -0.048113 0.090020 0.067541 -0.208065 -0.171144 -0.033541 0.217223 -0.262361 -0.068728 -0.066559 0.094344 0.009258 0.065254 -0.005939 0.076858 0.006106 -0.174058 0.152545 -0.007872 0.087554 -0.199165 0.255322 -0.032163 0.092460 -0.005082 -0.037474 -0.023668 0.143910 0.166159 0.261978
154 -0.019676 -0.073878 0.291948 -0.071076 0.035029 -0.115365 -0.046792 0.054248 0.154006 0.225108 0.315807 0.108984 0.078866 0.260438 -0.113978 0.141833 -0.140334 0.075715 0.180043 -0.118961 -0.193052 0.158526 -0.093304 -0.015668 -0.281889 0.085452 -0.055055 -0.206968 -0.096503 -0.070474 -0.083113 -0.002423 0.094378 0.296599 0.045972 0.075802 0.042791 -0.000910 -0.121002 0.085140 -0.029889 0.216957 0.218732 -0.188040 0.201868 -0.160966 -0.208971 -0.250566 0.049908 0.038351 0.034726 0.033698 0.047556 -0.226567 -0.282322 0.012439 0.016409 0.071242 -0.021693 0.214974 0.184849 -0.225476 0.140318 -0.025657 0.146728 0.026649 -0.068084 0.050716 -0.102551 -0.109200 0.099059 -0.261119 -0.047071 -0.016831 0.079709 -0.076747 0.138646 0.083562 -0.011533 -0.100466 -0.086737 0.142342 -0.278477 0.001270 0.011265 -0.000587 0.157879 -0.242717 0.118551 -0.144640 -0.132058 -0.004241 0.190139 -0.091884 0.108361 -0.222062 -0.141365 -0.145693 -0.074969 0.159471 0.062583 -0.213238 -0.180679 -0.069858 0.202843 -0.121965 -0.111706 -0.040903 0.056593 -0.181811 0.194685 0.031787 0.008790 0.019105 -0.138843 0.198065 -0.023354 0.040089 -0.309481 0.312234 0.000727 0.142638 0.047219 -0.174644 -0.046581 0.138071 0.141145 0.262137
28 -0.042512 -0.105991 0.279570 -0.069613 0.021719 -0.108288 -0.056183 0.027877 0.125375 0.212950 0.304567 0.120113 0.059998 0.250959 -0.115264 0.117524 -0.131545 0.078395 0.174550 -0.103675 -0.173516 0.150497 -0.087081 -0.009473 -0.272186 0.094321 -0.035544 -0.191606 -0.072993 -0.074685 -0.076036 0.001829 0.084740 0.278644 0.058045 0.082313 0.024009 -0.008349 -0.095746 0.090007 -0.028664 0.189126 0.215644 -0.175388 0.172918 -0.140298 -0.193095 -0.244817 0.037229 0.027587 0.037284 0.037462 0.046511 -0.200396 -0.259914 -0.000330 0.004539 0.075154 -0.010812 0.195291 0.174157 -0.213631 0.130113 -0.028152 0.128218 0.004885 -0.063023 0.060133 -0.086694 -0.106112 0.099169 -0.234434 -0.053256 -0.015592 0.078667 -0.076586 0.139296 0.097516 -0.010666 -0.074134 -0.062843 0.139587 -0.259873 -0.013152 0.016740 0.019188 0.143241 -0.237880 0.101646 -0.117240 -0.122438 0.003518 0.153806 -0.097048 0.100380 -0.197919 -0.104140 -0.130964 -0.067059 0.151525 0.049164 -0.202025 -0.187191 -0.070471 0.206735 -0.138514 -0.101876 -0.035296 0.073214 -0.168798 0.169034 0.032530 0.010141 0.010460 -0.137404 0.190726 -0.025203 0.046624 -0.287019 0.286292 -0.000869 0.127680 0.053614 -0.142691 -0.059118 0.130007 0.137594 0.255239
188 -0.052647 -0.125106 0.242462 -0.062639 0.010600 -0.106381 -0.061862 0.004274 0.092513 0.189765 0.268183 0.118574 0.036279 0.217216 -0.104024 0.087485 -0.110090 0.087582 0.153305 -0.086908 -0.129437 0.130711 -0.074949 0.008631 -0.238553 0.096453 -0.002049 -0.169499 -0.054490 -0.070718 -0.066646 -0.008901 0.058752 0.235146 0.066128 0.091912 -0.007919 -0.026152 -0.068149 0.080825 -0.017538 0.160663 0.198907 -0.161550 0.138038 -0.109708 -0.158863 -0.221085 0.035744 0.022927 0.053375 0.035362 0.038965 -0.151939 -0.221710 -0.011888 -0.000034 0.087559 0.014323 0.159281 0.146471 -0.186945 0.097116 -0.035516 0.097707 -0.017025 -0.053309 0.059558 -0.062565 -0.095359 0.096173 -0.207593 -0.046097 -0.001520 0.078492 -0.079438 0.128822 0.105664 0.006619 -0.054553 -0.033777 0.137918 -0.230320 -0.028747 0.022227 0.033138 0.121423 -0.232902 0.078086 -0.078193 -0.108937 0.012231 0.101961 -0.092951 0.079781 -0.165323 -0.059683 -0.118559 -0.059829 0.142056 0.048278 -0.199439 -0.174404 -0.059067 0.203642 -0.165095 -0.099221 -0.042189 0.082821 -0.129297 0.135571 0.025527 0.023022 0.008006 -0.143113 0.184428 -0.021200 0.057935 -0.255575 0.272463 -0.009160 0.116235 0.044954 -0.118651 -0.051714 0.136581 0.137558 0.252174
69 -0.041677 -0.106215 0.262663 -0.058580 0.018228 -0.112305 -0.058565 0.025643 0.118880 0.207703 0.292397 0.124165 0.051243 0.243393 -0.112195 0.114540 -0.125479 0.087541 0.170772 -0.101298 -0.158135 0.149626 -0.081494 -0.005903 -0.260505 0.094117 -0.025545 -0.189277 -0.075644 -0.068362 -0.078094 -0.002430 0.072996 0.268409 0.065131 0.087974 0.017684 -0.011764 -0.099115 0.086488 -0.020641 0.190085 0.215163 -0.178163 0.164139 -0.129261 -0.176148 -0.241637 0.046600 0.025576 0.042340 0.030847 0.039229 -0.186570 -0.257040 0.003519 0.010612 0.081562 -0.002057 0.184759 0.164211 -0.201775 0.116898 -0.033732 0.121174 0.000644 -0.068655 0.052855 -0.086127 -0.109149 0.103210 -0.235169 -0.046691 -0.009923 0.083153 -0.076657 0.137820 0.093400 0.002893 -0.074138 -0.054006 0.143493 -0.249523 -0.011729 0.015693 0.017730 0.137166 -0.236645 0.095953 -0.109087 -0.124697 0.004638 0.141052 -0.094553 0.091218 -0.187477 -0.097315 -0.131512 -0.069414 0.145697 0.054944 -0.206667 -0.177209 -0.063018 0.205864 -0.149191 -0.109546 -0.044878 0.071964 -0.151810 0.164271 0.027810 0.015965 0.012922 -0.142305 0.191597 -0.019919 0.047777 -0.284183 0.289857 -0.004737 0.131966 0.050833 -0.141182 -0.044596 0.136023 0.144496 0.257260
178 -0.025890 -0.093417 0.287013 -0.062070 0.027056 -0.126023 -0.064343 0.044556 0.149300 0.236533 0.324557 0.121889 0.070053 0.266765 -0.126126 0.136812 -0.141500 0.080926 0.183254 -0.110083 -0.189432 0.166042 -0.096241 -0.017233 -0.286977 0.087418 -0.042735 -0.203683 -0.092558 -0.072511 -0.076715 -0.002879 0.095396 0.295655 0.053707 0.090535 0.041875 0.006063 -0.118103 0.093428 -0.032452 0.216409 0.224867 -0.194270 0.193112 -0.148949 -0.197250 -0.259144 0.041623 0.037569 0.039128 0.040355 0.043902 -0.222909 -0.291997 0.011284 0.008213 0.078534 -0.013541 0.206899 0.189814 -0.229468 0.145287 -0.028403 0.139000 0.013431 -0.067275 0.050885 -0.090352 -0.104722 0.103201 -0.256124 -0.055030 -0.011255 0.072555 -0.084419 0.145479 0.089691 -0.007271 -0.080058 -0.079295 0.144586 -0.285954 -0.005619 0.016149 0.007868 0.156318 -0.249268 0.114627 -0.147246 -0.137056 0.002745 0.189386 -0.092973 0.117561 -0.210943 -0.126497 -0.148910 -0.074084 0.161215 0.046597 -0.220804 -0.178391 -0.069459 0.205313 -0.142313 -0.114043 -0.038511 0.075548 -0.176071 0.184838 0.032160 0.012958 0.012432 -0.144893 0.206700 -0.026791 0.047881 -0.305802 0.300428 -0.003385 0.141017 0.062317 -0.168845 -0.056823 0.150431 0.141295 0.268570
84 -0.044923 -0.102531 0.252699 -0.055259 0.024616 -0.106108 -0.059469 0.020638 0.111107 0.196607 0.277661 0.119323 0.048469 0.223550 -0.107453 0.103722 -0.113533 0.091691 0.160219 -0.095482 -0.149417 0.137217 -0.078506 0.004175 -0.239456 0.090005 -0.018028 -0.174907 -0.063094 -0.067321 -0.070928 -0.003076 0.067343 0.250357 0.063358 0.089030 0.009342 -0.016789 -0.090645 0.071567 -0.024449 0.183020 0.201945 -0.165353 0.152440 -0.122691 -0.171214 -0.224554 0.045186 0.023891 0.045026 0.028670 0.037548 -0.173396 -0.237698 -0.001320 0.009051 0.085167 0.003078 0.177165 0.147701 -0.191117 0.104856 -0.028835 0.112067 0.000884 -0.066845 0.052206 -0.082549 -0.107459 0.096108 -0.225551 -0.043188 -0.007313 0.076668 -0.075353 0.130155 0.096550 0.003499 -0.067373 -0.046880 0.133658 -0.237434 -0.013239 0.019065 0.020416 0.134077 -0.232272 0.088501 -0.093452 -0.117011 0.009812 0.123369 -0.097557 0.082542 -0.176307 -0.086348 -0.124601 -0.068091 0.144305 0.058528 -0.205444 -0.171832 -0.058945 0.198638 -0.155382 -0.106348 -0.045315 0.071080 -0.132532 0.156694 0.021843 0.023790 0.012395 -0.141498 0.186925 -0.019989 0.049014 -0.276253 0.286608 -0.011128 0.129509 0.039803 -0.139684 -0.043125 0.134443 0.145689 0.249848
12 -0.165645 -0.282214 0.109483 -0.019788 -0.062002 -0.130827 -0.133195 -0.139261 -0.099349 0.116587 0.150406 0.210349 -0.110054 0.125029 -0.098256 -0.077333 -0.026193 0.188326 0.079610 -0.019411 0.046871 0.066736 -0.042007 0.115737 -0.107159 0.152109 0.182093 -0.090994 0.073871 -0.058637 -0.049903 -0.043822 -0.034209 0.089723 0.152859 0.181180 -0.151553 -0.139928 0.069384 0.032099 0.028857 0.018608 0.166766 -0.094753 -0.037564 0.027248 -0.009133 -0.175578 0.028753 -0.020372 0.118703 0.034365 0.020320 0.041575 -0.063513 -0.090676 -0.058724 0.165239 0.148338 0.025139 0.012829 -0.094281 -0.024010 -0.057845 -0.047261 -0.153614 -0.038594 0.081449 -0.011060 -0.109012 0.126762 -0.101448 -0.017945 0.050150 0.080212 -0.108439 0.100298 0.194510 0.072748 0.066268 0.115901 0.131276 -0.098336 -0.136055 0.035865 0.143574 0.042628 -0.239753 -0.050929 0.141332 -0.046650 0.094612 -0.178421 -0.132863 0.009421 -0.025200 0.174330 -0.064241 -0.032835 0.082879 0.031976 -0.228505 -0.158171 -0.011882 0.236935 -0.346576 -0.066621 -0.061192 0.151594 0.060304 0.015143 -0.015043 0.097661 -0.007711 -0.186530 0.152752 -0.003364 0.128349 -0.170943 0.216231 -0.049149 0.059002 0.006208 0.007293 -0.030494 0.172883 0.165449 0.282759
109 -0.151681 -0.258448 0.108076 -0.014625 -0.049478 -0.128382 -0.123503 -0.122983 -0.089414 0.117107 0.150156 0.192287 -0.097303 0.122579 -0.099432 -0.064222 -0.027085 0.177564 0.074294 -0.015924 0.029174 0.065859 -0.038577 0.112766 -0.107945 0.144724 0.169702 -0.096422 0.060140 -0.052277 -0.047314 -0.043417 -0.024576 0.090078 0.142151 0.166305 -0.137013 -0.134261 0.066556 0.028932 0.022262 0.023860 0.161417 -0.095763 -0.027449 0.013570 -0.012222 -0.173314 0.034244 -0.012919 0.114889 0.032562 0.016680 0.032667 -0.062686 -0.087275 -0.056786 0.157870 0.137065 0.029315 0.018695 -0.101862 -0.009786 -0.058734 -0.036609 -0.144527 -0.037148 0.082240 -0.013993 -0.112819 0.113430 -0.106633 -0.022791 0.048577 0.069039 -0.108472 0.098168 0.180879 0.064823 0.059850 0.107146 0.129071 -0.097653 -0.126011 0.036135 0.132407 0.041853 -0.231456 -0.038369 0.124576 -0.049288 0.084918 -0.159039 -0.124257 0.016983 -0.027398 0.156245 -0.066562 -0.028828 0.084498 0.029267 -0.212886 -0.149690 -0.011024 0.229726 -0.324263 -0.063138 -0.055470 0.140855 0.054698 0.023712 -0.015729 0.094187 -0.009415 -0.177706 0.147598 -0.006059 0.122376 -0.163482 0.216915 -0.040774 0.065301 0.006389 -0.001401 -0.028709 0.169698 0.160484 0.276895
205 -0.140565 -0.236311 0.118712 -0.022619 -0.041209 -0.118210 -0.111687 -0.111981 -0.070159 0.108419 0.150137 0.189000 -0.088520 0.117296 -0.087866 -0.065077 -0.023310 0.177923 0.081765 -0.024949 0.025471 0.063012 -0.047078 0.104214 -0.099527 0.146931 0.152645 -0.100121 0.058767 -0.052820 -0.053752 -0.040283 -0.019773 0.099743 0.135317 0.156837 -0.131632 -0.135817 0.045378 0.020053 0.025872 0.039858 0.162164 -0.088984 -0.012012 -0.004149 -0.029699 -0.168159 0.045491 -0.013169 0.107175 0.021933 0.029849 0.025561 -0.065455 -0.065806 -0.045367 0.155551 0.131490 0.039357 0.010615 -0.098702 -0.010531 -0.057431 -0.026158 -0.127450 -0.049247 0.072076 -0.037633 -0.114417 0.114111 -0.115866 -0.010636 0.035339 0.085091 -0.097560 0.093871 0.170225 0.070874 0.037121 0.095171 0.120718 -0.095030 -0.111228 0.038349 0.123322 0.058001 -0.228365 -0.034478 0.123198 -0.047067 0.079951 -0.150438 -0.129602 0.008368 -0.043993 0.131553 -0.058051 -0.042442 0.082430 0.047204 -0.215768 -0.158175 -0.016918 0.224725 -0.303072 -0.069112 -0.066553 0.118964 0.053290 0.043463 -0.014326 0.085990 -0.001253 -0.177233 0.139335 -0.004077 0.098419 -0.172207 0.225939 -0.042931 0.072946 -0.007749 -0.019148 -0.021742 0.152368 0.166423 0.267614
143 -0.126730 -0.219566 0.132151 -0.030241 -0.026168 -0.106540 -0.099062 -0.097504 -0.046536 0.115569 0.156604 0.174662 -0.063305 0.125946 -0.086723 -0.043884 -0.037059 0.163289 0.092556 -0.038279 0.005211 0.066221 -0.044388 0.098306 -0.114858 0.141859 0.131297 -0.101092 0.037877 -0.054901 -0.047699 -0.037940 -0.011755 0.116520 0.119474 0.145375 -0.117737 -0.119092 0.039196 0.028663 0.012754 0.052106 0.160474 -0.097720 0.010599 -0.013662 -0.050248 -0.168073 0.042375 -0.007566 0.100127 0.019785 0.026279 0.003280 -0.083626 -0.069008 -0.036493 0.136268 0.110301 0.057818 0.026052 -0.112057 -0.001266 -0.054797 -0.010844 -0.112427 -0.045181 0.074958 -0.045148 -0.106941 0.110939 -0.122962 -0.009958 0.025993 0.077538 -0.094371 0.100731 0.159866 0.059069 0.021373 0.073443 0.124009 -0.111115 -0.093833 0.037057 0.110242 0.062020 -0.225035 -0.021632 0.097084 -0.047557 0.071135 -0.115637 -0.120974 0.019034 -0.062911 0.104960 -0.065682 -0.041709 0.088350 0.048887 -0.206258 -0.155888 -0.020358 0.220941 -0.281815 -0.067550 -0.056819 0.109078 0.025400 0.052481 -0.008528 0.074809 0.006355 -0.174005 0.149365 -0.009619 0.096010 -0.186581 0.237813 -0.039575 0.082093 0.000728 -0.029630 -0.022716 0.150272 0.160616 0.261033
207 -0.108353 -0.183308 0.175947 -0.044584 -0.004879 -0.108181 -0.079893 -0.063861 0.005875 0.135161 0.195014 0.166818 -0.030921 0.155906 -0.086051 -0.005917 -0.054927 0.153545 0.114943 -0.060182 -0.036195 0.092211 -0.060937 0.078340 -0.142739 0.131660 0.085828 -0.136346 0.011368 -0.055025 -0.063462 -0.026043 0.018879 0.165753 0.106573 0.120873 -0.086111 -0.105423 -0.008045 0.033229 0.008807 0.102577 0.184921 -0.111073 0.064466 -0.060851 -0.096003 -0.188181 0.057624 0.004001 0.082392 0.009306 0.041291 -0.053489 -0.119050 -0.037094 -0.016546 0.128574 0.081629 0.102273 0.051913 -0.131954 0.028794 -0.052911 0.024311 -0.072477 -0.060510 0.067836 -0.071452 -0.114425 0.108321 -0.170442 -0.008175 0.006568 0.093762 -0.087921 0.108793 0.145018 0.049457 -0.023182 0.033119 0.127315 -0.141297 -0.066051 0.034390 0.090885 0.094139 -0.235179 0.009215 0.047030 -0.064918 0.052648 -0.050277 -0.129370 0.032737 -0.108659 0.045677 -0.081632 -0.059470 0.104960 0.070049 -0.215001 -0.173090 -0.032436 0.218291 -0.243175 -0.082030 -0.063793 0.084426 -0.016131 0.097471 -0.004632 0.060485 0.017764 -0.165546 0.154385 -0.017485 0.069345 -0.219846 0.267601 -0.026788 0.102559 -0.004193 -0.070272 -0.024066 0.135730 0.164938 0.265093
15 -0.072521 -0.136744 0.218280 -0.059775 0.007138 -0.095439 -0.060764 -0.017265 0.065097 0.161210 0.236902 0.127926 0.017905 0.193165 -0.090401 0.053332 -0.092731 0.103609 0.134639 -0.081367 -0.095204 0.115841 -0.070167 0.030771 -0.201754 0.106734 0.020756 -0.153073 -0.032734 -0.065233 -0.066494 -0.010827 0.049832 0.208436 0.076479 0.097979 -0.032444 -0.052092 -0.044735 0.063355 -0.014575 0.138060 0.187764 -0.136852 0.116415 -0.089209 -0.142959 -0.206133 0.042412 0.012452 0.058402 0.023475 0.041238 -0.116647 -0.186952 -0.022658 -0.009682 0.090781 0.033470 0.145696 0.115714 -0.160364 0.073698 -0.042678 0.074804 -0.025864 -0.055708 0.057916 -0.068302 -0.096482 0.100254 -0.191501 -0.028173 -0.004987 0.079077 -0.078344 0.121006 0.111615 0.013716 -0.051119 -0.015637 0.131722 -0.192376 -0.041416 0.022235 0.045777 0.110489 -0.227998 0.051241 -0.032126 -0.087792 0.025310 0.057243 -0.105409 0.054116 -0.144835 -0.030894 -0.093437 -0.055684 0.124642 0.060964 -0.192893 -0.169768 -0.049753 0.198345 -0.178230 -0.084578 -0.045327 0.071508 -0.095507 0.122694 0.013528 0.031226 0.008117 -0.144929 0.169087 -0.014898 0.060685 -0.241057 0.263758 -0.010853 0.105074 0.030987 -0.097798 -0.041573 0.127197 0.142055 0.243617
121 -0.155669 -0.225328 0.126603 -0.047076 -0.014138 -0.087043 -0.082696 -0.121409 -0.067359 0.068558 0.127947 0.190906 -0.081778 0.083745 -0.059397 -0.104969 -0.009346 0.207533 0.091264 -0.038575 0.049312 0.052044 -0.049146 0.141182 -0.053790 0.173251 0.169368 -0.101501 0.065453 -0.049376 -0.051254 -0.039767 -0.024542 0.098847 0.133050 0.139370 -0.177186 -0.193060 0.053755 -0.010842 0.026851 0.051546 0.174983 -0.053764 -0.000520 -0.025421 -0.057397 -0.163317 0.084594 -0.016070 0.114031 -0.020204 0.051900 0.047171 -0.014352 -0.057090 -0.033558 0.169158 0.133606 0.063968 -0.030801 -0.081941 -0.042952 -0.070845 -0.039979 -0.112432 -0.062494 0.072202 -0.089256 -0.122409 0.112869 -0.133140 0.034706 0.004620 0.115282 -0.092525 0.096862 0.177383 0.094337 -0.004721 0.093297 0.127547 -0.058023 -0.090665 0.051809 0.150714 0.079592 -0.234532 -0.068245 0.172365 -0.025136 0.079345 -0.194688 -0.164842 -0.025026 -0.080578 0.130642 -0.036705 -0.055180 0.069169 0.112597 -0.218593 -0.186733 -0.018881 0.235925 -0.300744 -0.059561 -0.091810 0.072027 0.075851 0.069374 -0.032394 0.093684 0.021752 -0.197121 0.126545 -0.013729 0.070758 -0.192448 0.274966 -0.048410 0.106036 -0.050573 -0.021858 0.002186 0.127326 0.192911 0.274054
102 -0.036805 -0.101648 0.272732 -0.065933 0.022846 -0.119216 -0.062208 0.033405 0.126597 0.212865 0.297087 0.117871 0.053765 0.243606 -0.118687 0.118840 -0.129784 0.087962 0.173851 -0.105622 -0.170745 0.147000 -0.089658 -0.009106 -0.268023 0.087223 -0.026409 -0.193669 -0.073281 -0.072071 -0.073937 -0.002133 0.084279 0.275769 0.056184 0.088116 0.022251 -0.010320 -0.099903 0.079775 -0.029131 0.192686 0.209490 -0.175615 0.174839 -0.140915 -0.186933 -0.242546 0.041110 0.032796 0.038553 0.032845 0.041232 -0.197954 -0.262730 0.001252 0.011801 0.080204 -0.008542 0.192807 0.171231 -0.214352 0.127894 -0.027781 0.123052 0.006322 -0.065183 0.057394 -0.086090 -0.107150 0.101595 -0.242276 -0.044644 -0.008538 0.078020 -0.075833 0.137310 0.097710 -0.004241 -0.075929 -0.065445 0.143382 -0.262619 -0.015158 0.013664 0.010826 0.141883 -0.235681 0.105486 -0.119266 -0.127893 0.007838 0.152645 -0.094030 0.101289 -0.197279 -0.104831 -0.137029 -0.067319 0.154194 0.047341 -0.207673 -0.174360 -0.067028 0.201663 -0.147274 -0.106791 -0.035827 0.073372 -0.155865 0.171026 0.024035 0.016396 0.015484 -0.138609 0.194181 -0.022402 0.049853 -0.288055 0.294183 -0.002062 0.132009 0.051227 -0.151701 -0.053489 0.140762 0.142113 0.259125
35 -0.150936 -0.209845 0.130865 -0.049611 -0.011930 -0.087150 -0.078351 -0.110134 -0.056957 0.078592 0.139558 0.183642 -0.069661 0.096994 -0.055550 -0.081858 -0.011569 0.196166 0.093647 -0.038649 0.033515 0.053863 -0.051092 0.129052 -0.066410 0.169192 0.151056 -0.106961 0.048930 -0.043730 -0.052290 -0.038725 -0.016423 0.108518 0.126859 0.134596 -0.156595 -0.177071 0.046473 -0.003108 0.020260 0.058039 0.177772 -0.064238 0.015985 -0.038109 -0.065909 -0.162050 0.079135 -0.011277 0.105046 -0.020146 0.052269 0.026162 -0.029859 -0.057501 -0.024381 0.156909 0.125126 0.066914 -0.015962 -0.090897 -0.026512 -0.069657 -0.031964 -0.104048 -0.065867 0.074467 -0.087356 -0.121476 0.106700 -0.135602 0.027641 0.006380 0.113664 -0.092184 0.103219 0.172048 0.084623 -0.011718 0.077675 0.120476 -0.066165 -0.089067 0.051599 0.139745 0.082456 -0.234587 -0.052948 0.149761 -0.028026 0.070534 -0.172053 -0.160487 -0.023952 -0.089947 0.108548 -0.040389 -0.052933 0.075811 0.106157 -0.211786 -0.185067 -0.027153 0.231874 -0.278741 -0.060792 -0.085347 0.066830 0.059896 0.072216 -0.028339 0.085235 0.023013 -0.185301 0.132387 -0.012946 0.070710 -0.191878 0.272566 -0.038273 0.104268 -0.044034 -0.031705 0.003259 0.125804 0.182357 0.269523
135 -0.101475 -0.170057 0.177350 -0.048954 -0.006730 -0.101101 -0.071460 -0.049176 0.015154 0.129207 0.198127 0.153983 -0.022780 0.155576 -0.081634 -0.004502 -0.057333 0.138222 0.114496 -0.061009 -0.047563 0.088608 -0.059728 0.068555 -0.143919 0.125534 0.076196 -0.132952 0.001578 -0.055509 -0.058870 -0.027052 0.024566 0.166750 0.096720 0.118136 -0.082970 -0.101108 -0.008862 0.040594 0.004536 0.101282 0.179406 -0.107356 0.071234 -0.063815 -0.101088 -0.191623 0.057001 0.005842 0.079838 0.008450 0.041721 -0.060566 -0.126355 -0.034457 -0.016776 0.120137 0.074535 0.110258 0.063281 -0.132807 0.035851 -0.048963 0.030196 -0.064600 -0.056830 0.060599 -0.074206 -0.106363 0.098121 -0.164119 -0.010615 0.003368 0.090017 -0.081468 0.107305 0.137035 0.045419 -0.029633 0.026587 0.127527 -0.140603 -0.059640 0.036062 0.085447 0.098961 -0.222961 0.010719 0.039750 -0.068140 0.046409 -0.038030 -0.123117 0.027144 -0.119185 0.032129 -0.077837 -0.052333 0.100980 0.071929 -0.198575 -0.170614 -0.040858 0.208943 -0.222359 -0.075171 -0.057733 0.076916 -0.030635 0.096845 -0.000018 0.055675 0.011979 -0.159725 0.145326 -0.016842 0.062622 -0.214878 0.254589 -0.024854 0.103868 0.003631 -0.067957 -0.021056 0.127863 0.153103 0.250225
89 -0.206106 -0.255638 0.091747 -0.055831 -0.012846 -0.075282 -0.086098 -0.171353 -0.128343 0.025086 0.091541 0.218803 -0.117790 0.038643 -0.027738 -0.167537 0.027444 0.246199 0.068989 -0.026136 0.105851 0.016491 -0.031236 0.189226 0.003207 0.213868 0.229822 -0.091709 0.098396 -0.033253 -0.045401 -0.055214 -0.054501 0.050889 0.151772 0.152391 -0.236537 -0.256854 0.106057 -0.040092 0.046973 0.007955 0.166737 -0.019575 -0.032918 -0.007899 -0.023241 -0.139412 0.107916 -0.021527 0.130930 -0.046208 0.061691 0.115842 0.061257 -0.084247 -0.035267 0.196132 0.183865 0.032149 -0.092065 -0.045716 -0.085948 -0.090933 -0.093487 -0.142366 -0.069494 0.086507 -0.105043 -0.138316 0.112424 -0.106235 0.065733 0.006270 0.138457 -0.094032 0.101591 0.209567 0.126777 0.003867 0.136275 0.122930 0.010666 -0.115886 0.064211 0.199544 0.058539 -0.242743 -0.109147 0.257034 0.009692 0.107135 -0.314151 -0.200182 -0.064715 -0.057306 0.201507 -0.012021 -0.050843 0.048670 0.131470 -0.220971 -0.197293 -0.007790 0.259012 -0.336169 -0.038885 -0.120721 0.053613 0.139857 0.037044 -0.049838 0.113803 0.034751 -0.211579 0.108646 -0.018371 0.076984 -0.167045 0.286724 -0.051535 0.110272 -0.094360 0.013956 0.023594 0.118534 0.212571 0.286358
233 -0.209007 -0.269435 0.089631 -0.047450 -0.019296 -0.081126 -0.093023 -0.173666 -0.135812 0.022001 0.081884 0.222404 -0.123566 0.038444 -0.028908 -0.169237 0.035622 0.255635 0.068462 -0.018822 0.108959 0.016279 -0.038928 0.193185 0.012102 0.216906 0.236220 -0.088293 0.109510 -0.032609 -0.044227 -0.056296 -0.052783 0.052216 0.154036 0.163606 -0.244709 -0.260111 0.110294 -0.038663 0.046680 0.001491 0.171161 -0.015692 -0.045852 0.003495 -0.021705 -0.136373 0.109074 -0.021529 0.137505 -0.041634 0.065410 0.126144 0.064273 -0.079663 -0.040703 0.204399 0.192532 0.021795 -0.095676 -0.048415 -0.091407 -0.087566 -0.093578 -0.148850 -0.063299 0.090635 -0.102654 -0.142101 0.116733 -0.103722 0.061300 0.011299 0.138136 -0.097074 0.099437 0.211762 0.131177 0.010366 0.146339 0.124950 0.011996 -0.122251 0.065099 0.202648 0.055260 -0.248004 -0.117173 0.267245 0.011302 0.106253 -0.321399 -0.200267 -0.069603 -0.047920 0.208427 -0.009630 -0.054112 0.042910 0.128579 -0.227686 -0.200990 -0.008650 0.257116 -0.352419 -0.040154 -0.117922 0.057523 0.151740 0.036776 -0.045479 0.121337 0.036212 -0.218052 0.114056 -0.016126 0.082518 -0.169711 0.288628 -0.061287 0.106740 -0.092433 0.012716 0.024088 0.124617 0.216375 0.292442
191 -0.244398 -0.285624 0.081599 -0.065121 -0.006379 -0.074977 -0.085342 -0.204226 -0.166114 -0.007007 0.073493 0.239856 -0.136906 0.008977 -0.010537 -0.211671 0.053896 0.294192 0.059480 -0.023361 0.138642 -0.002168 -0.025143 0.230661 0.047608 0.251685 0.280715 -0.092151 0.129686 -0.024550 -0.040532 -0.068475 -0.076597 0.033022 0.175742 0.165844 -0.292380 -0.317783 0.141773 -0.065656 0.052380 -0.012906 0.176946 0.007537 -0.053716 -0.002153 -0.011876 -0.134633 0.137639 -0.031186 0.155013 -0.066599 0.080859 0.161069 0.110030 -0.099153 -0.040820 0.226332 0.223506 0.024791 -0.134355 -0.033180 -0.119990 -0.111360 -0.122887 -0.169489 -0.075645 0.101490 -0.130370 -0.159035 0.125149 -0.097758 0.088334 0.008383 0.165233 -0.100950 0.110611 0.232324 0.155059 0.006003 0.169740 0.134539 0.050583 -0.137755 0.084927 0.238297 0.055241 -0.265988 -0.146383 0.325588 0.036185 0.123323 -0.399113 -0.232141 -0.097017 -0.056305 0.243707 0.009654 -0.054963 0.041856 0.154505 -0.237390 -0.223835 -0.005119 0.287861 -0.383406 -0.037307 -0.146076 0.037817 0.190162 0.033140 -0.065030 0.134471 0.053600 -0.231382 0.103728 -0.025004 0.075014 -0.167279 0.319020 -0.062130 0.124550 -0.131207 0.022636 0.040063 0.111286 0.237048 0.307131
163 -0.148528 -0.218732 0.145232 -0.052473 -0.010837 -0.091632 -0.081501 -0.106507 -0.053971 0.077205 0.142465 0.188905 -0.068491 0.099842 -0.063417 -0.086098 -0.018362 0.196635 0.097374 -0.040119 0.032667 0.059401 -0.051571 0.129772 -0.072524 0.170504 0.146213 -0.109998 0.046835 -0.050694 -0.055527 -0.039113 -0.010514 0.119419 0.126395 0.133924 -0.163846 -0.178307 0.042066 -0.000028 0.021963 0.061111 0.181038 -0.069886 0.015533 -0.034576 -0.074863 -0.171510 0.085501 -0.009429 0.106697 -0.021582 0.056094 0.022207 -0.036975 -0.051229 -0.024718 0.165058 0.125284 0.075637 -0.012152 -0.090968 -0.031579 -0.069906 -0.028653 -0.102454 -0.067963 0.074496 -0.094079 -0.122227 0.112836 -0.146281 0.025800 0.002885 0.119523 -0.086799 0.104507 0.178052 0.090584 -0.015401 0.080753 0.127613 -0.069796 -0.085320 0.053892 0.144062 0.083307 -0.238237 -0.053741 0.149583 -0.035417 0.075180 -0.166721 -0.160487 -0.019989 -0.094449 0.107458 -0.044322 -0.059462 0.080839 0.111672 -0.215170 -0.184579 -0.025732 0.233256 -0.281482 -0.066352 -0.093353 0.068366 0.051859 0.075653 -0.027860 0.084765 0.026227 -0.194552 0.131666 -0.016784 0.067950 -0.197825 0.278029 -0.043398 0.109380 -0.042447 -0.031928 0.004623 0.127559 0.188728 0.273059
57 -0.209371 -0.266937 0.080359 -0.055918 -0.017002 -0.073489 -0.089478 -0.177665 -0.136691 0.015879 0.078313 0.218923 -0.121046 0.031446 -0.027635 -0.181909 0.034978 0.254725 0.064499 -0.017579 0.116090 0.012710 -0.030909 0.194879 0.016641 0.220300 0.238199 -0.079140 0.110981 -0.034576 -0.045768 -0.053679 -0.058904 0.045416 0.157434 0.161314 -0.254294 -0.268680 0.111977 -0.039362 0.048529 -0.000136 0.169251 -0.012780 -0.047100 0.004849 -0.017057 -0.135850 0.110675 -0.023980 0.134544 -0.045737 0.063438 0.128567 0.071239 -0.085863 -0.039910 0.206300 0.192423 0.025834 -0.104019 -0.037597 -0.101144 -0.091495 -0.097326 -0.153942 -0.066921 0.085785 -0.103928 -0.137093 0.118671 -0.096732 0.068571 0.006441 0.145329 -0.098521 0.099332 0.212213 0.136682 0.011762 0.147336 0.127911 0.023466 -0.120478 0.073583 0.207637 0.057739 -0.247599 -0.124597 0.277102 0.018215 0.108615 -0.332399 -0.199017 -0.079904 -0.049767 0.211681 0.000284 -0.049045 0.039606 0.136686 -0.218800 -0.203372 -0.011626 0.254711 -0.342688 -0.037242 -0.116126 0.053351 0.156260 0.035334 -0.050167 0.114050 0.037078 -0.214366 0.106004 -0.012784 0.073289 -0.159617 0.281042 -0.055402 0.102036 -0.098764 0.019111 0.029304 0.113226 0.211445 0.280133
