17 128
198 -0.167689 -0.151329 0.144897 -0.097623 0.011466 0.167759 -0.155898 -0.056417 0.111048 0.114076 0.051833 0.027366 0.091417 0.093102 -0.046716 -0.155977 -0.003080 -0.007760 0.211865 0.163047 0.011259 -0.001097 -0.153765 0.115307 -0.090259 0.256255 0.091273 0.079277 0.013876 -0.053425 -0.040668 0.004037 -0.085377 0.094532 0.067353 0.214546 -0.087902 -0.009839 -0.048953 0.188975 0.065578 0.026124 0.109617 -0.086751 -0.011308 0.076776 -0.168864 -0.205526 -0.060497 0.076987 0.027443 -0.006180 0.019636 0.110273 -0.122085 -0.041022 -0.029272 0.095026 0.022687 0.087984 -0.150681 -0.058717 -0.119493 0.095093 -0.047347 -0.083864 -0.082006 0.019649 -0.088102 -0.150044 0.015797 -0.132917 -0.158020 0.159829 0.097288 -0.083767 0.252430 0.045451 -0.000327 -0.067539 -0.128824 0.084891 -0.132273 0.031679 0.224900 0.196321 0.099009 -0.210387 -0.072144 0.056439 -0.088304 0.040620 -0.117636 -0.037601 -0.087920 -0.020104 0.018090 0.029385 -0.061471 -0.048617 0.275817 -0.036341 -0.129744 -0.189011 -0.000590 0.034092 -0.009479 -0.070190 0.065058 -0.018690 -0.102588 0.074362 0.098667 -0.107555 0.038222 0.129003 0.016063 0.034436 -0.068012 0.241298 -0.015812 0.025812 -0.055618 -0.000147 -0.011845 0.053806 0.154986 -0.048209
133 -0.171932 -0.146947 0.146254 -0.092398 0.009888 0.173215 -0.153538 -0.060325 0.108590 0.106690 0.049603 0.034134 0.082398 0.095507 -0.036570 -0.152139 -0.006845 -0.008349 0.205285 0.152240 0.019483 -0.005230 -0.156037 0.115839 -0.084828 0.262933 0.089276 0.076012 0.007686 -0.045519 -0.045920 -0.000526 -0.081204 0.093669 0.067995 0.216889 -0.093861 -0.016899 -0.047693 0.177873 0.068143 0.025650 0.114879 -0.083538 -0.014915 0.071724 -0.174971 -0.191088 -0.047517 0.080510 0.028556 -0.006593 0.020337 0.121020 -0.117921 -0.038443 -0.030092 0.091926 0.036036 0.075170 -0.146547 -0.053560 -0.124368 0.088004 -0.055693 -0.074377 -0.087884 0.013355 -0.090377 -0.152820 0.007623 -0.139943 -0.147474 0.148766 0.093201 -0.089359 0.251558 0.054349 -0.000206 -0.073655 -0.132697 0.076763 -0.126231 0.033265 0.217440 0.190282 0.091428 -0.207820 -0.067967 0.064342 -0.089126 0.046676 -0.125406 -0.040489 -0.080177 -0.020267 0.019445 0.028806 -0.067037 -0.053130 0.285033 -0.038604 -0.130014 -0.188051 0.010460 0.030499 -0.009138 -0.069039 0.061863 -0.020391 -0.110068 0.075109 0.100448 -0.115074 0.043062 0.121320 0.007441 0.031047 -0.068939 0.245969 -0.011542 0.024852 -0.053464 0.000763 -0.007441 0.050255 0.164941 -0.029255
35 -0.171617 -0.140957 0.144596 -0.095324 0.009804 0.178496 -0.147073 -0.068647 0.103633 0.105992 0.048910 0.040777 0.084464 0.094934 -0.035424 -0.149020 0.001774 -0.006541 0.206222 0.152978 0.021020 -0.007773 -0.154387 0.121784 -0.079541 0.262306 0.088958 0.080405 -0.001502 -0.046946 -0.040879 -0.001778 -0.081833 0.092759 0.070193 0.213604 -0.091842 -0.025166 -0.040145 0.173686 0.065276 0.022866 0.114279 -0.086383 -0.013972 0.064517 -0.175457 -0.187891 -0.043789 0.079293 0.026673 -0.006022 0.017444 0.118230 -0.113174 -0.046110 -0.023365 0.088964 0.031750 0.070651 -0.152641 -0.055401 -0.119518 0.086390 -0.057261 -0.076609 -0.088400 0.018407 -0.094833 -0.151394 0.008302 -0.145261 -0.148517 0.143956 0.090278 -0.092781 0.259809 0.053092 -0.004030 -0.076800 -0.135558 0.069372 -0.125895 0.031829 0.224240 0.190434 0.092760 -0.212619 -0.069551 0.064363 -0.088435 0.045836 -0.132013 -0.038535 -0.076158 -0.020458 0.022790 0.029369 -0.068162 -0.045174 0.294315 -0.035376 -0.143513 -0.192797 0.016594 0.032675 -0.003728 -0.071981 0.064390 -0.015287 -0.110230 0.079894 0.107644 -0.118795 0.042102 0.130389 0.007554 0.028036 -0.074495 0.261609 -0.007662 0.028793 -0.052897 0.006146 -0.013356 0.049675 0.169636 -0.027883
87 -0.176820 -0.143162 0.155755 -0.095385 0.015417 0.189106 -0.153290 -0.069896 0.114478 0.104156 0.051534 0.039749 0.091203 0.091591 -0.027768 -0.145560 -0.006552 -0.010781 0.209771 0.147608 0.023725 -0.012634 -0.156539 0.119911 -0.085990 0.270699 0.081370 0.077198 -0.000491 -0.054058 -0.036425 -0.003943 -0.083467 0.089583 0.069866 0.217160 -0.093525 -0.017796 -0.048195 0.182031 0.068779 0.020976 0.107821 -0.084398 -0.007814 0.070164 -0.186222 -0.191022 -0.036028 0.081915 0.022501 -0.008184 0.014306 0.125854 -0.119327 -0.044498 -0.017982 0.090200 0.040543 0.072774 -0.148985 -0.052482 -0.123837 0.088214 -0.048515 -0.069326 -0.089362 0.016357 -0.094982 -0.154995 0.008421 -0.152420 -0.146607 0.147547 0.096140 -0.094791 0.265088 0.052222 0.000782 -0.078738 -0.135438 0.072953 -0.128953 0.041813 0.213776 0.192807 0.083624 -0.216082 -0.060355 0.065343 -0.090381 0.045766 -0.133409 -0.041663 -0.070406 -0.016041 0.030781 0.022744 -0.076038 -0.052363 0.299001 -0.038848 -0.140189 -0.193225 0.016750 0.032481 -0.006972 -0.076742 0.064661 -0.023917 -0.116242 0.083697 0.102533 -0.112460 0.040394 0.129030 -0.002484 0.025786 -0.077990 0.259556 -0.015377 0.033664 -0.058257 0.001859 -0.015113 0.047264 0.173497 -0.030797
172 -0.168984 -0.142425 0.139195 -0.098337 0.018041 0.161862 -0.146527 -0.052929 0.105725 0.115180 0.051186 0.034926 0.085229 0.091254 -0.050680 -0.154994 0.000966 -0.003436 0.202946 0.163892 0.010708 -0.002551 -0.152036 0.111772 -0.089474 0.247126 0.089622 0.081675 0.013367 -0.050803 -0.040106 0.004595 -0.083946 0.097043 0.065563 0.212534 -0.085774 -0.006773 -0.041330 0.180317 0.058717 0.031560 0.107463 -0.085349 -0.011537 0.078339 -0.171784 -0.200936 -0.058034 0.077331 0.028624 -0.008328 0.023256 0.106641 -0.122971 -0.039372 -0.034717 0.086661 0.021110 0.079126 -0.155345 -0.059170 -0.115527 0.095592 -0.055440 -0.084899 -0.077874 0.022190 -0.087865 -0.148009 0.007754 -0.134615 -0.162344 0.159507 0.090275 -0.076917 0.257134 0.043860 -0.005342 -0.075080 -0.131933 0.081550 -0.134500 0.035931 0.225810 0.194590 0.103367 -0.207837 -0.065986 0.053612 -0.092834 0.045867 -0.123926 -0.035818 -0.083930 -0.023717 0.013013 0.030817 -0.060088 -0.040480 0.279448 -0.036111 -0.133362 -0.188715 0.003752 0.031540 -0.002294 -0.067884 0.070292 -0.011241 -0.099619 0.077263 0.097993 -0.116261 0.037855 0.124036 0.011707 0.036528 -0.073531 0.241587 -0.015470 0.031465 -0.054014 0.007192 -0.012207 0.052631 0.160440 -0.049017
3 -0.165682 -0.141958 0.143385 -0.092076 0.018246 0.164358 -0.146404 -0.054213 0.101122 0.104436 0.059588 0.015555 0.085955 0.076674 -0.046182 -0.154513 0.003517 -0.008209 0.202452 0.149200 0.005488 0.002032 -0.142075 0.111820 -0.082915 0.238481 0.084040 0.084293 0.020167 -0.050501 -0.043192 0.003625 -0.088339 0.093809 0.060270 0.205177 -0.090910 -0.003702 -0.046470 0.186525 0.062906 0.023928 0.106839 -0.079229 -0.019886 0.078432 -0.165392 -0.196991 -0.062380 0.077777 0.028209 -0.009215 0.012390 0.106752 -0.121879 -0.042963 -0.029524 0.094252 0.021641 0.088383 -0.148758 -0.047498 -0.123422 0.096142 -0.038584 -0.076685 -0.073764 0.014105 -0.078726 -0.146444 0.012233 -0.127695 -0.155062 0.157479 0.097422 -0.083247 0.243788 0.046391 0.011306 -0.063149 -0.119222 0.088907 -0.122654 0.033703 0.220625 0.193094 0.097385 -0.202631 -0.068605 0.054072 -0.085926 0.042755 -0.120980 -0.039771 -0.098547 -0.018773 0.008028 0.031599 -0.054708 -0.045445 0.263482 -0.033040 -0.128153 -0.184433 0.001842 0.039591 -0.013246 -0.067119 0.069418 -0.020143 -0.093015 0.069610 0.091587 -0.099525 0.039018 0.123485 0.011274 0.027796 -0.063365 0.236248 -0.020228 0.018370 -0.057326 -0.010457 -0.012937 0.050909 0.155587 -0.042780
174 -0.171865 -0.135819 0.151374 -0.091703 0.009807 0.184888 -0.148093 -0.071804 0.108468 0.099470 0.047474 0.044830 0.084231 0.097669 -0.030691 -0.149536 -0.001154 -0.012741 0.202329 0.145450 0.017560 -0.009733 -0.156242 0.121436 -0.078873 0.266432 0.088551 0.078051 -0.005991 -0.041223 -0.045749 -0.006005 -0.079145 0.100130 0.068168 0.217084 -0.093001 -0.028868 -0.041671 0.171971 0.071588 0.017513 0.114194 -0.085315 -0.015337 0.066008 -0.178305 -0.182516 -0.032357 0.086904 0.029730 0.000549 0.018942 0.128065 -0.119089 -0.044332 -0.025835 0.090216 0.039254 0.066207 -0.154187 -0.053281 -0.123023 0.086438 -0.057080 -0.071139 -0.086611 0.016052 -0.101004 -0.154375 0.004329 -0.152908 -0.148047 0.139552 0.088347 -0.090276 0.264421 0.051310 -0.005855 -0.082032 -0.137467 0.072013 -0.127813 0.034379 0.224695 0.184699 0.081403 -0.212199 -0.064513 0.062816 -0.092257 0.052539 -0.132256 -0.033878 -0.060347 -0.014589 0.026137 0.026207 -0.071045 -0.045254 0.291555 -0.031582 -0.144328 -0.187583 0.020128 0.037000 -0.000678 -0.078026 0.057961 -0.018163 -0.118531 0.089939 0.109700 -0.120313 0.045461 0.117596 0.000034 0.022575 -0.076272 0.255098 -0.004378 0.029972 -0.048843 0.011138 -0.016214 0.041327 0.172060 -0.019568
89 -0.176188 -0.133832 0.151396 -0.097588 0.013828 0.189514 -0.144660 -0.074756 0.104315 0.101305 0.045822 0.051033 0.082338 0.095842 -0.023960 -0.151030 -0.001409 -0.012692 0.203211 0.142795 0.022508 -0.013848 -0.154687 0.123555 -0.080127 0.267906 0.087952 0.070392 -0.010505 -0.043318 -0.042646 -0.006289 -0.077090 0.093972 0.064297 0.212824 -0.090045 -0.031157 -0.037435 0.167056 0.075645 0.018795 0.106806 -0.086734 -0.008794 0.061964 -0.181900 -0.179301 -0.028278 0.088325 0.025552 -0.004084 0.019336 0.130119 -0.111221 -0.044119 -0.020099 0.084540 0.039350 0.063629 -0.155342 -0.051520 -0.118663 0.084259 -0.062303 -0.063871 -0.089411 0.019289 -0.104246 -0.153979 0.000849 -0.157605 -0.143343 0.133251 0.086487 -0.084991 0.264551 0.052959 -0.009153 -0.090417 -0.137732 0.062997 -0.124407 0.039310 0.213774 0.186635 0.079534 -0.207809 -0.059456 0.062802 -0.091858 0.053709 -0.138000 -0.039289 -0.054349 -0.016598 0.033211 0.018512 -0.075142 -0.045238 0.298188 -0.035583 -0.142549 -0.184524 0.024785 0.036703 0.005217 -0.084435 0.057477 -0.021762 -0.122409 0.089532 0.111015 -0.122778 0.041570 0.118500 -0.003074 0.025615 -0.080085 0.268015 -0.003958 0.040424 -0.054285 0.016103 -0.016966 0.044835 0.181065 -0.014913
142 -0.170897 -0.138550 0.145077 -0.094980 0.011564 0.182039 -0.142633 -0.069380 0.100984 0.100422 0.040489 0.045637 0.085403 0.096918 -0.026774 -0.141584 0.003301 -0.006393 0.197687 0.145375 0.019213 -0.011065 -0.156083 0.115543 -0.073858 0.260132 0.086460 0.073129 -0.006258 -0.041743 -0.037802 -0.004834 -0.071875 0.093409 0.067116 0.210509 -0.089673 -0.030438 -0.037638 0.162735 0.065507 0.023469 0.109382 -0.085864 -0.014418 0.063024 -0.178392 -0.172055 -0.027307 0.083040 0.025125 0.001308 0.020169 0.125391 -0.110558 -0.036546 -0.022259 0.084148 0.038013 0.061044 -0.144890 -0.051072 -0.117847 0.077996 -0.057939 -0.063492 -0.088844 0.019503 -0.094026 -0.147384 0.007825 -0.152650 -0.146654 0.129757 0.083748 -0.089157 0.261130 0.046472 -0.008801 -0.083549 -0.132623 0.059270 -0.122581 0.035662 0.215778 0.178792 0.081065 -0.207193 -0.065237 0.062258 -0.090338 0.046115 -0.129846 -0.033947 -0.057850 -0.014891 0.028221 0.023022 -0.074854 -0.043311 0.284212 -0.037622 -0.141653 -0.183622 0.020944 0.027790 -0.000948 -0.075752 0.060401 -0.019273 -0.113543 0.084778 0.103098 -0.117765 0.042715 0.119109 0.000629 0.020200 -0.070540 0.258738 -0.005832 0.036711 -0.046855 0.007999 -0.017108 0.039931 0.170754 -0.017317
19 -0.165842 -0.147242 0.148447 -0.095296 0.012286 0.168812 -0.150721 -0.059992 0.108080 0.109603 0.048249 0.035834 0.082793 0.092752 -0.045542 -0.149069 -0.005046 -0.010908 0.208290 0.160520 0.016638 -0.006813 -0.151186 0.118834 -0.085201 0.257892 0.086943 0.081171 0.009502 -0.050375 -0.041986 0.002824 -0.083653 0.088435 0.067216 0.210561 -0.093341 -0.009707 -0.043254 0.179927 0.063566 0.026726 0.111114 -0.085132 -0.010601 0.073675 -0.165870 -0.199485 -0.055545 0.077101 0.026185 -0.008784 0.013558 0.109477 -0.114901 -0.039174 -0.032998 0.093343 0.030177 0.079830 -0.150683 -0.057232 -0.116870 0.094204 -0.052957 -0.083211 -0.081394 0.016409 -0.091082 -0.154548 0.012683 -0.136145 -0.152481 0.154140 0.090014 -0.090413 0.256101 0.052521 -0.003419 -0.074198 -0.130286 0.077907 -0.127864 0.028844 0.217155 0.190471 0.099871 -0.205334 -0.071929 0.057767 -0.090603 0.048073 -0.119311 -0.036312 -0.087194 -0.015730 0.017119 0.031852 -0.062910 -0.050386 0.285807 -0.034757 -0.136033 -0.191278 0.005396 0.032002 -0.008323 -0.069757 0.065067 -0.017768 -0.106139 0.074207 0.101617 -0.116372 0.043324 0.132052 0.015721 0.037444 -0.072857 0.249899 -0.016510 0.024372 -0.057590 -0.000812 -0.013784 0.054386 0.159896 -0.043675
188 -0.154960 -0.132436 0.142910 -0.095287 0.021473 0.173132 -0.139258 -0.061893 0.106693 0.097797 0.059341 0.018709 0.094778 0.075086 -0.028787 -0.141232 -0.000162 -0.009000 0.198682 0.135809 0.010322 -0.005945 -0.133426 0.104752 -0.085338 0.239270 0.076304 0.072663 0.001597 -0.054452 -0.035345 -0.000124 -0.081248 0.086634 0.053228 0.198665 -0.095392 -0.014426 -0.044459 0.178658 0.067063 0.024647 0.101456 -0.083931 -0.012266 0.068390 -0.173861 -0.175223 -0.039393 0.081327 0.022844 -0.004723 0.015453 0.110609 -0.110527 -0.039493 -0.013467 0.090673 0.030662 0.071260 -0.137505 -0.047175 -0.120562 0.082108 -0.032532 -0.062004 -0.073186 0.012349 -0.078600 -0.134611 0.001612 -0.135516 -0.141510 0.138980 0.097296 -0.082328 0.237283 0.048108 0.012252 -0.067290 -0.114528 0.081333 -0.116220 0.044213 0.211361 0.184206 0.084204 -0.202941 -0.053561 0.051584 -0.080104 0.036847 -0.123430 -0.037838 -0.076843 -0.023284 0.019513 0.016959 -0.065080 -0.041094 0.267423 -0.032293 -0.131481 -0.179916 0.012538 0.039863 -0.012089 -0.073594 0.061041 -0.023728 -0.101411 0.078955 0.087394 -0.093154 0.034981 0.116679 -0.001615 0.012361 -0.067917 0.243736 -0.015019 0.030811 -0.055784 -0.010478 -0.014606 0.041379 0.154755 -0.029318
57 -0.160842 -0.138284 0.138703 -0.097383 0.018499 0.178570 -0.151171 -0.062986 0.108747 0.100785 0.057597 0.018760 0.096600 0.080160 -0.034328 -0.154997 -0.004632 -0.007852 0.201728 0.141923 0.009068 -0.003744 -0.137469 0.105822 -0.087417 0.248444 0.079708 0.081196 0.008530 -0.055741 -0.043862 0.006149 -0.081397 0.091254 0.058398 0.214136 -0.099886 -0.016085 -0.050047 0.186364 0.070856 0.022587 0.104602 -0.085459 -0.017198 0.079283 -0.174337 -0.184915 -0.043176 0.083749 0.018656 -0.003112 0.013596 0.113475 -0.118676 -0.044037 -0.019176 0.096762 0.032792 0.079150 -0.145412 -0.041336 -0.129388 0.088548 -0.033624 -0.067409 -0.079686 0.006719 -0.084125 -0.140895 0.008264 -0.134957 -0.143299 0.142952 0.102436 -0.086444 0.242882 0.049580 0.013495 -0.063347 -0.118390 0.088447 -0.113708 0.043146 0.220524 0.191769 0.087678 -0.208807 -0.062736 0.060109 -0.079603 0.043492 -0.128709 -0.038626 -0.087298 -0.020402 0.019772 0.023334 -0.062624 -0.051120 0.276429 -0.031940 -0.133403 -0.188402 0.006728 0.044386 -0.010252 -0.068718 0.061752 -0.021692 -0.102670 0.077631 0.088444 -0.097673 0.038103 0.116898 0.007106 0.013008 -0.071230 0.246232 -0.012150 0.023817 -0.058782 -0.009731 -0.009674 0.040944 0.160169 -0.034034
233 -0.162418 -0.132756 0.142571 -0.085030 0.012810 0.167063 -0.137948 -0.064250 0.096259 0.092952 0.040437 0.043798 0.076929 0.088321 -0.023519 -0.134000 0.001225 -0.005117 0.189355 0.136381 0.016551 -0.009395 -0.146680 0.113210 -0.072082 0.246469 0.079921 0.063829 0.001721 -0.041308 -0.037867 -0.002584 -0.068121 0.089851 0.057888 0.201544 -0.088314 -0.024978 -0.036658 0.159224 0.066911 0.018088 0.103705 -0.076190 -0.011823 0.064769 -0.168654 -0.166921 -0.028036 0.081282 0.025861 -0.002662 0.021856 0.119988 -0.104068 -0.034244 -0.022142 0.086439 0.039628 0.059657 -0.142010 -0.051851 -0.112036 0.083294 -0.050796 -0.061170 -0.076333 0.020417 -0.094332 -0.147220 0.005028 -0.143276 -0.137356 0.130404 0.083634 -0.080704 0.243916 0.049425 -0.003231 -0.079325 -0.120440 0.064817 -0.116303 0.034045 0.196786 0.176033 0.075728 -0.198354 -0.059189 0.060296 -0.083613 0.045788 -0.125782 -0.038974 -0.061231 -0.011775 0.028666 0.018870 -0.070360 -0.047835 0.269136 -0.036932 -0.131721 -0.170927 0.014576 0.025834 0.001743 -0.073475 0.051095 -0.015466 -0.106729 0.083782 0.102537 -0.106207 0.035675 0.115245 0.000098 0.027361 -0.075140 0.242831 -0.013552 0.032406 -0.051164 0.007314 -0.013614 0.043122 0.161521 -0.019459
105 -0.162127 -0.139090 0.142785 -0.089192 0.012565 0.163926 -0.140614 -0.056961 0.101501 0.100956 0.049164 0.038978 0.082084 0.091809 -0.041105 -0.140427 0.002388 -0.008214 0.197945 0.149182 0.018836 -0.004981 -0.145921 0.115442 -0.080585 0.247857 0.085756 0.079519 0.003301 -0.044746 -0.040485 -0.004221 -0.080681 0.089955 0.067039 0.201576 -0.087836 -0.021022 -0.043161 0.167788 0.062600 0.027627 0.109500 -0.081524 -0.015784 0.064565 -0.162862 -0.186302 -0.046133 0.071920 0.025960 -0.004096 0.017933 0.110045 -0.113672 -0.040725 -0.029232 0.086606 0.025640 0.075349 -0.146369 -0.052936 -0.117910 0.082564 -0.052255 -0.072056 -0.084315 0.014159 -0.089542 -0.146533 0.011774 -0.138342 -0.146270 0.141180 0.084461 -0.085160 0.246158 0.048761 0.000438 -0.072635 -0.127341 0.067552 -0.121431 0.030308 0.214301 0.178978 0.092373 -0.202804 -0.064776 0.057825 -0.088688 0.047076 -0.124378 -0.035288 -0.073993 -0.017361 0.021397 0.030809 -0.066085 -0.042679 0.275984 -0.034661 -0.128957 -0.177045 0.009298 0.028503 -0.002143 -0.071900 0.058721 -0.012853 -0.099608 0.074875 0.097600 -0.110614 0.039126 0.124415 0.008233 0.026224 -0.065333 0.242029 -0.011390 0.024419 -0.049962 0.004126 -0.009971 0.049205 0.159579 -0.034337
170 -0.163594 -0.142264 0.141741 -0.098853 0.019014 0.180392 -0.153584 -0.063549 0.109527 0.103290 0.065247 0.013280 0.105334 0.074240 -0.035615 -0.162155 0.004734 -0.001828 0.212867 0.148751 0.008481 0.000236 -0.139223 0.106713 -0.091996 0.240451 0.086026 0.079714 0.008862 -0.065423 -0.037422 0.007604 -0.083020 0.090768 0.055014 0.219672 -0.096737 -0.011775 -0.046074 0.197129 0.069663 0.022880 0.098697 -0.087492 -0.019768 0.088235 -0.186034 -0.197036 -0.053544 0.079540 0.018238 -0.005957 0.022642 0.111717 -0.121232 -0.044584 -0.018844 0.092377 0.024820 0.083604 -0.149850 -0.048554 -0.124673 0.093416 -0.027265 -0.061881 -0.075561 0.006085 -0.085583 -0.139026 0.001489 -0.139107 -0.156844 0.158827 0.099464 -0.075569 0.240166 0.044712 0.007799 -0.064090 -0.117098 0.090817 -0.116727 0.043837 0.226353 0.201812 0.095047 -0.211391 -0.059905 0.053483 -0.078605 0.038515 -0.128438 -0.048029 -0.093438 -0.027798 0.017305 0.017764 -0.064567 -0.044940 0.276391 -0.031543 -0.125228 -0.186664 -0.002791 0.042866 -0.008146 -0.076560 0.064304 -0.019898 -0.100756 0.077087 0.094296 -0.092030 0.037624 0.115023 0.006377 0.011556 -0.077184 0.249665 -0.016150 0.026720 -0.055989 -0.015135 -0.015450 0.047041 0.157257 -0.043309
84 -0.165459 -0.140191 0.141438 -0.087103 0.016940 0.162781 -0.146737 -0.054625 0.103521 0.107480 0.052908 0.030692 0.084270 0.086414 -0.045207 -0.143020 -0.001019 -0.004045 0.199977 0.153217 0.010063 -0.001836 -0.143761 0.111051 -0.084030 0.240600 0.083979 0.079651 0.014114 -0.050737 -0.039042 0.006285 -0.083834 0.089225 0.067243 0.205569 -0.085483 -0.005638 -0.046832 0.172371 0.056446 0.031371 0.106297 -0.082610 -0.015740 0.074213 -0.165960 -0.190289 -0.054697 0.070109 0.026941 -0.007925 0.014985 0.105020 -0.117318 -0.039739 -0.027485 0.090813 0.022921 0.081611 -0.144914 -0.051775 -0.117914 0.092528 -0.046544 -0.074416 -0.083114 0.016985 -0.082971 -0.148553 0.008773 -0.131531 -0.153425 0.151484 0.088731 -0.079697 0.244845 0.048612 -0.001970 -0.065409 -0.120147 0.076929 -0.126418 0.034791 0.213300 0.184625 0.095878 -0.201931 -0.065079 0.056227 -0.090285 0.041686 -0.117347 -0.040464 -0.086773 -0.016475 0.014743 0.027712 -0.059533 -0.040499 0.265445 -0.035842 -0.123369 -0.176101 0.002726 0.027063 -0.011590 -0.067053 0.065102 -0.014210 -0.097469 0.068510 0.095370 -0.107218 0.036140 0.121903 0.012750 0.033427 -0.069504 0.229125 -0.018840 0.028355 -0.052133 -0.000074 -0.010097 0.050080 0.154421 -0.043787
108 -0.166569 -0.134625 0.141023 -0.095261 0.018323 0.173917 -0.144070 -0.060154 0.103683 0.104739 0.052479 0.030520 0.086350 0.084939 -0.033341 -0.146476 -0.003164 -0.008658 0.199065 0.148580 0.017096 -0.004162 -0.143945 0.113820 -0.082832 0.251489 0.080543 0.072454 0.004004 -0.052697 -0.036995 0.003614 -0.081886 0.087742 0.062519 0.211030 -0.091995 -0.017963 -0.042543 0.176827 0.070197 0.022609 0.102266 -0.084560 -0.014113 0.072406 -0.173658 -0.185121 -0.040875 0.079896 0.023345 -0.006066 0.020963 0.117878 -0.117135 -0.041508 -0.022948 0.086035 0.031212 0.070671 -0.149292 -0.052456 -0.117442 0.089657 -0.050284 -0.068980 -0.077378 0.013879 -0.090540 -0.146518 0.007264 -0.137975 -0.146343 0.143321 0.087023 -0.080815 0.246857 0.044681 -0.000772 -0.072815 -0.127064 0.072365 -0.122500 0.036942 0.211379 0.186019 0.085607 -0.203855 -0.057954 0.054127 -0.083575 0.045868 -0.127281 -0.034670 -0.074778 -0.016353 0.021537 0.022525 -0.066769 -0.044461 0.279121 -0.033552 -0.128348 -0.180662 0.006859 0.031438 -0.003519 -0.070280 0.061535 -0.018280 -0.107974 0.080595 0.101677 -0.109183 0.038685 0.122910 0.002587 0.025392 -0.070664 0.247036 -0.012842 0.027138 -0.053735 0.004844 -0.012359 0.047239 0.163211 -0.034113
