11 128
105 -0.062772 -0.124898 0.119658 -0.038173 0.062217 0.020209 0.003486 0.084509 0.076399 0.002467 0.177882 0.068032 -0.054118 0.190257 -0.077833 -0.065373 0.228576 0.115237 0.110814 -0.078174 0.047521 0.134090 -0.071628 0.330437 -0.062705 -0.005788 -0.056225 0.019837 -0.089187 -0.074696 -0.006486 0.031798 -0.187432 -0.063239 0.119347 -0.156286 -0.167241 -0.070482 -0.005262 -0.025548 -0.044433 0.083585 0.104427 0.020914 0.014318 0.032886 -0.040271 -0.114921 -0.117883 -0.157583 -0.031037 0.171595 -0.034118 0.018857 -0.121065 -0.033777 -0.082847 0.050114 -0.243680 0.103598 -0.106839 -0.101103 -0.129952 -0.130290 0.000496 0.035796 -0.198129 -0.197017 -0.125649 -0.032637 -0.013601 -0.061930 -0.028513 0.075324 0.039104 -0.032449 0.067518 -0.162992 -0.015899 -0.060429 0.031937 -0.256303 0.056908 -0.101104 0.025187 -0.188891 0.213994 -0.060246 -0.222404 0.077093 0.109975 -0.011375 -0.131966 -0.025821 -0.034878 0.048568 0.007424 0.073266 -0.056041 0.025392 0.004377 -0.062070 -0.012821 0.084687 0.044517 -0.027886 0.060824 0.005633 0.035575 0.165727 0.046299 0.137468 0.039159 -0.006834 -0.093770 -0.102519 -0.097241 -0.190031 0.064751 -0.073377 0.019167 -0.149018 0.078805 -0.079967 -0.022466 0.076735 -0.107069 -0.034909
114 -0.069256 -0.133234 0.125194 -0.044633 0.065627 0.021267 -0.002004 0.091578 0.081896 -0.001328 0.194127 0.068167 -0.061342 0.206927 -0.079217 -0.073275 0.250882 0.129199 0.119758 -0.090633 0.042249 0.149669 -0.078390 0.363091 -0.068028 -0.005140 -0.062671 0.018424 -0.097941 -0.086573 -0.005810 0.039412 -0.204569 -0.071811 0.125740 -0.174814 -0.181665 -0.072475 -0.000701 -0.030603 -0.052834 0.083153 0.107649 0.024056 0.022812 0.032888 -0.051945 -0.124519 -0.126245 -0.169733 -0.032590 0.187007 -0.042717 0.017373 -0.124119 -0.037975 -0.093263 0.058040 -0.266361 0.116211 -0.118081 -0.113317 -0.137298 -0.136609 -0.001823 0.034316 -0.214840 -0.207767 -0.141678 -0.027190 -0.020008 -0.062263 -0.028544 0.084211 0.036761 -0.034479 0.077214 -0.180595 -0.022364 -0.066986 0.033857 -0.274385 0.064056 -0.105339 0.026785 -0.206066 0.233922 -0.062654 -0.241312 0.078806 0.120123 -0.018116 -0.142881 -0.023601 -0.035953 0.055899 0.006800 0.076515 -0.052889 0.023017 -0.002067 -0.070271 -0.017030 0.089670 0.055762 -0.023607 0.063823 0.013237 0.040122 0.180027 0.048196 0.149043 0.041061 -0.010055 -0.102418 -0.114643 -0.114980 -0.204905 0.065551 -0.079965 0.019877 -0.163249 0.087110 -0.089659 -0.034298 0.087054 -0.118067 -0.035656
74 -0.071824 -0.133844 0.124241 -0.046000 0.068064 0.026536 -0.000473 0.092361 0.079782 0.000049 0.194526 0.071868 -0.064777 0.206625 -0.080265 -0.076394 0.250141 0.126785 0.121596 -0.090917 0.044194 0.145759 -0.078235 0.362375 -0.073257 -0.005220 -0.063147 0.018638 -0.093447 -0.081751 -0.003330 0.044615 -0.207481 -0.068903 0.130890 -0.171801 -0.180468 -0.074179 -0.004194 -0.027659 -0.055514 0.089196 0.105142 0.025596 0.022141 0.037899 -0.048196 -0.123097 -0.126109 -0.169004 -0.031848 0.184936 -0.041661 0.018079 -0.129208 -0.035721 -0.089453 0.057449 -0.266324 0.111502 -0.116609 -0.114545 -0.135218 -0.139432 -0.001800 0.032081 -0.210175 -0.215042 -0.140529 -0.032146 -0.015308 -0.060358 -0.026152 0.079632 0.044371 -0.034610 0.075455 -0.181639 -0.018949 -0.066974 0.033103 -0.277409 0.061789 -0.102654 0.024733 -0.206935 0.227974 -0.058329 -0.243957 0.084086 0.120015 -0.015850 -0.138078 -0.028429 -0.039963 0.054225 0.006859 0.077454 -0.051610 0.024469 0.000974 -0.069137 -0.013841 0.090426 0.055078 -0.025925 0.060430 0.014364 0.040078 0.176027 0.043516 0.147979 0.047019 -0.009724 -0.102569 -0.120074 -0.110937 -0.208030 0.064252 -0.082766 0.016315 -0.161576 0.083556 -0.085222 -0.031056 0.080898 -0.121949 -0.037349
13 -0.064364 -0.128267 0.124171 -0.043923 0.065648 0.022827 0.003991 0.084427 0.081586 0.008349 0.182344 0.066897 -0.055986 0.195327 -0.078144 -0.072387 0.235044 0.119023 0.113125 -0.086626 0.053263 0.141158 -0.081026 0.349304 -0.068877 -0.009276 -0.055490 0.020763 -0.091112 -0.078507 -0.010683 0.040030 -0.199940 -0.069866 0.124497 -0.166757 -0.170488 -0.065298 -0.002522 -0.027395 -0.045709 0.085973 0.107707 0.025950 0.015811 0.040817 -0.042429 -0.115367 -0.128221 -0.159239 -0.035214 0.184393 -0.034523 0.023625 -0.129604 -0.037387 -0.088338 0.047502 -0.251377 0.101839 -0.109326 -0.104310 -0.138239 -0.139642 0.003554 0.034168 -0.212205 -0.208208 -0.127357 -0.036732 -0.017697 -0.065612 -0.030562 0.074972 0.044890 -0.035653 0.066505 -0.174973 -0.022324 -0.067206 0.035259 -0.272856 0.057740 -0.109388 0.018983 -0.200727 0.227020 -0.059464 -0.240030 0.087136 0.121665 -0.017378 -0.140984 -0.031175 -0.035282 0.049800 0.006540 0.069639 -0.063138 0.028104 0.005284 -0.064094 -0.015879 0.088616 0.045454 -0.034198 0.066384 0.004630 0.039267 0.168294 0.051153 0.145624 0.039754 -0.002966 -0.104464 -0.115505 -0.105530 -0.193899 0.065552 -0.081855 0.022223 -0.152355 0.086298 -0.080297 -0.023562 0.080200 -0.111003 -0.033611
101 -0.060681 -0.117298 0.108128 -0.035126 0.063288 0.014105 -0.002041 0.077106 0.073869 -0.003238 0.170796 0.060165 -0.049628 0.181700 -0.074397 -0.065101 0.219956 0.113960 0.106781 -0.077052 0.045756 0.131835 -0.068722 0.321194 -0.065389 -0.002202 -0.054541 0.016191 -0.084521 -0.071764 -0.007398 0.037105 -0.186859 -0.063763 0.107293 -0.153435 -0.160638 -0.060077 -0.002005 -0.028438 -0.044277 0.079782 0.092466 0.023983 0.022277 0.032050 -0.046561 -0.108267 -0.109671 -0.147732 -0.025194 0.166421 -0.032166 0.009442 -0.109049 -0.041005 -0.078943 0.053233 -0.232103 0.100118 -0.104537 -0.097651 -0.124699 -0.124424 0.005835 0.024920 -0.191846 -0.188141 -0.124871 -0.022070 -0.010550 -0.053565 -0.024760 0.071885 0.033632 -0.032525 0.062779 -0.163414 -0.018779 -0.059429 0.027067 -0.245332 0.058446 -0.089264 0.022158 -0.182358 0.207629 -0.053057 -0.211895 0.071927 0.105968 -0.018235 -0.125163 -0.017591 -0.033355 0.045666 0.001868 0.064526 -0.049203 0.025119 -0.000923 -0.057321 -0.010121 0.085952 0.049649 -0.026282 0.055740 0.012722 0.036150 0.153917 0.040317 0.134328 0.039628 -0.003185 -0.088525 -0.103633 -0.103118 -0.177823 0.059249 -0.070620 0.019607 -0.142979 0.073147 -0.080419 -0.023297 0.073080 -0.106823 -0.033885
44 -0.063654 -0.124993 0.116243 -0.042322 0.066656 0.020398 0.000263 0.087588 0.080678 0.002354 0.185775 0.067101 -0.060769 0.195511 -0.077530 -0.067030 0.233823 0.116011 0.114449 -0.082906 0.045298 0.145079 -0.077390 0.347374 -0.064118 -0.007054 -0.057481 0.021871 -0.087140 -0.078123 -0.006010 0.035936 -0.202384 -0.069929 0.120910 -0.165012 -0.174378 -0.064433 -0.004615 -0.032224 -0.052471 0.087695 0.100361 0.023156 0.021162 0.033842 -0.049146 -0.112780 -0.123538 -0.161427 -0.031565 0.178555 -0.037620 0.012687 -0.119756 -0.040194 -0.084058 0.050242 -0.248803 0.103690 -0.112610 -0.107792 -0.131071 -0.137305 0.003596 0.034462 -0.208571 -0.198481 -0.130949 -0.024527 -0.010964 -0.059048 -0.026400 0.075555 0.036499 -0.031087 0.066707 -0.176598 -0.017511 -0.060149 0.029731 -0.265787 0.059583 -0.102854 0.023136 -0.200128 0.225295 -0.059293 -0.234587 0.076872 0.109565 -0.016848 -0.136735 -0.025637 -0.038878 0.054252 0.006588 0.074432 -0.056197 0.029109 0.001366 -0.059446 -0.013641 0.090981 0.051797 -0.023190 0.063491 0.011256 0.035871 0.169427 0.048591 0.139212 0.037549 -0.003050 -0.097561 -0.108501 -0.109053 -0.197216 0.061387 -0.077851 0.020910 -0.156618 0.079919 -0.080303 -0.023916 0.076117 -0.117104 -0.037822
137 -0.072984 -0.131537 0.126121 -0.045076 0.071849 0.026542 -0.000012 0.092107 0.086412 0.006985 0.189251 0.070688 -0.058271 0.205328 -0.080780 -0.077681 0.249824 0.126845 0.122032 -0.090113 0.052264 0.148531 -0.078159 0.362819 -0.070664 -0.010854 -0.062372 0.015107 -0.097900 -0.080702 -0.006801 0.043416 -0.207647 -0.073288 0.131049 -0.168701 -0.179599 -0.071769 -0.005826 -0.026259 -0.051017 0.087539 0.108512 0.025800 0.018016 0.037668 -0.045415 -0.118937 -0.129421 -0.164443 -0.036014 0.188321 -0.041456 0.023056 -0.131603 -0.033976 -0.088404 0.052931 -0.264793 0.112840 -0.119546 -0.106887 -0.138338 -0.137616 -0.001164 0.040020 -0.218644 -0.213531 -0.140576 -0.032255 -0.013186 -0.063617 -0.032818 0.080239 0.044636 -0.031020 0.074276 -0.177066 -0.018329 -0.063816 0.034728 -0.279152 0.065122 -0.110994 0.022062 -0.208982 0.232361 -0.057710 -0.246283 0.083482 0.118911 -0.020213 -0.144942 -0.031340 -0.036052 0.055826 0.005498 0.073126 -0.060376 0.030385 0.002275 -0.065692 -0.012424 0.093114 0.049468 -0.032355 0.061809 0.005828 0.042400 0.180059 0.048287 0.154134 0.042419 -0.010582 -0.104929 -0.120693 -0.105181 -0.206568 0.064942 -0.083043 0.024428 -0.159953 0.081644 -0.090020 -0.024080 0.080070 -0.115003 -0.038197
46 -0.069104 -0.128479 0.123275 -0.037661 0.066146 0.027145 0.005461 0.087060 0.075184 0.006442 0.184371 0.070764 -0.060681 0.198688 -0.079259 -0.072866 0.236110 0.118665 0.110752 -0.080644 0.044281 0.136233 -0.075696 0.343533 -0.060455 -0.012850 -0.061807 0.015712 -0.089998 -0.079710 -0.008979 0.038610 -0.194993 -0.062105 0.123013 -0.161616 -0.173128 -0.070796 0.000071 -0.023179 -0.048426 0.081771 0.108971 0.023514 0.012230 0.038895 -0.041587 -0.114324 -0.126684 -0.161444 -0.028525 0.178573 -0.037877 0.022548 -0.127587 -0.030543 -0.082259 0.048909 -0.253154 0.100289 -0.108451 -0.104710 -0.135590 -0.134674 -0.002233 0.036534 -0.204287 -0.204139 -0.126395 -0.034839 -0.018694 -0.063653 -0.030079 0.077629 0.046525 -0.030219 0.064096 -0.171171 -0.020363 -0.066454 0.038353 -0.265962 0.054582 -0.106935 0.024338 -0.198535 0.218971 -0.056489 -0.235035 0.084926 0.118959 -0.012979 -0.132823 -0.024202 -0.034188 0.051997 0.006270 0.075215 -0.059657 0.026497 -0.001395 -0.066853 -0.017813 0.085259 0.044269 -0.029427 0.061935 0.008253 0.041982 0.172093 0.043914 0.146873 0.042563 -0.005150 -0.101631 -0.113195 -0.097088 -0.195939 0.059394 -0.078131 0.016977 -0.154686 0.083055 -0.076999 -0.020169 0.073886 -0.113833 -0.036689
55 -0.066791 -0.130984 0.125238 -0.041712 0.066556 0.021590 0.005650 0.086776 0.084093 0.007451 0.188625 0.071134 -0.062035 0.202186 -0.081435 -0.072933 0.240164 0.125287 0.114978 -0.085994 0.051219 0.143994 -0.078568 0.350658 -0.063757 -0.009476 -0.063992 0.015080 -0.094554 -0.077469 -0.006177 0.037504 -0.196384 -0.069193 0.127119 -0.165080 -0.179754 -0.070425 -0.005791 -0.030034 -0.046184 0.088297 0.110766 0.021351 0.020277 0.040450 -0.042709 -0.118084 -0.124927 -0.165369 -0.034768 0.183465 -0.034494 0.021990 -0.130962 -0.036007 -0.084687 0.051489 -0.257135 0.104385 -0.110407 -0.107422 -0.133897 -0.138654 0.002479 0.039710 -0.208533 -0.209903 -0.130973 -0.033974 -0.017763 -0.061182 -0.026732 0.082124 0.046451 -0.031972 0.071412 -0.178357 -0.022699 -0.061387 0.035948 -0.273736 0.061833 -0.110453 0.020037 -0.200340 0.226292 -0.062889 -0.241839 0.083394 0.122418 -0.012579 -0.136459 -0.031011 -0.038879 0.051422 0.003637 0.076644 -0.057630 0.027054 0.003987 -0.063837 -0.017127 0.087066 0.048971 -0.026450 0.063183 0.009103 0.044006 0.175104 0.044625 0.151084 0.044814 -0.008381 -0.098132 -0.116585 -0.101479 -0.201544 0.067481 -0.083757 0.023829 -0.154496 0.080855 -0.087153 -0.025836 0.080801 -0.116618 -0.033743
95 -0.071319 -0.133681 0.132125 -0.042754 0.073707 0.021098 0.003757 0.097402 0.082803 0.001909 0.200294 0.066537 -0.065574 0.205213 -0.087458 -0.071036 0.252878 0.127814 0.126093 -0.094585 0.045331 0.154582 -0.076865 0.371689 -0.074660 -0.011272 -0.066065 0.021502 -0.095507 -0.085707 -0.007082 0.044899 -0.215692 -0.074474 0.129045 -0.175610 -0.184199 -0.073391 -0.008484 -0.031632 -0.055244 0.088165 0.106040 0.022278 0.025619 0.034721 -0.049515 -0.120957 -0.124303 -0.171007 -0.030839 0.189777 -0.044698 0.015274 -0.133501 -0.044635 -0.097434 0.056742 -0.269904 0.119737 -0.118732 -0.116660 -0.140833 -0.141705 0.000993 0.029845 -0.217119 -0.216023 -0.143030 -0.026686 -0.017700 -0.057361 -0.024474 0.085749 0.035115 -0.035165 0.079175 -0.185177 -0.022427 -0.065078 0.030845 -0.276009 0.069135 -0.105794 0.028311 -0.209828 0.240155 -0.064693 -0.247043 0.078298 0.115347 -0.019608 -0.144119 -0.021390 -0.034997 0.058000 0.000608 0.076339 -0.050574 0.029909 -0.001684 -0.066094 -0.016444 0.098303 0.057002 -0.026317 0.061636 0.009446 0.044572 0.182193 0.053474 0.153506 0.046169 -0.003246 -0.101502 -0.123552 -0.117479 -0.213887 0.060003 -0.078165 0.017740 -0.165566 0.087589 -0.094478 -0.034113 0.088461 -0.126318 -0.034363
0 -0.063541 -0.121504 0.113474 -0.042146 0.059648 0.021224 -0.000953 0.081139 0.072694 0.000464 0.179100 0.061542 -0.054646 0.183992 -0.071115 -0.067001 0.226810 0.113348 0.106360 -0.081640 0.039489 0.131608 -0.070034 0.327841 -0.068168 -0.007437 -0.055811 0.013666 -0.089232 -0.078890 -0.003704 0.040925 -0.187680 -0.066695 0.116954 -0.157148 -0.159700 -0.062058 -0.001104 -0.030874 -0.051122 0.076125 0.092421 0.024261 0.020773 0.035885 -0.045631 -0.111229 -0.115692 -0.149527 -0.029900 0.166818 -0.039264 0.009041 -0.116182 -0.038751 -0.085841 0.055429 -0.242356 0.104430 -0.104663 -0.105093 -0.124287 -0.122552 0.001914 0.025007 -0.193102 -0.195099 -0.128332 -0.022885 -0.017659 -0.050807 -0.020409 0.077075 0.036438 -0.033523 0.066493 -0.164501 -0.019937 -0.059360 0.031320 -0.249039 0.063238 -0.089758 0.019583 -0.183756 0.210169 -0.057299 -0.215807 0.072401 0.104825 -0.012206 -0.125974 -0.022695 -0.034072 0.051081 0.000273 0.069369 -0.044161 0.023054 0.000268 -0.061765 -0.008919 0.088440 0.049075 -0.021727 0.060510 0.015247 0.042415 0.163298 0.039701 0.137222 0.039968 -0.008104 -0.094548 -0.110115 -0.101179 -0.188065 0.054818 -0.070087 0.013029 -0.145430 0.072694 -0.082617 -0.030400 0.077847 -0.109293 -0.030235
