9 128
101 0.069820 -0.057926 -0.146499 -0.107101 0.103455 -0.111865 -0.142378 -0.029850 0.108186 -0.023833 -0.055399 -0.059938 0.049885 -0.041500 0.029048 -0.120651 -0.009111 -0.043792 -0.054118 -0.065485 0.115138 0.121659 -0.038488 0.154070 -0.025184 0.124738 -0.025839 0.024123 -0.033750 -0.103887 -0.035937 0.114884 -0.133488 -0.086784 -0.093829 -0.178183 -0.134181 0.226599 0.121615 0.039599 -0.030434 0.066012 -0.012342 0.128220 -0.009677 -0.012315 -0.140883 -0.040715 -0.050582 0.040050 -0.073624 0.144777 0.033264 -0.023474 0.125067 -0.146107 0.004871 0.016586 0.006830 -0.031043 -0.078540 0.071650 -0.162320 -0.133596 0.124647 -0.012245 -0.252402 -0.037879 0.046160 0.130986 0.021152 0.005351 0.033609 -0.186303 0.031147 -0.080562 -0.058784 -0.176198 -0.076527 -0.076143 0.079968 -0.133259 -0.011821 -0.020136 0.084105 -0.013734 0.248275 -0.063361 -0.144183 0.106961 0.135663 -0.165788 -0.188081 0.014242 -0.098313 0.058058 0.101830 -0.169401 -0.012469 -0.121791 0.025450 -0.012069 -0.027404 0.030684 0.089787 -0.015335 0.240702 0.032260 -0.109012 -0.026429 0.069334 0.054076 -0.182621 0.051649 -0.078846 -0.002499 -0.173866 0.041742 0.082997 -0.122952 0.251493 -0.105729 0.018040 -0.025438 -0.031995 0.072709 0.016415 -0.131878
13 0.073606 -0.056614 -0.140377 -0.110888 0.098719 -0.108615 -0.136535 -0.029130 0.106515 -0.017256 -0.057948 -0.061420 0.046436 -0.047329 0.031834 -0.115376 -0.015086 -0.047799 -0.054750 -0.068861 0.113838 0.119681 -0.041912 0.149409 -0.025456 0.119560 -0.021480 0.029012 -0.030992 -0.102702 -0.036077 0.113951 -0.128844 -0.088259 -0.089419 -0.176558 -0.126616 0.225629 0.118561 0.039724 -0.029546 0.063269 -0.012263 0.125662 -0.011527 -0.009674 -0.134909 -0.037416 -0.052171 0.041133 -0.077240 0.142995 0.033559 -0.016220 0.117880 -0.142413 -0.000429 0.010244 0.009407 -0.033762 -0.072850 0.069597 -0.159549 -0.133893 0.122015 -0.010996 -0.248140 -0.036835 0.051639 0.123035 0.015386 0.004255 0.034108 -0.186079 0.031093 -0.080553 -0.057272 -0.172159 -0.077899 -0.076081 0.080019 -0.130468 -0.014907 -0.023397 0.079860 -0.011934 0.245344 -0.065405 -0.144372 0.107131 0.135375 -0.162201 -0.187320 0.007031 -0.096101 0.056605 0.102609 -0.169323 -0.013428 -0.121001 0.028877 -0.011283 -0.030954 0.027254 0.085708 -0.016460 0.240946 0.026369 -0.107951 -0.028542 0.075301 0.049710 -0.182023 0.053191 -0.081028 -0.003207 -0.172514 0.042517 0.080351 -0.122082 0.247086 -0.101230 0.023257 -0.021178 -0.036197 0.075657 0.018739 -0.124629
44 0.075326 -0.057341 -0.151648 -0.114940 0.103987 -0.111801 -0.142922 -0.026769 0.111791 -0.018831 -0.056654 -0.060678 0.043863 -0.045570 0.034311 -0.118759 -0.014410 -0.053141 -0.056814 -0.067169 0.111775 0.127854 -0.041633 0.157430 -0.017975 0.124446 -0.024989 0.031264 -0.029414 -0.107855 -0.033640 0.113687 -0.135606 -0.091392 -0.093023 -0.181660 -0.138936 0.232872 0.122305 0.039186 -0.035711 0.069755 -0.012718 0.127589 -0.011536 -0.014840 -0.143847 -0.037165 -0.054608 0.039774 -0.080260 0.147186 0.030761 -0.022929 0.126497 -0.146275 0.005838 0.009880 0.009799 -0.034655 -0.080990 0.069666 -0.160913 -0.138974 0.126466 -0.005573 -0.259616 -0.032285 0.051240 0.135198 0.023376 0.006085 0.036910 -0.193362 0.030535 -0.078509 -0.061379 -0.181130 -0.074979 -0.072134 0.082210 -0.134026 -0.015410 -0.025010 0.087011 -0.014866 0.255253 -0.067496 -0.151036 0.105484 0.133188 -0.166858 -0.194287 0.008612 -0.105372 0.064482 0.109097 -0.169284 -0.013335 -0.124451 0.028461 -0.009923 -0.032260 0.029384 0.090747 -0.008744 0.251437 0.030625 -0.115963 -0.023733 0.078117 0.048995 -0.194263 0.052609 -0.082441 0.002980 -0.177722 0.037638 0.082547 -0.126832 0.258142 -0.111824 0.018509 -0.019913 -0.032728 0.072920 0.015142 -0.136214
114 0.075584 -0.061265 -0.150027 -0.116576 0.103181 -0.115059 -0.147752 -0.027590 0.113277 -0.021492 -0.059455 -0.062989 0.047428 -0.043607 0.035183 -0.122854 -0.009557 -0.046144 -0.056720 -0.071596 0.113457 0.129564 -0.042177 0.160146 -0.019595 0.128160 -0.026788 0.027768 -0.036399 -0.112168 -0.035434 0.116663 -0.133323 -0.092642 -0.095606 -0.187895 -0.139828 0.234057 0.127904 0.042982 -0.032797 0.063141 -0.010388 0.130609 -0.012064 -0.016542 -0.146840 -0.043032 -0.054873 0.038711 -0.080678 0.151454 0.031454 -0.017155 0.130021 -0.145607 0.001170 0.014060 0.004582 -0.029767 -0.081756 0.072466 -0.166653 -0.137382 0.123865 -0.005556 -0.263068 -0.033240 0.049244 0.134788 0.015543 0.003858 0.034373 -0.192819 0.029290 -0.081289 -0.056177 -0.180818 -0.081152 -0.078932 0.085968 -0.136359 -0.015283 -0.025413 0.089784 -0.014218 0.260476 -0.069578 -0.151596 0.107900 0.142864 -0.171707 -0.199222 0.011200 -0.101631 0.063529 0.111389 -0.175139 -0.011713 -0.131884 0.025577 -0.015624 -0.035364 0.025401 0.093287 -0.011272 0.253502 0.030693 -0.115746 -0.023007 0.077721 0.053857 -0.195407 0.049654 -0.083989 0.001791 -0.182718 0.041832 0.085819 -0.128084 0.263096 -0.112673 0.024525 -0.025176 -0.040907 0.080906 0.020152 -0.134859
70 0.078737 -0.063781 -0.152723 -0.117510 0.107933 -0.115871 -0.148049 -0.024757 0.113854 -0.017479 -0.062455 -0.060146 0.045773 -0.046357 0.031704 -0.122217 -0.012580 -0.052471 -0.055495 -0.067957 0.117530 0.128381 -0.040759 0.154850 -0.021816 0.127588 -0.028279 0.027034 -0.031943 -0.107549 -0.033271 0.120736 -0.138378 -0.092084 -0.094896 -0.186518 -0.136827 0.238064 0.124509 0.046782 -0.033935 0.064710 -0.016055 0.131508 -0.016445 -0.014380 -0.146070 -0.038859 -0.056259 0.038859 -0.077423 0.149675 0.035258 -0.018092 0.130200 -0.146944 0.005597 0.015244 0.004813 -0.031603 -0.078534 0.075604 -0.170161 -0.140041 0.124510 -0.005234 -0.260035 -0.036732 0.053848 0.136611 0.019240 0.008732 0.039839 -0.199340 0.030274 -0.080479 -0.057288 -0.179329 -0.079065 -0.078717 0.086749 -0.138015 -0.015613 -0.020528 0.092809 -0.013414 0.261985 -0.071128 -0.150903 0.110530 0.141436 -0.170202 -0.198820 0.013382 -0.104469 0.064384 0.111274 -0.177137 -0.009022 -0.132744 0.024719 -0.010280 -0.033245 0.029874 0.092472 -0.012153 0.254891 0.031626 -0.117443 -0.025328 0.075237 0.054156 -0.195654 0.053052 -0.079950 0.000022 -0.180520 0.040395 0.080442 -0.124517 0.265381 -0.114354 0.023509 -0.023293 -0.040280 0.076404 0.017371 -0.138319
57 0.075742 -0.059573 -0.155203 -0.118448 0.108066 -0.112717 -0.149207 -0.028967 0.113213 -0.021421 -0.058325 -0.064175 0.050779 -0.046821 0.030180 -0.127760 -0.015050 -0.049929 -0.058601 -0.070013 0.116142 0.127570 -0.037306 0.158232 -0.025641 0.130026 -0.028504 0.031669 -0.033278 -0.112521 -0.039500 0.122057 -0.136640 -0.090094 -0.095760 -0.182985 -0.143787 0.235058 0.124164 0.044609 -0.031990 0.067910 -0.012007 0.130929 -0.012324 -0.011519 -0.143167 -0.042075 -0.051852 0.044590 -0.084242 0.150735 0.029955 -0.022383 0.127717 -0.153156 0.003029 0.016647 0.009364 -0.032075 -0.083566 0.077945 -0.171797 -0.138725 0.129913 -0.012413 -0.263354 -0.039021 0.050837 0.135962 0.021783 0.007436 0.038486 -0.198882 0.036164 -0.085720 -0.058895 -0.181732 -0.076377 -0.075938 0.085855 -0.132745 -0.010699 -0.022775 0.091892 -0.010685 0.260437 -0.071871 -0.154030 0.113415 0.141393 -0.169762 -0.200766 0.012982 -0.106167 0.064203 0.110408 -0.175062 -0.009974 -0.131470 0.030973 -0.011507 -0.034341 0.026284 0.092125 -0.009457 0.256036 0.033646 -0.116210 -0.024870 0.078824 0.053356 -0.197831 0.055477 -0.084756 -0.000740 -0.177079 0.038656 0.084891 -0.129152 0.264482 -0.112022 0.017306 -0.024474 -0.034011 0.075947 0.018201 -0.138370
40 0.071901 -0.059901 -0.152029 -0.115722 0.108976 -0.113881 -0.148151 -0.024880 0.111635 -0.023890 -0.056764 -0.065846 0.046431 -0.051760 0.031247 -0.126218 -0.013921 -0.054328 -0.060630 -0.073733 0.118552 0.128463 -0.036974 0.160960 -0.023545 0.127757 -0.030156 0.026066 -0.037091 -0.115564 -0.036192 0.119867 -0.136784 -0.089022 -0.095150 -0.188593 -0.143492 0.240572 0.127218 0.043819 -0.038442 0.069462 -0.010905 0.134520 -0.014494 -0.018481 -0.145727 -0.043411 -0.050763 0.044334 -0.083320 0.147485 0.028986 -0.020479 0.131404 -0.152469 0.001251 0.010067 0.010737 -0.035069 -0.080139 0.075696 -0.169083 -0.141845 0.127473 -0.008941 -0.265799 -0.037048 0.055381 0.138320 0.015749 0.006397 0.037618 -0.200346 0.032587 -0.085625 -0.059537 -0.182870 -0.083171 -0.078590 0.087112 -0.135107 -0.015133 -0.027695 0.093576 -0.008500 0.262591 -0.073171 -0.154758 0.112831 0.135096 -0.175458 -0.198838 0.009514 -0.102101 0.067967 0.112325 -0.180014 -0.009392 -0.131598 0.032063 -0.015732 -0.029332 0.028867 0.095141 -0.012760 0.259304 0.027167 -0.117538 -0.026476 0.078362 0.051082 -0.197467 0.053283 -0.083020 -0.000543 -0.179160 0.039397 0.086995 -0.131787 0.266415 -0.109587 0.018806 -0.026821 -0.039363 0.082780 0.019441 -0.139613
78 0.077827 -0.061733 -0.155664 -0.119063 0.111332 -0.122423 -0.145921 -0.030530 0.114842 -0.019417 -0.064625 -0.068601 0.049839 -0.053648 0.039060 -0.127228 -0.012543 -0.054689 -0.060221 -0.074579 0.115021 0.130873 -0.039541 0.166629 -0.020347 0.132008 -0.028310 0.032545 -0.031603 -0.116242 -0.033945 0.127516 -0.138224 -0.097571 -0.102985 -0.191456 -0.144513 0.242981 0.132279 0.047927 -0.033986 0.072614 -0.010822 0.134723 -0.011485 -0.016836 -0.149783 -0.039733 -0.050669 0.046046 -0.081749 0.158378 0.030645 -0.022386 0.127234 -0.152305 0.003616 0.011339 0.007965 -0.029609 -0.086277 0.070269 -0.168176 -0.142117 0.135377 -0.011822 -0.272153 -0.038020 0.052747 0.140588 0.024360 0.009382 0.042244 -0.203034 0.032953 -0.084853 -0.064908 -0.190227 -0.081396 -0.077586 0.089637 -0.134656 -0.016016 -0.020462 0.095848 -0.009401 0.266123 -0.066706 -0.152382 0.106963 0.144369 -0.179008 -0.203314 0.013271 -0.110235 0.064897 0.111152 -0.185119 -0.008017 -0.135741 0.027359 -0.017345 -0.037193 0.032084 0.094019 -0.015523 0.265197 0.028471 -0.119850 -0.025298 0.084798 0.059202 -0.203076 0.051046 -0.089455 -0.000688 -0.189948 0.041636 0.086820 -0.131999 0.271399 -0.119075 0.019980 -0.025250 -0.037359 0.081920 0.018488 -0.141385
117 0.080047 -0.063762 -0.151670 -0.118681 0.109393 -0.117297 -0.150412 -0.030062 0.114062 -0.023992 -0.062797 -0.063455 0.044702 -0.051954 0.036278 -0.119112 -0.017841 -0.048076 -0.057186 -0.074733 0.120243 0.131321 -0.041542 0.157696 -0.022989 0.128230 -0.028309 0.032554 -0.037158 -0.112006 -0.036911 0.123038 -0.132905 -0.096088 -0.097182 -0.187101 -0.143274 0.240425 0.128721 0.047133 -0.036549 0.067511 -0.016306 0.135472 -0.010658 -0.011778 -0.145334 -0.041423 -0.051947 0.040966 -0.082610 0.149205 0.036848 -0.016323 0.129558 -0.150008 -0.000682 0.014596 0.006078 -0.036403 -0.082541 0.073548 -0.169826 -0.142254 0.129207 -0.006413 -0.265239 -0.034885 0.053708 0.134917 0.017546 0.008869 0.034536 -0.199062 0.033118 -0.080060 -0.062667 -0.186048 -0.080392 -0.079001 0.086912 -0.132785 -0.017893 -0.021225 0.090179 -0.008273 0.259295 -0.071648 -0.148925 0.109053 0.144072 -0.171705 -0.196394 0.006578 -0.106212 0.060867 0.113922 -0.180402 -0.009045 -0.132123 0.029129 -0.010123 -0.034520 0.024764 0.095550 -0.012161 0.259279 0.029489 -0.111996 -0.027226 0.078414 0.056026 -0.191720 0.057374 -0.086653 0.002627 -0.184403 0.044730 0.083711 -0.130819 0.266637 -0.112262 0.017732 -0.024109 -0.038815 0.081012 0.018634 -0.134904
