6 128
70 0.164946 -0.122501 -0.036128 -0.124942 0.042443 -0.126001 -0.110424 0.080942 0.145444 0.109470 -0.094110 0.018068 -0.046901 0.084684 -0.009647 0.011102 0.071255 0.025525 0.089119 -0.033878 0.069074 0.188274 -0.140941 0.090616 0.020690 0.039595 -0.007251 -0.005716 0.009758 0.018387 0.020133 0.059109 -0.181536 -0.142206 -0.028329 -0.212198 0.025266 0.158768 0.030706 0.041232 0.020411 -0.119961 -0.084981 0.032531 -0.040063 -0.019478 -0.160076 0.029066 -0.171836 -0.135499 0.042853 0.168177 0.104569 0.110829 0.110849 -0.015603 -0.018279 0.054877 -0.146011 0.080598 0.014907 0.043466 -0.171874 -0.102495 -0.052000 0.115573 -0.125777 0.019997 0.018422 0.087065 -0.084747 0.015930 0.043824 -0.079337 -0.136463 0.027851 0.123373 -0.067220 -0.104546 -0.116140 0.048140 -0.217682 -0.019701 -0.000255 0.065633 -0.163248 0.311641 -0.094742 -0.140220 0.040342 0.204388 -0.108124 -0.211265 0.077984 -0.006795 0.047032 0.077959 -0.106356 0.000614 -0.124212 -0.145402 0.060078 -0.120743 0.030905 0.081471 0.010012 0.093461 0.044272 -0.091234 0.028346 0.050555 0.068549 -0.120518 0.036933 0.035223 -0.024206 -0.243540 0.022361 -0.064953 0.035380 0.200635 -0.158088 0.249306 -0.024071 -0.213364 0.078999 -0.023165 -0.029106
13 0.160207 -0.115529 -0.032416 -0.122917 0.038869 -0.122131 -0.104600 0.074029 0.141307 0.106445 -0.090444 0.012091 -0.042953 0.078235 -0.007309 0.009953 0.065968 0.025152 0.083914 -0.038433 0.069226 0.183153 -0.140293 0.092972 0.016122 0.038002 -0.002535 -0.001131 0.009100 0.015108 0.015009 0.058065 -0.175881 -0.140309 -0.027710 -0.208097 0.025420 0.156457 0.031079 0.035982 0.021637 -0.114110 -0.079385 0.032994 -0.035251 -0.016104 -0.153666 0.027686 -0.166371 -0.127110 0.036296 0.166468 0.100640 0.108494 0.103232 -0.019691 -0.023619 0.048569 -0.136988 0.075076 0.014852 0.040644 -0.166772 -0.102156 -0.045677 0.106803 -0.126918 0.017710 0.019175 0.080326 -0.085043 0.011939 0.040318 -0.076534 -0.130519 0.022109 0.117266 -0.069289 -0.105139 -0.114246 0.045664 -0.211936 -0.019099 -0.005165 0.057825 -0.158228 0.303708 -0.091590 -0.140249 0.042006 0.200524 -0.107823 -0.207306 0.070561 -0.005100 0.043400 0.074481 -0.106131 -0.003709 -0.117771 -0.135655 0.056574 -0.118309 0.029083 0.078284 0.006024 0.093387 0.039439 -0.087417 0.023903 0.055459 0.064998 -0.117448 0.038997 0.028225 -0.026491 -0.240069 0.024755 -0.058729 0.029179 0.193691 -0.148722 0.244002 -0.022756 -0.206519 0.081167 -0.020446 -0.023659
114 0.151721 -0.112757 -0.033159 -0.117162 0.036142 -0.117594 -0.104792 0.074109 0.136679 0.098378 -0.084980 0.014275 -0.042820 0.082458 -0.005736 0.008762 0.070008 0.029227 0.081970 -0.035167 0.060445 0.179092 -0.133027 0.091223 0.022671 0.038590 -0.006453 -0.004648 0.004614 0.011460 0.017049 0.051510 -0.166340 -0.133977 -0.027624 -0.201298 0.018439 0.146118 0.032632 0.035285 0.019124 -0.113516 -0.074137 0.029940 -0.033775 -0.021539 -0.152279 0.022792 -0.160119 -0.127467 0.036255 0.159901 0.093517 0.104106 0.105602 -0.013979 -0.020632 0.050540 -0.137274 0.077520 0.009604 0.038393 -0.158602 -0.094187 -0.049231 0.109149 -0.122675 0.022827 0.012862 0.082047 -0.082429 0.010537 0.036355 -0.069521 -0.128996 0.025406 0.116885 -0.065435 -0.099788 -0.108684 0.045074 -0.202971 -0.018009 -0.005512 0.060475 -0.154088 0.292835 -0.088424 -0.133590 0.035459 0.192713 -0.103680 -0.200076 0.071535 -0.004831 0.045074 0.074675 -0.097871 -0.001585 -0.116882 -0.135523 0.051129 -0.115589 0.024532 0.078203 0.011901 0.088172 0.041357 -0.085436 0.029901 0.050190 0.063754 -0.115191 0.031102 0.029184 -0.019967 -0.230909 0.021222 -0.055351 0.028990 0.188123 -0.148356 0.234183 -0.024597 -0.200781 0.078420 -0.019335 -0.026061
101 0.153748 -0.114670 -0.036131 -0.115601 0.042188 -0.122562 -0.106891 0.072119 0.139448 0.098358 -0.086340 0.014693 -0.040214 0.082841 -0.009808 0.007461 0.070309 0.029320 0.084349 -0.033437 0.068519 0.180906 -0.134582 0.093649 0.016677 0.040686 -0.006389 -0.005827 0.006938 0.015886 0.015791 0.056870 -0.175954 -0.136263 -0.030705 -0.203831 0.019327 0.152488 0.032106 0.035013 0.020324 -0.109849 -0.079149 0.033726 -0.032314 -0.017744 -0.155437 0.025186 -0.161466 -0.127118 0.040919 0.163379 0.099567 0.099803 0.107065 -0.020981 -0.017714 0.053993 -0.137728 0.076218 0.009914 0.040491 -0.164362 -0.098996 -0.043492 0.104492 -0.125689 0.017164 0.013009 0.085285 -0.077433 0.013450 0.038573 -0.073238 -0.128884 0.023858 0.113538 -0.070623 -0.100694 -0.111301 0.043600 -0.209470 -0.016256 -0.000564 0.059622 -0.157187 0.297875 -0.086781 -0.134911 0.039023 0.195884 -0.107183 -0.201270 0.075922 -0.006626 0.042666 0.071197 -0.102480 -0.002449 -0.114555 -0.137581 0.056098 -0.112323 0.031998 0.080131 0.007041 0.088537 0.044279 -0.084961 0.025553 0.047311 0.068068 -0.112641 0.036874 0.030944 -0.024912 -0.235913 0.023614 -0.056889 0.029615 0.191660 -0.149733 0.233937 -0.025825 -0.198103 0.075382 -0.023260 -0.028623
95 0.170042 -0.125453 -0.033549 -0.128904 0.046833 -0.133222 -0.112874 0.086807 0.152484 0.112849 -0.093369 0.013675 -0.051157 0.087870 -0.012864 0.012918 0.076409 0.029869 0.095867 -0.041267 0.069741 0.202612 -0.146509 0.103312 0.020227 0.038684 -0.009809 -0.003339 0.009325 0.015560 0.018515 0.062869 -0.193413 -0.151186 -0.030731 -0.224154 0.021752 0.164646 0.029947 0.039671 0.020315 -0.124816 -0.087306 0.031796 -0.035537 -0.022874 -0.168463 0.030636 -0.175516 -0.141923 0.044067 0.178694 0.104695 0.114446 0.112947 -0.021220 -0.024934 0.055829 -0.153369 0.088402 0.012834 0.041948 -0.179239 -0.107973 -0.052867 0.117162 -0.134890 0.021293 0.015699 0.093371 -0.090483 0.018128 0.045926 -0.078320 -0.147066 0.028283 0.132098 -0.074754 -0.112206 -0.119930 0.047443 -0.224782 -0.016906 -0.003228 0.069370 -0.172594 0.330239 -0.100031 -0.150403 0.038274 0.211089 -0.117297 -0.222597 0.083929 -0.004158 0.051069 0.077941 -0.111610 0.002513 -0.126538 -0.152761 0.062257 -0.129172 0.033694 0.088682 0.011586 0.095475 0.044062 -0.092575 0.031802 0.058915 0.073396 -0.124624 0.041271 0.036271 -0.028903 -0.260221 0.019657 -0.068707 0.035995 0.208826 -0.166128 0.262305 -0.030505 -0.225807 0.087815 -0.027765 -0.027509
44 0.168757 -0.121282 -0.039438 -0.129239 0.042533 -0.128183 -0.112595 0.081873 0.151010 0.111079 -0.091783 0.016831 -0.050471 0.087194 -0.007380 0.012943 0.070921 0.024289 0.089748 -0.036165 0.068825 0.197881 -0.147791 0.100060 0.024580 0.039924 -0.004947 -0.000915 0.011641 0.016227 0.019324 0.055957 -0.188692 -0.148298 -0.028758 -0.218892 0.020425 0.164780 0.031610 0.035093 0.017522 -0.117285 -0.085271 0.032676 -0.036579 -0.021073 -0.166553 0.030978 -0.177476 -0.138709 0.039216 0.173953 0.104311 0.109338 0.114263 -0.019469 -0.019096 0.051049 -0.145389 0.078551 0.011519 0.040818 -0.172348 -0.108891 -0.049317 0.119557 -0.135692 0.024803 0.018070 0.091916 -0.083720 0.013939 0.042811 -0.080419 -0.140610 0.029166 0.122402 -0.075663 -0.106053 -0.115043 0.046582 -0.224451 -0.020517 -0.006395 0.063697 -0.170939 0.321839 -0.096886 -0.149520 0.039451 0.204969 -0.112266 -0.218236 0.075320 -0.009811 0.050785 0.081213 -0.105601 -0.004243 -0.122137 -0.145385 0.063120 -0.124076 0.032059 0.085199 0.014183 0.098795 0.045197 -0.095256 0.030229 0.057026 0.065878 -0.127241 0.040016 0.032540 -0.021965 -0.252933 0.020757 -0.063437 0.031073 0.206035 -0.162879 0.253183 -0.022039 -0.214138 0.080138 -0.026355 -0.030890
