4 128
44 0.024790 -0.010006 -0.038515 -0.019151 0.001436 -0.020862 -0.029542 -0.007162 0.036796 -0.014639 0.001801 -0.000551 0.001585 0.049908 0.023811 -0.006212 0.025066 0.015849 -0.002158 0.007439 0.004345 0.058022 -0.045982 0.067523 0.037981 0.015697 0.012375 0.017710 -0.009056 -0.006744 0.004985 -0.033139 -0.039144 -0.021849 -0.010858 -0.034256 -0.053688 0.030214 0.039967 -0.042547 -0.005593 0.028563 0.000629 0.011875 0.030106 -0.019161 -0.051345 -0.000716 -0.039571 -0.038341 -0.026366 0.026173 -0.008654 -0.026729 0.053211 0.001182 0.030386 0.002034 -0.002024 -0.006998 -0.051201 -0.019786 -0.008918 -0.029537 0.018205 0.037189 -0.065155 0.031179 -0.032231 0.041602 0.023415 -0.016129 -0.033057 0.006242 -0.006866 0.018500 -0.012178 -0.041081 -0.006072 -0.008406 0.004431 -0.054655 -0.009944 -0.035730 -0.001679 -0.049882 0.048508 -0.001195 -0.044919 -0.007008 0.009258 -0.011605 -0.039689 -0.000181 -0.035210 0.027375 0.028018 0.023493 -0.030006 0.004779 0.001973 0.009513 -0.003977 -0.005629 0.026651 0.028100 0.037122 0.025761 -0.021083 0.009320 0.004927 -0.018398 -0.052363 0.004892 -0.016490 0.026934 -0.061289 0.007217 0.020714 -0.035322 0.042114 -0.049914 -0.005003 0.017824 0.015883 -0.013777 0.000353 -0.032814
114 0.009087 -0.004961 -0.013846 -0.009021 -0.002778 -0.008488 -0.014046 -0.002081 0.015255 -0.007177 0.000795 -0.000977 0.000860 0.022928 0.011769 -0.003728 0.013875 0.011069 -0.000816 0.000352 -0.002119 0.024875 -0.018746 0.028844 0.018181 0.007774 0.003918 0.005565 -0.007874 -0.006900 0.001770 -0.014946 -0.011488 -0.009470 -0.004832 -0.016898 -0.022933 0.009564 0.018844 -0.015856 -0.001349 0.005723 0.003799 0.003939 0.011817 -0.010849 -0.022512 -0.004371 -0.016332 -0.017313 -0.011754 0.012734 -0.005580 -0.006414 0.023311 0.003649 0.008669 0.001995 -0.004645 0.001498 -0.021769 -0.007894 -0.003613 -0.008857 0.003060 0.017757 -0.027557 0.015683 -0.015340 0.016331 0.003724 -0.009321 -0.015506 0.005436 -0.005282 0.007444 -0.000077 -0.015257 -0.004878 -0.005119 0.003548 -0.021434 -0.004121 -0.016685 0.000985 -0.020529 0.021517 -0.001833 -0.018482 -0.004287 0.007930 -0.006415 -0.018811 0.000392 -0.011336 0.011738 0.013736 0.009162 -0.011503 -0.002596 -0.001765 -0.001067 -0.005556 -0.006918 0.011883 0.013125 0.014895 0.010240 -0.009184 0.007538 0.003223 -0.006012 -0.022966 -0.002730 -0.007796 0.012889 -0.026396 0.003279 0.010749 -0.014615 0.018260 -0.021183 0.002519 0.004472 0.000700 -0.000304 0.003190 -0.011655
101 0.027656 -0.015434 -0.046011 -0.019194 0.004223 -0.030116 -0.039160 -0.012926 0.044775 -0.023899 0.000474 -0.002822 0.009875 0.064907 0.026696 -0.013218 0.037584 0.028984 -0.001412 0.008274 0.009746 0.069572 -0.054382 0.085850 0.040744 0.023234 0.013036 0.016504 -0.017128 -0.008400 0.003767 -0.035886 -0.048442 -0.025378 -0.017972 -0.043691 -0.066972 0.035895 0.053951 -0.049997 -0.001454 0.033202 0.001738 0.018217 0.039928 -0.022803 -0.064601 -0.005737 -0.045106 -0.046672 -0.028652 0.034805 -0.009197 -0.033890 0.067312 -0.000312 0.036843 0.010373 -0.006490 -0.003243 -0.065388 -0.022280 -0.016360 -0.033367 0.024123 0.039297 -0.080644 0.032471 -0.045591 0.051185 0.027572 -0.019752 -0.043486 0.010903 -0.006895 0.019373 -0.013381 -0.050341 -0.011335 -0.016632 0.006772 -0.068578 -0.009173 -0.039378 -0.000678 -0.060112 0.059488 0.001577 -0.051523 -0.006613 0.018626 -0.017678 -0.048600 0.007109 -0.040160 0.029510 0.030385 0.024430 -0.034740 0.003488 -0.000541 0.007519 -0.002824 -0.006210 0.034533 0.028188 0.042506 0.034074 -0.021658 0.009260 0.000308 -0.015041 -0.059555 0.004914 -0.020052 0.028183 -0.078411 0.014152 0.028104 -0.043222 0.052812 -0.060965 -0.006585 0.015297 0.018720 -0.014353 0.003287 -0.039860
110 0.033700 -0.018461 -0.044251 -0.022824 0.004316 -0.030239 -0.035472 -0.010785 0.045869 -0.022039 -0.003353 -0.006587 0.009334 0.067451 0.029368 -0.011825 0.039125 0.028402 -0.002005 0.007666 0.009200 0.074652 -0.059485 0.091590 0.044881 0.018249 0.014827 0.022696 -0.018018 -0.007136 0.006388 -0.039682 -0.049982 -0.024365 -0.015303 -0.042204 -0.071549 0.035565 0.058402 -0.054256 0.000700 0.037453 0.001254 0.016807 0.044119 -0.025834 -0.063253 -0.002283 -0.047287 -0.052614 -0.036536 0.031800 -0.016219 -0.033894 0.068332 0.006898 0.040593 0.008346 -0.004274 -0.002390 -0.071343 -0.028079 -0.017087 -0.034840 0.023867 0.043948 -0.081515 0.034177 -0.049244 0.051220 0.027379 -0.018177 -0.048175 0.014437 -0.004293 0.022717 -0.011042 -0.046271 -0.013666 -0.019360 0.010186 -0.069315 -0.011666 -0.046145 0.001771 -0.061629 0.059884 -0.000799 -0.055126 -0.008898 0.014837 -0.012179 -0.051387 0.006626 -0.044198 0.035449 0.032910 0.030575 -0.033011 0.003912 0.004954 0.008428 -0.004100 -0.011226 0.034480 0.031007 0.046698 0.031885 -0.020202 0.007540 0.002967 -0.022278 -0.067021 0.007115 -0.021570 0.028452 -0.083713 0.014370 0.024923 -0.045947 0.053555 -0.066915 -0.009025 0.019877 0.018224 -0.015561 0.007844 -0.040044
