4 128
5 -0.002688 -0.057597 -0.039681 -0.005415 0.019185 -0.010439 0.041614 0.018147 0.006552 -0.006649 0.006866 -0.000019 0.007622 0.007055 0.006865 -0.013521 0.022646 -0.018737 0.008343 0.005731 0.027770 0.026024 -0.033241 0.039408 0.033826 -0.009275 -0.019332 0.005234 -0.030562 -0.002513 -0.020480 -0.044583 -0.056086 -0.007841 0.052861 -0.020971 -0.004737 0.014438 0.005409 0.006421 0.014130 0.022800 -0.032724 -0.026946 -0.003082 -0.012199 0.011042 -0.012877 -0.000517 0.004035 0.009014 0.040603 0.022198 -0.027318 -0.000225 -0.037614 0.000722 0.012312 0.041792 -0.032188 0.001521 -0.007973 -0.000984 0.013213 -0.030164 -0.010963 -0.011941 -0.001464 0.010421 -0.016081 -0.025951 0.025560 -0.016624 -0.035004 -0.026042 -0.025710 0.004201 -0.014603 -0.001833 -0.020780 -0.037025 0.019144 -0.017415 0.015838 -0.032815 -0.017224 0.018411 0.022205 -0.018036 0.022449 -0.007407 -0.027415 -0.005301 0.014068 -0.044663 0.015837 -0.004104 -0.060297 0.038357 0.025643 -0.080126 0.011376 0.016201 -0.029981 0.008232 0.002991 0.058080 -0.032441 -0.056747 -0.001534 0.020688 -0.020814 0.019900 -0.011179 -0.025443 0.031065 -0.010500 0.022506 0.013291 0.015898 0.000071 0.036542 -0.009319 -0.052577 -0.038952 0.001252 -0.030458 0.031375
27 -0.000514 -0.045867 -0.030225 -0.007269 0.013272 -0.005737 0.031239 0.020202 -0.000504 -0.002243 0.001096 -0.004085 0.007109 0.007914 0.003210 -0.010048 0.022650 -0.014312 0.007591 -0.000741 0.022821 0.019365 -0.021753 0.030978 0.025634 -0.008069 -0.018009 0.009770 -0.024814 0.000105 -0.013650 -0.036759 -0.043552 -0.009827 0.041462 -0.016307 -0.006202 0.009550 0.003701 0.002152 0.005416 0.018276 -0.024678 -0.020028 0.000757 -0.007175 0.011776 -0.009789 -0.000101 0.006936 0.010192 0.031317 0.012303 -0.015212 -0.002710 -0.030387 -0.001954 0.011758 0.033688 -0.020542 -0.000023 -0.000529 -0.004641 0.007834 -0.020579 -0.008669 -0.014435 0.002237 0.006153 -0.011118 -0.022142 0.022356 -0.010447 -0.028410 -0.023244 -0.021018 0.007456 -0.011360 -0.000572 -0.012508 -0.029411 0.014010 -0.012532 0.015668 -0.027158 -0.009787 0.016059 0.013165 -0.019277 0.018173 -0.010998 -0.023762 -0.004555 0.010835 -0.035284 0.011735 0.000192 -0.047794 0.029891 0.014304 -0.063181 0.009123 0.016989 -0.023849 0.011445 0.005294 0.047424 -0.028116 -0.044673 0.002065 0.019994 -0.016669 0.013674 -0.008071 -0.016304 0.019781 -0.011333 0.018144 0.005210 0.010603 -0.002070 0.030023 -0.006311 -0.040986 -0.030359 0.001563 -0.021390 0.021620
81 -0.002078 -0.027330 -0.013245 -0.004629 0.010632 -0.004248 0.015707 0.013288 -0.000065 -0.003322 0.003364 -0.003706 0.008091 0.003041 0.002828 -0.001382 0.010521 -0.007069 0.005986 0.003168 0.015010 0.010076 -0.017209 0.014387 0.017541 0.000728 -0.007908 0.002273 -0.016106 -0.001058 -0.008937 -0.023031 -0.028751 -0.003481 0.025395 -0.009249 -0.000505 0.004899 0.006719 0.005867 0.002550 0.013414 -0.017183 -0.015197 -0.001348 -0.010006 0.001438 -0.001974 -0.001385 0.005516 0.007976 0.018592 0.009624 -0.013036 0.001535 -0.014272 -0.004111 0.005819 0.021194 -0.016796 0.003622 -0.000309 -0.001654 0.008359 -0.016185 -0.003551 -0.008742 -0.000235 0.004394 -0.007729 -0.009100 0.012193 -0.008221 -0.016696 -0.012614 -0.010359 0.005873 -0.005068 0.003450 -0.009181 -0.012866 0.008369 -0.008195 0.005808 -0.013657 -0.004427 0.006658 0.009360 -0.009089 0.011598 -0.002731 -0.013394 -0.005906 0.007035 -0.019532 0.007141 -0.000943 -0.030226 0.013699 0.012366 -0.039831 0.002946 0.010557 -0.010321 0.007787 0.004920 0.029567 -0.015329 -0.028683 -0.003053 0.013141 -0.010224 0.011210 -0.005042 -0.014397 0.013517 -0.008571 0.008998 0.002555 0.004083 -0.001289 0.015825 -0.008086 -0.022714 -0.015693 -0.000428 -0.017425 0.009411
50 -0.004841 -0.035830 -0.025697 0.000471 0.007668 -0.007928 0.028018 0.014891 0.002758 -0.000579 0.001137 -0.001548 0.009854 0.000712 0.001951 -0.005460 0.019148 -0.007869 0.007628 0.003880 0.013825 0.014565 -0.019815 0.023545 0.023027 -0.002421 -0.011872 0.008072 -0.019240 -0.001757 -0.013204 -0.029031 -0.037689 -0.007128 0.035604 -0.009133 -0.005131 0.010312 0.004560 0.005391 0.010293 0.017825 -0.020054 -0.020085 0.001335 -0.010208 0.007007 -0.011280 0.000382 0.002138 0.003628 0.024514 0.014402 -0.017957 -0.005535 -0.025448 -0.000002 0.011397 0.024107 -0.018847 0.004649 -0.007653 -0.002838 0.003661 -0.017585 -0.011226 -0.011229 -0.002543 0.006432 -0.006295 -0.016173 0.016602 -0.008407 -0.017962 -0.020576 -0.012730 0.002921 -0.004104 0.003691 -0.011167 -0.025211 0.015782 -0.010906 0.010734 -0.019851 -0.009490 0.008140 0.012806 -0.014297 0.016706 -0.009682 -0.015611 -0.005895 0.007757 -0.028950 0.010671 0.001687 -0.039660 0.024406 0.015821 -0.051689 0.010420 0.012073 -0.015872 0.009156 0.000408 0.039562 -0.023188 -0.035260 0.000580 0.017332 -0.016814 0.013172 -0.001965 -0.015765 0.020860 -0.012806 0.017240 0.009138 0.013044 0.004276 0.024456 -0.008319 -0.033540 -0.024251 -0.004515 -0.019877 0.021418
