6 128
5 -0.028483 -0.191386 -0.007266 -0.122042 0.175193 0.098110 0.015308 0.081687 -0.017778 0.009791 0.027985 0.056385 -0.015641 0.021817 -0.012663 -0.027245 0.005936 -0.101356 0.043132 -0.114483 0.144812 0.112771 -0.053766 0.140382 0.144594 -0.011513 0.024621 -0.021717 -0.023785 0.030708 -0.003925 -0.171686 -0.229637 -0.090546 0.142951 -0.140275 0.075902 -0.060878 0.022182 0.084451 0.013076 0.080398 -0.072155 -0.061194 -0.062804 -0.008659 0.000626 0.105303 -0.011932 0.036692 0.128634 0.073762 0.050851 -0.002876 0.068895 -0.053008 0.036629 -0.031030 0.218460 -0.010592 -0.121053 0.064026 -0.055751 0.231908 -0.135826 0.147142 -0.080885 0.174220 0.033302 -0.028807 -0.013220 0.068601 -0.107941 -0.216625 -0.008598 -0.105710 0.128250 -0.150255 -0.104868 -0.094195 -0.028436 -0.091429 -0.098917 0.005726 -0.032257 -0.009311 0.161758 0.124098 -0.096898 0.004243 -0.048312 -0.146591 -0.083242 0.087568 -0.082095 -0.015766 -0.075107 -0.205854 0.006879 0.045427 -0.178094 -0.099582 0.017241 -0.118628 0.104148 0.115941 0.244424 0.024137 -0.297722 0.028566 0.177330 0.044111 0.049156 -0.180157 -0.029004 0.072388 0.051947 -0.089505 -0.134560 -0.082422 -0.032960 0.026120 0.043578 -0.237761 -0.076848 0.076422 -0.193088 -0.033527
27 -0.025431 -0.183747 -0.005977 -0.119969 0.165289 0.096720 0.012878 0.085118 -0.023343 0.012911 0.021792 0.049081 -0.013372 0.023468 -0.014810 -0.025325 0.011406 -0.096325 0.042536 -0.115951 0.139343 0.106600 -0.046068 0.134526 0.137130 -0.012012 0.020158 -0.014105 -0.023602 0.032029 -0.001025 -0.166375 -0.219056 -0.090921 0.137105 -0.134122 0.069822 -0.060186 0.020462 0.077390 0.005883 0.077737 -0.067961 -0.057544 -0.056511 -0.005345 0.004599 0.100943 -0.010890 0.039562 0.126636 0.070002 0.042854 0.004669 0.062412 -0.051738 0.032164 -0.027380 0.209839 -0.004529 -0.117069 0.067819 -0.058111 0.218643 -0.126090 0.140466 -0.083216 0.170563 0.029243 -0.025780 -0.014619 0.068397 -0.100088 -0.208121 -0.011576 -0.102332 0.127682 -0.143467 -0.099352 -0.085440 -0.027931 -0.088601 -0.093275 0.009045 -0.032543 -0.004520 0.156546 0.113741 -0.098868 0.004922 -0.052832 -0.142929 -0.079976 0.083792 -0.079078 -0.016015 -0.067953 -0.197738 0.006178 0.036791 -0.170802 -0.094727 0.021697 -0.114068 0.105502 0.114218 0.236293 0.019874 -0.285004 0.031357 0.174118 0.041642 0.044868 -0.171337 -0.023325 0.063736 0.046220 -0.084785 -0.134844 -0.080943 -0.033767 0.026421 0.042892 -0.227202 -0.073175 0.073836 -0.181666 -0.035699
81 -0.028969 -0.186728 0.000028 -0.122139 0.172558 0.098145 0.009324 0.086481 -0.022196 0.010866 0.026211 0.050616 -0.009886 0.020774 -0.014049 -0.020552 0.006524 -0.096625 0.044921 -0.113894 0.143160 0.107429 -0.052120 0.132518 0.142945 -0.005421 0.025673 -0.019985 -0.024142 0.031096 -0.001995 -0.170261 -0.226915 -0.089791 0.140083 -0.136359 0.076140 -0.062652 0.025963 0.085601 0.007119 0.082064 -0.071597 -0.062399 -0.060719 -0.012277 -0.002798 0.108091 -0.012640 0.040564 0.130700 0.070439 0.047621 -0.000746 0.067985 -0.047688 0.030928 -0.030257 0.215161 -0.009726 -0.115980 0.067738 -0.057481 0.229091 -0.133861 0.146438 -0.084047 0.172743 0.031278 -0.027122 -0.009036 0.067428 -0.105309 -0.211991 -0.009045 -0.101315 0.131371 -0.144885 -0.098038 -0.090282 -0.022421 -0.091210 -0.096609 0.003888 -0.028880 -0.003710 0.156479 0.119370 -0.097089 0.005029 -0.048750 -0.144269 -0.085764 0.086255 -0.078082 -0.016639 -0.071690 -0.203134 0.000626 0.043025 -0.175060 -0.100401 0.020738 -0.111672 0.108045 0.118143 0.242174 0.023992 -0.293457 0.026810 0.179045 0.043151 0.049399 -0.175991 -0.029262 0.068198 0.046477 -0.090038 -0.138026 -0.085313 -0.033538 0.023279 0.039335 -0.230383 -0.071367 0.073698 -0.191968 -0.040335
37 -0.027562 -0.153885 -0.000153 -0.098653 0.142923 0.084411 0.007064 0.069771 -0.013546 0.010824 0.021170 0.048016 -0.008266 0.013543 -0.014643 -0.018205 0.003301 -0.081404 0.039282 -0.099367 0.114026 0.091855 -0.038159 0.116606 0.117883 -0.006828 0.024055 -0.016488 -0.015516 0.026801 -0.000937 -0.141745 -0.189537 -0.078962 0.119412 -0.115925 0.064692 -0.052297 0.019421 0.071508 0.010808 0.070399 -0.055169 -0.051968 -0.053838 -0.007068 0.000078 0.089967 -0.009144 0.029838 0.106482 0.057581 0.041870 0.004037 0.052050 -0.039184 0.031641 -0.026285 0.176103 -0.002694 -0.102131 0.052196 -0.049461 0.190630 -0.109501 0.121863 -0.066942 0.147220 0.025671 -0.019125 -0.006300 0.056208 -0.087707 -0.174016 -0.006257 -0.085439 0.108834 -0.121599 -0.086112 -0.072767 -0.023345 -0.078939 -0.082507 0.001731 -0.022735 -0.005298 0.133731 0.102523 -0.081009 0.003939 -0.046043 -0.122633 -0.072644 0.074544 -0.064415 -0.014937 -0.060952 -0.170772 -0.000765 0.036031 -0.141243 -0.084184 0.013608 -0.097937 0.091008 0.098215 0.203466 0.022525 -0.246359 0.028072 0.151380 0.036627 0.042806 -0.149473 -0.021266 0.056096 0.043544 -0.077406 -0.116191 -0.071148 -0.023362 0.016384 0.038677 -0.195980 -0.059277 0.060593 -0.160588 -0.032732
51 -0.020864 -0.136792 -0.004641 -0.087472 0.126728 0.074131 0.007858 0.058218 -0.014552 0.011745 0.020527 0.039910 -0.011633 0.012983 -0.011123 -0.018643 0.005786 -0.069293 0.029104 -0.089759 0.102981 0.079961 -0.035920 0.097904 0.107274 -0.006381 0.020547 -0.015457 -0.012166 0.026547 -0.002623 -0.123500 -0.166276 -0.064796 0.103114 -0.100490 0.059078 -0.046094 0.013233 0.065198 0.009281 0.061119 -0.055303 -0.047466 -0.044237 -0.004482 0.003130 0.076197 -0.006483 0.028097 0.094469 0.049788 0.038592 -0.004252 0.046838 -0.039695 0.028320 -0.026383 0.161066 -0.004673 -0.085165 0.047706 -0.045585 0.172917 -0.097321 0.111804 -0.063431 0.130592 0.022008 -0.019549 -0.006350 0.047874 -0.078452 -0.159973 -0.005413 -0.077305 0.098297 -0.109451 -0.078548 -0.071434 -0.017538 -0.067840 -0.071408 0.000018 -0.019430 -0.003728 0.115768 0.091225 -0.076238 0.001644 -0.041739 -0.102563 -0.059590 0.064313 -0.061663 -0.016524 -0.057213 -0.148679 0.000094 0.033354 -0.126758 -0.070264 0.014284 -0.083191 0.077211 0.081852 0.182075 0.021920 -0.217372 0.020719 0.133483 0.034636 0.031371 -0.128496 -0.016378 0.054354 0.038709 -0.064702 -0.102044 -0.059771 -0.021664 0.015738 0.030248 -0.174659 -0.052491 0.058373 -0.141923 -0.028520
131 -0.026844 -0.162558 -0.003542 -0.106126 0.148315 0.086504 0.013314 0.073078 -0.021520 0.013649 0.018364 0.049632 -0.014166 0.017235 -0.013191 -0.022070 0.009291 -0.085361 0.038264 -0.098988 0.124248 0.095261 -0.043853 0.117094 0.125738 -0.006809 0.023894 -0.013178 -0.018218 0.024862 0.000301 -0.145535 -0.197795 -0.082257 0.117011 -0.115150 0.061915 -0.055234 0.019592 0.073197 0.011581 0.066040 -0.056495 -0.048744 -0.048423 -0.008017 -0.002609 0.090783 -0.011102 0.030071 0.109739 0.057893 0.039059 -0.000056 0.059732 -0.045873 0.032076 -0.022187 0.186642 -0.002799 -0.106133 0.055971 -0.048839 0.198498 -0.115340 0.127852 -0.075050 0.153139 0.030668 -0.018833 -0.011629 0.057385 -0.091376 -0.184585 -0.008987 -0.084229 0.110396 -0.127433 -0.087743 -0.080303 -0.020998 -0.079075 -0.084847 0.008490 -0.024244 -0.005541 0.138563 0.104367 -0.085375 0.000957 -0.042239 -0.123328 -0.075485 0.070532 -0.065195 -0.013509 -0.059038 -0.171816 0.005688 0.032940 -0.146580 -0.087931 0.012646 -0.096542 0.094238 0.100905 0.207058 0.022629 -0.253313 0.026476 0.156883 0.039288 0.038639 -0.153596 -0.021702 0.062383 0.038910 -0.080494 -0.118689 -0.071089 -0.027321 0.023045 0.038252 -0.203334 -0.065013 0.061110 -0.166238 -0.028271
