5 128
44 0.064624 -0.046422 -0.096849 -0.036887 0.030601 -0.074761 -0.096585 -0.025111 0.088727 -0.001163 -0.029334 0.034561 0.021299 0.080499 0.012356 -0.025946 0.037843 0.020903 0.016988 0.033694 0.076031 0.086174 -0.086783 0.074598 0.012188 0.070288 0.020886 -0.014001 0.005403 0.024947 0.001127 0.004591 -0.119932 -0.065154 -0.043571 -0.101185 -0.030187 0.113991 0.054404 -0.025625 0.001992 0.018077 -0.043530 0.058573 0.004935 0.011872 -0.119424 0.001499 -0.103214 -0.053042 0.024510 0.090366 0.083154 -0.031398 0.109430 -0.047529 0.059066 0.044458 -0.037448 -0.020097 -0.035266 0.026102 -0.077213 -0.078451 0.043413 0.042752 -0.118322 0.007486 -0.014646 0.079609 0.047185 -0.018339 -0.012260 -0.055576 -0.026114 0.010075 -0.031497 -0.096847 -0.017977 -0.047703 0.007135 -0.162201 -0.013356 0.009703 -0.009016 -0.104244 0.137240 0.001710 -0.070807 0.042867 0.097791 -0.061726 -0.088118 0.029063 -0.054671 0.003286 0.039522 -0.035998 -0.061985 -0.019718 -0.050720 0.046836 0.003396 0.048652 0.049645 -0.003137 0.066760 0.074804 -0.059102 -0.009365 -0.029066 0.030868 -0.061164 0.027066 -0.003414 0.016848 -0.121973 0.044792 0.026679 -0.028853 0.117418 -0.079968 0.044696 0.016511 0.006231 -0.031379 -0.024034 -0.072238
101 0.066269 -0.052599 -0.102910 -0.035073 0.035481 -0.084762 -0.106805 -0.031437 0.094747 -0.006708 -0.033105 0.035516 0.030790 0.088994 0.010190 -0.033423 0.046474 0.031248 0.019542 0.035439 0.086782 0.089885 -0.090650 0.081699 0.006039 0.079918 0.020379 -0.020859 0.000551 0.027012 -0.001566 0.010739 -0.129367 -0.068818 -0.051601 -0.110428 -0.031978 0.121854 0.062242 -0.024505 0.007322 0.017144 -0.046197 0.066876 0.007299 0.014522 -0.129606 -0.003164 -0.107322 -0.055372 0.031194 0.100115 0.092288 -0.034582 0.118832 -0.054145 0.062419 0.055552 -0.044134 -0.016918 -0.038858 0.031084 -0.088513 -0.081630 0.048731 0.038593 -0.127351 0.001473 -0.020403 0.085183 0.049601 -0.019632 -0.014908 -0.057649 -0.026654 0.006777 -0.032887 -0.104435 -0.022881 -0.057260 0.008483 -0.175813 -0.011120 0.016092 -0.008968 -0.110495 0.147348 0.005092 -0.072022 0.048893 0.112879 -0.070378 -0.094115 0.038267 -0.055187 -0.001652 0.037947 -0.044384 -0.064821 -0.023450 -0.057909 0.046573 0.005997 0.054078 0.054793 -0.010575 0.068276 0.082809 -0.059528 -0.012634 -0.037108 0.041557 -0.059801 0.028297 -0.003231 0.012727 -0.133318 0.053527 0.031366 -0.030293 0.127079 -0.084366 0.048167 0.010941 0.005996 -0.031165 -0.023727 -0.076930
114 0.052293 -0.040538 -0.077930 -0.030782 0.022902 -0.063697 -0.082807 -0.021720 0.073911 -0.003690 -0.025344 0.026788 0.020820 0.070148 0.011559 -0.024599 0.036878 0.024807 0.014417 0.024716 0.061423 0.072236 -0.071958 0.064437 0.010272 0.060849 0.016053 -0.014488 -0.001457 0.016797 -0.000350 0.004303 -0.095621 -0.054383 -0.038030 -0.087618 -0.026011 0.092089 0.049464 -0.019256 0.004764 0.008842 -0.032461 0.049208 0.004766 0.007573 -0.100959 -0.004083 -0.085011 -0.045349 0.020113 0.078164 0.067668 -0.021767 0.092714 -0.037135 0.045012 0.040337 -0.035741 -0.011000 -0.030804 0.022451 -0.066300 -0.061514 0.032801 0.035548 -0.099688 0.006741 -0.015986 0.065024 0.032846 -0.017971 -0.013219 -0.042493 -0.023255 0.006769 -0.020996 -0.078976 -0.019033 -0.043865 0.008218 -0.134735 -0.010317 0.007172 -0.005805 -0.086383 0.115901 0.001006 -0.058160 0.035383 0.088074 -0.054063 -0.076057 0.026660 -0.041476 0.001763 0.033700 -0.032151 -0.050308 -0.021526 -0.045049 0.032807 -0.000412 0.036085 0.042618 -0.003641 0.054648 0.062308 -0.048157 -0.005539 -0.024393 0.029351 -0.051023 0.018052 -0.004228 0.013728 -0.104230 0.039771 0.025290 -0.024426 0.099033 -0.066880 0.041766 0.009121 -0.000855 -0.019788 -0.015675 -0.057778
70 0.055287 -0.043638 -0.078210 -0.030615 0.026760 -0.064688 -0.082023 -0.019434 0.073521 0.000601 -0.029343 0.029741 0.019963 0.067583 0.007790 -0.023292 0.034685 0.020405 0.016575 0.028204 0.065777 0.069392 -0.070545 0.057414 0.006757 0.059650 0.014939 -0.016279 0.002430 0.022734 0.001781 0.008948 -0.099168 -0.053509 -0.037191 -0.085528 -0.020222 0.094373 0.045814 -0.014557 0.005362 0.008395 -0.038225 0.049797 0.000325 0.010584 -0.098868 -0.000102 -0.085875 -0.045463 0.025007 0.076040 0.072534 -0.021024 0.091386 -0.037025 0.048422 0.042508 -0.036756 -0.011589 -0.026101 0.025428 -0.069722 -0.062619 0.032194 0.034954 -0.094067 0.002236 -0.011891 0.064567 0.034934 -0.013176 -0.008230 -0.047209 -0.022608 0.007569 -0.020901 -0.075493 -0.017707 -0.044940 0.008864 -0.135818 -0.010600 0.013432 -0.003690 -0.085097 0.115477 0.000381 -0.055219 0.037770 0.088158 -0.051840 -0.074198 0.029517 -0.042352 0.000596 0.032063 -0.034601 -0.047086 -0.022406 -0.047076 0.037508 0.001623 0.040291 0.040906 -0.006516 0.053524 0.062692 -0.048047 -0.008563 -0.028066 0.030959 -0.048405 0.020894 0.000376 0.010634 -0.101642 0.039747 0.019187 -0.019247 0.099347 -0.067144 0.042210 0.010243 -0.001546 -0.023594 -0.017631 -0.058918
13 0.046823 -0.033275 -0.064369 -0.027246 0.020509 -0.054041 -0.066624 -0.021224 0.062024 0.000762 -0.023909 0.020524 0.019341 0.052895 0.008650 -0.020308 0.025278 0.016419 0.011044 0.019526 0.058143 0.058226 -0.062888 0.052441 0.001906 0.049974 0.017396 -0.009324 0.002517 0.017355 -0.002614 0.007922 -0.083599 -0.046966 -0.031392 -0.073351 -0.015989 0.082327 0.039625 -0.016482 0.005900 0.010606 -0.029762 0.043639 0.003447 0.012241 -0.081477 -0.000009 -0.072308 -0.033686 0.016043 0.066539 0.060910 -0.017860 0.072981 -0.035806 0.036436 0.031022 -0.025458 -0.014216 -0.021488 0.020074 -0.058311 -0.055861 0.032527 0.024312 -0.083758 0.000091 -0.008184 0.050501 0.028263 -0.014396 -0.008905 -0.040155 -0.016355 0.001832 -0.021499 -0.067733 -0.017482 -0.038766 0.006210 -0.115431 -0.009254 0.006960 -0.009338 -0.071409 0.097644 0.001143 -0.050274 0.034985 0.075498 -0.045800 -0.063969 0.019342 -0.035230 -0.001835 0.025926 -0.031496 -0.044461 -0.015414 -0.033739 0.030818 0.001358 0.033727 0.033290 -0.009081 0.047981 0.049814 -0.039703 -0.011309 -0.018201 0.023965 -0.041212 0.021088 -0.005362 0.006491 -0.088308 0.036544 0.020355 -0.021358 0.082539 -0.051799 0.036194 0.010333 0.000998 -0.017160 -0.013269 -0.046000
