18 128
133 -0.112368 -0.105631 0.088939 -0.115543 0.147898 0.176997 -0.191738 -0.093279 -0.153833 0.018380 0.019325 0.068845 0.116457 -0.051367 -0.131568 -0.145531 0.148551 0.098476 0.226009 -0.036636 0.132189 -0.014024 -0.007946 0.151826 0.057569 0.201627 0.207735 -0.006320 -0.165352 -0.120976 0.149133 0.114001 0.021425 -0.036655 0.065303 0.115444 -0.098034 -0.056729 0.126340 -0.083924 -0.103548 0.107132 0.094737 0.021758 -0.063072 -0.100528 -0.092903 -0.074439 0.038722 -0.056019 -0.101605 -0.047033 -0.050296 0.080470 0.092701 -0.106645 0.012584 0.064937 -0.002103 0.057245 -0.208270 -0.066221 -0.093457 -0.092904 -0.027826 -0.007970 -0.161194 -0.138616 -0.132353 -0.041067 -0.097566 -0.099142 -0.148655 0.001281 -0.008058 -0.074857 0.161042 0.041045 -0.209356 -0.101804 0.004566 -0.060878 0.127530 -0.044086 0.120778 0.249793 0.200215 -0.160888 -0.225256 0.184258 -0.065417 0.011032 -0.079372 -0.139879 -0.023840 0.017679 0.120615 -0.098398 -0.043979 -0.024365 0.190025 -0.196842 -0.003313 -0.027121 0.043828 -0.103302 0.104342 -0.177692 -0.092924 0.082214 -0.110039 -0.110298 0.197436 -0.056873 0.054782 0.096836 0.067144 -0.029994 -0.202649 0.287658 0.021489 0.185527 -0.063530 -0.139001 -0.208881 0.145180 0.119774 -0.074528
198 -0.108118 -0.105744 0.087339 -0.119724 0.145472 0.179022 -0.193218 -0.097753 -0.154178 0.019675 0.014693 0.071156 0.123108 -0.049049 -0.132194 -0.147245 0.151789 0.098115 0.229212 -0.034077 0.128661 -0.013576 -0.008225 0.154966 0.059377 0.203628 0.211367 -0.008349 -0.169430 -0.123269 0.153697 0.115477 0.023947 -0.035336 0.065482 0.114449 -0.093339 -0.063835 0.128472 -0.082603 -0.100996 0.101772 0.091211 0.019350 -0.059161 -0.103233 -0.087437 -0.077085 0.040649 -0.054963 -0.103399 -0.042143 -0.049873 0.080142 0.093672 -0.110384 0.016818 0.067930 -0.007040 0.061276 -0.213850 -0.070618 -0.089097 -0.091977 -0.025404 -0.012991 -0.160262 -0.133067 -0.139892 -0.040876 -0.090311 -0.101211 -0.152298 0.000373 -0.006143 -0.074120 0.167476 0.034204 -0.214073 -0.102107 0.004284 -0.060229 0.125557 -0.046907 0.126734 0.252635 0.198719 -0.165569 -0.231439 0.182772 -0.063375 0.008597 -0.077188 -0.135816 -0.017166 0.020994 0.128221 -0.100889 -0.044236 -0.023119 0.188592 -0.195210 -0.009590 -0.027646 0.040941 -0.099956 0.109535 -0.182904 -0.097434 0.083657 -0.111664 -0.104731 0.204339 -0.054988 0.052367 0.102646 0.071812 -0.030842 -0.206382 0.294544 0.024138 0.190072 -0.064665 -0.133847 -0.215481 0.145000 0.119369 -0.079942
164 -0.096942 -0.094864 0.079027 -0.110460 0.137990 0.162858 -0.175976 -0.082081 -0.149291 0.012347 0.013063 0.067032 0.110518 -0.048134 -0.123344 -0.127748 0.136266 0.089648 0.203079 -0.038313 0.120299 -0.017716 -0.006700 0.134354 0.057707 0.184850 0.189603 -0.005127 -0.151630 -0.112039 0.141668 0.101164 0.023794 -0.036821 0.054882 0.105942 -0.092692 -0.051467 0.124841 -0.076588 -0.097584 0.091427 0.080331 0.018955 -0.058627 -0.096021 -0.080824 -0.064444 0.035903 -0.052976 -0.094310 -0.038204 -0.052326 0.071317 0.084831 -0.099627 0.017160 0.054336 0.001485 0.049405 -0.195133 -0.057810 -0.089548 -0.087759 -0.020807 -0.011664 -0.143166 -0.128566 -0.120502 -0.033720 -0.086007 -0.092749 -0.139419 -0.000755 -0.009500 -0.068908 0.146201 0.037948 -0.195173 -0.096497 0.005467 -0.055960 0.122780 -0.043626 0.109062 0.227415 0.180308 -0.147012 -0.210627 0.171553 -0.061552 0.014728 -0.073647 -0.122037 -0.021262 0.018237 0.113736 -0.095812 -0.040346 -0.021279 0.168247 -0.179520 -0.004594 -0.023816 0.046328 -0.095542 0.099695 -0.165134 -0.089836 0.078545 -0.102298 -0.096835 0.181025 -0.052028 0.050606 0.092794 0.061301 -0.031090 -0.186820 0.260230 0.021137 0.169120 -0.059358 -0.123013 -0.199086 0.131840 0.110141 -0.073751
35 -0.104593 -0.096413 0.078923 -0.110921 0.136296 0.167218 -0.175433 -0.093153 -0.149547 0.017932 0.015609 0.069370 0.109485 -0.047605 -0.123316 -0.134427 0.145004 0.095687 0.211823 -0.031752 0.125279 -0.015003 -0.006873 0.146570 0.059491 0.188443 0.194958 -0.002779 -0.159065 -0.114283 0.143281 0.107267 0.020499 -0.036543 0.063463 0.105974 -0.090405 -0.059733 0.124980 -0.082109 -0.100136 0.097429 0.088945 0.018664 -0.057996 -0.099810 -0.084675 -0.067969 0.036587 -0.054627 -0.096665 -0.044569 -0.049433 0.071672 0.092218 -0.105990 0.016731 0.059298 -0.004929 0.050961 -0.199914 -0.064142 -0.083443 -0.087369 -0.027908 -0.012427 -0.150995 -0.124732 -0.126473 -0.036830 -0.088098 -0.093203 -0.137852 -0.002736 -0.009379 -0.074006 0.154362 0.038265 -0.199190 -0.095580 0.003371 -0.062760 0.121643 -0.045536 0.116239 0.233816 0.189907 -0.152707 -0.215560 0.174612 -0.057940 0.008353 -0.077993 -0.129629 -0.023310 0.015692 0.114529 -0.090712 -0.039024 -0.018030 0.178420 -0.181823 -0.011126 -0.026877 0.044839 -0.097191 0.101084 -0.164040 -0.086051 0.082666 -0.099167 -0.103353 0.187136 -0.052032 0.048761 0.095803 0.066356 -0.028545 -0.191222 0.272026 0.023555 0.173791 -0.058510 -0.126141 -0.198350 0.135366 0.108687 -0.068963
170 -0.100536 -0.095729 0.080611 -0.109692 0.136462 0.170011 -0.177607 -0.093685 -0.147542 0.013970 0.017872 0.065041 0.115995 -0.052564 -0.121601 -0.138262 0.146955 0.094657 0.214565 -0.034474 0.123556 -0.012108 -0.003219 0.144447 0.057221 0.182317 0.196525 -0.005683 -0.160825 -0.119198 0.144907 0.108696 0.022927 -0.037490 0.058702 0.107816 -0.089387 -0.059959 0.123753 -0.077425 -0.095278 0.094551 0.081438 0.019015 -0.060727 -0.092531 -0.086639 -0.070848 0.037270 -0.054537 -0.100114 -0.041746 -0.045633 0.074187 0.089484 -0.105032 0.016095 0.059063 -0.006806 0.054344 -0.201060 -0.063871 -0.082609 -0.086200 -0.020385 -0.003771 -0.148030 -0.131006 -0.130543 -0.035821 -0.090106 -0.097339 -0.142091 0.001076 -0.011452 -0.066658 0.150647 0.032961 -0.201255 -0.095728 0.007037 -0.059906 0.124421 -0.044028 0.115503 0.235257 0.187571 -0.151783 -0.212746 0.169852 -0.056148 0.008843 -0.075780 -0.132050 -0.020223 0.017576 0.117747 -0.096014 -0.042188 -0.018848 0.177744 -0.179856 -0.004288 -0.022496 0.036387 -0.094010 0.104382 -0.172151 -0.090427 0.080524 -0.102173 -0.100003 0.191186 -0.047705 0.050584 0.090654 0.065030 -0.034508 -0.195704 0.274719 0.022507 0.173932 -0.057194 -0.130100 -0.202746 0.135200 0.108175 -0.073243
125 -0.097657 -0.090207 0.077900 -0.104074 0.135617 0.158193 -0.170097 -0.085988 -0.145455 0.010873 0.017602 0.058992 0.102053 -0.044995 -0.120085 -0.126737 0.138635 0.084857 0.201248 -0.038530 0.120744 -0.018513 -0.000662 0.136128 0.052960 0.180586 0.178638 -0.007701 -0.152540 -0.113418 0.137896 0.104656 0.022307 -0.034429 0.058309 0.102791 -0.086941 -0.054242 0.120794 -0.077337 -0.090891 0.092448 0.084688 0.019383 -0.055105 -0.096010 -0.083936 -0.061720 0.036451 -0.052366 -0.096525 -0.039560 -0.045955 0.071030 0.081165 -0.100220 0.016440 0.056166 -0.005027 0.049721 -0.192270 -0.060261 -0.084748 -0.079889 -0.019222 -0.011727 -0.144917 -0.123359 -0.121151 -0.033932 -0.087288 -0.088144 -0.134776 -0.002072 -0.007765 -0.067985 0.144351 0.036409 -0.186787 -0.088622 0.005052 -0.057987 0.118262 -0.041383 0.110792 0.221406 0.175614 -0.140358 -0.198401 0.164554 -0.058212 0.014022 -0.073561 -0.119318 -0.017293 0.016689 0.112649 -0.088941 -0.038857 -0.021000 0.166677 -0.175974 -0.001330 -0.023745 0.038514 -0.093900 0.097895 -0.156724 -0.082367 0.077713 -0.095180 -0.099110 0.175902 -0.048547 0.045157 0.088664 0.064554 -0.027662 -0.178056 0.257354 0.022038 0.164251 -0.053307 -0.119218 -0.193139 0.131568 0.107258 -0.068443
19 -0.071372 -0.072313 0.062939 -0.082496 0.100943 0.123055 -0.130135 -0.067454 -0.105911 0.011313 0.008412 0.050510 0.080154 -0.035138 -0.092025 -0.096913 0.101049 0.063647 0.155943 -0.021915 0.090637 -0.014166 -0.002854 0.106103 0.041629 0.139591 0.139428 -0.003690 -0.116284 -0.085810 0.104191 0.079891 0.017082 -0.029823 0.042921 0.077113 -0.070676 -0.038540 0.092195 -0.057521 -0.070615 0.070651 0.062311 0.012764 -0.040050 -0.068705 -0.058858 -0.052070 0.027760 -0.037021 -0.072946 -0.031148 -0.039551 0.052138 0.068102 -0.072420 0.007778 0.045593 0.001285 0.037151 -0.145508 -0.047036 -0.060042 -0.060952 -0.017759 -0.009784 -0.106074 -0.094345 -0.093929 -0.029322 -0.063462 -0.068989 -0.101782 -0.001451 -0.009098 -0.055462 0.115016 0.027934 -0.148166 -0.073321 0.003675 -0.043091 0.089010 -0.034865 0.081627 0.169475 0.139027 -0.108790 -0.158377 0.123967 -0.044894 0.010566 -0.051300 -0.090387 -0.016125 0.017639 0.084381 -0.068115 -0.029063 -0.017539 0.129905 -0.130881 -0.007459 -0.019716 0.029537 -0.069921 0.073461 -0.122061 -0.065359 0.056629 -0.075953 -0.073876 0.136263 -0.039873 0.039773 0.070277 0.051270 -0.019293 -0.141504 0.200404 0.014643 0.126079 -0.044905 -0.095942 -0.149712 0.098816 0.077063 -0.055386
40 -0.092404 -0.082414 0.069275 -0.094201 0.123340 0.144205 -0.153553 -0.072163 -0.129515 0.008113 0.017077 0.053997 0.094514 -0.046366 -0.110067 -0.118182 0.122463 0.075155 0.176763 -0.033510 0.109228 -0.014144 0.001111 0.123228 0.046209 0.160466 0.160772 -0.009648 -0.139141 -0.103569 0.120767 0.092581 0.017298 -0.027204 0.051879 0.087669 -0.082144 -0.044035 0.106959 -0.068996 -0.086934 0.084622 0.073978 0.020155 -0.053752 -0.087120 -0.073075 -0.060200 0.036347 -0.043484 -0.086771 -0.039285 -0.045198 0.063486 0.079675 -0.092576 0.012205 0.048226 0.000068 0.042097 -0.169135 -0.048157 -0.078629 -0.077232 -0.020873 -0.008126 -0.130889 -0.111309 -0.103530 -0.028695 -0.080063 -0.081065 -0.119824 -0.007216 -0.006976 -0.063570 0.132116 0.031013 -0.174071 -0.085106 0.007519 -0.051962 0.105674 -0.042108 0.101281 0.201547 0.162638 -0.133768 -0.184769 0.152920 -0.056339 0.005894 -0.067371 -0.109013 -0.014263 0.021377 0.102788 -0.084657 -0.033368 -0.018710 0.153347 -0.158976 0.000275 -0.019500 0.039793 -0.083122 0.090662 -0.146245 -0.077420 0.066841 -0.087739 -0.088505 0.156973 -0.043042 0.045016 0.078148 0.058084 -0.027484 -0.159514 0.228580 0.022642 0.151766 -0.052752 -0.112659 -0.174483 0.119473 0.096305 -0.065046
142 -0.112011 -0.104596 0.083246 -0.121072 0.149432 0.179896 -0.187483 -0.092586 -0.161560 0.015558 0.013747 0.067622 0.119628 -0.051907 -0.131503 -0.144354 0.153942 0.097967 0.219838 -0.036336 0.128614 -0.017523 -0.006238 0.146924 0.062412 0.198183 0.203703 -0.006419 -0.166584 -0.121456 0.150117 0.115168 0.027114 -0.036521 0.062703 0.114515 -0.098013 -0.059698 0.132717 -0.087149 -0.103832 0.104989 0.089469 0.018779 -0.066845 -0.100483 -0.092441 -0.066622 0.044966 -0.053425 -0.106415 -0.041697 -0.052240 0.081291 0.092943 -0.105681 0.015129 0.059646 -0.000998 0.052321 -0.208313 -0.060027 -0.095089 -0.095507 -0.026988 -0.006147 -0.161036 -0.135944 -0.128685 -0.036648 -0.092254 -0.102214 -0.151894 -0.008597 -0.011409 -0.075276 0.166176 0.034505 -0.213613 -0.105147 0.006875 -0.067254 0.131894 -0.047133 0.124232 0.243712 0.197387 -0.159934 -0.228137 0.184006 -0.065850 0.011520 -0.081908 -0.131373 -0.019925 0.022731 0.122674 -0.100728 -0.043936 -0.020796 0.180783 -0.194945 -0.004990 -0.025306 0.046516 -0.103402 0.107345 -0.176165 -0.091338 0.081534 -0.107211 -0.107694 0.192135 -0.055558 0.056578 0.094112 0.069995 -0.036364 -0.195347 0.287511 0.026344 0.185790 -0.059700 -0.137699 -0.214393 0.138546 0.117439 -0.073553
79 -0.098999 -0.094100 0.077916 -0.110099 0.139644 0.157813 -0.169736 -0.080677 -0.147732 0.017323 0.016595 0.060414 0.111184 -0.051723 -0.124122 -0.128017 0.141898 0.087302 0.204929 -0.031638 0.117863 -0.019018 -0.002669 0.134067 0.052786 0.181910 0.187233 -0.004782 -0.151918 -0.110693 0.135369 0.107923 0.022002 -0.037888 0.053518 0.102182 -0.084605 -0.048586 0.116582 -0.081274 -0.090080 0.096496 0.082417 0.018281 -0.059667 -0.093849 -0.079939 -0.059782 0.039925 -0.053517 -0.099341 -0.043221 -0.048970 0.073591 0.080831 -0.101723 0.019049 0.055462 -0.001126 0.048699 -0.193736 -0.059419 -0.088500 -0.088325 -0.025114 -0.010667 -0.146952 -0.124676 -0.115718 -0.036402 -0.084735 -0.088495 -0.135524 -0.006818 -0.007707 -0.065861 0.151883 0.034989 -0.195073 -0.095329 0.009419 -0.057982 0.121936 -0.047016 0.106463 0.219453 0.182891 -0.148576 -0.203723 0.169976 -0.055326 0.010696 -0.075688 -0.118887 -0.019678 0.021581 0.116148 -0.092783 -0.040496 -0.017538 0.165310 -0.180069 -0.004012 -0.023156 0.043215 -0.090821 0.095215 -0.162942 -0.086032 0.076689 -0.100715 -0.093526 0.181338 -0.049887 0.053398 0.091747 0.060962 -0.025286 -0.184152 0.261699 0.021704 0.167717 -0.059682 -0.127496 -0.196995 0.130940 0.104998 -0.073648
191 -0.068690 -0.058360 0.053241 -0.072197 0.093299 0.104824 -0.109498 -0.055610 -0.096708 0.005647 0.013084 0.038735 0.073158 -0.035269 -0.076429 -0.083675 0.091522 0.061185 0.129808 -0.026170 0.075050 -0.012292 0.001528 0.091622 0.038344 0.120724 0.125764 -0.007752 -0.099729 -0.070587 0.093326 0.065535 0.009985 -0.023132 0.041155 0.064789 -0.059295 -0.038366 0.082135 -0.055130 -0.065369 0.059946 0.052819 0.015125 -0.036036 -0.064851 -0.053103 -0.042496 0.028802 -0.035898 -0.059879 -0.028508 -0.028280 0.047149 0.057419 -0.068804 0.009449 0.036434 0.000601 0.036467 -0.125402 -0.040133 -0.054989 -0.059143 -0.015450 -0.006608 -0.095518 -0.079508 -0.082653 -0.025960 -0.056565 -0.056783 -0.090064 0.001600 -0.004299 -0.042815 0.099732 0.020254 -0.128114 -0.061594 0.004994 -0.036411 0.079411 -0.031118 0.075717 0.147945 0.116359 -0.096145 -0.134691 0.110489 -0.035948 0.006779 -0.051364 -0.081845 -0.013089 0.009952 0.072613 -0.058691 -0.024773 -0.009019 0.108525 -0.115912 -0.003805 -0.014665 0.031057 -0.063866 0.061595 -0.111037 -0.060122 0.050061 -0.065482 -0.066798 0.119301 -0.028922 0.035704 0.056570 0.038053 -0.020666 -0.120133 0.174727 0.014544 0.114851 -0.041895 -0.084736 -0.126652 0.081880 0.070050 -0.046804
89 -0.071500 -0.061034 0.055818 -0.076713 0.096239 0.115768 -0.117186 -0.062447 -0.100754 0.010188 0.012682 0.047556 0.072271 -0.034863 -0.080680 -0.093535 0.093797 0.058891 0.141309 -0.027772 0.085212 -0.012475 0.000988 0.098765 0.036120 0.126798 0.129673 -0.006572 -0.109594 -0.077405 0.094391 0.071221 0.012493 -0.026741 0.039121 0.067280 -0.059882 -0.039112 0.083443 -0.056953 -0.061714 0.065397 0.054095 0.012665 -0.035762 -0.068929 -0.056236 -0.045257 0.026945 -0.034429 -0.067252 -0.031899 -0.035378 0.050360 0.063001 -0.072815 0.012930 0.038157 -0.002953 0.036791 -0.135865 -0.038707 -0.057541 -0.059150 -0.019708 -0.003366 -0.103819 -0.086047 -0.087913 -0.026233 -0.062814 -0.065212 -0.089902 -0.004556 -0.005490 -0.044855 0.103128 0.027564 -0.133852 -0.068874 0.002609 -0.042457 0.083795 -0.026462 0.072980 0.158134 0.124599 -0.099135 -0.139727 0.116497 -0.041315 0.010344 -0.055529 -0.089209 -0.010539 0.011583 0.081355 -0.066333 -0.026870 -0.012752 0.121226 -0.122564 -0.001901 -0.012731 0.032447 -0.061080 0.071111 -0.116944 -0.061244 0.050672 -0.070783 -0.069885 0.124684 -0.035508 0.031970 0.059823 0.041915 -0.018960 -0.129342 0.185151 0.017043 0.121645 -0.043619 -0.082101 -0.133467 0.091802 0.078353 -0.044452
233 -0.076542 -0.071767 0.062491 -0.076557 0.100062 0.118090 -0.126151 -0.064690 -0.107675 0.008544 0.009035 0.050906 0.077412 -0.034771 -0.083557 -0.093133 0.104704 0.068829 0.150154 -0.025412 0.085591 -0.010712 -0.006517 0.105025 0.043500 0.135290 0.137345 -0.007886 -0.108582 -0.079880 0.101269 0.075542 0.018546 -0.022098 0.039874 0.077498 -0.067916 -0.042928 0.089181 -0.057409 -0.067257 0.067154 0.062846 0.016404 -0.042597 -0.066948 -0.062672 -0.045437 0.031915 -0.034201 -0.067516 -0.029478 -0.031770 0.056247 0.065827 -0.069995 0.010521 0.046109 0.001768 0.034524 -0.142717 -0.045384 -0.061482 -0.059472 -0.016186 -0.002908 -0.102047 -0.086775 -0.092676 -0.030729 -0.062882 -0.069972 -0.099161 -0.002718 -0.005891 -0.048943 0.109965 0.027077 -0.139060 -0.071764 0.007719 -0.042477 0.087623 -0.030963 0.077260 0.166905 0.129732 -0.110368 -0.151354 0.124378 -0.042301 0.007864 -0.057862 -0.094324 -0.014367 0.016656 0.085133 -0.068693 -0.031731 -0.017162 0.123960 -0.132183 -0.007357 -0.014903 0.029751 -0.071855 0.075044 -0.121332 -0.067208 0.058541 -0.071385 -0.067624 0.135166 -0.033480 0.032892 0.067567 0.044193 -0.019413 -0.138760 0.196044 0.011102 0.125405 -0.044441 -0.090926 -0.141682 0.095833 0.081178 -0.047259
84 -0.097047 -0.087457 0.078960 -0.097201 0.132069 0.156914 -0.164889 -0.083935 -0.133836 0.015723 0.018042 0.061935 0.105317 -0.046870 -0.114933 -0.120488 0.132197 0.086919 0.195786 -0.031321 0.108603 -0.010889 -0.001791 0.133676 0.052362 0.169418 0.176970 -0.002205 -0.143288 -0.107983 0.132906 0.102697 0.016689 -0.032504 0.058513 0.098726 -0.082987 -0.049398 0.108630 -0.075478 -0.092485 0.093748 0.078839 0.016442 -0.056549 -0.085978 -0.078828 -0.062154 0.036312 -0.051157 -0.089116 -0.038101 -0.047922 0.066933 0.078950 -0.095602 0.015646 0.059885 -0.006188 0.052647 -0.183838 -0.055571 -0.080674 -0.076377 -0.018935 -0.004354 -0.139940 -0.117710 -0.116582 -0.038425 -0.082235 -0.088510 -0.132658 -0.000644 -0.009223 -0.062886 0.143592 0.032899 -0.182953 -0.085261 0.009297 -0.054361 0.109079 -0.035563 0.106515 0.213987 0.171972 -0.142632 -0.194467 0.157002 -0.058671 0.008791 -0.069019 -0.120568 -0.020467 0.022051 0.106781 -0.086812 -0.038591 -0.014534 0.164108 -0.168186 -0.007460 -0.020545 0.035525 -0.090151 0.089915 -0.157259 -0.080125 0.074411 -0.094608 -0.092777 0.175595 -0.048917 0.044424 0.089302 0.059826 -0.027433 -0.180663 0.251855 0.015353 0.164738 -0.054939 -0.117938 -0.183964 0.123038 0.105610 -0.069048
121 -0.082837 -0.079450 0.068703 -0.090703 0.117613 0.141164 -0.145242 -0.077045 -0.121728 0.012841 0.012979 0.055023 0.091887 -0.045116 -0.106667 -0.116043 0.117493 0.079678 0.177319 -0.032486 0.104367 -0.007927 -0.002811 0.122988 0.050088 0.152911 0.164964 -0.004182 -0.129549 -0.100094 0.120660 0.092374 0.014704 -0.031040 0.053302 0.085500 -0.079268 -0.051401 0.100810 -0.070949 -0.081220 0.085832 0.072668 0.019295 -0.051478 -0.080704 -0.069443 -0.059848 0.034957 -0.047194 -0.078543 -0.034201 -0.043204 0.063738 0.077524 -0.083871 0.009029 0.053040 -0.006728 0.047657 -0.168315 -0.051534 -0.073150 -0.072322 -0.018412 -0.007196 -0.122369 -0.109846 -0.106210 -0.030267 -0.072636 -0.081278 -0.115157 -0.004592 -0.009442 -0.060613 0.125579 0.026788 -0.165965 -0.079883 0.007004 -0.046184 0.098653 -0.032410 0.094182 0.195547 0.159267 -0.125909 -0.181752 0.145025 -0.051544 0.007327 -0.061842 -0.106785 -0.012860 0.016217 0.098585 -0.078739 -0.033954 -0.016670 0.150149 -0.154325 -0.007877 -0.015895 0.034652 -0.084535 0.084052 -0.140401 -0.071521 0.067965 -0.080960 -0.086396 0.158508 -0.045253 0.038872 0.075436 0.053646 -0.028277 -0.163601 0.227679 0.014861 0.149026 -0.049958 -0.105889 -0.170666 0.111130 0.093918 -0.059572
14 -0.088191 -0.083681 0.073683 -0.095664 0.119985 0.142350 -0.151930 -0.077899 -0.125674 0.016087 0.010190 0.058310 0.093313 -0.041850 -0.104328 -0.112027 0.123342 0.078439 0.180032 -0.030995 0.105726 -0.007196 -0.004201 0.124646 0.046848 0.160170 0.167222 -0.000140 -0.136998 -0.093933 0.123155 0.092325 0.016292 -0.026769 0.054179 0.087967 -0.077632 -0.048773 0.100770 -0.068191 -0.085239 0.083399 0.074859 0.018973 -0.049422 -0.080147 -0.069398 -0.055722 0.033063 -0.041054 -0.083540 -0.035587 -0.041906 0.064636 0.074597 -0.088377 0.009028 0.056337 -0.007004 0.044004 -0.168832 -0.056661 -0.069188 -0.076477 -0.023221 -0.004730 -0.123812 -0.110429 -0.108713 -0.034381 -0.076933 -0.076911 -0.121393 0.002447 -0.004432 -0.057405 0.131895 0.028719 -0.167441 -0.084056 0.002952 -0.049495 0.104348 -0.031970 0.094130 0.200480 0.156544 -0.130423 -0.177503 0.143428 -0.051333 0.007638 -0.063455 -0.109603 -0.018367 0.020479 0.095714 -0.074973 -0.031630 -0.015740 0.145447 -0.153954 -0.006678 -0.017457 0.030416 -0.078686 0.089311 -0.138671 -0.079305 0.066807 -0.088860 -0.088047 0.156388 -0.041207 0.044936 0.078378 0.051654 -0.026437 -0.163601 0.231534 0.017370 0.146115 -0.050852 -0.111204 -0.166625 0.112161 0.091133 -0.060650
105 -0.093044 -0.090398 0.078745 -0.098834 0.127489 0.151021 -0.160033 -0.080253 -0.132528 0.013048 0.017723 0.063355 0.103746 -0.043033 -0.115102 -0.120055 0.133679 0.084297 0.195278 -0.029649 0.114334 -0.011083 -0.003576 0.134679 0.050539 0.171604 0.178286 -0.001026 -0.145260 -0.104731 0.130315 0.094029 0.016551 -0.031819 0.057797 0.095111 -0.084372 -0.056933 0.108509 -0.072869 -0.087833 0.092709 0.081354 0.017621 -0.056024 -0.089312 -0.075087 -0.066226 0.034674 -0.051703 -0.088705 -0.037046 -0.042871 0.066716 0.078846 -0.094582 0.010695 0.057026 -0.007523 0.053016 -0.183312 -0.058179 -0.080745 -0.081478 -0.021437 -0.005792 -0.138702 -0.119433 -0.118293 -0.036444 -0.077552 -0.089415 -0.129157 -0.000943 -0.009822 -0.065626 0.140976 0.032549 -0.176203 -0.087470 0.004319 -0.057030 0.110807 -0.039667 0.108033 0.211083 0.173453 -0.142072 -0.193324 0.155583 -0.056141 0.011302 -0.072322 -0.117292 -0.018051 0.017401 0.107370 -0.081710 -0.040059 -0.016442 0.162591 -0.165959 -0.004160 -0.017697 0.034998 -0.089907 0.094957 -0.156328 -0.084014 0.075882 -0.088067 -0.092671 0.169616 -0.045024 0.044389 0.088660 0.058332 -0.031460 -0.171137 0.249837 0.018577 0.156461 -0.052654 -0.117579 -0.179201 0.123666 0.100655 -0.066779
178 -0.090591 -0.084231 0.072146 -0.098277 0.129203 0.150567 -0.163683 -0.081694 -0.129274 0.017101 0.018197 0.062443 0.104842 -0.045126 -0.112269 -0.124602 0.130269 0.085400 0.192945 -0.029512 0.109616 -0.008792 -0.006486 0.130584 0.054491 0.171707 0.177455 -0.003680 -0.146660 -0.101865 0.133864 0.097292 0.023176 -0.031314 0.052480 0.098282 -0.079704 -0.051351 0.107957 -0.072349 -0.089502 0.092761 0.080056 0.018634 -0.050239 -0.086861 -0.074352 -0.063700 0.037358 -0.045125 -0.088811 -0.038348 -0.040965 0.065634 0.077614 -0.089713 0.010285 0.057849 -0.002688 0.050131 -0.181478 -0.058737 -0.073729 -0.080215 -0.022896 -0.006495 -0.134935 -0.119495 -0.119685 -0.030607 -0.079850 -0.085068 -0.125603 -0.003669 -0.010923 -0.066403 0.142835 0.028358 -0.175742 -0.084677 0.002189 -0.055564 0.110132 -0.035856 0.107272 0.215408 0.173082 -0.139992 -0.196018 0.151158 -0.052209 0.011029 -0.064435 -0.118004 -0.013552 0.015485 0.103407 -0.084468 -0.038503 -0.020216 0.157250 -0.168050 -0.005344 -0.020999 0.034392 -0.086385 0.094803 -0.154476 -0.083931 0.074394 -0.088814 -0.091553 0.170190 -0.044641 0.041728 0.086367 0.054981 -0.030692 -0.175817 0.245504 0.017512 0.162683 -0.052342 -0.120126 -0.181768 0.124100 0.099346 -0.063408
