14 128
105 -0.068281 0.037946 0.011394 -0.033983 0.035088 0.028207 0.033543 0.025751 0.033946 0.024393 0.093768 -0.009318 0.086301 -0.053426 -0.019302 -0.123290 0.100632 0.011747 0.020810 0.057260 0.026567 0.001082 -0.039765 0.084412 -0.007647 0.073703 0.092974 -0.043385 -0.012713 -0.003883 -0.021098 -0.078975 -0.057722 0.039225 -0.036413 0.034895 0.016081 -0.052542 0.029413 0.060675 0.052895 -0.019923 0.019252 0.015432 0.002791 -0.032052 -0.045236 -0.127424 -0.028264 0.047458 0.074614 -0.034530 0.102848 0.057625 -0.086182 -0.083862 -0.039258 -0.047425 -0.034185 0.138565 -0.098245 -0.043088 -0.023327 0.003447 -0.059493 0.009511 -0.013240 0.010712 -0.148029 -0.059523 0.021318 -0.042566 -0.065563 0.111135 0.028171 0.119547 0.108801 -0.021516 0.062703 -0.059629 -0.113231 -0.020605 -0.032146 0.013781 0.060920 0.102460 0.038735 -0.020917 0.015266 -0.018561 -0.005774 0.042933 -0.138445 -0.070621 0.002153 -0.057473 0.016593 -0.030963 -0.008377 0.071192 0.082938 -0.043958 0.009794 0.027246 -0.009289 0.035329 0.130788 -0.145538 -0.033277 -0.007251 0.001653 0.056931 0.073113 0.049607 0.004013 0.043864 -0.069287 -0.043120 -0.021069 0.131702 0.005257 -0.040287 -0.027728 0.011396 0.028195 0.060246 0.099766 -0.050843
170 -0.063977 0.039897 0.005337 -0.033598 0.029589 0.030414 0.030699 0.018830 0.030791 0.022097 0.088905 -0.013056 0.084406 -0.055811 -0.012864 -0.124483 0.096943 0.013769 0.019995 0.052369 0.024506 0.000849 -0.037494 0.078369 -0.005533 0.065579 0.090653 -0.046662 -0.014387 -0.007115 -0.018188 -0.072143 -0.050670 0.035266 -0.039094 0.036235 0.018430 -0.049856 0.033376 0.060568 0.051745 -0.026472 0.011532 0.015215 0.004387 -0.026465 -0.047615 -0.120986 -0.027877 0.047487 0.069359 -0.034346 0.101700 0.055911 -0.079014 -0.081772 -0.034104 -0.049079 -0.031233 0.129549 -0.093597 -0.042244 -0.015799 0.005481 -0.054230 0.011753 -0.008866 0.010339 -0.144113 -0.052846 0.015327 -0.039929 -0.062245 0.109433 0.026601 0.119613 0.099680 -0.023018 0.053622 -0.056921 -0.107311 -0.017565 -0.027516 0.012438 0.056005 0.102139 0.034180 -0.015558 0.014464 -0.018683 0.000609 0.037944 -0.129884 -0.071948 0.002104 -0.058454 0.015514 -0.035042 -0.006483 0.067151 0.078940 -0.039747 0.010294 0.023396 -0.010698 0.038116 0.126296 -0.140529 -0.031366 -0.009367 -0.002831 0.055260 0.074262 0.050546 0.005322 0.034872 -0.065965 -0.042063 -0.026977 0.126910 0.007597 -0.036719 -0.025913 0.009665 0.022414 0.057285 0.092834 -0.047524
198 -0.078895 0.044590 0.007999 -0.042995 0.035846 0.034462 0.034007 0.026020 0.041670 0.032423 0.102974 -0.014289 0.102207 -0.060871 -0.018193 -0.150321 0.112809 0.013476 0.024237 0.067911 0.024881 0.000646 -0.050707 0.095687 -0.009104 0.087857 0.110489 -0.058798 -0.013812 -0.004849 -0.024212 -0.087672 -0.062370 0.048321 -0.045544 0.043591 0.024988 -0.059364 0.035750 0.074255 0.064902 -0.031379 0.017609 0.017187 0.009891 -0.035044 -0.052817 -0.148170 -0.032859 0.062198 0.088254 -0.038300 0.121973 0.069493 -0.099068 -0.097287 -0.041426 -0.054069 -0.038191 0.160881 -0.113042 -0.053229 -0.020575 0.008230 -0.069144 0.006320 -0.012268 0.020527 -0.175084 -0.067770 0.025677 -0.046595 -0.077146 0.131955 0.038810 0.143937 0.128851 -0.029545 0.066336 -0.069468 -0.132721 -0.017157 -0.042286 0.016340 0.070480 0.124554 0.039242 -0.022891 0.013973 -0.021954 -0.003550 0.045128 -0.154283 -0.081542 0.007234 -0.066317 0.021807 -0.041592 -0.007390 0.079169 0.094386 -0.051115 0.006880 0.025492 -0.012120 0.047430 0.151731 -0.170122 -0.038167 -0.014115 -0.006146 0.071479 0.090735 0.057021 0.004548 0.048859 -0.077750 -0.044568 -0.030292 0.155807 0.008380 -0.040672 -0.035286 0.018156 0.028309 0.069912 0.117513 -0.060348
3 -0.059035 0.033734 0.009438 -0.027857 0.028978 0.023333 0.028477 0.019185 0.023660 0.019664 0.075411 -0.012325 0.064882 -0.048455 -0.015026 -0.104802 0.082786 0.007427 0.014216 0.043363 0.015983 0.001412 -0.033626 0.069669 -0.001695 0.057107 0.074217 -0.035353 -0.005607 0.000577 -0.018875 -0.063480 -0.048333 0.035225 -0.032229 0.026335 0.015721 -0.037056 0.026958 0.050964 0.043139 -0.022664 0.014141 0.016205 0.002619 -0.025244 -0.035225 -0.103242 -0.026202 0.044337 0.064206 -0.030223 0.079143 0.048132 -0.070695 -0.069851 -0.031932 -0.038162 -0.027310 0.113056 -0.081708 -0.032968 -0.016766 0.008367 -0.048465 0.004305 -0.004973 0.013655 -0.117898 -0.049281 0.017637 -0.031041 -0.054353 0.092468 0.025918 0.097185 0.091294 -0.019140 0.051483 -0.049068 -0.091585 -0.011663 -0.028124 0.010555 0.048145 0.085974 0.028752 -0.012990 0.009700 -0.016123 -0.004745 0.035166 -0.110644 -0.056833 -0.001011 -0.043993 0.008680 -0.024189 -0.001166 0.057068 0.061900 -0.034411 0.002836 0.018528 -0.004757 0.034552 0.104091 -0.116190 -0.021866 -0.009997 0.001016 0.046787 0.060509 0.040222 0.004443 0.033956 -0.057025 -0.030343 -0.016761 0.105865 0.002987 -0.033476 -0.024926 0.009598 0.018521 0.048568 0.081763 -0.038284
133 -0.055970 0.027494 0.007766 -0.025204 0.025434 0.021668 0.021489 0.019917 0.027475 0.020741 0.071262 -0.010947 0.061920 -0.041061 -0.012007 -0.098313 0.070802 0.009843 0.015474 0.042129 0.019632 0.000351 -0.033974 0.061178 -0.007161 0.058047 0.072090 -0.036941 -0.005923 -0.001078 -0.019068 -0.058286 -0.043167 0.030397 -0.028587 0.029986 0.012204 -0.033642 0.021275 0.046911 0.039730 -0.015055 0.015825 0.013283 0.003550 -0.021631 -0.039085 -0.096085 -0.023455 0.038775 0.059458 -0.029491 0.079246 0.046272 -0.064723 -0.060485 -0.030901 -0.036541 -0.020816 0.103488 -0.069760 -0.031916 -0.017751 0.003608 -0.047746 0.007427 -0.010783 0.008288 -0.109037 -0.045341 0.010713 -0.029058 -0.047947 0.087658 0.024431 0.092089 0.079743 -0.013094 0.046041 -0.045180 -0.086789 -0.011151 -0.026046 0.012319 0.042604 0.081038 0.028434 -0.012357 0.011690 -0.011446 -0.004344 0.031138 -0.102085 -0.058079 -0.001175 -0.047062 0.008556 -0.025008 -0.005071 0.049688 0.064524 -0.036434 0.009326 0.016051 -0.004808 0.027412 0.093769 -0.108371 -0.021849 -0.010615 -0.003801 0.040606 0.055350 0.034687 0.005490 0.027921 -0.053994 -0.027774 -0.017839 0.098372 0.003237 -0.028365 -0.023063 0.006284 0.023222 0.046819 0.078209 -0.034843
191 -0.053654 0.033315 0.006362 -0.027601 0.028752 0.019975 0.027422 0.017971 0.023267 0.015631 0.070252 -0.012206 0.065906 -0.044725 -0.008999 -0.091272 0.073127 0.012535 0.009726 0.038473 0.013981 -0.002768 -0.026377 0.061343 -0.001960 0.055602 0.071834 -0.039097 -0.007992 0.000340 -0.012917 -0.059234 -0.044386 0.027925 -0.025956 0.024111 0.012887 -0.039441 0.027323 0.040792 0.035577 -0.019774 0.010613 0.014529 0.006113 -0.025651 -0.033764 -0.091615 -0.016480 0.035694 0.058722 -0.027701 0.079699 0.042982 -0.061261 -0.064803 -0.027466 -0.037043 -0.020264 0.103936 -0.069718 -0.033320 -0.013625 0.000399 -0.044533 0.005288 -0.008087 0.012561 -0.112333 -0.045250 0.014481 -0.025896 -0.047821 0.086173 0.023761 0.092550 0.082456 -0.019350 0.042348 -0.043966 -0.082653 -0.011632 -0.022716 0.007727 0.045440 0.076915 0.023839 -0.012381 0.011293 -0.013067 0.000656 0.029886 -0.102649 -0.053815 0.001477 -0.045534 0.009377 -0.023974 -0.003245 0.055789 0.056480 -0.031971 0.005169 0.018205 -0.002004 0.025736 0.092298 -0.110701 -0.026831 -0.008261 -0.002135 0.040520 0.056319 0.040635 0.007116 0.027495 -0.054583 -0.031172 -0.017645 0.099391 0.004702 -0.024123 -0.025707 0.005653 0.020464 0.039625 0.072841 -0.037409
89 -0.068540 0.042837 0.007631 -0.036505 0.034620 0.031996 0.032941 0.019818 0.031053 0.025284 0.089702 -0.008717 0.079612 -0.054959 -0.013056 -0.124672 0.092026 0.009206 0.018090 0.050356 0.025795 -0.002656 -0.035433 0.081450 -0.007983 0.071186 0.088982 -0.047956 -0.015196 -0.003969 -0.021690 -0.073877 -0.055015 0.033868 -0.038715 0.030998 0.019300 -0.048778 0.031660 0.055433 0.054665 -0.022798 0.012169 0.014713 0.009031 -0.033032 -0.044722 -0.119715 -0.026229 0.050156 0.070768 -0.037488 0.096617 0.056715 -0.077703 -0.084006 -0.032577 -0.048828 -0.030800 0.132103 -0.094963 -0.038632 -0.018276 0.004672 -0.061371 0.010748 -0.013932 0.012897 -0.145126 -0.056815 0.015220 -0.040217 -0.057316 0.104575 0.029196 0.119801 0.104287 -0.018114 0.056151 -0.061544 -0.110338 -0.019884 -0.029510 0.017000 0.051663 0.101958 0.033678 -0.013823 0.017141 -0.016847 -0.003905 0.042553 -0.134572 -0.072062 0.005172 -0.057138 0.017477 -0.036079 -0.005308 0.068158 0.081438 -0.041882 0.009937 0.026272 -0.003735 0.040390 0.127031 -0.142356 -0.031217 -0.012946 -0.004523 0.053439 0.071324 0.046095 0.002991 0.036312 -0.068013 -0.037360 -0.024856 0.129211 0.008215 -0.032040 -0.031617 0.015845 0.026024 0.058238 0.099605 -0.043648
225 -0.082999 0.053774 0.012319 -0.040759 0.041012 0.040155 0.043978 0.025823 0.040733 0.030305 0.115981 -0.012839 0.107995 -0.070333 -0.020564 -0.159503 0.124754 0.011830 0.018080 0.065706 0.032772 0.001851 -0.052748 0.102715 -0.004896 0.086803 0.117515 -0.061907 -0.010939 -0.007951 -0.029441 -0.093501 -0.064932 0.051313 -0.050064 0.043441 0.021147 -0.062334 0.036814 0.077389 0.063404 -0.028908 0.022983 0.017064 0.011198 -0.037206 -0.059694 -0.154052 -0.030184 0.061604 0.095388 -0.046594 0.130131 0.073962 -0.107580 -0.099408 -0.048929 -0.063473 -0.037167 0.169961 -0.117534 -0.049229 -0.027674 0.007300 -0.073953 0.007003 -0.010506 0.019663 -0.182988 -0.074464 0.022641 -0.050662 -0.078148 0.136965 0.034524 0.153486 0.132780 -0.027848 0.075598 -0.074283 -0.142761 -0.023102 -0.040561 0.015229 0.072565 0.128975 0.041856 -0.021327 0.021224 -0.022122 -0.006937 0.047659 -0.170328 -0.087402 0.003822 -0.075377 0.022219 -0.045647 -0.007008 0.089322 0.102790 -0.057871 0.006113 0.030265 -0.006774 0.045601 0.163083 -0.178955 -0.040485 -0.016118 -0.003194 0.073720 0.093616 0.062565 0.003948 0.052892 -0.086251 -0.051494 -0.034200 0.158215 0.005326 -0.049478 -0.032994 0.011919 0.033214 0.070267 0.127070 -0.063631
45 -0.036192 0.023609 0.001230 -0.020898 0.021807 0.017234 0.020742 0.016685 0.022639 0.014949 0.048555 -0.005245 0.052137 -0.031291 -0.009359 -0.072635 0.057697 0.009586 0.008337 0.034717 0.011950 -0.001992 -0.021449 0.043904 -0.004147 0.043545 0.049664 -0.029145 -0.006763 0.000601 -0.010572 -0.042292 -0.034233 0.023421 -0.021322 0.024103 0.006675 -0.026371 0.019864 0.031822 0.027979 -0.014788 0.009386 0.007685 0.001269 -0.021122 -0.024689 -0.067579 -0.013245 0.032338 0.044239 -0.020876 0.055334 0.034667 -0.047293 -0.050252 -0.019086 -0.028543 -0.018443 0.077634 -0.055808 -0.024890 -0.010087 0.004024 -0.035266 0.007015 -0.006852 0.008395 -0.085564 -0.030498 0.013066 -0.018580 -0.038596 0.059400 0.020002 0.073173 0.064341 -0.011453 0.035951 -0.030777 -0.063797 -0.012209 -0.020423 0.011934 0.030635 0.060049 0.021139 -0.009762 0.007543 -0.012782 -0.002365 0.023636 -0.079246 -0.040213 0.000259 -0.030437 0.010631 -0.020228 -0.000175 0.043769 0.041982 -0.026553 0.001839 0.017325 -0.004150 0.018954 0.075728 -0.080420 -0.016804 -0.002095 -0.001996 0.035746 0.041362 0.029847 0.002456 0.020786 -0.040001 -0.025672 -0.015346 0.076430 0.005601 -0.023742 -0.016481 0.007507 0.016281 0.035709 0.059499 -0.029539
185 -0.037257 0.023938 -0.000308 -0.015656 0.015309 0.014640 0.016921 0.011243 0.019366 0.015709 0.048652 -0.009191 0.045869 -0.031270 -0.008972 -0.060564 0.051727 0.008439 0.008097 0.032021 0.013998 -0.003143 -0.023134 0.044006 -0.001534 0.039126 0.047849 -0.023790 -0.008752 -0.005159 -0.013408 -0.041057 -0.025782 0.015992 -0.022587 0.015565 0.013017 -0.026512 0.016393 0.028719 0.027512 -0.009052 0.011512 0.011576 0.001631 -0.015986 -0.026599 -0.062527 -0.014104 0.027975 0.041662 -0.014713 0.055338 0.028798 -0.044210 -0.044579 -0.018205 -0.024177 -0.014041 0.072349 -0.044924 -0.022589 -0.011340 -0.000625 -0.030913 0.007000 -0.008258 0.006576 -0.078003 -0.030676 0.010996 -0.023056 -0.029454 0.059666 0.016104 0.065705 0.058175 -0.010577 0.032044 -0.033668 -0.060761 -0.011882 -0.016097 0.010458 0.025891 0.050076 0.017593 -0.005993 0.008080 -0.005342 -0.001509 0.019741 -0.070211 -0.039496 0.003582 -0.027492 0.005338 -0.020641 -0.004617 0.038496 0.042602 -0.023582 0.006323 0.014395 -0.005763 0.022132 0.068590 -0.076541 -0.016093 -0.008937 0.001563 0.029591 0.036700 0.028113 0.003178 0.023492 -0.036448 -0.023011 -0.011743 0.067826 0.001259 -0.021622 -0.014950 0.007091 0.015189 0.028765 0.049782 -0.026140
233 -0.056194 0.028068 0.009667 -0.024981 0.026725 0.022450 0.024327 0.015979 0.022688 0.017843 0.067974 -0.005330 0.063473 -0.042281 -0.008465 -0.095009 0.078880 0.013079 0.015415 0.042401 0.017742 -0.000232 -0.034665 0.066458 -0.001428 0.058141 0.071153 -0.039843 -0.006320 -0.001811 -0.016116 -0.058276 -0.038608 0.032405 -0.032636 0.030086 0.011068 -0.040797 0.026516 0.045818 0.042156 -0.019549 0.015183 0.014661 0.003451 -0.021969 -0.039204 -0.092678 -0.017067 0.042070 0.059021 -0.027127 0.081852 0.048406 -0.061504 -0.061012 -0.028300 -0.033838 -0.019960 0.100874 -0.075690 -0.034336 -0.015415 0.006470 -0.045265 0.009621 -0.004769 0.014071 -0.116009 -0.048170 0.014029 -0.033638 -0.048286 0.083887 0.023081 0.094031 0.083787 -0.015135 0.046981 -0.048907 -0.083357 -0.014571 -0.023491 0.011157 0.040377 0.081813 0.025257 -0.015957 0.010746 -0.011392 -0.002071 0.031437 -0.107810 -0.058628 0.001781 -0.041967 0.014304 -0.028406 -0.007384 0.050652 0.062210 -0.036721 0.003238 0.020235 -0.006040 0.025537 0.102254 -0.111891 -0.027514 -0.005703 -0.000560 0.047781 0.060136 0.040393 0.000566 0.032629 -0.054435 -0.028779 -0.022569 0.103805 0.000433 -0.027445 -0.024058 0.009125 0.020024 0.046083 0.078947 -0.033749
108 -0.060999 0.038426 0.003548 -0.032241 0.032772 0.026518 0.029085 0.021973 0.027246 0.024931 0.080691 -0.013268 0.072204 -0.050043 -0.013499 -0.108015 0.082018 0.010176 0.014738 0.050509 0.022573 0.002438 -0.032199 0.071527 -0.005309 0.063473 0.075529 -0.041608 -0.010168 -0.006709 -0.015125 -0.061220 -0.050775 0.030310 -0.032139 0.033968 0.013929 -0.042529 0.027767 0.053886 0.048192 -0.020690 0.011250 0.012331 0.002985 -0.024402 -0.041273 -0.107322 -0.022596 0.043847 0.063003 -0.031758 0.089967 0.052253 -0.075314 -0.073411 -0.031061 -0.044070 -0.027522 0.113859 -0.086011 -0.037712 -0.015868 0.007654 -0.054568 0.006717 -0.006214 0.009840 -0.126865 -0.050216 0.016767 -0.031979 -0.055240 0.095862 0.022229 0.105504 0.092296 -0.022768 0.049827 -0.050063 -0.098894 -0.017542 -0.029008 0.013100 0.049179 0.090117 0.029656 -0.015452 0.016208 -0.019141 -0.000778 0.036468 -0.118636 -0.057381 0.000847 -0.047652 0.011415 -0.029196 -0.004869 0.061562 0.071052 -0.035867 0.010068 0.021671 -0.010102 0.030230 0.111432 -0.119165 -0.024985 -0.007833 -0.002848 0.050203 0.066758 0.040287 0.003972 0.037712 -0.061447 -0.034068 -0.019260 0.112722 0.005057 -0.034743 -0.024995 0.014054 0.023195 0.051686 0.086978 -0.044359
172 -0.095904 0.059986 0.007233 -0.052228 0.051434 0.038868 0.048042 0.034858 0.048377 0.039352 0.127505 -0.013505 0.119502 -0.076818 -0.025998 -0.177918 0.137047 0.019688 0.022933 0.081540 0.032114 -0.000804 -0.057295 0.110698 -0.012168 0.099102 0.128051 -0.064144 -0.016240 -0.006487 -0.027928 -0.104548 -0.077195 0.057769 -0.054297 0.052427 0.025863 -0.065701 0.046506 0.084958 0.069768 -0.029838 0.021664 0.021106 0.010247 -0.039358 -0.069110 -0.175039 -0.037511 0.072897 0.105169 -0.050346 0.146502 0.079395 -0.121268 -0.115615 -0.054235 -0.071143 -0.044874 0.185545 -0.137895 -0.062096 -0.025688 0.009497 -0.086235 0.007891 -0.011112 0.021764 -0.204747 -0.077483 0.022768 -0.054974 -0.093291 0.157462 0.040857 0.174101 0.154907 -0.034368 0.080411 -0.085929 -0.160064 -0.022974 -0.049665 0.024683 0.083755 0.146508 0.052413 -0.025319 0.024831 -0.028563 -0.006828 0.057866 -0.190881 -0.096350 0.006798 -0.084280 0.019163 -0.046877 -0.007203 0.101687 0.115941 -0.060937 0.007012 0.030567 -0.009979 0.052746 0.183803 -0.197802 -0.039575 -0.010324 -0.001498 0.084122 0.101113 0.065525 0.005060 0.053032 -0.099015 -0.055762 -0.038029 0.179880 0.008727 -0.048412 -0.039505 0.021374 0.036254 0.080477 0.138264 -0.072932
178 -0.022348 0.017999 0.000135 -0.011317 0.014947 0.009366 0.009119 0.008770 0.015642 0.011424 0.036255 -0.002243 0.033162 -0.020291 -0.005953 -0.047738 0.034934 0.005529 0.007214 0.021381 0.007537 0.002967 -0.016606 0.029026 0.000743 0.028221 0.034212 -0.016080 -0.007583 0.001277 -0.003806 -0.028141 -0.016025 0.014246 -0.016565 0.014740 0.008553 -0.016824 0.009604 0.021931 0.017227 -0.004585 0.007889 0.006693 0.005076 -0.011155 -0.014893 -0.046227 -0.007990 0.020987 0.026620 -0.013428 0.039493 0.019139 -0.032237 -0.026287 -0.016353 -0.015745 -0.009113 0.049626 -0.035116 -0.016603 -0.003706 0.000207 -0.022973 0.003739 -0.003517 0.001328 -0.056542 -0.016861 0.006663 -0.013518 -0.020684 0.037535 0.007773 0.040333 0.041662 -0.010881 0.025093 -0.019339 -0.043693 -0.008355 -0.011154 0.007726 0.023722 0.040966 0.016457 -0.007638 0.002202 -0.010431 0.000639 0.016777 -0.044799 -0.027024 0.004906 -0.023387 0.002996 -0.012011 -0.003310 0.022629 0.026989 -0.018282 0.003859 0.008695 -0.004190 0.014126 0.048658 -0.053124 -0.013987 -0.001911 0.002547 0.020091 0.026404 0.018930 -0.001400 0.015677 -0.028317 -0.017335 -0.010160 0.045160 0.000794 -0.009662 -0.009196 0.000418 0.008934 0.023284 0.034781 -0.015422
