19 128
108 -0.164427 -0.074997 0.111282 -0.274677 0.038473 0.055186 -0.040274 -0.033795 -0.192467 0.043238 0.011124 0.078936 0.076678 -0.042491 -0.039928 -0.253999 0.145988 0.082495 0.057986 0.047791 0.165159 0.077092 -0.073705 0.114249 -0.072051 0.204210 0.159455 0.039457 0.005988 -0.019668 -0.014965 0.133577 0.046412 0.103726 0.075620 0.169634 -0.135103 -0.167687 0.051694 0.035156 -0.002414 0.086291 0.028705 -0.057591 -0.019775 0.067829 -0.124611 -0.086517 0.041079 0.036239 -0.081021 -0.181394 0.231261 0.151815 -0.019495 -0.080395 -0.039975 -0.014963 -0.022467 0.019523 -0.213674 -0.042724 -0.085341 -0.089840 -0.294305 -0.028204 -0.009895 0.066110 -0.196564 -0.103681 -0.034116 0.001803 -0.125754 0.112291 0.148081 0.187120 0.092359 0.010869 -0.068165 -0.236020 -0.068610 -0.034846 0.126202 -0.016382 0.141490 0.248336 0.069738 -0.124319 -0.012366 0.107772 0.074311 0.016313 -0.322531 -0.080510 -0.107506 -0.158036 -0.000950 0.068082 -0.067875 0.139114 0.275309 -0.091101 0.002710 -0.014506 0.014181 0.048250 0.121121 -0.086585 -0.182281 0.075434 -0.103497 -0.015320 0.065437 0.016759 0.027833 0.014069 -0.120561 0.036795 -0.132579 0.200460 0.064339 -0.034521 -0.129963 -0.036913 0.170739 -0.037285 0.056302 -0.089025
133 -0.172696 -0.085584 0.122609 -0.283719 0.033970 0.055499 -0.048085 -0.035434 -0.197170 0.042114 0.011614 0.083935 0.078326 -0.040462 -0.041956 -0.271150 0.150059 0.086451 0.063144 0.046795 0.173264 0.079786 -0.083673 0.117632 -0.079266 0.215763 0.172146 0.040485 0.010227 -0.016675 -0.022269 0.136149 0.052182 0.114124 0.079187 0.178136 -0.142634 -0.171795 0.050441 0.037915 -0.005638 0.092984 0.035921 -0.058399 -0.018838 0.072167 -0.133060 -0.093991 0.038601 0.038229 -0.080565 -0.191986 0.242976 0.158304 -0.017759 -0.078721 -0.045501 -0.012110 -0.019958 0.024571 -0.217011 -0.042743 -0.093476 -0.096248 -0.307111 -0.028895 -0.015122 0.069814 -0.204151 -0.108927 -0.039571 0.001424 -0.130736 0.122216 0.162246 0.195733 0.092601 0.019843 -0.068689 -0.248052 -0.070203 -0.029694 0.131275 -0.016835 0.149095 0.263659 0.074305 -0.128743 -0.016660 0.118896 0.074266 0.015485 -0.333970 -0.092611 -0.114617 -0.172420 -0.002671 0.072162 -0.072489 0.140482 0.292434 -0.099709 0.003641 -0.018686 0.018002 0.052699 0.121326 -0.095317 -0.192449 0.075151 -0.110483 -0.020190 0.064978 0.017403 0.029774 0.008040 -0.125475 0.041321 -0.141415 0.207238 0.066078 -0.034103 -0.137600 -0.044949 0.183206 -0.037706 0.059897 -0.090172
105 -0.134516 -0.068899 0.099415 -0.226796 0.029298 0.043455 -0.034180 -0.027650 -0.159025 0.031568 0.009563 0.070729 0.066981 -0.031750 -0.037215 -0.210060 0.126972 0.069172 0.052598 0.039539 0.139163 0.063535 -0.062749 0.096860 -0.061932 0.170784 0.136998 0.038471 0.003488 -0.014251 -0.014785 0.105298 0.039953 0.089430 0.064212 0.138362 -0.113695 -0.143864 0.040427 0.028456 -0.003360 0.075643 0.028653 -0.047281 -0.018618 0.054181 -0.101453 -0.075197 0.032313 0.026443 -0.067754 -0.149265 0.192311 0.123939 -0.015386 -0.066484 -0.035571 -0.008672 -0.021498 0.021805 -0.178066 -0.035255 -0.076071 -0.079935 -0.242064 -0.021186 -0.013341 0.053165 -0.165730 -0.087297 -0.026070 -0.003643 -0.106400 0.093757 0.125354 0.153537 0.077653 0.012894 -0.052289 -0.198020 -0.055089 -0.029901 0.107980 -0.015251 0.121994 0.205396 0.062516 -0.106976 -0.013676 0.093117 0.058896 0.014726 -0.270348 -0.070446 -0.089433 -0.133178 0.002414 0.059937 -0.060129 0.116031 0.230972 -0.077003 0.002376 -0.009436 0.012011 0.040618 0.102879 -0.078656 -0.157006 0.065768 -0.081742 -0.013970 0.051588 0.017126 0.022644 0.012637 -0.098973 0.026831 -0.109156 0.168578 0.053187 -0.030231 -0.107505 -0.035110 0.143952 -0.030513 0.045115 -0.074834
57 -0.143069 -0.068526 0.097837 -0.244924 0.033107 0.049070 -0.038425 -0.032526 -0.168553 0.035514 0.007798 0.072262 0.070771 -0.035442 -0.037027 -0.228940 0.128800 0.074441 0.050890 0.040161 0.142405 0.065555 -0.063898 0.099275 -0.065623 0.182663 0.142775 0.039436 0.006959 -0.016096 -0.017883 0.118028 0.044036 0.096013 0.065871 0.150351 -0.123154 -0.150815 0.044373 0.031640 -0.002441 0.075777 0.027830 -0.050605 -0.015612 0.061456 -0.107342 -0.076100 0.037732 0.034686 -0.073696 -0.158602 0.201008 0.130457 -0.014989 -0.072337 -0.035193 -0.006642 -0.018074 0.020851 -0.189782 -0.032996 -0.080462 -0.080456 -0.255415 -0.027252 -0.010567 0.058688 -0.175515 -0.090863 -0.027820 0.002460 -0.107704 0.096976 0.138806 0.162601 0.083119 0.013719 -0.054710 -0.207576 -0.056566 -0.024139 0.116935 -0.013228 0.128963 0.221711 0.062590 -0.112272 -0.015539 0.101393 0.067071 0.016072 -0.287673 -0.072914 -0.098205 -0.141012 0.001413 0.062094 -0.057941 0.119018 0.243977 -0.079875 -0.004502 -0.016203 0.014840 0.048658 0.108672 -0.076821 -0.165082 0.068439 -0.088571 -0.014183 0.051683 0.019389 0.022797 0.008784 -0.102522 0.029373 -0.120679 0.177072 0.058313 -0.029652 -0.119321 -0.035639 0.153688 -0.036870 0.048204 -0.078500
35 -0.163110 -0.077347 0.109216 -0.270292 0.032932 0.053011 -0.039811 -0.038320 -0.191613 0.042079 0.008837 0.083217 0.074571 -0.038392 -0.040037 -0.250868 0.148587 0.086277 0.059718 0.046829 0.162980 0.072105 -0.076612 0.113766 -0.069166 0.202186 0.162500 0.042802 0.004659 -0.015258 -0.016591 0.128855 0.047941 0.104132 0.076708 0.165205 -0.131272 -0.167235 0.054083 0.030034 -0.009064 0.086194 0.034293 -0.055475 -0.017475 0.061470 -0.122702 -0.084070 0.037379 0.033502 -0.078650 -0.180648 0.225375 0.145350 -0.012304 -0.081761 -0.037707 -0.013567 -0.022074 0.018797 -0.209598 -0.043258 -0.083438 -0.092351 -0.290789 -0.031330 -0.014754 0.069824 -0.192565 -0.100592 -0.035278 0.001695 -0.121864 0.109635 0.149684 0.179549 0.092899 0.016970 -0.068445 -0.233388 -0.066810 -0.034798 0.126516 -0.019068 0.142014 0.245593 0.073884 -0.123857 -0.018649 0.113603 0.073706 0.012703 -0.318941 -0.085290 -0.108472 -0.161554 -0.000928 0.069989 -0.065208 0.137408 0.273003 -0.091907 -0.005371 -0.019179 0.021814 0.048419 0.118295 -0.085387 -0.178750 0.077806 -0.098689 -0.018479 0.062108 0.017308 0.026816 0.012806 -0.115190 0.038228 -0.133832 0.198162 0.065956 -0.031097 -0.128458 -0.038912 0.168222 -0.036649 0.052097 -0.083251
198 -0.160920 -0.082685 0.115815 -0.276661 0.029120 0.053968 -0.048064 -0.036682 -0.189497 0.041806 0.006978 0.081682 0.081549 -0.035997 -0.040149 -0.262121 0.146892 0.080841 0.062868 0.047665 0.161789 0.077441 -0.081240 0.114260 -0.076578 0.208513 0.167590 0.036245 0.008168 -0.017452 -0.019293 0.133144 0.053460 0.112105 0.075056 0.171276 -0.131922 -0.170594 0.049350 0.039581 -0.002135 0.083980 0.030639 -0.059002 -0.014407 0.068682 -0.121856 -0.093030 0.038144 0.039140 -0.079565 -0.179130 0.234906 0.152675 -0.018079 -0.078786 -0.040193 -0.009339 -0.023595 0.027298 -0.213158 -0.045073 -0.085657 -0.090653 -0.292687 -0.033047 -0.012323 0.073683 -0.201788 -0.104497 -0.030092 0.000977 -0.129823 0.117212 0.159656 0.190641 0.094374 0.012150 -0.070164 -0.239119 -0.067211 -0.025999 0.123272 -0.019330 0.148910 0.255282 0.068171 -0.128491 -0.020118 0.111510 0.074090 0.011992 -0.319141 -0.083400 -0.103432 -0.162388 0.004205 0.067404 -0.069852 0.135906 0.278800 -0.094195 -0.002355 -0.018747 0.013515 0.055543 0.120768 -0.096110 -0.189824 0.073148 -0.107785 -0.011958 0.066961 0.018960 0.026549 0.012583 -0.116060 0.039761 -0.138815 0.203739 0.066632 -0.030514 -0.133214 -0.038177 0.171394 -0.037218 0.056093 -0.093092
142 -0.153255 -0.076207 0.103767 -0.256267 0.032632 0.053117 -0.039199 -0.034079 -0.180768 0.038053 0.004197 0.075382 0.073399 -0.035942 -0.036786 -0.238031 0.140209 0.080089 0.054022 0.043262 0.149683 0.069847 -0.073461 0.102363 -0.063219 0.188489 0.152860 0.039568 0.005787 -0.013292 -0.016154 0.121632 0.049874 0.100349 0.070046 0.157427 -0.125245 -0.157786 0.049342 0.028654 -0.007317 0.082640 0.029519 -0.053696 -0.020423 0.063945 -0.117580 -0.075979 0.039849 0.035562 -0.075556 -0.164358 0.213515 0.141123 -0.014976 -0.069193 -0.039580 -0.012230 -0.019124 0.018409 -0.193611 -0.035718 -0.081392 -0.088909 -0.271680 -0.022116 -0.014215 0.062495 -0.179742 -0.093768 -0.030697 -0.002661 -0.119675 0.099889 0.139039 0.171332 0.089460 0.010231 -0.064593 -0.221700 -0.061846 -0.033849 0.120660 -0.014735 0.135036 0.229064 0.066298 -0.114799 -0.018903 0.103991 0.065923 0.013557 -0.297333 -0.076986 -0.098762 -0.147872 -0.001494 0.064230 -0.063781 0.127909 0.250189 -0.087348 -0.001398 -0.015121 0.016683 0.045207 0.111123 -0.081907 -0.168314 0.067844 -0.093578 -0.016980 0.054123 0.016543 0.028013 0.006294 -0.108834 0.029194 -0.120679 0.187525 0.061568 -0.028277 -0.117293 -0.040262 0.156509 -0.039923 0.050288 -0.076548
14 -0.149082 -0.073495 0.108215 -0.250078 0.033334 0.049642 -0.040059 -0.034217 -0.175391 0.037581 0.003953 0.076331 0.068057 -0.036779 -0.036488 -0.229500 0.135911 0.075935 0.054281 0.038262 0.151043 0.071892 -0.069051 0.105094 -0.066796 0.186362 0.150126 0.041244 0.001865 -0.012003 -0.013698 0.118950 0.044131 0.100433 0.070525 0.149608 -0.123691 -0.152074 0.045266 0.030182 -0.008101 0.078353 0.030227 -0.047916 -0.016558 0.061441 -0.110946 -0.075579 0.036375 0.036622 -0.073610 -0.164293 0.207068 0.137101 -0.013663 -0.072531 -0.039762 -0.006442 -0.022227 0.017370 -0.191221 -0.040547 -0.075978 -0.087093 -0.266769 -0.022408 -0.008542 0.059000 -0.179199 -0.095099 -0.034730 0.002869 -0.115792 0.105763 0.141114 0.170331 0.084352 0.013129 -0.060537 -0.218061 -0.061161 -0.028472 0.118606 -0.011190 0.125724 0.228740 0.062350 -0.113418 -0.012539 0.100568 0.064882 0.013000 -0.290057 -0.078370 -0.099183 -0.141358 -0.002491 0.065748 -0.058823 0.125193 0.245687 -0.083050 -0.000525 -0.011694 0.012085 0.048594 0.112875 -0.078102 -0.171452 0.067191 -0.096337 -0.018354 0.054680 0.019398 0.027988 0.008005 -0.110621 0.032321 -0.123688 0.182012 0.057872 -0.031157 -0.119345 -0.039713 0.156866 -0.036105 0.047079 -0.078387
79 -0.150962 -0.074946 0.107005 -0.257174 0.035984 0.046811 -0.037980 -0.029854 -0.181775 0.040225 0.009162 0.073785 0.075952 -0.041359 -0.041525 -0.236327 0.141735 0.077655 0.058671 0.044010 0.151654 0.066874 -0.069881 0.103051 -0.069163 0.190782 0.154903 0.039647 0.006028 -0.014284 -0.018202 0.125072 0.046810 0.096271 0.066396 0.155252 -0.121398 -0.152379 0.044864 0.027567 -0.001309 0.083288 0.029497 -0.052114 -0.019206 0.061546 -0.113215 -0.076224 0.038767 0.030488 -0.078355 -0.171099 0.213214 0.141491 -0.018369 -0.075730 -0.033925 -0.011681 -0.019425 0.019849 -0.198551 -0.040073 -0.084437 -0.090662 -0.273248 -0.027133 -0.014076 0.062003 -0.179287 -0.097310 -0.031843 0.002095 -0.116548 0.101752 0.143035 0.175468 0.089051 0.013958 -0.065377 -0.222637 -0.057978 -0.029783 0.122919 -0.019628 0.128367 0.227544 0.069355 -0.118102 -0.014330 0.107490 0.071183 0.013711 -0.300366 -0.076945 -0.100338 -0.147456 0.004157 0.062654 -0.064919 0.129722 0.252959 -0.089833 0.000566 -0.014379 0.017913 0.049399 0.109521 -0.086008 -0.173207 0.070277 -0.097871 -0.011995 0.061548 0.017684 0.030086 0.012152 -0.112556 0.037908 -0.127774 0.187890 0.059730 -0.030230 -0.124629 -0.042198 0.155693 -0.034640 0.048962 -0.084595
225 -0.125330 -0.059264 0.093780 -0.210838 0.025813 0.045300 -0.029594 -0.031159 -0.150616 0.028969 0.009514 0.065961 0.062962 -0.033073 -0.032649 -0.202489 0.119470 0.061904 0.042294 0.031571 0.131418 0.060865 -0.062060 0.090240 -0.053925 0.156335 0.131109 0.030071 0.008056 -0.015832 -0.017227 0.101608 0.042560 0.087334 0.056682 0.129091 -0.106867 -0.132888 0.037212 0.029003 -0.005587 0.067885 0.027654 -0.045933 -0.010703 0.052943 -0.098276 -0.067585 0.034671 0.026478 -0.060481 -0.143810 0.182525 0.118286 -0.015618 -0.057677 -0.035050 -0.011580 -0.015710 0.019317 -0.163199 -0.028711 -0.071797 -0.072711 -0.227171 -0.024475 -0.007220 0.054844 -0.154612 -0.083692 -0.027937 -0.001838 -0.096860 0.087749 0.116895 0.147473 0.070648 0.011828 -0.049201 -0.185985 -0.054067 -0.025827 0.101040 -0.016396 0.112517 0.194437 0.053361 -0.096961 -0.010276 0.088637 0.054354 0.009359 -0.253168 -0.066017 -0.084074 -0.128834 0.003418 0.051028 -0.053417 0.109571 0.217111 -0.075327 -0.003192 -0.011689 0.015766 0.038955 0.097469 -0.072057 -0.147157 0.055372 -0.080733 -0.011425 0.050529 0.017194 0.020280 0.011306 -0.093539 0.026558 -0.108739 0.153022 0.047923 -0.028880 -0.099436 -0.035967 0.134577 -0.032736 0.045730 -0.070485
172 -0.137735 -0.063496 0.093895 -0.233543 0.032966 0.042856 -0.033435 -0.028326 -0.159568 0.036828 0.007782 0.071857 0.065650 -0.033411 -0.037182 -0.216928 0.124462 0.072803 0.047465 0.040844 0.136320 0.062262 -0.064958 0.092006 -0.065018 0.170141 0.137152 0.036576 0.005935 -0.014540 -0.014171 0.110870 0.042011 0.093892 0.062861 0.143149 -0.112910 -0.138406 0.045265 0.029089 -0.008021 0.076201 0.025601 -0.047618 -0.012597 0.059486 -0.107887 -0.074436 0.033949 0.032467 -0.067008 -0.153229 0.197077 0.124068 -0.016816 -0.065904 -0.037086 -0.012793 -0.018954 0.015204 -0.181025 -0.037478 -0.071531 -0.076625 -0.248179 -0.027104 -0.006768 0.059847 -0.165424 -0.084308 -0.033410 0.000757 -0.109079 0.097922 0.128498 0.160792 0.081470 0.009889 -0.058258 -0.203074 -0.057970 -0.024108 0.104280 -0.009972 0.122808 0.211005 0.062296 -0.105404 -0.009646 0.091974 0.059793 0.013771 -0.272450 -0.069463 -0.087655 -0.139034 -0.002118 0.058839 -0.056564 0.119009 0.234984 -0.077819 -0.004186 -0.016767 0.015854 0.043428 0.104968 -0.074114 -0.152765 0.067055 -0.085199 -0.010676 0.049862 0.013202 0.022254 0.005761 -0.102617 0.031774 -0.117867 0.166427 0.054517 -0.023316 -0.110270 -0.030633 0.144280 -0.034407 0.045092 -0.077294
115 -0.142365 -0.075373 0.107570 -0.247645 0.028025 0.047027 -0.042002 -0.034886 -0.174458 0.034828 0.006283 0.071656 0.070543 -0.039707 -0.036484 -0.231713 0.129492 0.072733 0.055929 0.036964 0.145458 0.070994 -0.066303 0.100191 -0.064081 0.180957 0.144152 0.038229 0.009070 -0.012841 -0.019454 0.120513 0.047465 0.094523 0.068716 0.153560 -0.120835 -0.151613 0.041900 0.032540 -0.008169 0.081136 0.025892 -0.050198 -0.016593 0.062393 -0.109730 -0.082777 0.032462 0.032028 -0.075384 -0.166614 0.210619 0.138831 -0.014894 -0.070833 -0.039912 -0.009454 -0.018679 0.024784 -0.188828 -0.038961 -0.075267 -0.083902 -0.265265 -0.024493 -0.011262 0.062433 -0.181163 -0.094475 -0.033809 -0.002626 -0.116539 0.101077 0.139470 0.171774 0.080136 0.011248 -0.063205 -0.216089 -0.061615 -0.028600 0.116928 -0.012724 0.125599 0.223728 0.067008 -0.108513 -0.018042 0.096965 0.063789 0.011398 -0.285919 -0.078622 -0.093501 -0.145474 -0.000284 0.063945 -0.063844 0.122004 0.252439 -0.086362 0.003219 -0.017233 0.014943 0.049855 0.105238 -0.085448 -0.168829 0.064965 -0.091154 -0.012280 0.053537 0.015335 0.025509 0.012571 -0.106103 0.035437 -0.121379 0.179457 0.058084 -0.031261 -0.120106 -0.038335 0.153829 -0.037004 0.048824 -0.081079
233 -0.154245 -0.076072 0.109485 -0.251041 0.033530 0.048943 -0.039172 -0.034916 -0.179879 0.035341 0.005407 0.079762 0.069435 -0.036585 -0.033466 -0.233317 0.140203 0.081374 0.055839 0.041274 0.149339 0.068419 -0.073631 0.107774 -0.063781 0.191015 0.151032 0.034719 0.008727 -0.013015 -0.016115 0.120231 0.049297 0.101972 0.066683 0.156874 -0.127018 -0.157677 0.049990 0.029750 -0.003677 0.078487 0.031736 -0.048947 -0.017338 0.062603 -0.117100 -0.076280 0.041117 0.036740 -0.072442 -0.166792 0.214805 0.141510 -0.011384 -0.070298 -0.037277 -0.007252 -0.015870 0.016524 -0.196931 -0.040404 -0.080068 -0.083489 -0.268686 -0.023077 -0.007937 0.066963 -0.184343 -0.098998 -0.032763 -0.002282 -0.115079 0.102302 0.141480 0.172117 0.087057 0.015532 -0.060494 -0.222286 -0.057393 -0.029851 0.119611 -0.015442 0.127559 0.231367 0.063558 -0.117521 -0.015752 0.106099 0.067979 0.014217 -0.300299 -0.082043 -0.099330 -0.145510 0.002772 0.061816 -0.065221 0.123856 0.252958 -0.088425 -0.004413 -0.013425 0.016757 0.043428 0.114293 -0.084541 -0.174042 0.072168 -0.093593 -0.011595 0.060448 0.020057 0.022897 0.011190 -0.111042 0.036423 -0.128499 0.188565 0.055541 -0.027594 -0.123305 -0.037652 0.157508 -0.035035 0.052615 -0.076199
52 -0.138414 -0.063628 0.099659 -0.231086 0.024497 0.042576 -0.032050 -0.031268 -0.160150 0.029189 0.008031 0.068628 0.065587 -0.032766 -0.038031 -0.217508 0.125012 0.072733 0.047376 0.037240 0.139616 0.062146 -0.066982 0.092025 -0.064806 0.173993 0.136465 0.037472 0.008577 -0.015106 -0.012777 0.110906 0.046063 0.093175 0.065002 0.140694 -0.114294 -0.140523 0.043960 0.028563 -0.001872 0.075539 0.024279 -0.045810 -0.014260 0.055375 -0.102422 -0.070117 0.031340 0.027478 -0.066869 -0.154919 0.195052 0.122915 -0.010549 -0.063008 -0.032014 -0.012306 -0.019387 0.015818 -0.176745 -0.031123 -0.075579 -0.079649 -0.247985 -0.022018 -0.007715 0.060612 -0.167443 -0.083324 -0.029723 0.001092 -0.103109 0.096052 0.128103 0.154655 0.074479 0.010745 -0.054784 -0.200206 -0.051213 -0.028463 0.107767 -0.015381 0.122857 0.207040 0.061326 -0.100354 -0.016181 0.097409 0.063050 0.013617 -0.269968 -0.073905 -0.090736 -0.137474 0.000614 0.059621 -0.061267 0.118989 0.232962 -0.074618 0.002100 -0.010726 0.017782 0.042866 0.102883 -0.075816 -0.159355 0.066130 -0.086834 -0.015632 0.055908 0.014704 0.022171 0.009102 -0.103291 0.034544 -0.115469 0.166417 0.053643 -0.028360 -0.113403 -0.034283 0.144938 -0.032971 0.044949 -0.074326
163 -0.142517 -0.072732 0.106810 -0.245586 0.029063 0.045037 -0.038351 -0.030550 -0.173900 0.030940 0.004964 0.076210 0.069275 -0.037840 -0.039818 -0.233011 0.132698 0.074608 0.051236 0.042748 0.150095 0.068914 -0.068257 0.103583 -0.062098 0.180764 0.142407 0.038506 0.002786 -0.017437 -0.016065 0.116455 0.049558 0.099525 0.067672 0.147568 -0.124318 -0.152352 0.046294 0.029358 -0.006329 0.076418 0.027832 -0.052872 -0.018506 0.062341 -0.113651 -0.080513 0.039247 0.032695 -0.070983 -0.165915 0.209225 0.131209 -0.013676 -0.067515 -0.034991 -0.006674 -0.019367 0.022116 -0.189512 -0.034769 -0.081141 -0.083191 -0.263485 -0.026171 -0.012793 0.062255 -0.180739 -0.090081 -0.027946 -0.003085 -0.113352 0.099805 0.139922 0.171245 0.081240 0.017058 -0.056988 -0.214327 -0.057065 -0.028658 0.117094 -0.015572 0.132276 0.227052 0.062680 -0.110616 -0.018861 0.102068 0.063245 0.015211 -0.285772 -0.074608 -0.096024 -0.146866 -0.001711 0.062336 -0.064074 0.127288 0.250223 -0.080973 0.003449 -0.012835 0.011789 0.048801 0.104720 -0.086054 -0.166715 0.066317 -0.091949 -0.017126 0.056403 0.020261 0.021063 0.005672 -0.108210 0.030339 -0.119646 0.176069 0.056072 -0.028396 -0.116436 -0.035209 0.156904 -0.034998 0.047504 -0.080836
170 -0.125382 -0.061661 0.089507 -0.214094 0.022639 0.044067 -0.034378 -0.031492 -0.150985 0.027539 0.008614 0.062681 0.063714 -0.034084 -0.029392 -0.205505 0.118995 0.066964 0.049158 0.034366 0.130898 0.060772 -0.059228 0.089301 -0.057118 0.156012 0.130044 0.030606 0.002091 -0.016998 -0.012366 0.102494 0.042222 0.083300 0.057088 0.133646 -0.105373 -0.134797 0.043072 0.030497 -0.002769 0.063938 0.020453 -0.044296 -0.015646 0.055947 -0.100432 -0.071722 0.028821 0.027264 -0.064786 -0.142695 0.185222 0.117523 -0.011007 -0.063108 -0.031164 -0.011540 -0.018688 0.018166 -0.166933 -0.033878 -0.065388 -0.072065 -0.225854 -0.017724 -0.008277 0.050606 -0.159030 -0.078263 -0.029812 -0.002370 -0.100222 0.092884 0.118585 0.150296 0.067305 0.010600 -0.054884 -0.186451 -0.051067 -0.024929 0.103801 -0.014905 0.113759 0.199123 0.055393 -0.095982 -0.013099 0.086396 0.060732 0.010830 -0.251685 -0.071097 -0.084645 -0.130150 0.000637 0.051731 -0.055347 0.108233 0.218930 -0.070106 0.003957 -0.011691 0.008970 0.042425 0.097066 -0.075720 -0.147609 0.059206 -0.081745 -0.013221 0.052585 0.018850 0.022058 0.004127 -0.093223 0.024929 -0.109543 0.158558 0.052230 -0.027098 -0.100631 -0.034064 0.132716 -0.028807 0.040379 -0.069692
89 -0.141427 -0.063934 0.098395 -0.236400 0.032096 0.049409 -0.034132 -0.033322 -0.165074 0.034692 0.008952 0.073568 0.063858 -0.035422 -0.031868 -0.220883 0.124774 0.069007 0.050831 0.034948 0.141751 0.061409 -0.061788 0.099086 -0.063834 0.175265 0.139965 0.032703 0.001904 -0.013471 -0.016408 0.110568 0.040979 0.088855 0.062735 0.139565 -0.113291 -0.144729 0.045417 0.025575 -0.001636 0.074140 0.023738 -0.048563 -0.011617 0.053285 -0.105202 -0.073276 0.034825 0.032264 -0.069912 -0.157532 0.194109 0.128386 -0.010246 -0.070818 -0.032180 -0.012235 -0.019066 0.019680 -0.182835 -0.033416 -0.073092 -0.079904 -0.252678 -0.021566 -0.013832 0.058342 -0.170990 -0.089238 -0.032824 -0.001417 -0.103435 0.093408 0.130776 0.161319 0.079789 0.015848 -0.058347 -0.207079 -0.057826 -0.029646 0.111133 -0.011778 0.118251 0.214284 0.059962 -0.103882 -0.011011 0.096136 0.061662 0.015971 -0.278598 -0.075594 -0.088869 -0.138772 0.003049 0.055852 -0.057554 0.118274 0.237550 -0.079152 0.000523 -0.010786 0.019167 0.046851 0.105790 -0.081030 -0.159312 0.061969 -0.089886 -0.015860 0.052719 0.015057 0.022252 0.006302 -0.102806 0.032611 -0.117104 0.174319 0.057612 -0.022920 -0.115236 -0.031244 0.146615 -0.031859 0.049939 -0.070572
191 -0.137023 -0.061544 0.095311 -0.226533 0.032877 0.042008 -0.030644 -0.028496 -0.159058 0.029650 0.010175 0.064361 0.066071 -0.036293 -0.030711 -0.207255 0.122180 0.071997 0.044626 0.033887 0.130289 0.058591 -0.058938 0.093205 -0.057828 0.169300 0.137753 0.030173 0.006869 -0.009875 -0.012171 0.104318 0.037029 0.087748 0.064571 0.135099 -0.111299 -0.140250 0.045942 0.023535 -0.008015 0.069611 0.024568 -0.043313 -0.012666 0.051782 -0.100582 -0.070084 0.036555 0.027340 -0.062824 -0.150214 0.192206 0.122643 -0.012372 -0.067747 -0.033855 -0.011312 -0.014954 0.020748 -0.172297 -0.035773 -0.070753 -0.079767 -0.239943 -0.024493 -0.009918 0.058623 -0.163901 -0.087406 -0.028704 0.004196 -0.103603 0.096301 0.126804 0.154808 0.078535 0.009327 -0.056668 -0.195054 -0.052981 -0.024124 0.106336 -0.017186 0.119883 0.203678 0.056101 -0.101941 -0.012270 0.092531 0.062934 0.012300 -0.266754 -0.070324 -0.088867 -0.134849 -0.001561 0.058324 -0.054698 0.116919 0.222382 -0.075697 -0.001971 -0.013078 0.019071 0.039060 0.095702 -0.077828 -0.155447 0.061862 -0.084760 -0.015520 0.052261 0.019079 0.026665 0.006398 -0.101087 0.029521 -0.110784 0.166719 0.053216 -0.022614 -0.112081 -0.036958 0.141470 -0.035950 0.043887 -0.072685
88 -0.173109 -0.086000 0.125237 -0.291640 0.031435 0.058949 -0.049907 -0.037230 -0.209263 0.040696 0.014378 0.089745 0.080603 -0.040230 -0.039881 -0.277577 0.162051 0.084515 0.066159 0.047505 0.177184 0.084061 -0.087065 0.125033 -0.081949 0.218769 0.174905 0.038522 0.012439 -0.018671 -0.023257 0.145847 0.057654 0.117734 0.080252 0.185108 -0.146305 -0.180695 0.058306 0.038866 -0.008457 0.096317 0.035950 -0.063521 -0.021909 0.074739 -0.132062 -0.099574 0.038714 0.041189 -0.085349 -0.193211 0.249073 0.164824 -0.016838 -0.084138 -0.046067 -0.014277 -0.024155 0.026449 -0.229931 -0.045170 -0.092672 -0.094477 -0.314638 -0.030863 -0.012298 0.076991 -0.210007 -0.111633 -0.032919 0.003358 -0.140082 0.124147 0.169585 0.204316 0.096380 0.019977 -0.075810 -0.260302 -0.067473 -0.030128 0.132485 -0.022640 0.159011 0.273775 0.072240 -0.137947 -0.018006 0.118048 0.079620 0.014020 -0.349114 -0.090344 -0.114324 -0.176405 -0.002684 0.074041 -0.075201 0.149902 0.301247 -0.103675 -0.001605 -0.013964 0.015891 0.054660 0.124965 -0.103329 -0.202591 0.083552 -0.109884 -0.016913 0.064929 0.020072 0.026844 0.009266 -0.125623 0.041253 -0.149551 0.213608 0.071350 -0.037779 -0.138644 -0.044843 0.188130 -0.039150 0.056673 -0.096818
