241 128
133 -0.194379 -0.220772 0.177674 -0.098333 0.065640 0.091265 -0.025133 0.094903 0.031092 0.035704 0.105684 0.116314 0.141451 -0.231952 -0.078691 -0.239554 0.007114 0.036334 0.107454 0.069528 0.157873 -0.047369 0.032682 0.092967 -0.077117 0.091544 0.119017 -0.018000 0.010434 -0.046331 0.070143 0.042811 -0.109977 -0.066174 -0.017780 0.046504 0.007080 0.089293 -0.019797 0.178738 0.039557 0.063856 0.019889 0.028629 -0.133320 0.092794 -0.185316 -0.037876 -0.002219 0.095704 -0.097995 -0.074797 0.091589 -0.039970 -0.082940 -0.188440 -0.056590 -0.068518 -0.006115 -0.037088 -0.071269 0.007963 -0.153437 -0.012424 -0.079812 -0.044291 -0.046375 -0.113764 -0.030330 0.066370 -0.054324 -0.114697 0.032144 0.024068 0.018352 0.018671 0.094155 0.191244 -0.022000 -0.082837 -0.091005 -0.032893 -0.051689 -0.215686 0.026159 0.167315 0.155644 -0.065262 -0.114660 0.117103 -0.011004 0.130314 -0.119776 -0.150356 -0.091107 0.013488 -0.023602 -0.216902 -0.004776 0.220577 -0.028656 -0.162999 -0.019567 0.003999 0.107836 -0.063412 0.067110 0.029086 0.061924 -0.060236 0.015447 0.112598 0.058838 -0.210568 0.142879 -0.059329 -0.172662 0.030319 -0.268679 0.080428 -0.001679 -0.018155 -0.007003 -0.068464 -0.105160 0.089956 0.005482 -0.005238
84 -0.246065 -0.213089 0.123668 0.009519 0.047280 0.060779 -0.059782 0.067531 0.056505 -0.093193 0.268436 0.166839 -0.018030 -0.206869 -0.036266 -0.207996 0.064654 -0.021902 0.108643 -0.018472 0.205312 -0.006910 0.021512 0.159632 -0.033611 0.101606 0.069512 0.014666 0.049379 -0.004510 0.074585 -0.023960 -0.050468 -0.168870 0.080170 -0.010699 -0.064331 0.063011 0.034077 0.088288 0.044935 0.172641 -0.006563 0.064072 -0.132581 0.102696 -0.100198 -0.077940 0.019519 0.106936 -0.084652 0.032747 0.037373 0.061864 -0.113330 -0.218851 -0.034979 -0.029923 -0.017843 -0.080389 -0.137373 0.063287 -0.163950 0.035637 -0.110237 -0.074476 -0.175402 -0.121279 -0.090619 0.005025 -0.019932 -0.005462 -0.080105 0.047015 0.136159 0.039737 0.099016 0.126603 0.002146 0.042452 -0.006355 -0.003019 -0.087267 -0.144347 0.111448 0.149399 0.215045 -0.096127 -0.163104 0.105169 -0.070434 0.228457 -0.082104 -0.219529 -0.089582 0.055823 0.007356 -0.237502 -0.088875 0.169387 -0.072288 -0.121113 -0.061343 0.037730 0.101941 -0.044134 0.072413 -0.025004 0.104299 0.039064 0.012525 0.133109 0.158401 -0.180069 0.059957 0.051234 -0.234152 -0.000637 -0.197154 -0.008343 -0.047417 -0.013618 0.011448 -0.116488 -0.212760 0.148323 0.093232 0.009127
198 -0.220870 -0.143552 0.157690 -0.023622 0.122849 0.042302 -0.056998 0.092775 0.061638 -0.055566 0.160959 0.050097 0.135697 -0.202235 -0.054059 -0.281184 0.060160 0.001743 0.100805 0.002114 0.100715 -0.070098 -0.020635 0.180613 -0.039751 0.098064 0.103291 -0.053738 0.090384 -0.113198 0.089889 -0.058180 -0.091454 -0.075552 0.059376 0.097918 -0.086959 0.060741 -0.027370 0.159085 0.010066 0.056514 0.018517 0.014630 -0.084502 -0.012061 -0.123679 -0.087888 0.117423 0.098656 -0.082327 -0.068613 0.129565 0.049323 -0.058615 -0.195582 -0.076101 -0.036621 0.047039 0.091694 -0.054630 0.025970 -0.120193 0.007767 -0.086202 -0.081476 -0.135995 -0.008996 -0.069058 0.067728 0.026556 -0.075355 0.022767 0.025387 0.061676 0.044731 0.213133 0.152514 -0.024672 -0.102677 -0.078189 -0.050008 -0.060469 -0.240201 0.167357 0.130667 0.126013 -0.045265 -0.212794 0.109238 -0.049328 0.096856 -0.232112 -0.160556 -0.089053 -0.009771 0.023286 -0.237140 -0.120792 0.217054 -0.037021 -0.176249 -0.088895 -0.022779 0.092397 0.036153 0.100562 -0.080613 -0.004776 -0.052578 0.072252 0.103066 0.092997 -0.100778 0.119296 -0.013766 -0.085826 -0.039394 -0.163156 0.082386 -0.042678 -0.029205 0.001823 -0.074229 -0.179665 0.128559 0.001397 -0.059276
35 -0.216911 -0.179964 0.093318 -0.069797 0.044926 0.138284 -0.051432 0.082393 0.028370 0.087172 -0.004069 0.169005 0.112116 -0.227445 -0.026899 -0.226190 0.060813 0.021206 0.039963 0.097167 0.131704 -0.046732 0.017194 0.094623 -0.043579 0.071101 0.092737 0.015428 0.010241 -0.063750 0.110091 0.109221 -0.053865 -0.064645 -0.035821 0.014122 0.001791 0.039325 -0.108074 0.068816 0.037244 0.169142 -0.013180 -0.018000 -0.121003 0.077989 -0.195016 0.003008 0.083185 0.096695 -0.119982 -0.016459 0.092698 0.080735 -0.186697 -0.168226 -0.137573 -0.130168 -0.033795 -0.070974 -0.058991 -0.009684 -0.149148 0.002222 -0.120815 -0.034160 -0.146919 -0.075698 -0.035762 0.062890 -0.051400 -0.070831 0.057438 -0.062763 -0.021279 0.007582 0.100430 0.191692 0.032304 -0.167912 -0.014888 -0.081716 -0.019875 -0.210726 0.036516 0.190371 0.231434 -0.007293 -0.098622 0.174630 -0.035084 0.168152 -0.148278 -0.154363 -0.065714 0.005464 0.016627 -0.149259 -0.033269 0.191621 -0.047890 -0.056979 -0.083228 0.044469 0.116977 -0.021628 0.056607 0.038238 -0.041502 -0.022262 -0.000841 0.133532 0.038562 -0.207415 0.095476 -0.045561 -0.095308 0.087259 -0.242394 0.004118 0.031840 -0.020833 0.091681 -0.058603 -0.110323 0.131045 -0.004115 -0.031116
105 -0.196217 -0.179257 0.135897 0.002867 0.072959 0.108305 -0.016766 0.049735 0.040344 -0.001984 0.147058 0.123932 0.200411 -0.138437 -0.037746 -0.150345 0.029867 -0.015686 0.052352 0.040092 0.106450 -0.024408 0.001886 0.147497 -0.005084 0.137029 0.075076 -0.033240 0.042515 -0.130663 0.063610 -0.065116 -0.068740 -0.062738 0.015200 0.002906 -0.078102 -0.007807 -0.034569 0.124153 -0.019527 0.048031 0.031701 0.000464 -0.046998 -0.014725 -0.109359 -0.098008 0.052975 0.029127 -0.056284 -0.017088 0.119009 0.010254 -0.140531 -0.195591 -0.139935 -0.112970 0.005256 0.084024 0.020160 0.049263 -0.149037 0.056426 -0.127147 -0.081319 -0.138157 -0.084977 -0.051229 0.029906 0.007694 -0.125939 0.066878 0.039503 0.084295 0.097555 0.166219 0.212767 0.052202 -0.084024 -0.050563 -0.076680 -0.006260 -0.273633 0.129956 0.162667 0.201733 -0.031699 -0.164263 0.114373 -0.026136 0.214591 -0.201445 -0.133567 -0.071092 -0.028809 -0.024139 -0.237276 -0.081660 0.228472 -0.057427 -0.130181 -0.042730 -0.029702 0.111070 -0.005996 0.086589 -0.006698 -0.038297 -0.021961 0.086555 0.137989 0.060978 -0.077482 0.139830 0.016321 -0.117746 -0.022808 -0.155470 0.051098 -0.073109 -0.070495 0.067110 -0.077785 -0.134594 0.082461 -0.009169 -0.015224
108 -0.148888 -0.058465 0.157709 -0.114501 0.133725 0.154504 -0.068436 0.072901 0.084710 0.016323 0.044817 0.111037 0.105887 -0.248393 -0.078400 -0.246308 0.014725 0.030413 0.048397 0.048181 0.149485 -0.045935 0.054078 0.141958 -0.109660 0.012547 0.108790 -0.039493 0.004121 -0.081053 0.085222 0.042666 -0.131582 -0.137251 -0.026726 0.154387 -0.063217 0.016397 -0.047354 0.184216 0.078815 0.065115 -0.030976 0.000949 -0.134781 0.078057 -0.159318 0.011629 0.039104 0.146095 -0.091341 -0.037399 0.133927 0.098374 -0.096710 -0.203375 -0.098451 -0.093709 -0.021751 0.082701 -0.104202 -0.094977 -0.083300 0.005856 -0.038466 0.012307 -0.069351 -0.055792 -0.119157 0.093091 0.014391 -0.094612 0.050983 -0.024414 -0.010623 0.063801 0.122767 0.189924 0.003587 -0.124561 -0.120447 -0.084577 -0.048268 -0.169975 0.023452 0.205146 0.100947 -0.009044 -0.125604 0.058070 -0.072689 0.099704 -0.203669 -0.205884 -0.097156 0.056438 -0.020406 -0.238862 -0.020986 0.263588 -0.066072 -0.079781 -0.049887 -0.018016 0.043715 -0.101150 0.112284 -0.058197 0.037430 -0.117674 0.020920 0.131805 0.052327 -0.162586 0.141295 -0.099140 -0.095515 -0.014746 -0.247590 0.168278 0.016646 -0.031394 0.016142 -0.029491 -0.086836 0.050732 -0.040983 0.006487
170 -0.220350 -0.089285 0.054312 -0.060583 0.146445 0.079328 0.106551 0.057610 0.052204 -0.025906 0.077144 0.018150 0.071459 -0.156389 -0.079140 -0.247604 0.101366 0.057940 -0.006264 0.005713 0.108816 0.019354 -0.024312 0.115979 0.004221 -0.038852 0.146417 0.010024 0.029943 -0.146009 0.125536 0.016623 -0.096951 -0.032140 -0.008619 0.064216 -0.078390 0.048152 -0.049061 0.190561 0.000019 0.091179 0.024422 0.004266 -0.047614 0.057407 -0.111241 -0.047856 0.052147 0.096019 0.004323 -0.075995 0.232676 0.024840 -0.067619 -0.136903 -0.056303 -0.085727 -0.024631 0.060150 -0.008788 0.046665 -0.216481 -0.055602 -0.168364 -0.031406 -0.025183 -0.082580 -0.062361 0.123457 -0.027135 -0.067400 0.088589 0.041895 0.026734 0.040151 0.148391 0.132434 -0.010697 -0.217388 -0.102349 -0.043539 -0.054791 -0.157144 0.152043 0.170584 0.062961 0.017875 -0.163596 0.095180 -0.022780 0.134379 -0.186886 -0.138568 -0.091318 -0.005526 -0.080688 -0.209052 -0.094883 0.235774 -0.158270 -0.127667 -0.069200 0.012541 0.154448 -0.012296 0.216745 -0.042333 -0.111924 -0.121645 0.095783 0.075326 0.035971 -0.129917 0.252440 -0.107428 -0.162528 -0.067195 -0.191491 0.074132 -0.028853 -0.033222 0.089830 -0.076278 -0.153438 -0.025912 -0.207977 0.036335
191 -0.304429 -0.196517 0.100563 -0.041718 0.094188 0.060709 0.085163 0.093898 0.046941 -0.068341 0.232763 0.083506 0.131188 -0.222971 -0.037789 -0.161109 0.097791 0.045045 0.015247 0.002917 -0.016167 -0.062653 0.104766 0.114374 -0.010064 0.055972 0.094765 -0.026808 0.018404 -0.075310 0.122917 -0.069351 -0.084873 -0.074319 0.025296 -0.072942 -0.041767 0.073969 -0.021279 0.104991 -0.030920 0.137171 -0.015201 -0.006113 -0.044389 -0.029252 -0.164551 -0.059298 0.061525 0.072667 0.016738 -0.056998 0.109012 -0.046714 -0.173944 -0.171848 -0.068834 -0.061788 0.011575 0.018492 -0.033947 0.022181 -0.263690 -0.009848 -0.186464 -0.130100 -0.049095 -0.065079 -0.087587 0.069276 -0.045416 -0.006351 0.118204 0.001772 -0.014997 -0.005708 0.235444 0.123257 0.059739 -0.076072 -0.072220 0.021416 -0.078838 -0.202566 0.171168 0.147180 0.194659 -0.045731 -0.122549 0.134846 -0.056859 0.224551 -0.163155 -0.085197 -0.001623 -0.092093 -0.064004 -0.178999 -0.076757 0.179857 -0.157902 -0.111109 -0.076270 0.004789 0.196134 0.056364 0.184070 0.065558 -0.075062 0.040044 0.031623 0.108754 0.071744 -0.102359 0.099597 0.022735 -0.138374 -0.023348 -0.108895 0.035397 -0.104825 0.044936 -0.000391 -0.059659 -0.217224 0.086936 -0.042064 -0.013452
87 -0.216641 -0.200640 0.110032 -0.083818 0.047019 0.074635 -0.071515 0.050626 0.097747 -0.067149 0.211515 0.119069 0.111626 -0.205898 0.010295 -0.165524 0.008005 0.035944 0.040817 0.008799 0.155821 -0.016522 -0.101969 0.147147 -0.058231 0.104773 0.090284 -0.070452 0.058532 -0.115372 0.092099 -0.067345 -0.007428 -0.140404 0.016708 0.020033 -0.118916 0.042233 0.021243 0.141729 0.040794 0.174895 0.009249 -0.051050 -0.084532 0.034704 -0.142134 -0.161504 -0.003385 0.016104 -0.120028 -0.062774 0.063005 -0.022189 -0.229158 -0.271124 -0.067201 -0.105848 -0.011495 0.031606 -0.053566 0.082274 -0.107747 0.019774 -0.081207 -0.029769 -0.164286 -0.050534 -0.009438 0.010679 0.055590 -0.095253 0.095807 0.032574 0.085924 0.034347 0.117688 0.111264 -0.016654 -0.069331 0.011229 -0.017820 -0.094238 -0.306899 0.063238 0.184672 0.171395 -0.104387 -0.160806 0.138065 -0.010383 0.181502 -0.123915 -0.157056 -0.077910 -0.007088 -0.021853 -0.175109 -0.127813 0.310431 0.062547 -0.136103 -0.056998 -0.009858 0.199551 -0.038964 0.002371 -0.078015 0.031392 -0.035213 0.073813 0.141109 0.056027 -0.112885 0.029102 0.015922 -0.173702 -0.017953 -0.121235 0.069793 0.014016 -0.004029 -0.098377 -0.066660 -0.064188 0.140394 0.096005 0.005981
31 -0.207844 -0.150617 0.062191 0.051516 0.085601 0.078489 -0.021907 0.050377 0.026121 0.048432 0.066137 0.193678 0.094997 -0.188018 -0.033176 -0.258089 0.135629 -0.072673 -0.000396 0.085841 0.114638 -0.018142 0.030072 0.096329 0.045677 0.007791 0.126884 0.017762 0.043429 -0.091413 0.096128 0.071536 -0.126904 -0.094423 -0.024549 -0.008085 -0.013831 0.084579 -0.059534 0.028410 0.001627 0.144647 -0.042888 -0.024428 -0.134280 0.106796 -0.132369 -0.033558 0.039893 0.109314 0.024045 -0.003304 0.052856 0.088143 -0.099520 -0.161509 -0.061622 -0.084989 -0.073081 0.003883 -0.048343 0.059056 -0.262965 0.008358 -0.237991 -0.078488 -0.208253 -0.063558 -0.060153 0.079078 0.033317 -0.061384 -0.031534 -0.026931 -0.039668 -0.008240 0.124427 0.128625 0.067207 -0.117191 0.017488 -0.116461 -0.057148 -0.223352 0.224608 0.202761 0.170901 -0.024977 -0.134922 0.125053 -0.112430 0.192468 -0.153805 -0.127579 -0.042802 0.063526 -0.062478 -0.121536 -0.102404 0.188773 -0.153849 -0.103177 -0.025088 0.078265 0.053089 0.000132 0.158453 0.021444 -0.106378 0.011536 -0.003574 0.156389 0.025667 -0.213864 0.160190 -0.017875 -0.189017 0.020239 -0.145974 0.012909 -0.011188 -0.041776 0.098528 -0.128812 -0.112479 0.119488 -0.082987 -0.051051
142 -0.302427 -0.232936 0.010638 -0.128431 0.023954 0.095621 0.049490 0.012794 -0.047955 0.030663 0.072680 0.141144 0.121842 -0.243789 -0.005852 -0.285679 0.089372 0.064369 0.017408 0.063211 0.021652 -0.012635 -0.019471 0.022610 -0.005976 -0.019638 0.139265 0.008573 0.026014 -0.078446 0.154817 0.092321 -0.097462 -0.112392 -0.038749 -0.082560 0.052724 0.173644 -0.030822 0.049466 0.014575 0.194873 -0.009145 -0.055931 -0.168062 0.140913 -0.177726 -0.081359 -0.054521 0.094220 -0.045287 -0.072927 0.009870 -0.060517 -0.227273 -0.148269 -0.040155 -0.065037 -0.061952 -0.043532 -0.088294 0.093986 -0.300993 0.002211 -0.235724 -0.093164 -0.124118 -0.085591 -0.013467 0.050646 0.007609 0.014427 -0.007594 -0.044363 -0.065152 -0.116832 0.117883 0.052369 -0.026143 -0.074154 0.016147 -0.018485 -0.160249 -0.259375 0.131920 0.152074 0.214110 -0.019038 -0.115514 0.173963 -0.019525 0.182476 -0.112858 -0.043279 0.019045 -0.008827 -0.081041 -0.155712 -0.083761 0.207554 -0.105315 -0.150778 -0.022737 0.042232 0.173363 -0.003814 0.115669 0.115843 -0.130880 0.020760 -0.003375 0.173444 0.021750 -0.256301 0.030705 0.016314 -0.204529 0.020304 -0.145423 0.018096 0.007081 0.125612 0.013234 -0.105735 -0.106291 0.173007 0.010031 -0.005675
89 -0.326859 -0.113538 0.135900 -0.065522 0.159489 0.158443 0.069841 0.001003 0.125892 -0.025218 0.086189 0.109320 0.122289 -0.199983 -0.047915 -0.213415 0.159554 0.027907 0.044467 -0.021198 0.073487 -0.022274 -0.029639 0.155808 0.032030 0.011043 0.115858 0.051810 0.012263 -0.089979 0.115835 -0.068541 -0.102624 -0.101550 0.013858 0.015759 -0.050652 -0.015074 -0.091537 0.093143 0.016135 0.089685 -0.067785 -0.015701 -0.003827 -0.045516 -0.155133 -0.000097 0.103379 0.173384 -0.017264 -0.047124 0.206800 0.053225 -0.164517 -0.127831 -0.097438 0.003338 -0.023753 0.104193 -0.070936 -0.015493 -0.180776 0.008967 -0.203007 -0.002162 -0.106411 -0.063305 -0.192444 0.023384 -0.057369 -0.111934 0.103219 0.005566 0.076415 0.048642 0.190881 0.078399 0.039834 -0.139628 -0.130472 -0.075057 -0.040712 -0.116855 0.133179 0.173628 0.223728 0.040047 -0.113823 0.174059 -0.163934 0.162665 -0.199481 -0.133038 0.012260 -0.074861 -0.015841 -0.245627 -0.107823 0.231110 -0.063360 -0.094848 -0.086229 0.038484 0.146281 0.049296 0.218920 -0.054926 -0.124716 0.027332 0.041583 0.125987 0.067103 -0.031275 0.093118 -0.059032 -0.031585 -0.017514 -0.141728 0.037836 -0.071699 0.106741 0.027011 -0.060701 -0.175954 0.046867 -0.011658 0.041185
3 -0.235592 -0.157262 -0.018073 -0.105840 0.118815 0.134876 0.024284 0.034861 0.024770 -0.015640 0.116632 0.109660 0.111014 -0.196648 -0.060444 -0.232767 0.096299 -0.011200 -0.023489 0.068882 0.031863 -0.008099 -0.005748 0.109162 0.020395 -0.081666 0.089296 0.030263 0.023329 -0.143336 0.104173 0.063352 -0.135600 -0.077178 -0.018255 -0.024763 0.000180 0.071249 -0.014491 0.163738 -0.002828 0.111931 -0.062109 0.010207 -0.121175 0.042614 -0.154593 -0.043623 -0.008396 0.089727 0.024436 -0.000881 0.139127 0.009772 -0.139463 -0.172369 -0.076286 -0.141395 -0.052989 0.092439 -0.054926 0.068047 -0.262255 0.022169 -0.126861 -0.108995 0.009682 -0.121622 -0.037183 0.094209 0.013507 -0.003982 0.037013 0.009592 -0.012825 -0.016481 0.124501 0.099571 0.023218 -0.152139 -0.039405 -0.015198 -0.131684 -0.156283 0.111872 0.188923 0.166166 0.033174 -0.161923 0.198513 -0.037371 0.175150 -0.141524 -0.100159 -0.049541 -0.015084 -0.132514 -0.198858 -0.016366 0.211825 -0.176872 -0.114578 -0.108650 0.041657 0.098673 -0.032987 0.153666 0.118370 -0.062401 -0.032703 -0.016283 0.161561 0.046468 -0.214800 0.143763 -0.021485 -0.160175 0.006088 -0.207014 0.093482 -0.039266 0.024559 0.069468 -0.073640 -0.180339 0.013876 -0.031498 0.012183
111 -0.191289 -0.196708 0.048571 -0.105246 0.122517 0.025876 -0.043398 0.095063 0.018442 0.004722 0.042991 0.059874 -0.078479 -0.235126 -0.097297 -0.296373 0.068638 0.040438 0.040472 0.047485 0.186541 0.005747 -0.026283 0.034910 -0.061746 -0.057419 0.094744 -0.008995 0.057258 -0.056833 0.123534 0.081285 -0.021980 -0.079006 -0.007330 0.054459 -0.031446 0.151424 -0.075612 0.114034 0.099077 0.226620 -0.032694 0.051192 -0.128013 0.122162 -0.156427 -0.068879 0.111838 0.078431 -0.045281 -0.097087 0.119992 0.087247 -0.066184 -0.229060 -0.043548 -0.045036 -0.003949 -0.118704 -0.087980 0.110600 -0.216430 -0.056631 -0.119626 -0.047009 -0.102057 -0.057477 0.059585 0.110903 -0.037503 0.032333 0.013217 -0.047484 -0.050108 -0.101963 0.081396 0.111188 -0.110970 -0.226207 -0.052402 -0.030039 -0.120787 -0.144643 0.079572 0.208527 0.087245 -0.122147 -0.165492 0.135619 -0.000345 0.096311 -0.106163 -0.121958 -0.072670 0.036549 -0.005179 -0.121705 -0.057325 0.181339 -0.105999 -0.120593 -0.172207 0.037126 0.159297 0.015577 0.107117 -0.037579 0.006824 -0.095670 -0.012119 0.101891 0.105066 -0.246573 0.195290 -0.071395 -0.216795 0.046663 -0.234462 0.013556 0.105855 0.034322 0.003730 -0.120773 -0.160293 0.113115 -0.080530 0.006630
174 -0.274658 -0.235851 0.120736 -0.061211 0.101265 0.022012 -0.022465 0.027318 0.121774 -0.078427 0.278474 0.142363 0.100442 -0.189417 -0.014078 -0.162030 0.059214 -0.034669 0.101232 0.001224 0.069280 -0.044682 -0.005694 0.143233 -0.000869 0.055030 0.112762 -0.021488 0.015731 -0.079894 0.063786 -0.074436 -0.073470 -0.098751 0.060755 -0.008729 -0.081816 0.078697 0.034717 0.105614 0.026166 0.132137 -0.011602 -0.007436 -0.077366 0.006929 -0.128657 -0.123907 0.068969 0.078340 -0.058961 -0.021026 0.093988 -0.034042 -0.175932 -0.281626 -0.038907 -0.040107 -0.004347 0.050277 -0.127143 0.021729 -0.189671 0.018598 -0.099723 -0.095195 -0.098064 -0.090984 -0.057048 0.023454 0.016760 -0.051431 0.061222 0.080566 0.040662 -0.030360 0.186330 0.097340 0.031711 -0.055713 -0.060187 -0.001721 -0.095243 -0.259431 0.116529 0.168042 0.215550 -0.114700 -0.169782 0.177774 -0.100668 0.215684 -0.153138 -0.127955 -0.040622 -0.060503 -0.080948 -0.188618 -0.081645 0.235380 0.038297 -0.124014 -0.137361 0.041129 0.181038 0.030866 0.120937 0.006403 0.006132 0.040468 0.008598 0.160698 0.100604 -0.109538 0.073510 0.023425 -0.115140 0.002329 -0.127091 0.020252 -0.016050 0.046852 -0.085792 -0.093408 -0.194977 0.144668 0.107027 0.034151
233 -0.289284 -0.214286 0.247761 0.001382 0.100047 0.074163 0.025570 0.067434 0.140373 -0.046763 0.071068 0.085215 0.094927 -0.252248 -0.045394 -0.199458 0.173665 0.052729 0.095136 0.056895 0.165505 -0.068093 0.101596 0.182636 -0.049813 0.097300 0.114619 -0.060407 0.031685 0.098209 0.068470 -0.070619 -0.002670 -0.102899 -0.047239 -0.004622 -0.022121 0.000410 -0.059378 0.093443 0.034820 0.047352 -0.137256 0.013698 -0.056532 -0.036817 -0.205286 0.014234 0.108491 0.211845 0.001078 -0.128959 0.178970 0.035357 -0.136914 -0.152287 -0.115726 0.104992 0.035519 -0.006692 -0.082858 -0.084455 -0.136190 -0.101942 -0.136955 0.043732 -0.157743 -0.007507 -0.231938 0.060420 -0.083421 -0.155636 0.100030 -0.064811 -0.001201 0.038293 0.154280 0.082085 -0.021548 -0.085812 -0.199064 -0.027614 -0.036440 -0.111599 0.087712 0.193657 0.212767 -0.101632 -0.090343 0.108426 -0.133519 0.108138 -0.118893 -0.136696 -0.009980 -0.093766 0.073238 -0.223617 -0.088470 0.223583 -0.046332 -0.157132 -0.029275 0.073124 0.160642 0.049862 0.209475 -0.180071 -0.038931 0.086935 0.021620 0.099300 0.097996 -0.067326 0.095850 -0.025554 -0.095117 0.048510 -0.143247 0.040657 -0.009829 -0.001671 -0.109761 -0.047050 -0.245208 0.106712 0.088611 -0.028550
45 -0.147383 -0.012503 0.059991 0.096107 0.036576 0.057906 0.108192 0.095803 -0.018391 -0.008841 -0.038937 0.040398 0.166057 -0.241572 -0.044015 -0.231440 0.165138 0.078027 -0.058661 0.130593 0.097484 -0.029513 0.036887 0.127240 0.026712 0.062917 0.218410 -0.100722 0.068877 -0.024043 0.076126 0.026326 -0.047274 -0.178402 -0.151579 -0.001311 -0.006135 -0.047645 -0.034747 0.115406 -0.087154 0.007776 -0.119844 -0.084403 -0.126593 -0.034393 -0.041264 -0.059065 -0.113520 0.142918 0.142356 -0.064505 0.124300 0.049860 -0.112482 -0.121510 -0.109398 -0.129827 -0.132273 0.171259 0.093497 0.049633 -0.229198 -0.063428 -0.225551 0.018568 -0.236835 -0.001124 -0.195127 0.154615 0.151011 -0.195798 0.091854 -0.092085 0.022509 0.142554 0.151261 0.152616 0.072606 -0.097260 -0.129895 -0.161842 -0.048277 -0.162629 0.215735 0.228284 0.143465 0.073786 -0.177711 0.109067 -0.103360 0.171564 -0.233025 -0.109228 -0.074658 0.009410 -0.070747 -0.153354 -0.123213 0.218582 -0.128989 -0.180690 0.149920 0.040733 0.117828 -0.014240 0.169510 -0.156903 -0.099327 0.004223 0.099666 0.197847 0.021826 -0.117101 0.160129 0.029324 -0.223878 -0.086939 -0.135339 0.092564 0.047955 -0.173900 0.025957 0.012226 -0.152037 -0.022738 -0.029161 -0.126205
178 -0.240006 -0.175852 0.090246 -0.104540 0.065452 0.052921 0.012321 0.068460 0.144914 -0.040427 0.218710 0.136795 -0.000291 -0.219544 -0.015819 -0.187666 0.067445 0.069857 0.084124 -0.023703 -0.009684 -0.035509 0.062806 0.056841 -0.058747 -0.003050 0.053173 -0.016530 -0.016315 -0.028508 0.140517 -0.019974 -0.039130 -0.066601 -0.016129 0.029464 -0.085612 0.117996 -0.021350 0.109165 0.038367 0.209174 -0.003983 -0.024350 -0.048526 0.049196 -0.174316 -0.006549 0.091674 0.114854 -0.079398 -0.012919 0.135133 0.028497 -0.202660 -0.129842 -0.001024 0.011383 -0.013542 -0.025029 -0.118736 -0.061453 -0.191225 -0.002084 -0.095395 -0.022422 -0.055108 -0.063914 -0.101140 0.075229 -0.030052 0.002215 0.160195 -0.015386 0.000992 -0.018353 0.242122 0.147147 0.050640 -0.066329 -0.103541 0.017795 -0.130387 -0.142272 0.050335 0.178654 0.194034 -0.107341 -0.103887 0.077452 -0.076617 0.205077 -0.127491 -0.138693 -0.027659 -0.047886 -0.044586 -0.259841 -0.035669 0.172302 -0.153983 -0.039974 -0.146287 0.037748 0.232509 0.021737 0.222281 0.049814 -0.014847 -0.028223 0.051000 0.150136 0.088755 -0.072188 0.035058 -0.029120 -0.099929 -0.012973 -0.193136 0.103902 -0.068189 0.090099 0.048450 -0.013800 -0.230452 0.106734 -0.038836 0.055493
80 -0.250956 -0.161859 -0.005074 -0.032805 0.141506 0.192255 -0.001052 0.076162 0.058220 0.030518 0.048145 0.138211 0.126389 -0.184276 0.036593 -0.214374 0.081348 0.007585 -0.076171 0.016674 0.060936 -0.001537 -0.058102 0.089876 0.061156 -0.010698 0.047080 0.021522 0.089721 -0.184632 0.173835 -0.000442 -0.084606 -0.026530 0.006187 0.006125 -0.111654 0.039654 -0.162891 0.071834 0.005892 0.201913 0.019687 -0.013404 -0.017400 0.037212 -0.171174 -0.039592 0.195610 0.033763 -0.041107 -0.028661 0.169586 0.097522 -0.208712 -0.126891 -0.148414 -0.143048 0.033702 0.027273 0.046847 0.089025 -0.207927 0.047267 -0.246082 -0.086525 -0.081585 0.016058 0.026679 0.053986 -0.065734 0.008259 0.076808 -0.017472 -0.019983 0.036073 0.165350 0.133902 0.025427 -0.281564 0.013207 -0.064168 -0.090679 -0.252825 0.154397 0.182884 0.185594 -0.003479 -0.125388 0.118846 0.005114 0.157535 -0.169733 -0.113521 -0.030804 -0.008463 -0.016074 -0.181198 -0.139775 0.233648 -0.190099 -0.046470 -0.165798 -0.034550 0.132932 0.015414 0.155156 0.093417 -0.222663 -0.056454 0.069672 0.095726 0.003916 -0.138581 0.185197 -0.044795 -0.097978 0.003281 -0.143471 -0.002342 -0.058563 0.025374 0.160400 -0.081048 -0.105414 0.058907 -0.207733 0.028346
188 -0.214328 -0.124435 0.168258 -0.066557 0.251589 0.080487 -0.026760 0.154045 0.178250 -0.061729 0.400743 0.074923 0.237539 -0.100672 -0.094075 -0.030405 -0.011326 -0.047340 0.018728 0.005934 0.036751 -0.055382 0.131168 0.267863 -0.117248 0.135766 -0.034382 -0.076723 0.002857 -0.188214 0.014085 -0.142089 -0.094503 -0.056947 -0.006211 0.013173 -0.218480 -0.003162 0.130553 0.320212 -0.047571 0.049252 0.057948 -0.000551 -0.044234 -0.112795 -0.190971 -0.069171 0.020074 0.112798 -0.027640 0.050269 0.220040 -0.059873 -0.125788 -0.240487 -0.096995 -0.173371 0.020630 0.107189 0.053581 -0.096458 -0.074745 0.064439 0.073959 -0.068876 0.068275 -0.115163 -0.002701 0.154986 -0.013433 -0.092628 0.243193 0.074570 0.166214 0.184841 0.256504 0.236183 0.124093 -0.061475 -0.109763 0.030963 0.052241 -0.246033 0.089906 0.133379 0.104818 -0.105239 -0.194485 0.096420 -0.030304 0.192465 -0.226140 -0.163513 -0.193565 -0.113685 -0.091954 -0.289730 0.008976 0.302416 -0.107745 -0.089799 -0.175780 -0.068913 0.144095 -0.010723 0.143348 0.006086 0.104119 -0.057288 0.115596 0.158465 0.058070 0.059291 0.128903 -0.016960 -0.060085 -0.031688 -0.091145 0.180572 -0.142695 -0.146618 -0.043992 -0.037409 -0.182007 0.002649 -0.060683 0.025225
135 -0.142707 -0.199254 0.132674 -0.067048 0.157932 0.125222 -0.135697 0.097228 0.082948 -0.016099 0.144040 0.144468 0.038383 -0.189663 -0.087569 -0.219516 0.029951 -0.068548 0.051836 0.011380 0.264571 -0.028191 0.037106 0.175046 -0.069294 0.029658 0.026229 -0.022450 0.003428 -0.090886 0.057931 -0.017943 -0.068346 -0.098668 -0.015238 0.103330 -0.105325 0.041707 0.002513 0.179795 0.070419 0.073067 -0.022754 0.096013 -0.116202 0.081959 -0.172135 -0.048046 0.041682 0.106053 -0.092334 -0.027286 0.114544 0.054167 -0.047736 -0.267107 -0.085623 -0.098733 0.043844 0.038315 -0.091203 0.005958 -0.084180 0.038834 -0.022182 -0.034197 -0.055916 -0.060218 -0.007111 0.072160 -0.042550 -0.058974 -0.010552 0.005925 0.047299 0.080704 0.038767 0.173568 -0.040324 -0.139440 -0.062979 -0.039203 -0.023564 -0.205649 0.072315 0.207233 0.124069 -0.101074 -0.147854 0.069065 -0.024630 0.119963 -0.115420 -0.222667 -0.097401 0.048493 -0.001586 -0.211438 -0.012390 0.273733 -0.070829 -0.136713 -0.126214 0.016473 0.066731 -0.095044 0.065073 -0.036960 0.093444 -0.119824 0.030688 0.103708 0.076788 -0.182393 0.195917 -0.103630 -0.157897 -0.008384 -0.246561 0.157212 0.013836 -0.084509 0.012973 -0.131575 -0.114976 0.077104 -0.055219 0.038607
57 -0.257520 -0.145357 0.098645 -0.048176 0.148277 0.200277 -0.013445 0.026845 0.086645 0.006869 0.162325 0.208382 0.152970 -0.171817 -0.044831 -0.190473 0.073552 -0.020931 -0.001196 0.016248 0.064876 -0.008680 0.019565 0.083292 0.011846 0.044644 0.005607 0.024869 0.060406 -0.135764 0.102218 -0.042488 -0.112022 -0.102075 0.021094 0.003426 -0.068675 0.001650 -0.056227 0.113680 0.007437 0.099153 -0.046240 0.006848 -0.079292 0.074149 -0.153741 -0.030071 0.041305 0.111515 0.039014 0.037142 0.145631 0.072074 -0.182719 -0.127173 -0.101705 -0.095522 -0.024737 0.032099 -0.009919 0.055676 -0.195677 0.147829 -0.151280 -0.095717 -0.015163 -0.091137 -0.031991 0.056271 -0.029069 -0.011777 0.034032 0.016885 0.078834 0.039340 0.126658 0.170572 0.072887 -0.056049 -0.072250 -0.038791 -0.040130 -0.161402 0.137906 0.180217 0.216819 -0.016380 -0.153154 0.133223 -0.080076 0.203297 -0.134408 -0.104029 -0.071734 -0.056878 -0.013195 -0.292316 -0.032792 0.192193 -0.170118 -0.054368 -0.135342 -0.061338 0.041568 -0.009565 0.191723 0.100102 -0.030750 0.013500 0.025051 0.198099 0.105202 -0.083632 0.138108 0.008411 -0.118849 -0.009544 -0.166491 0.044980 -0.098939 0.037260 0.106381 -0.106726 -0.134996 0.049666 -0.080201 0.018945
129 -0.152664 -0.240952 0.112198 -0.053693 0.182366 0.110217 -0.143158 -0.008220 0.101104 -0.031273 0.113521 0.124493 0.060173 -0.206055 0.037209 -0.269833 0.098739 -0.104717 0.105380 0.015625 0.321524 0.017127 -0.147444 0.167326 0.032853 -0.052217 0.132707 0.043369 0.057969 -0.096380 0.083755 -0.008246 -0.149525 -0.104208 0.062737 0.098686 -0.041241 0.085212 -0.058122 0.123868 0.059913 0.142551 -0.056544 0.086342 -0.094191 0.092020 -0.169228 -0.063267 0.109570 0.113855 -0.149680 -0.007383 0.120304 0.087372 -0.056549 -0.234852 -0.036858 -0.028873 0.019040 0.038089 -0.116151 0.116116 -0.158154 0.001685 -0.131123 -0.011656 -0.155160 -0.098949 -0.016376 0.005140 -0.074566 -0.105863 -0.118943 0.121032 0.087315 0.028747 0.032877 0.085004 -0.092147 -0.172488 -0.020100 -0.102609 -0.113591 -0.209682 0.104267 0.207023 0.163986 -0.105764 -0.165713 0.132036 -0.038976 0.079398 -0.093349 -0.264462 -0.057727 0.113673 -0.041215 -0.200748 -0.130932 0.272191 -0.015166 -0.220775 -0.128818 0.079603 0.011060 -0.096074 0.055215 -0.009267 -0.024443 -0.016481 0.002922 0.097703 0.028267 -0.220120 0.185929 -0.076341 -0.160333 -0.003720 -0.233275 0.064281 0.021900 0.012111 0.058544 -0.230273 -0.131004 0.116752 0.042005 0.034254
205 -0.154030 -0.192858 0.227669 -0.071423 0.103605 0.048015 -0.111346 0.100253 -0.014022 -0.014234 0.089724 0.071295 -0.059675 -0.260325 -0.128496 -0.223322 0.016445 0.043595 0.136882 -0.057694 0.281142 -0.043693 0.047688 0.099011 -0.149141 0.075591 0.010755 -0.042621 0.019053 -0.001611 0.055226 -0.073034 0.000159 -0.149007 0.027412 0.086957 -0.063893 0.085344 -0.097746 0.082950 0.118654 0.106410 0.014124 0.129048 -0.071393 0.014348 -0.092280 -0.016010 0.132083 0.090379 -0.140114 -0.056658 0.084889 0.155928 -0.026973 -0.231100 -0.100173 0.025195 0.097171 -0.083070 -0.125442 0.048914 -0.075559 -0.016409 -0.056558 -0.035746 -0.187405 -0.032705 -0.049278 -0.039289 -0.088630 -0.038236 -0.049856 -0.051969 0.082014 0.034571 0.097961 0.229172 -0.111742 -0.064192 -0.087608 -0.060988 -0.036405 -0.150421 0.020494 0.137972 0.117739 -0.121301 -0.136961 0.034448 0.005757 0.113688 -0.159537 -0.192707 -0.024696 0.044769 0.106725 -0.276412 -0.075231 0.216174 -0.128895 -0.107418 -0.129834 -0.034097 0.161405 0.010270 0.060118 -0.127625 0.103713 -0.108058 0.085358 0.105431 0.193098 -0.127084 0.147823 -0.045755 -0.169289 -0.019381 -0.267965 0.109999 0.026631 -0.019702 0.008479 -0.106146 -0.223021 0.161444 0.007088 0.036303
225 -0.225240 -0.046236 -0.011778 0.078448 0.108600 0.208398 0.103711 0.070083 0.053318 -0.065429 0.073340 0.062826 0.051025 -0.110868 0.015474 -0.219404 0.182609 0.064066 -0.109410 0.003732 0.111077 0.032839 -0.077408 0.101379 0.063156 0.013020 0.019356 0.058289 0.107772 -0.134728 0.186694 -0.042636 -0.004907 -0.017489 0.002366 0.012198 -0.134101 -0.057454 -0.203604 0.105409 -0.061838 0.189542 -0.005587 0.011236 0.046035 0.058715 -0.124398 -0.016682 0.166329 0.076368 0.086659 -0.030765 0.248148 0.182353 -0.191591 0.018633 -0.188902 -0.114933 0.009254 0.010020 0.126410 0.133885 -0.245631 0.030461 -0.302618 -0.076256 -0.081832 -0.002360 -0.071562 0.065315 -0.092501 0.001863 0.152768 -0.058361 0.056302 0.103496 0.168663 0.145830 0.086600 -0.200360 -0.037564 -0.079455 -0.044601 -0.085628 0.224650 0.176884 0.146378 0.088416 -0.146297 0.078278 -0.024007 0.200193 -0.139046 -0.181312 -0.033697 -0.047608 0.020079 -0.236468 -0.172387 0.202780 -0.328636 -0.065400 -0.091556 -0.038501 0.177805 0.057930 0.245280 -0.013295 -0.243228 -0.116228 0.096493 0.085704 0.052511 -0.082181 0.219728 -0.073328 -0.210011 -0.067904 -0.128070 -0.007842 -0.138958 -0.044738 0.230219 -0.102312 -0.169643 -0.031733 -0.272771 -0.009181
224 -0.159239 -0.027923 0.102367 0.010839 0.058861 0.165902 0.135032 0.029441 -0.047794 -0.072138 -0.036347 -0.022742 0.199308 -0.234114 -0.071132 -0.182067 0.120995 0.167212 -0.057002 0.062470 0.176709 -0.002797 -0.014005 0.177616 -0.040402 0.098006 0.223383 -0.067200 0.035684 -0.030358 0.059999 -0.042643 -0.001204 -0.178976 -0.163814 -0.040412 -0.004116 -0.146770 -0.050614 0.182096 -0.068971 -0.022591 -0.124522 -0.057211 -0.054406 -0.041001 -0.069433 -0.067241 -0.194987 0.153554 0.106202 -0.097688 0.166402 -0.016790 -0.168976 -0.132467 -0.186865 -0.148952 -0.100237 0.178000 0.125845 0.057797 -0.141116 -0.059257 -0.192308 0.035376 -0.203694 -0.063119 -0.210739 0.060632 0.065126 -0.249619 0.170287 -0.097919 0.105465 0.174072 0.068488 0.157834 0.062253 -0.071677 -0.186577 -0.098689 0.001058 -0.151620 0.112196 0.210973 0.156485 0.124531 -0.159805 0.122209 -0.059150 0.183237 -0.163201 -0.138417 -0.047625 -0.053049 -0.055042 -0.218889 -0.125018 0.298124 -0.077480 -0.204279 0.177243 -0.005780 0.180658 -0.037863 0.126084 -0.215277 -0.083995 -0.056470 0.128891 0.160181 0.029083 -0.069043 0.141442 0.003784 -0.202100 -0.136133 -0.128716 0.129697 0.016017 -0.141302 -0.030401 -0.004972 -0.116907 -0.064936 0.014541 -0.067755
34 -0.137910 -0.127767 0.011749 -0.004901 0.164503 -0.032429 0.027797 0.138813 0.101399 0.150388 0.008733 0.148615 0.053705 -0.237881 -0.096887 -0.345000 0.132104 -0.062913 0.022453 0.183758 0.018545 -0.034070 0.119328 -0.065661 0.047762 -0.179446 0.110035 -0.052276 0.038288 -0.081115 0.097672 0.176579 -0.199434 -0.002829 -0.120631 0.097196 0.036444 0.245956 -0.058523 0.176501 0.005438 0.085228 -0.073605 0.019230 -0.201565 0.095597 -0.166489 0.036480 0.102268 0.131896 0.123535 -0.043938 0.226089 0.108843 0.038263 -0.116072 0.072540 -0.022853 -0.083706 0.023199 -0.034429 0.048554 -0.391640 -0.060666 -0.151948 -0.011097 0.034997 -0.054934 0.035022 0.287534 0.048204 -0.015493 0.029851 -0.000882 -0.154397 -0.045378 0.210994 0.173372 -0.049022 -0.279695 -0.141688 -0.140864 -0.149724 -0.131313 0.176653 0.252944 0.027732 -0.127978 -0.147981 0.071859 -0.039210 0.053352 -0.177947 -0.021462 -0.111256 0.060342 -0.152474 -0.170853 0.037543 0.103687 -0.309543 -0.083773 -0.135870 0.072513 0.003533 0.001248 0.321290 0.110873 -0.090374 -0.040990 -0.021201 0.193701 0.040137 -0.215862 0.330922 -0.112220 -0.180174 0.050862 -0.283446 0.123261 0.058457 -0.029650 0.174500 -0.032524 -0.226482 -0.039543 -0.264486 -0.022869
79 -0.257817 -0.126350 0.045279 -0.079000 -0.076052 0.026511 0.024512 0.109509 -0.182870 0.147129 0.011685 0.124000 0.220475 -0.316227 -0.128870 -0.229514 -0.048003 0.107975 -0.079826 0.048601 -0.034169 -0.081656 0.104239 0.048103 -0.088270 0.175185 0.161597 -0.068254 -0.016576 -0.190845 0.110727 0.139633 -0.103196 -0.113847 -0.082191 -0.121260 0.008568 0.128639 0.054265 0.002101 0.018498 0.115335 0.176631 -0.142832 -0.194202 0.014860 -0.078389 -0.085206 -0.090254 -0.049197 -0.139911 -0.108301 -0.116794 -0.075910 -0.229365 -0.275346 -0.115117 -0.265106 -0.086596 -0.021982 -0.020432 0.058899 -0.195879 -0.041110 -0.210636 -0.189899 -0.272854 -0.100314 0.044862 0.028568 0.116124 -0.031639 0.044789 -0.122869 -0.076259 -0.025358 0.170226 0.212063 0.044378 -0.067794 0.193563 -0.050599 -0.026697 -0.429361 0.124161 0.142697 0.165479 0.028833 -0.139270 0.189135 0.059960 0.272379 -0.280379 0.006559 -0.054986 0.116766 -0.063055 -0.044489 -0.060896 0.182675 -0.028935 -0.052940 0.145376 -0.044856 0.211956 -0.062083 -0.006950 0.067013 -0.054443 0.009603 0.076081 0.203302 0.039170 -0.265280 0.002045 0.082460 -0.209636 -0.004743 -0.198484 -0.001805 -0.003860 -0.009805 0.032930 0.024006 0.001659 0.248590 -0.019967 -0.084641
181 -0.249646 -0.163593 0.017822 -0.127068 0.004995 0.147675 0.007621 0.108857 0.011617 0.047740 0.028351 0.181669 -0.051201 -0.221673 -0.078994 -0.205276 0.046865 0.135450 -0.016599 0.051199 0.036825 -0.010459 0.023129 -0.045646 -0.060644 0.010565 -0.003714 0.041789 0.006505 -0.087030 0.165851 0.090901 0.057558 -0.055989 -0.039837 -0.015483 -0.035265 0.051455 -0.171038 0.083892 0.083812 0.286575 0.011453 -0.002227 -0.072566 0.110164 -0.183246 0.028598 0.113408 0.045202 -0.013841 -0.014093 0.155034 0.159910 -0.200898 -0.083327 -0.117973 -0.111670 -0.040568 -0.191495 -0.053429 0.048727 -0.223653 0.027897 -0.134332 -0.055565 -0.061290 -0.079193 -0.026145 0.043310 -0.075630 0.050367 0.140514 -0.155553 -0.063520 -0.053504 0.116843 0.185498 0.037116 -0.184072 -0.011215 -0.017035 -0.074045 -0.094717 0.036892 0.193506 0.183515 0.007736 -0.072439 0.150835 -0.007179 0.235834 -0.113684 -0.095962 -0.003403 -0.049974 0.033275 -0.206063 -0.027657 0.136541 -0.211192 0.035828 -0.192775 0.012797 0.246132 0.032103 0.138506 0.062017 -0.076294 -0.136223 0.008886 0.137759 0.119052 -0.176482 0.114589 -0.055853 -0.148592 0.082430 -0.244302 -0.002663 -0.010440 0.065620 0.136149 -0.012110 -0.138047 0.069113 -0.134186 0.013290
102 -0.264230 -0.194925 0.105512 -0.171464 0.137270 0.172516 -0.056937 0.021116 0.138159 -0.017238 0.145062 0.158532 0.090453 -0.203173 -0.052407 -0.118497 0.030123 0.054654 0.047029 -0.026098 0.036553 -0.030654 -0.047980 0.078759 -0.040392 -0.000383 0.058734 0.027043 0.013804 -0.136362 0.117009 -0.042034 -0.039152 -0.058195 -0.001969 0.054358 -0.089421 -0.003781 -0.049420 0.145356 0.051126 0.180965 -0.029008 -0.010321 -0.051420 0.024546 -0.208972 -0.027568 0.080886 0.102820 -0.098168 0.028924 0.212344 0.057952 -0.244729 -0.195385 -0.075160 -0.089420 -0.004287 0.040776 -0.089581 -0.036562 -0.121102 0.063381 -0.030586 -0.008975 0.011189 -0.081838 -0.048013 0.016397 -0.049936 -0.059862 0.149345 0.027554 0.076947 0.047573 0.170126 0.166401 0.068363 -0.143123 -0.095782 0.020043 -0.074203 -0.166571 -0.032064 0.187306 0.219012 -0.046849 -0.116368 0.159978 -0.100792 0.203257 -0.155424 -0.159838 -0.064209 -0.075771 -0.041652 -0.266778 -0.005304 0.227918 -0.055756 -0.024633 -0.214377 -0.011793 0.173408 -0.027489 0.128410 0.078860 0.003391 -0.060996 0.047731 0.139822 0.089113 -0.058812 0.090616 -0.035539 -0.000886 0.042121 -0.206166 0.111052 -0.017260 0.064421 0.042528 -0.040527 -0.150395 0.062472 -0.004471 0.082795
172 -0.252956 -0.089765 0.077235 -0.063241 0.178027 0.065862 0.053918 0.093167 0.062874 0.028109 0.132953 0.108559 0.144981 -0.223890 -0.131075 -0.293507 0.098113 -0.009238 0.006771 0.062899 -0.040889 -0.072636 0.139821 0.079680 -0.023806 -0.053253 0.100907 -0.001337 0.028371 -0.117881 0.091527 0.047049 -0.225282 -0.041967 0.009201 0.042700 -0.018386 0.142967 -0.016939 0.169313 -0.000405 0.045440 -0.032421 0.011302 -0.137561 0.040163 -0.181501 -0.013863 0.082879 0.133832 0.043296 -0.073340 0.159782 -0.019657 -0.038239 -0.148924 -0.029828 -0.070842 -0.020967 0.080416 -0.066874 -0.042630 -0.259951 -0.003376 -0.136547 -0.118444 0.043187 -0.089544 -0.068657 0.181387 -0.000680 0.004939 0.007213 0.005218 -0.077987 -0.042172 0.238686 0.123869 0.005755 -0.168484 -0.137812 -0.023386 -0.097425 -0.165056 0.196252 0.156678 0.109620 -0.023776 -0.182661 0.139795 -0.103224 0.117930 -0.240504 -0.072808 -0.085430 -0.039568 -0.106888 -0.197264 -0.005264 0.173031 -0.173367 -0.101501 -0.105832 -0.000865 0.027838 0.008684 0.272332 0.104075 -0.045708 -0.002085 -0.022914 0.132594 0.053805 -0.189368 0.217138 -0.047075 -0.100813 -0.004773 -0.215927 0.080647 -0.084830 0.064796 0.056031 -0.059619 -0.217942 0.050762 -0.145529 -0.021304
164 -0.162977 -0.187719 0.142158 -0.041577 0.010840 0.142196 0.046725 0.098532 -0.053082 -0.031501 0.049886 0.102523 0.102275 -0.197373 -0.118611 -0.149594 0.051987 0.138842 0.091536 0.111448 0.144565 -0.033689 0.090039 0.067390 -0.118128 0.142689 0.069365 -0.014029 -0.014688 0.034179 0.058394 0.054593 0.029360 -0.126209 -0.075618 -0.017032 0.061292 -0.069246 -0.052126 0.163889 -0.014713 0.082583 -0.099136 0.018398 -0.111657 0.090055 -0.161777 -0.009515 -0.087858 0.135100 0.036895 0.026824 0.101124 0.017392 -0.149867 -0.139850 -0.184902 -0.137923 -0.064589 -0.081986 -0.015566 -0.006108 -0.183686 0.031439 -0.037336 -0.036972 -0.092527 -0.201400 -0.130776 0.071688 -0.039351 -0.108591 0.151037 -0.082238 0.048716 0.077146 0.050093 0.250918 0.098280 0.029504 -0.156109 -0.036955 0.041636 -0.047832 -0.001160 0.187674 0.234823 0.027797 -0.094339 0.139576 -0.018609 0.261980 -0.070687 -0.161896 -0.051836 -0.090795 -0.006946 -0.283463 0.046850 0.150366 -0.147958 -0.117137 0.015564 0.030746 0.170345 -0.011785 0.086064 -0.018176 0.089693 -0.053358 0.001526 0.184748 0.108236 -0.138401 0.092428 -0.011867 -0.212951 0.021517 -0.236951 0.063432 -0.043087 -0.128575 0.039371 -0.047663 -0.177920 0.026928 0.074022 -0.084748
176 -0.315503 -0.184326 0.144421 0.009920 0.194848 0.073719 0.015166 0.061987 0.174007 -0.043163 0.236408 0.083823 0.146184 -0.164165 -0.010587 -0.210717 0.144847 -0.051428 0.059960 -0.049983 -0.008107 -0.052709 0.059600 0.174704 0.040079 0.068727 0.039113 -0.018876 0.044218 -0.123541 0.125281 -0.149644 -0.142082 -0.014227 0.093047 0.000093 -0.162545 0.072876 -0.052936 0.100681 -0.011612 0.106967 0.013668 -0.022649 0.038394 -0.070595 -0.203262 -0.038055 0.252654 0.092928 -0.049349 -0.057211 0.175907 0.028121 -0.136020 -0.178767 -0.085675 0.002943 0.069048 0.091184 -0.038793 -0.008897 -0.173809 0.032529 -0.184025 -0.129326 -0.108872 -0.029839 -0.065587 0.066241 -0.055980 -0.049410 0.126345 0.052897 0.062814 0.009948 0.307442 0.133655 0.053740 -0.134813 -0.085534 -0.039186 -0.017690 -0.229299 0.220844 0.152688 0.206890 -0.116788 -0.166488 0.150522 -0.118289 0.135784 -0.212191 -0.117562 -0.029342 -0.095211 -0.016031 -0.212115 -0.135754 0.165134 -0.108347 -0.090399 -0.178094 0.017224 0.129905 0.094716 0.249470 0.021771 -0.109871 0.056686 0.044241 0.103986 0.048936 0.023955 0.108230 -0.032721 -0.002809 -0.023495 -0.053764 0.002315 -0.163839 0.069040 0.057745 -0.103567 -0.230588 0.131585 -0.051337 -0.007194
14 -0.170846 -0.144189 0.152370 -0.102401 0.122407 0.146012 -0.144339 0.027246 -0.016768 0.027945 0.011190 0.173490 0.004401 -0.278119 -0.066728 -0.311258 0.033178 -0.003886 0.070186 -0.013117 0.265171 -0.005984 -0.050357 0.144727 -0.018645 0.010777 0.143961 0.041508 0.029915 -0.084739 0.112786 0.065569 -0.198047 -0.159080 0.084912 0.116743 -0.056252 0.052643 -0.026484 0.043997 0.102005 0.124347 0.022339 0.076010 -0.158615 0.147616 -0.133448 -0.026467 0.081234 0.093620 -0.183023 -0.032292 0.046538 0.138546 -0.055178 -0.245885 -0.063601 -0.064442 -0.006712 -0.028964 -0.157738 0.030108 -0.097656 0.021044 -0.116552 -0.073921 -0.164932 -0.116602 -0.031524 -0.002421 -0.047736 -0.033654 -0.198436 0.069416 0.093025 0.008614 0.025810 0.134774 -0.089712 -0.123365 -0.002542 -0.080514 -0.099830 -0.170126 0.078684 0.181028 0.145001 -0.033578 -0.186757 0.124634 -0.031051 0.104226 -0.129642 -0.222127 -0.107669 0.181606 0.036245 -0.201973 -0.072015 0.190124 -0.048725 -0.102263 -0.067774 -0.012114 -0.043511 -0.132566 0.046900 0.002626 0.082124 -0.021563 -0.005112 0.105303 0.092415 -0.277393 0.174506 -0.038295 -0.160034 -0.021789 -0.327202 0.034252 0.011033 0.046823 0.083138 -0.157493 -0.084250 0.130930 -0.003873 0.040524
154 -0.122178 -0.102469 0.077575 -0.092824 0.123135 0.191047 -0.106214 0.211812 0.100650 0.076741 0.086600 0.148221 0.098449 -0.114723 -0.113479 -0.179779 -0.040213 -0.003671 -0.029285 0.140969 0.161647 -0.064533 0.146406 0.109709 -0.218470 0.086314 -0.130209 -0.057458 -0.055921 -0.080172 0.040818 0.121940 0.023287 0.024469 -0.110548 0.116249 -0.065754 0.028969 -0.061336 0.281877 0.062119 0.131453 -0.009645 0.033100 -0.148021 0.113659 -0.305267 0.031215 0.071898 0.129345 -0.084566 -0.032796 0.163303 0.083667 -0.111746 -0.206602 -0.222764 -0.220183 0.018254 -0.090612 -0.016502 -0.121442 -0.062746 0.045407 0.094769 0.049562 0.041562 -0.093407 0.043083 0.208232 -0.065252 0.001630 0.260103 -0.183161 -0.105113 0.077855 0.091771 0.294916 0.031516 -0.197186 -0.069709 -0.004710 0.061076 -0.185889 -0.075268 0.217181 0.081820 -0.078838 -0.066912 0.048951 0.062348 0.160489 -0.119972 -0.200929 -0.158152 -0.047221 -0.018671 -0.213223 0.122846 0.308137 -0.157470 -0.021358 -0.144729 0.001909 0.143565 -0.021198 0.099892 0.008434 0.050205 -0.257761 -0.020271 0.129764 0.000055 -0.177399 0.178135 -0.214318 -0.114336 0.119653 -0.259755 0.198467 0.003715 -0.194016 0.037433 -0.047438 -0.055381 0.083169 -0.163917 -0.015140
207 -0.135912 -0.237866 0.069015 -0.029616 0.188236 0.071195 -0.078145 0.083909 0.203651 -0.032476 0.174496 0.109404 0.036497 -0.134764 0.020100 -0.191636 0.058132 -0.082532 0.049638 0.027867 0.293095 0.021701 -0.054669 0.148109 -0.020469 -0.027641 0.000081 -0.049430 0.064433 -0.081207 0.066414 -0.036879 0.012012 -0.010878 -0.009564 0.095768 -0.123447 0.075653 -0.048312 0.198611 0.054050 0.172141 -0.032652 0.049353 -0.038242 0.043420 -0.144905 -0.063095 0.165666 0.104743 -0.085382 -0.026433 0.217652 0.080369 -0.088769 -0.227085 -0.052173 -0.044098 0.071273 0.023860 -0.039678 0.065902 -0.129417 -0.014572 -0.065411 0.039814 -0.069867 0.005736 0.054565 0.107885 -0.048246 -0.061874 0.128264 0.046312 0.067998 0.093190 0.101798 0.131865 -0.057693 -0.214020 -0.095715 -0.064320 -0.061484 -0.227983 0.042133 0.223790 0.102833 -0.194540 -0.105901 0.018785 0.027753 0.089567 -0.068379 -0.213339 -0.095148 0.012660 -0.026017 -0.245827 -0.101594 0.355255 -0.114453 -0.137816 -0.209228 0.049323 0.156402 -0.029746 0.121545 -0.072310 -0.042331 -0.127765 0.080954 0.082315 0.045548 -0.067421 0.227455 -0.123745 -0.177596 0.002257 -0.165900 0.131199 0.052630 -0.114842 0.022966 -0.152859 -0.178355 0.038894 -0.106165 0.059468
61 -0.221327 -0.127690 0.213666 0.009055 0.081020 -0.048187 0.030245 0.141707 -0.082947 0.025308 0.208288 0.135008 0.157591 -0.262615 -0.174151 -0.220203 -0.113213 0.073995 0.073624 -0.035160 0.010654 -0.091506 0.163139 0.060509 -0.073070 0.199800 0.082880 -0.088668 0.037974 -0.115571 0.009178 -0.082320 -0.136508 -0.088237 0.034087 -0.009714 -0.094279 0.087448 0.115585 0.076013 0.019433 0.015901 0.173431 0.018188 -0.119066 -0.054476 -0.040693 -0.080725 0.056556 0.015988 -0.092999 -0.028969 0.026310 -0.029255 -0.025196 -0.237055 -0.029177 -0.133437 0.025596 -0.052158 0.025465 0.039781 -0.133132 0.071242 -0.077333 -0.137018 -0.170104 -0.108591 0.031209 0.053113 0.023669 -0.032817 -0.010801 0.038675 0.150684 0.141041 0.248328 0.312305 0.049353 0.039696 -0.035683 -0.037128 -0.015835 -0.281064 0.120408 0.049889 0.117184 -0.092470 -0.206301 0.032867 0.028016 0.247987 -0.312619 -0.084606 -0.153352 0.063469 0.008190 -0.296311 -0.015111 0.077359 -0.116875 -0.066347 0.000952 -0.149714 0.116522 -0.007659 0.127578 0.039227 0.154563 -0.002369 0.165190 0.205201 0.203857 -0.038570 0.113230 0.148678 -0.149305 -0.097688 -0.259283 0.036497 -0.097028 -0.064069 0.084381 0.005183 -0.176483 0.146616 -0.057605 -0.009078
187 -0.206165 -0.221405 0.091693 0.021174 0.145577 0.022587 0.036207 0.062193 0.182477 -0.045421 0.177570 0.075326 0.150078 -0.149627 0.047212 -0.201211 0.145151 -0.073542 0.088517 0.088752 0.137250 -0.002017 -0.032225 0.204335 0.061144 0.003387 0.173329 -0.043460 0.081005 -0.074855 0.072001 -0.017769 -0.111852 -0.050510 0.018653 0.032789 -0.063350 0.045938 0.007496 0.176285 -0.038828 0.080209 -0.071016 -0.040213 -0.045899 0.005788 -0.115382 -0.089599 0.095747 0.130755 -0.005209 -0.021341 0.196637 -0.035270 -0.095413 -0.188625 -0.020689 -0.024290 -0.037911 0.145138 -0.020642 0.014977 -0.199587 -0.065438 -0.155140 -0.016446 -0.107125 -0.065965 -0.087250 0.143053 0.034524 -0.159108 0.117132 0.133451 0.056451 0.058350 0.184555 0.078341 0.041734 -0.149866 -0.134722 -0.082092 -0.090938 -0.231070 0.170878 0.213216 0.167274 -0.110134 -0.152073 0.147539 -0.095504 0.106273 -0.129790 -0.142006 -0.089308 -0.024662 -0.124747 -0.184515 -0.124613 0.281267 -0.045813 -0.215398 -0.071535 0.100861 0.102189 0.000743 0.169687 -0.038083 -0.077722 0.030411 0.057559 0.110821 -0.011177 -0.089217 0.185510 -0.057203 -0.129559 -0.011053 -0.118552 0.040192 -0.013426 -0.070807 -0.014644 -0.105450 -0.206645 0.020756 0.013205 -0.021616
165 -0.288358 -0.143928 0.243519 -0.108252 0.141466 0.118569 -0.004235 0.077791 -0.032874 -0.039923 0.229597 0.108611 0.145005 -0.193808 -0.222759 -0.145886 0.011214 0.051044 0.067458 -0.038201 0.011977 -0.084885 0.230790 0.129623 -0.142486 0.130382 0.015507 -0.026207 -0.044587 -0.110185 0.055574 -0.068972 -0.124755 -0.146227 0.028687 -0.010540 -0.041181 0.020591 0.058408 0.170934 -0.012518 -0.023957 -0.003258 0.030422 -0.097917 -0.003045 -0.137500 0.001732 -0.043790 0.151044 0.032740 0.006573 0.111861 0.004841 -0.074265 -0.220326 -0.134438 -0.071244 -0.020509 0.066465 -0.095164 -0.081640 -0.138007 0.097158 -0.054178 -0.144441 0.001175 -0.161550 -0.139949 0.051432 -0.014798 -0.031853 0.068333 -0.027517 0.054123 0.037519 0.216889 0.257264 0.096982 0.053631 -0.137940 0.022410 0.043372 -0.126762 0.084621 0.130666 0.144942 0.004231 -0.190896 0.090899 -0.107216 0.255030 -0.223978 -0.105783 -0.065671 -0.083314 -0.039355 -0.309884 0.075531 0.130033 -0.184965 -0.049812 -0.045119 -0.087929 0.095341 0.026201 0.200933 0.035855 0.122545 -0.030087 0.027694 0.178518 0.165193 -0.047512 0.106058 -0.001010 -0.088397 -0.030804 -0.197234 0.132651 -0.160258 0.001574 0.010913 -0.041980 -0.201509 0.107528 -0.043423 0.008258
168 -0.177541 -0.106301 0.069305 -0.055965 0.102045 0.106459 0.052906 0.031587 0.033365 0.013072 0.072301 0.128850 0.133889 -0.228862 -0.068568 -0.241377 0.061713 0.019267 0.031615 0.041410 0.082258 -0.003811 0.003320 0.086208 0.033559 -0.031737 0.149298 -0.024217 0.029207 -0.093761 0.073047 0.015856 -0.157306 -0.111467 -0.052290 0.016539 -0.020973 0.051770 -0.010631 0.152935 0.012124 0.032090 -0.037704 0.023457 -0.113157 0.035776 -0.080456 -0.035060 -0.045702 0.100960 0.030654 -0.009966 0.150052 0.013399 -0.066659 -0.137774 -0.012894 -0.088229 -0.059119 0.122821 -0.028101 0.038075 -0.233412 0.004216 -0.125756 -0.052788 -0.031514 -0.091397 -0.085987 0.089085 0.034607 -0.102176 -0.016417 0.049024 0.070583 0.065316 0.117751 0.150529 0.019179 -0.116186 -0.149130 -0.076188 -0.117164 -0.175122 0.111824 0.170185 0.152078 0.003502 -0.171367 0.137123 -0.053148 0.148974 -0.188072 -0.113226 -0.076356 0.024339 -0.104687 -0.267462 -0.043208 0.214217 -0.130159 -0.140910 -0.037717 0.011036 0.062582 -0.079213 0.164892 0.041952 -0.026200 -0.035334 0.072358 0.158698 0.081671 -0.143058 0.201833 0.004333 -0.155886 -0.075067 -0.241763 0.112192 0.004284 -0.010544 0.071416 -0.026493 -0.173717 -0.052238 -0.060156 0.029082
200 -0.180911 -0.292847 0.191056 -0.098336 0.084497 0.041411 -0.119808 0.121644 0.085173 -0.028685 0.163082 0.129153 0.037885 -0.260501 -0.023471 -0.221520 0.001289 0.017579 0.196393 0.043816 0.209892 -0.067983 0.028642 0.119276 -0.109765 0.075885 0.049939 -0.056212 0.005723 0.027795 0.052411 0.009722 0.001037 -0.057138 -0.002909 0.081076 -0.033542 0.094406 -0.026208 0.132921 0.085685 0.177725 -0.042246 0.048596 -0.112495 0.056117 -0.223854 -0.045533 0.123585 0.123329 -0.167389 -0.037503 0.101620 0.048884 -0.088711 -0.261313 -0.052425 0.000557 0.036122 -0.083749 -0.149052 -0.012983 -0.110526 -0.004244 0.027197 0.033082 -0.129923 -0.053624 -0.027802 0.034258 -0.059922 -0.070172 0.078688 -0.020460 0.039222 0.027858 0.142698 0.192730 -0.045746 -0.087072 -0.115630 -0.020195 -0.065698 -0.185692 -0.046488 0.177881 0.191133 -0.172834 -0.099375 0.095055 -0.003921 0.118738 -0.094778 -0.192010 -0.070416 -0.025297 0.012329 -0.240098 -0.003494 0.198797 0.014095 -0.123693 -0.165686 0.069461 0.170195 0.025233 0.045013 -0.018000 0.107424 -0.056597 0.020203 0.115241 0.098994 -0.120474 0.071813 -0.044240 -0.059758 0.070726 -0.234520 0.109790 0.045566 -0.058134 -0.039692 -0.075520 -0.185495 0.158308 0.111440 -0.008856
52 -0.253916 0.060120 0.004017 -0.017036 0.060209 0.096089 0.201146 0.113766 -0.023296 -0.066949 -0.057996 -0.053421 -0.002659 -0.260823 -0.104772 -0.346759 0.180323 0.209635 -0.113417 -0.060445 -0.022857 -0.037343 0.006130 0.055982 -0.014487 -0.039301 0.137626 0.045773 0.064400 -0.079914 0.194222 0.031241 -0.088027 -0.014460 -0.022612 0.017848 -0.097576 0.034072 -0.163513 0.100979 -0.012522 0.126472 -0.006713 -0.003708 0.013179 0.005633 -0.110810 0.011717 0.067504 0.069817 0.098119 -0.181581 0.184755 0.056203 -0.090690 0.023013 -0.059865 -0.068615 -0.026223 0.026293 0.024824 0.079009 -0.292059 -0.141836 -0.298342 -0.087391 -0.067272 0.031268 -0.167194 0.104559 -0.009949 -0.003341 0.110994 -0.133370 -0.062686 -0.049909 0.213965 0.094236 -0.013304 -0.260421 -0.101020 -0.039745 -0.137068 -0.081892 0.258888 0.119903 0.052984 0.132934 -0.174537 0.144196 -0.040402 0.118562 -0.244550 -0.094468 -0.031831 -0.037539 -0.017278 -0.170300 -0.198202 0.196547 -0.282438 -0.096552 0.023933 0.002302 0.243633 0.059948 0.304119 -0.062733 -0.261190 -0.112554 0.087419 0.018886 0.056425 -0.187051 0.224647 -0.070602 -0.201464 -0.115873 -0.208102 0.084101 -0.077622 0.053315 0.096025 0.024146 -0.202952 -0.037164 -0.280151 -0.044538
19 -0.131618 -0.150965 0.196859 -0.060134 0.099441 0.140219 -0.153229 0.116370 0.055060 -0.025998 0.156044 0.137514 0.060753 -0.217965 -0.114929 -0.198316 -0.022513 -0.012614 0.079830 0.013623 0.196735 -0.082653 0.103873 0.165380 -0.159358 0.131818 -0.031714 -0.056655 -0.026165 -0.072427 0.036318 -0.003467 -0.050120 -0.112893 0.008835 0.104788 -0.109816 0.019769 0.004582 0.202258 0.057022 0.052485 0.009228 0.085528 -0.114354 0.052004 -0.190517 -0.047303 0.028399 0.084008 -0.141045 -0.031778 0.061479 0.065410 -0.063846 -0.249217 -0.146696 -0.123724 0.035521 0.012719 -0.096175 -0.060128 -0.028620 0.061692 0.044213 -0.045437 -0.088005 -0.099357 -0.058982 0.058407 -0.018451 -0.045459 0.054569 -0.058899 0.032964 0.078745 0.111188 0.256776 -0.009286 -0.067551 -0.071175 -0.033790 0.024311 -0.197380 0.016105 0.183666 0.146135 -0.060120 -0.171549 0.073007 -0.015008 0.167519 -0.155285 -0.234014 -0.117075 0.019671 0.018896 -0.228131 0.002528 0.227127 -0.034902 -0.079389 -0.080736 -0.023356 0.083931 -0.051644 0.039329 -0.049723 0.139755 -0.119691 0.012934 0.112703 0.090221 -0.143757 0.122455 -0.078181 -0.121351 0.001505 -0.264678 0.185371 -0.032867 -0.105662 0.005661 -0.088047 -0.146810 0.128823 0.018395 -0.007722
213 -0.195549 -0.070474 0.151168 -0.097804 0.091614 0.121957 0.131220 0.032078 0.040597 0.037760 0.028748 0.064060 0.212536 -0.267218 -0.163346 -0.201904 0.019697 0.136505 -0.028764 -0.015202 0.068115 -0.016574 0.092642 0.069762 -0.077635 0.045471 0.151055 -0.101897 -0.020709 -0.040460 0.043377 -0.090135 -0.075139 -0.114211 -0.206067 -0.028115 -0.036657 0.035909 -0.001323 0.180937 0.015648 -0.055973 -0.036795 -0.036176 -0.065641 -0.108616 -0.072174 -0.008276 -0.152860 0.128454 0.052966 -0.129534 0.173291 -0.049371 -0.140490 -0.172668 -0.056969 -0.043771 -0.043808 0.162793 0.045948 -0.007638 -0.155928 -0.064383 -0.135647 0.045688 -0.105492 -0.014609 -0.127180 0.054549 0.057792 -0.213387 0.166725 -0.070867 0.058208 0.137392 0.163202 0.200207 -0.000916 -0.069581 -0.219327 -0.070607 -0.057557 -0.227609 0.038574 0.159736 0.092744 -0.027043 -0.116393 0.021362 -0.060363 0.174960 -0.258769 -0.025491 -0.051301 -0.025785 -0.055212 -0.280524 -0.041640 0.326750 -0.117581 -0.112638 0.084653 -0.057983 0.212962 -0.068840 0.198029 -0.125372 -0.076464 -0.053744 0.168557 0.173129 0.096808 0.018532 0.146409 0.003032 -0.106031 -0.137109 -0.186292 0.234735 0.030285 -0.004838 -0.031024 0.086615 -0.161694 -0.055506 -0.091056 0.055301
28 -0.187633 -0.152949 0.085191 -0.183732 0.096234 0.132362 -0.141768 0.212529 0.024177 0.014985 0.228575 0.112717 -0.006598 -0.162585 -0.187501 -0.104202 -0.131526 0.092887 0.006330 0.026611 0.040297 -0.062135 0.160085 0.059800 -0.276632 0.099705 -0.131321 -0.023628 -0.080284 -0.133242 0.074449 0.090024 0.043086 0.013146 -0.018635 0.061392 -0.129011 0.068373 -0.013008 0.296731 0.071235 0.205295 0.112100 0.068513 -0.114599 0.026370 -0.284849 0.016120 0.069050 0.027029 -0.179787 0.007339 0.173437 0.066682 -0.113467 -0.280904 -0.189766 -0.232657 0.030376 -0.124568 -0.060939 -0.100253 -0.071077 0.044840 0.166785 -0.049233 0.111430 -0.129372 0.076574 0.108112 -0.086519 0.089312 0.281109 -0.166804 -0.031228 0.056718 0.232028 0.362883 0.046699 -0.162347 -0.033741 0.066349 0.022003 -0.152008 -0.167778 0.188703 0.073293 -0.088144 -0.134664 0.101153 0.074861 0.257657 -0.207460 -0.236779 -0.153401 -0.050751 -0.051398 -0.226417 0.144199 0.196881 -0.182707 0.067884 -0.246975 -0.055622 0.264911 0.012508 0.078323 0.113934 0.155622 -0.291871 -0.005963 0.106090 0.081864 -0.134082 0.120178 -0.120844 -0.059644 0.106854 -0.293869 0.190910 -0.027076 -0.090557 0.020608 0.055967 -0.139886 0.078752 -0.112996 0.078249
112 -0.168163 -0.082453 0.225293 -0.024280 0.072470 0.083983 -0.109309 0.127456 0.096958 -0.111960 0.091556 0.024587 -0.122801 -0.250551 -0.089509 -0.333167 0.129628 0.057177 0.161388 -0.039150 0.291437 -0.076780 0.150590 0.223371 -0.210368 0.099616 0.058867 -0.005587 -0.043941 0.098122 0.094944 0.027975 -0.051838 -0.142718 0.057957 0.138273 -0.078929 0.046417 -0.067839 0.108472 0.066509 0.130943 -0.083778 0.115337 -0.077882 0.122705 -0.211249 0.046517 0.091882 0.202133 -0.157454 -0.091172 0.053649 0.154530 -0.011389 -0.191603 -0.080538 0.027526 -0.003845 -0.070542 -0.236175 -0.115228 -0.071673 -0.088311 -0.037120 -0.004003 -0.223829 -0.098815 -0.241378 0.058616 -0.053089 -0.029112 0.007320 -0.113494 0.018415 -0.022549 0.130518 0.163447 -0.035503 -0.049458 -0.157984 -0.061088 0.003397 -0.021173 0.071009 0.182373 0.134253 -0.065334 -0.170681 0.094127 -0.116061 0.095489 -0.133928 -0.320183 -0.082268 0.057786 0.075290 -0.171119 -0.062010 0.174475 -0.054777 -0.089928 0.005657 0.116027 0.099915 -0.007331 0.143461 -0.185600 0.142299 -0.084062 -0.033317 0.019842 0.101988 -0.189058 0.079512 -0.143868 -0.140237 -0.017002 -0.250881 0.116265 -0.000938 -0.035331 -0.026372 -0.108474 -0.226258 0.171753 0.057942 -0.051656
123 -0.166200 -0.016574 0.211872 -0.140817 -0.052194 0.103507 0.126609 0.019749 -0.186646 0.091990 -0.065800 0.085792 0.188498 -0.361235 -0.273448 -0.267525 -0.059462 0.249865 -0.036093 -0.036510 0.103372 -0.046815 0.273664 0.013003 -0.234434 0.139482 0.177707 -0.146560 -0.100880 0.028413 0.025223 0.008172 -0.065172 -0.222818 -0.276024 -0.109814 0.035645 0.051720 0.081189 0.047152 0.036671 -0.132018 0.039368 -0.058032 -0.147421 0.009397 -0.003609 0.021198 -0.359987 0.106791 0.054019 -0.185468 -0.078514 -0.099297 -0.143437 -0.241323 -0.084218 -0.086591 -0.116870 0.075187 -0.027143 -0.027458 -0.136126 -0.041659 -0.189483 -0.032320 -0.263469 -0.066585 -0.176992 -0.022157 0.129610 -0.193411 0.067883 -0.235990 -0.025834 0.065505 0.053411 0.252862 -0.000200 0.126894 -0.134922 -0.073415 -0.014326 -0.270725 0.026208 0.147039 0.090475 0.033297 -0.092301 -0.009116 0.019630 0.252115 -0.253944 0.009505 0.005973 0.035606 -0.033389 -0.252984 -0.007276 0.316176 -0.126016 -0.077759 0.318811 -0.093792 0.248677 -0.121170 0.175238 -0.189584 -0.002404 -0.063460 0.168706 0.258598 0.156801 -0.098018 0.046388 0.068219 -0.283257 -0.189526 -0.250514 0.282382 0.042956 0.000817 -0.093053 0.116434 -0.059611 0.073696 -0.041389 0.004240
125 -0.051091 -0.150072 0.183413 0.031114 -0.074078 0.017430 -0.196218 0.194043 -0.081684 -0.061573 0.254113 0.146264 -0.010141 -0.242168 -0.070073 -0.186370 -0.139030 0.062145 0.091440 -0.061413 0.270059 -0.077694 0.143962 0.137238 -0.234504 0.327083 -0.081254 -0.194673 -0.009749 0.015736 -0.002022 -0.055047 0.132450 -0.189194 -0.079447 0.028945 -0.183673 0.051996 0.123849 0.144514 0.033718 0.074196 0.138888 0.080986 -0.136229 0.004193 -0.092589 -0.132299 -0.143498 0.000768 -0.206334 -0.049356 -0.087992 0.060816 -0.094494 -0.319949 -0.126750 -0.117043 0.017438 -0.066038 -0.068964 0.028204 0.016090 0.068994 0.036523 -0.014990 -0.329547 0.007362 -0.040429 -0.019317 0.112212 -0.056832 0.030059 -0.170231 0.139276 0.209309 0.143057 0.343123 -0.045457 0.122124 0.001561 -0.037604 -0.005528 -0.336502 0.004916 0.130626 0.127686 -0.133222 -0.169706 -0.056212 0.148810 0.269515 -0.197826 -0.239532 -0.141723 0.055850 0.073693 -0.288676 -0.082406 0.258388 -0.015143 -0.093904 0.078238 -0.091724 0.240766 -0.046481 -0.035878 -0.159695 0.200026 -0.145347 0.189619 0.160071 0.149033 -0.085319 -0.012433 0.064864 -0.266226 -0.071563 -0.226028 0.251298 0.030975 -0.241106 -0.043510 0.040197 -0.142870 0.220409 0.102527 -0.004467
150 -0.277199 -0.128908 0.027683 -0.075123 0.118365 0.043644 0.076691 0.128168 -0.044052 0.069479 0.008879 0.073690 0.070027 -0.279223 -0.116875 -0.342382 0.104445 0.055275 -0.049324 0.063880 -0.068857 -0.067674 0.089144 0.005646 0.005639 -0.081049 0.112672 0.032592 0.062748 -0.148386 0.152790 0.130591 -0.185784 -0.010180 0.012031 0.004021 0.005510 0.194523 -0.089067 0.084499 0.013413 0.143213 0.027277 0.016133 -0.124679 0.068964 -0.184063 -0.004529 0.139019 0.042409 0.034129 -0.117826 0.109190 0.002370 -0.060425 -0.099865 -0.017816 -0.109878 -0.005271 -0.051404 -0.047154 0.084220 -0.334852 -0.062685 -0.226082 -0.166037 0.002257 -0.050104 0.025949 0.177799 -0.031239 0.074833 -0.023182 -0.053017 -0.172737 -0.131849 0.189555 0.119610 -0.059419 -0.265406 -0.023001 -0.014714 -0.143796 -0.189354 0.227826 0.128210 0.080662 0.006320 -0.158295 0.172566 -0.001620 0.098816 -0.227537 -0.003274 -0.039136 0.018272 -0.054961 -0.132813 -0.052137 0.128445 -0.249428 -0.118234 -0.111977 -0.002298 0.097669 0.039078 0.250381 0.150885 -0.148846 -0.013577 0.007659 0.105018 0.047962 -0.315390 0.245561 -0.031384 -0.171163 0.018190 -0.265635 -0.015985 -0.049624 0.083195 0.127846 -0.062465 -0.178618 0.091822 -0.233441 -0.050664
37 -0.268109 -0.194143 0.207233 -0.057770 0.188488 0.045722 -0.038422 0.086462 0.191690 -0.063923 0.258468 0.101336 0.132264 -0.200068 -0.033602 -0.205162 0.072674 -0.041355 0.126203 0.010904 0.071028 -0.072852 0.055336 0.200492 -0.043551 0.048549 0.106129 -0.023839 0.054001 -0.075931 0.082440 -0.058539 -0.127524 -0.048646 0.092288 0.080089 -0.081925 0.081226 0.027515 0.179973 0.028961 0.100077 -0.018828 -0.004344 -0.078910 0.017115 -0.187716 -0.061205 0.151069 0.158144 -0.080220 -0.052312 0.160874 -0.020397 -0.102204 -0.220510 -0.018807 -0.005511 0.025266 0.056741 -0.123636 -0.063076 -0.153737 -0.010242 -0.046668 -0.042770 -0.030193 -0.071155 -0.072706 0.124827 -0.012085 -0.067935 0.090901 0.079073 0.035677 -0.003534 0.241060 0.124464 0.019268 -0.106834 -0.129255 -0.008307 -0.053613 -0.214404 0.110959 0.158802 0.147398 -0.129400 -0.150639 0.127577 -0.130205 0.102292 -0.180204 -0.157329 -0.107023 -0.048028 -0.044362 -0.218852 -0.057793 0.222042 -0.010045 -0.156370 -0.164079 0.031487 0.088443 0.028489 0.168483 -0.004245 0.042321 0.010757 0.020566 0.101183 0.056681 -0.093465 0.120136 -0.055019 -0.039703 0.020525 -0.145255 0.057884 -0.055321 -0.001634 -0.044911 -0.101835 -0.193410 0.126030 0.016688 -0.009359
40 -0.282254 -0.169568 0.060858 -0.124677 -0.010417 0.072497 0.006138 0.106717 -0.134438 0.146922 -0.039036 0.146778 0.158946 -0.335699 -0.113723 -0.302227 -0.016497 0.080732 -0.047576 0.063176 0.006667 -0.065571 0.091561 0.018555 -0.076382 0.069050 0.141550 -0.043560 -0.009586 -0.145506 0.118443 0.155656 -0.153894 -0.088196 -0.051346 -0.076798 0.042114 0.169629 -0.026086 0.024801 0.059994 0.166174 0.096850 -0.074904 -0.207508 0.093167 -0.173200 -0.070948 -0.019195 0.005464 -0.135273 -0.124399 -0.061815 -0.062250 -0.193583 -0.242225 -0.071227 -0.197731 -0.059795 -0.091986 -0.060019 0.077115 -0.221142 -0.041813 -0.194258 -0.155756 -0.183692 -0.115007 0.061916 0.078886 0.021496 -0.007363 -0.030086 -0.090868 -0.115675 -0.112894 0.088905 0.182162 -0.034713 -0.147327 0.089173 -0.026707 -0.087641 -0.354730 0.114894 0.137440 0.156622 -0.023828 -0.128748 0.208375 0.021139 0.175074 -0.218762 0.000732 -0.038805 0.091022 -0.024542 -0.058273 -0.010381 0.151874 -0.023237 -0.074075 0.042119 -0.018526 0.145538 -0.062800 0.040677 0.113851 -0.044142 0.019587 0.017202 0.157341 0.042028 -0.311250 0.079015 0.034627 -0.137919 0.032467 -0.253822 -0.036803 0.044405 0.079646 0.032041 -0.037182 -0.032449 0.233701 -0.028685 -0.059793
186 -0.257775 -0.185766 0.113543 -0.114793 0.157947 0.135148 -0.087970 0.023946 0.060036 -0.071894 0.242148 0.124866 0.132289 -0.192759 -0.052322 -0.161577 0.011047 0.006147 0.054348 -0.021199 0.112397 -0.030024 -0.048071 0.162441 -0.033149 0.051786 0.071604 0.001666 0.035826 -0.150496 0.078730 -0.058463 -0.114383 -0.127482 0.051496 0.034358 -0.113714 0.027899 0.021460 0.184512 0.022024 0.127827 -0.007291 0.033291 -0.110515 0.014457 -0.152396 -0.100961 0.036060 0.085645 -0.062756 0.008965 0.158419 0.039828 -0.143020 -0.263667 -0.104014 -0.127596 0.011040 0.102137 -0.065319 0.027847 -0.128099 0.079759 -0.026120 -0.092706 -0.000357 -0.093268 -0.021830 -0.001251 -0.012361 -0.028088 0.031956 0.065833 0.119912 0.046221 0.150396 0.132817 0.028473 -0.085764 -0.050475 -0.003839 -0.064737 -0.212598 0.040434 0.158278 0.191432 -0.026243 -0.209241 0.168074 -0.069004 0.184185 -0.176540 -0.180035 -0.084916 -0.027800 -0.070756 -0.259917 -0.037871 0.238577 -0.013247 -0.102814 -0.153416 -0.036642 0.098266 -0.045191 0.074252 0.040165 0.058963 -0.044460 0.027447 0.150867 0.115671 -0.094674 0.101094 0.025105 -0.079468 -0.012822 -0.180120 0.070494 -0.036764 0.029983 -0.033615 -0.071796 -0.133257 0.075217 0.047097 0.052946
69 -0.191746 -0.101852 0.075074 -0.232193 -0.075388 0.156589 0.044484 0.035075 -0.021848 0.032108 0.104824 0.133254 0.043817 -0.284257 -0.105145 -0.028665 -0.223982 0.293253 -0.031481 -0.084738 -0.008685 0.043873 -0.059120 -0.060061 -0.140321 0.101805 0.085038 -0.050436 -0.084545 -0.132830 0.077570 0.030216 0.058264 -0.074961 -0.114370 -0.030375 -0.114137 -0.031170 -0.006646 0.208449 0.101714 0.247755 0.168455 -0.094979 -0.052255 0.010650 -0.086911 -0.058179 -0.122697 -0.069740 -0.185232 0.033086 0.140159 0.046211 -0.345095 -0.212447 -0.106717 -0.240768 -0.088923 -0.057894 0.039559 0.025007 -0.070027 0.012550 0.038089 0.039871 -0.065908 -0.141922 0.012940 -0.066106 0.051963 -0.095085 0.336553 -0.071300 0.164688 0.166250 0.199708 0.359791 0.128538 -0.091123 -0.029501 0.057794 -0.069686 -0.237055 -0.276336 0.194343 0.142272 -0.002559 -0.101189 0.101050 0.071630 0.387852 -0.204275 -0.163293 -0.125060 0.034833 -0.109966 -0.305850 0.035835 0.196772 -0.050299 0.087325 -0.070962 -0.110169 0.433394 -0.110636 0.013664 0.021773 0.086232 -0.231620 0.176270 0.192411 0.117974 -0.032239 0.019377 0.021350 -0.078641 -0.060915 -0.337297 0.190242 0.034394 0.027526 0.062780 0.191127 -0.048249 -0.036822 -0.000649 0.189499
143 -0.264148 -0.131497 0.049354 -0.096213 0.051096 0.096270 0.012072 0.126327 -0.074676 0.062087 0.039861 0.078583 0.056758 -0.247466 -0.114529 -0.273205 0.042382 0.093122 -0.030288 0.004111 -0.019782 -0.061349 0.141151 0.043866 -0.102419 0.023758 0.059255 0.026554 -0.011893 -0.108632 0.166519 0.106448 -0.120819 -0.046870 -0.015883 -0.035908 -0.015519 0.147202 -0.091358 0.077947 0.023973 0.163411 0.067433 -0.015672 -0.095853 0.078013 -0.196871 0.023662 0.072362 0.053088 -0.049290 -0.102700 0.029196 0.033475 -0.144621 -0.162674 -0.111221 -0.136840 -0.018050 -0.076306 -0.071175 0.020621 -0.249162 -0.035855 -0.186155 -0.177303 -0.078181 -0.067402 -0.012753 0.079102 -0.044229 0.065898 0.087270 -0.139288 -0.145606 -0.107860 0.184156 0.186895 0.018230 -0.154952 0.032407 -0.007158 -0.078963 -0.197459 0.121081 0.138139 0.105432 0.010081 -0.111809 0.140971 0.008636 0.188402 -0.197501 -0.073339 -0.004479 0.023357 -0.029302 -0.118210 -0.029991 0.141069 -0.219463 -0.049269 -0.037781 0.000826 0.188138 0.018988 0.159814 0.108327 -0.103972 -0.082791 -0.009564 0.112302 0.044858 -0.248034 0.096272 -0.044497 -0.154287 0.025376 -0.221151 0.029356 -0.064246 0.071991 0.072085 -0.023218 -0.102403 0.151517 -0.139298 -0.036816
115 -0.162098 -0.086970 0.090145 -0.136302 0.032083 0.259379 -0.051446 -0.025493 -0.045080 0.012798 -0.055304 0.089074 0.153593 -0.249717 -0.032349 -0.144401 -0.006090 0.146577 -0.032890 0.026969 0.181785 0.037721 -0.172177 0.127785 -0.021668 0.078239 0.161686 0.001242 0.031620 -0.135771 0.110734 0.048420 -0.012768 -0.212650 -0.089765 0.030353 -0.045038 -0.138808 -0.087665 0.163973 0.004715 0.139830 -0.028849 -0.045613 -0.101512 0.043285 -0.116517 -0.067761 -0.125563 0.064892 -0.082222 0.018968 0.185952 0.131914 -0.266895 -0.176317 -0.221830 -0.240737 -0.101527 0.129745 0.022818 0.054575 -0.055533 0.054500 -0.071359 0.015178 -0.143537 -0.076510 -0.108857 -0.056778 0.027485 -0.191751 0.099446 -0.045068 0.162209 0.164062 0.038854 0.187962 0.064151 -0.124618 -0.044429 -0.112441 -0.027896 -0.170283 -0.075748 0.230588 0.230690 0.138872 -0.176207 0.193817 -0.039173 0.188429 -0.163925 -0.226276 -0.054008 0.028490 -0.040423 -0.243530 -0.079734 0.268717 0.042047 -0.087918 0.004216 -0.037022 0.151416 -0.146576 -0.033386 -0.082060 0.001893 -0.150829 0.099567 0.176862 0.037839 -0.125233 0.052318 0.003845 -0.101021 -0.015306 -0.228437 0.099833 0.084593 -0.040925 0.033562 -0.002397 -0.008017 -0.028866 0.072253 0.037237
221 -0.249834 -0.186871 0.165661 -0.049728 0.165522 0.070738 0.051470 0.030432 0.166490 -0.074012 0.214026 0.025818 0.180573 -0.161481 0.016381 -0.139833 0.092524 0.006982 0.080377 -0.008950 0.092864 -0.003080 -0.034162 0.183770 0.006618 0.056675 0.115474 -0.047278 0.068115 -0.113589 0.074130 -0.130847 -0.080475 -0.053313 0.032129 0.033393 -0.112118 0.030746 -0.014610 0.170536 -0.038663 0.081988 -0.024537 -0.004479 0.048962 -0.065551 -0.163824 -0.073325 0.120113 0.090134 -0.070288 -0.036602 0.217833 -0.037314 -0.176609 -0.178643 -0.089355 0.004740 0.035794 0.124744 -0.022510 0.017412 -0.141983 -0.015292 -0.114289 -0.006004 -0.067050 -0.043060 -0.091693 0.059885 -0.030215 -0.160778 0.177660 0.118852 0.119643 0.107391 0.243975 0.133258 0.008564 -0.118079 -0.150123 -0.029703 -0.041645 -0.242278 0.084895 0.144030 0.171655 -0.098510 -0.137766 0.115186 -0.041514 0.124489 -0.157154 -0.149917 -0.054695 -0.088134 -0.045211 -0.260469 -0.127032 0.265817 -0.058833 -0.144241 -0.135629 0.020117 0.182729 0.033624 0.176425 -0.063249 -0.076672 0.017048 0.136986 0.091638 0.018676 0.019567 0.134323 -0.045216 -0.048656 -0.024301 -0.088285 0.076479 -0.085315 -0.019249 0.006514 -0.074034 -0.211879 0.043247 -0.007172 0.041933
140 -0.183684 -0.040007 0.122436 0.005273 0.059119 0.105926 0.072643 -0.015865 -0.037731 -0.028412 -0.001600 0.036786 0.243537 -0.259137 -0.074580 -0.226643 0.079270 0.113755 -0.028779 0.022824 0.120293 -0.028005 -0.074763 0.171850 0.023207 0.109595 0.288023 -0.038790 0.061657 -0.104026 0.062049 -0.054382 -0.114751 -0.161857 -0.104219 -0.014522 -0.048983 -0.059216 0.009635 0.120708 -0.032871 -0.012388 -0.043059 -0.085517 -0.084384 -0.060308 -0.039506 -0.095162 -0.134412 0.099784 0.035657 -0.103877 0.119550 -0.017709 -0.121661 -0.159389 -0.107458 -0.113954 -0.099533 0.188294 0.075335 0.079146 -0.167013 -0.046915 -0.218451 0.004123 -0.245190 -0.044421 -0.164233 0.012805 0.101653 -0.244244 0.049779 -0.013302 0.120661 0.127561 0.121189 0.133880 0.041639 -0.076863 -0.076859 -0.132898 -0.054655 -0.248379 0.169804 0.182779 0.150686 0.095255 -0.204218 0.129179 -0.093805 0.196053 -0.247702 -0.110161 -0.066122 0.038824 -0.062117 -0.202091 -0.161948 0.253510 -0.007494 -0.187623 0.163360 -0.017102 0.128764 -0.060865 0.087635 -0.144163 -0.092983 -0.010847 0.132999 0.160985 0.037792 -0.093789 0.139488 0.050069 -0.157093 -0.140412 -0.135866 0.078125 -0.011421 -0.039149 -0.002821 -0.003436 -0.065250 0.006835 0.008988 -0.044426
237 -0.196277 -0.035074 0.113689 0.004840 0.022591 0.128313 0.099637 0.075975 0.067956 -0.051580 -0.005842 0.042682 -0.025374 -0.261020 -0.002846 -0.329700 0.195634 0.122198 0.045433 0.036474 0.158548 -0.019464 0.007030 0.144490 -0.036184 0.015126 0.188563 0.035111 0.016132 0.061053 0.155242 0.105565 -0.066049 -0.079209 -0.030105 0.049197 0.004172 0.035488 -0.106716 0.077808 0.034172 0.183659 -0.094610 -0.018009 -0.065662 0.160444 -0.158702 0.046160 0.020552 0.206652 -0.029962 -0.087483 0.101481 0.076550 -0.130756 0.000706 -0.036613 0.021502 -0.084562 -0.090058 -0.093558 -0.030770 -0.229178 -0.108971 -0.202030 0.024709 -0.171607 -0.053620 -0.224749 0.108254 -0.038387 -0.074586 0.066434 -0.095890 -0.005328 -0.006914 0.110519 0.104416 0.034360 -0.103271 -0.130521 -0.070602 -0.093186 -0.068415 0.127261 0.179824 0.145607 0.034926 -0.085468 0.114589 -0.098530 0.128535 -0.088849 -0.215125 -0.054555 0.040124 0.010056 -0.188982 -0.139240 0.186543 -0.168338 -0.135540 0.045914 0.118505 0.151211 0.001151 0.206009 -0.102667 -0.088450 -0.056040 0.024804 0.057703 0.008897 -0.238727 0.113111 -0.099619 -0.188886 -0.040312 -0.195634 0.066771 -0.030495 -0.002759 0.061475 -0.067791 -0.154620 0.061174 -0.077531 -0.051590
15 -0.105693 -0.173043 0.047983 -0.118984 0.122533 0.152309 -0.147758 0.197604 0.114321 0.055563 0.208228 0.177735 0.151952 -0.126298 -0.091919 -0.155665 -0.128342 -0.028861 -0.040487 0.141263 0.190252 -0.051065 0.109430 0.108851 -0.210385 0.115037 -0.080029 -0.075831 -0.032491 -0.143519 0.016100 0.116551 0.028791 0.041003 -0.107593 0.070235 -0.114543 0.068405 0.047198 0.320725 0.039868 0.143867 0.036223 0.019653 -0.164632 0.094370 -0.290430 -0.038222 0.003806 0.052196 -0.130082 -0.023861 0.129407 -0.001634 -0.123784 -0.308045 -0.176511 -0.284566 0.028734 -0.074046 0.031451 -0.050134 -0.058832 0.039500 0.128001 0.041177 0.052093 -0.100366 0.159578 0.211723 -0.007758 -0.020591 0.286858 -0.133239 -0.057236 0.117353 0.118185 0.302013 0.050706 -0.194764 -0.003217 0.017943 0.051853 -0.307378 -0.117849 0.217241 0.077581 -0.157662 -0.100954 0.060602 0.108789 0.209749 -0.113801 -0.220205 -0.233127 0.003570 -0.078961 -0.157983 0.118218 0.352906 -0.078168 -0.045830 -0.168439 -0.004890 0.177130 -0.079468 0.017794 0.040135 0.096499 -0.258947 0.004781 0.119682 -0.030632 -0.183947 0.168253 -0.141475 -0.128637 0.107891 -0.228946 0.207507 0.043665 -0.226338 -0.005732 -0.026504 -0.042876 0.072194 -0.126039 0.024418
106 -0.113302 -0.240169 0.118422 -0.054203 0.133222 0.091127 -0.159899 0.077409 0.105413 -0.010658 0.144137 0.083003 0.061464 -0.195629 0.027578 -0.202219 0.017562 -0.060926 0.060306 0.019361 0.242115 -0.009933 -0.057009 0.144017 -0.057144 0.045402 0.011825 -0.074049 0.063150 -0.088572 0.064738 -0.034019 -0.025702 -0.059187 -0.004919 0.095478 -0.126111 0.087441 -0.060516 0.145191 0.044363 0.157790 -0.013092 0.059122 -0.057510 0.031614 -0.200623 -0.084444 0.162121 0.045618 -0.180715 -0.033813 0.123095 0.095402 -0.131072 -0.254716 -0.130713 -0.050065 0.091336 0.002315 -0.044029 0.066775 -0.059603 0.007083 -0.069021 0.011487 -0.167532 0.018781 0.045727 0.049983 -0.061672 -0.078484 0.063280 0.003605 0.033359 0.087967 0.130771 0.196492 -0.087483 -0.185588 -0.022562 -0.060659 -0.064217 -0.311353 0.015150 0.198807 0.148738 -0.178919 -0.144419 0.023643 0.052013 0.087440 -0.123855 -0.204412 -0.081820 0.041246 0.029055 -0.232526 -0.098166 0.302481 -0.050153 -0.114550 -0.160931 -0.003784 0.129337 -0.030292 0.055838 -0.063365 -0.016146 -0.073492 0.088771 0.086439 0.016491 -0.121620 0.143407 -0.077784 -0.122524 0.021639 -0.169504 0.107346 0.010342 -0.069993 0.043024 -0.132265 -0.139430 0.142378 -0.022279 0.039920
157 -0.155254 -0.152170 -0.019215 -0.168518 0.047291 0.114730 -0.135277 0.258105 0.061326 0.135511 0.092156 0.156887 0.062137 -0.172958 -0.148922 -0.149576 -0.183114 0.068542 -0.075077 0.158098 0.096962 -0.062104 0.090999 0.040153 -0.238950 0.104158 -0.053476 -0.049102 -0.058065 -0.169087 0.062235 0.211805 0.065974 0.089800 -0.108098 0.063546 -0.085967 0.084800 -0.024155 0.292985 0.126187 0.277603 0.122801 -0.009894 -0.193631 0.089924 -0.295075 -0.009550 0.085479 -0.005778 -0.209435 -0.055793 0.135320 0.027410 -0.148047 -0.307952 -0.173646 -0.351970 0.021809 -0.204431 -0.001433 -0.073778 -0.074602 -0.030725 0.158983 0.016042 0.054779 -0.143398 0.203640 0.220225 -0.027509 0.066299 0.330882 -0.173847 -0.126006 0.034002 0.138572 0.335460 0.049521 -0.318757 0.048883 0.041535 0.032584 -0.288766 -0.179005 0.217262 0.060391 -0.123346 -0.103304 0.138243 0.137468 0.233153 -0.171534 -0.176351 -0.228078 0.036100 -0.089775 -0.095372 0.160198 0.282711 -0.057044 0.037312 -0.210547 0.012515 0.266925 -0.070088 -0.029005 0.087549 0.112147 -0.306610 -0.003967 0.082233 -0.014391 -0.257869 0.171467 -0.154970 -0.086077 0.172311 -0.304343 0.105424 0.106328 -0.184890 0.009434 0.037952 0.005902 0.104187 -0.164041 0.021549
5 -0.271143 -0.148851 0.098818 -0.122482 0.133578 0.093597 0.047417 0.017521 0.004340 -0.005507 0.112288 0.133897 0.072501 -0.241207 -0.136085 -0.265630 0.078010 0.022581 0.029275 0.002719 0.048364 -0.028282 0.079463 0.080807 -0.024973 -0.056060 0.124978 0.027242 -0.002347 -0.087793 0.100512 0.018417 -0.194329 -0.118011 0.016003 -0.009847 -0.003813 0.118247 0.010622 0.097339 0.054002 0.054702 -0.036015 0.027551 -0.141301 0.071033 -0.127134 -0.015219 -0.004691 0.121716 0.019412 -0.055081 0.107417 -0.012462 -0.062922 -0.190025 -0.011565 -0.031183 -0.035906 0.028602 -0.121598 0.007101 -0.245136 0.012207 -0.164230 -0.115656 -0.014579 -0.097069 -0.073749 0.054243 -0.025516 -0.010737 -0.066488 0.012219 -0.007459 -0.066055 0.124099 0.088541 -0.026601 -0.086514 -0.097990 -0.015572 -0.123610 -0.148100 0.142272 0.154770 0.153239 -0.003685 -0.164548 0.140366 -0.086629 0.166746 -0.171254 -0.069923 -0.041143 0.010404 -0.070973 -0.250160 -0.019237 0.205618 -0.174590 -0.117491 -0.066758 -0.006015 0.071346 -0.036685 0.222302 0.068225 -0.032873 0.009462 -0.008209 0.159077 0.123140 -0.211990 0.160941 0.002761 -0.154016 -0.024651 -0.234362 0.079370 -0.057349 0.106869 0.031812 -0.083065 -0.190360 0.069747 -0.070012 0.039132
39 -0.312118 -0.132985 -0.002755 -0.116968 0.091337 0.201281 -0.065684 0.064247 0.014120 0.057591 -0.020671 0.145735 0.027510 -0.223524 0.037137 -0.280843 0.087148 0.030822 -0.069297 -0.001877 0.112198 0.011560 -0.059719 0.089282 -0.028265 -0.023700 0.044850 0.054970 0.062373 -0.174453 0.246882 0.081451 -0.103151 -0.126688 0.046017 0.008742 -0.069550 0.099988 -0.191082 -0.000322 0.063739 0.314361 0.050190 -0.026171 -0.092328 0.162815 -0.195125 0.007770 0.179342 0.043420 -0.132130 -0.011487 0.099507 0.187541 -0.267451 -0.123836 -0.142932 -0.144524 0.001425 -0.081305 -0.091978 0.118360 -0.216874 0.026812 -0.259918 -0.133127 -0.125442 -0.006858 0.041276 0.032213 -0.067674 0.094967 -0.021672 -0.044604 -0.059774 -0.075255 0.096820 0.129091 -0.010788 -0.230889 0.126509 -0.058906 -0.110786 -0.199942 0.121084 0.177273 0.187800 0.036025 -0.128505 0.176119 -0.001797 0.122283 -0.125872 -0.144611 -0.000826 0.074862 0.036725 -0.134928 -0.121142 0.185903 -0.200868 0.013714 -0.161610 -0.011872 0.132452 -0.046916 0.099918 0.101328 -0.164652 -0.074372 0.014602 0.124322 0.037086 -0.259235 0.072980 -0.061526 -0.156025 0.051217 -0.186400 -0.086551 0.015094 0.109369 0.168019 -0.093796 -0.029100 0.158243 -0.151123 0.008471
12 -0.235937 -0.137999 0.149177 -0.173557 0.040074 0.062525 0.020339 0.072828 -0.156430 0.087367 0.109063 0.112575 0.053183 -0.237941 -0.271220 -0.246239 -0.055217 0.131308 0.024217 -0.002544 0.019669 -0.034522 0.296589 -0.038662 -0.226059 0.028256 0.055627 -0.027030 -0.088730 -0.056123 0.096997 0.117202 -0.164546 -0.108924 -0.067987 -0.042444 0.038621 0.215150 0.039693 0.131231 0.033662 -0.005720 0.082536 0.027193 -0.201108 0.130776 -0.111300 0.041116 -0.122485 0.094042 -0.006221 -0.091025 0.007488 -0.034485 -0.024081 -0.227052 -0.052445 -0.070024 -0.055924 -0.057087 -0.094751 -0.023897 -0.254864 0.011279 -0.124350 -0.147797 0.014442 -0.147114 -0.001655 0.097265 -0.008854 0.054780 0.024774 -0.124751 -0.084969 -0.085883 0.177349 0.285189 -0.007993 0.027624 -0.072354 0.003440 -0.041726 -0.152507 0.018886 0.151098 0.028712 -0.053688 -0.147075 0.020792 0.007542 0.223884 -0.199616 -0.067124 -0.041241 0.034492 -0.054889 -0.237196 0.129461 0.128944 -0.305925 -0.052940 0.028037 -0.065204 0.143818 -0.054652 0.198534 0.086321 0.093763 -0.139487 -0.028906 0.180816 0.165543 -0.221383 0.151384 -0.029496 -0.244235 -0.016059 -0.322205 0.144666 -0.058979 0.059236 0.034654 0.003782 -0.180136 0.121675 -0.183012 0.038943
113 -0.048160 -0.081465 0.160190 -0.045789 0.030439 0.197650 -0.100589 0.125469 -0.000905 0.014357 0.061076 0.101082 0.170967 -0.190039 -0.143837 -0.115855 -0.066696 0.075611 -0.012272 0.086184 0.273566 -0.024803 0.086834 0.173100 -0.212936 0.200382 0.008762 -0.133497 -0.057860 -0.039130 -0.021328 0.019491 0.060921 -0.155557 -0.191823 0.042759 -0.083847 -0.096244 0.040195 0.273386 0.014467 -0.013035 -0.042304 -0.003002 -0.144014 0.019510 -0.165615 -0.054354 -0.222653 0.086240 -0.040025 -0.028067 0.100228 0.017544 -0.114121 -0.266419 -0.227922 -0.230022 -0.060932 0.089541 0.042156 -0.067841 -0.003552 0.049006 0.085520 0.082480 -0.122653 -0.076694 -0.066377 0.084981 0.075796 -0.195943 0.230019 -0.171551 0.079905 0.220752 0.056271 0.329087 0.048105 -0.037963 -0.136490 -0.087334 0.096453 -0.242575 -0.093231 0.251829 0.137112 -0.028865 -0.144877 0.052044 0.034673 0.218703 -0.165895 -0.230774 -0.142430 -0.017303 -0.041519 -0.253147 0.043547 0.364991 -0.012597 -0.106597 0.086415 -0.028607 0.168173 -0.109927 -0.016381 -0.184431 0.141603 -0.219489 0.095110 0.185517 0.037231 -0.062073 0.117115 -0.075497 -0.183286 -0.033274 -0.211359 0.286701 0.074532 -0.266542 -0.072641 0.025233 -0.040264 0.000115 0.018683 -0.020512
230 -0.253462 -0.140636 0.081691 -0.154107 0.149443 0.177420 -0.011993 -0.018201 0.088222 -0.010586 0.174238 0.167857 0.129814 -0.232147 -0.077139 -0.174185 0.012850 -0.015956 0.018507 -0.058817 -0.007919 -0.016758 0.000464 0.109615 0.027090 -0.076598 0.096386 0.014983 -0.006710 -0.147270 0.083665 -0.072398 -0.197458 -0.105505 0.006756 0.026818 -0.084035 0.056930 -0.008638 0.156481 0.044520 0.065331 -0.011922 0.038090 -0.057014 -0.042958 -0.132638 -0.017112 0.028211 0.068675 -0.046818 0.013909 0.191588 0.029206 -0.140948 -0.191267 -0.040668 -0.062932 0.010857 0.180131 -0.072786 -0.026903 -0.166349 0.054971 -0.082814 -0.074718 0.029381 -0.070869 -0.078019 0.002618 -0.016986 -0.056518 0.003996 0.078138 0.069224 0.061210 0.194648 0.151871 0.038237 -0.130063 -0.124366 -0.003855 -0.150503 -0.197762 0.038235 0.169352 0.190695 -0.002989 -0.167548 0.125353 -0.100899 0.200244 -0.233698 -0.128793 -0.044115 -0.007001 -0.101784 -0.320526 -0.026389 0.226674 -0.124000 -0.064612 -0.149320 -0.043436 0.077839 -0.073891 0.195925 0.107067 -0.044841 -0.013489 0.046132 0.142595 0.081534 -0.086724 0.155593 0.024535 -0.012769 -0.069208 -0.232596 0.155802 -0.079173 0.126394 0.061474 -0.003726 -0.184944 -0.028694 -0.032564 0.144688
22 -0.110978 -0.323079 0.287889 0.116323 -0.092974 -0.031016 0.012651 0.180796 -0.156603 -0.040208 0.127935 0.168524 0.123178 -0.338996 -0.000237 -0.269086 -0.096324 0.123661 0.323527 0.025233 0.243012 -0.109853 0.120312 0.065762 -0.102183 0.378486 0.050669 -0.169079 0.041903 0.179428 -0.015899 -0.105912 0.041698 -0.109055 0.002931 -0.058034 0.018793 0.001394 -0.053497 0.004287 0.033178 0.070939 0.052037 0.132613 -0.045343 0.004554 -0.075027 -0.095856 0.046481 0.040860 -0.196871 0.009720 -0.065732 0.008534 -0.049312 -0.189013 -0.068017 -0.043199 0.088652 -0.208495 0.020967 0.114751 -0.116163 0.091098 -0.061046 -0.061790 -0.376843 -0.102459 -0.071979 -0.074164 -0.065057 -0.148663 -0.054771 -0.014827 0.271654 0.238570 0.132438 0.414526 0.036781 0.182880 -0.200546 -0.113799 0.012132 -0.231350 0.027443 0.020381 0.322501 -0.147463 -0.104936 0.026918 0.124214 0.255497 -0.169320 -0.204876 -0.039833 -0.023206 0.130221 -0.391288 -0.053110 0.016510 -0.031806 -0.178887 0.074855 -0.056402 0.168070 0.071908 -0.030735 0.006600 0.206028 0.024366 0.184825 0.178926 0.231193 0.026870 -0.004639 0.178862 -0.183253 -0.109743 -0.302494 0.047315 -0.020237 -0.177672 0.110405 -0.051618 -0.267386 0.173171 0.249551 -0.112794
153 -0.244788 -0.176450 0.237101 -0.108570 0.148775 0.108568 -0.060849 0.206510 0.036827 -0.072149 0.295286 0.149628 0.057621 -0.167965 -0.233451 -0.135520 -0.049514 0.063099 0.140737 0.044013 0.026141 -0.135559 0.275145 0.108122 -0.257442 0.163176 -0.128674 -0.025225 -0.067873 -0.060231 0.025011 -0.021233 0.003294 -0.087379 0.055111 0.089060 -0.068030 0.003821 -0.015074 0.299661 0.072769 0.100419 0.008340 0.094819 -0.140722 -0.016674 -0.217152 0.025278 0.116449 0.161009 -0.021499 0.021043 0.163582 0.080570 -0.034073 -0.223684 -0.219792 -0.129619 0.045559 -0.075610 -0.077323 -0.152892 -0.112970 0.111042 0.139358 -0.087536 0.096929 -0.222124 -0.095544 0.125121 -0.086120 0.083911 0.217761 -0.126775 0.004279 0.041759 0.229108 0.337175 0.093109 0.011703 -0.149004 0.070953 0.080008 -0.012324 -0.003753 0.140193 0.115774 -0.012564 -0.126529 0.078483 -0.050584 0.280448 -0.208252 -0.169058 -0.095627 -0.160504 0.020548 -0.341528 0.173549 0.092102 -0.222659 0.019153 -0.182863 -0.092406 0.141849 0.115695 0.146537 0.060693 0.230557 -0.139197 -0.071513 0.176659 0.204588 -0.042883 0.103835 -0.072362 -0.068433 0.061814 -0.265799 0.161090 -0.192854 -0.067266 -0.004945 -0.022525 -0.246149 0.110791 -0.022491 -0.034466
185 -0.179225 -0.008473 0.119196 0.047167 0.029030 0.069375 0.232554 0.035993 0.001080 -0.096443 0.030766 -0.052435 0.216543 -0.279462 -0.000661 -0.216597 0.069691 0.200413 -0.036744 0.040667 0.102449 0.000132 -0.171938 0.156434 0.095510 0.088065 0.287778 -0.047153 0.112119 -0.049952 0.063124 -0.072152 -0.056127 -0.066939 -0.069072 0.028518 -0.026750 -0.098850 -0.005818 0.166457 -0.063611 0.022889 -0.006527 -0.060267 -0.037748 -0.096067 0.023181 -0.087172 -0.057987 0.098925 0.049461 -0.094041 0.200028 -0.016953 -0.097620 -0.057508 -0.086090 -0.074451 -0.048312 0.149540 0.162888 0.112826 -0.204541 -0.139028 -0.239665 0.087067 -0.192866 -0.017450 -0.205812 0.070119 0.077795 -0.248966 0.145529 0.040063 0.178984 0.241003 0.195681 0.117949 0.025645 -0.127986 -0.144400 -0.086178 -0.111632 -0.185814 0.125689 0.156503 0.109419 0.107609 -0.153832 0.071724 0.002703 0.191118 -0.211541 -0.135177 -0.106379 0.046538 -0.094938 -0.279525 -0.216526 0.273791 -0.095139 -0.230349 0.156397 -0.054312 0.194032 -0.010553 0.151624 -0.197492 -0.156009 -0.003258 0.238591 0.071928 0.008748 -0.060022 0.197113 0.016341 -0.227184 -0.182385 -0.160405 0.078637 -0.061013 -0.126991 0.043886 0.047089 -0.104736 -0.127071 -0.071866 -0.023272
163 -0.143492 -0.173791 0.104307 -0.052735 0.139825 0.114589 -0.067342 0.047741 0.039110 -0.025040 0.060234 0.130448 0.134719 -0.225971 -0.058597 -0.297967 0.046604 0.003510 0.055859 0.099145 0.239699 -0.024393 -0.132540 0.147800 0.039681 0.017015 0.146938 0.002991 0.063659 -0.132684 0.057303 0.029329 -0.124880 -0.045913 0.016024 0.125424 -0.057076 0.005305 0.000179 0.159092 0.042256 0.067271 -0.020717 0.033474 -0.150784 0.079807 -0.128823 -0.089015 0.082929 0.085482 -0.086584 -0.061135 0.149938 0.041732 -0.020715 -0.230652 -0.077236 -0.091521 -0.002967 0.062136 -0.029014 0.083088 -0.139155 0.008078 -0.094629 0.001446 -0.094270 -0.092084 -0.028329 0.055895 0.000498 -0.126827 -0.043460 0.079575 0.098423 0.102503 0.049862 0.108858 -0.059508 -0.187990 -0.033073 -0.088832 -0.084905 -0.209954 0.099860 0.192916 0.125256 -0.017386 -0.187218 0.122561 0.007008 0.116072 -0.111794 -0.184070 -0.131146 0.080183 -0.049040 -0.205177 -0.074442 0.263194 -0.015968 -0.181501 -0.065295 0.008894 0.017316 -0.062297 0.030339 -0.042767 0.011242 -0.070521 0.036248 0.090626 0.038638 -0.192992 0.225697 -0.066769 -0.150128 -0.024351 -0.244788 0.088322 -0.007701 -0.075174 0.046232 -0.127563 -0.058140 0.030122 -0.031638 -0.010589
25 -0.202760 -0.121495 0.103755 -0.032352 0.050879 0.093526 -0.036301 0.069889 0.030605 -0.016560 0.006592 0.072991 0.010319 -0.257332 -0.008804 -0.306825 0.118747 0.040382 0.081219 0.053480 0.198429 -0.035159 -0.003814 0.147399 -0.040336 0.023731 0.128731 -0.007568 0.036860 0.001476 0.148498 0.071232 -0.094661 -0.138917 -0.008769 0.064232 -0.021811 0.071292 -0.116872 0.043052 0.052704 0.195097 -0.064043 0.007800 -0.114801 0.137190 -0.144614 0.012300 0.121972 0.136992 -0.108436 -0.040766 0.077559 0.155444 -0.141937 -0.151293 -0.093498 -0.047035 -0.019890 -0.053199 -0.107206 0.043210 -0.163712 -0.041750 -0.180808 -0.035689 -0.207674 -0.046784 -0.120033 0.050639 -0.031387 -0.056382 -0.018314 -0.034484 0.010523 -0.005326 0.092311 0.147462 -0.001818 -0.117902 -0.026612 -0.084647 -0.082860 -0.138768 0.095198 0.168864 0.167608 -0.001237 -0.132767 0.097195 -0.063273 0.117614 -0.107803 -0.204084 -0.057977 0.084376 0.046821 -0.180398 -0.091746 0.163993 -0.127617 -0.090547 -0.026236 0.057943 0.106417 -0.020626 0.092409 -0.057009 -0.014970 -0.026392 0.000939 0.113787 0.080140 -0.240656 0.079912 -0.051524 -0.167280 0.005850 -0.237115 0.002946 0.018496 0.009383 0.067671 -0.093847 -0.135724 0.151247 -0.002778 -0.056527
0 -0.368631 -0.288726 -0.041697 -0.085184 -0.099625 0.106731 0.070112 0.081131 -0.034000 -0.001377 0.140628 0.221103 -0.004896 -0.207865 -0.034804 -0.318995 0.210681 0.068443 0.063375 0.136308 0.015870 -0.045452 0.179163 0.027480 -0.138506 0.025551 0.080653 0.051219 -0.079761 0.051730 0.197014 0.238871 -0.027749 -0.111966 -0.044905 -0.186938 0.150822 0.181739 -0.027063 -0.007420 0.002047 0.291398 -0.100181 -0.068994 -0.210821 0.303930 -0.256261 -0.015518 -0.116021 0.173716 -0.002659 -0.044832 -0.078897 -0.088249 -0.261287 -0.113356 -0.051069 -0.040143 -0.181780 -0.212268 -0.200690 -0.022119 -0.404934 -0.019906 -0.249307 -0.144326 -0.146318 -0.250952 -0.128208 0.100439 -0.032650 0.125030 0.069308 -0.158682 -0.157723 -0.244039 0.068126 0.050599 0.093427 0.061567 0.044441 0.018348 -0.107032 -0.086342 0.150952 0.206072 0.295780 -0.019068 -0.043768 0.239422 -0.092539 0.329016 0.012643 -0.088194 0.062344 -0.050141 -0.098287 -0.082944 0.042437 0.096560 -0.217794 -0.095725 0.061805 0.217630 0.230239 0.047199 0.169845 0.205756 -0.050050 0.057764 -0.176212 0.206013 0.042107 -0.365682 -0.071781 -0.021657 -0.294636 0.100892 -0.154130 -0.036977 -0.073530 0.109692 0.013605 -0.126560 -0.171626 0.256157 0.071104 -0.093190
72 -0.239373 -0.161219 -0.055200 -0.281933 -0.064069 0.276064 0.017748 -0.054293 -0.024235 0.055926 0.008238 0.209451 0.001785 -0.314472 0.021904 -0.026154 -0.083052 0.260906 -0.060529 -0.075205 -0.127959 0.071167 -0.223591 -0.116352 0.073249 -0.072474 0.144710 0.078461 -0.028928 -0.187270 0.215536 0.027892 -0.043608 -0.087193 -0.051281 -0.042577 -0.074113 -0.045911 -0.169683 0.050742 0.104261 0.364270 0.090676 -0.067840 0.018868 -0.002797 -0.148250 0.033351 0.029056 -0.090312 -0.180199 0.125223 0.212086 0.165349 -0.437655 -0.118462 -0.099792 -0.181741 -0.058789 -0.025006 -0.015996 0.069760 -0.222543 0.057028 -0.119411 -0.038340 0.009825 -0.111596 -0.017404 -0.126897 -0.068447 -0.045876 0.196530 0.015944 0.114129 0.086488 0.212692 0.257870 0.125119 -0.226379 0.000115 0.010187 -0.254624 -0.169179 -0.199192 0.216307 0.302130 0.054328 -0.068034 0.205245 0.012841 0.379620 -0.183939 -0.151077 0.012499 0.053982 -0.099752 -0.331507 -0.027482 0.135186 -0.178866 0.128568 -0.202184 -0.088920 0.327588 -0.119804 0.084095 0.257586 -0.125913 -0.091763 0.122513 0.164863 0.090837 -0.104731 0.047901 0.067690 0.019965 -0.001713 -0.339117 0.047684 -0.014918 0.230204 0.227544 0.153347 -0.090959 -0.082510 -0.049348 0.238920
173 -0.143519 0.001925 0.126265 0.089790 -0.046308 0.016121 0.350656 0.109731 -0.035973 -0.102225 -0.048014 -0.131675 0.121883 -0.320980 -0.009991 -0.275683 0.102096 0.317220 0.001068 0.073730 0.110599 0.000993 -0.129936 0.108811 0.081097 0.088708 0.364589 -0.019939 0.103946 0.053370 0.103729 0.051727 -0.042007 -0.007035 -0.099752 0.051343 0.050116 -0.079418 -0.048643 0.212053 -0.070957 0.068032 -0.023659 -0.077999 -0.051852 -0.032915 0.018136 -0.033682 -0.081624 0.135187 0.084073 -0.152079 0.213984 -0.047930 -0.052286 0.032121 -0.046767 -0.028002 -0.110637 0.011453 0.166706 0.106467 -0.289095 -0.264377 -0.257002 0.120959 -0.171699 -0.059881 -0.246347 0.142680 0.071266 -0.256050 0.216999 -0.003799 0.132434 0.201987 0.198985 0.138852 0.022632 -0.136947 -0.198939 -0.051923 -0.148105 -0.087767 0.130954 0.152632 0.042230 0.150737 -0.099593 0.051118 0.046668 0.199064 -0.157798 -0.118607 -0.141571 0.060081 -0.107904 -0.283632 -0.196217 0.183254 -0.176624 -0.272521 0.249100 0.008097 0.278081 0.010658 0.196447 -0.180203 -0.148196 -0.028984 0.229934 0.010317 0.004070 -0.151525 0.247870 -0.027214 -0.279566 -0.174132 -0.240506 0.082415 -0.064569 -0.175132 0.082302 0.099851 -0.138201 -0.177102 -0.116618 -0.078210
88 -0.170968 -0.223785 0.052641 0.047246 -0.092724 -0.141038 -0.203213 0.189842 0.028582 -0.140104 0.410725 0.196647 -0.202821 -0.190983 0.102335 -0.179182 -0.063235 -0.024713 0.085743 -0.076565 0.189523 -0.002049 -0.074720 0.128118 -0.074447 0.194985 -0.032908 -0.151239 0.124889 0.004669 0.064018 -0.018695 0.195863 -0.204992 0.042751 0.029358 -0.275130 0.186333 0.148119 0.060618 0.037161 0.386027 0.122817 -0.008012 -0.197496 0.080336 -0.065614 -0.266381 -0.013027 -0.020165 -0.186951 -0.003995 -0.065908 0.120386 -0.144223 -0.330807 -0.005868 -0.032360 -0.021852 -0.162005 -0.145767 0.140592 -0.079865 0.034050 -0.031396 0.022563 -0.370791 0.114009 0.068198 0.012840 0.210427 0.096540 -0.036888 -0.090850 0.128022 0.040447 0.213834 0.142754 -0.115787 0.020266 0.157176 0.046384 -0.206964 -0.378837 0.098517 0.147191 0.157558 -0.230065 -0.213212 0.004615 0.084476 0.243255 -0.168468 -0.182715 -0.173505 0.040907 0.038714 -0.216893 -0.215943 0.243301 0.054746 -0.050663 -0.137752 0.002729 0.322693 0.090224 -0.005668 -0.158311 0.089472 -0.008320 0.178609 0.177033 0.146279 -0.132993 -0.065012 0.144596 -0.292414 0.018383 -0.121577 0.026226 0.097544 -0.145422 -0.082491 0.015831 -0.169767 0.318460 0.103361 0.024316
148 -0.284498 -0.079511 0.006191 -0.129554 -0.030079 -0.029925 0.011906 0.225516 -0.195300 0.269252 -0.104619 0.163122 0.116178 -0.345404 -0.205457 -0.217145 -0.132191 0.119425 -0.182812 0.087957 -0.039344 -0.065748 0.119368 -0.022011 -0.106525 0.133820 0.159782 -0.078053 0.038127 -0.280556 0.130203 0.235787 -0.077879 -0.105032 -0.090324 -0.104085 -0.004302 0.149391 0.021798 0.023107 0.086259 0.234524 0.216453 -0.145745 -0.277485 0.070091 -0.088110 -0.104580 -0.041671 -0.120869 -0.116895 -0.103929 -0.044178 -0.023407 -0.192736 -0.299614 -0.070500 -0.399321 -0.099359 -0.210396 0.052350 0.107679 -0.178022 -0.049017 -0.137719 -0.182359 -0.165055 -0.107330 0.211851 0.179782 0.114921 0.066326 0.010953 -0.102077 -0.124596 -0.080196 0.094821 0.262133 -0.002349 -0.240591 0.215936 -0.005753 -0.005522 -0.420273 0.126276 0.159897 0.057133 -0.005363 -0.195524 0.228005 0.102390 0.222488 -0.294932 0.078496 -0.184813 0.140811 -0.047599 0.044179 -0.004792 0.137226 -0.080314 0.031167 -0.023836 -0.077157 0.189005 -0.089462 -0.026294 0.118001 0.043394 -0.060646 0.109999 0.191007 0.077749 -0.383758 0.157519 0.071387 -0.246030 0.066844 -0.312790 -0.115475 0.144461 -0.056036 0.093253 0.022290 0.030797 0.225105 -0.204698 -0.070548
99 -0.223956 -0.243459 0.168821 -0.119914 0.178427 0.095634 -0.103285 0.101512 0.222662 -0.022754 0.224039 0.145188 0.135829 -0.174346 -0.051471 -0.166317 0.055949 -0.040422 0.111080 0.044661 0.147036 -0.076461 0.086662 0.169965 -0.144828 0.060099 0.025203 -0.064275 0.007294 -0.066360 0.045829 -0.037096 -0.008439 -0.046451 -0.035525 0.085609 -0.062996 0.068006 0.032087 0.222528 0.019157 0.089243 -0.089909 0.001844 -0.098759 0.048732 -0.239128 -0.038812 0.031281 0.169376 -0.096748 -0.014780 0.166216 -0.034864 -0.166516 -0.250032 -0.040699 -0.058840 0.017946 0.038530 -0.118338 -0.101948 -0.071798 0.020291 0.041113 0.056008 -0.020454 -0.074391 -0.051999 0.128221 -0.013770 -0.094165 0.183280 -0.006387 0.013215 0.037425 0.155807 0.169127 0.031514 -0.086583 -0.158916 0.013330 0.002508 -0.221249 -0.010726 0.197825 0.183477 -0.177115 -0.116255 0.100408 -0.087366 0.125964 -0.121074 -0.166388 -0.111140 -0.084282 -0.051902 -0.218848 0.027519 0.306476 0.003187 -0.115317 -0.165789 0.070211 0.142988 -0.020097 0.122982 -0.010255 0.079578 -0.053889 0.048838 0.141304 0.034230 -0.056802 0.083517 -0.101109 -0.047863 0.047697 -0.134824 0.171987 0.028040 -0.057087 -0.062650 -0.082561 -0.160556 0.123277 0.040851 0.007478
193 -0.187488 -0.099594 0.137643 -0.013653 -0.035320 0.194166 0.062840 0.040138 0.045206 0.001097 -0.013075 0.200711 0.032333 -0.234473 -0.095514 -0.358958 0.189353 0.045162 0.073955 0.100754 0.249623 -0.027982 0.170076 0.104967 -0.120363 0.040279 0.159546 0.058815 -0.044466 0.131017 0.092614 0.179060 -0.095133 -0.153256 -0.112949 -0.029366 0.100981 0.035902 -0.057148 0.030206 0.037868 0.132097 -0.189219 -0.023786 -0.160762 0.306435 -0.182807 0.088815 -0.152037 0.265807 0.057779 -0.029255 -0.024577 0.054532 -0.134154 -0.052325 -0.064362 -0.033259 -0.181901 -0.144710 -0.166430 -0.080476 -0.221312 -0.024710 -0.182057 0.011488 -0.220732 -0.173429 -0.237323 0.082179 -0.030923 -0.103495 0.011560 -0.141202 -0.039452 -0.063121 -0.058920 0.132231 0.102076 0.084251 -0.111313 -0.094153 0.006647 -0.043778 0.110721 0.215685 0.221171 0.043688 -0.029341 0.114869 -0.152439 0.198909 0.003337 -0.192329 -0.017809 0.031575 0.017223 -0.186637 -0.006711 0.189523 -0.162690 -0.108074 0.149877 0.184832 0.062050 -0.085676 0.179820 -0.053176 0.013508 -0.016685 -0.092132 0.189080 0.061918 -0.309538 0.074671 -0.114687 -0.284890 -0.010974 -0.242671 0.076735 -0.044084 -0.024284 0.080630 -0.115289 -0.116679 0.100462 0.005160 -0.107362
117 -0.161961 -0.247000 0.136818 -0.029848 0.097825 -0.101952 -0.103734 0.123835 0.101785 -0.152339 0.198151 -0.037298 -0.182256 -0.269937 0.040881 -0.243678 0.063106 0.040543 0.127476 -0.077292 0.264206 -0.023598 -0.077169 0.131798 -0.057484 0.010294 0.052575 -0.061030 0.095267 0.041336 0.102957 -0.074670 0.109258 -0.094223 0.054849 0.114015 -0.167241 0.188020 -0.032004 0.097872 0.073268 0.311345 -0.035414 0.083567 -0.057859 0.002446 -0.165275 -0.133487 0.256391 0.075261 -0.162611 -0.142531 0.127528 0.139673 -0.062308 -0.267023 -0.029417 0.130210 0.102438 -0.130655 -0.154762 0.127650 -0.128272 -0.128562 -0.085990 0.049477 -0.261632 0.119246 0.000546 0.026132 -0.030352 0.020818 0.017073 -0.053977 0.043419 -0.023746 0.205638 0.072473 -0.205615 -0.171447 -0.040531 0.028350 -0.189827 -0.194191 0.064615 0.172009 0.081706 -0.225650 -0.157218 0.021864 0.044111 0.057796 -0.109366 -0.189189 -0.072505 -0.009044 0.101702 -0.211160 -0.198990 0.215331 -0.036002 -0.126933 -0.219505 0.038000 0.282545 0.132427 0.122491 -0.196991 0.025749 -0.040138 0.095410 0.030223 0.141664 -0.133162 0.102652 -0.005127 -0.183030 0.037287 -0.161363 0.056839 0.070306 -0.031701 -0.083441 -0.101109 -0.295956 0.235816 0.039706 0.023211
55 -0.183740 -0.124964 0.166218 -0.061421 -0.000046 -0.104641 -0.030213 0.053890 0.121175 -0.091122 0.388371 0.166579 -0.097456 -0.249189 0.010433 -0.049485 -0.200156 0.159112 0.066210 -0.215569 0.116569 0.034154 -0.135775 0.024401 -0.048824 0.195159 0.065125 -0.131999 0.054485 -0.110682 0.062934 -0.219340 0.105694 -0.209358 0.054727 0.041209 -0.355014 0.052385 0.108125 0.084698 0.130349 0.323783 0.253193 -0.081492 -0.045193 -0.020672 0.050987 -0.242782 0.030229 -0.077315 -0.217459 0.033060 0.084927 0.088137 -0.310043 -0.348593 0.038165 -0.074026 -0.004263 -0.077464 -0.042507 0.132900 -0.017195 0.075918 -0.022338 0.009906 -0.229480 -0.013580 0.074484 -0.101773 0.145034 -0.002428 0.143125 0.116753 0.332193 0.142326 0.279421 0.268660 0.006585 0.047977 0.026429 0.028802 -0.128422 -0.363558 -0.056049 0.145727 0.131187 -0.240125 -0.244128 0.015526 0.037443 0.350824 -0.216343 -0.178880 -0.192259 0.048213 -0.017312 -0.306275 -0.156530 0.205796 0.105557 0.061065 -0.173215 -0.166490 0.397556 -0.006150 0.041725 -0.127978 0.217764 -0.087323 0.269556 0.251669 0.274126 0.085391 -0.003349 0.155266 -0.169774 -0.145652 -0.181818 0.055096 0.076409 0.025068 -0.064575 0.063019 -0.170303 0.167815 0.047562 0.210086
152 -0.216731 -0.135032 0.159495 -0.130648 0.105556 0.142076 -0.035983 0.066086 0.001682 0.064102 0.140855 0.177576 0.197878 -0.218657 -0.177753 -0.174266 -0.062060 0.036580 -0.005374 -0.002244 0.065018 -0.038330 0.143689 0.086777 -0.120503 0.086921 0.039993 -0.068849 -0.032685 -0.123669 0.039646 -0.035983 -0.113765 -0.101277 -0.103394 -0.016377 -0.055253 0.076626 0.061239 0.160197 0.035223 0.000986 0.043946 -0.015991 -0.140116 0.005878 -0.123587 -0.020193 -0.101946 0.078971 -0.034541 -0.034247 0.096956 -0.020196 -0.107588 -0.242756 -0.084497 -0.130452 -0.017135 0.077795 -0.022092 -0.032909 -0.119370 0.066604 -0.046465 -0.046952 -0.039708 -0.079284 -0.007989 0.055219 0.027930 -0.074623 0.076484 -0.058761 0.033111 0.086310 0.141575 0.263883 0.040773 -0.032868 -0.087537 -0.018808 0.006803 -0.257284 0.005020 0.174494 0.103622 -0.063596 -0.143526 0.036264 -0.004053 0.214506 -0.230659 -0.078982 -0.096264 -0.002522 -0.054044 -0.259697 0.062754 0.236835 -0.120507 -0.044174 -0.025473 -0.091100 0.113523 -0.073729 0.128757 0.022942 0.059701 -0.081936 0.086107 0.200343 0.107811 -0.075737 0.131316 0.000130 -0.113998 -0.053386 -0.201849 0.186777 -0.036831 -0.018683 0.004812 0.022802 -0.089124 0.054633 -0.095506 0.054053
