9 128
101 0.007674 -0.005233 -0.014263 -0.009993 0.008664 -0.013926 -0.014821 -0.008779 0.012187 -0.005105 -0.005960 -0.007370 0.007839 -0.001948 0.006418 -0.011490 0.000464 0.001667 -0.005088 -0.008285 0.012283 0.013814 -0.007650 0.019954 -0.002911 0.014401 0.000385 0.004464 -0.005011 -0.010654 -0.005727 0.011191 -0.012414 -0.012264 -0.012249 -0.019519 -0.014460 0.022569 0.015686 0.001171 -0.000563 0.007497 0.000038 0.014261 0.004166 0.000953 -0.016085 -0.005361 -0.005403 0.003778 -0.007628 0.018475 0.005477 -0.003096 0.012065 -0.015702 -0.001332 0.002740 -0.000121 -0.003237 -0.010931 0.004328 -0.015215 -0.013619 0.016009 -0.003269 -0.029235 -0.003074 0.000729 0.011735 0.003110 -0.002056 -0.000822 -0.014967 0.003142 -0.008120 -0.008868 -0.022413 -0.008623 -0.008918 0.006637 -0.014979 -0.001435 -0.001822 0.003633 -0.003578 0.024266 -0.002571 -0.013681 0.009160 0.018753 -0.018288 -0.018793 0.000276 -0.010216 0.001502 0.008866 -0.017520 -0.004838 -0.010108 0.001855 -0.002111 -0.004007 0.002401 0.009751 -0.003756 0.023555 0.004386 -0.008414 -0.003523 0.007708 0.008220 -0.015842 0.005557 -0.012110 -0.000029 -0.022974 0.008605 0.011818 -0.015004 0.024645 -0.010435 0.002021 -0.002734 -0.000980 0.008173 0.002195 -0.010516
13 0.008108 -0.002323 -0.005992 -0.010545 0.002691 -0.007660 -0.006219 -0.006186 0.007741 0.001757 -0.006124 -0.007540 0.004411 -0.006279 0.006221 -0.006060 -0.004193 -0.002537 -0.004942 -0.009048 0.008726 0.008205 -0.008239 0.011951 -0.003636 0.007059 0.004070 0.006852 -0.001342 -0.007439 -0.005097 0.008079 -0.006568 -0.009723 -0.005690 -0.013745 -0.004415 0.016618 0.009230 0.000548 0.000965 0.003770 0.000861 0.008865 0.001330 0.002920 -0.007144 -0.001683 -0.005344 0.004843 -0.009052 0.013087 0.003697 0.002932 0.003020 -0.010043 -0.005327 -0.003326 0.002906 -0.004487 -0.003267 0.002383 -0.010031 -0.010680 0.010570 -0.002995 -0.019093 -0.002745 0.005218 0.002370 -0.002436 -0.002944 0.000311 -0.011647 0.002871 -0.007797 -0.005233 -0.013519 -0.008192 -0.007128 0.005102 -0.009794 -0.002794 -0.004644 -0.000751 -0.001360 0.016789 -0.003677 -0.011667 0.008511 0.013912 -0.011647 -0.014534 -0.005053 -0.005432 0.000274 0.006713 -0.013721 -0.004857 -0.006974 0.004906 -0.001629 -0.005404 -0.000277 0.003718 -0.004579 0.018198 -0.001550 -0.006173 -0.004915 0.010966 0.002400 -0.012342 0.005477 -0.010969 -0.001835 -0.015907 0.006986 0.007527 -0.010983 0.015189 -0.003544 0.006240 0.001026 -0.003949 0.008813 0.003890 -0.002400
44 0.009921 -0.002803 -0.014335 -0.013156 0.005771 -0.009503 -0.011590 -0.004524 0.012101 -0.000207 -0.004321 -0.005392 0.000875 -0.003412 0.008562 -0.006194 -0.004038 -0.005442 -0.005693 -0.007002 0.007437 0.015341 -0.009683 0.017527 0.003176 0.009961 0.002216 0.008725 -0.000439 -0.009981 -0.003031 0.005457 -0.011439 -0.012564 -0.007501 -0.017207 -0.013698 0.021773 0.011684 -0.001569 -0.004674 0.008624 -0.000467 0.010159 0.002190 -0.000612 -0.014315 -0.001150 -0.008463 0.001865 -0.010971 0.015024 0.002946 -0.002062 0.010591 -0.012037 -0.000306 -0.003735 0.002854 -0.006812 -0.009339 0.001606 -0.009820 -0.015021 0.013051 0.003259 -0.027315 0.002649 0.004421 0.011317 0.003620 -0.002235 0.000488 -0.015594 0.001519 -0.004201 -0.008881 -0.020667 -0.005329 -0.003678 0.005525 -0.013376 -0.004070 -0.006496 0.002645 -0.005065 0.023157 -0.005088 -0.016343 0.006362 0.011465 -0.013889 -0.018295 -0.005453 -0.012342 0.005652 0.012096 -0.011678 -0.006274 -0.007643 0.004259 0.001127 -0.005688 0.000809 0.008008 0.002360 0.024809 0.002268 -0.011299 -0.001158 0.011865 0.000787 -0.019767 0.005741 -0.011577 0.004424 -0.019948 0.003794 0.008915 -0.014571 0.022460 -0.011143 0.002268 0.003062 -0.000590 0.005572 0.000379 -0.010408
114 0.006445 -0.004101 -0.008646 -0.010636 0.001975 -0.008476 -0.011160 -0.003542 0.009341 -0.002344 -0.004347 -0.005804 0.002925 0.000320 0.008086 -0.007361 0.001956 0.002388 -0.004062 -0.008430 0.002877 0.012502 -0.006792 0.015335 0.003555 0.009716 -0.000027 0.004331 -0.005764 -0.011771 -0.003031 0.004516 -0.004312 -0.009824 -0.007276 -0.016195 -0.011801 0.013627 0.012776 0.001310 -0.000994 0.000407 0.003249 0.007675 0.001921 -0.003203 -0.012446 -0.005772 -0.005587 -0.000033 -0.008907 0.014146 0.000214 0.002847 0.009707 -0.006187 -0.003990 0.000232 -0.002483 0.000699 -0.008837 0.001766 -0.009122 -0.007573 0.006257 0.003343 -0.021830 0.003189 -0.000154 0.007855 -0.003244 -0.003902 -0.002048 -0.008545 -0.000493 -0.004179 -0.001416 -0.013903 -0.007455 -0.006181 0.006736 -0.009244 -0.002492 -0.005803 0.004550 -0.003297 0.019374 -0.004685 -0.011689 0.003898 0.014779 -0.012805 -0.016792 -0.001761 -0.006081 0.004071 0.010617 -0.010583 -0.002937 -0.011371 0.000312 -0.005054 -0.008151 -0.004066 0.007346 0.001840 0.018453 0.001778 -0.008079 0.002083 0.009316 0.003899 -0.016045 -0.000358 -0.010068 0.003802 -0.017566 0.004498 0.009274 -0.011249 0.018682 -0.009656 0.005999 -0.001863 -0.006570 0.010215 0.004337 -0.006087
57 0.006103 -0.002112 -0.009906 -0.009914 0.004979 -0.004256 -0.008466 -0.003668 0.006577 -0.000131 -0.003617 -0.004713 0.004568 -0.002432 0.002372 -0.008385 -0.003369 -0.001153 -0.003743 -0.004456 0.003011 0.006965 -0.000984 0.007935 -0.001859 0.008147 -0.001266 0.007365 -0.000631 -0.007979 -0.005009 0.008342 -0.004690 -0.005632 -0.005295 -0.006628 -0.010590 0.009284 0.005559 0.003596 0.000974 0.002978 0.000538 0.004690 0.000863 0.002561 -0.005079 -0.002527 -0.001640 0.004338 -0.008914 0.009878 -0.000721 -0.001077 0.003664 -0.009054 -0.001388 0.002930 0.001092 -0.000198 -0.007713 0.005351 -0.010469 -0.005494 0.008778 -0.002797 -0.014359 -0.002269 0.001018 0.005579 0.003018 0.000874 0.002603 -0.010750 0.005184 -0.005744 -0.002562 -0.009599 -0.000507 -0.001585 0.005047 -0.002417 0.001854 -0.000582 0.005304 0.000748 0.012985 -0.004990 -0.009098 0.006229 0.010638 -0.006247 -0.013177 0.000567 -0.008577 0.002745 0.006718 -0.007087 0.000208 -0.008634 0.003639 0.000137 -0.006773 -0.002944 0.003409 0.003175 0.014710 0.003832 -0.005813 0.000544 0.008098 0.003094 -0.013341 0.004125 -0.007947 0.000868 -0.007866 0.000515 0.004469 -0.007561 0.013924 -0.007244 -0.000901 -0.000167 0.000349 0.002770 0.001579 -0.006315
70 0.012091 -0.008303 -0.012690 -0.013430 0.008042 -0.012202 -0.013547 -0.002581 0.011964 0.001624 -0.009752 -0.003914 0.002387 -0.003372 0.006038 -0.007472 -0.001492 -0.003305 -0.003069 -0.006422 0.009982 0.013297 -0.007537 0.012178 0.000185 0.011120 -0.000859 0.004494 -0.001965 -0.007745 -0.001661 0.011237 -0.011086 -0.012089 -0.008556 -0.018166 -0.009334 0.021743 0.011946 0.006092 -0.001603 0.002395 -0.003398 0.011260 -0.001988 0.000173 -0.013865 -0.001898 -0.008313 0.000379 -0.006136 0.015512 0.006620 0.002827 0.011123 -0.009480 -0.000328 0.002078 -0.002940 -0.001874 -0.006337 0.005471 -0.015498 -0.012656 0.009290 0.003211 -0.022735 -0.001251 0.005186 0.010352 0.000236 0.000943 0.003232 -0.017573 0.000801 -0.004319 -0.003993 -0.015733 -0.007304 -0.008370 0.008720 -0.013693 -0.003767 -0.000201 0.007427 -0.002957 0.024484 -0.006441 -0.012226 0.008104 0.017895 -0.013994 -0.018981 0.000063 -0.010251 0.003854 0.011729 -0.016401 -0.000944 -0.014055 -0.000824 0.000538 -0.007019 0.000829 0.007771 -0.000909 0.023394 0.002979 -0.010345 -0.001736 0.007867 0.006269 -0.017539 0.004518 -0.008024 0.001511 -0.019890 0.005757 0.004987 -0.009443 0.024741 -0.012659 0.006415 -0.000116 -0.007055 0.007359 0.002156 -0.010011
78 0.001862 -0.000788 -0.003596 -0.003035 0.003667 -0.006627 0.000467 -0.002330 0.002303 0.001303 -0.004191 -0.005147 0.002049 -0.005362 0.005568 -0.003855 0.000598 -0.003967 -0.002845 -0.004029 -0.000927 0.003070 -0.000150 0.008073 0.002101 0.003907 -0.000508 0.003175 0.001557 -0.005513 0.001389 0.006437 -0.002362 -0.005303 -0.006298 -0.006096 -0.004269 0.006552 0.006140 0.002999 -0.000276 0.004718 0.002123 0.003009 0.000984 -0.002570 -0.004723 0.000586 0.001577 0.003878 -0.001800 0.007945 -0.001706 -0.001783 -0.000488 -0.003109 0.000175 -0.002549 0.000630 0.002290 -0.004634 -0.002969 -0.000615 -0.002919 0.007037 -0.002528 -0.009632 -0.001102 0.001023 0.004615 0.003676 0.001608 0.004095 -0.005832 0.000651 -0.002551 -0.004600 -0.007850 -0.002495 -0.000487 0.003772 -0.000469 -0.001413 0.001213 0.004612 0.001766 0.006865 0.002125 -0.002056 -0.001928 0.004044 -0.007555 -0.005809 0.001276 -0.005365 0.001704 0.001475 -0.007928 0.001663 -0.005040 -0.000203 -0.004455 -0.003865 0.003036 0.001466 -0.002698 0.009919 -0.002009 -0.004351 0.000184 0.006981 0.004426 -0.008216 -0.001902 -0.005692 -0.000514 -0.008975 0.000822 0.003014 -0.004191 0.007797 -0.006312 0.000294 -0.000868 -0.000588 0.004083 0.000641 -0.004240
40 0.000600 -0.002091 -0.005969 -0.005186 0.005530 -0.004167 -0.007806 0.000193 0.004205 -0.003898 -0.000534 -0.005443 0.001501 -0.005467 0.000783 -0.007414 -0.001413 -0.003657 -0.005111 -0.006831 0.006984 0.006257 -0.000046 0.009217 -0.002097 0.005641 -0.002889 -0.000367 -0.005310 -0.009344 -0.002787 0.005233 -0.005281 -0.002415 -0.003733 -0.010814 -0.009016 0.013295 0.007286 0.001721 -0.004549 0.003778 0.001367 0.008260 -0.001219 -0.003360 -0.006610 -0.004693 -0.000403 0.003895 -0.006687 0.005000 -0.001003 0.000093 0.007704 -0.008982 -0.002889 -0.002029 0.002530 -0.003479 -0.003046 0.004640 -0.008572 -0.007781 0.005467 -0.000711 -0.014550 -0.001711 0.004636 0.006936 -0.003546 -0.000805 0.000595 -0.010582 0.001977 -0.006338 -0.002274 -0.008960 -0.007199 -0.004967 0.005057 -0.005543 -0.001240 -0.005251 0.005519 0.002394 0.013489 -0.006087 -0.009282 0.007335 0.003743 -0.010893 -0.009677 -0.001873 -0.002447 0.005428 0.006938 -0.010780 0.000075 -0.007007 0.004771 -0.003432 0.000561 0.000048 0.006149 -0.000985 0.014675 -0.001601 -0.005683 -0.001988 0.004638 0.000577 -0.010006 0.002607 -0.004430 -0.000269 -0.007542 0.001696 0.006613 -0.009231 0.013768 -0.002389 0.000197 -0.003356 -0.004049 0.008417 0.002703 -0.006810
117 0.007328 -0.004967 -0.004981 -0.007209 0.005455 -0.007101 -0.008586 -0.004465 0.005709 -0.004198 -0.005654 -0.003452 -0.000782 -0.005966 0.006398 -0.000060 -0.004754 0.001976 -0.002015 -0.007874 0.006597 0.008630 -0.003679 0.006467 -0.000129 0.005432 -0.001336 0.006004 -0.005138 -0.006522 -0.002688 0.007418 -0.000366 -0.008906 -0.005715 -0.008626 -0.009254 0.011743 0.008698 0.004546 -0.003260 0.002416 -0.002853 0.008237 0.002920 0.001865 -0.005925 -0.002610 -0.000441 0.000792 -0.005934 0.006115 0.005049 0.003539 0.005142 -0.005590 -0.004655 0.001307 -0.001683 -0.004142 -0.005881 0.001038 -0.007076 -0.007236 0.006863 0.001940 -0.013491 0.001326 0.002479 0.003795 -0.001352 0.001602 -0.002293 -0.008165 0.002079 -0.000356 -0.005520 -0.011795 -0.004043 -0.004115 0.004613 -0.001669 -0.004034 0.000637 0.002545 0.003110 0.008909 -0.003759 -0.002827 0.001778 0.010543 -0.007039 -0.006265 -0.004832 -0.006357 -0.000928 0.008047 -0.010209 0.000829 -0.006955 0.001901 0.000935 -0.004562 -0.003902 0.006268 0.000091 0.014048 -0.000109 -0.000230 -0.001802 0.005247 0.005016 -0.004443 0.005244 -0.008053 0.003381 -0.012056 0.005911 0.003549 -0.008211 0.012784 -0.005128 -0.001626 -0.000801 -0.003057 0.006796 0.001748 -0.002174
