4 128
121 0.049057 -0.008363 0.050616 0.078803 -0.094413 -0.013464 -0.015067 0.012332 0.002085 -0.047265 0.076142 -0.009596 -0.093871 -0.034031 -0.003469 -0.090546 0.066151 -0.016742 0.014252 -0.101580 0.010668 0.060863 -0.068806 0.077268 0.046985 -0.105895 -0.011275 -0.110995 0.120198 -0.089137 -0.091181 0.056901 -0.100009 -0.073726 0.040018 0.037691 0.020794 -0.139221 0.112149 -0.106814 -0.007532 0.094575 0.105623 0.012957 -0.125967 0.067016 -0.049531 -0.033804 0.018555 -0.013746 0.125127 0.065137 -0.019560 0.120199 0.042008 0.115044 -0.060609 -0.013865 -0.123712 -0.026238 -0.145794 -0.065791 0.081979 0.144823 -0.021992 -0.025107 0.011379 -0.032883 0.121728 0.069177 0.050151 0.123195 -0.060296 0.000541 0.088528 0.076823 -0.137080 0.037177 -0.060496 -0.031021 0.217728 0.115889 -0.174985 -0.042487 -0.013624 0.043024 0.001495 -0.081397 0.014496 0.064819 -0.020353 0.006608 -0.038726 -0.036901 0.077158 0.057846 0.035536 -0.010208 -0.055196 -0.002795 0.059133 -0.021025 0.014544 0.186309 -0.044712 -0.114494 -0.139812 -0.088097 -0.006760 0.118943 0.088245 -0.015310 0.047844 -0.044667 -0.186649 -0.052509 -0.036369 0.004935 -0.118435 0.023130 0.013033 0.013969 0.038010 -0.005390 0.110522 0.116649 -0.077917 0.063949
88 0.040638 -0.009328 0.045512 0.069997 -0.086451 -0.011977 -0.018738 0.013697 -0.002772 -0.042906 0.070348 -0.005868 -0.083808 -0.023864 0.002979 -0.075673 0.063364 -0.019883 0.013724 -0.086203 0.008466 0.051819 -0.064396 0.068474 0.036770 -0.089893 -0.013335 -0.100751 0.106205 -0.074797 -0.082477 0.051418 -0.082435 -0.061804 0.032607 0.038683 0.019251 -0.118373 0.102561 -0.089724 -0.009429 0.081413 0.094044 0.006928 -0.111021 0.060017 -0.043016 -0.030655 0.011630 -0.007482 0.107102 0.057936 -0.015133 0.105770 0.034663 0.098395 -0.051644 -0.014473 -0.106004 -0.024479 -0.128305 -0.058691 0.073633 0.130092 -0.020669 -0.021263 0.008396 -0.024006 0.108720 0.058410 0.046466 0.112070 -0.058283 0.004447 0.082467 0.070536 -0.118196 0.038801 -0.055348 -0.031499 0.191933 0.100158 -0.154047 -0.043705 -0.006796 0.041201 -0.004340 -0.076493 0.015757 0.053754 -0.015650 0.005659 -0.038696 -0.031761 0.064244 0.049492 0.026978 -0.008035 -0.049328 -0.000379 0.051459 -0.019937 0.013119 0.162971 -0.041366 -0.098139 -0.124916 -0.081016 -0.010889 0.105963 0.074753 -0.011692 0.037729 -0.036714 -0.162606 -0.045046 -0.029813 0.007787 -0.103149 0.019066 0.014995 0.007981 0.035579 -0.006642 0.102338 0.105011 -0.071471 0.054262
61 0.028875 -0.008842 0.035829 0.051548 -0.067154 -0.012024 -0.012152 0.008973 0.002531 -0.033528 0.050719 -0.007462 -0.065598 -0.020532 -0.001730 -0.060248 0.049696 -0.010736 0.007298 -0.069082 0.003588 0.037251 -0.048538 0.048729 0.033290 -0.074228 -0.010359 -0.076487 0.082088 -0.062153 -0.063703 0.034356 -0.070049 -0.052347 0.025990 0.029468 0.018373 -0.097149 0.080420 -0.072991 -0.003561 0.059880 0.075442 0.006977 -0.086403 0.047559 -0.037547 -0.019082 0.013751 -0.006078 0.085491 0.044339 -0.008420 0.081778 0.022701 0.080347 -0.041379 -0.011131 -0.085843 -0.023322 -0.102860 -0.049343 0.061065 0.102432 -0.016136 -0.016731 0.005111 -0.024388 0.087418 0.047466 0.030113 0.089431 -0.041861 0.002731 0.064042 0.057566 -0.092414 0.028621 -0.040592 -0.021930 0.152376 0.076598 -0.122057 -0.033509 -0.010868 0.028810 0.002309 -0.061111 0.014728 0.046946 -0.014225 0.007685 -0.027619 -0.028446 0.050833 0.043488 0.026667 -0.007790 -0.039766 -0.003536 0.038124 -0.012546 0.013388 0.127983 -0.030823 -0.080034 -0.097930 -0.062237 -0.007727 0.081588 0.056248 -0.006974 0.035474 -0.029684 -0.129824 -0.031564 -0.027836 0.007592 -0.081960 0.016759 0.010580 0.011818 0.025256 -0.003678 0.081123 0.084949 -0.056774 0.045873
24 0.026540 -0.003532 0.030245 0.044940 -0.049053 -0.008526 -0.010019 0.008188 0.001525 -0.023386 0.044187 -0.004852 -0.045962 -0.019259 -0.000465 -0.047752 0.034925 -0.010746 0.008403 -0.052986 0.005485 0.031598 -0.036774 0.043458 0.024955 -0.050844 -0.008420 -0.061417 0.061741 -0.042676 -0.052172 0.029659 -0.055098 -0.039391 0.021310 0.020528 0.016463 -0.074097 0.059563 -0.057138 -0.003030 0.051900 0.055534 0.007353 -0.066205 0.037282 -0.029390 -0.013209 0.009903 -0.008213 0.068532 0.035146 -0.012611 0.066478 0.023821 0.063200 -0.027400 -0.007514 -0.064829 -0.016905 -0.076551 -0.035822 0.045380 0.076898 -0.015621 -0.015244 0.003640 -0.013826 0.062871 0.038127 0.027305 0.068562 -0.036602 0.002289 0.048129 0.041225 -0.074082 0.018226 -0.032473 -0.013171 0.117774 0.062226 -0.090445 -0.021345 -0.007807 0.019619 -0.003381 -0.040059 0.011673 0.034956 -0.011725 0.005189 -0.020080 -0.021503 0.040894 0.034799 0.020796 -0.003796 -0.030544 -0.002721 0.027121 -0.006695 0.011768 0.099184 -0.026129 -0.055757 -0.072817 -0.045961 -0.004916 0.064517 0.048434 -0.009404 0.024457 -0.021634 -0.101214 -0.027481 -0.020125 0.002320 -0.058459 0.015254 0.009166 0.002802 0.020908 -0.005632 0.063801 0.064146 -0.041568 0.036335
