4 128
78 0.008365 -0.015865 -0.025593 -0.018537 0.002562 -0.082940 -0.026037 -0.053026 0.039126 -0.017522 -0.035108 -0.052265 0.059890 0.014783 0.061895 -0.059205 0.063058 0.045259 -0.017129 -0.046598 -0.000738 0.044938 -0.036471 0.119211 0.014456 0.065933 0.011997 0.001423 -0.028358 -0.059739 -0.007197 0.040422 -0.020998 -0.061657 -0.077356 -0.097942 -0.039156 0.051772 0.096715 0.003225 0.033419 0.007224 0.045963 0.040940 0.034805 -0.027105 -0.080559 -0.035341 -0.009329 0.012410 -0.007252 0.116832 -0.002624 -0.004861 0.026626 -0.025483 -0.016212 0.008540 -0.028095 0.050323 -0.059099 -0.026680 -0.023190 -0.014295 0.056104 -0.027150 -0.121832 -0.004499 -0.039533 0.036810 0.001264 -0.030626 -0.009644 -0.007866 -0.013393 -0.036058 -0.019156 -0.086514 -0.057255 -0.046896 0.032353 -0.055318 -0.004663 -0.003945 0.014088 -0.026139 0.089717 0.037282 -0.030239 -0.009262 0.106229 -0.098732 -0.080268 0.030701 -0.018157 -0.008838 0.008210 -0.078578 -0.019095 -0.054439 -0.031724 -0.074239 -0.044365 0.013289 0.028696 -0.045096 0.070861 0.004549 -0.033240 0.007416 0.045789 0.068047 -0.066348 -0.041818 -0.066391 -0.009687 -0.131287 0.048817 0.070937 -0.052064 0.080404 -0.057255 0.048955 -0.034169 -0.027088 0.066234 0.029827 -0.021038
13 0.012441 -0.017556 -0.026468 -0.023730 -0.000723 -0.089068 -0.031502 -0.060765 0.045084 -0.018522 -0.038540 -0.057636 0.067389 0.017541 0.066611 -0.064692 0.066087 0.052764 -0.019032 -0.053410 0.005856 0.050416 -0.046261 0.130208 0.010397 0.072327 0.017853 0.002807 -0.033333 -0.064081 -0.013083 0.042777 -0.024230 -0.068658 -0.081824 -0.110109 -0.039008 0.060094 0.105686 0.000102 0.039104 0.004789 0.049571 0.047224 0.038373 -0.024443 -0.087237 -0.040307 -0.015581 0.013228 -0.011797 0.129102 0.001548 -0.000651 0.029916 -0.030798 -0.022547 0.009085 -0.029292 0.050220 -0.061017 -0.025359 -0.030717 -0.019124 0.061087 -0.030332 -0.135378 -0.006237 -0.041089 0.035075 -0.005137 -0.038230 -0.015050 -0.008879 -0.013645 -0.042802 -0.019349 -0.094909 -0.066517 -0.056390 0.034517 -0.066951 -0.005533 -0.009011 0.008343 -0.031756 0.101461 0.037271 -0.038382 -0.002422 0.122370 -0.108059 -0.091285 0.028602 -0.016531 -0.012617 0.010608 -0.087235 -0.026796 -0.058314 -0.031305 -0.078716 -0.048468 0.011342 0.031316 -0.051467 0.078163 0.005124 -0.035350 0.003867 0.050739 0.071668 -0.071323 -0.040638 -0.074684 -0.012536 -0.145520 0.058384 0.079982 -0.059690 0.088431 -0.057100 0.059257 -0.035762 -0.032205 0.074966 0.035382 -0.018231
101 0.012970 -0.026419 -0.042430 -0.027556 0.003308 -0.129096 -0.049472 -0.086117 0.064370 -0.033683 -0.051641 -0.078201 0.097354 0.032292 0.091841 -0.094373 0.100897 0.080381 -0.024716 -0.070569 0.007310 0.072643 -0.061107 0.187125 0.017125 0.106418 0.020038 -0.001884 -0.049979 -0.090291 -0.016590 0.059921 -0.036955 -0.095211 -0.120074 -0.155215 -0.062507 0.082703 0.151934 0.000317 0.054042 0.008723 0.069478 0.067846 0.056799 -0.038075 -0.129073 -0.059873 -0.019400 0.015601 -0.010488 0.182541 0.002039 -0.008527 0.049332 -0.044259 -0.025387 0.020354 -0.045940 0.075148 -0.092467 -0.035690 -0.043377 -0.024517 0.087130 -0.042468 -0.192644 -0.008156 -0.065583 0.057584 -0.000406 -0.052104 -0.022491 -0.009737 -0.020595 -0.057487 -0.028602 -0.136813 -0.090968 -0.078377 0.047874 -0.095409 -0.005031 -0.007533 0.016232 -0.046739 0.142882 0.056521 -0.050464 -0.007229 0.171758 -0.154406 -0.126498 0.048670 -0.025292 -0.017179 0.013207 -0.120968 -0.035787 -0.082182 -0.050084 -0.111867 -0.064750 0.019365 0.048235 -0.070687 0.106878 0.013705 -0.049299 0.009128 0.063516 0.106593 -0.098437 -0.060686 -0.101865 -0.015585 -0.205951 0.081234 0.114216 -0.083123 0.126926 -0.085979 0.077204 -0.055061 -0.040689 0.101471 0.046699 -0.032438
114 0.012379 -0.023354 -0.035055 -0.028041 -0.001929 -0.111661 -0.043455 -0.072702 0.056966 -0.027863 -0.045526 -0.069652 0.082501 0.029551 0.084703 -0.081784 0.090069 0.071500 -0.022386 -0.065127 -0.000060 0.066401 -0.055196 0.165507 0.021054 0.092497 0.017553 -0.000207 -0.046148 -0.083949 -0.013421 0.048877 -0.027193 -0.084807 -0.103703 -0.138771 -0.056023 0.069954 0.135099 0.000725 0.046828 0.002356 0.064759 0.056802 0.048700 -0.037672 -0.114008 -0.054545 -0.018747 0.011089 -0.013210 0.161280 -0.002411 -0.001670 0.043907 -0.033323 -0.026039 0.015324 -0.042572 0.069099 -0.081954 -0.033088 -0.035846 -0.019232 0.070937 -0.031357 -0.170110 -0.001388 -0.057932 0.049510 -0.006693 -0.048527 -0.021264 -0.006199 -0.021031 -0.048958 -0.019855 -0.117754 -0.081616 -0.068662 0.044228 -0.081955 -0.006220 -0.011832 0.016110 -0.041552 0.127477 0.046589 -0.046406 -0.009247 0.152121 -0.135400 -0.114634 0.040135 -0.020629 -0.011896 0.016129 -0.104397 -0.030919 -0.076553 -0.044714 -0.102388 -0.062673 0.010714 0.042516 -0.057554 0.095746 0.009909 -0.045478 0.012753 0.060445 0.091232 -0.091550 -0.058018 -0.091265 -0.009769 -0.182131 0.069645 0.101272 -0.073704 0.112311 -0.077452 0.073016 -0.048144 -0.042343 0.094320 0.044241 -0.026482
