6 128
76 -0.048531 -0.063335 -0.046966 -0.039464 0.175094 -0.133773 0.163420 -0.156307 0.104797 0.147362 -0.042775 -0.048348 0.055296 -0.302403 0.208728 -0.144965 0.045465 -0.064257 0.062295 -0.040265 -0.014078 -0.103027 -0.037993 -0.107934 -0.006184 -0.008824 -0.030273 0.137760 0.016840 -0.056095 0.056115 0.114513 0.041153 -0.000663 0.063035 0.114964 -0.079752 -0.052993 0.047273 0.040662 0.083699 0.013100 0.088848 -0.085230 0.001012 0.180295 0.090324 0.021734 0.114943 0.140501 -0.213877 0.062260 0.044182 0.017546 -0.245073 -0.182266 0.016147 0.090577 0.129687 -0.019601 -0.093304 0.075749 -0.191359 -0.086491 0.236681 -0.038078 -0.187394 -0.173888 0.106156 -0.051807 0.148959 -0.028673 0.212499 -0.101575 0.350586 -0.062758 -0.106610 -0.037641 -0.083822 -0.063605 0.132453 0.059170 -0.075775 -0.093034 0.070248 0.080150 0.113982 -0.106662 -0.194055 0.050985 0.172230 0.017599 -0.138027 -0.087303 -0.263583 -0.070997 -0.141037 -0.138603 0.031098 -0.040932 0.218183 -0.087151 -0.113514 -0.040326 -0.011279 0.101784 0.284268 0.125301 0.033738 -0.113904 0.138493 0.162126 -0.127951 0.109041 -0.017742 -0.017052 -0.064594 -0.059427 0.051334 -0.148096 0.007741 0.085530 0.033134 0.086354 -0.043593 0.189536 0.162914 0.201537
57 -0.034766 -0.049965 -0.039066 -0.036047 0.138889 -0.102767 0.127160 -0.125710 0.083154 0.119534 -0.033927 -0.041245 0.046657 -0.239246 0.162630 -0.118313 0.031737 -0.051383 0.046793 -0.033220 -0.010994 -0.080074 -0.025888 -0.084612 -0.007169 -0.003623 -0.023604 0.114671 0.015341 -0.044343 0.039674 0.094888 0.032719 -0.001833 0.047606 0.092714 -0.065624 -0.041559 0.034135 0.035223 0.071866 0.012645 0.069497 -0.069857 0.001419 0.146905 0.073693 0.017022 0.093437 0.113538 -0.174785 0.052894 0.031822 0.013019 -0.197330 -0.148007 0.011455 0.073792 0.102547 -0.015152 -0.075692 0.061575 -0.153710 -0.065678 0.191514 -0.034068 -0.148049 -0.139661 0.084750 -0.040924 0.119813 -0.019360 0.170064 -0.082650 0.281377 -0.053947 -0.083036 -0.030709 -0.061584 -0.047130 0.105924 0.049220 -0.054182 -0.072712 0.057538 0.064470 0.090193 -0.086427 -0.156879 0.044681 0.141518 0.014003 -0.112471 -0.067757 -0.212666 -0.054318 -0.111394 -0.108939 0.025831 -0.035020 0.174335 -0.066348 -0.093717 -0.032271 -0.011386 0.083185 0.226734 0.100551 0.023617 -0.087292 0.112081 0.127643 -0.106263 0.085791 -0.016667 -0.016226 -0.048984 -0.049001 0.039774 -0.119856 0.010249 0.065614 0.021332 0.066543 -0.032798 0.147025 0.127295 0.157027
13 -0.035164 -0.052730 -0.035719 -0.037431 0.143645 -0.110703 0.137612 -0.134863 0.087897 0.128399 -0.037495 -0.045703 0.048320 -0.255933 0.174434 -0.121291 0.032408 -0.055408 0.048497 -0.039043 -0.005757 -0.084174 -0.033809 -0.086779 -0.009378 -0.005971 -0.019494 0.119742 0.015694 -0.044425 0.042061 0.098905 0.033543 -0.005237 0.050599 0.092217 -0.061715 -0.037823 0.038004 0.033772 0.076362 0.014305 0.073206 -0.070636 0.002037 0.155811 0.077007 0.019252 0.095656 0.119666 -0.183787 0.057491 0.038164 0.017819 -0.210004 -0.156311 0.008344 0.071403 0.109815 -0.020761 -0.074037 0.061287 -0.160161 -0.073405 0.203106 -0.035935 -0.158200 -0.147896 0.093866 -0.047369 0.120662 -0.023670 0.176974 -0.086475 0.294450 -0.058422 -0.089801 -0.035025 -0.072008 -0.054420 0.111045 0.045055 -0.061331 -0.080646 0.053736 0.066057 0.096513 -0.089527 -0.167035 0.049135 0.151461 0.010644 -0.117696 -0.077410 -0.220485 -0.060103 -0.118835 -0.120184 0.022342 -0.033888 0.185015 -0.070993 -0.096521 -0.030762 -0.012510 0.079879 0.240365 0.100255 0.025459 -0.097403 0.119542 0.133439 -0.108924 0.091254 -0.019216 -0.020496 -0.057819 -0.045583 0.044148 -0.129205 0.010387 0.074222 0.028637 0.070984 -0.038700 0.160216 0.135837 0.170436
127 -0.040523 -0.053272 -0.033454 -0.030165 0.141943 -0.102932 0.130741 -0.128682 0.081740 0.120650 -0.030967 -0.041412 0.044442 -0.247274 0.171078 -0.115142 0.037777 -0.052259 0.051727 -0.034203 -0.009811 -0.082176 -0.027093 -0.088444 -0.004199 -0.006915 -0.019602 0.114443 0.011970 -0.040025 0.043124 0.089820 0.032896 -0.000659 0.049764 0.093797 -0.060046 -0.042612 0.035716 0.034343 0.072673 0.011061 0.066698 -0.072853 0.000304 0.147837 0.072670 0.017171 0.097359 0.110703 -0.177051 0.048868 0.033426 0.014955 -0.199953 -0.149922 0.009818 0.074619 0.103019 -0.019866 -0.075053 0.058123 -0.154251 -0.064423 0.193107 -0.029428 -0.150710 -0.136967 0.088980 -0.041291 0.119774 -0.023310 0.167573 -0.079052 0.285298 -0.051752 -0.086338 -0.027989 -0.064996 -0.053342 0.106518 0.046276 -0.060373 -0.079421 0.057610 0.060440 0.087794 -0.085980 -0.160620 0.044746 0.141745 0.009349 -0.109429 -0.072075 -0.214534 -0.054262 -0.117725 -0.112499 0.021962 -0.029024 0.175827 -0.069025 -0.088364 -0.026578 -0.010932 0.083822 0.228499 0.101473 0.022366 -0.090723 0.108132 0.126239 -0.104257 0.084512 -0.012521 -0.015217 -0.054291 -0.046534 0.037849 -0.124876 0.005557 0.072308 0.022513 0.068200 -0.038677 0.153412 0.132088 0.165086
78 -0.038671 -0.053305 -0.037479 -0.034288 0.147446 -0.114591 0.140754 -0.133646 0.087054 0.127825 -0.037898 -0.046074 0.047339 -0.257747 0.177853 -0.122713 0.037236 -0.057388 0.048946 -0.037786 -0.012371 -0.084724 -0.028987 -0.084732 -0.003189 -0.005192 -0.024108 0.118452 0.016821 -0.047014 0.047642 0.100639 0.034957 -0.005218 0.047041 0.093381 -0.066581 -0.040627 0.040405 0.036838 0.074606 0.017080 0.075449 -0.072674 0.002510 0.150561 0.074671 0.019941 0.100885 0.120083 -0.180952 0.058461 0.034263 0.013729 -0.210859 -0.154162 0.012729 0.072093 0.108058 -0.015253 -0.078894 0.057115 -0.155840 -0.070711 0.204782 -0.034979 -0.159281 -0.146892 0.091327 -0.041884 0.126916 -0.020258 0.181588 -0.086037 0.294283 -0.055593 -0.091791 -0.036509 -0.070280 -0.050864 0.113068 0.049972 -0.061733 -0.077239 0.060856 0.068616 0.095563 -0.086049 -0.163390 0.041332 0.148213 0.008943 -0.116186 -0.072781 -0.224790 -0.057692 -0.120745 -0.120721 0.027610 -0.036205 0.181821 -0.075497 -0.097790 -0.027918 -0.011591 0.081787 0.242049 0.100716 0.024240 -0.093407 0.119910 0.138107 -0.111530 0.085515 -0.018142 -0.018481 -0.058926 -0.049654 0.043748 -0.128306 0.011388 0.068346 0.024671 0.068953 -0.037566 0.160418 0.134611 0.166662
55 -0.043103 -0.062687 -0.040761 -0.038939 0.165969 -0.128060 0.159881 -0.153303 0.103098 0.146541 -0.038063 -0.046833 0.050222 -0.288392 0.197658 -0.138533 0.040822 -0.058980 0.057244 -0.041428 -0.007253 -0.095880 -0.036301 -0.102539 -0.004365 -0.007771 -0.029704 0.131170 0.014876 -0.047978 0.053080 0.108558 0.043312 -0.003753 0.060872 0.110086 -0.078289 -0.048512 0.040285 0.036181 0.087365 0.018660 0.086546 -0.085700 0.004895 0.178555 0.089106 0.020462 0.112912 0.131883 -0.210093 0.062377 0.045593 0.018783 -0.241242 -0.177282 0.015382 0.085304 0.122883 -0.023802 -0.085178 0.069197 -0.179385 -0.083068 0.231957 -0.033854 -0.177045 -0.169779 0.105962 -0.052077 0.140001 -0.024090 0.205619 -0.092919 0.340369 -0.062040 -0.100446 -0.041022 -0.081987 -0.056628 0.127878 0.051485 -0.068202 -0.094222 0.062174 0.076889 0.107771 -0.105719 -0.191766 0.052763 0.172604 0.017976 -0.129158 -0.089560 -0.256631 -0.068204 -0.139249 -0.130820 0.029002 -0.038153 0.211999 -0.080002 -0.109927 -0.036776 -0.012211 0.098933 0.272532 0.119185 0.033554 -0.106759 0.129282 0.157169 -0.119832 0.100181 -0.014328 -0.022092 -0.059802 -0.058067 0.052530 -0.149552 0.012858 0.085142 0.026351 0.076749 -0.044154 0.182677 0.152208 0.195522
