10 128
50 -0.052930 -0.182014 -0.141880 -0.034431 0.083781 -0.023958 0.225699 0.055964 -0.057129 0.043395 0.007516 0.068651 -0.113637 -0.043164 -0.080205 -0.163649 0.092517 -0.037935 0.037627 -0.071513 0.126370 0.117594 -0.129599 0.178233 0.299371 -0.074677 -0.038917 0.024477 -0.047848 -0.095192 -0.074467 -0.078730 -0.354011 -0.182043 0.116634 -0.058593 -0.000625 -0.080105 0.056410 0.003393 0.094195 0.110576 0.040503 0.053818 -0.047488 0.020313 -0.086417 -0.063835 0.037069 -0.111648 0.111178 0.075960 0.016765 -0.023808 0.111754 -0.094280 0.007104 0.089228 0.014878 -0.064575 -0.101807 -0.030004 0.005917 0.200951 -0.077322 0.020984 -0.121941 0.017354 0.197127 0.035529 -0.058947 0.079009 -0.016364 -0.217635 -0.134932 0.032838 -0.066137 -0.134815 0.011215 -0.056056 0.090813 0.173750 -0.194848 0.173213 -0.127333 -0.116924 0.178631 0.086444 -0.038458 0.151794 0.012078 -0.066777 -0.020338 -0.029747 -0.061950 0.082510 0.136870 -0.176501 0.093023 0.013845 -0.182690 0.043592 -0.018538 0.122445 0.021580 -0.021453 0.111514 -0.053290 -0.215960 0.109546 0.225529 -0.001570 0.103230 -0.094330 -0.182491 0.181331 -0.119122 0.012141 -0.018006 0.066693 -0.000213 0.191984 -0.040984 -0.147266 -0.139588 0.028226 -0.158753 0.260015
81 -0.042700 -0.169230 -0.124728 -0.034512 0.082714 -0.019250 0.205860 0.054028 -0.055188 0.036946 0.012278 0.061453 -0.107774 -0.039986 -0.073861 -0.154802 0.081608 -0.038134 0.036212 -0.070429 0.125740 0.113411 -0.123785 0.167844 0.280267 -0.070125 -0.034475 0.015929 -0.042909 -0.090288 -0.070414 -0.071628 -0.333582 -0.169837 0.109001 -0.058896 0.002086 -0.082148 0.056312 0.000021 0.082108 0.107102 0.037168 0.053025 -0.049830 0.018845 -0.084349 -0.053977 0.033491 -0.102548 0.114057 0.073318 0.010140 -0.016760 0.115303 -0.079691 0.001715 0.080956 0.015009 -0.061021 -0.099402 -0.021886 0.006857 0.195952 -0.076298 0.023965 -0.112496 0.018745 0.184368 0.032585 -0.049953 0.075208 -0.019473 -0.208433 -0.121473 0.028659 -0.063262 -0.130461 0.007576 -0.053019 0.095697 0.162115 -0.185184 0.161587 -0.118506 -0.105777 0.167727 0.081626 -0.035967 0.140658 0.015117 -0.065279 -0.020102 -0.026946 -0.051431 0.077188 0.125724 -0.164166 0.082109 0.012490 -0.168942 0.034268 -0.016341 0.119779 0.019633 -0.017057 0.100773 -0.048433 -0.201923 0.102060 0.214932 -0.000903 0.097353 -0.094607 -0.177225 0.162624 -0.109348 0.004077 -0.024333 0.057025 -0.006328 0.175856 -0.037430 -0.136184 -0.126941 0.031565 -0.150635 0.237123
5 -0.046384 -0.178447 -0.139054 -0.038048 0.087758 -0.021734 0.219569 0.048508 -0.052072 0.037747 0.011325 0.069720 -0.118085 -0.037607 -0.074997 -0.165616 0.083481 -0.042826 0.032809 -0.070283 0.128141 0.118387 -0.127147 0.177240 0.289298 -0.078940 -0.038538 0.017873 -0.046600 -0.092546 -0.072498 -0.075848 -0.342321 -0.174820 0.111330 -0.063525 0.001737 -0.079504 0.051490 -0.000145 0.091869 0.102458 0.038447 0.057556 -0.050198 0.024245 -0.083027 -0.058558 0.035927 -0.109696 0.110528 0.076187 0.015591 -0.022196 0.116011 -0.090552 0.009340 0.082625 0.018004 -0.064547 -0.105286 -0.026875 0.009268 0.200869 -0.077589 0.025311 -0.112981 0.018967 0.191745 0.029964 -0.059587 0.076560 -0.019028 -0.218046 -0.126206 0.025946 -0.066410 -0.139769 0.002866 -0.057102 0.088746 0.164457 -0.189567 0.169287 -0.126719 -0.117497 0.179606 0.087355 -0.033948 0.144156 0.017604 -0.067302 -0.015046 -0.027877 -0.059584 0.080432 0.127619 -0.169585 0.092542 0.013543 -0.176959 0.039150 -0.020865 0.113158 0.014910 -0.019732 0.105102 -0.048192 -0.210449 0.105049 0.213481 0.002766 0.099378 -0.099199 -0.177735 0.175164 -0.107037 0.007703 -0.017147 0.062637 -0.005838 0.186000 -0.035360 -0.144792 -0.137831 0.034719 -0.152793 0.253249
131 -0.042445 -0.167783 -0.127649 -0.034232 0.081056 -0.017045 0.210305 0.049995 -0.056250 0.041201 0.007934 0.067446 -0.114598 -0.041105 -0.074771 -0.160422 0.083746 -0.039750 0.034324 -0.071738 0.125416 0.115937 -0.120502 0.169911 0.279955 -0.073681 -0.032059 0.019477 -0.038388 -0.092100 -0.067762 -0.067762 -0.332116 -0.173619 0.102988 -0.056272 -0.002126 -0.083944 0.051403 -0.003015 0.087768 0.100572 0.043348 0.060231 -0.045578 0.023150 -0.083373 -0.056620 0.033903 -0.108409 0.110351 0.069367 0.006532 -0.014712 0.116613 -0.083050 0.008010 0.084240 0.014378 -0.053625 -0.106341 -0.024535 0.008226 0.194924 -0.074733 0.025197 -0.112990 0.022423 0.186571 0.037893 -0.053890 0.073288 -0.019526 -0.208756 -0.120994 0.031339 -0.068062 -0.133367 0.002682 -0.054592 0.094218 0.160922 -0.185224 0.166734 -0.117446 -0.108143 0.170627 0.082748 -0.037241 0.135448 0.014742 -0.062663 -0.019666 -0.031677 -0.047113 0.077718 0.127918 -0.157034 0.087160 0.006854 -0.160465 0.033063 -0.022469 0.119311 0.018976 -0.019471 0.095564 -0.045079 -0.197727 0.105403 0.215100 0.001484 0.091591 -0.096144 -0.172031 0.163791 -0.108760 0.000231 -0.023638 0.060042 -0.005268 0.177403 -0.031466 -0.139133 -0.129379 0.029701 -0.148231 0.243089
27 -0.041202 -0.177072 -0.136915 -0.037297 0.083853 -0.018395 0.218502 0.055183 -0.058203 0.040924 0.008792 0.064820 -0.117529 -0.038218 -0.078443 -0.167883 0.088527 -0.042141 0.035540 -0.079109 0.130290 0.120364 -0.122588 0.180828 0.288883 -0.081321 -0.040591 0.022045 -0.044191 -0.091896 -0.071648 -0.074148 -0.343722 -0.180179 0.113215 -0.063798 -0.002257 -0.084383 0.051789 -0.006652 0.085030 0.108057 0.040948 0.060017 -0.049445 0.027792 -0.079246 -0.060900 0.036842 -0.107800 0.117189 0.077046 0.006851 -0.011595 0.116254 -0.088701 0.005086 0.085708 0.015356 -0.057313 -0.108385 -0.020742 0.004664 0.198985 -0.073847 0.023416 -0.117159 0.022107 0.190154 0.034196 -0.058320 0.079846 -0.016900 -0.219165 -0.129034 0.024972 -0.066383 -0.139765 0.002566 -0.052243 0.092338 0.168040 -0.191300 0.174082 -0.128111 -0.112139 0.180210 0.083150 -0.041557 0.145751 0.010414 -0.070428 -0.015638 -0.027953 -0.056518 0.079782 0.132121 -0.169661 0.091474 0.007356 -0.174437 0.038957 -0.016774 0.117829 0.019618 -0.018974 0.104605 -0.052442 -0.208241 0.111833 0.222128 -0.000296 0.097467 -0.099122 -0.177532 0.166320 -0.110793 0.006626 -0.025207 0.061450 -0.008116 0.186611 -0.033196 -0.144206 -0.136765 0.035456 -0.149794 0.250794
61 -0.033430 -0.161213 -0.121414 -0.025556 0.072254 -0.018295 0.204700 0.048680 -0.049758 0.036147 0.012982 0.059962 -0.113943 -0.045330 -0.076016 -0.164186 0.082553 -0.036584 0.033995 -0.080329 0.121460 0.117716 -0.117562 0.172334 0.274267 -0.081914 -0.033080 0.012300 -0.030192 -0.094942 -0.072659 -0.062886 -0.330083 -0.173690 0.108056 -0.057306 -0.000651 -0.091789 0.054445 -0.015634 0.083365 0.108791 0.046118 0.059711 -0.054530 0.028136 -0.080509 -0.057974 0.037859 -0.106780 0.118594 0.074417 0.003252 -0.003208 0.114511 -0.070177 0.001418 0.080735 0.002393 -0.053936 -0.110979 -0.026831 0.011282 0.193690 -0.071569 0.018644 -0.106013 0.015133 0.184756 0.041267 -0.049631 0.079511 -0.019386 -0.203026 -0.114338 0.029913 -0.076668 -0.129433 -0.000686 -0.049307 0.103570 0.166629 -0.190201 0.161582 -0.120117 -0.103355 0.167038 0.076588 -0.037820 0.139983 0.008004 -0.061959 -0.016410 -0.031045 -0.040877 0.080135 0.127883 -0.155583 0.080698 0.006209 -0.154079 0.034762 -0.016983 0.126650 0.015269 -0.028421 0.085747 -0.050909 -0.188274 0.110931 0.215434 -0.003625 0.095565 -0.095946 -0.180957 0.150445 -0.107620 0.001818 -0.030912 0.061307 -0.006368 0.174172 -0.029011 -0.133547 -0.119823 0.037381 -0.144236 0.239671
56 -0.044417 -0.167440 -0.132748 -0.033085 0.081548 -0.019962 0.211949 0.051232 -0.057489 0.040247 0.012430 0.066379 -0.116181 -0.040243 -0.078559 -0.163052 0.082310 -0.038477 0.035637 -0.075626 0.123419 0.114728 -0.121030 0.175194 0.285070 -0.075818 -0.038630 0.017822 -0.042018 -0.089968 -0.071636 -0.065930 -0.334798 -0.175338 0.107273 -0.060534 0.001434 -0.081315 0.052922 -0.001940 0.083738 0.108806 0.043431 0.059957 -0.052053 0.027052 -0.082369 -0.061351 0.036149 -0.109484 0.112724 0.071590 0.008551 -0.012558 0.115496 -0.084193 0.005274 0.081668 0.006726 -0.057445 -0.101669 -0.021841 0.004093 0.197314 -0.069191 0.023447 -0.113477 0.019545 0.189271 0.032934 -0.049895 0.074186 -0.014190 -0.211915 -0.126419 0.029225 -0.066458 -0.134985 0.006326 -0.049390 0.097341 0.168685 -0.188612 0.168429 -0.121565 -0.111871 0.173934 0.081814 -0.034669 0.145650 0.014466 -0.066014 -0.014396 -0.027036 -0.054159 0.075944 0.130961 -0.163546 0.083568 0.010230 -0.165983 0.040607 -0.019989 0.123829 0.014834 -0.019272 0.098101 -0.047542 -0.202371 0.110626 0.217599 0.002051 0.097243 -0.094112 -0.176220 0.165953 -0.107770 0.007154 -0.021313 0.059770 -0.004637 0.178973 -0.035934 -0.134047 -0.130778 0.033824 -0.146626 0.247324
121 -0.023315 -0.159964 -0.125801 -0.018844 0.073932 -0.014551 0.213795 0.048544 -0.051554 0.037675 0.017447 0.062171 -0.119046 -0.052929 -0.080312 -0.176820 0.079943 -0.038857 0.038699 -0.088872 0.130503 0.131026 -0.118792 0.187732 0.280822 -0.087775 -0.030441 0.010362 -0.025419 -0.099191 -0.075581 -0.054594 -0.339572 -0.178930 0.115147 -0.064424 -0.007588 -0.097120 0.052230 -0.023024 0.083137 0.122916 0.046754 0.066389 -0.060260 0.030452 -0.076713 -0.068329 0.039168 -0.116484 0.126872 0.079457 -0.006605 0.003775 0.128121 -0.070272 -0.000605 0.085432 -0.001597 -0.046126 -0.115654 -0.023097 0.006305 0.197031 -0.071042 0.016398 -0.103165 0.016630 0.186713 0.045599 -0.043637 0.078030 -0.019896 -0.212358 -0.120173 0.024162 -0.087414 -0.137787 -0.005398 -0.049169 0.107827 0.180175 -0.197866 0.173033 -0.122968 -0.104115 0.170769 0.084341 -0.047216 0.142260 0.006039 -0.068578 -0.014571 -0.028297 -0.035396 0.078428 0.129551 -0.158180 0.085022 0.007441 -0.151016 0.032975 -0.022281 0.135286 0.014077 -0.032161 0.085744 -0.052579 -0.186383 0.119241 0.230957 -0.010524 0.095336 -0.101850 -0.188566 0.143783 -0.106598 -0.004692 -0.034944 0.063274 -0.009314 0.176553 -0.025923 -0.137243 -0.128614 0.034914 -0.143160 0.245982
24 -0.025449 -0.155595 -0.117707 -0.017737 0.073158 -0.016034 0.202782 0.049888 -0.050909 0.038482 0.019642 0.060880 -0.110192 -0.049359 -0.074500 -0.167175 0.078891 -0.040307 0.037674 -0.082114 0.125034 0.122890 -0.115890 0.180938 0.270798 -0.076584 -0.033154 0.008458 -0.028973 -0.089291 -0.076209 -0.056010 -0.328817 -0.172282 0.109267 -0.059606 -0.000155 -0.091913 0.051384 -0.019243 0.081296 0.116703 0.044274 0.062845 -0.055258 0.030369 -0.078667 -0.058561 0.036572 -0.110910 0.122487 0.076099 -0.006330 0.003977 0.122872 -0.067641 0.005658 0.081806 0.002405 -0.049601 -0.109727 -0.023440 0.008825 0.190811 -0.073817 0.015374 -0.104566 0.021502 0.178911 0.044004 -0.043151 0.079299 -0.024825 -0.202047 -0.114250 0.025528 -0.082044 -0.133101 -0.004439 -0.045220 0.104944 0.171296 -0.186835 0.166418 -0.118272 -0.103964 0.160023 0.083312 -0.039346 0.136957 0.006205 -0.063602 -0.015154 -0.030006 -0.036770 0.080278 0.126770 -0.151216 0.080736 0.005666 -0.152688 0.036514 -0.016331 0.128445 0.011930 -0.023183 0.085783 -0.049678 -0.184449 0.114762 0.222031 -0.009247 0.090324 -0.095034 -0.182024 0.142597 -0.104441 -0.003319 -0.027762 0.063459 -0.005717 0.165518 -0.025009 -0.136179 -0.117674 0.036287 -0.140092 0.239282
88 -0.029115 -0.159023 -0.121327 -0.019556 0.068750 -0.015591 0.200859 0.050815 -0.054938 0.035181 0.019285 0.063024 -0.114891 -0.043180 -0.070656 -0.163766 0.084070 -0.042600 0.038243 -0.079737 0.123956 0.122150 -0.120209 0.179297 0.267808 -0.079140 -0.033941 0.007976 -0.026812 -0.091313 -0.075206 -0.054650 -0.323015 -0.169228 0.108254 -0.055111 -0.004767 -0.087358 0.055619 -0.014196 0.078418 0.114646 0.045391 0.057109 -0.056832 0.028847 -0.075164 -0.065336 0.032449 -0.106076 0.117293 0.076796 -0.000716 -0.000003 0.118595 -0.072921 0.001850 0.079978 0.003583 -0.049040 -0.109707 -0.024308 0.008254 0.193499 -0.071086 0.017350 -0.103454 0.020997 0.182973 0.039985 -0.041470 0.079603 -0.024616 -0.200521 -0.112024 0.027955 -0.078767 -0.125346 -0.005134 -0.052827 0.102774 0.170348 -0.190373 0.159050 -0.113346 -0.098056 0.159102 0.075874 -0.040591 0.134817 0.009163 -0.065608 -0.020007 -0.026903 -0.041134 0.074938 0.121041 -0.153665 0.081457 0.010298 -0.150240 0.031386 -0.020156 0.127870 0.012393 -0.026898 0.083527 -0.054528 -0.188591 0.114549 0.218203 -0.006948 0.088585 -0.094362 -0.179664 0.144510 -0.102177 0.001360 -0.030673 0.059834 -0.004055 0.167186 -0.024874 -0.135245 -0.118892 0.035761 -0.143462 0.236050
