6 128
101 0.077264 -0.132215 -0.195621 -0.052291 0.085167 -0.107209 -0.173185 0.000129 0.127589 -0.017264 0.046142 0.083398 0.028574 0.110609 0.069058 -0.041083 0.089076 0.003194 -0.030400 0.077709 0.147702 0.091339 -0.077293 0.099735 -0.062669 0.079958 -0.005542 -0.060490 0.012358 0.053499 0.049735 0.069775 -0.240747 -0.083787 -0.047549 -0.175458 -0.037224 0.205000 0.045919 -0.073727 -0.106949 0.082648 -0.128735 0.105080 0.000437 0.111124 -0.195512 -0.026165 -0.219770 -0.052048 0.044207 0.131065 0.121896 -0.197389 0.120856 -0.115500 0.092035 0.153480 -0.050459 -0.008549 -0.031232 -0.037849 -0.128281 -0.083544 0.141476 -0.017336 -0.139368 -0.073956 -0.044401 0.215226 0.149065 0.056672 0.066999 -0.066434 -0.031672 0.023193 -0.088670 -0.193162 0.025502 -0.033520 0.041552 -0.295937 0.033260 0.100709 -0.069063 -0.111623 0.177343 -0.003036 -0.076829 0.073663 0.083687 -0.001545 -0.071987 0.020495 -0.123218 0.070089 -0.022448 -0.048464 0.006620 -0.023194 -0.107877 0.072889 0.119261 0.209631 0.100394 0.012998 0.165825 0.206279 -0.016207 0.011487 -0.146143 0.068615 -0.057565 -0.009271 0.006035 -0.016455 -0.139005 -0.026040 -0.055189 -0.049813 0.116645 -0.121641 -0.027859 0.018876 0.054899 -0.111246 -0.118704 -0.158024
70 0.081704 -0.134590 -0.193018 -0.057590 0.082749 -0.103544 -0.169984 0.007104 0.125868 -0.009701 0.042204 0.084918 0.022200 0.108517 0.069364 -0.037482 0.086912 -0.003209 -0.029145 0.076875 0.143899 0.091021 -0.077084 0.093303 -0.058464 0.075014 -0.006787 -0.058384 0.014528 0.054646 0.053463 0.067939 -0.237419 -0.084241 -0.042236 -0.174224 -0.032489 0.203054 0.042110 -0.070011 -0.108561 0.076847 -0.130526 0.101432 -0.005326 0.109867 -0.191017 -0.022931 -0.221630 -0.054000 0.043929 0.128017 0.120154 -0.188867 0.118492 -0.109210 0.090890 0.150529 -0.051579 -0.007109 -0.027176 -0.036305 -0.127423 -0.082302 0.133871 -0.010370 -0.133820 -0.070257 -0.039421 0.211832 0.142977 0.059188 0.070628 -0.069400 -0.034214 0.025354 -0.082516 -0.186185 0.025584 -0.032240 0.043016 -0.292643 0.030544 0.100635 -0.066255 -0.110039 0.177919 -0.008006 -0.077117 0.072281 0.081089 0.001778 -0.072491 0.018603 -0.123124 0.072915 -0.018401 -0.047408 0.010648 -0.027938 -0.109378 0.074204 0.115463 0.204890 0.098079 0.017098 0.166869 0.202028 -0.019225 0.014373 -0.142656 0.064906 -0.060797 -0.011062 0.008987 -0.014925 -0.135426 -0.028923 -0.061426 -0.045124 0.115247 -0.122059 -0.022351 0.021067 0.046926 -0.109330 -0.116964 -0.155721
27 0.079527 -0.133059 -0.190780 -0.059244 0.079957 -0.097561 -0.162484 0.008882 0.118304 -0.010835 0.042476 0.078551 0.021030 0.108756 0.068859 -0.039812 0.088473 -0.005271 -0.030538 0.068632 0.142361 0.090187 -0.073093 0.098320 -0.057283 0.068689 -0.009716 -0.051578 0.010793 0.052389 0.051418 0.061248 -0.231863 -0.085018 -0.038313 -0.171995 -0.036062 0.196401 0.040005 -0.075379 -0.110655 0.077639 -0.125939 0.099803 -0.000669 0.111055 -0.180894 -0.024316 -0.214237 -0.047396 0.042867 0.127228 0.111169 -0.183173 0.112694 -0.112091 0.085678 0.146484 -0.043639 -0.006195 -0.031201 -0.033519 -0.123846 -0.080108 0.134060 -0.012788 -0.135492 -0.065040 -0.040905 0.205261 0.135766 0.059957 0.068030 -0.069658 -0.034670 0.019124 -0.080024 -0.187058 0.023079 -0.028376 0.037440 -0.284280 0.030750 0.099977 -0.071959 -0.105485 0.175548 -0.008350 -0.080459 0.070549 0.072622 -0.002242 -0.068174 0.016305 -0.123384 0.071575 -0.018338 -0.048063 0.012652 -0.027849 -0.108118 0.071062 0.117461 0.195374 0.098252 0.019604 0.167212 0.193003 -0.020496 0.017215 -0.135212 0.061593 -0.059908 -0.012998 0.007859 -0.016822 -0.131768 -0.027676 -0.060474 -0.047762 0.106548 -0.113172 -0.022980 0.016739 0.045497 -0.103172 -0.112870 -0.150319
44 0.080511 -0.130027 -0.195283 -0.058329 0.081080 -0.101211 -0.168611 0.005151 0.126200 -0.011161 0.046641 0.083592 0.020528 0.108189 0.071929 -0.036400 0.084255 -0.005853 -0.031527 0.076145 0.141805 0.093334 -0.079247 0.098478 -0.055677 0.074106 -0.004091 -0.053971 0.015920 0.052375 0.052422 0.063203 -0.238123 -0.085553 -0.041210 -0.173588 -0.036874 0.203982 0.042260 -0.076857 -0.111841 0.082784 -0.128634 0.100996 -0.001487 0.109569 -0.191590 -0.021911 -0.221893 -0.052452 0.039341 0.127723 0.116967 -0.193360 0.118306 -0.112088 0.091066 0.145467 -0.046520 -0.011956 -0.030455 -0.039570 -0.122630 -0.085021 0.137761 -0.010092 -0.138840 -0.066699 -0.039909 0.213083 0.146252 0.057025 0.068579 -0.068626 -0.033219 0.025367 -0.087510 -0.191434 0.027493 -0.027825 0.040220 -0.292387 0.030253 0.095668 -0.070479 -0.111819 0.177400 -0.007108 -0.081039 0.070726 0.075328 0.001678 -0.072135 0.013430 -0.126156 0.074565 -0.017525 -0.043459 0.006104 -0.022577 -0.104622 0.075350 0.116695 0.204803 0.098520 0.020583 0.169327 0.201584 -0.020338 0.015085 -0.138734 0.060164 -0.063377 -0.009459 0.005312 -0.012218 -0.135962 -0.030611 -0.058122 -0.049842 0.113719 -0.121220 -0.026684 0.024063 0.052697 -0.110952 -0.118692 -0.156364
33 0.075271 -0.129389 -0.184863 -0.049900 0.082329 -0.102861 -0.164064 0.007486 0.122640 -0.013283 0.046099 0.079529 0.024011 0.101134 0.070979 -0.035284 0.082696 0.001892 -0.033063 0.072365 0.141479 0.086884 -0.070871 0.090390 -0.060388 0.072691 -0.007894 -0.055487 0.014647 0.052257 0.048770 0.068308 -0.228175 -0.076919 -0.045409 -0.170089 -0.034371 0.194543 0.038130 -0.067193 -0.106114 0.078852 -0.121270 0.095932 -0.003128 0.108256 -0.185073 -0.026816 -0.214316 -0.050090 0.039139 0.127035 0.116157 -0.187519 0.109011 -0.106381 0.083872 0.145508 -0.044256 -0.005447 -0.024346 -0.041017 -0.123285 -0.077038 0.135441 -0.016820 -0.127203 -0.070673 -0.038532 0.206880 0.142692 0.054841 0.067238 -0.062295 -0.033682 0.025323 -0.081118 -0.182653 0.025942 -0.030571 0.044140 -0.282674 0.029267 0.092788 -0.065972 -0.102483 0.167839 -0.006114 -0.074299 0.070507 0.080053 0.003948 -0.068837 0.014720 -0.115156 0.072935 -0.022459 -0.048158 0.011986 -0.025014 -0.105646 0.066864 0.111304 0.201945 0.096307 0.012435 0.161662 0.195856 -0.014077 0.011293 -0.137984 0.063071 -0.056086 -0.013488 0.007649 -0.014143 -0.130475 -0.030969 -0.058945 -0.050006 0.110931 -0.115763 -0.022362 0.020537 0.050454 -0.106344 -0.115490 -0.151861
0 0.078251 -0.134393 -0.193040 -0.059921 0.079110 -0.100650 -0.170960 0.003581 0.124308 -0.012678 0.048980 0.083035 0.024450 0.108090 0.074232 -0.040006 0.089677 -0.002295 -0.033439 0.074386 0.141654 0.088441 -0.077103 0.097930 -0.063210 0.074600 -0.004871 -0.060148 0.010177 0.049128 0.053794 0.069796 -0.236473 -0.085803 -0.039659 -0.175881 -0.032171 0.204031 0.045346 -0.076176 -0.112769 0.077885 -0.130600 0.104034 -0.002255 0.113975 -0.191665 -0.026752 -0.223183 -0.050217 0.039539 0.127652 0.115825 -0.196161 0.116001 -0.112743 0.086295 0.153203 -0.052716 -0.006589 -0.028671 -0.041829 -0.125204 -0.079645 0.137615 -0.016627 -0.136374 -0.074524 -0.043476 0.213525 0.141624 0.060175 0.071876 -0.064888 -0.031202 0.021787 -0.085451 -0.189811 0.025174 -0.031315 0.043969 -0.293528 0.035420 0.102091 -0.072557 -0.107851 0.175985 -0.007907 -0.076315 0.072367 0.078531 0.004919 -0.070563 0.014515 -0.124102 0.074239 -0.022259 -0.045501 0.012580 -0.026751 -0.105978 0.070506 0.120871 0.208404 0.098424 0.018695 0.171086 0.206059 -0.013681 0.017001 -0.144951 0.065663 -0.059905 -0.014068 0.003044 -0.018265 -0.134777 -0.031416 -0.060435 -0.047541 0.109473 -0.119654 -0.028308 0.019165 0.047486 -0.107050 -0.117323 -0.153313
