9 128
114 -0.063185 0.087585 0.033255 -0.069680 0.169301 -0.056886 0.071264 0.000363 0.201959 -0.000346 0.082730 0.006248 -0.125717 0.027032 -0.005382 -0.137344 -0.018754 0.142559 0.040257 -0.074453 0.060149 0.167398 -0.022753 0.038207 -0.044623 0.039106 -0.037691 0.048148 -0.014805 -0.091287 0.122544 -0.042038 -0.030899 -0.116342 0.101909 -0.014357 -0.259514 -0.037928 -0.041374 -0.141355 -0.074103 -0.051513 0.180931 -0.035479 0.156352 0.015722 0.043265 0.068011 0.002098 -0.020240 -0.108714 0.078042 0.025091 0.025865 -0.080781 -0.132416 -0.063345 0.045965 0.090746 0.057474 -0.118690 0.115212 -0.104906 -0.075090 0.017748 0.062486 -0.234034 -0.031916 0.077510 0.029124 0.149847 -0.039710 0.129085 -0.031199 0.115033 0.131740 0.009491 -0.223580 -0.045489 0.101167 0.094624 -0.139589 -0.123539 -0.204565 0.021328 -0.052508 0.338459 -0.024640 -0.133142 0.013455 0.149436 0.129314 -0.174528 -0.083275 -0.112227 0.002663 -0.091819 -0.026712 -0.061720 0.098008 0.052683 0.120257 -0.131634 -0.195655 0.252507 0.105742 0.203727 0.081144 0.011776 -0.079847 0.065357 0.177974 0.044636 0.135111 -0.049372 0.097951 -0.082292 -0.207262 -0.043253 -0.100830 0.126146 0.022508 0.078929 -0.025233 0.007590 0.110577 0.004605 0.090425
55 -0.059523 0.082633 0.032316 -0.063518 0.163583 -0.055068 0.072622 -0.001088 0.192818 0.002649 0.080170 0.007977 -0.121411 0.024412 -0.009752 -0.129411 -0.021565 0.134516 0.037292 -0.068230 0.063489 0.157187 -0.020140 0.033486 -0.044187 0.035629 -0.039355 0.043675 -0.012617 -0.080209 0.117759 -0.039230 -0.028953 -0.110073 0.099000 -0.009386 -0.247280 -0.034805 -0.045138 -0.136871 -0.067675 -0.041255 0.170784 -0.036122 0.150815 0.021538 0.045238 0.067083 0.005275 -0.018478 -0.102984 0.072600 0.029162 0.021457 -0.082054 -0.128550 -0.055834 0.043756 0.088396 0.049533 -0.108916 0.109221 -0.097499 -0.074592 0.021952 0.058633 -0.216329 -0.036173 0.077053 0.026079 0.145557 -0.032293 0.127040 -0.028063 0.114479 0.125101 0.007029 -0.214755 -0.042664 0.100238 0.089266 -0.133646 -0.113950 -0.193480 0.016271 -0.046843 0.317935 -0.024789 -0.127358 0.014964 0.141111 0.127313 -0.158705 -0.081676 -0.110594 0.000288 -0.092373 -0.022887 -0.056894 0.096708 0.053170 0.119671 -0.122717 -0.182025 0.238573 0.099954 0.191041 0.078243 0.015944 -0.077791 0.057083 0.172385 0.048686 0.129631 -0.042292 0.087584 -0.072626 -0.199187 -0.040535 -0.098221 0.120192 0.024744 0.068564 -0.026584 0.011288 0.102217 -0.000748 0.086361
44 -0.059649 0.087374 0.028812 -0.067568 0.167860 -0.054106 0.070732 0.000785 0.197033 0.001783 0.081980 0.007767 -0.125133 0.024414 -0.007186 -0.130661 -0.023866 0.131755 0.038519 -0.068792 0.061756 0.163991 -0.022601 0.037038 -0.043880 0.036652 -0.035053 0.049982 -0.008373 -0.084159 0.119971 -0.041667 -0.036191 -0.114126 0.100030 -0.011742 -0.252353 -0.032414 -0.044549 -0.140800 -0.074868 -0.042167 0.171467 -0.034645 0.152585 0.018056 0.042255 0.071757 0.000837 -0.018863 -0.105312 0.074255 0.026471 0.019172 -0.079068 -0.132429 -0.057045 0.041564 0.092858 0.049420 -0.114776 0.111054 -0.100073 -0.077698 0.021824 0.060479 -0.227441 -0.031154 0.078886 0.030887 0.153403 -0.035521 0.127805 -0.033955 0.112874 0.129756 0.003228 -0.221116 -0.039647 0.102801 0.089239 -0.137799 -0.120188 -0.198255 0.018383 -0.052876 0.328672 -0.022817 -0.131262 0.014007 0.138994 0.127422 -0.167027 -0.083091 -0.113811 0.003964 -0.090233 -0.023614 -0.062370 0.101547 0.053347 0.124554 -0.124364 -0.184389 0.245119 0.103546 0.198917 0.079608 0.009768 -0.079957 0.063170 0.169613 0.043410 0.136142 -0.047010 0.095072 -0.078826 -0.203920 -0.044932 -0.098873 0.122730 0.021346 0.071428 -0.020535 0.014772 0.100276 -0.001325 0.084096
39 -0.065386 0.089642 0.032345 -0.065584 0.174400 -0.053369 0.073232 0.002037 0.196766 -0.000667 0.079818 0.003227 -0.122324 0.022252 -0.008942 -0.134907 -0.025444 0.138175 0.036413 -0.068427 0.066197 0.164230 -0.016964 0.039237 -0.052019 0.038906 -0.039077 0.051531 -0.013597 -0.085138 0.122024 -0.041123 -0.036041 -0.116368 0.102838 -0.012461 -0.251767 -0.032964 -0.045812 -0.142103 -0.070242 -0.043498 0.173144 -0.038027 0.155503 0.023772 0.045520 0.072717 0.006895 -0.014146 -0.106332 0.077898 0.028311 0.018310 -0.080799 -0.131836 -0.061989 0.047369 0.096179 0.052897 -0.118132 0.117524 -0.106155 -0.078142 0.020201 0.055903 -0.223035 -0.032118 0.081461 0.028426 0.155723 -0.033303 0.126791 -0.030815 0.116647 0.131200 0.005482 -0.219668 -0.039732 0.098500 0.094199 -0.135618 -0.120044 -0.200371 0.020069 -0.049793 0.333719 -0.019608 -0.130513 0.018138 0.142222 0.129445 -0.163686 -0.080697 -0.112870 0.002670 -0.093946 -0.026194 -0.060650 0.103416 0.049904 0.126800 -0.129050 -0.186899 0.250308 0.098597 0.196243 0.082951 0.012502 -0.086390 0.061123 0.178899 0.047676 0.136897 -0.050321 0.091128 -0.081657 -0.206315 -0.048640 -0.102909 0.122568 0.023206 0.076688 -0.025516 0.016655 0.107101 0.000629 0.085122
13 -0.060210 0.087641 0.033470 -0.069592 0.169371 -0.057013 0.073839 -0.002876 0.199602 0.003158 0.079329 0.004083 -0.122121 0.020304 -0.006385 -0.135476 -0.024439 0.136506 0.038480 -0.074194 0.066501 0.162791 -0.024799 0.036553 -0.051186 0.037500 -0.033893 0.050620 -0.011061 -0.086768 0.118953 -0.037469 -0.034212 -0.116242 0.101558 -0.013606 -0.250999 -0.032289 -0.042935 -0.140834 -0.071226 -0.046557 0.176258 -0.033056 0.154512 0.022314 0.046147 0.070862 0.001744 -0.014954 -0.108403 0.078121 0.029372 0.024796 -0.084819 -0.135922 -0.063474 0.042862 0.095112 0.051268 -0.113420 0.115300 -0.106446 -0.079263 0.023364 0.055756 -0.231075 -0.037364 0.081850 0.024808 0.149820 -0.038237 0.129761 -0.034956 0.117624 0.126434 0.004743 -0.222749 -0.046281 0.098025 0.092786 -0.139973 -0.122426 -0.201337 0.016214 -0.050485 0.334726 -0.023761 -0.133296 0.018702 0.148511 0.127623 -0.171640 -0.085430 -0.111938 -0.000933 -0.093619 -0.030597 -0.063249 0.100311 0.056481 0.122502 -0.128212 -0.189437 0.247265 0.098349 0.203147 0.078405 0.013003 -0.086248 0.066559 0.175854 0.046145 0.139913 -0.050646 0.091369 -0.082153 -0.201911 -0.043334 -0.101248 0.123710 0.026828 0.078692 -0.022297 0.010491 0.108776 0.004118 0.091695
95 -0.060304 0.083868 0.034985 -0.061852 0.165420 -0.054135 0.072331 0.003456 0.187790 0.001665 0.079982 0.003285 -0.120586 0.020011 -0.011910 -0.125749 -0.020488 0.130540 0.041108 -0.071205 0.058834 0.157657 -0.017695 0.036502 -0.047871 0.031881 -0.038037 0.047128 -0.009631 -0.082420 0.114125 -0.034332 -0.035436 -0.109401 0.095968 -0.010615 -0.242199 -0.035163 -0.046029 -0.132920 -0.070408 -0.044402 0.165536 -0.035260 0.149435 0.016888 0.043920 0.069061 0.007281 -0.016861 -0.098572 0.071799 0.023319 0.020768 -0.082097 -0.130135 -0.060912 0.042121 0.086829 0.054519 -0.109186 0.106866 -0.099052 -0.072679 0.019877 0.052126 -0.215698 -0.034868 0.074151 0.028185 0.143477 -0.030491 0.126134 -0.029211 0.106530 0.123037 0.008869 -0.210949 -0.042270 0.097402 0.085265 -0.127032 -0.112112 -0.188603 0.020887 -0.048041 0.317526 -0.023235 -0.124749 0.011344 0.133882 0.120828 -0.160160 -0.074686 -0.104163 0.002533 -0.092846 -0.026465 -0.053569 0.097650 0.049429 0.118006 -0.122063 -0.176736 0.237350 0.096800 0.186815 0.073727 0.015071 -0.077342 0.063290 0.168832 0.047588 0.133335 -0.042841 0.084740 -0.077171 -0.198599 -0.047038 -0.091514 0.115070 0.022407 0.072045 -0.026675 0.008255 0.102910 -0.002120 0.086503
123 -0.067896 0.096067 0.037975 -0.071969 0.183922 -0.056594 0.078238 -0.000944 0.211246 0.000035 0.088341 0.007213 -0.133395 0.025089 -0.011965 -0.146736 -0.026578 0.147581 0.042316 -0.077906 0.069484 0.173350 -0.017950 0.033279 -0.055642 0.041149 -0.036906 0.051335 -0.010068 -0.091464 0.129930 -0.039904 -0.034651 -0.121448 0.107774 -0.008881 -0.271915 -0.040501 -0.049932 -0.147556 -0.079215 -0.051612 0.189130 -0.035626 0.165575 0.019411 0.052745 0.077090 0.005803 -0.017890 -0.111986 0.077783 0.027291 0.025027 -0.091272 -0.144808 -0.066563 0.048283 0.100215 0.058185 -0.122145 0.124312 -0.110635 -0.076725 0.021204 0.059241 -0.244231 -0.039868 0.087242 0.028831 0.165719 -0.038263 0.140895 -0.037969 0.125595 0.139400 0.005597 -0.237240 -0.043016 0.111800 0.098785 -0.147315 -0.131578 -0.212095 0.022161 -0.052590 0.354126 -0.021675 -0.134925 0.017724 0.156115 0.141270 -0.181317 -0.087785 -0.118973 0.000655 -0.103272 -0.030348 -0.065592 0.110165 0.057800 0.134337 -0.133378 -0.204114 0.267060 0.106895 0.214783 0.083228 0.012559 -0.090103 0.065498 0.187973 0.054824 0.148116 -0.051467 0.101396 -0.080196 -0.221386 -0.052586 -0.103345 0.131314 0.028774 0.075916 -0.025966 0.014500 0.109326 0.001746 0.095307
76 -0.063233 0.081964 0.028044 -0.061011 0.165234 -0.056606 0.071198 0.000233 0.188713 -0.000675 0.076049 0.008167 -0.116734 0.018498 -0.004390 -0.129300 -0.016988 0.129737 0.040657 -0.065123 0.056482 0.150298 -0.020704 0.030018 -0.044712 0.033635 -0.038896 0.044543 -0.011685 -0.084891 0.117964 -0.036496 -0.031121 -0.104962 0.098360 -0.007374 -0.242618 -0.037821 -0.038984 -0.131812 -0.072577 -0.046795 0.168252 -0.033036 0.144875 0.017851 0.043441 0.066399 0.004439 -0.014330 -0.098889 0.068950 0.026686 0.019988 -0.078247 -0.126330 -0.054648 0.045897 0.089704 0.053311 -0.112009 0.111486 -0.102132 -0.074364 0.019461 0.055401 -0.217638 -0.035162 0.073177 0.027045 0.147253 -0.035680 0.126065 -0.032290 0.113240 0.124603 0.004161 -0.206903 -0.042513 0.093350 0.088673 -0.126027 -0.117858 -0.187303 0.021667 -0.045111 0.315567 -0.022765 -0.122294 0.011179 0.133894 0.124651 -0.160391 -0.076234 -0.108117 -0.000912 -0.089712 -0.026337 -0.054650 0.094007 0.052542 0.112808 -0.120680 -0.181529 0.236348 0.098519 0.191329 0.079512 0.015900 -0.080515 0.060524 0.170644 0.044829 0.133048 -0.043349 0.091446 -0.074239 -0.195797 -0.042237 -0.091261 0.112586 0.023335 0.073372 -0.019703 0.011858 0.103043 0.005458 0.086601
101 -0.063134 0.085940 0.029603 -0.063483 0.172160 -0.058337 0.069526 -0.002609 0.197984 -0.002645 0.081617 0.006400 -0.119763 0.026308 -0.010278 -0.135677 -0.019715 0.139704 0.039630 -0.069076 0.067030 0.163084 -0.020279 0.039279 -0.050135 0.040183 -0.038088 0.045783 -0.012792 -0.083840 0.118832 -0.037560 -0.037533 -0.114107 0.097278 -0.012864 -0.254113 -0.032707 -0.042584 -0.140330 -0.070847 -0.042572 0.172625 -0.032531 0.155981 0.020806 0.041564 0.068904 0.004605 -0.017292 -0.102068 0.077396 0.029742 0.017158 -0.078838 -0.136228 -0.057585 0.048443 0.091020 0.052881 -0.116640 0.114264 -0.105167 -0.077213 0.024571 0.054700 -0.228156 -0.036916 0.075778 0.031171 0.154620 -0.034633 0.127482 -0.031749 0.115309 0.127642 0.003572 -0.223368 -0.042517 0.098903 0.090355 -0.139668 -0.117575 -0.195085 0.018684 -0.051785 0.330738 -0.020302 -0.129429 0.016446 0.145197 0.125296 -0.166152 -0.077895 -0.112500 -0.000179 -0.095215 -0.027701 -0.060981 0.101381 0.050958 0.123325 -0.123284 -0.183107 0.248183 0.098466 0.196615 0.082934 0.013904 -0.083006 0.058277 0.178414 0.049131 0.136782 -0.046500 0.090397 -0.081216 -0.201584 -0.043067 -0.099845 0.124139 0.022706 0.071412 -0.026713 0.015546 0.102992 -0.000730 0.084799
