4 128
5 0.000491 -0.003393 -0.004168 -0.000178 0.003085 -0.001202 0.003574 -0.003394 0.003749 -0.002612 0.003174 0.002871 -0.002884 0.000922 0.002205 -0.003482 -0.002014 -0.003151 -0.001260 0.002135 0.002216 0.003389 -0.003592 0.004147 0.001493 -0.002768 -0.000747 -0.003402 -0.001249 -0.001081 -0.002154 -0.001214 -0.002396 0.001407 0.002457 -0.002901 0.000799 0.001594 -0.000903 0.000318 0.003695 -0.000685 -0.002245 -0.000440 -0.002572 0.000382 0.000463 -0.000999 -0.000074 -0.001963 -0.000906 0.003277 0.003409 -0.003557 0.002264 -0.002434 0.002307 -0.001358 0.002627 -0.003851 -0.001706 -0.002630 0.002460 0.002947 -0.003176 0.000426 0.003259 -0.000892 0.001490 -0.002890 -0.001905 0.000602 -0.002677 -0.003197 0.000755 -0.002933 -0.002329 -0.003377 -0.003331 -0.003517 -0.002865 0.000339 -0.001591 -0.000028 -0.002321 -0.003885 0.002338 0.003616 0.002010 -0.000094 0.003096 -0.001348 0.001434 0.001394 -0.002902 0.001180 -0.003251 -0.002596 0.003576 0.003811 -0.003936 0.000171 -0.001864 -0.003861 -0.003817 -0.001342 0.001467 0.000012 -0.003173 -0.001125 -0.002493 0.000259 0.001357 -0.002914 -0.002415 0.003669 0.003461 0.000622 0.003549 0.001570 -0.000311 0.001555 0.000924 -0.003705 -0.003370 0.002088 -0.001679 0.003820
108 -0.002105 0.003655 -0.003281 -0.002681 0.003583 0.001657 0.001473 0.001920 -0.001158 0.003087 0.002737 -0.002988 -0.000048 -0.002452 0.000358 -0.000524 -0.001623 -0.000755 -0.001003 0.003115 0.002502 0.002713 0.002390 0.001930 -0.000014 0.001597 -0.003234 -0.001553 -0.000467 -0.004137 0.002781 0.003608 -0.003739 -0.003162 0.001113 0.003231 -0.001589 -0.000889 0.000658 0.002556 0.003830 -0.000795 -0.003056 -0.001960 -0.001666 0.001386 -0.001339 -0.001431 0.000987 -0.000162 -0.001562 -0.001113 0.002641 0.002478 -0.003510 -0.002535 0.000880 -0.002999 -0.001080 -0.001914 -0.004127 -0.001394 0.000903 0.002978 -0.003726 -0.000785 0.002776 -0.001764 -0.001434 -0.001089 0.000801 0.001699 -0.000833 0.000781 -0.003548 0.001618 -0.000089 -0.003984 -0.001131 0.000696 -0.003012 -0.002562 -0.001225 0.000120 0.000027 0.000939 -0.000784 -0.000667 0.003774 -0.003540 0.002511 0.001389 -0.003378 0.003987 -0.001411 0.001758 -0.000981 -0.000550 0.000119 0.002117 0.002250 0.001632 0.003326 0.000827 -0.003599 -0.002230 0.001663 0.003301 0.001244 0.001023 -0.001547 0.001275 0.003772 -0.001998 -0.000125 0.004258 -0.002082 0.000302 0.001921 0.001607 0.000389 -0.002985 0.000026 0.003845 0.000702 0.001389 0.002149 -0.002713
114 0.000011 -0.000854 -0.000324 -0.001775 -0.002540 -0.000649 -0.002615 0.000469 0.001646 -0.001315 0.000383 -0.000486 -0.000008 0.003707 0.002579 -0.001097 0.003557 0.003909 -0.000086 -0.001635 -0.002920 0.003262 -0.001710 0.003546 0.003709 0.001734 -0.000484 -0.000672 -0.003454 -0.003684 0.000027 -0.002394 0.001848 -0.001456 -0.000577 -0.003553 -0.002815 -0.000909 0.003300 -0.000363 0.000472 -0.003581 0.002660 -0.000405 0.000552 -0.003042 -0.003266 -0.003259 -0.001721 -0.002711 -0.001796 0.002662 -0.001653 0.002495 0.003153 0.002244 -0.001747 0.000731 -0.003012 0.002834 -0.002579 -0.000653 -0.000095 0.001380 -0.002897 0.003501 -0.003186 0.003600 -0.002713 0.001088 -0.003610 -0.002763 -0.002716 0.002312 -0.002460 0.000683 0.003192 -0.000687 -0.001982 -0.001408 0.001244 -0.001445 -0.000529 -0.002997 0.001095 -0.002131 0.003245 -0.001093 -0.001791 -0.001470 0.003578 -0.001791 -0.003634 0.000272 0.000899 0.001564 0.002917 0.000482 -0.000646 -0.003184 -0.002015 -0.003315 -0.003187 -0.003741 0.001654 0.002422 0.001347 0.000858 -0.001476 0.003433 0.001198 0.000419 -0.003122 -0.003597 -0.001494 0.002893 -0.003315 0.000427 0.002749 -0.001378 0.002496 -0.002496 0.003451 -0.001377 -0.003900 0.003602 0.002209 0.000063
50 -0.002620 -0.001500 -0.003200 0.003569 -0.002569 -0.001926 0.003816 0.001314 0.000815 0.002008 -0.001341 0.000215 0.002995 -0.002908 -0.001023 0.000734 0.003632 0.001909 0.001475 0.001290 -0.002294 0.000257 -0.000802 0.001313 0.002398 0.001457 -0.000248 0.002744 -0.000663 -0.000742 -0.001471 -0.001560 -0.003450 -0.001380 0.003531 0.002169 -0.001725 0.002074 0.000418 0.001256 0.003414 0.002764 -0.000614 -0.003054 0.001730 -0.001958 0.000521 -0.003730 0.000669 -0.001556 -0.002529 0.000865 0.002203 -0.002534 -0.003924 -0.003168 0.000970 0.002737 -0.000675 -0.000609 0.002369 -0.003962 -0.000762 -0.002893 -0.000302 -0.003883 -0.001693 -0.001940 0.000668 0.002050 -0.001102 0.000842 0.000510 0.002062 -0.003581 0.001533 -0.001084 0.002844 0.002538 -0.000101 -0.003575 0.003702 -0.000807 0.000828 -0.000631 -0.000972 -0.001807 0.000850 -0.001764 0.002339 -0.003138 0.000758 -0.001496 -0.000287 -0.002460 0.001322 0.002272 -0.002977 0.002408 0.001648 -0.003299 0.003247 0.000676 0.000488 0.001586 -0.002198 0.003597 -0.002657 -0.001260 0.001025 0.002625 -0.003341 0.001213 0.003145 -0.000929 0.003224 -0.003849 0.003322 0.002753 0.003824 0.003837 0.002311 -0.001595 -0.002572 -0.001754 -0.003758 -0.001397 0.003858
