10 128
44 0.005441 -0.002717 -0.005826 -0.005858 0.000765 -0.002200 -0.003341 0.000353 0.006156 0.002258 0.001914 0.003001 -0.006170 0.002891 0.003406 0.003342 -0.000913 -0.002125 -0.000555 -0.000090 0.001408 0.009060 -0.007190 0.005170 0.003965 0.000277 0.000127 0.003036 0.000966 -0.000816 0.002202 -0.002029 -0.004704 -0.006569 0.001066 -0.005331 -0.004765 0.008229 0.000836 -0.005766 -0.005467 0.003714 -0.003596 0.001113 0.001854 0.001290 -0.005768 0.002256 -0.007036 -0.005246 -0.003495 0.003416 0.002772 -0.002290 0.003435 -0.003296 0.001531 -0.000709 -0.002068 -0.004251 -0.002254 -0.002938 -0.000596 -0.005955 0.002395 0.006740 -0.008132 0.003479 0.000816 0.005379 0.001492 0.002254 0.001767 -0.002018 -0.001810 0.004043 -0.002364 -0.008954 -0.000070 0.002622 0.000154 -0.008146 -0.000002 -0.002398 -0.002628 -0.004756 0.008584 -0.003822 -0.006509 -0.001381 0.001342 0.000911 -0.003384 -0.005344 -0.006715 0.003461 0.003606 0.002119 -0.002615 -0.000196 0.000572 0.005165 -0.001639 0.001440 0.004417 0.007474 0.008144 0.003749 -0.002020 0.003429 0.001237 -0.000984 -0.004181 0.002670 -0.000815 0.003223 -0.006493 -0.002180 0.000478 -0.004024 0.005909 -0.006238 -0.001058 0.002411 -0.000249 -0.001533 -0.005376 -0.002069
114 0.002161 -0.003485 -0.001414 -0.004075 -0.002072 -0.002297 -0.004269 0.000300 0.003956 -0.000743 0.000662 0.000566 -0.002059 0.004967 0.003539 -0.000096 0.004358 0.004901 -0.000033 -0.002802 -0.001786 0.006561 -0.004208 0.005134 0.003702 0.001925 -0.001454 -0.000548 -0.004618 -0.004293 0.000828 -0.001532 0.001137 -0.004246 -0.000474 -0.006261 -0.004156 0.002310 0.004020 -0.001829 -0.001310 -0.003502 0.001085 0.000541 0.001457 -0.001880 -0.005155 -0.003200 -0.003887 -0.005030 -0.002628 0.004383 -0.000180 0.002593 0.003889 0.000848 -0.002534 0.002343 -0.005738 0.002673 -0.002866 -0.001523 -0.001628 -0.000095 -0.002292 0.005372 -0.005939 0.003553 -0.002916 0.002688 -0.004915 -0.000802 -0.001389 0.002295 -0.002961 0.001866 0.003656 -0.003830 -0.003272 -0.001438 0.002228 -0.004569 0.000602 -0.002615 0.000352 -0.002778 0.006927 -0.003204 -0.003463 -0.001876 0.006085 -0.001291 -0.004529 -0.001344 -0.000861 0.002078 0.003516 0.000217 -0.000175 -0.004956 -0.002412 -0.002207 -0.004289 -0.003418 0.004053 0.004988 0.004392 0.002483 -0.000669 0.005086 0.000702 0.002157 -0.003261 -0.002830 -0.001418 0.002545 -0.006162 0.000025 0.002657 -0.002639 0.004842 -0.004846 0.003357 -0.002388 -0.005910 0.004527 0.000236 0.000564
13 0.003663 -0.000933 0.000858 -0.003849 -0.000898 -0.001470 0.000403 -0.002565 0.001952 0.003073 -0.002112 -0.002132 0.000837 -0.002742 0.001540 0.000041 -0.002531 -0.000832 -0.001224 -0.003442 0.004221 0.001394 -0.004741 0.001697 -0.003772 0.000042 0.003115 0.002536 0.000332 -0.000269 -0.002013 0.002674 -0.001473 -0.003501 0.000285 -0.003639 0.003177 0.005247 0.000949 -0.001240 0.001391 0.000069 -0.000737 0.002188 0.000282 0.003797 0.000288 0.000767 -0.002962 0.001367 -0.002899 0.003567 0.002867 0.002784 -0.002431 -0.003145 -0.003642 -0.001772 0.000997 -0.002536 0.002334 0.000179 -0.003134 -0.003396 0.002655 -0.002001 -0.003554 -0.002557 0.002991 -0.002896 -0.003290 -0.000716 0.000596 -0.002325 0.000996 -0.002866 -0.000783 -0.002911 -0.003722 -0.002971 0.000828 -0.004193 -0.000433 -0.001519 -0.003881 -0.000472 0.004187 -0.001622 -0.003490 0.003719 0.005232 -0.001446 -0.003220 -0.003811 -0.000080 -0.001796 0.000209 -0.004097 -0.002353 -0.000807 0.002513 0.000682 -0.001591 0.000196 -0.000213 -0.002801 0.004352 -0.001512 0.000085 -0.003017 0.003385 0.000229 -0.000902 0.003217 -0.003096 -0.002959 -0.004384 0.003146 0.001214 -0.002502 0.001938 0.001597 0.003928 0.001028 -0.002568 0.003121 0.000992 0.003229
95 0.000777 -0.001479 0.002523 -0.000603 0.003598 -0.002415 0.001224 0.003649 0.001810 0.001177 0.002883 -0.001765 -0.004615 -0.000204 -0.002802 0.002767 0.001754 0.001520 0.003230 -0.004006 -0.000669 0.006410 -0.000287 0.004844 -0.001359 -0.002907 -0.003782 0.001224 -0.000327 -0.001558 0.000175 0.002855 -0.004110 -0.003656 0.000047 -0.002855 -0.002740 0.001481 -0.002858 -0.001544 -0.002318 -0.000589 -0.002253 -0.001652 0.003452 -0.000795 -0.001478 0.001655 0.001319 -0.002943 0.000660 0.002280 -0.001283 -0.000132 -0.002226 -0.003862 -0.003924 0.000940 -0.003933 0.003720 -0.000684 -0.002606 -0.001667 -0.001336 -0.000139 -0.000482 -0.001802 -0.000641 -0.001592 0.003120 -0.002389 0.004988 0.003304 0.002314 -0.004413 0.001443 0.004014 -0.003796 -0.002587 0.001192 -0.001109 0.000096 0.003674 0.000299 0.001767 -0.001366 0.006100 -0.003210 -0.002759 -0.003527 -0.000552 -0.001461 -0.001292 0.002036 0.000738 0.002304 -0.002559 -0.000784 0.004014 0.000246 -0.002303 0.001990 -0.003001 0.002256 0.004004 0.002948 -0.000020 -0.000353 0.002735 0.003060 0.002928 0.003151 0.001814 0.002886 0.002011 -0.003476 -0.005145 -0.004154 -0.003596 0.000973 0.001063 -0.003343 0.001660 -0.004755 -0.005035 0.003614 -0.005163 0.002299
0 0.000646 -0.003963 -0.000601 -0.005399 -0.002693 0.001149 -0.002593 -0.001179 0.000602 0.000596 0.003386 0.000795 -0.000673 0.000813 0.003985 -0.000981 0.003435 0.000225 -0.002112 -0.001800 -0.001242 0.000003 -0.002163 0.002171 -0.003630 -0.000423 0.000291 -0.002904 -0.004158 -0.004067 0.002610 0.003467 -0.000086 -0.003805 0.003385 -0.003635 0.002195 0.003713 0.002985 -0.003391 -0.004178 -0.002467 -0.003452 0.002747 0.000192 0.003991 -0.001972 -0.002188 -0.004363 -0.000242 -0.002634 0.000351 -0.001173 -0.003284 -0.000742 -0.001859 -0.003694 0.004719 -0.005966 0.001675 0.000254 -0.003763 -0.000896 0.001666 0.000241 -0.001594 -0.001992 -0.004036 -0.002301 0.002193 -0.004058 0.003769 0.003832 0.002202 0.001210 -0.001263 0.000357 -0.002436 -0.001713 -0.000667 0.002701 -0.003758 0.004499 0.003654 -0.003609 0.001079 0.002452 -0.002924 0.000580 0.000053 0.001284 0.003837 -0.000022 -0.002931 -0.001985 0.001769 -0.001670 0.000744 0.003754 -0.003041 0.000594 -0.001381 0.002793 0.002930 0.001316 0.003457 0.005774 0.004887 0.004302 0.004048 -0.003441 0.002623 0.000097 -0.002412 -0.003173 -0.003242 -0.001311 -0.002337 -0.001688 0.000344 -0.002139 -0.001303 -0.002521 -0.002209 -0.004758 0.002828 -0.001135 0.002497
101 0.000947 -0.003294 -0.003859 0.000129 0.003056 -0.004741 -0.004461 -0.003136 0.003711 -0.002896 0.000610 0.001129 0.001726 0.004005 -0.000426 -0.001835 0.003481 0.004526 0.000658 0.000230 0.004912 0.004098 -0.002665 0.004863 -0.002413 0.003523 -0.001395 -0.002173 -0.002509 0.000164 -0.000534 0.002569 -0.004527 -0.003241 -0.003048 -0.004323 -0.003410 0.005188 0.002996 -0.002185 -0.000202 0.002062 -0.002272 0.003675 0.003021 0.002117 -0.005101 -0.001525 -0.001937 -0.002186 0.001693 0.004248 0.004089 -0.003563 0.003608 -0.005077 0.001366 0.005122 -0.003559 -0.000006 -0.002649 0.000224 -0.004126 -0.002478 0.003905 -0.001130 -0.005797 -0.002449 -0.003052 0.004104 0.001835 0.001682 -0.000080 -0.000087 -0.000060 -0.000042 -0.001897 -0.006845 -0.001860 -0.002005 0.000087 -0.006750 0.002450 0.002759 -0.001306 -0.002523 0.005389 0.000450 -0.001440 0.001050 0.005493 -0.002439 -0.001417 0.001956 -0.002454 -0.001374 -0.001228 -0.002269 -0.000899 -0.000692 -0.002038 0.001431 0.001461 0.003211 0.004100 -0.000230 0.002582 0.004710 0.001304 0.000159 -0.003883 0.005196 0.001632 0.001695 0.000092 -0.001591 -0.005758 0.002208 0.002290 -0.002237 0.004538 -0.003194 -0.001676 -0.002999 0.000934 -0.000455 -0.002830 -0.001809
55 0.002840 -0.003589 0.000149 -0.001917 0.000047 -0.003195 0.001770 -0.001581 0.005243 0.003092 0.002370 0.002944 -0.004595 0.002969 -0.000866 0.000534 0.000133 0.003581 -0.000733 -0.001091 0.004173 0.003875 -0.003158 0.000586 0.002224 -0.000128 -0.004285 -0.002665 -0.002449 0.001946 0.002370 -0.000817 0.002890 -0.003216 0.002340 -0.000959 -0.005159 0.002327 -0.002108 -0.004144 0.001121 0.003367 0.001515 -0.001800 0.003512 0.004312 0.000395 -0.000622 -0.000780 -0.004072 -0.003038 0.002005 0.004881 0.000968 -0.002988 -0.002034 0.001607 0.001346 -0.002806 -0.002565 0.001848 -0.001579 0.001003 -0.003018 0.002724 0.004969 -0.000540 -0.003110 0.001333 -0.000143 -0.002065 0.003613 0.004046 0.003158 0.003216 0.001631 0.001697 -0.006076 -0.003276 0.003548 0.001729 -0.005499 0.002865 -0.002682 -0.003920 0.000786 0.003049 -0.005166 -0.004409 0.000309 0.005758 0.004179 0.001526 -0.005175 -0.004802 -0.000722 -0.001931 0.002497 0.001226 -0.001347 0.002318 0.002768 -0.002090 -0.001182 0.002336 0.004800 0.002985 0.002588 0.004172 0.002826 -0.003346 0.004915 0.003185 -0.001118 0.003283 -0.002217 0.000778 -0.002646 0.003573 -0.004656 0.004905 -0.000089 -0.002936 -0.004169 -0.002446 0.001900 -0.003895 0.002505
70 0.004748 -0.005277 -0.002163 -0.003104 0.001866 -0.002685 -0.003086 0.002746 0.003094 0.003540 -0.003408 0.003558 -0.002462 0.002147 -0.000598 0.001108 0.001382 -0.000791 0.002138 0.001810 0.002340 0.002866 -0.002302 -0.002323 0.000734 0.000732 -0.001772 -0.001923 0.000635 0.002464 0.002799 0.002207 -0.003156 -0.002433 0.000270 -0.003171 0.001865 0.004023 -0.000142 0.002888 -0.000533 -0.003037 -0.004433 0.000847 -0.003367 0.000631 -0.002856 0.001467 -0.004595 -0.004412 0.002672 0.001632 0.004386 0.002544 0.002922 0.001250 0.002159 0.003412 -0.005063 0.001327 0.001768 0.001836 -0.004301 -0.001524 -0.002571 0.004611 0.000143 -0.000412 0.001589 0.002304 -0.001075 0.003097 0.003146 -0.003121 -0.002162 0.002591 0.002743 0.000291 -0.000799 -0.002015 0.002191 -0.005162 -0.000475 0.003251 0.002620 -0.002047 0.005502 -0.002853 -0.000546 0.000781 0.004489 0.000652 -0.002520 0.001908 -0.001805 0.001034 0.002033 -0.001697 0.002078 -0.004502 -0.004179 0.002961 -0.001539 0.001265 0.001513 0.001493 0.002400 0.002512 -0.001655 0.001219 -0.002644 0.002389 -0.001325 0.000268 0.003284 0.000070 -0.002670 -0.000063 -0.003546 0.002794 0.004670 -0.004644 0.003548 0.000020 -0.004777 -0.000750 -0.001543 -0.001679
117 0.004923 -0.004869 -0.000758 -0.003372 0.003031 -0.003465 -0.004492 -0.001905 0.002654 -0.002989 -0.002605 0.000712 -0.004078 -0.002739 0.003602 0.004484 -0.003023 0.003567 0.000605 -0.004268 0.003614 0.005341 -0.002272 0.000261 0.000187 0.000680 -0.002393 0.002957 -0.004360 -0.001871 -0.000101 0.003691 0.002787 -0.005677 -0.001534 -0.002711 -0.004648 0.004913 0.003267 0.002592 -0.003526 -0.000121 -0.004354 0.003733 0.002567 0.002619 -0.001710 -0.000932 0.000304 -0.002692 -0.001959 0.000331 0.004895 0.003387 0.001722 -0.001201 -0.003583 0.002844 -0.004082 -0.002698 -0.002284 -0.001024 -0.002605 -0.002643 0.001436 0.003548 -0.003825 0.001668 0.000667 0.000894 -0.002352 0.003731 -0.001654 -0.001496 0.000327 0.003630 -0.002155 -0.005708 -0.001435 -0.001127 0.001915 0.000880 -0.002006 0.002719 0.000131 0.003171 0.001690 -0.003006 0.002091 -0.001949 0.005416 0.000144 0.001075 -0.004409 -0.003348 -0.001972 0.003761 -0.003437 0.002630 -0.003261 -0.000092 0.002832 -0.002425 -0.003442 0.004414 0.002408 0.005530 0.000597 0.004185 0.000385 -0.000143 0.004099 0.003240 0.003637 -0.002512 0.002697 -0.005272 0.002966 -0.000678 -0.002782 0.004540 -0.002665 -0.003089 -0.001167 -0.002871 0.003179 -0.001032 0.001792
32 -0.000937 -0.003967 -0.004252 -0.000841 0.000579 -0.000242 0.001709 -0.000800 -0.000849 0.001125 -0.000873 0.002329 -0.002363 0.001707 0.000779 0.002772 0.001556 -0.000809 -0.003567 -0.000154 0.000258 0.004321 -0.004214 -0.001188 -0.003039 -0.001052 -0.002133 0.003667 0.000889 -0.002542 -0.000686 -0.000025 0.003332 0.001065 -0.002078 -0.000824 0.002308 0.004839 -0.000436 -0.002955 -0.003362 0.001420 -0.001269 -0.000379 -0.002830 -0.000838 0.002014 0.001653 -0.001539 -0.004372 -0.000715 0.002039 -0.000683 0.001905 -0.002609 -0.003115 -0.001861 0.000395 -0.001304 -0.000995 0.000747 0.000024 -0.003691 0.002791 -0.003248 -0.000142 -0.003644 0.002577 0.000557 -0.002755 -0.003795 0.003835 0.001640 -0.001491 -0.002638 0.003069 0.001190 -0.000744 -0.000961 -0.000221 -0.000578 -0.002930 0.003489 0.000597 -0.000265 0.003085 0.003307 -0.000128 0.000497 -0.002834 0.002165 0.002771 0.001429 -0.003084 0.000752 0.000173 0.000640 -0.001043 -0.003356 -0.004406 0.001569 -0.002117 -0.003604 -0.002090 0.003400 0.004915 0.004408 -0.001681 -0.003137 0.002500 0.000466 -0.001505 0.002074 0.003219 0.002889 0.002158 -0.001818 0.002892 0.003307 -0.001909 -0.000345 -0.004789 -0.000164 0.001509 0.002030 -0.003082 -0.004519 0.002931
