5 128
44 0.002591 0.000973 -0.003564 -0.002559 0.000133 0.000258 -0.001006 0.000708 0.002487 0.001675 0.001052 0.001241 -0.002857 0.000674 0.001689 0.002205 -0.002500 -0.003945 -0.000588 0.001581 0.000330 0.003655 -0.003876 0.002176 0.003416 0.000033 0.002120 0.002914 0.003008 0.000597 0.000977 -0.003233 -0.003941 -0.002260 0.001030 -0.001292 -0.001933 0.003580 -0.000228 -0.003414 -0.003143 0.003917 -0.001533 -0.000169 0.000347 -0.000264 -0.002814 0.002960 -0.004164 -0.001381 -0.001733 0.000897 0.000740 -0.002390 0.002373 -0.001179 0.002398 -0.003078 0.002386 -0.004264 -0.001061 -0.001109 0.001390 -0.003859 0.001699 0.003753 -0.003977 0.003280 0.001589 0.002664 0.003696 -0.000672 0.000191 -0.002559 -0.000702 0.002117 -0.002868 -0.003825 0.001928 0.002338 -0.000884 -0.003788 -0.001577 -0.002697 -0.001601 -0.003559 0.003157 -0.000669 -0.004183 -0.000273 -0.002385 0.000066 -0.002096 -0.003180 -0.003804 0.002484 0.002512 0.002113 -0.003545 0.002397 0.001107 0.003501 0.000243 0.001383 0.000891 0.003380 0.003769 0.001130 -0.003432 0.000221 0.002091 -0.003768 -0.003906 0.002045 -0.001044 0.003073 -0.002134 -0.001555 0.000001 -0.002147 0.002170 -0.002399 -0.000844 0.004203 0.002826 -0.003228 -0.002597 -0.002920
13 0.003023 0.000221 0.001619 -0.003094 -0.001118 -0.000768 0.001009 -0.002534 0.000986 0.002955 -0.002362 -0.002865 0.001806 -0.003528 0.001153 -0.000083 -0.003333 -0.001423 -0.001348 -0.003031 0.004233 -0.000021 -0.004233 0.000983 -0.003813 0.000110 0.004020 0.002694 0.000947 0.000108 -0.002411 0.002056 -0.001450 -0.002433 0.000412 -0.002524 0.003901 0.004016 0.000834 -0.000704 0.001958 0.000541 -0.000128 0.001794 0.000025 0.003381 0.001000 0.001230 -0.002380 0.002587 -0.002516 0.003016 0.002431 0.002756 -0.002629 -0.002656 -0.003526 -0.002731 0.002656 -0.003004 0.002728 0.000750 -0.002425 -0.002975 0.002627 -0.002727 -0.002647 -0.002465 0.003386 -0.003802 -0.002448 -0.001811 0.000041 -0.002668 0.001440 -0.003400 -0.001019 -0.001681 -0.003171 -0.003102 0.000593 -0.003219 -0.001016 -0.001895 -0.003847 -0.000204 0.002754 -0.000718 -0.003146 0.004148 0.004241 -0.001834 -0.003095 -0.003575 0.000657 -0.002047 -0.000024 -0.004191 -0.002969 0.000153 0.002802 0.000253 -0.000982 0.000132 -0.001196 -0.003991 0.003474 -0.002296 -0.000519 -0.004236 0.003874 -0.000845 -0.000906 0.003242 -0.003525 -0.002885 -0.003295 0.003376 0.001207 -0.002284 0.000977 0.002840 0.003940 0.001833 -0.001534 0.002568 0.001783 0.002880
103 0.000442 -0.001205 0.003963 0.001293 -0.002078 -0.000250 -0.000971 -0.000250 -0.001200 0.000239 -0.002401 -0.003617 -0.001635 -0.002722 -0.002765 0.002822 -0.000915 0.003633 -0.002400 -0.001794 0.003750 0.001555 -0.003919 0.001379 -0.003003 0.000232 0.002583 -0.000213 -0.001641 -0.002571 0.002574 -0.001312 0.000067 -0.001560 0.002622 0.002988 -0.002078 -0.002896 0.002526 0.000083 -0.001403 0.003604 0.000554 0.000059 0.003706 0.001301 0.000668 0.002615 -0.002232 -0.003119 0.001723 0.001271 0.001112 0.002904 0.000875 -0.003144 -0.002519 0.002879 -0.000887 0.000110 0.000663 0.000764 0.001758 0.001937 -0.000292 -0.000674 0.001834 0.002001 -0.000416 -0.001433 0.000831 -0.002382 0.002700 -0.000011 0.000214 0.003537 0.003954 0.002169 -0.003843 -0.004034 0.000842 -0.003343 0.003068 0.003676 -0.000335 0.001134 0.001859 0.000157 -0.000351 -0.002841 -0.000342 -0.001032 -0.000925 -0.003329 0.003364 0.002126 -0.001491 -0.001075 0.002597 -0.002215 -0.000222 -0.001425 0.001654 -0.003139 0.000460 -0.003638 0.003611 0.001646 0.000930 -0.002118 -0.003673 -0.002769 0.002677 0.003811 -0.001712 0.000871 0.001470 0.000863 0.000519 0.002819 0.000865 0.002229 0.000899 0.001727 -0.002824 -0.002700 0.003309 0.001320
81 0.000070 -0.002099 0.003877 -0.002837 0.003250 0.000171 -0.002632 0.003307 -0.001463 -0.001273 0.001342 -0.002608 0.002960 0.000303 0.000662 0.003574 -0.001468 -0.000050 0.001377 0.001176 0.003739 -0.000451 -0.003784 -0.002314 0.002081 0.003762 0.001136 -0.001727 -0.002256 -0.000148 -0.000153 -0.002743 -0.003677 0.000673 0.001686 -0.001165 0.002449 -0.001030 0.003905 0.002885 -0.002934 0.002456 -0.003064 -0.002456 -0.001197 -0.003824 -0.003641 0.004354 -0.001726 0.002911 0.003746 0.001315 0.000822 -0.001404 0.003146 0.002348 -0.003719 -0.000777 0.003103 -0.003683 0.002240 0.002877 -0.000254 0.003536 -0.003406 0.002245 -0.001844 0.000313 0.000426 -0.001819 0.002283 0.000386 -0.001504 -0.002410 0.000215 0.000216 0.003161 -0.000029 0.002457 -0.001316 0.003657 -0.001253 -0.000737 -0.001600 0.000508 0.001901 -0.000280 0.000391 -0.000025 0.001121 0.002573 -0.001467 -0.002987 0.000798 0.000228 0.000190 -0.000560 -0.003309 -0.002993 0.001786 -0.004022 -0.002479 0.002154 0.001929 0.002255 0.003058 0.003313 -0.000014 -0.003805 -0.003253 0.002325 -0.000318 0.002276 -0.001050 -0.003697 0.000222 -0.002049 -0.001402 -0.002536 -0.003062 -0.001630 -0.000659 -0.002918 0.000646 0.000942 0.000143 -0.003848 -0.003933
70 0.003980 -0.004110 -0.001282 -0.002269 0.001662 -0.001851 -0.002441 0.002961 0.001903 0.003444 -0.003747 0.002839 -0.001314 0.001328 -0.001058 0.000903 0.000669 -0.001506 0.002122 0.002357 0.002179 0.001118 -0.001522 -0.003350 0.000644 0.000776 -0.000889 -0.001915 0.001302 0.002918 0.002410 0.001676 -0.003108 -0.001112 0.000400 -0.001947 0.002944 0.002564 -0.000312 0.003734 0.000122 -0.002864 -0.003876 0.000386 -0.003921 0.000062 -0.002040 0.001925 -0.003906 -0.003040 0.003277 0.000910 0.003812 0.002565 0.002714 0.002018 0.002284 0.002495 -0.003419 0.001080 0.002289 0.002540 -0.003648 -0.000847 -0.002874 0.003778 0.001374 -0.000404 0.001985 0.001311 -0.000281 0.002021 0.002589 -0.003506 -0.001776 0.001959 0.002654 0.001961 -0.000115 -0.002228 0.002004 -0.003918 -0.001116 0.003025 0.002885 -0.001684 0.003830 -0.001855 0.000072 0.001264 0.003387 0.000285 -0.002352 0.002474 -0.000870 0.000766 0.001764 -0.001849 0.001589 -0.003601 -0.004073 0.002392 -0.000868 0.001272 0.000369 0.000181 0.001246 0.001634 -0.002339 -0.000037 -0.002180 0.001310 -0.001325 0.000110 0.002950 0.000074 -0.001381 0.000141 -0.003798 0.003293 0.003470 -0.003361 0.003676 0.000811 -0.003814 -0.001301 -0.000647 -0.002085
