20 128
84 -0.004660 0.000360 0.003296 0.002255 0.004311 0.003698 -0.003059 -0.000856 0.000255 0.001909 0.003407 0.000025 0.002417 -0.002404 -0.001233 0.001214 0.000118 0.001603 0.001929 0.001142 -0.003178 0.001326 0.002293 0.001971 0.000598 -0.001616 -0.002278 0.002637 0.001418 -0.002738 0.001321 0.004610 -0.003512 -0.000073 0.002904 0.002157 0.000142 0.004328 -0.002821 -0.001327 -0.002740 0.004179 -0.000419 -0.003086 -0.003525 0.001925 -0.002951 0.000667 0.000223 -0.001714 -0.000035 -0.000191 -0.003529 -0.000343 -0.002811 -0.001820 0.002680 0.003053 -0.002355 0.002922 -0.001510 0.003212 -0.002903 0.004094 0.001636 0.002108 -0.004504 -0.000002 0.000284 -0.004404 -0.001221 -0.001372 -0.004707 0.000996 -0.001073 0.000633 0.003952 0.001284 -0.001567 0.002476 0.003380 -0.000042 -0.001989 0.003632 0.002272 0.001207 0.000796 -0.003258 -0.000442 0.000319 -0.003986 -0.000046 -0.000379 -0.002459 -0.004752 0.004331 -0.001345 -0.001003 -0.001028 0.004441 0.004341 -0.000967 -0.001390 0.000204 -0.001018 -0.002406 -0.003969 -0.002284 0.003203 0.000597 -0.001965 -0.001208 0.003465 -0.003531 -0.000617 0.004488 0.001808 0.001561 -0.003850 0.003064 -0.003394 0.003864 -0.000419 -0.000024 -0.000606 0.000034 0.004762 -0.003445
108 -0.002855 0.003397 -0.002813 -0.003064 0.003726 0.001858 0.000715 0.002006 -0.001487 0.003434 0.002904 -0.003102 0.000090 -0.003055 0.000343 -0.001326 -0.001878 -0.000804 -0.000703 0.003083 0.002638 0.002753 0.002421 0.002272 0.000091 0.001738 -0.003427 -0.001342 -0.000495 -0.004003 0.002855 0.003931 -0.004019 -0.002841 0.001003 0.003415 -0.001497 -0.000521 0.000404 0.002775 0.003822 -0.000393 -0.003092 -0.002398 -0.002021 0.001331 -0.001744 -0.001461 0.000859 0.000476 -0.001384 -0.001488 0.002448 0.002870 -0.003852 -0.002735 0.000909 -0.002760 -0.001501 -0.001604 -0.004265 -0.000724 0.000564 0.003231 -0.003914 -0.001103 0.002045 -0.001792 -0.001776 -0.001467 0.000918 0.001749 -0.001196 0.000962 -0.003317 0.001345 0.000642 -0.003585 -0.000930 0.000708 -0.002962 -0.002309 -0.001111 0.000480 0.000555 0.002048 -0.000771 -0.001167 0.003004 -0.003212 0.002028 0.001677 -0.003495 0.003601 -0.002164 0.001795 -0.001491 -0.000462 -0.000077 0.002393 0.003214 0.001413 0.003234 0.001050 -0.003382 -0.002335 0.001397 0.003045 0.001700 0.000760 -0.001645 0.000788 0.003717 -0.002257 -0.000005 0.004482 -0.001643 0.000493 0.001726 0.001993 0.000308 -0.002720 -0.000119 0.004094 0.000916 0.001512 0.002583 -0.003030
133 -0.004119 -0.003689 0.001918 0.000999 -0.000329 -0.000430 -0.003813 0.002409 0.002282 0.001828 0.002089 -0.001959 -0.002254 0.000884 0.000013 -0.003397 -0.003733 0.000352 0.001890 0.000361 0.001866 0.000609 -0.003450 -0.000816 -0.002631 0.003121 0.001794 -0.000784 0.002825 0.001340 -0.003185 -0.000302 -0.001501 0.001055 0.000791 0.003333 -0.001637 0.004185 -0.003097 0.001537 0.000079 0.003177 0.003333 0.000399 -0.001098 0.001677 -0.004150 -0.002068 -0.002852 0.000363 0.002228 -0.002532 0.001364 0.002244 -0.001409 0.002593 -0.002758 0.000093 0.002465 0.000622 0.002906 0.000811 -0.003105 -0.000215 -0.002660 0.000774 -0.003232 -0.002301 0.002547 -0.001646 -0.003630 0.000942 0.000042 0.003433 0.001680 -0.000374 -0.001801 0.004006 0.001085 0.000072 -0.001550 0.002425 -0.001470 0.001522 -0.000761 0.002656 0.001800 0.000425 0.000133 0.002493 -0.001899 0.000258 0.000500 -0.003958 -0.003894 -0.003088 -0.003203 0.000684 -0.000802 -0.003114 0.004163 -0.003312 0.003394 -0.002519 0.000935 -0.001434 -0.003976 0.000646 0.002247 -0.002689 -0.002514 -0.003138 -0.000892 -0.003270 0.001957 -0.001963 -0.001068 0.002914 0.000660 -0.000337 -0.001138 -0.000177 -0.000780 -0.002754 0.003444 0.002443 0.003021 0.001896
198 0.001072 -0.002917 -0.000493 -0.002203 -0.003504 0.000130 -0.004207 -0.000723 0.002784 0.002417 -0.002578 -0.000875 0.003562 0.003273 0.000206 -0.003728 -0.001515 -0.001266 0.002823 0.002792 -0.002621 0.001029 -0.003234 0.000386 -0.001562 0.003292 0.003002 -0.002941 -0.000212 -0.000358 0.000335 0.000500 0.001301 0.002891 0.000071 0.001676 0.003562 -0.001551 -0.001748 0.003980 0.003129 -0.003246 -0.001190 -0.001938 0.002906 0.000130 0.001782 -0.003705 -0.001113 0.002193 0.000584 0.002843 0.002141 0.001311 -0.001605 -0.000308 0.001290 0.002239 -0.002018 0.003497 -0.000697 -0.002780 0.001688 0.001341 0.000502 -0.003947 -0.000733 0.003698 -0.003345 -0.000641 0.003859 -0.000055 -0.002908 0.002579 0.003621 0.001086 0.003085 -0.003340 -0.002163 0.000586 -0.001609 0.003597 -0.003905 -0.001196 0.004219 0.003414 -0.001635 -0.002899 -0.003838 -0.000550 0.000434 -0.002213 0.003535 0.001607 0.002937 0.000672 0.003296 -0.001307 -0.000588 -0.001947 0.000576 -0.000147 -0.001924 -0.002848 -0.002700 0.002846 0.000670 -0.002894 -0.001723 -0.002087 -0.003588 0.003341 0.003886 -0.000550 -0.000349 0.002713 0.003081 0.001945 -0.001032 0.003471 0.001519 0.002424 -0.001112 0.002846 -0.001847 0.001215 0.001389 -0.003498
3 -0.003867 0.000709 0.003704 0.000496 0.001295 -0.000201 0.001807 0.000004 -0.003787 -0.001250 0.001921 -0.003047 -0.003745 -0.004055 -0.001712 -0.003099 0.003561 -0.002831 -0.000533 -0.002087 -0.003165 0.001610 -0.000915 0.003996 0.003866 -0.001518 -0.000216 0.002827 0.003943 0.003462 -0.002025 -0.002140 -0.003685 0.003662 -0.000965 -0.002868 0.001086 0.002620 0.001136 0.002284 0.000838 -0.003704 0.000934 0.003057 -0.002045 -0.000699 0.002449 -0.002773 -0.003974 0.002965 0.003409 -0.001528 -0.003787 0.001172 -0.002683 -0.002544 -0.001917 0.001131 -0.001976 0.003745 -0.003762 0.002038 -0.001216 0.003841 0.000013 -0.002703 0.003264 0.002528 0.000935 -0.003145 0.002528 0.000888 -0.002554 0.002694 0.001641 -0.001720 0.003943 -0.000936 0.003675 -0.000845 -0.000385 0.002801 -0.001315 -0.001837 0.001717 0.002030 -0.000234 0.000931 -0.002721 -0.000892 -0.001764 0.002073 -0.001246 0.000576 -0.003818 0.002793 -0.003745 0.003209 0.003368 0.000461 -0.003118 0.000937 -0.003448 -0.001129 0.001743 0.003864 -0.000529 -0.000468 0.003089 -0.002071 0.002490 -0.000207 0.000808 0.000478 0.000868 0.002172 -0.000766 0.002316 0.003205 0.000583 -0.001943 -0.003385 -0.001492 -0.000728 -0.002650 0.000810 0.001380 0.001484
178 0.001348 0.003031 -0.002338 0.000644 0.003204 -0.000832 -0.003420 0.000541 0.003667 0.002827 0.003766 0.001939 0.002885 -0.001014 -0.000151 -0.003591 -0.000586 0.000912 0.001026 0.001745 -0.000861 0.003271 -0.002261 0.000324 0.003117 0.002614 0.000615 0.001065 -0.003411 0.002355 0.003760 -0.000354 0.003249 0.000590 -0.002681 0.002360 0.001975 0.001516 -0.002107 0.000761 -0.001234 0.004253 0.001876 0.000256 0.002649 -0.000234 0.001392 -0.001963 0.001805 0.003426 -0.000420 -0.000830 0.002486 -0.001327 -0.002653 0.003261 -0.002869 0.001929 0.001714 0.001245 -0.001210 -0.000689 0.003017 -0.001042 -0.001950 0.000261 -0.000299 -0.003605 -0.004199 0.003164 0.000025 0.000804 0.001570 -0.002141 -0.002865 -0.003652 0.004003 -0.002647 0.004006 0.001940 -0.003444 -0.001638 0.000353 0.002985 0.003490 0.004779 0.003857 -0.002013 -0.003903 -0.003656 0.001567 0.002515 0.003369 -0.001553 0.002825 -0.002140 -0.002901 0.000127 -0.001240 -0.002086 -0.000951 -0.002850 0.000747 -0.000098 -0.001411 0.000377 0.002378 -0.001744 -0.002316 0.001647 0.002999 -0.000823 -0.000060 0.000607 -0.003115 0.002270 -0.002941 -0.002420 -0.001554 -0.000888 -0.001408 0.003917 0.001051 -0.003658 -0.000455 0.002523 -0.000148 0.001725
200 -0.002618 -0.003729 0.001065 -0.002657 -0.000084 -0.003747 -0.004449 0.002088 -0.001897 -0.000764 -0.000514 -0.002613 0.003307 -0.003554 0.003432 -0.000172 -0.001522 0.001461 0.001904 -0.001810 0.003437 -0.001299 0.001081 0.003383 -0.000049 -0.003004 -0.004224 -0.003580 -0.003089 0.001619 -0.000794 0.001138 -0.001880 0.001495 -0.002569 -0.001058 -0.001318 0.001865 -0.000236 -0.000822 0.002849 -0.000521 -0.000873 -0.003818 -0.004262 -0.002398 -0.003290 0.000376 0.002869 0.004430 0.002243 0.000030 0.002098 0.003656 -0.003490 -0.000703 -0.002194 -0.003205 -0.000973 0.000508 -0.000066 0.003991 0.002472 0.000287 -0.001083 0.003197 -0.004243 0.002722 -0.000405 -0.002296 -0.003634 0.003718 -0.002142 0.001548 -0.000404 0.000005 0.004072 -0.000387 -0.003458 -0.001258 0.001288 0.003364 0.001140 0.003649 0.000121 0.002656 0.001379 -0.002737 -0.003699 0.000269 0.003396 -0.002816 0.000667 -0.001515 -0.004729 0.003030 -0.002510 -0.002956 -0.002873 0.004080 0.004022 0.001643 0.000224 0.003780 0.002602 -0.003069 0.000013 -0.000615 -0.001968 0.000933 0.002143 -0.002327 -0.000588 -0.001864 0.001067 0.000669 0.003793 0.000981 0.000780 0.003685 0.002985 -0.000064 0.000442 0.000090 -0.001504 0.000187 -0.003307 -0.002182
142 -0.003341 -0.003015 -0.002644 -0.004084 0.000198 0.003624 -0.000974 -0.000642 -0.003230 0.001620 -0.003385 -0.000890 0.002118 0.001162 0.000648 -0.003458 0.002721 0.002624 -0.000525 0.002179 -0.001391 0.000458 -0.003317 -0.002113 0.003248 0.000821 0.001745 0.001071 0.000121 0.001110 0.000396 0.001663 0.003304 0.001292 0.000572 0.003384 -0.000653 -0.002003 0.001866 -0.001536 -0.001137 0.002194 -0.000153 -0.002605 -0.003524 0.002227 -0.003476 0.003303 0.002409 0.002410 -0.001499 0.002772 0.000961 0.002941 -0.000464 0.003230 -0.001285 -0.001508 0.000498 -0.001735 0.000889 0.003145 -0.001478 -0.002279 -0.002410 0.002839 -0.002981 -0.000022 0.001730 0.001451 0.001877 -0.002422 -0.003831 -0.003613 -0.001620 -0.001028 0.004391 -0.003369 -0.002795 -0.002027 -0.000860 -0.003660 0.001663 0.000727 0.004047 0.000140 0.000675 -0.000327 -0.004300 0.000872 -0.001027 -0.000206 -0.000865 0.001450 -0.000410 0.000480 -0.001754 0.000146 -0.000916 0.000894 -0.002612 -0.001588 -0.000972 -0.000825 0.000644 -0.001809 -0.000229 0.001547 0.002827 -0.001567 0.000437 -0.001620 -0.002706 -0.001765 0.002143 -0.002760 0.001414 -0.003768 0.003717 0.003125 0.002224 0.001637 0.003224 -0.001785 -0.001451 -0.003615 0.000571 0.003303
89 -0.002377 0.002968 0.000728 -0.003098 0.001788 0.003792 0.000749 -0.002506 -0.000929 0.000912 0.001795 0.003055 -0.001989 -0.001491 0.002168 -0.004504 -0.002524 -0.003069 0.000880 -0.003047 0.002843 -0.002178 0.003132 0.002659 -0.002016 0.001414 0.000016 -0.001935 -0.003756 -0.000305 -0.001533 -0.000532 -0.001919 -0.002858 -0.001425 -0.002950 0.001706 -0.000614 0.000547 -0.002029 0.003999 0.000153 -0.003465 -0.001515 0.003494 -0.003544 0.000116 -0.000536 -0.000121 0.001410 -0.001835 -0.003445 -0.002532 0.000714 0.002803 -0.003517 0.002809 -0.001973 -0.001138 0.001681 -0.002699 0.002971 0.000306 -0.000149 -0.003913 0.001903 -0.004144 -0.000393 -0.003386 -0.001233 -0.002839 -0.002035 0.003594 -0.002581 0.000477 0.001842 0.000834 0.003606 -0.000571 -0.003896 -0.002000 -0.002304 0.001709 0.002901 -0.003008 0.002711 -0.000025 0.002292 0.001991 0.000719 -0.000964 0.003446 -0.003932 -0.003352 0.001756 -0.001541 0.002673 -0.003132 0.000280 0.000607 0.004328 0.000015 0.001907 0.002405 0.003843 0.003874 0.002739 -0.004029 -0.000841 -0.002883 -0.002785 -0.002186 -0.000184 -0.002008 -0.001607 -0.001738 -0.000806 0.001691 -0.001444 0.003587 0.002501 0.003971 -0.003347 0.003763 0.000656 0.001902 0.004101 0.003304
181 -0.001147 -0.001535 0.000127 -0.002749 -0.003613 -0.002156 0.000888 0.002005 -0.000395 0.000512 0.003926 0.003507 0.001876 -0.002577 0.003178 -0.003700 -0.002060 0.000026 -0.003185 0.003584 -0.003861 -0.002854 0.003745 -0.002020 0.001400 0.000703 -0.001832 -0.002990 0.002863 -0.002484 0.002137 -0.001608 0.000379 -0.003425 0.000374 -0.002137 0.003197 0.002238 -0.002653 0.003858 -0.001304 0.000312 -0.001493 -0.002581 -0.001996 0.000047 -0.002260 0.002111 -0.000913 0.002859 0.001278 -0.000999 0.001082 0.003455 0.002220 -0.001029 -0.002650 0.003372 -0.002493 -0.003124 0.002157 -0.002320 -0.003680 -0.000161 -0.002753 -0.004007 -0.002134 0.000428 -0.003521 0.003171 0.000278 -0.002231 -0.003143 -0.002908 -0.001558 -0.004030 0.003932 0.001674 -0.002577 -0.003278 -0.003238 -0.000202 0.002696 -0.003128 0.001259 0.003444 -0.000001 0.002035 -0.002687 0.000162 -0.003489 0.002667 -0.000074 -0.001501 -0.001684 0.000645 0.000275 -0.002997 -0.001406 -0.003353 0.003895 -0.001339 -0.003168 0.000508 -0.001365 -0.003940 -0.000687 -0.000315 -0.002530 -0.003107 -0.003859 -0.000930 0.000079 -0.002503 0.001078 0.001805 0.000866 -0.001717 0.002651 -0.003235 -0.001502 0.003174 0.000826 -0.002340 -0.003009 -0.002895 0.001616 -0.001077
129 -0.004303 -0.002846 0.003532 0.000519 0.003052 -0.001903 -0.003417 0.001379 0.002727 0.000153 0.002354 -0.001012 -0.000279 -0.002986 0.003574 -0.003345 -0.000770 -0.001949 0.001094 -0.003431 0.002386 0.003296 -0.003278 -0.000443 0.002008 -0.000233 -0.000936 -0.001150 -0.002415 -0.003110 0.003549 -0.002147 0.000836 0.002547 -0.000040 -0.003516 0.003520 0.003801 -0.002871 0.004083 0.002985 0.003860 -0.002573 -0.002093 0.000409 -0.002478 0.000388 0.002867 0.000172 0.003024 -0.001953 0.003378 0.000488 0.000557 0.001718 0.000145 0.003754 0.000997 -0.003824 -0.003723 -0.000194 0.002505 0.001166 -0.000889 0.001899 -0.001155 0.000306 -0.002984 -0.001271 -0.001774 -0.001327 -0.000752 -0.004246 0.002958 -0.003778 -0.002580 -0.001347 0.003754 -0.000070 -0.002219 0.001706 0.002960 -0.000096 0.003361 -0.000333 0.003309 -0.003660 -0.003678 -0.004415 0.003152 -0.001552 -0.000105 -0.001169 -0.000820 -0.003095 0.000516 -0.003453 0.001693 -0.001770 0.002314 0.004063 -0.003163 0.001865 0.003440 0.000817 -0.003081 0.001774 -0.003416 -0.001247 -0.000330 0.000325 0.001911 -0.002062 0.002807 -0.000627 0.001823 0.004056 0.000402 0.001181 -0.001653 0.001643 0.002663 0.000955 0.002577 0.002358 0.003247 0.002365 -0.003997
31 0.001590 0.001083 0.003034 0.002443 -0.000768 -0.003271 -0.000800 -0.003575 -0.003531 0.000999 0.003264 0.003834 0.003512 -0.003551 0.000036 -0.003653 -0.003824 0.001637 0.001599 -0.000105 0.000820 -0.001537 -0.002612 0.003091 0.001402 0.001073 0.002191 0.003667 0.000038 0.000157 -0.002424 0.003785 -0.003803 0.002938 0.002201 0.002980 -0.000842 -0.000495 0.003380 -0.003776 0.000603 0.002494 0.000191 -0.001930 -0.001686 -0.000074 -0.002807 -0.003079 -0.001201 0.002033 -0.003338 0.002884 0.000258 -0.001645 0.000823 -0.002103 0.001384 -0.001956 -0.003861 -0.003426 0.003073 -0.001041 -0.003360 -0.003059 -0.002860 -0.001569 -0.004010 -0.001972 -0.002241 -0.000312 0.000072 -0.002097 0.000139 0.000080 0.002221 -0.000034 0.003938 -0.000894 0.003535 0.002116 0.001457 -0.001546 -0.002171 -0.001868 0.001479 0.000365 -0.003081 -0.002460 0.000237 -0.002839 -0.003842 0.003332 0.003428 -0.001083 -0.004125 0.000527 -0.002914 -0.000219 -0.000669 0.003135 -0.003706 -0.000020 0.000043 -0.003337 -0.001804 0.000810 0.001524 0.002471 0.001899 0.000388 -0.002887 -0.003887 -0.002146 -0.002799 0.001216 0.002874 -0.003232 0.003583 -0.003661 0.002419 -0.002388 -0.002175 -0.002167 -0.003596 -0.000766 0.002333 -0.003527 -0.000085
19 0.002958 -0.002082 0.003575 -0.002258 -0.000800 0.001187 -0.001380 -0.002349 0.002007 0.000563 -0.002982 0.002293 -0.001048 0.000596 -0.001328 0.000438 -0.003219 -0.003318 0.002715 0.003666 0.001088 -0.003062 0.000196 0.002153 0.000245 0.003429 -0.001259 0.000584 -0.001322 -0.001469 0.000180 0.001435 0.000924 -0.003660 -0.001005 0.000065 -0.003885 0.002798 0.002466 0.001407 0.000487 -0.000553 -0.000190 -0.001696 0.002982 0.001653 0.002326 -0.002886 -0.000950 0.001804 -0.001479 -0.000894 -0.003459 -0.001601 0.003239 0.002208 -0.002956 0.002111 0.003555 -0.001001 -0.000900 -0.001973 0.002904 0.002766 -0.000683 -0.003540 0.002522 -0.000902 -0.002509 -0.002657 0.000950 0.000012 0.000319 0.000904 -0.002083 -0.003982 0.003423 0.002213 -0.003046 -0.002986 -0.000930 0.000606 0.000256 -0.002813 -0.001697 0.000733 0.002871 0.001445 -0.003343 -0.001463 -0.000772 0.002991 0.003678 0.002070 -0.002469 0.003116 -0.000887 0.000469 0.000643 -0.002729 0.002578 0.002053 -0.003139 -0.002550 -0.000908 0.000454 -0.000570 0.000094 -0.000646 -0.001371 -0.002170 -0.000439 0.000745 -0.002522 0.003078 0.002846 0.003828 0.003248 -0.002825 0.003172 -0.001335 -0.001169 -0.001962 -0.002605 -0.003312 0.000975 -0.003183 -0.002900
35 -0.002736 -0.000381 -0.002876 -0.001107 -0.002465 0.000805 0.000560 -0.003360 -0.002949 0.002282 0.000000 0.002560 -0.001716 0.001209 -0.000306 -0.001081 0.002692 0.003530 0.001666 0.002477 0.003511 -0.000548 -0.002005 0.003265 0.002472 0.001707 0.001647 0.002738 -0.002191 -0.000004 0.000838 0.000390 -0.001033 -0.000882 0.003247 0.000711 0.000258 -0.002506 0.003050 -0.001795 -0.003405 0.000310 0.003445 -0.000938 -0.000136 -0.003819 -0.001536 -0.000101 -0.002499 -0.001904 0.000167 -0.002870 -0.000745 -0.001822 0.003550 -0.003941 0.002091 -0.001333 -0.001416 -0.002184 -0.001772 -0.001605 0.001448 -0.000768 -0.003917 -0.003626 -0.002897 0.002167 0.000137 0.000826 -0.000741 0.000913 0.001396 -0.000515 -0.000182 -0.003832 0.001030 0.003108 -0.001621 0.000517 -0.002411 -0.003529 0.000878 -0.002311 0.002462 0.002194 0.003893 -0.001529 -0.003361 0.003689 0.001585 -0.002137 -0.002765 -0.002350 -0.004094 -0.003698 -0.001607 0.002344 0.001641 0.001957 0.003914 -0.000348 -0.003858 -0.003382 0.003559 -0.001361 0.000072 0.003490 0.002957 0.003280 0.001729 -0.003201 0.000915 -0.001201 -0.000869 0.002707 0.002083 0.001564 -0.000512 0.001258 0.002481 -0.000637 0.000938 0.001149 0.000881 0.001777 -0.001143 0.002396
112 0.002308 -0.003422 0.003034 -0.002960 -0.003158 -0.002756 0.003083 0.003144 0.000854 -0.002953 0.000284 -0.002254 -0.002501 -0.002847 0.003697 -0.000080 0.001528 0.002019 0.001522 0.002677 0.001264 -0.002815 0.003860 -0.002498 -0.002169 -0.000403 0.000297 0.000407 -0.000074 -0.002943 0.000692 -0.001700 -0.000431 0.002559 0.001943 0.002666 0.002946 0.002366 -0.003586 -0.003734 -0.003147 -0.001684 -0.001108 0.002857 0.000911 -0.003665 0.002773 0.003552 0.002720 -0.003603 -0.002987 0.002318 0.000305 0.000508 0.001470 0.001066 0.003323 -0.001539 -0.000442 0.000327 0.000107 -0.000250 -0.002238 0.001715 0.001637 -0.003224 -0.000573 0.002095 0.001441 -0.000756 0.000780 -0.000963 -0.000084 -0.001004 -0.003563 0.003636 0.001421 -0.000360 0.003818 -0.002839 0.001504 -0.002313 0.002192 0.001381 0.003780 0.001054 0.002495 0.002832 -0.000725 -0.000952 0.000316 0.001727 -0.000591 0.000812 -0.001927 0.003615 0.001907 0.003830 0.001129 0.003977 -0.001338 0.000642 0.003473 0.003050 0.002218 -0.000111 0.001840 -0.002720 -0.000249 -0.000824 0.001928 -0.003176 -0.000503 -0.003982 0.000402 0.000274 0.001195 0.001309 -0.002991 -0.002903 -0.002494 -0.002465 0.003634 -0.003219 -0.002822 -0.000705 0.000973 -0.000912
163 0.002205 -0.001846 0.003050 -0.001248 -0.000567 -0.002798 -0.000252 0.001722 -0.002177 -0.003802 -0.003192 0.002628 -0.000269 -0.002305 -0.003543 -0.003956 -0.000193 0.000610 -0.002008 0.002757 0.003361 0.000997 0.000726 0.001986 0.003546 -0.001621 -0.003917 0.002411 -0.003708 -0.002419 0.000345 -0.000975 0.003511 0.002688 0.000411 -0.002577 -0.003638 -0.001437 0.000447 -0.001389 -0.001373 -0.001358 -0.000399 -0.002438 -0.002370 0.002012 -0.003507 -0.002087 0.003855 0.000418 0.000565 -0.003894 0.002361 -0.003029 0.000613 0.002467 0.001631 0.003756 0.000237 0.001603 -0.000546 0.002653 -0.003404 -0.000374 -0.002394 -0.001148 -0.002227 0.000551 -0.003988 0.002199 0.002455 -0.003428 -0.000481 -0.001672 0.002322 0.003375 -0.000420 0.003762 0.003228 -0.001247 0.001278 -0.000705 0.002973 0.000438 0.003710 0.003788 -0.000010 0.000822 -0.004019 0.002178 -0.002180 0.002262 0.001412 0.001245 -0.000843 -0.002392 -0.002239 0.000672 -0.002300 0.003785 0.003553 0.002126 0.003448 0.000704 -0.002887 0.002609 -0.002658 -0.003661 0.000388 -0.000994 0.000169 -0.002727 0.000095 0.002649 -0.003249 -0.003558 -0.001752 -0.002636 0.002031 -0.002535 -0.001666 0.001063 0.000775 0.001599 0.003200 -0.000541 -0.000841 -0.001752
57 0.001117 0.000217 -0.003486 -0.003452 0.001648 0.001739 -0.002250 -0.000568 0.000677 0.000918 -0.000068 -0.000663 0.002412 0.000026 -0.001805 -0.004017 -0.002165 -0.000081 -0.000571 0.000767 -0.001667 -0.000039 0.002942 -0.000980 -0.001544 0.002185 -0.001720 0.003841 0.001343 -0.001754 -0.002647 0.003280 -0.000094 0.000863 -0.000304 0.003082 -0.003752 -0.001732 -0.001798 0.002557 0.002186 -0.000062 0.000101 -0.001694 -0.000375 0.002692 0.001819 -0.000564 0.001194 0.002533 -0.003455 0.001211 -0.002399 -0.001245 -0.001489 -0.002599 0.000438 0.003578 0.000428 0.001848 -0.003168 0.003860 -0.003823 0.001544 0.001790 -0.002717 -0.000362 -0.001923 -0.001099 0.000351 0.002989 0.001839 0.002160 -0.002521 0.003832 -0.002126 0.001395 0.000659 0.003987 0.002157 0.001032 0.003735 0.003477 0.001850 0.003108 0.001964 0.000833 -0.002449 -0.001889 0.002159 0.002104 0.002366 -0.003380 0.002178 -0.003742 0.000980 0.000716 0.001508 0.002047 -0.002556 0.001980 0.001408 -0.003368 -0.002731 -0.000893 0.003886 0.001659 0.003178 -0.000773 0.001648 0.002049 0.000388 -0.003849 0.001485 -0.001396 0.000294 0.003143 -0.002683 -0.000709 0.000194 0.001639 -0.002018 -0.002870 0.000272 0.002399 -0.002354 0.000085 -0.001848
230 -0.000816 -0.002259 -0.003575 -0.002233 -0.002893 0.003063 -0.002379 0.000969 0.001228 0.000673 -0.003645 0.000988 -0.002399 0.000279 -0.002007 -0.000772 -0.000476 -0.003812 0.000779 -0.003118 0.003348 0.003963 -0.003401 0.003788 -0.002896 -0.001191 0.000805 -0.000901 -0.001891 0.003568 -0.000305 0.000457 -0.000961 -0.001280 -0.003071 -0.001015 0.001362 -0.001524 0.001047 0.002569 0.000240 0.003693 0.000118 0.002013 -0.000486 -0.002606 -0.001382 -0.002376 -0.003704 -0.002959 0.001402 -0.000996 0.003557 0.001175 -0.002079 0.000574 0.001021 0.002080 -0.000513 0.001542 0.002050 -0.002277 0.000851 0.001525 0.001452 -0.002934 0.000216 -0.002789 -0.001062 -0.002381 0.000778 0.002189 -0.001548 0.002306 0.003369 -0.001156 -0.003037 -0.001269 0.001286 0.000541 -0.000742 0.001825 -0.001437 -0.003412 -0.003385 0.001005 -0.002070 0.000814 0.000797 0.002769 -0.001619 -0.000243 -0.002361 -0.000166 0.002913 -0.003617 0.002579 -0.001579 0.002800 -0.000035 -0.001545 -0.003890 -0.000738 0.001782 -0.001961 -0.003247 -0.001109 -0.000624 0.003466 -0.001623 -0.001523 -0.002762 -0.001851 -0.000917 0.001102 0.003569 0.002776 0.001367 -0.000827 0.002687 0.000355 0.000918 0.002764 0.003497 0.000015 -0.000097 0.002202 0.003277
176 0.001131 -0.001896 -0.001422 -0.000919 -0.001515 0.002710 -0.000738 -0.002548 0.001319 0.000601 -0.002596 -0.002331 -0.003776 0.002708 0.002764 -0.002542 0.001836 0.001077 -0.001822 -0.001500 -0.003396 0.003341 0.000278 0.000422 0.003744 0.002195 -0.000901 -0.003808 -0.003326 0.003075 0.003790 -0.003441 -0.001453 0.003350 -0.000481 -0.002012 -0.003908 0.001153 0.000007 0.001290 0.000181 -0.002475 -0.003070 -0.003737 0.001424 0.001888 -0.002823 0.003619 -0.003143 -0.001331 0.001109 -0.003033 -0.001575 0.003836 0.003159 -0.001936 -0.002575 -0.002469 -0.002249 0.000382 0.003036 -0.000680 0.002890 0.003918 -0.002634 -0.003066 -0.003927 0.001911 -0.001571 0.000466 0.002866 -0.000675 0.001140 -0.001749 0.003665 -0.003412 -0.002680 -0.000582 0.000381 0.000113 -0.002340 -0.000644 0.000975 0.000246 0.002347 0.003706 0.001602 -0.003443 0.001087 0.001540 -0.002561 -0.002254 0.002784 -0.001448 0.001697 -0.001940 -0.003956 -0.000512 -0.001903 -0.000984 0.000683 -0.002680 -0.002840 0.003266 0.002912 -0.002448 0.002508 -0.002562 -0.001131 0.001045 -0.000461 -0.001405 -0.003605 0.001026 -0.000767 -0.002232 -0.001429 -0.000332 0.002599 -0.002393 -0.000182 -0.000690 0.001193 -0.000709 0.000402 0.001770 -0.000169 -0.002770
87 -0.003553 -0.000443 0.001946 0.000630 0.000248 0.003888 -0.002190 -0.000873 0.003552 -0.000257 0.000140 0.001003 0.002378 -0.001085 0.002091 0.001931 -0.002546 -0.000391 0.000578 -0.001467 0.003595 -0.002486 -0.002928 -0.000623 -0.001217 0.002813 -0.003208 0.001623 -0.000088 -0.003230 0.003862 -0.001878 -0.001130 -0.002381 0.003664 0.000255 0.003499 0.003767 -0.003260 0.002247 -0.002714 -0.001484 -0.003648 0.002078 0.003325 0.000777 -0.003968 -0.002976 0.001412 -0.002391 -0.002886 -0.002382 -0.002869 0.001075 -0.003089 -0.002078 0.002939 -0.002810 0.001483 0.001652 0.002279 0.001513 0.000194 -0.000614 0.002454 0.000557 -0.003536 0.000165 0.000628 -0.000228 0.002447 -0.002461 0.000693 0.002664 0.001927 -0.003148 0.003924 -0.001817 0.000492 0.000500 -0.003807 -0.000552 -0.002912 0.003306 -0.002221 0.002466 -0.002139 -0.003102 0.001407 0.002984 -0.001439 -0.001023 -0.001459 -0.002063 0.001522 0.000752 0.003265 -0.000150 -0.002640 -0.002202 0.002452 -0.001799 0.001171 -0.001623 0.001090 -0.001062 -0.001179 0.000191 0.003313 -0.002589 -0.000752 -0.001059 -0.001802 0.000669 -0.000232 0.002413 -0.003489 0.000105 -0.001711 0.000191 -0.002450 0.002061 -0.001727 -0.000646 -0.001306 0.000257 0.003201 -0.003761
