18 128
105 0.013275 -0.240854 0.152818 -0.102167 0.108306 0.149904 -0.020424 0.127528 0.052656 0.039429 0.084306 -0.238523 0.188433 -0.022805 -0.079268 -0.171583 -0.068414 -0.013064 0.204687 -0.004075 0.094685 0.000344 -0.126027 0.094361 -0.107190 0.169531 -0.007932 -0.097257 -0.064481 -0.233203 0.107233 0.066963 -0.109379 0.019966 -0.072832 0.038296 -0.131570 -0.107457 -0.079546 0.238468 0.090617 0.010667 -0.027714 -0.159011 0.074450 0.013358 -0.037945 -0.135180 -0.029936 0.101469 0.076374 0.043690 -0.043960 0.005575 0.051119 -0.217305 0.021507 0.014751 -0.268370 0.055624 -0.030720 -0.164907 -0.064591 0.144129 -0.010739 -0.080246 -0.058980 0.023547 -0.039367 -0.072019 0.168137 -0.031606 -0.096587 0.140429 -0.014992 -0.141152 0.088088 0.100513 0.138572 -0.057539 -0.107586 0.172788 -0.124310 -0.094420 0.243989 0.152571 0.031696 -0.185301 -0.019168 -0.057730 -0.009693 0.092132 -0.039819 0.078405 -0.188087 -0.307466 0.004035 -0.121454 -0.036834 0.187051 0.164440 0.061391 0.023589 -0.165873 -0.091627 0.076916 0.047470 -0.014536 0.071294 0.004645 -0.008847 0.030510 -0.052030 0.020551 0.061292 0.204025 0.164382 -0.069769 0.055423 0.239391 0.005353 -0.066694 -0.096609 0.106616 0.042962 0.127256 0.012771 -0.076735
133 0.008952 -0.226272 0.136381 -0.087834 0.097735 0.141072 -0.020661 0.104034 0.041726 0.037655 0.079581 -0.216359 0.177506 -0.026167 -0.067026 -0.175864 -0.065615 -0.001455 0.189364 -0.007093 0.092008 -0.001658 -0.125002 0.091156 -0.089499 0.158752 -0.001894 -0.090689 -0.055814 -0.216024 0.094716 0.072617 -0.101085 0.023822 -0.064613 0.041300 -0.117576 -0.091749 -0.066593 0.218992 0.078053 0.007389 -0.022960 -0.148607 0.073148 0.012891 -0.038786 -0.123323 -0.026873 0.098611 0.072617 0.035857 -0.044646 0.000360 0.058287 -0.207818 0.023116 0.002416 -0.251839 0.040120 -0.019914 -0.150981 -0.057031 0.132050 -0.012749 -0.078825 -0.060719 0.019024 -0.036605 -0.068144 0.147246 -0.023532 -0.088661 0.133584 -0.014055 -0.136226 0.077705 0.097185 0.125086 -0.052379 -0.099933 0.161472 -0.112492 -0.092442 0.223799 0.150692 0.025277 -0.169129 -0.023123 -0.045691 -0.005057 0.084668 -0.031255 0.065806 -0.191775 -0.293621 -0.000978 -0.114572 -0.029349 0.177322 0.153413 0.051276 0.012914 -0.163312 -0.076422 0.075033 0.046431 -0.004901 0.071054 0.006544 -0.014275 0.020598 -0.049843 0.011884 0.060872 0.189335 0.157303 -0.057437 0.039430 0.215949 0.001516 -0.066342 -0.089290 0.094857 0.039076 0.121430 0.006301 -0.066190
198 0.014211 -0.224888 0.132307 -0.089172 0.094295 0.142835 -0.019220 0.096574 0.039355 0.039997 0.077090 -0.212790 0.186458 -0.023740 -0.065773 -0.177609 -0.062127 -0.002370 0.189654 -0.004748 0.090000 -0.000800 -0.124695 0.095027 -0.084445 0.159829 0.000034 -0.091506 -0.059548 -0.218922 0.097210 0.074876 -0.099632 0.025901 -0.064206 0.038916 -0.111134 -0.098636 -0.063814 0.222730 0.080359 0.001082 -0.025960 -0.152727 0.077936 0.011422 -0.032509 -0.125569 -0.023840 0.101183 0.071448 0.040862 -0.044100 -0.001595 0.060370 -0.213153 0.027163 0.003066 -0.257274 0.040654 -0.023405 -0.153927 -0.053268 0.133145 -0.009304 -0.086468 -0.059276 0.024965 -0.043212 -0.067921 0.153855 -0.023977 -0.091615 0.133333 -0.011566 -0.136896 0.082928 0.088316 0.123102 -0.050967 -0.099642 0.160894 -0.113497 -0.096391 0.231411 0.153301 0.021670 -0.173997 -0.028374 -0.048021 -0.001094 0.081103 -0.027477 0.071149 -0.188938 -0.291418 0.004957 -0.117411 -0.028411 0.179082 0.151192 0.054743 0.003382 -0.165771 -0.078084 0.080733 0.051715 -0.007325 0.067617 0.007780 -0.016430 0.025589 -0.044964 0.013557 0.058167 0.196108 0.162779 -0.058721 0.035802 0.219028 0.002695 -0.065513 -0.090196 0.099309 0.033727 0.119845 0.003166 -0.071194
45 0.007155 -0.207974 0.090181 0.018003 0.037181 0.140320 0.029590 -0.119891 -0.108905 -0.030877 0.087400 -0.047746 0.211570 -0.120122 -0.023968 -0.345501 0.027612 0.168931 0.182425 -0.027627 0.170772 -0.023420 -0.216681 0.213017 0.074101 0.094697 0.107248 -0.034352 -0.022293 -0.209020 0.067851 0.189474 -0.086079 0.103714 0.009163 0.100833 -0.051793 -0.076399 0.082782 0.091513 -0.031189 -0.043278 0.014639 -0.153692 0.086740 -0.065019 -0.049119 -0.112164 -0.007571 0.046156 0.038595 -0.023662 -0.084632 -0.111084 0.161679 -0.314732 0.087820 -0.217076 -0.372563 -0.077708 0.048141 -0.142525 0.009309 0.053585 -0.064022 -0.107101 -0.145052 -0.023239 -0.098687 -0.102692 0.092787 -0.015443 -0.082445 0.114465 -0.120140 -0.188259 0.049432 0.118328 0.046098 -0.049858 -0.133795 0.044470 -0.057765 -0.242644 0.190810 0.195352 -0.012180 -0.132915 -0.059281 0.036070 0.017765 0.096918 -0.039307 0.010700 -0.364719 -0.346192 0.016072 -0.087414 0.009013 0.349039 0.120349 -0.023480 -0.100322 -0.178693 0.023392 0.054444 0.202360 0.085534 0.072357 0.136840 -0.002754 -0.064867 -0.016265 -0.050610 0.085032 0.302803 0.192434 0.004743 -0.113149 0.140376 -0.022617 -0.199230 0.011313 0.059536 -0.020714 0.161380 -0.099065 -0.049488
170 0.011134 -0.220956 0.118035 -0.033515 0.063610 0.148736 0.005569 -0.016114 -0.040759 -0.002694 0.089644 -0.137628 0.203098 -0.081145 -0.044140 -0.272298 -0.011827 0.086415 0.193177 -0.022410 0.138394 -0.011017 -0.174892 0.159481 -0.003742 0.121377 0.059025 -0.065623 -0.044189 -0.225188 0.085262 0.134432 -0.090158 0.062856 -0.032039 0.071102 -0.082933 -0.092603 0.012946 0.163591 0.025162 -0.024781 -0.010682 -0.154593 0.082839 -0.021889 -0.048694 -0.124702 -0.019556 0.069701 0.054598 0.006659 -0.061017 -0.057615 0.114896 -0.270650 0.056886 -0.115855 -0.323990 -0.018646 0.011943 -0.151680 -0.020508 0.096043 -0.033980 -0.092175 -0.101838 -0.004531 -0.074813 -0.086585 0.120356 -0.026558 -0.089597 0.132630 -0.076419 -0.163772 0.059620 0.106816 0.082993 -0.055044 -0.119884 0.104280 -0.080772 -0.179621 0.214535 0.179014 0.004320 -0.153440 -0.041834 -0.006117 0.011123 0.091792 -0.035904 0.035080 -0.284805 -0.333742 0.009790 -0.108043 -0.012858 0.271959 0.142845 0.018179 -0.041208 -0.175699 -0.031880 0.070323 0.133901 0.035372 0.070461 0.072771 -0.007888 -0.022766 -0.027979 -0.015390 0.076500 0.251253 0.181046 -0.031468 -0.043061 0.184228 -0.011132 -0.138450 -0.035582 0.076118 0.003707 0.145333 -0.053180 -0.060350
35 0.002857 -0.200150 0.092013 0.000752 0.041897 0.132435 0.019422 -0.086057 -0.085474 -0.017862 0.083419 -0.069067 0.189168 -0.098313 -0.027763 -0.297516 0.011197 0.136373 0.176176 -0.024769 0.153577 -0.019032 -0.192768 0.186473 0.047704 0.098114 0.087216 -0.037527 -0.029365 -0.201559 0.069636 0.161725 -0.080003 0.082511 -0.000520 0.081514 -0.055196 -0.077333 0.056978 0.103874 -0.015843 -0.029758 0.010575 -0.143766 0.083758 -0.050550 -0.047587 -0.106339 -0.011205 0.046379 0.039950 -0.014797 -0.072695 -0.093222 0.142740 -0.280768 0.075105 -0.172476 -0.333445 -0.061524 0.037048 -0.137200 0.000992 0.059309 -0.054100 -0.100865 -0.125816 -0.014500 -0.080501 -0.092184 0.091083 -0.018418 -0.074086 0.111997 -0.102239 -0.178593 0.047629 0.111313 0.050092 -0.051403 -0.122230 0.058527 -0.059475 -0.210559 0.187168 0.177049 -0.004156 -0.132101 -0.051213 0.028048 0.015950 0.087009 -0.035338 0.017102 -0.319127 -0.325177 0.009663 -0.084607 0.000461 0.303343 0.125086 -0.009964 -0.079034 -0.171769 0.011777 0.054658 0.164969 0.070065 0.068907 0.110209 -0.001118 -0.053906 -0.021186 -0.041289 0.075631 0.272733 0.179332 -0.001452 -0.083351 0.141170 -0.018141 -0.163217 -0.003424 0.063081 -0.011040 0.144483 -0.083533 -0.044581
225 0.008171 -0.220008 0.106797 0.018992 0.037769 0.154654 0.031371 -0.125172 -0.115588 -0.033908 0.099788 -0.060181 0.222761 -0.127466 -0.027966 -0.363405 0.026931 0.166261 0.192991 -0.036474 0.183973 -0.020295 -0.231862 0.227056 0.074961 0.096788 0.116016 -0.041620 -0.021667 -0.230722 0.068768 0.197353 -0.084820 0.107611 0.002209 0.100009 -0.056570 -0.086119 0.077853 0.108326 -0.028100 -0.043243 0.015905 -0.165019 0.098651 -0.059643 -0.057303 -0.123825 -0.007574 0.044548 0.044275 -0.024704 -0.081758 -0.113375 0.164257 -0.323345 0.084627 -0.226019 -0.390070 -0.076022 0.052268 -0.149063 0.002776 0.060743 -0.064267 -0.117268 -0.146533 -0.020735 -0.100805 -0.113579 0.097990 -0.024052 -0.084578 0.126391 -0.131887 -0.200147 0.048508 0.123586 0.051534 -0.058270 -0.145198 0.053699 -0.061891 -0.261774 0.207844 0.204751 -0.015312 -0.142297 -0.056066 0.036764 0.015771 0.099729 -0.040873 0.014459 -0.378656 -0.375268 0.018436 -0.099095 0.003539 0.364614 0.136407 -0.023046 -0.100682 -0.193957 0.021944 0.061018 0.209930 0.084194 0.074299 0.131751 -0.003183 -0.066155 -0.015364 -0.052002 0.089174 0.323893 0.203155 0.003564 -0.116656 0.147984 -0.028822 -0.207890 0.011246 0.060559 -0.021407 0.165181 -0.102066 -0.053693
129 0.007124 -0.234581 0.131097 -0.051654 0.085063 0.147733 -0.003882 0.024306 -0.011209 0.010399 0.088232 -0.166546 0.199931 -0.065790 -0.049704 -0.247491 -0.034237 0.059494 0.197405 -0.022994 0.128053 -0.006473 -0.167550 0.141436 -0.029568 0.138757 0.037308 -0.077678 -0.049951 -0.232338 0.096677 0.118467 -0.094499 0.055892 -0.043646 0.055528 -0.092012 -0.089041 -0.018186 0.187904 0.044331 -0.008336 -0.015875 -0.159943 0.088137 -0.016898 -0.040754 -0.119818 -0.015692 0.084842 0.061126 0.020856 -0.061778 -0.044723 0.104259 -0.257268 0.053199 -0.079527 -0.315823 -0.007491 0.006448 -0.153902 -0.030685 0.108424 -0.025203 -0.094405 -0.091621 0.001993 -0.062223 -0.087845 0.133646 -0.025067 -0.093901 0.135990 -0.064379 -0.168796 0.066422 0.111239 0.098312 -0.060909 -0.115057 0.130873 -0.095830 -0.153169 0.222997 0.175143 0.005840 -0.167404 -0.039353 -0.013927 0.004256 0.093077 -0.034873 0.052631 -0.264957 -0.330015 0.005687 -0.111321 -0.020925 0.255243 0.152605 0.025034 -0.027796 -0.172531 -0.041369 0.070257 0.110886 0.023010 0.069277 0.055345 -0.007740 -0.006146 -0.042181 -0.006653 0.071561 0.246734 0.186127 -0.039058 -0.014162 0.193515 -0.008003 -0.113813 -0.053721 0.092255 0.017465 0.141311 -0.034791 -0.068285
3 0.004552 -0.218869 0.126147 -0.044940 0.075222 0.141428 0.002205 0.013666 -0.024851 0.006280 0.086547 -0.154684 0.186816 -0.070024 -0.051756 -0.244882 -0.023683 0.061711 0.187886 -0.021002 0.121822 -0.007526 -0.163584 0.146174 -0.019264 0.128083 0.042454 -0.066566 -0.040239 -0.215076 0.085410 0.116464 -0.095868 0.058235 -0.038298 0.057262 -0.087698 -0.086428 -0.006334 0.172576 0.036537 -0.017104 -0.010513 -0.147447 0.079397 -0.018095 -0.040298 -0.122698 -0.022664 0.078236 0.061438 0.012342 -0.062720 -0.044459 0.097239 -0.253346 0.047451 -0.085127 -0.305997 -0.003407 0.003274 -0.147503 -0.029903 0.105374 -0.031028 -0.093225 -0.088418 0.005334 -0.061214 -0.087055 0.129356 -0.023901 -0.089000 0.131173 -0.060932 -0.160675 0.068887 0.103212 0.095181 -0.056079 -0.114680 0.118518 -0.091744 -0.158763 0.214057 0.168549 0.007587 -0.154510 -0.038377 -0.014893 0.002302 0.092319 -0.035169 0.046796 -0.261943 -0.314708 0.002887 -0.102094 -0.013478 0.249198 0.138241 0.024865 -0.033099 -0.170306 -0.036774 0.071240 0.110230 0.028190 0.072681 0.055443 -0.005016 -0.013191 -0.034081 -0.011095 0.071560 0.241126 0.172451 -0.030947 -0.017085 0.186500 -0.011351 -0.121555 -0.049082 0.082253 0.009725 0.137465 -0.036823 -0.059508
150 0.011462 -0.224159 0.119760 -0.032077 0.066207 0.147561 0.004797 -0.028409 -0.046219 -0.008422 0.087089 -0.128480 0.198117 -0.087007 -0.043268 -0.280015 -0.011567 0.100731 0.191476 -0.021167 0.136653 -0.017048 -0.178930 0.164289 -0.001347 0.124268 0.061873 -0.062851 -0.039017 -0.219588 0.080705 0.145712 -0.086405 0.069024 -0.023384 0.074782 -0.084114 -0.085247 0.019599 0.147328 0.015147 -0.020953 -0.002771 -0.153966 0.090242 -0.030996 -0.048012 -0.114603 -0.012697 0.063999 0.057327 0.003467 -0.069224 -0.068293 0.121842 -0.271203 0.063576 -0.130194 -0.327509 -0.027900 0.019381 -0.149869 -0.016152 0.087037 -0.040984 -0.095344 -0.107074 -0.007074 -0.072890 -0.088387 0.114420 -0.023500 -0.088664 0.123509 -0.085964 -0.174204 0.057679 0.115242 0.075040 -0.060466 -0.123589 0.102272 -0.078865 -0.186709 0.205692 0.178613 -0.000449 -0.153079 -0.041723 0.004632 0.010519 0.093812 -0.037680 0.038722 -0.290554 -0.334158 0.012494 -0.102302 -0.011260 0.286422 0.140233 0.006498 -0.049772 -0.177058 -0.019623 0.067941 0.142511 0.047783 0.069661 0.083058 -0.001747 -0.024966 -0.033814 -0.027700 0.078182 0.263227 0.182039 -0.023062 -0.048613 0.175002 -0.016440 -0.140207 -0.028191 0.077865 0.004711 0.146643 -0.062668 -0.056421
31 0.005314 -0.202604 0.093734 0.024875 0.031316 0.133505 0.027123 -0.134152 -0.120671 -0.031225 0.093878 -0.038537 0.208075 -0.126073 -0.020827 -0.347078 0.023405 0.171711 0.182486 -0.031691 0.173706 -0.024171 -0.220482 0.218855 0.081323 0.089972 0.114435 -0.026449 -0.021457 -0.208759 0.062390 0.194187 -0.083986 0.105482 0.013955 0.099507 -0.045251 -0.077003 0.089157 0.082987 -0.033180 -0.038998 0.015207 -0.151462 0.087754 -0.063044 -0.054945 -0.114727 -0.009583 0.042331 0.031754 -0.021470 -0.080375 -0.116529 0.164428 -0.311816 0.089065 -0.222501 -0.372721 -0.087013 0.054862 -0.140840 0.007822 0.045214 -0.067281 -0.110868 -0.148394 -0.026660 -0.099393 -0.104091 0.084982 -0.021680 -0.077542 0.116041 -0.123257 -0.191052 0.048059 0.115183 0.042951 -0.050382 -0.131158 0.039999 -0.055053 -0.249427 0.188919 0.192295 -0.019002 -0.132398 -0.057984 0.038112 0.014877 0.098012 -0.031814 0.006692 -0.366751 -0.344985 0.009914 -0.085033 0.006219 0.348135 0.117356 -0.023944 -0.099555 -0.184671 0.024585 0.055530 0.202729 0.090089 0.072866 0.135040 -0.004951 -0.075080 -0.016555 -0.057621 0.086068 0.306321 0.187298 0.014424 -0.119874 0.135079 -0.028814 -0.197928 0.012324 0.052591 -0.024343 0.160560 -0.108736 -0.045427
102 0.011593 -0.211503 0.137942 -0.100715 0.098623 0.130983 -0.024093 0.125297 0.054299 0.037902 0.070724 -0.225532 0.159538 -0.020430 -0.072200 -0.143809 -0.070315 -0.019544 0.181332 -0.006215 0.074250 -0.001851 -0.108941 0.070680 -0.105097 0.148626 -0.011984 -0.093698 -0.054528 -0.208870 0.098850 0.057346 -0.092472 0.015194 -0.072811 0.031829 -0.120773 -0.093404 -0.076293 0.214575 0.082935 0.008301 -0.032725 -0.136989 0.069582 0.015405 -0.037561 -0.117165 -0.028188 0.097639 0.067045 0.039664 -0.037106 0.011434 0.038633 -0.185263 0.020406 0.025196 -0.230008 0.054133 -0.027018 -0.148436 -0.055933 0.135706 -0.008668 -0.069422 -0.043606 0.028505 -0.029583 -0.059927 0.150527 -0.028728 -0.080858 0.125564 -0.005033 -0.116859 0.080162 0.089751 0.123919 -0.051342 -0.094259 0.165353 -0.117151 -0.076372 0.212536 0.129785 0.025855 -0.160635 -0.011487 -0.057478 -0.011668 0.081152 -0.031851 0.072529 -0.154267 -0.271098 -0.000008 -0.112471 -0.030997 0.157050 0.140865 0.060563 0.027415 -0.150900 -0.087205 0.069074 0.031227 -0.011851 0.066580 -0.006562 -0.010580 0.029237 -0.046996 0.023032 0.054121 0.172004 0.142539 -0.061059 0.053818 0.216386 0.006945 -0.047539 -0.090625 0.095524 0.036205 0.109915 0.018111 -0.066873
57 0.020063 -0.239559 0.159592 -0.162651 0.142726 0.151225 -0.046272 0.241705 0.134311 0.086526 0.075349 -0.324284 0.177409 0.033244 -0.097808 -0.075680 -0.122170 -0.109530 0.196289 0.008836 0.043395 0.010621 -0.062324 0.020893 -0.188629 0.207897 -0.077293 -0.122755 -0.085515 -0.233091 0.117459 0.007286 -0.117726 -0.025634 -0.113016 0.003352 -0.164929 -0.115846 -0.158249 0.310366 0.151710 0.034801 -0.050320 -0.159029 0.068717 0.060379 -0.022749 -0.132880 -0.031966 0.142912 0.090871 0.081284 -0.028235 0.065795 -0.000115 -0.161515 -0.010393 0.145990 -0.191090 0.114430 -0.073501 -0.159642 -0.102353 0.189370 0.024643 -0.074105 -0.008073 0.050711 -0.006539 -0.045235 0.198837 -0.025869 -0.095344 0.141275 0.059922 -0.112353 0.108734 0.079446 0.187497 -0.049553 -0.077462 0.238571 -0.146143 0.000300 0.264006 0.130423 0.049040 -0.206876 -0.008261 -0.102270 -0.012827 0.080336 -0.030606 0.112452 -0.093801 -0.266000 -0.006450 -0.137608 -0.048397 0.079512 0.176081 0.108460 0.066531 -0.161878 -0.142527 0.099334 -0.041876 -0.058272 0.071034 -0.067558 -0.019151 0.080613 -0.076591 0.058354 0.041496 0.131019 0.148786 -0.108023 0.132964 0.275816 0.020611 0.011249 -0.161871 0.125460 0.076464 0.095301 0.068373 -0.085198
80 0.008394 -0.222173 0.110777 -0.024245 0.068693 0.145106 0.012030 -0.024431 -0.046999 -0.005189 0.082811 -0.124514 0.200205 -0.078514 -0.040910 -0.269678 -0.015846 0.096712 0.187273 -0.025424 0.138537 -0.013822 -0.177479 0.163841 0.006603 0.119516 0.057441 -0.063339 -0.037408 -0.219674 0.085636 0.142729 -0.089710 0.066229 -0.028181 0.067766 -0.074873 -0.082718 0.015508 0.150788 0.016527 -0.023750 -0.006455 -0.152078 0.087262 -0.026320 -0.039307 -0.115893 -0.008639 0.068058 0.055217 0.002627 -0.070897 -0.068830 0.123094 -0.271741 0.057865 -0.125569 -0.326981 -0.030606 0.024820 -0.148968 -0.015246 0.090993 -0.035235 -0.093116 -0.108664 -0.005511 -0.069556 -0.093483 0.118347 -0.019309 -0.084180 0.126060 -0.083499 -0.174294 0.057190 0.105400 0.075551 -0.057664 -0.118609 0.099010 -0.079834 -0.183057 0.207628 0.175079 0.001844 -0.146332 -0.039962 0.001073 0.012719 0.094779 -0.029678 0.040598 -0.291893 -0.330942 0.012095 -0.105253 -0.011562 0.279202 0.136112 0.013148 -0.051601 -0.171965 -0.018479 0.067544 0.135464 0.044183 0.068130 0.081101 -0.006950 -0.028846 -0.031701 -0.025740 0.076583 0.258934 0.185574 -0.023882 -0.046399 0.168825 -0.017308 -0.140457 -0.033078 0.081365 -0.000177 0.138865 -0.059711 -0.056859
188 0.017037 -0.224337 0.147037 -0.116493 0.115981 0.143009 -0.024065 0.152772 0.077139 0.055842 0.079781 -0.255183 0.178276 -0.005587 -0.074622 -0.128959 -0.082933 -0.045488 0.189718 -0.002559 0.070811 0.002914 -0.096707 0.063882 -0.125337 0.172536 -0.031798 -0.104770 -0.070475 -0.220334 0.105784 0.043704 -0.107117 0.004510 -0.085938 0.019792 -0.134068 -0.100096 -0.098420 0.251494 0.105758 0.018953 -0.032482 -0.152986 0.073303 0.025938 -0.033494 -0.121578 -0.025154 0.115865 0.080685 0.053430 -0.035989 0.025399 0.036715 -0.184067 0.013973 0.057467 -0.225035 0.064599 -0.038320 -0.155114 -0.072084 0.149429 0.004542 -0.075891 -0.034633 0.034920 -0.022541 -0.056779 0.161539 -0.026615 -0.091643 0.133390 0.015163 -0.124618 0.090410 0.086596 0.148484 -0.052885 -0.088273 0.187338 -0.126811 -0.053701 0.237853 0.139890 0.032751 -0.182912 -0.012696 -0.072275 -0.008845 0.076910 -0.029497 0.085470 -0.146572 -0.279396 -0.002508 -0.125888 -0.037901 0.142949 0.156632 0.072847 0.028775 -0.158263 -0.096597 0.083600 0.010385 -0.029618 0.069038 -0.024504 -0.016890 0.047615 -0.058961 0.032886 0.049947 0.167427 0.146577 -0.078727 0.075697 0.237696 0.006998 -0.031791 -0.115050 0.102878 0.048379 0.107560 0.028142 -0.071195
113 0.014500 -0.225848 0.146933 -0.100888 0.102429 0.147841 -0.018576 0.129225 0.052677 0.040476 0.076192 -0.238736 0.175689 -0.020438 -0.075253 -0.160984 -0.073513 -0.021023 0.191831 -0.005784 0.084777 -0.000402 -0.120298 0.087608 -0.108264 0.162986 -0.016791 -0.097092 -0.065839 -0.220369 0.102179 0.062876 -0.105528 0.012993 -0.075719 0.036253 -0.130041 -0.101135 -0.076992 0.230192 0.092220 0.008628 -0.028366 -0.154902 0.070309 0.020994 -0.038838 -0.126148 -0.031675 0.099932 0.076380 0.045293 -0.043703 0.009636 0.050852 -0.202703 0.017149 0.022576 -0.248719 0.052671 -0.030776 -0.157935 -0.062733 0.144379 -0.011306 -0.077916 -0.049926 0.031088 -0.031398 -0.062938 0.163253 -0.025977 -0.090672 0.130109 -0.010536 -0.134944 0.087583 0.096155 0.132991 -0.055283 -0.099515 0.170781 -0.122135 -0.084739 0.233381 0.147070 0.029969 -0.175730 -0.020058 -0.060167 -0.010155 0.085885 -0.034046 0.076202 -0.172045 -0.294052 -0.000008 -0.120393 -0.034881 0.173982 0.156346 0.062638 0.025704 -0.163756 -0.090053 0.080200 0.035654 -0.015962 0.075479 -0.005274 -0.011125 0.035531 -0.053552 0.021118 0.058042 0.184045 0.153971 -0.063364 0.055819 0.233824 0.008849 -0.055592 -0.102325 0.107095 0.042658 0.117775 0.011704 -0.069320
108 0.012894 -0.220444 0.150822 -0.144557 0.130471 0.141234 -0.036875 0.212841 0.111784 0.073542 0.074710 -0.295399 0.161667 0.016837 -0.087475 -0.084054 -0.105993 -0.087539 0.186369 0.008245 0.052796 0.011744 -0.070638 0.033689 -0.165607 0.185576 -0.061713 -0.117482 -0.076472 -0.222062 0.115327 0.017473 -0.111039 -0.020150 -0.099527 0.011322 -0.149030 -0.105658 -0.134099 0.278443 0.134737 0.027936 -0.047555 -0.148391 0.063641 0.046948 -0.029821 -0.125777 -0.031262 0.122488 0.083092 0.065716 -0.022159 0.056345 0.002224 -0.157937 -0.003032 0.107541 -0.193572 0.095310 -0.062743 -0.156141 -0.084124 0.171728 0.010167 -0.066646 -0.011029 0.042893 -0.010869 -0.049015 0.178940 -0.026566 -0.091470 0.135635 0.033491 -0.104625 0.095810 0.075433 0.160476 -0.050726 -0.084231 0.207621 -0.139598 -0.017755 0.239337 0.124195 0.041700 -0.187147 -0.000366 -0.094327 -0.012785 0.077112 -0.033678 0.102374 -0.099056 -0.255929 -0.005667 -0.127113 -0.046636 0.098828 0.164567 0.092897 0.066398 -0.146930 -0.128741 0.080554 -0.024020 -0.046918 0.068322 -0.052522 -0.018283 0.069170 -0.058477 0.045946 0.043468 0.140230 0.134601 -0.091035 0.115796 0.254122 0.017107 -0.003400 -0.135649 0.119194 0.064111 0.098365 0.059061 -0.080420
165 0.017212 -0.239997 0.160531 -0.136409 0.128917 0.151740 -0.037858 0.195959 0.099345 0.072814 0.082226 -0.292760 0.182057 0.009239 -0.088279 -0.110159 -0.101013 -0.074500 0.195587 0.001599 0.065359 0.003932 -0.086355 0.046124 -0.151556 0.195984 -0.052208 -0.118019 -0.080901 -0.234673 0.113090 0.030112 -0.112669 -0.011281 -0.094741 0.011242 -0.148712 -0.112061 -0.125148 0.282782 0.122891 0.027149 -0.045153 -0.158376 0.075858 0.043421 -0.031793 -0.130345 -0.029988 0.130990 0.091722 0.068221 -0.033713 0.046936 0.025380 -0.183939 0.001261 0.094420 -0.217544 0.087808 -0.057357 -0.162053 -0.085885 0.174796 0.008836 -0.079574 -0.025922 0.043180 -0.020782 -0.052350 0.182233 -0.029212 -0.098669 0.144521 0.031292 -0.120377 0.100724 0.087329 0.169204 -0.052495 -0.087132 0.212880 -0.137782 -0.035884 0.252111 0.138168 0.035764 -0.199717 -0.016194 -0.086660 -0.012062 0.082084 -0.026439 0.095277 -0.128891 -0.283797 -0.008533 -0.137013 -0.041512 0.117648 0.170147 0.091684 0.050468 -0.168031 -0.124403 0.090325 -0.011012 -0.039582 0.076602 -0.045262 -0.020127 0.058004 -0.066895 0.040168 0.052099 0.152990 0.155158 -0.091010 0.099506 0.261662 0.009246 -0.012777 -0.137838 0.114944 0.065513 0.112337 0.046550 -0.078788
