13 128
84 -0.181897 -0.040765 0.186072 0.092718 0.145605 0.087432 -0.029977 -0.044918 0.059731 0.070315 0.128918 0.007454 0.089108 -0.005978 0.082423 -0.040296 0.014698 -0.022554 0.015334 0.065579 -0.106233 0.028685 -0.108129 0.137685 0.108119 0.131720 0.033332 0.045847 0.029377 0.102148 -0.029800 0.031322 -0.127345 0.148298 -0.012995 0.198957 -0.072618 0.101965 -0.070344 -0.020169 0.088756 0.072286 0.046191 0.051711 -0.187467 -0.018625 -0.272687 0.030511 -0.046380 0.149740 0.083531 0.041582 0.001358 0.208336 -0.102621 0.035334 -0.023000 0.129437 0.016249 -0.094450 -0.033303 -0.003025 -0.145518 0.019142 -0.072413 0.097387 -0.123379 0.080382 0.021514 -0.214254 -0.016116 -0.123659 -0.140900 0.137165 0.089577 -0.047392 0.245581 0.110537 0.083029 -0.013179 -0.015439 0.023128 -0.200059 -0.022627 0.151309 -0.003965 -0.078237 -0.134510 -0.013284 -0.114165 -0.246607 0.088351 -0.107570 -0.006313 -0.120636 0.172805 -0.130443 -0.027195 -0.012272 0.058289 -0.053588 -0.042236 -0.062619 -0.154323 0.119693 -0.044413 -0.111361 0.032034 0.033270 0.000029 -0.114491 0.023659 0.147024 -0.089788 0.021806 0.085143 -0.018621 0.103399 -0.003693 0.139197 -0.146357 0.020642 0.028967 -0.161287 -0.088537 -0.019733 0.174200 0.170554
133 -0.195620 -0.048856 0.196673 0.094269 0.151533 0.087455 -0.034761 -0.042974 0.063885 0.077113 0.136680 0.003106 0.089724 -0.005619 0.087524 -0.050260 0.011341 -0.024312 0.018175 0.069425 -0.107397 0.029657 -0.121201 0.142578 0.110230 0.143799 0.039562 0.044221 0.034913 0.110738 -0.035784 0.030783 -0.135231 0.158685 -0.015633 0.212447 -0.078671 0.110151 -0.074769 -0.016768 0.097124 0.077720 0.053007 0.056705 -0.195970 -0.018334 -0.291076 0.028132 -0.053500 0.161125 0.091354 0.041263 0.006662 0.223707 -0.107653 0.042760 -0.029094 0.133413 0.021278 -0.100095 -0.030602 -0.005027 -0.155693 0.017482 -0.081266 0.101694 -0.129770 0.082961 0.027223 -0.224491 -0.019900 -0.127281 -0.147134 0.148192 0.099459 -0.051491 0.254368 0.119423 0.092849 -0.016500 -0.020185 0.029025 -0.211326 -0.024810 0.157602 0.000933 -0.080473 -0.138676 -0.015001 -0.118600 -0.259183 0.092743 -0.111539 -0.009922 -0.130621 0.174470 -0.143033 -0.027641 -0.013204 0.053481 -0.056011 -0.050035 -0.061576 -0.166776 0.127588 -0.045710 -0.119164 0.036930 0.037494 -0.006118 -0.122949 0.021489 0.150078 -0.096315 0.026413 0.086392 -0.022906 0.111977 0.002629 0.146124 -0.154384 0.018796 0.028177 -0.174806 -0.088706 -0.016034 0.185030 0.184409
108 -0.206747 -0.044038 0.194651 0.089316 0.163732 0.088399 -0.035949 -0.041644 0.058441 0.088783 0.143803 -0.002161 0.097258 -0.013194 0.087165 -0.058299 0.009724 -0.025070 0.016396 0.079345 -0.107646 0.031481 -0.121856 0.147795 0.115841 0.146294 0.039068 0.046085 0.037690 0.106670 -0.030438 0.044388 -0.148133 0.160293 -0.011823 0.225215 -0.078314 0.113047 -0.073002 -0.015055 0.106622 0.080152 0.044527 0.055301 -0.204838 -0.013866 -0.300226 0.023999 -0.057641 0.165375 0.087541 0.045463 0.009547 0.232226 -0.116658 0.039031 -0.027514 0.128504 0.014528 -0.102100 -0.037803 -0.006539 -0.158502 0.022185 -0.089663 0.103568 -0.132442 0.084283 0.027992 -0.230764 -0.013175 -0.126501 -0.158001 0.152627 0.100554 -0.050697 0.264060 0.111215 0.097989 -0.014231 -0.022142 0.025768 -0.219492 -0.029924 0.164820 0.003244 -0.084494 -0.141298 -0.015585 -0.132116 -0.265435 0.098438 -0.113674 -0.003251 -0.140499 0.185701 -0.154122 -0.029523 -0.011797 0.057494 -0.063406 -0.051205 -0.059072 -0.172217 0.122159 -0.046292 -0.117696 0.047463 0.045089 -0.007801 -0.129955 0.020434 0.158158 -0.104752 0.029798 0.100219 -0.023196 0.117700 0.010353 0.154789 -0.160686 0.014056 0.026806 -0.177746 -0.091608 -0.012404 0.193625 0.181100
3 -0.188569 -0.042615 0.187163 0.086577 0.147911 0.081374 -0.029491 -0.041511 0.054215 0.074374 0.130937 -0.000716 0.085417 -0.011707 0.080085 -0.051104 0.016657 -0.026066 0.014953 0.065998 -0.106474 0.028685 -0.113672 0.138849 0.110440 0.131492 0.036673 0.045107 0.036045 0.105984 -0.032103 0.031264 -0.133625 0.153195 -0.015645 0.198143 -0.070501 0.105573 -0.067403 -0.014530 0.094474 0.069131 0.045875 0.056296 -0.187599 -0.017943 -0.271295 0.023921 -0.054821 0.155298 0.087166 0.040998 0.002137 0.212484 -0.104659 0.036381 -0.026889 0.125518 0.014268 -0.090326 -0.035148 -0.003555 -0.146709 0.020698 -0.075978 0.093804 -0.119068 0.083465 0.026938 -0.214911 -0.011376 -0.118909 -0.145089 0.141485 0.096555 -0.050295 0.247105 0.107358 0.092918 -0.015628 -0.018213 0.029148 -0.201564 -0.028019 0.153116 0.001751 -0.077910 -0.129823 -0.018767 -0.118364 -0.247169 0.089744 -0.105453 -0.004907 -0.127321 0.171958 -0.140338 -0.024083 -0.007957 0.052848 -0.062366 -0.045931 -0.063287 -0.159105 0.120425 -0.037386 -0.110354 0.036852 0.039318 -0.007632 -0.113979 0.020839 0.143718 -0.090173 0.025721 0.088749 -0.020238 0.107472 0.008613 0.140703 -0.148828 0.014331 0.024971 -0.166320 -0.089765 -0.014486 0.176428 0.172831
31 -0.195947 -0.041907 0.193291 0.090751 0.156858 0.078941 -0.036269 -0.047153 0.055009 0.085636 0.140956 0.006061 0.101317 -0.014779 0.083895 -0.059736 0.007635 -0.022827 0.016573 0.075058 -0.105567 0.024307 -0.121761 0.144672 0.114793 0.139668 0.042903 0.050312 0.034113 0.106079 -0.032537 0.046211 -0.146271 0.160975 -0.009793 0.219208 -0.073320 0.108978 -0.067257 -0.022670 0.102446 0.080700 0.042693 0.054287 -0.198698 -0.015734 -0.292273 0.021668 -0.058008 0.161621 0.081051 0.051374 0.007269 0.221454 -0.108552 0.036639 -0.024402 0.123937 0.009640 -0.101599 -0.031180 -0.007693 -0.156940 0.014650 -0.085781 0.100547 -0.136452 0.081988 0.025928 -0.223167 -0.011393 -0.126240 -0.153562 0.146672 0.104319 -0.051879 0.260891 0.109872 0.101612 -0.011652 -0.016993 0.026047 -0.213957 -0.034114 0.162727 0.000096 -0.086076 -0.137986 -0.019175 -0.131697 -0.264254 0.098322 -0.102350 -0.005381 -0.137896 0.181917 -0.153005 -0.029278 -0.011426 0.057354 -0.071498 -0.050847 -0.061183 -0.171867 0.119858 -0.039955 -0.111358 0.047934 0.043146 -0.006950 -0.129164 0.015206 0.148585 -0.102849 0.030800 0.098866 -0.022135 0.116694 0.006275 0.150348 -0.158729 0.013517 0.024370 -0.180650 -0.092281 -0.010755 0.182389 0.176789
142 -0.204044 -0.050107 0.194748 0.089044 0.158408 0.091339 -0.035878 -0.045145 0.058793 0.083877 0.135351 0.001641 0.098651 -0.006809 0.088677 -0.057056 0.016378 -0.022871 0.015792 0.076801 -0.112675 0.029498 -0.125964 0.143870 0.119322 0.144978 0.042942 0.047481 0.035615 0.112723 -0.032169 0.038324 -0.137539 0.163983 -0.014256 0.221808 -0.076999 0.109522 -0.072165 -0.019134 0.101209 0.079956 0.047559 0.055932 -0.204677 -0.015552 -0.299355 0.030838 -0.054021 0.167339 0.088468 0.049360 0.007434 0.231690 -0.112006 0.044573 -0.029237 0.132287 0.017519 -0.102401 -0.033868 -0.003038 -0.158221 0.016718 -0.085679 0.106841 -0.135471 0.087791 0.029359 -0.227553 -0.011934 -0.131473 -0.158755 0.147206 0.101316 -0.053304 0.267591 0.112484 0.094009 -0.017993 -0.020312 0.024687 -0.215722 -0.029296 0.167985 -0.000042 -0.083399 -0.141052 -0.022823 -0.126673 -0.266890 0.095581 -0.112786 -0.004322 -0.134382 0.184636 -0.150262 -0.029057 -0.012507 0.056403 -0.068170 -0.052061 -0.065335 -0.172083 0.128046 -0.045525 -0.118345 0.042958 0.042357 -0.008122 -0.125724 0.021075 0.152815 -0.100934 0.029827 0.091224 -0.018738 0.111364 0.010638 0.154590 -0.156847 0.019739 0.031580 -0.181045 -0.095355 -0.019732 0.190259 0.188132
188 -0.181933 -0.041462 0.194665 0.090041 0.151519 0.090250 -0.024603 -0.046676 0.065229 0.071506 0.134466 0.004662 0.093487 -0.006206 0.089801 -0.038943 0.016688 -0.027430 0.016646 0.065904 -0.109123 0.028428 -0.110979 0.142550 0.110147 0.139930 0.033184 0.042906 0.023747 0.107309 -0.029032 0.025194 -0.131149 0.154437 -0.020524 0.200423 -0.080015 0.101338 -0.070350 -0.016712 0.096498 0.072922 0.050480 0.052683 -0.189527 -0.026547 -0.283387 0.035226 -0.044459 0.161901 0.089836 0.043148 0.004638 0.218059 -0.103042 0.038951 -0.021909 0.135360 0.019588 -0.103871 -0.033964 -0.008290 -0.149093 0.015497 -0.074553 0.098335 -0.120228 0.086416 0.023180 -0.217624 -0.019089 -0.129386 -0.143207 0.140487 0.096280 -0.052028 0.255677 0.115504 0.090468 -0.018803 -0.018899 0.026294 -0.208552 -0.022130 0.159551 -0.003377 -0.081544 -0.141685 -0.010016 -0.122222 -0.252677 0.088991 -0.114276 -0.001218 -0.118459 0.173491 -0.134233 -0.030646 -0.013042 0.062303 -0.057841 -0.041372 -0.069287 -0.160169 0.130422 -0.042828 -0.114624 0.031574 0.030827 -0.001648 -0.116995 0.030461 0.148193 -0.086534 0.020448 0.086708 -0.024691 0.101448 0.000917 0.145829 -0.148891 0.022079 0.030138 -0.168283 -0.093907 -0.022701 0.176063 0.182958
174 -0.182816 -0.035276 0.191940 0.099278 0.143463 0.093391 -0.027140 -0.050921 0.063660 0.063475 0.131322 0.013892 0.086724 -0.002437 0.086767 -0.040288 0.015614 -0.028339 0.011901 0.061917 -0.104331 0.027735 -0.111106 0.145459 0.114395 0.139716 0.033847 0.051176 0.021135 0.110605 -0.034815 0.023552 -0.128959 0.155334 -0.012457 0.204301 -0.077343 0.096273 -0.069978 -0.021837 0.093810 0.065396 0.051404 0.056316 -0.193953 -0.023681 -0.278121 0.033390 -0.041949 0.156384 0.087756 0.043904 0.001301 0.217713 -0.107449 0.030578 -0.027536 0.131988 0.022265 -0.103372 -0.039518 -0.004208 -0.148985 0.018001 -0.077242 0.097138 -0.123916 0.078258 0.013895 -0.220384 -0.019253 -0.131284 -0.138644 0.138511 0.087469 -0.053532 0.254235 0.116027 0.083572 -0.017137 -0.023011 0.022431 -0.202973 -0.027466 0.157879 -0.009482 -0.084400 -0.137856 -0.011574 -0.114892 -0.251111 0.097321 -0.115293 -0.001515 -0.113637 0.177718 -0.131976 -0.023734 -0.011408 0.060452 -0.052141 -0.034892 -0.067573 -0.156069 0.128866 -0.041887 -0.108679 0.033011 0.027389 0.004707 -0.117488 0.029927 0.153612 -0.092143 0.025689 0.078740 -0.023205 0.100257 -0.005200 0.135782 -0.142341 0.013470 0.035464 -0.160102 -0.091808 -0.025595 0.175323 0.182914
213 -0.173631 -0.041109 0.188657 0.099058 0.141048 0.093301 -0.020157 -0.046697 0.066644 0.061746 0.127420 0.011730 0.087228 0.000862 0.091981 -0.034813 0.015895 -0.029288 0.009900 0.063015 -0.108636 0.034173 -0.109008 0.144977 0.114471 0.140180 0.030982 0.045768 0.021377 0.113003 -0.032216 0.015324 -0.120086 0.150815 -0.021185 0.196112 -0.077109 0.098573 -0.073192 -0.020282 0.092776 0.065198 0.047821 0.057372 -0.191234 -0.029678 -0.276217 0.035741 -0.044289 0.159423 0.087162 0.038224 0.002304 0.214607 -0.103608 0.035790 -0.028370 0.137273 0.019347 -0.105873 -0.033966 -0.003815 -0.143273 0.013500 -0.076412 0.095636 -0.121038 0.083962 0.014534 -0.217388 -0.015449 -0.129890 -0.133091 0.141442 0.085893 -0.048396 0.253551 0.115664 0.077768 -0.017345 -0.024640 0.018333 -0.205686 -0.023455 0.154296 -0.010107 -0.082964 -0.139689 -0.009267 -0.116275 -0.250550 0.093714 -0.120255 0.000714 -0.112673 0.176014 -0.123131 -0.025271 -0.010507 0.063064 -0.055026 -0.032730 -0.062827 -0.155834 0.130721 -0.047779 -0.111873 0.029173 0.022521 0.006647 -0.108706 0.028996 0.150865 -0.082414 0.016835 0.075934 -0.019684 0.102168 -0.006840 0.137521 -0.142115 0.018189 0.036989 -0.160499 -0.094935 -0.028456 0.168577 0.184220
233 -0.190322 -0.045448 0.196162 0.096026 0.149939 0.089139 -0.029384 -0.048281 0.059851 0.069478 0.130284 0.011634 0.089593 -0.004430 0.091602 -0.042027 0.019349 -0.022448 0.015458 0.067045 -0.108577 0.028605 -0.117786 0.146938 0.116717 0.142105 0.036028 0.043035 0.030134 0.110737 -0.031732 0.027951 -0.127492 0.158523 -0.018881 0.208920 -0.079618 0.099779 -0.069025 -0.019899 0.097753 0.069793 0.051123 0.058488 -0.195054 -0.020812 -0.286616 0.034655 -0.043860 0.162174 0.089114 0.043934 0.007067 0.223097 -0.102980 0.040042 -0.026235 0.136364 0.023011 -0.105105 -0.037402 -0.007036 -0.150147 0.019399 -0.076970 0.102629 -0.121989 0.087401 0.018137 -0.224680 -0.016580 -0.131803 -0.143595 0.141071 0.094287 -0.051001 0.256260 0.117047 0.089779 -0.019846 -0.016767 0.023777 -0.205922 -0.026863 0.154451 -0.002807 -0.084506 -0.141419 -0.014859 -0.117318 -0.254066 0.093649 -0.117454 -0.007190 -0.122286 0.180273 -0.133600 -0.029394 -0.014663 0.055485 -0.058348 -0.045150 -0.068402 -0.159501 0.127490 -0.047587 -0.109569 0.033471 0.028148 0.002448 -0.117183 0.030183 0.154566 -0.088774 0.020889 0.086976 -0.022118 0.107722 -0.003574 0.146610 -0.153129 0.019105 0.029903 -0.168274 -0.092748 -0.020619 0.181072 0.185735
198 -0.187697 -0.046657 0.188835 0.086746 0.146423 0.085696 -0.034934 -0.044039 0.062484 0.078699 0.130086 0.001635 0.094447 -0.004226 0.085272 -0.051690 0.012376 -0.025829 0.018907 0.072149 -0.109078 0.029991 -0.118757 0.140528 0.108360 0.141438 0.040011 0.040282 0.031843 0.105347 -0.030760 0.033101 -0.131705 0.156856 -0.015588 0.207901 -0.071463 0.102488 -0.071674 -0.012406 0.099939 0.069844 0.046060 0.052286 -0.188008 -0.018540 -0.279492 0.024280 -0.051707 0.159970 0.087486 0.046087 0.008568 0.219245 -0.107049 0.038788 -0.024231 0.131027 0.015262 -0.094616 -0.034180 -0.009186 -0.147693 0.019267 -0.077846 0.094114 -0.124287 0.087080 0.021589 -0.218729 -0.010860 -0.124242 -0.148576 0.145161 0.099916 -0.048610 0.254109 0.107460 0.088359 -0.015180 -0.020976 0.030045 -0.210345 -0.027532 0.160365 0.002999 -0.082337 -0.138858 -0.018707 -0.121098 -0.250952 0.088170 -0.105544 -0.002665 -0.122327 0.174571 -0.135316 -0.029209 -0.012446 0.053354 -0.058901 -0.046372 -0.064375 -0.164622 0.119684 -0.039996 -0.111908 0.034385 0.034455 -0.006791 -0.122886 0.027178 0.152150 -0.092857 0.024480 0.091281 -0.018543 0.109206 0.003276 0.148000 -0.148509 0.020009 0.026643 -0.165280 -0.091951 -0.015614 0.180633 0.173617
97 -0.193809 -0.041890 0.189164 0.089279 0.156079 0.081948 -0.032977 -0.044530 0.064129 0.080948 0.134864 0.004726 0.096105 -0.007045 0.084526 -0.050133 0.016206 -0.024900 0.012078 0.071776 -0.107618 0.024866 -0.117162 0.138809 0.112123 0.135328 0.037667 0.043267 0.029851 0.105894 -0.029553 0.038451 -0.137109 0.154595 -0.016043 0.212389 -0.070555 0.107210 -0.073252 -0.021787 0.099038 0.076174 0.042284 0.059047 -0.193954 -0.018694 -0.284818 0.029778 -0.052758 0.155910 0.086791 0.048236 0.006799 0.223565 -0.104627 0.041475 -0.025520 0.128256 0.017590 -0.098878 -0.034307 -0.006154 -0.151235 0.015247 -0.076711 0.104773 -0.132541 0.084814 0.028532 -0.223376 -0.011434 -0.124054 -0.149904 0.144349 0.101163 -0.054014 0.252728 0.116082 0.095392 -0.014249 -0.019529 0.030047 -0.205702 -0.031716 0.159177 -0.004495 -0.083424 -0.133129 -0.020321 -0.125653 -0.256741 0.091928 -0.107795 -0.003647 -0.126855 0.180468 -0.145183 -0.028327 -0.011085 0.051485 -0.065409 -0.051287 -0.062169 -0.165818 0.125882 -0.041300 -0.111012 0.042707 0.034538 -0.003312 -0.124274 0.021289 0.150345 -0.094351 0.027651 0.091422 -0.015019 0.107122 0.008573 0.142131 -0.152755 0.017863 0.030424 -0.174607 -0.093501 -0.015738 0.186055 0.178046
149 -0.189232 -0.044003 0.184412 0.090439 0.149770 0.086202 -0.034742 -0.041583 0.060372 0.074194 0.127792 0.006829 0.092579 -0.004113 0.085069 -0.047556 0.011237 -0.025912 0.013436 0.072075 -0.101625 0.023974 -0.111272 0.137982 0.112491 0.137581 0.040366 0.048047 0.028998 0.108485 -0.027682 0.031290 -0.130927 0.155501 -0.010294 0.205746 -0.073159 0.105250 -0.071143 -0.015767 0.098067 0.072119 0.044155 0.057236 -0.191840 -0.017334 -0.282410 0.029281 -0.052623 0.156096 0.082585 0.044592 0.003595 0.214387 -0.108561 0.035214 -0.028104 0.128075 0.017937 -0.094779 -0.036359 -0.005781 -0.144471 0.020583 -0.080614 0.100161 -0.125128 0.083442 0.022426 -0.213571 -0.015902 -0.124083 -0.146356 0.140825 0.094426 -0.049519 0.249095 0.110439 0.090196 -0.018276 -0.015787 0.022732 -0.207679 -0.030057 0.154712 -0.003267 -0.076695 -0.133079 -0.016978 -0.120079 -0.253976 0.094143 -0.107103 -0.006195 -0.123005 0.178251 -0.139773 -0.029823 -0.010526 0.053009 -0.062252 -0.042643 -0.063122 -0.157592 0.122412 -0.040758 -0.111691 0.038565 0.034322 -0.004946 -0.116900 0.025382 0.150334 -0.096121 0.026076 0.085788 -0.016475 0.109125 0.006983 0.141109 -0.150370 0.018347 0.028278 -0.170046 -0.085801 -0.019626 0.178569 0.176301
