20 128
84 -0.245761 -0.181205 0.123776 -0.137051 0.131791 0.127815 -0.097158 -0.000850 0.126648 0.078629 0.094713 -0.000431 -0.033086 -0.039574 -0.029781 -0.063525 -0.045599 0.032593 0.033699 0.055324 0.007350 0.112299 -0.079821 0.145427 0.017482 -0.062345 -0.131926 0.035958 0.117924 -0.146241 0.059983 0.085740 -0.148117 0.085241 0.153699 -0.019935 0.000016 0.163557 -0.080365 0.044424 -0.000711 0.106796 -0.017037 -0.167672 0.012287 0.083597 -0.090957 -0.032154 -0.079882 0.047000 -0.011145 -0.040024 0.085994 -0.125321 -0.066634 0.005697 0.213224 -0.014311 -0.017707 0.139971 -0.041659 -0.004756 -0.034569 0.138944 -0.057251 -0.086459 -0.064340 0.045272 0.114597 -0.117218 0.011308 -0.011140 -0.069499 0.110010 0.105323 0.008021 0.033857 0.136223 -0.013918 -0.044844 -0.108182 0.058581 -0.179269 0.024134 0.094039 0.111510 0.011873 -0.058053 0.105993 0.041962 -0.066877 -0.006453 0.005487 -0.041276 -0.224964 0.000140 -0.093057 0.008922 -0.004651 0.242654 0.121181 -0.046862 -0.060898 -0.161433 -0.112429 -0.135160 -0.193080 0.007652 0.202597 -0.096443 -0.123170 -0.073545 0.120908 -0.028950 0.088269 0.180141 0.054802 0.120875 -0.031330 0.158753 -0.037888 0.093754 -0.186907 -0.078241 -0.096576 0.031353 0.197040 -0.088851
198 -0.261836 -0.204002 0.141962 -0.109851 0.129763 0.113627 -0.084540 -0.018070 0.135025 0.091313 0.103209 0.005648 -0.045694 -0.026419 -0.008013 -0.060190 -0.054331 0.017603 0.033803 0.073394 0.038658 0.125582 -0.100126 0.177818 0.025827 -0.053339 -0.128880 0.016175 0.108964 -0.136609 0.053152 0.069271 -0.157688 0.080605 0.189963 -0.034681 0.016387 0.180815 -0.087408 0.061184 0.009360 0.111190 -0.006483 -0.171060 0.022275 0.084754 -0.098174 -0.053868 -0.070532 0.031469 0.009869 -0.039388 0.092783 -0.118676 -0.051934 0.011201 0.190539 -0.018170 -0.005699 0.128432 -0.038231 -0.010847 -0.019260 0.142157 -0.076435 -0.089684 -0.078132 0.042024 0.111349 -0.130124 0.002751 -0.012997 -0.091539 0.141929 0.090974 -0.001733 0.040025 0.128414 -0.049408 -0.061227 -0.112939 0.050086 -0.197902 0.024113 0.092400 0.113024 0.018870 -0.061148 0.088671 0.049811 -0.067891 -0.014557 0.040172 -0.054567 -0.233139 0.012436 -0.106847 0.018782 -0.033687 0.237753 0.129367 -0.067953 -0.046810 -0.161618 -0.123918 -0.139032 -0.206592 -0.015132 0.187480 -0.113024 -0.142583 -0.075917 0.122380 -0.045265 0.097241 0.168202 0.058914 0.136510 -0.026596 0.144384 -0.044120 0.096362 -0.182246 -0.088583 -0.094359 0.040840 0.196313 -0.083886
19 -0.255327 -0.197027 0.137383 -0.140352 0.131350 0.129522 -0.098404 -0.008314 0.135436 0.085432 0.095563 0.002204 -0.041616 -0.036386 -0.026193 -0.065512 -0.054690 0.025053 0.039959 0.066940 0.020777 0.112264 -0.092140 0.160979 0.018887 -0.054662 -0.134205 0.031682 0.118186 -0.148932 0.061454 0.082687 -0.154681 0.081456 0.167517 -0.023764 -0.000638 0.176283 -0.080254 0.054645 0.001516 0.107152 -0.016105 -0.172717 0.022545 0.085431 -0.094318 -0.046489 -0.083173 0.047474 -0.008857 -0.044869 0.086252 -0.128040 -0.061437 0.008332 0.210164 -0.015908 -0.009271 0.139998 -0.042635 -0.013092 -0.025266 0.147369 -0.067540 -0.096433 -0.065341 0.045134 0.114984 -0.126813 0.012178 -0.011800 -0.073140 0.125643 0.103367 -0.002294 0.042675 0.140087 -0.027801 -0.055354 -0.119537 0.059688 -0.192204 0.018995 0.092110 0.117103 0.018585 -0.058666 0.100572 0.044274 -0.069011 -0.004766 0.017738 -0.043224 -0.237220 0.004509 -0.101332 0.014321 -0.010855 0.241282 0.128786 -0.050601 -0.062327 -0.172629 -0.118558 -0.138360 -0.200985 0.006528 0.204405 -0.106928 -0.133710 -0.078675 0.124574 -0.037463 0.098426 0.186921 0.061275 0.134343 -0.033384 0.164144 -0.041561 0.094170 -0.193914 -0.087480 -0.104197 0.037845 0.198623 -0.091850
133 -0.280847 -0.213766 0.150605 -0.110751 0.139468 0.119269 -0.090120 -0.015868 0.141242 0.095997 0.111639 0.006021 -0.053708 -0.030379 -0.008848 -0.061105 -0.058284 0.020987 0.034577 0.074129 0.045839 0.132459 -0.104996 0.184522 0.025743 -0.055872 -0.135341 0.019560 0.116409 -0.142263 0.052828 0.072951 -0.166969 0.081603 0.200199 -0.033960 0.014571 0.195195 -0.093477 0.060891 0.006944 0.124793 -0.003274 -0.176706 0.020044 0.090484 -0.108767 -0.053710 -0.076124 0.030864 0.009911 -0.045614 0.094906 -0.123305 -0.054569 0.014085 0.196502 -0.022106 -0.003694 0.130490 -0.037480 -0.006452 -0.023934 0.147513 -0.081225 -0.086428 -0.084958 0.036559 0.119567 -0.135924 -0.004218 -0.012860 -0.092001 0.147864 0.088345 -0.002426 0.035927 0.139642 -0.050397 -0.062708 -0.115348 0.048374 -0.200711 0.027769 0.087498 0.114206 0.021252 -0.059964 0.094823 0.054681 -0.071781 -0.012216 0.039327 -0.063306 -0.243882 0.011180 -0.114161 0.022207 -0.037361 0.242986 0.138098 -0.074305 -0.041223 -0.163489 -0.124036 -0.149622 -0.215236 -0.012283 0.196356 -0.115304 -0.145257 -0.083599 0.123104 -0.049631 0.104426 0.171171 0.058343 0.143618 -0.027277 0.145366 -0.048143 0.096212 -0.187103 -0.095411 -0.092351 0.044103 0.206244 -0.084023
57 -0.223648 -0.157867 0.087315 -0.226695 0.134138 0.160034 -0.134142 0.037614 0.124611 0.057823 0.074473 -0.019184 -0.008253 -0.063951 -0.077180 -0.097406 -0.036162 0.059915 0.037077 0.025703 -0.056963 0.093563 -0.055603 0.089623 -0.000498 -0.073678 -0.141489 0.069903 0.145992 -0.175749 0.076559 0.119052 -0.134595 0.113927 0.081390 0.007388 -0.034152 0.127297 -0.067620 0.026746 -0.006747 0.087101 -0.042458 -0.174645 0.004666 0.082936 -0.075049 -0.001420 -0.111467 0.098250 -0.053881 -0.043227 0.094057 -0.147177 -0.101832 -0.005666 0.278023 -0.007789 -0.042213 0.179463 -0.054651 -0.005230 -0.063463 0.137927 -0.030423 -0.111452 -0.030056 0.068655 0.125779 -0.096239 0.044736 -0.002483 -0.025847 0.056964 0.167638 0.028021 0.025190 0.160581 0.066958 -0.022041 -0.127865 0.098322 -0.163615 0.013848 0.120928 0.134708 -0.005027 -0.057434 0.147925 0.028997 -0.060313 0.007978 -0.065926 -0.005178 -0.228389 -0.040319 -0.067863 -0.010873 0.065419 0.264306 0.107524 -0.000215 -0.102580 -0.188502 -0.098531 -0.124163 -0.174371 0.058374 0.245625 -0.077732 -0.095563 -0.068695 0.121800 0.013931 0.072504 0.210784 0.048850 0.091263 -0.029621 0.201299 -0.013566 0.086333 -0.211080 -0.055500 -0.107302 0.014827 0.198156 -0.101401
3 -0.273898 -0.201459 0.136702 -0.170223 0.144032 0.144895 -0.112665 0.005291 0.139164 0.082283 0.101150 -0.007001 -0.040303 -0.050416 -0.042093 -0.083405 -0.047824 0.034973 0.039103 0.057056 -0.000595 0.122758 -0.093500 0.158948 0.020446 -0.068892 -0.145814 0.043797 0.140355 -0.163190 0.067638 0.094686 -0.166016 0.104628 0.158617 -0.021974 -0.002623 0.179847 -0.084923 0.052968 0.001399 0.107632 -0.024200 -0.182661 0.015026 0.089719 -0.096876 -0.039523 -0.101870 0.065658 -0.015551 -0.048761 0.096000 -0.140452 -0.081971 0.002440 0.244859 -0.016558 -0.023135 0.164900 -0.052811 -0.009541 -0.039590 0.157637 -0.063389 -0.107417 -0.058991 0.058589 0.128914 -0.131392 0.023239 -0.010299 -0.071774 0.119728 0.130689 0.008472 0.040511 0.152066 -0.001320 -0.050928 -0.131525 0.076217 -0.201690 0.018300 0.108182 0.131901 0.009960 -0.061587 0.121316 0.042826 -0.072787 -0.002479 -0.004484 -0.038191 -0.253906 -0.005780 -0.103370 0.010795 0.010875 0.269163 0.127896 -0.042266 -0.076785 -0.187760 -0.120749 -0.143163 -0.210233 0.017886 0.234105 -0.109679 -0.132101 -0.081090 0.135301 -0.024948 0.097394 0.205709 0.057797 0.133042 -0.027411 0.183179 -0.038682 0.095983 -0.210496 -0.083377 -0.112886 0.035990 0.216345 -0.097077
163 -0.272621 -0.208666 0.144482 -0.144495 0.143672 0.130788 -0.099099 -0.003210 0.138804 0.084646 0.104095 0.004557 -0.043379 -0.042487 -0.027919 -0.072678 -0.051925 0.031714 0.032636 0.067120 0.024435 0.129540 -0.094210 0.172919 0.027179 -0.069028 -0.148830 0.033761 0.120957 -0.158098 0.063832 0.083961 -0.162044 0.095447 0.179716 -0.033357 0.000970 0.182998 -0.087882 0.051110 0.001718 0.117225 -0.014186 -0.187320 0.014273 0.092745 -0.106474 -0.042413 -0.080972 0.047517 -0.002736 -0.049694 0.103718 -0.139943 -0.065440 0.013024 0.229227 -0.016922 -0.013946 0.149425 -0.043067 -0.005586 -0.035844 0.150297 -0.074170 -0.096936 -0.075243 0.049544 0.122903 -0.127669 0.009575 -0.015974 -0.082147 0.128338 0.113571 0.009634 0.034443 0.152744 -0.021177 -0.059002 -0.121216 0.058849 -0.199067 0.025848 0.105770 0.126615 0.015299 -0.060850 0.110107 0.050684 -0.075227 -0.008177 0.018356 -0.048569 -0.250510 -0.002972 -0.110533 0.013243 -0.016547 0.270505 0.136696 -0.056550 -0.056615 -0.174916 -0.127902 -0.148057 -0.219263 -0.002906 0.217945 -0.112916 -0.139929 -0.085312 0.130457 -0.031600 0.096058 0.185713 0.055202 0.132994 -0.026620 0.164033 -0.043736 0.102978 -0.201540 -0.088499 -0.100968 0.036871 0.211368 -0.092828
5 -0.254977 -0.198044 0.132561 -0.109241 0.134047 0.110247 -0.076383 -0.018231 0.132628 0.082812 0.105853 0.008630 -0.048830 -0.029827 -0.007045 -0.060611 -0.052685 0.016737 0.028268 0.068485 0.039888 0.124836 -0.096114 0.174367 0.028246 -0.058042 -0.129647 0.016123 0.104506 -0.134647 0.049950 0.066257 -0.156096 0.078597 0.183783 -0.038345 0.012506 0.176827 -0.083713 0.054787 0.010190 0.110683 -0.007833 -0.165713 0.015706 0.082109 -0.096060 -0.047077 -0.068021 0.028882 0.007033 -0.037682 0.092976 -0.121341 -0.047065 0.008531 0.189557 -0.021094 -0.002334 0.118211 -0.038390 -0.009214 -0.019591 0.138210 -0.076499 -0.083741 -0.071041 0.037101 0.112270 -0.126801 -0.002484 -0.011211 -0.087644 0.129275 0.087737 -0.004766 0.032078 0.125812 -0.045187 -0.062814 -0.110473 0.046557 -0.187216 0.024877 0.085006 0.104050 0.020762 -0.053115 0.092253 0.048906 -0.062137 -0.013407 0.034098 -0.052144 -0.230733 0.009798 -0.108587 0.016037 -0.026518 0.236416 0.120514 -0.064391 -0.046177 -0.156395 -0.118656 -0.138095 -0.197709 -0.011885 0.179812 -0.107053 -0.135096 -0.075536 0.115125 -0.042958 0.090865 0.163952 0.056694 0.128534 -0.020165 0.138929 -0.042731 0.092478 -0.174966 -0.090673 -0.091678 0.039519 0.186086 -0.074525
187 -0.262930 -0.196570 0.132993 -0.147645 0.137837 0.133130 -0.095279 -0.001721 0.131275 0.085741 0.104257 -0.002182 -0.039705 -0.040740 -0.024382 -0.067500 -0.048683 0.032587 0.033000 0.059779 0.014065 0.120274 -0.086513 0.160609 0.019705 -0.067174 -0.140208 0.035846 0.120564 -0.149570 0.064578 0.082749 -0.160445 0.089045 0.167903 -0.027574 -0.000685 0.170699 -0.081221 0.050585 0.002035 0.111199 -0.013801 -0.180067 0.016002 0.087447 -0.094082 -0.036238 -0.078971 0.050857 -0.006217 -0.041044 0.099337 -0.132203 -0.065281 0.008911 0.220197 -0.019844 -0.016103 0.147196 -0.039571 -0.008077 -0.032619 0.146051 -0.068035 -0.094647 -0.068564 0.046979 0.125273 -0.119567 0.009322 -0.007575 -0.070905 0.123434 0.111372 0.006234 0.036560 0.146522 -0.014583 -0.052714 -0.118530 0.060194 -0.194296 0.024927 0.103246 0.120823 0.015432 -0.060320 0.112221 0.047542 -0.070786 -0.008363 0.008289 -0.043789 -0.244149 -0.005285 -0.105433 0.013678 -0.010061 0.259859 0.124069 -0.053655 -0.062640 -0.173418 -0.121999 -0.142622 -0.204660 0.006636 0.212363 -0.107540 -0.129755 -0.081020 0.121972 -0.029910 0.095684 0.183394 0.057763 0.129105 -0.029947 0.161758 -0.038077 0.101298 -0.202656 -0.087822 -0.102692 0.032558 0.207482 -0.087677
188 -0.241680 -0.173427 0.109703 -0.214076 0.143603 0.159987 -0.124654 0.027709 0.134140 0.070945 0.089436 -0.018592 -0.013631 -0.061450 -0.062623 -0.086075 -0.039367 0.052533 0.041548 0.036312 -0.040801 0.104334 -0.065209 0.114124 0.003474 -0.073330 -0.148015 0.058241 0.140346 -0.176203 0.080387 0.111379 -0.150410 0.110202 0.105972 -0.006145 -0.026811 0.146819 -0.073185 0.036219 -0.004142 0.099930 -0.033271 -0.186062 0.010750 0.082819 -0.087657 -0.008799 -0.106866 0.090420 -0.036969 -0.045935 0.100630 -0.147541 -0.094641 0.001476 0.277871 -0.011085 -0.037287 0.175571 -0.050060 -0.011427 -0.056521 0.144814 -0.040833 -0.110644 -0.039047 0.070376 0.133758 -0.105625 0.031664 -0.006874 -0.044313 0.079802 0.159569 0.023059 0.032160 0.162720 0.047300 -0.034123 -0.129815 0.090913 -0.185392 0.020358 0.123866 0.137690 0.000743 -0.064075 0.148250 0.028783 -0.068439 -0.002142 -0.045012 -0.015246 -0.237520 -0.034111 -0.080989 -0.009862 0.044035 0.278669 0.116761 -0.016361 -0.097995 -0.191004 -0.104616 -0.134971 -0.195785 0.040868 0.248612 -0.092573 -0.112534 -0.070549 0.127211 0.003050 0.079574 0.213143 0.045486 0.103495 -0.029000 0.201395 -0.023174 0.097153 -0.213925 -0.066982 -0.112170 0.021026 0.205345 -0.098694
102 -0.227900 -0.159900 0.090046 -0.247344 0.134924 0.167116 -0.147452 0.048731 0.128315 0.052562 0.070075 -0.024507 -0.009307 -0.072181 -0.089286 -0.101470 -0.033896 0.069352 0.044003 0.015464 -0.074667 0.089624 -0.060251 0.077340 -0.005205 -0.086189 -0.141377 0.072666 0.159341 -0.185472 0.086858 0.127279 -0.131020 0.125489 0.067261 0.011201 -0.036140 0.127262 -0.066801 0.016953 -0.014849 0.084205 -0.052345 -0.174892 0.005037 0.079891 -0.077896 0.005826 -0.126971 0.109358 -0.062750 -0.047259 0.099766 -0.155773 -0.114025 -0.005281 0.303643 -0.010898 -0.053916 0.195433 -0.051266 -0.012223 -0.064207 0.144087 -0.027791 -0.113026 -0.025437 0.080732 0.134570 -0.096329 0.050385 -0.007638 -0.018757 0.052625 0.180642 0.038677 0.024081 0.173020 0.078107 -0.021059 -0.138462 0.108491 -0.175922 0.008107 0.123836 0.136302 -0.010363 -0.054111 0.166101 0.023790 -0.069783 0.009863 -0.076152 -0.002961 -0.230134 -0.050743 -0.064912 -0.019241 0.080096 0.282502 0.101100 0.006879 -0.108283 -0.198248 -0.100877 -0.133848 -0.178454 0.069044 0.265274 -0.078263 -0.095240 -0.073569 0.131077 0.021845 0.074107 0.224216 0.046884 0.093834 -0.032778 0.217301 -0.009591 0.090636 -0.214315 -0.053161 -0.120357 0.016765 0.205736 -0.104019
129 -0.271779 -0.203654 0.140746 -0.135626 0.142284 0.127064 -0.098751 -0.005519 0.139824 0.087867 0.106484 0.001000 -0.042741 -0.040370 -0.018386 -0.069393 -0.051851 0.026558 0.035142 0.060449 0.024836 0.128073 -0.096455 0.167056 0.025510 -0.063286 -0.140939 0.028446 0.118657 -0.153950 0.064806 0.080146 -0.159847 0.090484 0.176549 -0.032837 0.009745 0.183306 -0.088769 0.057255 0.007015 0.117841 -0.015468 -0.180158 0.018082 0.085487 -0.097992 -0.038452 -0.081899 0.046954 -0.004679 -0.040581 0.096993 -0.130759 -0.061280 0.009199 0.221331 -0.019288 -0.016806 0.138169 -0.042335 -0.005828 -0.028142 0.145942 -0.068347 -0.095339 -0.070738 0.043683 0.120333 -0.129234 0.006106 -0.012311 -0.084810 0.131907 0.101499 0.001140 0.033784 0.146357 -0.027466 -0.058620 -0.117324 0.059980 -0.196559 0.027239 0.097892 0.122076 0.011698 -0.064379 0.102924 0.050692 -0.071290 -0.010309 0.017246 -0.049271 -0.244710 0.002632 -0.108206 0.015627 -0.017053 0.257084 0.133987 -0.061280 -0.055889 -0.166435 -0.120641 -0.148524 -0.207147 -0.003065 0.207337 -0.108521 -0.136058 -0.077224 0.123490 -0.031883 0.095961 0.183873 0.060401 0.132644 -0.027066 0.157240 -0.038488 0.098826 -0.192254 -0.083464 -0.097009 0.040113 0.205168 -0.092156
189 -0.244047 -0.168005 0.100371 -0.209676 0.141219 0.160620 -0.130163 0.031288 0.130404 0.068505 0.084164 -0.014401 -0.016293 -0.062242 -0.065686 -0.088578 -0.037433 0.054896 0.038226 0.029055 -0.046719 0.107033 -0.063397 0.108842 0.008507 -0.076153 -0.147474 0.062008 0.142168 -0.175901 0.078798 0.115785 -0.143507 0.108934 0.100473 -0.001549 -0.021014 0.144243 -0.071462 0.027288 -0.004108 0.093597 -0.033466 -0.180613 0.003849 0.089332 -0.079599 -0.004300 -0.114482 0.087379 -0.038354 -0.046703 0.102029 -0.149792 -0.096999 0.001079 0.278383 -0.017237 -0.042846 0.178614 -0.048168 -0.004936 -0.055938 0.147772 -0.040481 -0.109422 -0.039119 0.071334 0.129345 -0.103493 0.032764 -0.003966 -0.044208 0.075295 0.152721 0.027073 0.024323 0.164536 0.048728 -0.031462 -0.129210 0.085731 -0.177756 0.014857 0.121276 0.134795 -0.002797 -0.055210 0.146114 0.030858 -0.069978 -0.000440 -0.046725 -0.015949 -0.231886 -0.033843 -0.074088 -0.011448 0.050993 0.273598 0.114471 -0.016787 -0.093709 -0.185404 -0.103422 -0.139000 -0.189035 0.041379 0.249660 -0.084678 -0.107844 -0.070123 0.131696 0.003988 0.079198 0.211580 0.045863 0.106602 -0.030354 0.197661 -0.017653 0.088663 -0.208343 -0.058176 -0.110847 0.023689 0.201309 -0.101343
207 -0.265194 -0.201227 0.135490 -0.143330 0.140274 0.129751 -0.095427 -0.006952 0.138703 0.087487 0.099877 0.003683 -0.040030 -0.037390 -0.026085 -0.065343 -0.048658 0.031972 0.031774 0.060459 0.020903 0.123351 -0.089742 0.165575 0.023494 -0.066609 -0.144687 0.030727 0.124672 -0.152101 0.058999 0.085797 -0.156865 0.091626 0.173775 -0.030584 0.003722 0.177391 -0.086607 0.050546 0.003806 0.114881 -0.013726 -0.179870 0.021142 0.087165 -0.099321 -0.036743 -0.084368 0.048031 -0.006816 -0.047877 0.096046 -0.136470 -0.065277 0.009600 0.225231 -0.021411 -0.013897 0.145551 -0.045455 -0.006382 -0.031832 0.144852 -0.068378 -0.097080 -0.070878 0.050960 0.125174 -0.125205 0.012049 -0.015529 -0.075848 0.123014 0.113305 0.005751 0.033461 0.145980 -0.023295 -0.058422 -0.122925 0.058424 -0.196202 0.023045 0.101820 0.119773 0.014371 -0.063385 0.114874 0.044675 -0.067600 -0.008287 0.016827 -0.046889 -0.241210 0.002174 -0.100346 0.011806 -0.013605 0.260479 0.130065 -0.055504 -0.062315 -0.170355 -0.121336 -0.145995 -0.212895 0.006173 0.214884 -0.106310 -0.134771 -0.080529 0.124931 -0.028088 0.099358 0.185622 0.053331 0.129154 -0.028496 0.166180 -0.036384 0.092889 -0.200124 -0.087527 -0.104313 0.032385 0.205503 -0.089621
108 -0.283685 -0.206969 0.136339 -0.170581 0.153203 0.150228 -0.111837 0.002506 0.146356 0.093325 0.109713 -0.004588 -0.038818 -0.048002 -0.034756 -0.078658 -0.055589 0.036184 0.038656 0.066587 0.011621 0.130531 -0.092444 0.168093 0.018814 -0.068272 -0.155459 0.039458 0.135835 -0.174080 0.073716 0.101439 -0.173825 0.096765 0.174182 -0.019706 -0.003233 0.185025 -0.089723 0.056626 0.005559 0.118826 -0.025058 -0.196185 0.015891 0.095974 -0.104049 -0.039075 -0.094126 0.059656 -0.017627 -0.047594 0.105279 -0.143128 -0.080318 0.003650 0.250295 -0.022042 -0.020868 0.159600 -0.053113 -0.010895 -0.036810 0.162136 -0.070766 -0.105564 -0.065774 0.051419 0.130681 -0.133216 0.016901 -0.009255 -0.075687 0.125161 0.121772 0.008397 0.038020 0.152728 -0.013209 -0.052798 -0.133575 0.067383 -0.207245 0.024804 0.108433 0.132152 0.012453 -0.066758 0.126933 0.043957 -0.070844 -0.005372 -0.000711 -0.039294 -0.259790 -0.002718 -0.106968 0.009592 -0.000596 0.278442 0.139385 -0.049004 -0.069232 -0.187640 -0.131483 -0.155394 -0.215671 0.017245 0.234292 -0.110359 -0.141412 -0.082284 0.140045 -0.032080 0.100718 0.211449 0.060967 0.137220 -0.031477 0.185127 -0.039177 0.102072 -0.215995 -0.084695 -0.111415 0.037863 0.224796 -0.103393
35 -0.267077 -0.196889 0.129548 -0.155757 0.138934 0.138321 -0.103189 -0.003056 0.134909 0.086233 0.100850 0.001041 -0.037770 -0.042377 -0.032009 -0.072296 -0.046549 0.037703 0.037464 0.061561 0.013201 0.119968 -0.089564 0.160211 0.021735 -0.062742 -0.141211 0.039941 0.123661 -0.158645 0.067179 0.090098 -0.160558 0.091765 0.165865 -0.023186 -0.000813 0.170904 -0.080370 0.047571 -0.001950 0.112052 -0.014849 -0.181704 0.016414 0.084002 -0.099119 -0.035693 -0.090294 0.052335 -0.011206 -0.048054 0.096301 -0.138057 -0.067037 0.002697 0.234795 -0.019291 -0.019258 0.148327 -0.046582 -0.010016 -0.034378 0.146713 -0.068274 -0.102923 -0.068960 0.054642 0.124649 -0.124377 0.013272 -0.009654 -0.072041 0.119119 0.118874 0.003978 0.037144 0.151901 -0.013042 -0.050923 -0.126052 0.062121 -0.195359 0.021034 0.107337 0.127779 0.015956 -0.063885 0.114274 0.048945 -0.068575 -0.010055 0.001264 -0.044737 -0.248989 -0.009590 -0.101730 0.011769 -0.000736 0.265088 0.134022 -0.049297 -0.071743 -0.181057 -0.115292 -0.146718 -0.208672 0.012756 0.223522 -0.102977 -0.131364 -0.082112 0.128848 -0.028072 0.093612 0.195142 0.057321 0.129337 -0.029685 0.172434 -0.035383 0.097330 -0.199918 -0.081972 -0.102541 0.035418 0.205318 -0.091078
152 -0.227344 -0.159434 0.084745 -0.265165 0.133271 0.181581 -0.156281 0.054837 0.129225 0.048048 0.065887 -0.021169 -0.002328 -0.073411 -0.098595 -0.108978 -0.027342 0.073067 0.040288 0.015990 -0.082831 0.090874 -0.056693 0.073909 -0.004980 -0.084832 -0.147122 0.084166 0.164546 -0.190950 0.090157 0.131383 -0.136858 0.130360 0.056914 0.013186 -0.036754 0.125494 -0.063227 0.017540 -0.014144 0.086332 -0.057393 -0.183651 0.003198 0.084951 -0.072067 0.009554 -0.135443 0.122000 -0.070378 -0.043938 0.103858 -0.162486 -0.119774 -0.003798 0.316832 -0.010823 -0.053076 0.205392 -0.060493 -0.011430 -0.072005 0.142652 -0.018506 -0.121110 -0.018182 0.082552 0.137828 -0.097359 0.058187 -0.000582 -0.013649 0.042192 0.194022 0.040806 0.021678 0.173361 0.094281 -0.014757 -0.142626 0.113124 -0.169525 0.006450 0.126066 0.148722 -0.016190 -0.055024 0.173632 0.023545 -0.063116 0.011126 -0.090584 0.002092 -0.234914 -0.055219 -0.059685 -0.019020 0.093311 0.287946 0.105351 0.017321 -0.122579 -0.205020 -0.096622 -0.132690 -0.176235 0.074448 0.278127 -0.080393 -0.094901 -0.069431 0.138283 0.025257 0.076039 0.234979 0.049826 0.092094 -0.032286 0.228531 -0.012721 0.093836 -0.229212 -0.050812 -0.123649 0.012160 0.211364 -0.111971
58 -0.260361 -0.191743 0.121206 -0.187594 0.139817 0.152066 -0.117731 0.015744 0.138542 0.078901 0.098107 -0.009171 -0.025791 -0.048179 -0.047263 -0.086468 -0.048896 0.045963 0.038961 0.045551 -0.016424 0.110927 -0.084008 0.136639 0.015453 -0.074565 -0.150143 0.045800 0.139744 -0.165805 0.073769 0.100155 -0.155354 0.105516 0.142510 -0.012956 -0.011667 0.169080 -0.084774 0.045688 -0.005082 0.102914 -0.030604 -0.186049 0.010632 0.088283 -0.092033 -0.022831 -0.100509 0.067301 -0.026006 -0.049321 0.103837 -0.142615 -0.085824 0.004809 0.257453 -0.019036 -0.024665 0.169177 -0.045384 -0.011627 -0.045234 0.147559 -0.055330 -0.106571 -0.052461 0.057301 0.133930 -0.116624 0.022341 -0.012331 -0.058604 0.101058 0.139679 0.011334 0.029910 0.155699 0.014242 -0.046932 -0.132269 0.076917 -0.195407 0.021933 0.115720 0.134281 0.008896 -0.066315 0.129697 0.039174 -0.072134 -0.004913 -0.021093 -0.028168 -0.249604 -0.016098 -0.097561 -0.001399 0.024220 0.270631 0.126190 -0.035274 -0.078517 -0.184651 -0.119904 -0.142640 -0.207977 0.029487 0.239312 -0.101239 -0.127765 -0.081313 0.133180 -0.017724 0.087692 0.204855 0.052912 0.120829 -0.033504 0.189452 -0.028057 0.102508 -0.213988 -0.075989 -0.110577 0.030446 0.214401 -0.095854
191 -0.269847 -0.196596 0.134600 -0.158317 0.146399 0.136016 -0.100768 0.001879 0.136905 0.081025 0.104951 -0.004988 -0.034931 -0.047141 -0.030607 -0.071601 -0.049715 0.037929 0.031425 0.057728 0.006477 0.120108 -0.084775 0.160108 0.022213 -0.065154 -0.140981 0.033495 0.129019 -0.155823 0.067658 0.087795 -0.165687 0.094368 0.168537 -0.026487 -0.002970 0.173171 -0.081214 0.045735 -0.002022 0.110994 -0.019933 -0.181114 0.016880 0.086720 -0.098594 -0.036440 -0.085309 0.051716 -0.007920 -0.048111 0.102691 -0.138182 -0.071091 0.004205 0.233567 -0.019534 -0.014857 0.156042 -0.044380 -0.009926 -0.036503 0.145656 -0.067324 -0.101818 -0.067463 0.054925 0.124361 -0.129654 0.014384 -0.007382 -0.075222 0.124628 0.122998 0.011136 0.037500 0.148111 -0.013397 -0.052231 -0.124669 0.068147 -0.197228 0.019650 0.109841 0.126411 0.010997 -0.061717 0.120221 0.045658 -0.068021 -0.007406 0.002399 -0.043315 -0.250591 -0.008849 -0.105291 0.011217 -0.000853 0.271687 0.128374 -0.048410 -0.068120 -0.180225 -0.118314 -0.149510 -0.216498 0.006169 0.220463 -0.108437 -0.136266 -0.083970 0.133024 -0.024991 0.100927 0.193886 0.053284 0.129760 -0.028159 0.177748 -0.038477 0.103538 -0.210656 -0.089651 -0.105041 0.030273 0.211811 -0.095979
87 -0.250036 -0.186903 0.129787 -0.138149 0.127641 0.128922 -0.097369 -0.004853 0.132079 0.078913 0.092804 0.000169 -0.035182 -0.038684 -0.025221 -0.063450 -0.051354 0.027933 0.036304 0.057982 0.019067 0.106781 -0.090446 0.149724 0.016298 -0.053492 -0.132502 0.033766 0.117435 -0.147509 0.063938 0.078086 -0.150164 0.081433 0.161371 -0.022219 0.004174 0.168949 -0.081468 0.052625 -0.002345 0.100605 -0.021137 -0.162367 0.022776 0.080846 -0.096075 -0.044043 -0.079659 0.045262 -0.012766 -0.045490 0.082877 -0.122421 -0.067185 0.003015 0.211820 -0.019105 -0.011288 0.139992 -0.039622 -0.009415 -0.028506 0.138196 -0.059978 -0.091594 -0.066329 0.046632 0.114141 -0.119950 0.016585 -0.013707 -0.067703 0.119992 0.108625 -0.000760 0.042434 0.132403 -0.018535 -0.049319 -0.120015 0.059860 -0.187683 0.022931 0.089758 0.116697 0.011712 -0.061058 0.104292 0.046102 -0.066512 -0.006864 0.008169 -0.043410 -0.225930 0.000178 -0.092757 0.012596 -0.009218 0.236368 0.124070 -0.049031 -0.060120 -0.168999 -0.111620 -0.134663 -0.195322 0.009132 0.205126 -0.104743 -0.126991 -0.076872 0.117929 -0.029732 0.091864 0.182740 0.051454 0.124812 -0.030643 0.159408 -0.040739 0.093577 -0.189659 -0.082422 -0.100351 0.034247 0.197928 -0.091262
