13 128
105 -0.164961 -0.229764 0.127649 0.029960 0.043301 -0.080835 0.043089 0.204314 0.230272 0.091537 0.097298 0.161226 0.020298 0.194392 -0.079616 -0.060851 0.134168 -0.056870 0.006126 0.060829 0.138408 0.015601 0.015191 0.138657 -0.072314 0.050861 -0.030962 0.082713 0.042303 0.004782 -0.030604 -0.139762 -0.050992 0.109723 0.206374 0.106815 -0.032406 -0.022261 -0.202169 0.277475 0.053158 0.093296 0.000516 0.005671 0.101699 -0.046888 0.044122 -0.239136 -0.063229 0.002974 0.046138 -0.141279 -0.006011 -0.088213 -0.279348 -0.058028 -0.027477 -0.070365 -0.053485 0.244542 -0.078117 -0.008029 0.001593 -0.065540 -0.106590 -0.087836 -0.134876 -0.089099 -0.010201 -0.052136 0.099142 -0.110194 -0.144420 0.068484 0.180249 0.073610 0.089527 0.013874 0.077248 -0.086150 -0.215512 0.042895 -0.146625 0.075076 0.226695 0.106207 0.147170 -0.135653 0.135574 -0.019425 -0.086241 0.072038 -0.082850 -0.077746 -0.088507 0.017046 0.170371 0.026968 -0.096834 0.057696 0.120510 -0.125781 0.047452 -0.010663 -0.055194 -0.154641 0.023716 0.056669 0.151064 0.037684 -0.040057 0.068481 -0.001480 0.019257 0.042909 0.098327 -0.166982 -0.084052 -0.011036 0.173128 0.027647 -0.150325 -0.037920 0.008155 0.043401 0.056864 0.182841 -0.158342
198 -0.152531 -0.215478 0.114843 0.027159 0.037134 -0.075056 0.036878 0.191638 0.220702 0.089171 0.085082 0.149707 0.021673 0.185493 -0.071215 -0.062667 0.122617 -0.052491 0.005041 0.060216 0.125458 0.012142 0.012268 0.126140 -0.069167 0.050240 -0.028612 0.070587 0.040996 0.004672 -0.027805 -0.126991 -0.043643 0.104248 0.192014 0.104879 -0.026087 -0.019058 -0.190200 0.264277 0.050926 0.081594 -0.004804 0.003322 0.101572 -0.044729 0.042814 -0.223393 -0.058060 0.008143 0.044439 -0.132449 -0.004308 -0.082254 -0.261495 -0.053144 -0.021706 -0.065842 -0.049250 0.230224 -0.071032 -0.009273 0.007636 -0.058687 -0.100891 -0.086265 -0.126066 -0.076534 -0.011143 -0.045748 0.096299 -0.100636 -0.135927 0.063081 0.176207 0.074223 0.087374 0.009570 0.067768 -0.077297 -0.203915 0.045877 -0.143512 0.071219 0.214269 0.103367 0.134176 -0.125623 0.123946 -0.019493 -0.078562 0.062951 -0.071450 -0.072223 -0.079846 0.016267 0.164031 0.019468 -0.089843 0.051579 0.109673 -0.120097 0.041508 -0.014879 -0.052252 -0.142253 0.021852 0.053260 0.144278 0.033476 -0.043709 0.069745 0.002282 0.017445 0.040156 0.090647 -0.154003 -0.075437 -0.016147 0.164711 0.028653 -0.136673 -0.037719 0.011898 0.036571 0.053704 0.174831 -0.152078
133 -0.166500 -0.226398 0.122563 0.029830 0.042232 -0.079739 0.038838 0.203805 0.228909 0.093407 0.095997 0.154486 0.015313 0.190694 -0.075949 -0.066613 0.125285 -0.054660 0.004272 0.059777 0.134657 0.014262 0.011836 0.131368 -0.073269 0.051892 -0.029861 0.076586 0.046051 0.006710 -0.033240 -0.134365 -0.049697 0.108636 0.201264 0.111764 -0.034012 -0.013729 -0.199079 0.274311 0.051308 0.092238 0.001368 0.006455 0.101066 -0.042526 0.037951 -0.234064 -0.063695 0.007295 0.049184 -0.143550 -0.004740 -0.083998 -0.275014 -0.053104 -0.028792 -0.070871 -0.046274 0.237241 -0.071434 -0.006952 0.002179 -0.061842 -0.109382 -0.086744 -0.132334 -0.088065 -0.005801 -0.050089 0.089880 -0.102698 -0.140548 0.069672 0.180244 0.075623 0.084762 0.017733 0.074472 -0.083708 -0.212717 0.047688 -0.146850 0.077222 0.218878 0.108444 0.144936 -0.128089 0.134207 -0.017116 -0.085422 0.069736 -0.078970 -0.080511 -0.091430 0.011906 0.162308 0.024159 -0.092288 0.052579 0.120355 -0.127220 0.048298 -0.016395 -0.051284 -0.152784 0.017814 0.060465 0.154427 0.032475 -0.045552 0.065788 -0.001780 0.013876 0.044040 0.089239 -0.166238 -0.076976 -0.014124 0.167323 0.026472 -0.145383 -0.038495 0.006731 0.045762 0.057682 0.183115 -0.151968
108 -0.156999 -0.208008 0.112256 0.023738 0.044605 -0.072540 0.040694 0.191852 0.213307 0.090200 0.091082 0.145731 0.017079 0.176569 -0.071568 -0.059617 0.120290 -0.052763 0.001660 0.058451 0.129379 0.016117 0.016114 0.127332 -0.067434 0.048411 -0.033299 0.072851 0.039886 0.001131 -0.025022 -0.123343 -0.050052 0.099355 0.192014 0.105407 -0.032207 -0.016823 -0.185593 0.260243 0.051043 0.084147 -0.004348 0.004295 0.095066 -0.039821 0.037452 -0.220853 -0.056544 0.006837 0.042151 -0.134937 -0.004130 -0.078298 -0.262993 -0.055947 -0.023910 -0.069988 -0.047476 0.221882 -0.074380 -0.008492 0.005550 -0.056186 -0.104490 -0.082962 -0.120217 -0.083758 -0.009203 -0.047606 0.088794 -0.096377 -0.134579 0.064871 0.165962 0.072831 0.082603 0.009255 0.068495 -0.079544 -0.203393 0.039974 -0.138466 0.073355 0.206903 0.102379 0.134362 -0.123871 0.131008 -0.021485 -0.077429 0.067143 -0.078826 -0.069301 -0.084563 0.016791 0.155150 0.022914 -0.086528 0.055101 0.113119 -0.115868 0.045778 -0.011633 -0.053358 -0.145408 0.022179 0.060404 0.145053 0.033633 -0.042939 0.065284 0.001719 0.014702 0.040505 0.090519 -0.159292 -0.075630 -0.012461 0.160428 0.026104 -0.140539 -0.036212 0.011758 0.041482 0.053367 0.172545 -0.148796
224 -0.155659 -0.207222 0.113409 0.031207 0.043335 -0.073893 0.038292 0.192147 0.208245 0.082189 0.086542 0.148928 0.012820 0.174565 -0.069601 -0.058529 0.123267 -0.052890 0.002514 0.058318 0.126388 0.009013 0.017486 0.125143 -0.070250 0.045243 -0.027301 0.072352 0.039435 0.003011 -0.031177 -0.124133 -0.042116 0.095079 0.184623 0.098768 -0.030913 -0.018402 -0.184087 0.256762 0.045645 0.083526 -0.005658 0.007199 0.097778 -0.044127 0.041398 -0.217742 -0.059547 0.008903 0.040513 -0.135900 -0.005329 -0.082508 -0.255980 -0.049959 -0.023964 -0.068214 -0.046826 0.224998 -0.068877 -0.001974 0.006389 -0.057627 -0.103376 -0.080649 -0.125353 -0.079957 -0.005209 -0.044901 0.089995 -0.099563 -0.129822 0.057758 0.170041 0.072340 0.085751 0.012546 0.068352 -0.074336 -0.200934 0.045630 -0.137992 0.067978 0.208598 0.099131 0.135028 -0.116701 0.122836 -0.018374 -0.080681 0.061583 -0.071211 -0.074407 -0.083353 0.012643 0.153586 0.021103 -0.087468 0.050323 0.107512 -0.118607 0.046719 -0.014427 -0.050348 -0.138063 0.021948 0.052256 0.145272 0.035095 -0.039623 0.066471 -0.004537 0.015999 0.040041 0.089325 -0.153968 -0.074427 -0.016043 0.154439 0.025521 -0.138967 -0.038935 0.007021 0.035376 0.051848 0.171695 -0.147760
173 -0.155984 -0.212925 0.121178 0.031201 0.041488 -0.077237 0.042948 0.198428 0.220575 0.092050 0.092104 0.148248 0.014140 0.185682 -0.073098 -0.064888 0.126119 -0.049477 0.003459 0.058978 0.131302 0.012381 0.018417 0.128432 -0.065792 0.049240 -0.032500 0.080016 0.043188 0.008690 -0.025666 -0.127206 -0.048822 0.104151 0.194407 0.110383 -0.029863 -0.016462 -0.193593 0.269251 0.048089 0.087734 -0.004736 0.004769 0.096638 -0.046618 0.041778 -0.221811 -0.056592 0.006259 0.048947 -0.140134 -0.003932 -0.085095 -0.264742 -0.051824 -0.029549 -0.065311 -0.050554 0.227860 -0.071767 -0.009182 0.007005 -0.060749 -0.108203 -0.083729 -0.122656 -0.080901 -0.008909 -0.046873 0.092858 -0.100107 -0.134603 0.063088 0.176444 0.077993 0.087837 0.013344 0.073460 -0.077586 -0.206281 0.043961 -0.140604 0.076062 0.216364 0.103465 0.137933 -0.120995 0.132730 -0.021309 -0.078685 0.069779 -0.080355 -0.074653 -0.090728 0.015549 0.159686 0.019509 -0.090784 0.054263 0.109139 -0.123201 0.045922 -0.013004 -0.047154 -0.148908 0.024424 0.060868 0.151373 0.038466 -0.037767 0.063844 0.001290 0.014707 0.042441 0.087309 -0.159808 -0.076124 -0.015411 0.167241 0.025664 -0.139922 -0.033923 0.012435 0.040215 0.053974 0.177308 -0.150133
135 -0.154330 -0.212566 0.113372 0.027526 0.037416 -0.076819 0.042151 0.190960 0.216677 0.085980 0.091590 0.150773 0.016569 0.181759 -0.071025 -0.061373 0.122860 -0.054029 -0.000291 0.052904 0.122831 0.011392 0.016814 0.125667 -0.063313 0.042137 -0.031700 0.073045 0.039874 0.004118 -0.027360 -0.129515 -0.042339 0.102782 0.190649 0.104132 -0.031349 -0.018110 -0.184897 0.261023 0.049993 0.083000 -0.004030 0.005894 0.099870 -0.040274 0.041711 -0.221653 -0.055055 0.006769 0.045495 -0.133999 -0.008097 -0.085240 -0.261439 -0.053675 -0.022623 -0.067990 -0.042862 0.225683 -0.068267 -0.006329 0.007592 -0.057866 -0.098994 -0.085751 -0.121823 -0.082870 -0.009298 -0.044843 0.086120 -0.098018 -0.132963 0.061187 0.168807 0.071934 0.079613 0.014101 0.069005 -0.082044 -0.197571 0.044555 -0.136092 0.072448 0.209828 0.100773 0.136966 -0.120992 0.127436 -0.016608 -0.079304 0.067114 -0.075616 -0.073386 -0.083310 0.012911 0.160272 0.019878 -0.085705 0.052886 0.110871 -0.115948 0.039433 -0.015067 -0.047237 -0.145995 0.019527 0.058779 0.145814 0.030668 -0.042084 0.066679 0.000615 0.016458 0.037039 0.083999 -0.157756 -0.076909 -0.017212 0.158756 0.025856 -0.134296 -0.034306 0.010050 0.040459 0.050844 0.168874 -0.144581
172 -0.156716 -0.209197 0.112448 0.023288 0.045357 -0.077484 0.042561 0.195322 0.218005 0.092434 0.089900 0.151658 0.017259 0.181130 -0.076167 -0.063789 0.123636 -0.050110 0.000056 0.061089 0.126220 0.012560 0.013771 0.123363 -0.071247 0.045349 -0.030828 0.077142 0.041056 0.004050 -0.026551 -0.126295 -0.047311 0.106511 0.191503 0.106704 -0.029599 -0.013116 -0.185397 0.262816 0.045039 0.087892 -0.004041 0.004707 0.099860 -0.038957 0.035777 -0.223960 -0.057916 0.009464 0.045251 -0.136247 -0.002332 -0.083935 -0.266521 -0.053419 -0.028137 -0.071178 -0.048953 0.222645 -0.075427 -0.010259 0.007446 -0.056889 -0.106206 -0.088014 -0.119412 -0.079112 -0.007695 -0.043711 0.085883 -0.098292 -0.139467 0.067290 0.170899 0.077593 0.089002 0.009101 0.067783 -0.083091 -0.206107 0.046038 -0.143608 0.077545 0.213887 0.104098 0.139436 -0.123819 0.132493 -0.022047 -0.081783 0.067560 -0.078582 -0.070150 -0.081989 0.011147 0.154905 0.023187 -0.086241 0.057570 0.114545 -0.118407 0.039276 -0.017332 -0.049085 -0.143831 0.025506 0.060133 0.150514 0.037582 -0.040296 0.069137 -0.003106 0.012443 0.039720 0.084792 -0.160728 -0.075181 -0.018223 0.159171 0.026729 -0.135016 -0.035321 0.014049 0.039894 0.051216 0.172118 -0.152551
45 -0.149019 -0.208551 0.110445 0.026238 0.043473 -0.073471 0.042531 0.192811 0.217226 0.087206 0.083696 0.148926 0.021041 0.178755 -0.071397 -0.059996 0.123719 -0.048102 0.000151 0.059712 0.124788 0.010759 0.016718 0.121723 -0.067062 0.048685 -0.033991 0.070893 0.040321 0.007958 -0.026451 -0.123788 -0.048718 0.102112 0.189730 0.105794 -0.033879 -0.014789 -0.183333 0.253471 0.045671 0.083116 -0.002290 0.003093 0.093638 -0.046994 0.041478 -0.213086 -0.054203 0.009991 0.045003 -0.133719 -0.009102 -0.079671 -0.255932 -0.055424 -0.021916 -0.067718 -0.047864 0.222461 -0.071678 -0.007481 0.006197 -0.057623 -0.102420 -0.079127 -0.123105 -0.079435 -0.009667 -0.042908 0.091737 -0.093827 -0.134281 0.057001 0.171738 0.076001 0.085498 0.014246 0.071296 -0.074692 -0.198970 0.039185 -0.138668 0.075663 0.204213 0.100117 0.135118 -0.121075 0.125528 -0.021655 -0.078303 0.065668 -0.077133 -0.071568 -0.084243 0.018150 0.158052 0.020633 -0.083635 0.057724 0.104620 -0.119094 0.039980 -0.007956 -0.048944 -0.145459 0.023577 0.057812 0.144422 0.038637 -0.040836 0.067397 -0.002216 0.018381 0.040128 0.084493 -0.155500 -0.078501 -0.015398 0.161104 0.029020 -0.140139 -0.035486 0.009705 0.040642 0.054189 0.173274 -0.147315
207 -0.157769 -0.220341 0.116582 0.028526 0.040940 -0.077814 0.043072 0.188671 0.223676 0.089869 0.087742 0.156190 0.019132 0.187690 -0.071072 -0.056655 0.126923 -0.052780 -0.000336 0.054027 0.132819 0.014888 0.014291 0.131926 -0.065437 0.042845 -0.035983 0.071086 0.043968 0.003581 -0.032014 -0.128905 -0.041741 0.106061 0.199296 0.098833 -0.026187 -0.017607 -0.194006 0.263969 0.052330 0.087748 -0.002835 0.004289 0.105972 -0.044658 0.040704 -0.221229 -0.058891 0.005423 0.042132 -0.137533 -0.007111 -0.088228 -0.263390 -0.053906 -0.017946 -0.071640 -0.046791 0.230042 -0.074305 -0.004839 0.006962 -0.062917 -0.100381 -0.086091 -0.128671 -0.079939 -0.005421 -0.046483 0.094847 -0.106976 -0.134636 0.061137 0.176053 0.071618 0.080577 0.012460 0.066005 -0.085594 -0.206815 0.041374 -0.141475 0.072247 0.213441 0.099904 0.136181 -0.129518 0.132877 -0.019639 -0.076502 0.065438 -0.070576 -0.075826 -0.080440 0.020327 0.166791 0.021186 -0.093871 0.057143 0.112636 -0.122027 0.041871 -0.010446 -0.052689 -0.148391 0.015880 0.058655 0.148053 0.034104 -0.042951 0.066817 -0.001793 0.022656 0.043728 0.090672 -0.160974 -0.079680 -0.014547 0.165607 0.031139 -0.143955 -0.040684 0.006954 0.035529 0.049687 0.175496 -0.149243
3 -0.165679 -0.220151 0.123995 0.028585 0.044017 -0.077917 0.043114 0.199258 0.221258 0.090588 0.094565 0.151642 0.014108 0.184030 -0.076710 -0.065584 0.130856 -0.057177 0.002551 0.057259 0.129974 0.015734 0.013460 0.135535 -0.066827 0.048097 -0.031869 0.079894 0.046727 0.008156 -0.030965 -0.134337 -0.052127 0.110184 0.198731 0.104747 -0.029843 -0.014620 -0.194381 0.273604 0.051528 0.084600 -0.001700 0.008972 0.099710 -0.044360 0.043234 -0.233155 -0.064372 0.009693 0.049187 -0.141663 -0.009296 -0.083592 -0.274619 -0.058021 -0.027630 -0.069313 -0.051117 0.238269 -0.077988 -0.006099 0.004229 -0.057476 -0.106297 -0.089442 -0.125028 -0.082031 -0.007401 -0.051737 0.096172 -0.102403 -0.142305 0.069648 0.179319 0.073577 0.091026 0.011450 0.075902 -0.083901 -0.211369 0.047528 -0.146359 0.073868 0.219560 0.107831 0.140774 -0.127654 0.130869 -0.020632 -0.084296 0.070563 -0.079986 -0.075182 -0.090359 0.018543 0.160464 0.026660 -0.088256 0.055534 0.112673 -0.122376 0.041886 -0.014946 -0.050877 -0.145912 0.021326 0.058975 0.154169 0.032697 -0.040651 0.067703 0.000111 0.017381 0.043338 0.093856 -0.164911 -0.076436 -0.011383 0.167709 0.025341 -0.147459 -0.039478 0.008977 0.038810 0.055655 0.180819 -0.152414
14 -0.156527 -0.214367 0.119326 0.024243 0.043246 -0.073458 0.038132 0.190469 0.214010 0.089625 0.085325 0.150594 0.015961 0.180059 -0.071979 -0.058809 0.125156 -0.051953 0.003474 0.054505 0.129904 0.016907 0.014529 0.128530 -0.068333 0.049188 -0.028129 0.078148 0.037381 0.008166 -0.025816 -0.126079 -0.048215 0.105341 0.194111 0.102216 -0.032181 -0.016578 -0.188552 0.259631 0.045083 0.085135 -0.000515 0.007779 0.096500 -0.041823 0.040970 -0.218176 -0.057435 0.010403 0.042939 -0.134755 -0.007484 -0.079467 -0.260506 -0.055182 -0.027681 -0.063691 -0.049837 0.223440 -0.071542 -0.010107 0.007376 -0.062149 -0.104764 -0.080330 -0.121381 -0.084154 -0.008860 -0.048432 0.087214 -0.096011 -0.137117 0.066708 0.173655 0.074162 0.085130 0.012255 0.069727 -0.082620 -0.203462 0.042942 -0.136103 0.076725 0.206138 0.104684 0.134437 -0.124484 0.129803 -0.019752 -0.080500 0.065415 -0.076248 -0.074058 -0.086156 0.019330 0.155180 0.025729 -0.084481 0.054443 0.107455 -0.118374 0.042534 -0.010278 -0.053096 -0.142152 0.024749 0.060648 0.141488 0.033129 -0.044267 0.062175 -0.003234 0.018267 0.043840 0.086449 -0.159967 -0.077265 -0.015246 0.162082 0.026329 -0.140751 -0.036687 0.005964 0.042004 0.051424 0.170195 -0.147162
87 -0.153388 -0.205811 0.112854 0.027408 0.039854 -0.068373 0.036410 0.184182 0.213109 0.084401 0.085615 0.145340 0.019491 0.173852 -0.067079 -0.055492 0.115844 -0.050592 0.002953 0.053706 0.127254 0.009849 0.010794 0.121180 -0.066894 0.048439 -0.033235 0.072121 0.039788 0.000874 -0.023567 -0.124520 -0.045351 0.095954 0.189111 0.099948 -0.025429 -0.012426 -0.184788 0.253536 0.044357 0.080562 -0.006340 0.007222 0.098225 -0.040511 0.034137 -0.216150 -0.054398 0.003724 0.039260 -0.132630 -0.008418 -0.078186 -0.254959 -0.053461 -0.019653 -0.068869 -0.043668 0.219732 -0.066174 -0.005168 0.005321 -0.057746 -0.095761 -0.079566 -0.123818 -0.078174 -0.006740 -0.044748 0.089974 -0.098746 -0.128490 0.063302 0.167265 0.066765 0.084313 0.010224 0.067328 -0.075957 -0.199353 0.040651 -0.137728 0.073304 0.199815 0.099967 0.128820 -0.122407 0.125100 -0.015119 -0.077853 0.062016 -0.073887 -0.072871 -0.078502 0.015480 0.156733 0.020954 -0.088134 0.049203 0.109653 -0.116768 0.043310 -0.014008 -0.047690 -0.140713 0.018475 0.055052 0.143863 0.030146 -0.040866 0.062525 -0.002874 0.017041 0.039078 0.087551 -0.155612 -0.073587 -0.015601 0.155255 0.023459 -0.132137 -0.037365 0.008024 0.036793 0.051133 0.170216 -0.146730
