17 128
198 -0.165072 -0.223137 0.035184 0.046240 0.002103 0.056477 -0.011338 -0.069199 0.257300 0.030807 0.025962 0.161094 0.092556 0.156842 -0.047745 0.123119 0.001960 0.065780 0.107704 -0.002943 0.101769 0.062205 -0.208484 0.001394 -0.082057 0.074944 -0.094927 -0.007693 0.084360 -0.078010 0.029048 -0.030231 0.127337 0.059953 0.204436 -0.003174 0.135187 0.054469 -0.230127 0.015306 -0.153316 0.123948 0.034125 0.012744 0.108495 -0.124892 -0.169799 -0.151176 -0.125381 -0.126512 -0.116791 -0.192067 -0.028339 -0.076602 -0.150285 -0.063100 0.179285 -0.038009 -0.043366 0.144610 0.031301 0.030631 0.031684 -0.064448 -0.005859 -0.016841 -0.310789 0.088507 0.032444 -0.095521 0.117519 -0.211283 0.095433 0.066643 0.079290 -0.055323 0.171435 0.104138 -0.074330 0.038491 -0.251475 -0.083996 -0.225688 0.054737 0.032951 0.040593 0.079106 -0.235029 0.072786 0.085691 -0.137362 0.008882 -0.023196 -0.142682 0.062903 -0.030332 0.158055 0.014301 -0.112192 0.074669 0.108921 -0.048680 0.001274 -0.079958 0.069823 -0.200727 -0.094870 0.104855 0.113036 0.006653 0.058777 -0.152274 0.022432 0.053461 -0.025393 0.188073 -0.089815 -0.006081 -0.063971 0.192333 0.100522 0.040926 0.012757 -0.039204 -0.187327 -0.016541 0.145609 0.024081
87 -0.162089 -0.209975 0.043904 0.042260 0.004130 0.054237 -0.002760 -0.062018 0.249982 0.029716 0.034747 0.158549 0.085630 0.155454 -0.047985 0.127690 -0.007816 0.062243 0.099911 -0.015366 0.098266 0.057690 -0.201897 -0.004676 -0.086837 0.072074 -0.106777 -0.011395 0.076102 -0.076076 0.028689 -0.033141 0.131103 0.058952 0.197891 -0.004122 0.130051 0.055302 -0.222517 0.012347 -0.152117 0.119577 0.032076 0.014012 0.113137 -0.119938 -0.172304 -0.153309 -0.116040 -0.126386 -0.123058 -0.187271 -0.028001 -0.080634 -0.156053 -0.068597 0.171627 -0.048451 -0.041394 0.142473 0.043932 0.028410 0.039268 -0.062634 0.004957 -0.004306 -0.297981 0.079822 0.029879 -0.097055 0.113808 -0.207675 0.101979 0.064539 0.075262 -0.056930 0.168673 0.099006 -0.076882 0.036040 -0.248508 -0.084398 -0.215451 0.051646 0.011794 0.036532 0.075092 -0.226285 0.075834 0.084251 -0.130956 0.016144 -0.020833 -0.143394 0.060476 -0.038984 0.142419 0.014391 -0.104326 0.068969 0.106354 -0.045267 0.000866 -0.077064 0.077071 -0.189569 -0.083517 0.110010 0.113197 -0.004217 0.065362 -0.145781 0.015259 0.050471 -0.023034 0.174232 -0.088124 -0.006205 -0.067130 0.179628 0.095304 0.039159 0.010588 -0.043196 -0.174772 -0.012854 0.135819 0.032228
35 -0.171109 -0.227534 0.032903 0.048784 0.003299 0.055438 -0.002283 -0.071208 0.259235 0.030676 0.030845 0.168871 0.089243 0.160989 -0.051094 0.129970 0.007620 0.070733 0.107585 -0.004168 0.108675 0.063959 -0.211658 0.004027 -0.080672 0.074094 -0.099905 -0.004637 0.084209 -0.077586 0.027227 -0.033617 0.131006 0.058239 0.211448 -0.004692 0.133332 0.052207 -0.232284 0.008703 -0.161736 0.132724 0.041161 0.012061 0.106407 -0.133400 -0.175458 -0.152448 -0.131238 -0.133269 -0.118833 -0.202476 -0.029805 -0.082157 -0.149965 -0.068467 0.183598 -0.041034 -0.043466 0.142963 0.031220 0.033324 0.031791 -0.067551 -0.009960 -0.016164 -0.322805 0.088672 0.036849 -0.100068 0.115159 -0.217510 0.104900 0.066596 0.076895 -0.060458 0.174020 0.115944 -0.077185 0.040232 -0.259415 -0.094740 -0.227415 0.053765 0.030889 0.039572 0.088852 -0.240876 0.075335 0.092054 -0.141394 0.011843 -0.031040 -0.149175 0.057255 -0.037326 0.156339 0.017569 -0.111239 0.081798 0.115128 -0.048298 0.000218 -0.080722 0.079825 -0.211178 -0.096373 0.115369 0.119323 0.012376 0.067328 -0.162884 0.021335 0.052663 -0.026405 0.187578 -0.091038 -0.007656 -0.060684 0.192172 0.103426 0.036807 0.014760 -0.041072 -0.185003 -0.016812 0.140634 0.032161
133 -0.164565 -0.219275 0.041614 0.044602 0.003120 0.050381 0.002068 -0.060285 0.251164 0.031368 0.036754 0.158180 0.083326 0.163998 -0.050389 0.126701 -0.006052 0.061439 0.099672 -0.012611 0.097976 0.064847 -0.204948 -0.002363 -0.090855 0.074649 -0.104744 -0.015455 0.081512 -0.070951 0.014847 -0.033793 0.133147 0.062044 0.197426 -0.004131 0.126880 0.053467 -0.224477 0.010300 -0.150409 0.127316 0.042416 0.010085 0.104459 -0.124332 -0.175110 -0.152303 -0.126888 -0.126252 -0.115891 -0.190075 -0.022240 -0.080000 -0.151217 -0.065700 0.165271 -0.044924 -0.040281 0.141432 0.042950 0.030552 0.033310 -0.063055 -0.002075 -0.005708 -0.303654 0.080837 0.034718 -0.102785 0.106637 -0.207007 0.102901 0.066290 0.072688 -0.054481 0.161731 0.111568 -0.080945 0.036252 -0.250179 -0.086625 -0.217921 0.048930 0.013496 0.035808 0.082250 -0.227518 0.075771 0.087083 -0.134517 0.016696 -0.022120 -0.144756 0.054845 -0.042903 0.139207 0.015609 -0.102749 0.071689 0.111548 -0.046249 0.003177 -0.076376 0.082206 -0.195297 -0.087326 0.114064 0.111315 -0.003522 0.066738 -0.152422 0.017111 0.045123 -0.021715 0.169270 -0.084928 -0.001528 -0.061599 0.182785 0.101902 0.032226 0.011732 -0.043707 -0.173288 -0.013303 0.134128 0.043164
207 -0.169289 -0.228852 0.038352 0.046431 0.005768 0.051821 0.003684 -0.069671 0.261906 0.030388 0.031801 0.168897 0.089109 0.166126 -0.051535 0.133734 0.003609 0.066115 0.101558 -0.012104 0.105215 0.066577 -0.209384 0.001979 -0.085607 0.069001 -0.109079 -0.012842 0.087605 -0.077186 0.019777 -0.032469 0.138752 0.064297 0.209145 -0.010094 0.134895 0.053112 -0.233396 0.009859 -0.156649 0.132154 0.039368 0.011271 0.111864 -0.131750 -0.176745 -0.151566 -0.130254 -0.131357 -0.122005 -0.199430 -0.027133 -0.086544 -0.153680 -0.067927 0.181242 -0.046360 -0.043427 0.146248 0.034335 0.034234 0.035351 -0.067463 -0.003552 -0.011492 -0.316268 0.088606 0.037671 -0.101527 0.116201 -0.220213 0.105337 0.062816 0.076781 -0.056096 0.168223 0.113591 -0.082795 0.034367 -0.257606 -0.091879 -0.225298 0.051905 0.023305 0.034177 0.083908 -0.238050 0.081716 0.086641 -0.136713 0.015553 -0.022903 -0.146922 0.062164 -0.034210 0.156026 0.015345 -0.111806 0.082847 0.111172 -0.047498 -0.000258 -0.075327 0.079828 -0.208701 -0.094157 0.118486 0.117309 0.004643 0.069074 -0.158840 0.018274 0.056279 -0.023166 0.185726 -0.093722 -0.008059 -0.064266 0.197314 0.109576 0.031962 0.012000 -0.043344 -0.190989 -0.019956 0.141960 0.038167
154 -0.109110 -0.152045 0.112067 -0.026468 -0.025632 0.008727 0.086561 -0.015522 0.215001 0.055122 0.086735 0.147741 0.061249 0.246370 -0.070673 0.167973 -0.092872 0.025475 0.054233 -0.104109 0.032902 0.072081 -0.181166 -0.038094 -0.173230 0.069378 -0.193861 -0.110871 -0.004906 -0.047101 -0.030880 -0.051980 0.217835 0.111850 0.145433 -0.016138 0.119738 -0.002189 -0.169392 0.000866 -0.102425 0.074763 0.042373 -0.032007 0.181778 -0.113008 -0.173082 -0.210779 -0.079167 -0.113558 -0.172498 -0.111627 0.018081 -0.135211 -0.222745 -0.143713 0.116981 -0.116795 -0.077500 0.171772 0.145152 -0.029317 0.133578 -0.047945 0.101624 0.071624 -0.182674 0.058319 -0.024142 -0.133024 0.128907 -0.193006 0.141837 0.056461 0.060245 -0.042846 0.153490 0.038378 -0.164326 -0.000058 -0.243253 -0.065323 -0.167047 -0.038965 -0.138328 -0.012550 0.039761 -0.196261 0.064413 0.050419 -0.063946 0.063903 0.055222 -0.114394 0.057836 -0.116304 0.030650 0.007754 -0.024807 0.050216 0.102603 -0.004827 -0.044497 -0.065308 0.140826 -0.082702 0.035400 0.150809 0.072963 -0.111091 0.128568 -0.066338 0.014557 0.027372 -0.011198 0.122707 -0.002098 0.030796 -0.124679 0.190291 0.156728 0.017820 -0.002979 -0.054859 -0.134209 0.032322 0.066642 0.148326
135 -0.151450 -0.206504 0.074038 0.016362 -0.011564 0.033808 0.043135 -0.042940 0.254967 0.041389 0.064080 0.168987 0.079514 0.212990 -0.063134 0.151578 -0.041167 0.046953 0.083587 -0.056084 0.072275 0.070366 -0.203143 -0.018046 -0.129168 0.071892 -0.152398 -0.057290 0.046861 -0.067109 -0.000458 -0.047246 0.182965 0.088957 0.189275 -0.007353 0.129552 0.029328 -0.214252 0.011463 -0.138123 0.110422 0.041089 -0.007063 0.149033 -0.125674 -0.180770 -0.192447 -0.110680 -0.129144 -0.148361 -0.169515 -0.009417 -0.113429 -0.199048 -0.106792 0.158445 -0.080389 -0.057674 0.168188 0.091776 0.007432 0.083681 -0.060542 0.045329 0.024363 -0.269665 0.073827 0.008134 -0.121124 0.123476 -0.214745 0.126029 0.063446 0.072582 -0.050413 0.169944 0.085897 -0.121832 0.020460 -0.260028 -0.080123 -0.208276 0.014398 -0.047885 0.017062 0.070777 -0.227800 0.076389 0.077113 -0.113965 0.041325 0.007771 -0.140216 0.059139 -0.077590 0.106784 0.011299 -0.072912 0.068697 0.113364 -0.027304 -0.021873 -0.077671 0.113954 -0.162011 -0.037446 0.138823 0.103450 -0.051651 0.096325 -0.119795 0.019557 0.041163 -0.023354 0.159126 -0.056135 0.008710 -0.096985 0.198390 0.131742 0.031433 0.009575 -0.047337 -0.167583 0.003641 0.111501 0.089791
15 -0.119244 -0.157917 0.086136 -0.007515 -0.014483 0.026024 0.054678 -0.031911 0.203376 0.040602 0.066700 0.138296 0.060943 0.199712 -0.057739 0.137925 -0.063790 0.031756 0.062048 -0.071970 0.051682 0.064014 -0.168988 -0.026124 -0.136603 0.065074 -0.153617 -0.072259 0.018700 -0.053504 -0.012903 -0.037122 0.176313 0.087330 0.148252 -0.011274 0.108462 0.014420 -0.164381 0.006922 -0.109697 0.080454 0.037785 -0.015851 0.146993 -0.098930 -0.159543 -0.177477 -0.082588 -0.110327 -0.144565 -0.122590 0.003760 -0.104693 -0.186831 -0.111975 0.117053 -0.091111 -0.060553 0.150725 0.106852 -0.007131 0.095773 -0.051516 0.066555 0.047381 -0.197211 0.057241 -0.005184 -0.108319 0.114587 -0.178982 0.118634 0.047476 0.057391 -0.042718 0.146703 0.051094 -0.127069 0.008593 -0.219256 -0.061172 -0.161610 -0.012247 -0.086275 0.001632 0.044657 -0.188316 0.059759 0.058267 -0.074606 0.047230 0.031649 -0.116403 0.048611 -0.081882 0.059774 0.014864 -0.043344 0.052031 0.096746 -0.014077 -0.032657 -0.061891 0.112442 -0.106502 0.002447 0.125868 0.077574 -0.075542 0.098454 -0.082026 0.011146 0.027324 -0.016326 0.130446 -0.024671 0.019857 -0.100966 0.172425 0.127871 0.020312 0.006701 -0.041305 -0.137119 0.016227 0.083131 0.104342
84 -0.153664 -0.197708 0.067617 0.026416 -0.000735 0.044945 0.021567 -0.051799 0.243636 0.039789 0.054620 0.160060 0.080706 0.185256 -0.058310 0.143002 -0.031110 0.055493 0.090813 -0.039634 0.077815 0.066063 -0.195895 -0.012468 -0.112933 0.070074 -0.134457 -0.037590 0.055615 -0.070130 0.010888 -0.033178 0.155736 0.076492 0.189132 -0.005443 0.127051 0.042212 -0.211898 0.007173 -0.142966 0.114762 0.039504 -0.002512 0.130838 -0.116838 -0.176275 -0.170799 -0.107887 -0.128119 -0.138590 -0.168168 -0.017774 -0.099663 -0.179881 -0.092009 0.159518 -0.065731 -0.055336 0.156085 0.072404 0.014568 0.064360 -0.057559 0.034212 0.020423 -0.272809 0.073778 0.015757 -0.112317 0.117956 -0.207462 0.110567 0.061469 0.070722 -0.052028 0.168625 0.085123 -0.105346 0.028164 -0.245286 -0.080277 -0.204628 0.027807 -0.028289 0.021706 0.068625 -0.223745 0.073188 0.075547 -0.116427 0.030495 0.002246 -0.141464 0.054610 -0.058233 0.109922 0.013691 -0.082980 0.069487 0.110543 -0.034767 -0.015535 -0.074281 0.095467 -0.163861 -0.054548 0.120815 0.105274 -0.033094 0.082830 -0.125051 0.019077 0.040860 -0.020927 0.167066 -0.061679 0.005596 -0.089934 0.189423 0.114062 0.036744 0.008661 -0.047621 -0.167525 -0.000222 0.123703 0.066574
55 -0.127914 -0.172628 0.085219 0.000888 -0.013129 0.023670 0.050088 -0.035792 0.227482 0.046966 0.067815 0.152265 0.062049 0.204693 -0.065380 0.145654 -0.059446 0.045905 0.074366 -0.067482 0.061109 0.065060 -0.187093 -0.029994 -0.132546 0.067187 -0.158747 -0.073039 0.026560 -0.054129 -0.001380 -0.040810 0.184704 0.090069 0.165681 -0.008332 0.114627 0.022060 -0.190091 0.001408 -0.118211 0.095482 0.043405 -0.014998 0.155826 -0.106749 -0.165399 -0.185039 -0.088579 -0.118923 -0.154987 -0.140045 0.004762 -0.110328 -0.197828 -0.109199 0.140780 -0.088051 -0.062873 0.153444 0.105846 -0.008432 0.098787 -0.054052 0.064205 0.045203 -0.220923 0.060065 -0.002082 -0.117340 0.117755 -0.189903 0.128397 0.059320 0.071881 -0.045099 0.159316 0.056243 -0.126031 0.020879 -0.234526 -0.071817 -0.175015 -0.004704 -0.081108 0.011073 0.052526 -0.201935 0.062246 0.061964 -0.082363 0.049399 0.028944 -0.130704 0.053539 -0.087081 0.066589 0.014213 -0.054022 0.053336 0.101625 -0.016936 -0.028635 -0.071435 0.110981 -0.116292 -0.011109 0.132926 0.093577 -0.065344 0.095582 -0.090474 0.017389 0.033787 -0.010085 0.136094 -0.033997 0.009492 -0.095421 0.173199 0.129064 0.031395 -0.000311 -0.052418 -0.144578 0.015342 0.088874 0.100330
28 -0.126408 -0.167815 0.090689 -0.004199 -0.015271 0.026749 0.056614 -0.031241 0.212900 0.043238 0.070948 0.148828 0.063820 0.211294 -0.065474 0.146013 -0.064326 0.033524 0.070503 -0.070473 0.046838 0.065941 -0.180088 -0.030334 -0.142815 0.070876 -0.162697 -0.074729 0.024352 -0.054259 -0.012288 -0.037753 0.186268 0.095409 0.155320 -0.014734 0.117794 0.016684 -0.175213 0.005793 -0.116183 0.082907 0.043177 -0.013883 0.147781 -0.110902 -0.168546 -0.186674 -0.091283 -0.116788 -0.154807 -0.130474 0.007196 -0.114614 -0.190440 -0.114334 0.124244 -0.094318 -0.067165 0.156677 0.109009 -0.011948 0.102788 -0.047867 0.068526 0.045194 -0.210812 0.064626 -0.010781 -0.120947 0.115225 -0.183199 0.121563 0.049631 0.060472 -0.042563 0.152433 0.059272 -0.133459 0.016686 -0.231659 -0.071097 -0.169988 -0.008441 -0.088167 0.008937 0.051090 -0.192279 0.062927 0.061219 -0.080257 0.048392 0.027352 -0.123893 0.057494 -0.090961 0.060798 0.013716 -0.046429 0.049072 0.095782 -0.010633 -0.034713 -0.067705 0.118504 -0.106652 0.004055 0.135746 0.082873 -0.078735 0.104772 -0.085723 0.011090 0.029699 -0.014491 0.130088 -0.031565 0.015891 -0.102838 0.175089 0.131927 0.023240 0.004413 -0.043013 -0.144024 0.012717 0.085386 0.110512
69 -0.123303 -0.164376 0.089892 -0.003894 -0.018303 0.021392 0.062037 -0.028821 0.217209 0.045461 0.072676 0.152258 0.059851 0.217188 -0.064384 0.153964 -0.070694 0.037308 0.069397 -0.080193 0.050722 0.069741 -0.177896 -0.035505 -0.146397 0.067625 -0.169016 -0.084559 0.014169 -0.050955 -0.014703 -0.040251 0.188665 0.099167 0.159527 -0.013216 0.117312 0.017370 -0.182125 0.007283 -0.110691 0.087169 0.045159 -0.020728 0.158745 -0.106633 -0.164123 -0.192953 -0.081247 -0.117440 -0.159542 -0.133628 0.003934 -0.117387 -0.204544 -0.114564 0.132623 -0.098611 -0.066855 0.157126 0.117297 -0.010428 0.106952 -0.053696 0.075105 0.051086 -0.210474 0.058417 -0.012155 -0.122755 0.122211 -0.190129 0.130130 0.051957 0.068089 -0.041332 0.156563 0.049277 -0.132349 0.009641 -0.231555 -0.064129 -0.166788 -0.009572 -0.099138 0.001322 0.045512 -0.191550 0.065099 0.055609 -0.080078 0.049888 0.034600 -0.121903 0.053708 -0.092673 0.053713 0.010181 -0.044822 0.048328 0.097904 -0.011687 -0.033905 -0.065894 0.121896 -0.105123 0.001021 0.133342 0.082501 -0.082120 0.106739 -0.082046 0.010986 0.033076 -0.013916 0.129977 -0.025390 0.015369 -0.108571 0.177836 0.134289 0.027710 0.004750 -0.046565 -0.134791 0.016290 0.084275 0.114930
105 -0.158606 -0.214917 0.050955 0.039460 0.002450 0.049049 0.009770 -0.057162 0.249499 0.030212 0.041896 0.162297 0.087504 0.171150 -0.054283 0.135000 -0.008226 0.057578 0.098913 -0.018565 0.095287 0.065839 -0.200255 -0.001783 -0.097421 0.074309 -0.112452 -0.017196 0.070851 -0.072462 0.015968 -0.038029 0.137377 0.065295 0.196472 -0.007955 0.127300 0.044243 -0.221655 0.011179 -0.146956 0.123909 0.040620 0.006582 0.110103 -0.124877 -0.171259 -0.160705 -0.120454 -0.129842 -0.123997 -0.181189 -0.021611 -0.085873 -0.160912 -0.075074 0.162754 -0.050116 -0.048667 0.149462 0.047023 0.025910 0.039660 -0.065128 0.009844 0.001510 -0.296856 0.077423 0.025660 -0.105172 0.116807 -0.211877 0.102857 0.063218 0.070007 -0.055653 0.167011 0.101374 -0.083685 0.032545 -0.251310 -0.088559 -0.214675 0.042020 0.006502 0.029299 0.079767 -0.232314 0.075708 0.082715 -0.131665 0.022349 -0.019403 -0.141056 0.058490 -0.044093 0.137694 0.017433 -0.100903 0.073827 0.111119 -0.041611 -0.001071 -0.070959 0.083443 -0.188856 -0.073307 0.111337 0.104620 -0.007948 0.076295 -0.143666 0.016323 0.047718 -0.024191 0.174990 -0.078692 -0.004621 -0.066473 0.187781 0.106413 0.030604 0.013512 -0.043237 -0.174099 -0.010128 0.131567 0.045473
178 -0.146456 -0.189550 0.071916 0.017671 -0.003342 0.036184 0.026464 -0.045993 0.247702 0.044154 0.062453 0.163662 0.076543 0.193605 -0.062073 0.143019 -0.043724 0.055414 0.090001 -0.050114 0.075871 0.067689 -0.202775 -0.022577 -0.119911 0.074264 -0.143833 -0.049734 0.043409 -0.063918 0.013668 -0.038165 0.174261 0.084486 0.181921 -0.005135 0.128995 0.038094 -0.210690 0.007629 -0.140640 0.112288 0.043346 -0.001862 0.149496 -0.117388 -0.175449 -0.183221 -0.100108 -0.123882 -0.150582 -0.165787 -0.007293 -0.107798 -0.192600 -0.094047 0.154153 -0.077056 -0.055605 0.158992 0.086259 0.003535 0.083745 -0.061126 0.042199 0.028930 -0.260381 0.066513 0.004603 -0.109426 0.122134 -0.205731 0.125029 0.057785 0.071508 -0.056095 0.172629 0.073312 -0.106506 0.026880 -0.253865 -0.079440 -0.196751 0.021063 -0.045772 0.024001 0.067851 -0.218572 0.069170 0.068205 -0.103737 0.039922 0.015324 -0.143207 0.063362 -0.076041 0.094498 0.014611 -0.077609 0.058372 0.104645 -0.033088 -0.017856 -0.076321 0.101070 -0.149460 -0.036494 0.128008 0.101222 -0.044400 0.094213 -0.117819 0.013507 0.043895 -0.020030 0.159971 -0.062018 0.001632 -0.094364 0.182777 0.118065 0.038971 0.007535 -0.054569 -0.160806 0.008080 0.112538 0.080658
124 -0.163146 -0.221691 0.027980 0.048993 0.007792 0.051825 0.000905 -0.065466 0.252878 0.022595 0.028982 0.158498 0.090929 0.152690 -0.050937 0.127132 0.010777 0.061962 0.101908 -0.005301 0.099886 0.064920 -0.203690 -0.000188 -0.082880 0.069965 -0.096859 -0.008208 0.087766 -0.076423 0.020298 -0.033064 0.128073 0.054515 0.198393 -0.007512 0.128514 0.048076 -0.225365 0.009605 -0.155106 0.129716 0.038497 0.010140 0.094944 -0.127870 -0.164663 -0.145770 -0.128839 -0.126619 -0.108200 -0.194281 -0.026038 -0.074631 -0.143194 -0.061233 0.173401 -0.034038 -0.036132 0.142084 0.026474 0.038680 0.023476 -0.060570 -0.009323 -0.015358 -0.310048 0.084955 0.037919 -0.098306 0.106713 -0.209953 0.100520 0.061727 0.068137 -0.053863 0.164671 0.115370 -0.069505 0.041264 -0.247185 -0.088356 -0.221980 0.056211 0.030329 0.037980 0.086460 -0.231619 0.075036 0.088525 -0.142226 0.012444 -0.030411 -0.137486 0.061810 -0.033121 0.154948 0.012567 -0.108145 0.078768 0.106832 -0.045424 0.004713 -0.068566 0.074916 -0.206830 -0.090266 0.108058 0.108248 0.010126 0.065216 -0.158849 0.020931 0.049299 -0.028171 0.179740 -0.094095 -0.009774 -0.051754 0.188079 0.101257 0.033049 0.014426 -0.035824 -0.184091 -0.020236 0.134762 0.031089
102 -0.144341 -0.188404 0.066857 0.017378 -0.003889 0.036408 0.015661 -0.045469 0.234880 0.035568 0.048857 0.151109 0.069333 0.172402 -0.059680 0.133093 -0.035463 0.057328 0.092785 -0.042079 0.075188 0.056888 -0.195046 -0.021689 -0.111004 0.065263 -0.124888 -0.040320 0.054190 -0.067513 0.018477 -0.032114 0.157213 0.078127 0.176337 -0.003766 0.119298 0.038798 -0.202396 0.004591 -0.139220 0.104697 0.034430 0.004652 0.135344 -0.115221 -0.170215 -0.168186 -0.101720 -0.118463 -0.141282 -0.164681 -0.013560 -0.096831 -0.177214 -0.086640 0.157509 -0.067252 -0.055357 0.149780 0.075694 0.005145 0.070784 -0.055727 0.030698 0.021043 -0.257031 0.071069 0.011479 -0.103675 0.116901 -0.199591 0.116443 0.058972 0.073530 -0.047860 0.164345 0.080324 -0.096650 0.026708 -0.240450 -0.071105 -0.195046 0.022485 -0.033416 0.020468 0.063647 -0.205414 0.071939 0.069009 -0.109179 0.034148 0.004171 -0.136489 0.058479 -0.066361 0.102058 0.013032 -0.078295 0.062430 0.097322 -0.030778 -0.011957 -0.077280 0.089562 -0.154080 -0.046843 0.123176 0.103420 -0.033797 0.082528 -0.122355 0.014277 0.045744 -0.016423 0.158740 -0.062989 0.001905 -0.085292 0.178700 0.109905 0.037282 0.009182 -0.048958 -0.160539 0.003512 0.115689 0.064547
213 -0.155541 -0.218034 0.028352 0.050425 0.005875 0.052273 0.004023 -0.064148 0.249915 0.024983 0.028003 0.158262 0.089336 0.154250 -0.044331 0.125396 0.007775 0.061033 0.094831 -0.002736 0.097343 0.066543 -0.197779 0.005207 -0.074630 0.069863 -0.095563 -0.006015 0.081346 -0.069373 0.021974 -0.036482 0.128697 0.053739 0.193249 -0.006440 0.125805 0.050836 -0.224318 0.006431 -0.150390 0.127779 0.033970 0.013186 0.093732 -0.129765 -0.167029 -0.140481 -0.128388 -0.121508 -0.110309 -0.191891 -0.026631 -0.074631 -0.142188 -0.060441 0.168152 -0.032529 -0.040879 0.133096 0.030231 0.036442 0.027795 -0.066772 -0.011809 -0.013148 -0.308497 0.085717 0.035832 -0.096885 0.110582 -0.208804 0.100956 0.065787 0.067720 -0.052414 0.165894 0.113314 -0.076122 0.038536 -0.247220 -0.092961 -0.221518 0.051809 0.030846 0.031399 0.082661 -0.230322 0.074780 0.082092 -0.141338 0.015136 -0.033269 -0.134736 0.056986 -0.028240 0.154457 0.014732 -0.105350 0.082877 0.103917 -0.042778 0.007257 -0.073802 0.077731 -0.208021 -0.093391 0.109223 0.106048 0.014040 0.067707 -0.157689 0.021683 0.052156 -0.029259 0.173520 -0.084803 -0.005518 -0.055242 0.183542 0.099018 0.032849 0.018109 -0.040653 -0.182160 -0.021899 0.130294 0.034449
