7 128
114 0.000077 -0.000943 -0.000101 -0.001752 -0.002615 -0.000651 -0.002630 0.000405 0.001651 -0.001336 0.000351 -0.000408 -0.000049 0.003798 0.002503 -0.001032 0.003544 0.003968 -0.000074 -0.001764 -0.002938 0.003118 -0.001735 0.003381 0.003608 0.001690 -0.000456 -0.000645 -0.003424 -0.003510 0.000036 -0.002478 0.002081 -0.001390 -0.000554 -0.003567 -0.002794 -0.000935 0.003189 -0.000526 0.000301 -0.003479 0.002768 -0.000343 0.000678 -0.002945 -0.003177 -0.003161 -0.001743 -0.002681 -0.001730 0.002603 -0.001741 0.002476 0.003172 0.002345 -0.001810 0.000818 -0.003012 0.002855 -0.002384 -0.000530 -0.000086 0.001244 -0.002700 0.003531 -0.003176 0.003528 -0.002636 0.001094 -0.003596 -0.002714 -0.002530 0.002343 -0.002192 0.000627 0.003210 -0.000602 -0.001947 -0.001322 0.001441 -0.001478 -0.000371 -0.002977 0.001025 -0.002028 0.003229 -0.001168 -0.001923 -0.001357 0.003520 -0.001665 -0.003452 0.000046 0.000927 0.001443 0.002861 0.000604 -0.000680 -0.003251 -0.001945 -0.003352 -0.003232 -0.003689 0.001772 0.002580 0.001278 0.000858 -0.001321 0.003422 0.001128 0.000483 -0.003176 -0.003530 -0.001422 0.002562 -0.003131 0.000285 0.002613 -0.001535 0.002438 -0.002403 0.003340 -0.001506 -0.003839 0.003577 0.002110 0.000113
0 -0.000789 -0.002088 0.000214 -0.003808 -0.003066 0.002310 -0.001473 -0.001142 -0.000902 0.000112 0.003283 0.000148 0.000643 0.000045 0.003331 -0.001596 0.002767 -0.000434 -0.002155 -0.001028 -0.002068 -0.002304 -0.000491 0.001068 -0.003500 -0.000536 0.001018 -0.002915 -0.003313 -0.003510 0.002088 0.002604 0.000541 -0.001900 0.003385 -0.001744 0.002895 0.001459 0.002409 -0.002639 -0.003127 -0.002251 -0.002234 0.002110 -0.000202 0.003266 -0.000695 -0.002159 -0.002918 0.001374 -0.002114 -0.000928 -0.002247 -0.003512 -0.001128 -0.000810 -0.003078 0.003564 -0.003951 0.001614 0.000476 -0.003117 0.000358 0.002441 0.000088 -0.002736 -0.000158 -0.003937 -0.002095 0.001200 -0.002925 0.002379 0.002964 0.002263 0.001840 -0.002064 -0.000130 -0.000367 -0.000690 -0.000443 0.002126 -0.001657 0.003757 0.003254 -0.003236 0.001508 -0.000141 -0.001500 0.001522 0.000391 -0.000625 0.003605 0.000748 -0.002108 -0.000925 0.001380 -0.002050 0.001182 0.003308 -0.001666 0.000981 -0.002054 0.003587 0.002730 -0.000238 0.001912 0.003677 0.003857 0.003843 0.002913 -0.003145 0.001393 0.000045 -0.002914 -0.003269 -0.003106 0.000819 -0.002260 -0.001646 0.000953 -0.003728 0.000388 -0.002699 -0.001531 -0.003131 0.002105 0.000113 0.002055
55 0.001076 -0.001452 0.001343 0.000040 -0.000365 -0.001832 0.003150 -0.001465 0.003273 0.002593 0.002071 0.002036 -0.002832 0.001928 -0.001787 -0.000280 -0.000528 0.002824 -0.000708 -0.000278 0.003221 0.000951 -0.001043 -0.000858 0.002015 -0.000326 -0.003430 -0.002753 -0.001456 0.002592 0.001659 -0.001509 0.003602 -0.000835 0.002259 0.001260 -0.003918 -0.000408 -0.002807 -0.002975 0.002525 0.003294 0.002892 -0.002516 0.002860 0.003428 0.002054 -0.000592 0.001047 -0.002041 -0.002223 0.000539 0.003554 0.000902 -0.003613 -0.000798 0.002113 0.000100 -0.000543 -0.002320 0.002280 -0.000704 0.002217 -0.001884 0.002366 0.003288 0.001814 -0.003210 0.001560 -0.001500 -0.001003 0.002018 0.003094 0.003191 0.003829 0.000510 0.001377 -0.003306 -0.002214 0.003537 0.001075 -0.002876 0.002070 -0.002924 -0.003314 0.001409 -0.000014 -0.003434 -0.003090 0.000787 0.003636 0.003783 0.002381 -0.003897 -0.003203 -0.001279 -0.002533 0.002712 0.000861 0.000088 0.002639 0.001782 -0.001201 -0.001358 0.000410 0.002650 0.000319 0.001198 0.003657 0.001368 -0.002951 0.003567 0.003267 -0.001671 0.003243 -0.002321 0.003256 -0.002406 0.003447 -0.003655 0.002857 0.001989 -0.002832 -0.003492 -0.000797 0.001196 -0.002280 0.002162
39 -0.003254 0.002614 0.000446 0.000298 0.003911 0.002721 0.000869 0.002400 -0.000598 -0.001273 -0.001393 -0.002625 0.000507 -0.001028 -0.000069 -0.001155 -0.003089 0.001561 -0.002828 0.002203 0.001853 0.001470 0.003754 0.002337 -0.003378 0.001524 -0.001787 0.003217 -0.002244 -0.000216 0.002170 -0.002407 -0.001002 -0.002200 0.002688 -0.000744 0.000743 0.001103 -0.001441 -0.002105 0.001800 0.000917 -0.000476 -0.003332 0.001084 0.003534 0.001097 0.002167 0.002676 0.002776 -0.001614 0.002071 0.000426 -0.002239 0.001007 0.002162 -0.002173 0.002331 0.003596 0.000324 -0.003229 0.003817 -0.002462 -0.001118 -0.001926 -0.000880 0.003634 0.003133 0.002812 -0.000267 0.003463 0.001689 -0.002037 0.001492 0.001501 0.002683 0.000256 0.001303 0.002872 -0.001732 0.003131 0.001454 -0.000599 -0.002534 0.001146 0.000747 0.003204 0.002815 -0.000233 0.002549 -0.001049 0.001900 0.003145 0.000443 -0.000813 0.001498 -0.000057 0.000636 -0.000246 0.002453 -0.002974 0.003511 -0.003220 -0.000930 0.003277 -0.001697 -0.001656 0.002773 -0.000788 -0.003690 -0.001054 0.003223 0.000160 -0.000109 -0.003210 -0.000536 -0.002016 -0.002623 -0.003738 -0.003657 0.000031 -0.000607 0.002907 -0.001020 0.003623 0.002321 0.000148 -0.002203
128 0.000285 0.000404 -0.002687 -0.001518 -0.001382 -0.003103 0.003662 0.001356 0.000663 -0.002178 -0.002187 -0.000073 -0.001392 -0.003454 -0.001374 0.000645 0.002061 0.003764 0.002153 -0.002003 -0.002893 0.000999 -0.002963 -0.001737 0.000093 0.001648 0.003377 -0.003269 -0.001240 -0.000071 -0.002969 -0.003269 0.001759 -0.003135 -0.003286 -0.003636 0.000937 0.000183 0.000670 -0.000936 -0.001984 -0.000994 0.003037 -0.001427 0.000161 0.000028 0.000702 -0.002943 -0.003441 -0.003716 -0.000817 -0.003528 -0.002211 -0.000079 -0.001542 0.002404 -0.003446 0.002229 -0.001002 0.000622 0.001989 0.002049 0.001009 0.001190 -0.001504 -0.001429 -0.002130 0.003877 0.000973 -0.002263 0.003358 0.001214 -0.003761 0.003580 0.000357 0.000774 0.000948 0.003015 -0.001815 -0.003275 -0.001297 -0.000022 0.001456 -0.003272 -0.000097 0.002291 -0.000586 -0.001593 -0.003039 -0.002068 -0.002046 -0.003356 0.002309 -0.001001 0.002485 0.001970 0.002943 0.001950 0.002696 0.001902 -0.000888 0.000046 0.003045 -0.002104 0.003491 0.000481 0.003088 -0.000104 -0.002364 0.000788 0.002929 0.001245 -0.002764 -0.003548 -0.002859 0.002136 -0.000074 0.000022 0.003876 0.000876 0.001479 -0.000564 0.001988 0.001596 -0.000052 0.003462 -0.002933 0.000662
121 0.003407 0.001546 -0.000793 0.001121 0.000444 0.001147 0.003192 -0.001580 0.001486 -0.000252 -0.000552 -0.000991 -0.001561 -0.003799 -0.003157 -0.003892 -0.002543 0.002090 0.000393 -0.003441 0.001905 0.003469 0.001018 0.001953 0.002315 -0.003881 0.002760 0.000210 0.002414 -0.003780 0.000783 0.002129 -0.002975 -0.001820 0.002254 -0.003090 -0.002827 -0.003397 -0.001021 -0.003538 0.000255 0.003636 0.000353 0.002644 -0.002148 -0.000310 0.000956 -0.002769 0.001905 -0.003111 0.002911 0.000783 -0.002391 0.001546 0.003412 0.002053 -0.002947 0.001333 -0.003095 0.002740 -0.001590 0.000948 -0.001424 0.000172 0.001529 -0.000463 0.002401 -0.002874 0.000381 0.001817 0.001163 -0.002012 0.002521 -0.002972 -0.001897 -0.001788 -0.003507 -0.002670 -0.000331 0.000678 0.001830 0.003493 -0.002721 0.003191 -0.001741 0.000339 0.002980 0.001778 -0.003670 0.001442 -0.000963 -0.001327 0.001561 0.000653 0.003541 -0.000795 0.001108 -0.000687 0.000388 -0.000050 0.003110 -0.001494 -0.002078 0.003327 0.000758 -0.003677 -0.001127 0.000466 0.003380 0.001068 0.003758 -0.001912 0.001928 -0.002666 -0.002598 -0.003007 -0.000301 -0.002768 -0.003222 -0.000125 -0.002396 0.002395 -0.000175 0.001376 -0.003443 -0.001349 0.001155 0.000611
130 -0.002520 -0.002235 0.002045 -0.001225 0.003482 0.000680 0.002853 -0.000120 -0.000734 -0.000777 0.001698 -0.000279 -0.000083 0.002697 -0.001030 0.003789 -0.000712 0.000701 0.002658 -0.000909 -0.003251 0.000753 -0.002461 -0.001178 -0.001833 0.001745 -0.003088 0.003133 0.001512 -0.001748 -0.001304 -0.003892 0.002775 0.000874 0.003428 0.002547 -0.001597 -0.002767 -0.002836 0.001481 -0.000340 0.000726 -0.001560 -0.000023 0.002505 -0.001924 -0.001471 -0.000217 -0.001742 -0.002796 0.002782 -0.002354 -0.001378 0.003506 0.001524 0.000609 -0.002254 -0.002624 0.000018 -0.003749 0.002173 0.003652 0.002768 -0.001350 -0.002937 -0.001906 0.003122 -0.002473 0.001292 -0.001593 -0.001070 0.002410 0.002583 -0.002040 0.003088 -0.002371 -0.000644 0.001974 0.000239 -0.001438 0.000583 -0.003007 0.002974 0.002734 -0.000234 0.000574 -0.000433 0.001319 0.001361 -0.001222 0.000720 0.003600 -0.001783 -0.001110 0.000156 -0.002070 -0.000579 -0.001242 -0.001769 0.002887 -0.002963 -0.002231 -0.000175 -0.001668 -0.001409 0.003805 0.001846 0.001271 0.001971 0.001584 -0.003033 -0.001148 -0.002448 0.003007 -0.000405 -0.002735 0.003715 -0.001213 -0.001184 -0.000091 0.000197 -0.002408 -0.000837 -0.003575 0.001585 -0.000057 -0.001074 0.000894
