4 128
44 0.002184 0.001201 -0.003795 -0.002117 0.000070 0.000346 -0.000804 0.000616 0.002400 0.001386 0.001308 0.001492 -0.002953 0.000884 0.001628 0.001889 -0.002149 -0.003786 -0.000541 0.001625 -0.000285 0.003524 -0.003175 0.002265 0.003508 -0.000192 0.001709 0.002824 0.002977 0.000550 0.000954 -0.003151 -0.003503 -0.002013 0.000811 -0.001070 -0.002290 0.003275 -0.000527 -0.003543 -0.003014 0.003666 -0.001236 -0.000183 0.000443 -0.000331 -0.002587 0.002479 -0.003623 -0.001461 -0.001847 0.000572 0.000368 -0.002599 0.002203 -0.001099 0.002699 -0.002947 0.002141 -0.003812 -0.001403 -0.001371 0.001580 -0.003765 0.001757 0.003593 -0.003720 0.003283 0.001252 0.002921 0.003628 -0.000546 0.000108 -0.002087 -0.000750 0.002102 -0.003052 -0.003754 0.002054 0.002711 -0.001167 -0.003206 -0.001464 -0.002627 -0.001421 -0.003522 0.002763 -0.000573 -0.003879 -0.000555 -0.002815 0.000247 -0.001613 -0.002883 -0.003803 0.002460 0.002433 0.002551 -0.003233 0.002430 0.001219 0.003474 0.000174 0.001306 0.000827 0.003483 0.003151 0.001140 -0.003067 0.000689 0.001871 -0.003556 -0.003866 0.001752 -0.000669 0.003112 -0.001794 -0.001701 0.000139 -0.001981 0.001989 -0.002436 -0.001067 0.003851 0.002988 -0.003179 -0.002547 -0.002796
101 -0.000919 -0.000895 -0.002749 0.002222 0.002500 -0.003184 -0.003069 -0.003097 0.001536 -0.003464 0.000240 0.000206 0.003686 0.002816 -0.001269 -0.002723 0.002668 0.003507 0.000567 0.001224 0.003884 0.000835 -0.000422 0.003245 -0.002569 0.003327 -0.000273 -0.002201 -0.001347 0.000886 -0.001312 0.001778 -0.003785 -0.000617 -0.003189 -0.001883 -0.001995 0.002329 0.002353 -0.000953 0.001220 0.002071 -0.000810 0.002993 0.002207 0.001165 -0.003313 -0.001451 -0.000055 0.000114 0.002498 0.002603 0.002657 -0.003758 0.003005 -0.003736 0.002048 0.003686 -0.000957 0.000103 -0.002232 0.001120 -0.002769 -0.001266 0.003603 -0.002914 -0.003374 -0.002432 -0.002779 0.002649 0.003129 -0.000180 -0.001225 -0.000180 0.000628 -0.001227 -0.002461 -0.003863 -0.000580 -0.001976 -0.000674 -0.003898 0.001445 0.002474 -0.000716 -0.001873 0.001946 0.002401 0.000024 0.001603 0.003060 -0.002881 -0.000478 0.003230 -0.000810 -0.001957 -0.001754 -0.001987 -0.001448 0.000893 -0.001553 0.000399 0.002549 0.003044 0.001943 -0.002584 -0.000215 0.003185 0.000592 -0.001499 -0.003410 0.003531 0.001625 0.001119 -0.000046 -0.001500 -0.003056 0.002584 0.002225 -0.001179 0.002266 -0.000912 -0.001674 -0.001981 0.002927 -0.001413 -0.001020 -0.002290
13 0.002685 0.000386 0.001361 -0.002729 -0.001155 -0.000687 0.001144 -0.002573 0.000924 0.002708 -0.002145 -0.002573 0.001709 -0.003287 0.001119 -0.000354 -0.003008 -0.001320 -0.001284 -0.002920 0.003673 -0.000141 -0.003608 0.000999 -0.003657 -0.000065 0.003632 0.002579 0.000931 0.000104 -0.002395 0.002099 -0.001076 -0.002197 0.000222 -0.002337 0.003598 0.003758 0.000575 -0.000782 0.002047 0.000296 0.000094 0.001770 0.000044 0.003286 0.001159 0.000816 -0.001940 0.002490 -0.002583 0.002706 0.002124 0.002554 -0.002714 -0.002514 -0.003192 -0.002599 0.002418 -0.002615 0.002428 0.000542 -0.002264 -0.002883 0.002628 -0.002779 -0.002409 -0.002435 0.003097 -0.003538 -0.002474 -0.001677 -0.000035 -0.002285 0.001388 -0.003376 -0.001181 -0.001597 -0.003001 -0.002750 0.000370 -0.002723 -0.000953 -0.001823 -0.003646 -0.000188 0.002400 -0.000640 -0.002857 0.003903 0.003865 -0.001643 -0.002672 -0.003281 0.000612 -0.002050 -0.000048 -0.003779 -0.002701 0.000161 0.002850 0.000251 -0.001035 0.000080 -0.001246 -0.003834 0.002931 -0.002254 -0.000248 -0.003794 0.003646 -0.000656 -0.000903 0.002934 -0.003157 -0.002801 -0.002979 0.003225 0.001295 -0.002126 0.000840 0.002747 0.003723 0.001546 -0.001376 0.002568 0.001796 0.002919
95 -0.000877 0.000743 0.003570 0.001347 0.003176 -0.001073 0.002513 0.003687 -0.000093 0.000632 0.002573 -0.002625 -0.002914 -0.001307 -0.003623 0.002014 0.000936 0.000657 0.003212 -0.003147 -0.001540 0.003542 0.001767 0.003437 -0.001411 -0.003093 -0.002822 0.001239 0.000732 -0.000848 -0.000551 0.002107 -0.003458 -0.001325 -0.000103 -0.000618 -0.001639 -0.001137 -0.003498 -0.000435 -0.001001 -0.000480 -0.000892 -0.002308 0.002844 -0.001656 0.000134 0.001744 0.003119 -0.000876 0.001375 0.000796 -0.002517 -0.000300 -0.002778 -0.002682 -0.003276 -0.000417 -0.001524 0.003760 -0.000348 -0.001809 -0.000382 -0.000350 -0.000320 -0.002033 0.000378 -0.000599 -0.001327 0.001836 -0.001143 0.003305 0.002234 0.002259 -0.003776 0.000410 0.003473 -0.001213 -0.001433 0.001296 -0.001837 0.002728 0.002720 -0.000038 0.002306 -0.000802 0.002982 -0.001470 -0.001500 -0.003055 -0.002760 -0.001910 -0.000421 0.003172 0.002174 0.001752 -0.003040 -0.000510 0.003525 0.001778 -0.001849 0.001155 -0.002058 0.002077 0.002089 0.000822 -0.002604 -0.001764 0.002146 0.001532 0.003406 0.001688 0.001855 0.002424 0.001911 -0.003383 -0.002726 -0.003851 -0.003637 0.001861 -0.000905 -0.001251 0.001611 -0.003882 -0.003197 0.002775 -0.003571 0.001848
