9 128
101 0.108956 -0.085767 -0.042894 -0.059237 0.060842 -0.054837 0.016862 -0.027750 0.053887 -0.023804 -0.033904 -0.036909 -0.059324 0.016780 -0.000748 -0.019451 -0.020876 0.005572 -0.000821 -0.102819 0.169963 0.118817 -0.079902 0.138335 -0.033917 -0.029106 -0.070747 0.065125 -0.071207 0.043252 -0.034338 0.005391 -0.068062 -0.136107 -0.005463 -0.086116 -0.116210 0.102244 0.005345 -0.075261 -0.009075 0.069596 -0.043232 0.048022 0.078949 0.136516 0.006887 -0.005886 -0.019990 -0.010082 -0.000125 0.108234 0.082703 0.031473 0.002765 -0.141823 -0.038354 0.024226 0.041901 -0.068697 -0.056048 0.023299 -0.066753 -0.092787 0.101826 0.009900 -0.114436 0.004971 0.027563 0.003729 -0.020227 0.074213 -0.006950 -0.090192 -0.002873 -0.059517 -0.030765 -0.188753 -0.085893 -0.011205 -0.040326 -0.085417 -0.009751 0.024087 -0.108030 -0.004529 0.131965 -0.036744 -0.109033 0.030337 0.071020 -0.072904 0.003890 -0.058849 -0.100308 -0.056966 -0.007034 -0.100853 0.018722 0.010060 -0.018869 0.083586 0.027216 -0.050897 0.065730 0.020832 0.113516 -0.032028 0.034520 -0.025591 0.031756 0.088828 0.034666 0.064647 -0.011568 -0.059454 -0.099288 0.068616 0.026891 -0.074569 0.082306 0.038486 -0.028835 -0.062896 -0.031296 0.066312 -0.053134 0.048516
44 0.081697 -0.059707 -0.032339 -0.046458 0.041566 -0.036438 0.013544 -0.016779 0.039869 -0.013286 -0.023778 -0.025576 -0.048546 0.010847 0.001938 -0.009989 -0.019264 -0.002423 -0.001673 -0.073563 0.119364 0.088386 -0.060668 0.099593 -0.019141 -0.023468 -0.049308 0.051683 -0.047647 0.031379 -0.022710 -0.000716 -0.049605 -0.100122 -0.001060 -0.061442 -0.085099 0.075179 0.001890 -0.057307 -0.010535 0.052398 -0.031585 0.032083 0.055588 0.097677 0.004616 -0.000703 -0.018475 -0.009084 -0.003730 0.076617 0.057854 0.023127 0.002166 -0.100348 -0.026767 0.011903 0.032925 -0.053413 -0.040215 0.014701 -0.044686 -0.069853 0.072610 0.013194 -0.083971 0.009114 0.023348 0.004033 -0.012735 0.053084 -0.003929 -0.067177 -0.003451 -0.039799 -0.023295 -0.136742 -0.059196 -0.003701 -0.029469 -0.062166 -0.009645 0.012677 -0.078661 -0.005029 0.096408 -0.029079 -0.082874 0.020039 0.045879 -0.049885 0.001453 -0.048168 -0.075442 -0.037483 -0.000992 -0.068491 0.010871 0.009005 -0.010789 0.063614 0.018354 -0.037632 0.046888 0.020885 0.085219 -0.024449 0.021916 -0.016749 0.027484 0.058113 0.019623 0.047754 -0.008833 -0.038968 -0.071396 0.046071 0.017896 -0.054810 0.060128 0.025842 -0.021183 -0.039324 -0.021281 0.045392 -0.040240 0.033722
117 0.047262 -0.036585 -0.015723 -0.026441 0.025600 -0.022713 0.004177 -0.011484 0.021590 -0.011203 -0.016705 -0.014842 -0.027566 0.001658 0.003290 -0.002401 -0.013104 0.003662 0.000019 -0.045028 0.068620 0.049601 -0.031956 0.052270 -0.012292 -0.012236 -0.029309 0.030135 -0.031024 0.015445 -0.013641 0.004566 -0.021896 -0.057637 -0.002564 -0.034184 -0.048881 0.042468 0.004027 -0.025909 -0.006963 0.026748 -0.020078 0.021218 0.032577 0.055560 0.003759 -0.002493 -0.006190 -0.004785 -0.002551 0.040719 0.035447 0.017635 0.000975 -0.054791 -0.019277 0.009793 0.014857 -0.029913 -0.023218 0.008604 -0.027060 -0.038377 0.040393 0.007424 -0.046372 0.004818 0.012966 0.000253 -0.010697 0.031788 -0.004705 -0.037215 -0.000538 -0.020101 -0.013824 -0.076733 -0.034090 -0.004512 -0.014227 -0.029226 -0.007326 0.011060 -0.041967 0.002879 0.050516 -0.017389 -0.040182 0.009887 0.030363 -0.027894 0.003410 -0.028429 -0.041580 -0.024236 0.001726 -0.042349 0.009999 0.001241 -0.006284 0.035141 0.008146 -0.024920 0.028346 0.010034 0.048733 -0.014613 0.017133 -0.010347 0.014505 0.036415 0.016188 0.028675 -0.007223 -0.020166 -0.041674 0.029456 0.008765 -0.031363 0.034562 0.014616 -0.013815 -0.024208 -0.014827 0.029271 -0.020101 0.021372
27 0.087074 -0.069262 -0.033467 -0.050528 0.045410 -0.038229 0.017091 -0.015750 0.037623 -0.015086 -0.028579 -0.030614 -0.049664 0.014111 -0.000108 -0.015574 -0.014654 -0.000754 -0.001147 -0.084100 0.131389 0.092592 -0.060278 0.108097 -0.024184 -0.028144 -0.058010 0.055085 -0.056171 0.034334 -0.025074 -0.000275 -0.051317 -0.107374 0.000171 -0.067381 -0.090162 0.076753 0.001234 -0.060303 -0.010507 0.052053 -0.033470 0.035573 0.060225 0.107716 0.011492 -0.004084 -0.015508 -0.005668 0.000653 0.084091 0.059364 0.030531 -0.000668 -0.109698 -0.032049 0.017204 0.036417 -0.051501 -0.044141 0.020991 -0.051662 -0.070870 0.076528 0.009974 -0.088491 0.008550 0.022775 0.000056 -0.021277 0.060276 -0.004036 -0.073584 -0.005004 -0.048783 -0.019523 -0.145251 -0.067776 -0.006423 -0.033367 -0.063866 -0.008839 0.020072 -0.086458 -0.001405 0.104153 -0.031405 -0.088193 0.023048 0.049625 -0.057647 0.004190 -0.047157 -0.079479 -0.042574 -0.003257 -0.079344 0.018191 0.004353 -0.017122 0.064594 0.022286 -0.045307 0.051229 0.019983 0.091094 -0.030264 0.023465 -0.016488 0.029059 0.065892 0.024444 0.047486 -0.007192 -0.046864 -0.074721 0.052504 0.016808 -0.057104 0.059604 0.033459 -0.019419 -0.049823 -0.028906 0.054454 -0.039204 0.039580
95 0.048158 -0.036985 -0.014153 -0.026204 0.028868 -0.023836 0.011396 -0.007109 0.022999 -0.008216 -0.012865 -0.019240 -0.031002 0.004790 -0.003300 -0.005297 -0.009622 0.001457 0.002512 -0.049602 0.072283 0.055876 -0.033561 0.063304 -0.015299 -0.017574 -0.034155 0.031445 -0.030365 0.018045 -0.015140 0.003607 -0.031764 -0.061710 -0.001027 -0.037976 -0.052418 0.043239 -0.002145 -0.033495 -0.005727 0.029501 -0.019677 0.017695 0.036912 0.058678 0.004862 -0.000202 -0.005846 -0.005320 0.000111 0.047651 0.032957 0.015752 -0.003027 -0.063912 -0.021413 0.008629 0.017607 -0.026856 -0.024189 0.008186 -0.028865 -0.041116 0.043353 0.003832 -0.049062 0.002889 0.012319 0.002200 -0.011661 0.036382 -0.000253 -0.037866 -0.005330 -0.025490 -0.009007 -0.083271 -0.039316 -0.002684 -0.019362 -0.033478 -0.002377 0.009519 -0.045491 -0.001729 0.060704 -0.019096 -0.050129 0.009762 0.027342 -0.032925 0.001516 -0.024752 -0.042086 -0.022769 -0.005124 -0.044445 0.012416 0.005630 -0.009364 0.038152 0.008962 -0.022101 0.030473 0.011391 0.048136 -0.017618 0.017267 -0.009142 0.019256 0.039492 0.016406 0.030686 -0.003202 -0.029188 -0.045504 0.025583 0.007216 -0.030850 0.034660 0.016376 -0.010457 -0.030732 -0.018446 0.032930 -0.026569 0.024466
55 0.084462 -0.065714 -0.029132 -0.046578 0.043649 -0.041080 0.017934 -0.020481 0.042936 -0.012769 -0.024139 -0.026070 -0.050194 0.012371 -0.001239 -0.012975 -0.018490 0.004547 -0.001903 -0.079080 0.129358 0.090054 -0.061332 0.101173 -0.021860 -0.024582 -0.056504 0.048293 -0.054380 0.034803 -0.023418 0.001407 -0.044885 -0.103499 0.000326 -0.062534 -0.090279 0.075518 -0.000238 -0.059152 -0.005183 0.054540 -0.029166 0.031901 0.060981 0.106159 0.009782 -0.004016 -0.014148 -0.009545 -0.004333 0.080543 0.064508 0.027770 -0.003812 -0.105374 -0.028422 0.015709 0.031968 -0.054650 -0.038359 0.016264 -0.046463 -0.071417 0.077100 0.012949 -0.082574 0.002273 0.024635 -0.000836 -0.018649 0.058107 -0.001376 -0.065077 0.001444 -0.043654 -0.020315 -0.143389 -0.066823 -0.003574 -0.028795 -0.064834 -0.006588 0.013453 -0.084761 -0.000437 0.098281 -0.033106 -0.085660 0.022884 0.055504 -0.049286 0.005619 -0.051175 -0.078601 -0.043242 -0.006311 -0.072323 0.015787 0.006802 -0.010151 0.064786 0.017580 -0.042190 0.048727 0.020071 0.086626 -0.025446 0.029373 -0.017167 0.023640 0.068183 0.028328 0.046589 -0.005617 -0.046186 -0.069789 0.048055 0.022361 -0.059513 0.063662 0.031971 -0.023433 -0.049329 -0.026486 0.052385 -0.041441 0.040539
13 0.081799 -0.060690 -0.027430 -0.046941 0.040927 -0.037905 0.015492 -0.020366 0.038662 -0.012040 -0.026708 -0.029310 -0.043749 0.006540 0.001566 -0.012268 -0.020146 0.000158 -0.002247 -0.077857 0.123149 0.084865 -0.060880 0.098235 -0.026267 -0.023457 -0.047057 0.051067 -0.049373 0.030480 -0.026257 0.004857 -0.047327 -0.099735 -0.001462 -0.062983 -0.078568 0.075722 0.002764 -0.054092 -0.005332 0.048799 -0.030549 0.034184 0.055228 0.100644 0.008447 -0.002352 -0.016237 -0.004927 -0.004540 0.078712 0.059799 0.027906 -0.002858 -0.101876 -0.032429 0.012129 0.033191 -0.052184 -0.036311 0.016359 -0.048298 -0.068705 0.073218 0.006423 -0.082262 0.002902 0.025000 -0.002791 -0.019319 0.051886 -0.004244 -0.067091 -0.001171 -0.045269 -0.021608 -0.134654 -0.064437 -0.009515 -0.028150 -0.061203 -0.009084 0.013712 -0.080758 -0.002086 0.095956 -0.028774 -0.081178 0.024481 0.052855 -0.052044 0.000470 -0.047980 -0.070919 -0.041645 -0.003853 -0.075032 0.011904 0.006849 -0.009614 0.060142 0.016562 -0.038787 0.044615 0.012960 0.084768 -0.027654 0.024269 -0.021225 0.029035 0.060768 0.022952 0.048774 -0.011594 -0.044423 -0.072314 0.050773 0.019017 -0.054856 0.058484 0.031036 -0.015822 -0.042284 -0.026113 0.051413 -0.035761 0.039625
113 0.053694 -0.038432 -0.015498 -0.027565 0.024094 -0.020431 0.012112 -0.008654 0.023044 -0.011999 -0.018655 -0.020800 -0.031812 0.006344 -0.001406 -0.009266 -0.011804 -0.001538 -0.001635 -0.050316 0.078229 0.055200 -0.040593 0.067318 -0.016931 -0.016205 -0.036523 0.032269 -0.036521 0.022341 -0.016311 0.000569 -0.031512 -0.067033 -0.003175 -0.038041 -0.057558 0.045584 0.003096 -0.036871 -0.002705 0.030882 -0.018612 0.018454 0.032990 0.067960 0.003157 -0.002572 -0.013564 -0.008477 0.000393 0.051649 0.035734 0.016923 0.002339 -0.064586 -0.022624 0.010332 0.019931 -0.031771 -0.026628 0.009923 -0.031437 -0.041402 0.044564 0.007050 -0.051962 0.006955 0.016122 0.003111 -0.007017 0.035786 -0.002826 -0.045731 -0.004731 -0.029526 -0.011288 -0.084901 -0.040277 -0.005014 -0.018108 -0.039807 -0.005583 0.008074 -0.049399 0.000110 0.062833 -0.018314 -0.054243 0.011986 0.029901 -0.031859 0.001474 -0.030722 -0.045133 -0.028389 -0.002722 -0.046748 0.007809 0.007045 -0.006926 0.040094 0.015229 -0.026407 0.028759 0.014266 0.052883 -0.019276 0.020319 -0.013135 0.018367 0.043590 0.013410 0.030773 -0.004590 -0.031228 -0.046711 0.032928 0.012485 -0.030904 0.041203 0.018200 -0.016708 -0.024841 -0.014507 0.031185 -0.027618 0.025549
5 0.066183 -0.053743 -0.027527 -0.036667 0.037593 -0.031923 0.015169 -0.017996 0.034957 -0.014844 -0.017392 -0.019194 -0.040729 0.008900 0.002528 -0.012823 -0.016444 -0.001835 -0.001998 -0.060025 0.100803 0.073560 -0.051041 0.084170 -0.017129 -0.022040 -0.042594 0.037012 -0.042775 0.024321 -0.021784 0.000998 -0.040228 -0.079387 0.000828 -0.052848 -0.067448 0.061135 0.000939 -0.043894 -0.002847 0.039652 -0.027413 0.026362 0.043227 0.080955 0.006365 -0.003368 -0.012059 -0.008275 -0.002586 0.065848 0.050985 0.017485 0.002261 -0.084242 -0.022043 0.010862 0.027890 -0.044877 -0.033527 0.010447 -0.035604 -0.051874 0.055529 0.008436 -0.062997 0.003825 0.019787 -0.001930 -0.015449 0.044894 -0.005969 -0.056698 -0.001197 -0.037182 -0.019251 -0.113213 -0.053787 -0.008750 -0.026049 -0.047947 -0.008303 0.012591 -0.065872 -0.005168 0.079525 -0.019963 -0.062994 0.016837 0.043337 -0.042699 0.004176 -0.036176 -0.061994 -0.031733 -0.006071 -0.061126 0.015348 0.009245 -0.013811 0.049895 0.012607 -0.035859 0.034437 0.013036 0.069059 -0.021061 0.017532 -0.015569 0.018689 0.051087 0.020884 0.035395 -0.009264 -0.030967 -0.053973 0.039779 0.017970 -0.042248 0.047646 0.024768 -0.015699 -0.039570 -0.023469 0.042199 -0.032991 0.034045
