4 128
114 0.000509 -0.001359 -0.002405 -0.003254 -0.003143 -0.000814 -0.004679 -0.000447 0.002930 -0.001923 0.001819 0.000214 0.000036 0.005372 0.004123 -0.001627 0.004673 0.003709 -0.000750 -0.001256 -0.002974 0.004468 -0.003453 0.005921 0.003801 0.002598 0.000507 -0.000992 -0.003930 -0.004489 0.000601 -0.002769 -0.000051 -0.003035 -0.000365 -0.005499 -0.003702 0.001353 0.004825 -0.002925 -0.001456 -0.002605 0.001742 0.001026 0.001385 -0.002311 -0.005770 -0.003557 -0.004269 -0.003119 -0.002569 0.003634 -0.001759 -0.000305 0.005049 0.000956 -0.001231 0.001749 -0.003881 0.002246 -0.003801 -0.001742 -0.000200 0.000283 -0.001338 0.003830 -0.006160 0.003648 -0.003880 0.003515 -0.002525 -0.002775 -0.002445 0.002315 -0.002220 0.000652 0.001654 -0.003293 -0.001679 -0.001135 0.001509 -0.004403 0.000335 -0.002794 -0.000424 -0.003850 0.005222 -0.001243 -0.003225 -0.001214 0.003436 -0.001719 -0.004527 -0.000698 -0.000895 0.002500 0.003235 0.001430 -0.001569 -0.002964 -0.001878 -0.002878 -0.001832 -0.002006 0.002781 0.004026 0.003645 0.003308 -0.001628 0.004484 0.000313 0.000381 -0.004737 -0.003767 -0.002839 0.002986 -0.004978 -0.000161 0.003133 -0.002488 0.003087 -0.003852 0.002198 -0.000976 -0.003186 0.002900 0.001190 -0.001123
0 -0.000224 -0.002847 -0.003272 -0.006008 -0.003797 0.001966 -0.004647 -0.002635 0.001051 -0.000893 0.005597 0.001104 0.000967 0.002526 0.005715 -0.002676 0.004642 -0.000621 -0.003198 -0.000252 -0.001921 -0.000374 -0.003049 0.004975 -0.003484 0.000941 0.002396 -0.003677 -0.004244 -0.004978 0.002943 0.002376 -0.002732 -0.004400 0.003653 -0.004692 0.001517 0.004976 0.004966 -0.006325 -0.005706 -0.000878 -0.003849 0.004340 0.000981 0.004427 -0.004662 -0.002890 -0.006694 0.000777 -0.003284 0.000689 -0.002151 -0.007908 0.001692 -0.003107 -0.002191 0.005252 -0.005420 0.000741 -0.001661 -0.004949 0.000080 0.001024 0.002329 -0.002541 -0.004667 -0.004127 -0.004120 0.004913 -0.001305 0.002404 0.003200 0.002307 0.001965 -0.002183 -0.002552 -0.004577 -0.000376 -0.000239 0.002276 -0.006246 0.005038 0.003783 -0.005564 -0.001182 0.002860 -0.001563 -0.000342 0.000723 -0.000559 0.003565 -0.000789 -0.003139 -0.003714 0.002828 -0.001733 0.002341 0.002054 -0.001246 0.001072 -0.001390 0.005904 0.005469 0.001317 0.003974 0.007254 0.007771 0.003638 0.004495 -0.004700 0.001528 -0.002081 -0.003299 -0.005409 -0.002743 -0.001954 -0.002882 -0.000800 -0.000507 -0.002774 -0.001730 -0.004626 -0.000972 -0.002126 0.001100 -0.001315 0.000227
44 0.002976 0.000212 -0.008407 -0.005110 -0.000901 -0.000096 -0.004882 -0.001296 0.005096 0.000132 0.004374 0.002797 -0.002699 0.004252 0.004796 0.000567 0.000226 -0.003994 -0.001919 0.002641 -0.000164 0.006252 -0.006678 0.007431 0.003764 0.001782 0.003461 0.001935 0.001778 -0.001400 0.002119 -0.003747 -0.007678 -0.005375 0.001280 -0.004966 -0.004295 0.007868 0.002750 -0.008499 -0.006398 0.005560 -0.003246 0.002612 0.002065 0.001146 -0.007842 0.001528 -0.008684 -0.002422 -0.003499 0.002716 0.000501 -0.008240 0.005977 -0.003991 0.003884 -0.000873 0.000269 -0.005109 -0.004217 -0.003719 0.001348 -0.005750 0.004620 0.004113 -0.009651 0.003208 -0.001295 0.007775 0.005767 -0.000545 0.000407 -0.002014 -0.000539 0.002042 -0.006207 -0.009339 0.002476 0.003061 -0.000918 -0.009356 0.000172 -0.002169 -0.004518 -0.007119 0.006818 -0.000728 -0.006528 -0.000156 -0.002683 0.000294 -0.003688 -0.004431 -0.007572 0.004421 0.002991 0.004209 -0.005004 0.003028 0.001337 0.004392 0.003049 0.004718 0.002917 0.006420 0.007957 0.006312 -0.003413 0.002862 -0.000123 -0.003453 -0.006830 0.001203 -0.003490 0.003710 -0.005404 -0.002628 0.001341 -0.004074 0.003409 -0.005308 -0.003542 0.004601 0.004333 -0.004468 -0.004466 -0.005223
101 -0.000518 -0.001452 -0.005224 0.000618 0.001978 -0.003423 -0.005278 -0.004162 0.002966 -0.004163 0.001902 0.000905 0.003873 0.004623 0.000434 -0.003472 0.003979 0.003419 -0.000187 0.001772 0.003974 0.002248 -0.002285 0.006018 -0.002511 0.004402 0.000670 -0.002731 -0.002029 -0.000170 -0.000684 0.001518 -0.006032 -0.002421 -0.002934 -0.003978 -0.003034 0.004808 0.004141 -0.003617 -0.000597 0.003078 -0.001917 0.004536 0.003082 0.002008 -0.006133 -0.001991 -0.002771 -0.000368 0.001628 0.003749 0.002736 -0.006835 0.005019 -0.005321 0.002669 0.004866 -0.001997 -0.000574 -0.003735 -0.000146 -0.002917 -0.002304 0.005167 -0.002711 -0.006547 -0.002554 -0.004176 0.005259 0.004271 -0.000150 -0.001041 -0.000125 0.000778 -0.001299 -0.004173 -0.006864 -0.000365 -0.001816 -0.000526 -0.007217 0.002370 0.002791 -0.002409 -0.003775 0.004101 0.002332 -0.001353 0.001844 0.003151 -0.002838 -0.001564 0.002417 -0.002830 -0.000929 -0.001506 -0.001117 -0.002364 0.001206 -0.001488 0.000871 0.004153 0.004924 0.003061 -0.001041 0.002372 0.006005 0.000462 -0.000340 -0.004548 0.003637 0.000079 0.000811 -0.001579 -0.001239 -0.004981 0.002098 0.002864 -0.002286 0.002993 -0.002430 -0.003046 -0.001615 0.003647 -0.002098 -0.002047 -0.003578
