4 128
114 0.000273 -0.001236 -0.001103 -0.002008 -0.001695 -0.004070 -0.002492 -0.001558 0.002562 -0.001433 -0.001442 -0.002700 0.002189 0.002870 0.004853 -0.003154 0.005336 0.004146 -0.000867 -0.003300 -0.003105 0.004045 -0.002287 0.007523 0.003947 0.003831 -0.000080 -0.000215 -0.003320 -0.005412 0.000250 0.000086 0.000953 -0.003622 -0.003916 -0.006565 -0.003817 0.001197 0.006478 0.000233 0.001383 -0.002103 0.004192 0.001130 0.001759 -0.003942 -0.005660 -0.003514 -0.001180 -0.001252 -0.001471 0.006817 -0.002033 0.001522 0.003078 0.001131 -0.001820 0.000558 -0.003388 0.004753 -0.004488 -0.002057 -0.000405 0.000665 0.000313 0.001583 -0.007339 0.002719 -0.003559 0.002628 -0.002223 -0.002943 -0.001764 0.001275 -0.002387 -0.000786 0.001489 -0.003926 -0.003583 -0.002464 0.002609 -0.002545 -0.000662 -0.002139 0.002111 -0.002179 0.005892 0.000970 -0.002266 -0.002224 0.006450 -0.005488 -0.005802 0.001578 -0.000340 0.001089 0.002483 -0.002908 -0.000713 -0.005001 -0.002957 -0.006026 -0.004594 -0.002024 0.002349 0.000134 0.004100 0.000386 -0.002694 0.003224 0.003304 0.003265 -0.005601 -0.004928 -0.003886 0.001745 -0.007809 0.001799 0.004632 -0.003062 0.005109 -0.004705 0.004349 -0.002468 -0.004026 0.005470 0.002762 -0.001083
78 -0.000125 -0.000370 -0.002081 -0.000313 0.003334 -0.008904 0.003393 -0.003741 0.001080 0.001340 -0.005053 -0.006369 0.004229 -0.004931 0.006990 -0.004786 0.004151 -0.002596 -0.002456 -0.003845 -0.003361 0.001305 0.000819 0.009906 0.002816 0.004375 -0.000402 0.001774 0.002179 -0.005455 0.002875 0.007527 -0.001541 -0.005608 -0.008765 -0.006099 -0.002885 0.004283 0.007640 0.003483 0.001838 0.005031 0.004079 0.002251 0.002201 -0.004010 -0.005293 0.000694 0.003649 0.004626 0.001194 0.010066 -0.002784 -0.003176 -0.002604 -0.001637 0.000953 -0.002282 -0.000585 0.006094 -0.005572 -0.005889 0.002032 -0.000459 0.007957 -0.004972 -0.009034 -0.002069 -0.001508 0.004608 0.005363 0.001720 0.004963 -0.003252 -0.000286 -0.002755 -0.005124 -0.007943 -0.002962 -0.000493 0.003749 0.000551 -0.000925 0.003497 0.005064 0.001882 0.005183 0.006349 0.000922 -0.005146 0.004708 -0.009032 -0.004589 0.004316 -0.004736 0.000280 -0.001727 -0.008891 0.002542 -0.004982 -0.002803 -0.007850 -0.004267 0.005331 0.000521 -0.005649 0.007870 -0.002648 -0.003830 0.000740 0.006875 0.007546 -0.007176 -0.005353 -0.006086 -0.002037 -0.010667 0.001444 0.003656 -0.002956 0.006131 -0.007349 0.000861 -0.002464 -0.000151 0.004592 0.000819 -0.003819
13 0.002823 0.000188 0.000822 -0.002974 -0.000633 -0.002772 0.001353 -0.003755 0.001494 0.002753 -0.003237 -0.004013 0.003001 -0.003906 0.002634 -0.001631 -0.001933 -0.001248 -0.001812 -0.003940 0.003472 0.000442 -0.003967 0.003546 -0.003375 0.001212 0.003822 0.002880 0.000995 -0.001136 -0.002193 0.003647 -0.001636 -0.003620 -0.001759 -0.004182 0.002950 0.005032 0.002568 -0.000327 0.002714 0.001144 0.001035 0.002604 0.000720 0.002669 -0.000323 0.000603 -0.001588 0.003356 -0.002506 0.005308 0.001884 0.002055 -0.002875 -0.003185 -0.003264 -0.002841 0.002170 -0.001439 0.001176 -0.000454 -0.002357 -0.003230 0.004448 -0.003919 -0.004920 -0.002946 0.002593 -0.002644 -0.001713 -0.001771 0.000542 -0.002912 0.001314 -0.004251 -0.002193 -0.003637 -0.004047 -0.003395 0.001166 -0.003352 -0.001117 -0.001362 -0.002991 -0.000211 0.004050 0.000619 -0.003102 0.003317 0.005688 -0.003911 -0.004124 -0.002450 -0.000209 -0.002235 -0.000279 -0.005918 -0.002665 -0.000966 0.002259 -0.001459 -0.001973 0.001043 -0.000922 -0.005255 0.004756 -0.002583 -0.001060 -0.003836 0.005047 0.001066 -0.002461 0.001986 -0.004711 -0.003336 -0.005814 0.004060 0.002535 -0.003109 0.002490 0.001316 0.004362 0.000913 -0.001591 0.003838 0.002208 0.002253
101 -0.000623 -0.001558 -0.004447 0.001678 0.003970 -0.009067 -0.002945 -0.006552 0.003278 -0.003734 -0.002658 -0.003638 0.007509 0.001608 0.002783 -0.006448 0.005943 0.004234 -0.000805 -0.001470 0.003605 0.002591 -0.001523 0.010482 -0.001912 0.007140 0.000218 -0.001641 -0.001485 -0.002502 -0.000921 0.005955 -0.005512 -0.004529 -0.008795 -0.007159 -0.004005 0.005911 0.008063 0.000153 0.003154 0.004335 0.001764 0.005503 0.004231 -0.000487 -0.007715 -0.002325 0.000773 0.002321 0.002839 0.009915 0.002209 -0.005293 0.003012 -0.005758 0.001944 0.003430 -0.001841 0.003366 -0.005875 -0.001431 -0.003309 -0.002250 0.008663 -0.006070 -0.010541 -0.003863 -0.004496 0.005293 0.005246 -0.000611 0.000049 -0.001767 0.000404 -0.003670 -0.005238 -0.009675 -0.003536 -0.003984 0.001463 -0.006032 0.001109 0.003784 0.000983 -0.002202 0.006676 0.005926 -0.000718 0.000170 0.008421 -0.009279 -0.004573 0.005729 -0.003010 -0.002592 -0.002385 -0.007870 -0.001548 -0.002199 -0.003351 -0.004296 0.000136 0.005696 0.003059 -0.006527 0.004698 0.002643 -0.001584 -0.001618 0.000053 0.008470 -0.002525 -0.001469 -0.004282 -0.002947 -0.011048 0.005116 0.005891 -0.003997 0.006996 -0.004893 0.000059 -0.003911 0.002436 0.002024 0.000124 -0.004252
